// Auto-generated model
#ifndef MY_MODEL_H
#define MY_MODEL_H

const char* myClassLabels[3] = {
  "cell",
  "face",
  "background"
};


const float myConv1_w[] = { -0.257374f, -0.133683f, 0.118749f, -0.276583f, 0.176497f, -0.248411f, 0.148425f, -0.210695f, 0.110384f, -0.020970f, 
0.020380f, 0.093050f, -0.109229f, -0.249615f, -0.064907f, 0.146633f, -0.206800f, -0.139961f, -0.248701f, 0.166109f, 
0.193639f, -0.020214f, -0.214762f, 0.147444f, -0.058021f, -0.246782f, -0.244472f, 0.119223f, 0.271649f, 0.228923f, 
0.102336f, 0.061676f, -0.055031f, 0.121893f, -0.112592f, -0.010163f, -0.010039f, 0.113145f, 0.070964f, 0.254442f, 
-0.183821f, 0.046698f, 0.182946f, 0.212131f, 0.104906f, 0.089706f, -0.091006f, -0.069090f, -0.251023f, 0.243340f, 
-0.271413f, -0.262561f, 0.265363f, -0.123275f, 0.152279f, 0.038934f, 0.158044f, 0.188298f, 0.007866f, 0.319266f, 
0.042996f, 0.002716f, 0.180581f, 0.244829f, 0.246328f, 0.012029f, -0.140505f, -0.130705f, 0.317546f, 0.229238f, 
-0.093226f, 0.308775f, 0.005492f, -0.040188f, -0.206171f, 0.098130f, -0.043437f, 0.206618f, 0.116867f, -0.120806f, 
-0.030216f, 0.035172f, 0.128556f, 0.113704f, 0.023263f, 0.334574f, 0.204269f, 0.323939f, 0.251783f, 0.178242f, 
-0.145677f, 0.298868f, 0.098656f, 0.283933f, 0.190971f, 0.066728f, -0.085779f, 0.169811f, 0.082319f, -0.075299f, 
0.084221f, 0.317072f, 0.029584f, 0.286660f, 0.025257f, -0.053564f, 0.287188f, 0.119729f };

const float myConv1_b[] = { 0.028175f, -0.020643f, 0.026736f, -0.028470f };

const float myConv2_w[] = { -0.218859f, -0.012061f, 0.204510f, -0.202563f, 0.188246f, -0.247524f, -0.148504f, -0.081637f, -0.197986f, 0.163331f, 
-0.227048f, 0.225749f, -0.122514f, -0.050348f, -0.214881f, 0.163729f, -0.199051f, 0.087018f, -0.156257f, 0.064751f, 
-0.177482f, -0.004060f, 0.169589f, -0.026913f, -0.170770f, 0.136467f, 0.238518f, -0.220219f, -0.164735f, 0.058743f, 
-0.004361f, 0.148142f, 0.125565f, 0.237517f, 0.095786f, 0.087403f, -0.011222f, 0.001321f, 0.004285f, -0.099076f, 
-0.113078f, -0.069948f, 0.118171f, -0.108928f, 0.229936f, -0.201289f, 0.168852f, -0.067405f, -0.099253f, -0.234918f, 
0.129225f, -0.052553f, -0.094188f, 0.069031f, 0.219596f, -0.076339f, 0.081205f, 0.031940f, 0.182371f, -0.158645f, 
0.002798f, -0.066903f, 0.015451f, -0.192534f, -0.013439f, -0.177938f, 0.104086f, 0.126535f, 0.049109f, 0.066910f, 
-0.052098f, -0.147794f, 0.242679f, -0.124861f, 0.209903f, 0.173225f, -0.170323f, 0.238440f, 0.023293f, 0.230886f, 
0.275809f, 0.183741f, -0.162062f, -0.186453f, -0.219492f, -0.198193f, -0.091791f, -0.048821f, -0.199267f, -0.039893f, 
0.150960f, 0.126668f, -0.065600f, -0.179302f, 0.215504f, -0.120728f, 0.094771f, 0.048858f, -0.012036f, 0.108784f, 
-0.027979f, 0.100303f, 0.101943f, 0.124745f, -0.111780f, -0.190897f, -0.108187f, -0.262910f, -0.037630f, 0.248465f, 
0.143937f, -0.103582f, 0.169929f, 0.143054f, 0.084547f, 0.108980f, -0.027444f, 0.094251f, -0.040066f, 0.019543f, 
0.240518f, -0.114731f, 0.107941f, 0.185541f, -0.128891f, 0.082613f, 0.232902f, 0.032037f, 0.134669f, 0.213563f, 
-0.199526f, 0.030697f, -0.099207f, -0.198007f, -0.149936f, -0.222387f, -0.166161f, 0.225248f, -0.094900f, -0.114979f, 
-0.145327f, 0.162445f, 0.124387f, 0.139855f, -0.221446f, -0.210514f, -0.134722f, -0.176758f, 0.193939f, 0.090786f, 
0.204809f, 0.026791f, -0.163107f, -0.002923f, 0.140658f, -0.059204f, 0.074378f, -0.110417f, 0.055906f, 0.033738f, 
0.046699f, 0.141617f, 0.035017f, 0.027817f, -0.076765f, -0.114855f, 0.087972f, -0.110797f, 0.190139f, -0.053336f, 
-0.000191f, 0.117492f, 0.174555f, 0.100149f, -0.048199f, 0.212945f, -0.153248f, 0.022824f, 0.184384f, 0.141157f, 
0.081856f, -0.079940f, 0.183723f, -0.002389f, 0.156326f, -0.144517f, -0.185994f, -0.015835f, -0.222609f, -0.203168f, 
0.204864f, -0.003276f, -0.048616f, 0.040655f, -0.098427f, 0.077412f, 0.048138f, -0.163700f, 0.222156f, 0.072042f, 
-0.208505f, -0.245051f, 0.198590f, -0.237385f, -0.181243f, 0.206768f, 0.199249f, -0.230285f, 0.071043f, 0.004974f, 
-0.181705f, 0.159725f, 0.203476f, -0.211445f, -0.136583f, -0.232359f, 0.036268f, 0.083621f, -0.108646f, -0.098125f, 
0.219980f, 0.221400f, -0.172568f, -0.025150f, 0.040194f, -0.017306f, 0.131450f, 0.082476f, -0.005962f, -0.023771f, 
-0.020501f, -0.149908f, 0.195432f, -0.052446f, -0.037556f, 0.106854f, -0.180568f, 0.052065f, 0.139785f, -0.225770f, 
-0.030090f, 0.031802f, -0.099669f, 0.203316f, -0.215365f, 0.094548f, 0.172005f, -0.153141f, 0.155931f, 0.026386f, 
0.129974f, -0.040256f, 0.137275f, 0.059743f, -0.162619f, -0.113146f, 0.186356f, 0.144964f, -0.073440f, -0.040524f, 
-0.084380f, -0.139631f, 0.127058f, 0.094109f, 0.026888f, 0.228298f, -0.073623f, 0.000835f, -0.011340f, -0.199399f, 
-0.014537f, 0.211310f, 0.117218f, -0.216257f, -0.149119f, -0.052966f, -0.146477f, 0.051675f, 0.233429f, -0.038995f, 
0.154365f, 0.175629f, 0.037955f, -0.226136f, -0.098682f, -0.216291f, 0.179077f, 0.213979f };

const float myConv2_b[] = { -0.024900f, 0.039432f, 0.049742f, 0.029021f, -0.069491f, 0.034235f, -0.045186f, -0.023131f };

const float myOutput_w[] = { 0.007793f, 0.000853f, 0.001705f, -0.019144f, -0.001767f, -0.009085f, -0.017506f, 0.000649f, -0.008131f, -0.011762f, -0.018485f, 0.007346f, -0.018995f, -0.031145f, -0.031029f, -0.030504f, -0.007800f, 0.008161f, 0.005284f, -0.012502f, 
0.002271f, -0.007800f, 0.007822f, -0.015403f, 0.003029f, -0.014974f, -0.014611f, -0.024008f, -0.016205f, -0.019054f, -0.000960f, 0.001475f, -0.023482f, -0.008339f, 0.014273f, -0.015537f, -0.020292f, -0.012248f, 0.000401f, -0.009665f, 
0.001590f, 0.017827f, 0.007893f, -0.001438f, -0.022912f, -0.026946f, -0.017134f, -0.005481f, -0.024087f, -0.000545f, 0.001814f, 0.006943f, -0.012500f, -0.022946f, -0.010338f, -0.005886f, -0.023656f, -0.033000f, -0.006117f, -0.003516f, 
-0.015698f, -0.001308f, 0.012066f, -0.021355f, -0.004672f, 0.001991f, -0.019711f, -0.025875f, 0.004402f, -0.002412f, -0.027686f, -0.010715f, -0.021948f, -0.025211f, -0.011066f, 0.001185f, 0.000055f, -0.010781f, -0.003140f, -0.010072f, 
-0.018524f, 0.003450f, -0.009091f, -0.013319f, 0.001433f, -0.028055f, 0.013521f, 0.003201f, -0.008702f, -0.011047f, -0.006292f, -0.018697f, 0.003657f, -0.012041f, -0.024635f, -0.000963f, -0.004701f, -0.008658f, -0.013833f, 0.007962f, 
-0.027589f, -0.005390f, -0.015488f, -0.027722f, -0.027562f, -0.004351f, -0.004953f, -0.011579f, -0.001813f, -0.004491f, 0.002940f, -0.014193f, -0.012582f, -0.024490f, -0.003741f, -0.005805f, -0.005832f, 0.010547f, 0.004426f, -0.014189f, 
-0.000378f, -0.021090f, 0.002272f, -0.015413f, -0.014605f, -0.014688f, -0.000187f, 0.001489f, -0.006878f, -0.004570f, -0.013916f, -0.039024f, -0.008920f, -0.008658f, 0.003678f, -0.003126f, -0.032943f, 0.008040f, -0.000521f, 0.000748f, 
-0.012358f, -0.011224f, -0.025807f, 0.005600f, -0.004618f, -0.012503f, -0.032408f, -0.008548f, -0.014617f, -0.015097f, -0.016981f, -0.010892f, -0.002266f, -0.034980f, -0.000648f, -0.020414f, -0.015274f, -0.006378f, -0.023117f, -0.043027f, 
-0.013951f, -0.032479f, -0.010667f, -0.008191f, 0.006453f, 0.003906f, -0.013412f, -0.002881f, -0.015792f, -0.012432f, -0.008933f, -0.009049f, -0.001458f, 0.000511f, 0.002822f, 0.004945f, 0.011835f, -0.007107f, 0.017370f, -0.002149f, 
-0.006945f, 0.014291f, -0.022974f, 0.004513f, 0.006300f, -0.019077f, -0.028776f, -0.010239f, -0.006782f, -0.017867f, -0.012573f, -0.030395f, 0.010015f, -0.027934f, -0.008714f, 0.007512f, 0.000650f, -0.005352f, -0.014136f, 0.026197f, 
0.001762f, -0.007459f, 0.005168f, -0.015790f, -0.014508f, -0.008792f, -0.021101f, 0.002200f, -0.010583f, -0.000169f, -0.002748f, -0.016746f, 0.004996f, 0.017641f, 0.015486f, -0.032275f, -0.008734f, -0.016526f, -0.019047f, -0.000689f, 
-0.009336f, -0.000389f, 0.001688f, -0.002175f, -0.024400f, -0.011960f, 0.008539f, -0.018500f, 0.019347f, -0.018005f, -0.018205f, 0.014026f, -0.001689f, -0.004046f, -0.008200f, 0.025193f, 0.020386f, 0.006304f, -0.010661f, 0.005666f, 
-0.002258f, 0.006586f, -0.002515f, -0.005357f, -0.013334f, 0.016141f, -0.005743f, -0.009483f, -0.012849f, -0.023095f, 0.003274f, 0.002675f, 0.017539f, -0.005087f, 0.005382f, -0.008943f, -0.016801f, -0.007501f, -0.019473f, 0.010744f, 
-0.004932f, 0.005801f, -0.002989f, 0.002050f, -0.000570f, -0.009945f, -0.012741f, -0.000674f, -0.003685f, 0.009820f, 0.019654f, 0.018227f, -0.012950f, -0.018787f, -0.036485f, -0.001180f, -0.008422f, -0.025189f, -0.005134f, 0.020800f, 
-0.000354f, 0.021031f, 0.013918f, -0.011792f, 0.014234f, 0.004798f, 0.015448f, 0.003651f, -0.001455f, -0.020820f, 0.014438f, 0.004879f, 0.001636f, 0.002263f, -0.025147f, -0.024425f, 0.008198f, 0.013855f, -0.015974f, 0.012607f, 
0.026173f, -0.004426f, -0.015445f, -0.016060f, -0.012115f, -0.011756f, -0.020129f, -0.015959f, 0.021566f, -0.003627f, 0.017757f, 0.003375f, 0.019204f, 0.009356f, 0.011298f, 0.018117f, 0.000284f, 0.011876f, 0.009192f, -0.015273f, 
-0.010163f, -0.013637f, -0.003485f, 0.012278f, -0.003944f, 0.014297f, 0.010196f, -0.023930f, 0.004534f, -0.014049f, 0.004287f, -0.033623f, -0.004268f, -0.010174f, -0.012812f, 0.016422f, 0.010373f, 0.030070f, 0.021002f, -0.006690f, 
-0.006737f, 0.003855f, -0.001050f, 0.020049f, 0.009616f, 0.016775f, 0.007852f, 0.001315f, 0.005980f, 0.018360f, 0.004661f, 0.011014f, 0.002933f, -0.016062f, 0.004999f, 0.001052f, 0.002032f, -0.010924f, -0.002787f, -0.018275f, 
-0.020968f, -0.025571f, -0.019852f, -0.013191f, -0.004906f, 0.012498f, 0.011524f, 0.007926f, 0.021470f, 0.010718f, 0.022829f, 0.009302f, 0.025495f, 0.002378f, -0.003585f, -0.010728f, 0.015922f, 0.009852f, -0.004750f, -0.018821f, 
-0.009224f, 0.003975f, -0.021043f, -0.030849f, 0.020921f, -0.008634f, 0.010649f, -0.022082f, -0.019127f, -0.039890f, -0.023334f, -0.001278f, -0.018394f, 0.004870f, 0.021562f, 0.029100f, 0.037912f, 0.025364f, 0.042719f, 0.036182f, 
0.001921f, 0.017326f, 0.038668f, 0.002289f, -0.000241f, 0.016428f, -0.002859f, -0.001572f, -0.020471f, -0.000610f, -0.007561f, -0.003061f, 0.008705f, -0.013650f, 0.013428f, -0.002179f, -0.023050f, -0.022704f, -0.051648f, -0.036303f, 
-0.027485f, -0.012084f, -0.012690f, 0.012482f, 0.012737f, 0.041501f, 0.040020f, 0.029431f, 0.030380f, 0.005405f, 0.003434f, 0.017447f, -0.020802f, -0.023059f, -0.000166f, -0.005434f, -0.020734f, 0.002852f, -0.004766f, 0.011181f, 
-0.016819f, -0.018960f, 0.007111f, -0.008136f, -0.002557f, -0.023245f, -0.026940f, -0.034389f, -0.013530f, -0.002582f, -0.007874f, -0.014485f, -0.002965f, 0.030417f, 0.012093f, 0.029290f, 0.035046f, 0.033472f, 0.028350f, -0.006745f, 
-0.026911f, 0.005290f, 0.003917f, -0.006556f, -0.012817f, -0.012591f, 0.004358f, -0.019341f, -0.036327f, 0.010961f, -0.020057f, 0.001035f, 0.016799f, 0.001130f, -0.018529f, -0.004253f, -0.045082f, -0.021587f, -0.004896f, -0.026299f, 
0.007617f, 0.018188f, 0.039809f, 0.042088f, 0.044209f, 0.018466f, 0.023711f, 0.010878f, -0.005876f, -0.011343f, -0.005735f, -0.018298f, 0.018118f, -0.000431f, -0.020983f, -0.007789f, -0.036002f, -0.022085f, -0.009907f, -0.018983f, 
-0.021938f, 0.012044f, 0.003658f, -0.014314f, -0.027664f, -0.035222f, -0.009962f, -0.014632f, -0.011926f, -0.004288f, 0.005917f, 0.010660f, 0.040086f, 0.019949f, 0.020432f, 0.020669f, 0.016211f, 0.002608f, 0.002802f, 0.003017f, 
0.027424f, 0.005778f, -0.000423f, -0.028393f, 0.001702f, -0.010941f, -0.002395f, 0.009476f, -0.008316f, -0.012648f, -0.015776f, -0.022339f, 0.011562f, -0.007567f, -0.016325f, -0.026698f, -0.003959f, 0.013366f, 0.023920f, 0.041591f, 
0.024488f, 0.007915f, 0.016436f, 0.028694f, 0.000292f, 0.000025f, -0.020462f, -0.011009f, 0.014319f, -0.005777f, -0.010534f, -0.015357f, 0.008798f, 0.002426f, 0.016101f, 0.007965f, -0.001757f, -0.023266f, -0.014468f, -0.003959f, 
-0.013701f, -0.001715f, 0.006797f, -0.002618f, -0.001977f, 0.021511f, 0.040243f, 0.024393f, 0.017677f, 0.026907f, 0.029798f, -0.005274f, 0.007483f, -0.004787f, 0.002097f, -0.005201f, -0.007178f, -0.006300f, -0.000998f, -0.000084f, 
-0.018693f, -0.012188f, -0.015885f, 0.008579f, 0.005734f, -0.023910f, 0.005521f, -0.009175f, 0.011172f, -0.024183f, -0.002640f, -0.008638f, 0.003054f, 0.013413f, 0.016816f, 0.030997f, 0.045795f, 0.033925f, 0.047352f, 0.005603f, 
0.028653f, 0.018458f, 0.008422f, -0.005439f, -0.022715f, -0.010675f, -0.018695f, -0.013343f, -0.002857f, -0.012766f, -0.021993f, -0.013623f, -0.030296f, -0.000013f, -0.022190f, -0.013915f, -0.013689f, 0.017295f, 0.002464f, 0.011660f, 
0.008100f, -0.003143f, 0.017530f, 0.027452f, 0.001406f, 0.017258f, 0.021814f, 0.033140f, 0.007101f, 0.023010f, -0.001948f, -0.007827f, 0.006909f, -0.007086f, -0.034361f, 0.000807f, -0.005204f, -0.035299f, -0.009380f, -0.018314f, 
-0.017146f, 0.001783f, -0.022278f, -0.031349f, 0.010652f, -0.009111f, -0.004343f, 0.006155f, -0.016244f, 0.017982f, -0.000119f, -0.002148f, 0.018616f, -0.000285f, 0.041768f, 0.014328f, 0.015501f, -0.001449f, 0.036076f, 0.010256f, 
0.004693f, -0.009567f, -0.006489f, 0.013109f, -0.023556f, 0.003716f, -0.010927f, -0.000074f, -0.024041f, 0.003365f, -0.005525f, 0.011940f, 0.003461f, 0.001027f, -0.002777f, 0.019718f, 0.001931f, 0.015914f, 0.015449f, 0.031677f, 
0.017168f, 0.011305f, 0.005249f, 0.043876f, 0.009425f, 0.010303f, 0.019972f, 0.028294f, 0.008808f, 0.001160f, -0.004882f, 0.008017f, -0.005329f, 0.006521f, 0.003946f, 0.012564f, -0.004468f, -0.021180f, -0.003256f, -0.005640f, 
-0.000147f, -0.012495f, 0.023485f, 0.001898f, 0.029437f, 0.011719f, 0.012131f, 0.042730f, 0.037504f, 0.033526f, 0.016013f, 0.026969f, 0.024085f, 0.016893f, 0.022622f, -0.004489f, -0.000415f, 0.005025f, -0.016324f, 0.012383f, 
0.004664f, 0.005543f, 0.008522f, 0.005312f, -0.005997f, -0.030277f, -0.017873f, 0.014490f, 0.003718f, 0.010126f, 0.020569f, 0.013806f, 0.018618f, -0.008210f, 0.022310f, 0.045273f, 0.023238f, 0.055910f, 0.040360f, 0.026210f, 
0.051860f, 0.040041f, 0.027654f, 0.021236f, 0.007329f, 0.011100f, 0.011261f, -0.005554f, -0.010908f, -0.006006f, -0.007365f, 0.005447f, 0.005953f, -0.020001f, -0.003587f, 0.009139f, -0.003463f, -0.022191f, -0.006559f, 0.020903f, 
0.014631f, 0.003710f, 0.004512f, 0.034904f, 0.038865f, 0.026999f, 0.021855f, 0.025478f, 0.042447f, 0.031280f, 0.038930f, 0.020826f, 0.019691f, 0.031852f, 0.018953f, 0.017640f, 0.018992f, -0.012522f, 0.007253f, 0.008255f, 
0.001674f, 0.026488f, -0.007671f, -0.004771f, -0.017339f, -0.018138f, 0.014615f, -0.010307f, 0.000254f, 0.037428f, 0.001789f, 0.020168f, 0.015302f, 0.024664f, 0.022775f, 0.021673f, 0.045738f, 0.036061f, 0.038002f, 0.042249f, 
0.026012f, 0.027691f, 0.010978f, 0.008989f, -0.000827f, 0.008233f, 0.021864f, 0.011634f, 0.014190f, 0.027877f, 0.024843f, -0.002957f, 0.000052f, -0.009714f, 0.011864f, 0.000531f, 0.006132f, 0.001861f, 0.036980f, 0.017888f, 
0.008874f, 0.033319f, 0.042848f, 0.039303f, 0.027189f, 0.042752f, 0.038730f, 0.037095f, 0.004421f, 0.005516f, -0.018801f, -0.006392f, 0.002238f, 0.020436f, -0.008351f, 0.003401f, 0.003275f, 0.025531f, 0.003769f, 0.013484f, 
-0.005748f, 0.011153f, 0.009651f, 0.008184f, 0.013588f, 0.008524f, 0.003609f, 0.023697f, -0.004933f, -0.009788f, -0.007478f, -0.004735f, -0.009698f, 0.002405f, -0.004468f, 0.019606f, 0.012328f, 0.014180f, 0.020404f, 0.007886f, 
-0.009846f, -0.003143f, -0.004696f, -0.006148f, 0.016505f, 0.003574f, -0.009113f, -0.009893f, 0.018350f, 0.002504f, 0.002797f, -0.019711f, 0.014957f, 0.007477f, 0.016126f, 0.005544f, -0.007876f, 0.002747f, -0.012283f, 0.011405f, 
-0.013954f, -0.014557f, -0.005494f, -0.008255f, 0.016917f, -0.006509f, 0.003246f, 0.005433f, -0.001794f, 0.007612f, 0.004198f, -0.007539f, 0.018026f, 0.017463f, 0.002155f, 0.011272f, -0.004375f, 0.006208f, 0.022626f, 0.006147f, 
-0.013637f, 0.006294f, 0.016537f, 0.014823f, 0.013960f, 0.006626f, -0.010294f, -0.017271f, 0.000558f, -0.001064f, 0.010421f, -0.006465f, -0.010946f, 0.023512f, -0.006812f, 0.009296f, 0.011106f, 0.000809f, -0.012294f, 0.002412f, 
0.017095f, -0.014967f, 0.002737f, 0.011911f, 0.013087f, -0.010166f, 0.016614f, 0.019341f, 0.008016f, -0.014670f, 0.013169f, 0.012762f, 0.010986f, 0.000376f, 0.010886f, 0.006909f, 0.009435f, 0.021316f, 0.020862f, 0.022182f, 
0.021848f, -0.006491f, 0.011539f, 0.015386f, -0.011237f, -0.011083f, 0.014813f, 0.005360f, -0.005607f, -0.005154f, 0.006617f, 0.013710f, 0.012562f, 0.006917f, 0.007600f, 0.023073f, 0.005139f, 0.002396f, -0.003939f, 0.013815f, 
-0.001555f, 0.001144f, -0.004736f, 0.018604f, 0.019314f, 0.009198f, -0.006934f, 0.021629f, 0.017099f, 0.025160f, 0.020347f, 0.025346f, 0.015819f, 0.008218f, -0.007657f, 0.009500f, 0.009683f, 0.001648f, 0.007800f, -0.009289f, 
-0.005347f, -0.015584f, -0.005578f, -0.014158f, -0.009974f, 0.014447f, -0.000245f, -0.018745f, -0.007136f, -0.013988f, 0.016264f, 0.017272f, 0.009027f, 0.005483f, -0.002703f, 0.004461f, -0.016489f, -0.002950f, -0.001171f, 0.003181f, 
0.016133f, 0.007270f, 0.011302f, -0.009455f, 0.018222f, -0.001357f, 0.012670f, -0.006604f, -0.010965f, 0.004411f, 0.004589f, 0.001828f, -0.002778f, -0.004852f, -0.005223f, 0.015149f, 0.001565f, 0.001236f, -0.009468f, 0.010690f, 
0.008937f, 0.000028f, 0.002469f, 0.019477f, 0.004323f, 0.011989f, -0.006658f, -0.006189f, 0.006608f, 0.026254f, 0.021986f, 0.027305f, 0.015843f, -0.000731f, 0.019272f, 0.026215f, -0.005942f, 0.004476f, 0.019620f, 0.023177f, 
0.003084f, 0.016602f, 0.018493f, 0.005370f, 0.005036f, 0.010363f, 0.027608f, -0.016318f, 0.000526f, 0.003712f, 0.005220f, -0.010810f, -0.008775f, -0.002258f, -0.010501f, 0.011528f, 0.003808f, 0.007834f, 0.025991f, 0.020055f, 
0.018800f, 0.028831f, 0.032212f, 0.008312f, -0.001123f, 0.013639f, 0.007718f, 0.012237f, -0.000984f, 0.025170f, -0.004957f, 0.000174f, 0.007018f, -0.004483f, 0.001104f, 0.011068f, 0.007536f, -0.007717f, 0.015292f, -0.013442f, 
-0.013178f, 0.007509f, 0.010758f, 0.010140f, 0.005088f, -0.001263f, 0.012961f, 0.020515f, -0.004375f, 0.019754f, -0.005964f, 0.017159f, -0.005551f, 0.009850f, 0.006164f, 0.007589f, -0.001942f, 0.014825f, 0.027365f, 0.007722f, 
-0.009176f, 0.004096f, 0.010170f, 0.003694f, 0.019616f, 0.010389f, -0.006820f, 0.006414f, -0.010701f, 0.021640f, 0.004753f, 0.005679f, 0.023507f, 0.032162f, 0.010210f, -0.002380f, -0.002806f, 0.009311f, 0.027279f, 0.027708f, 
0.006723f, 0.011151f, -0.005374f, -0.001034f, 0.015627f, 0.011715f, -0.014270f, -0.003357f, 0.013645f, 0.012566f, 0.014628f, 0.017634f, 0.010027f, -0.014329f, 0.017842f, 0.003669f, 0.006247f, 0.008038f, 0.002851f, 0.012338f, 
-0.014526f, -0.008969f, -0.011749f, 0.002037f, -0.003101f, -0.002755f, 0.017855f, 0.004977f, -0.007210f, -0.021706f, -0.008043f, -0.002062f, -0.015656f, 0.010309f, -0.005337f, -0.010165f, -0.001966f, 0.013102f, -0.016743f, 0.010636f, 
-0.002726f, -0.014538f, 0.008409f, 0.017170f, -0.006764f, 0.001135f, 0.000696f, -0.011880f, -0.000258f, -0.014135f, -0.004537f, 0.013536f, 0.007402f, 0.002912f, 0.017054f, 0.026931f, 0.005810f, 0.012302f, 0.014318f, 0.007203f, 
0.007425f, 0.020586f, 0.004146f, 0.011512f, -0.003504f, 0.017355f, -0.003531f, -0.016259f, 0.008402f, -0.014627f, -0.004140f, -0.005245f, -0.004198f, -0.002140f, 0.005886f, 0.013578f, 0.023231f, 0.008948f, -0.011829f, 0.007682f, 
0.001506f, 0.013061f, 0.000104f, 0.003393f, 0.008087f, 0.015226f, 0.014391f, 0.004538f, 0.003887f, -0.010318f, -0.019323f, -0.000775f, -0.008648f, -0.002582f, 0.016041f, 0.017932f, 0.020333f, 0.000312f, 0.009380f, -0.001970f, 
0.008006f, 0.015426f, 0.003584f, -0.004324f, -0.007492f, -0.005388f, 0.000200f, 0.016285f, -0.002165f, -0.001328f, 0.024868f, 0.018170f, -0.001996f, -0.011390f, 0.017846f, -0.000578f, -0.013616f, -0.002543f, -0.024457f, 0.007860f, 
-0.012473f, -0.006272f, 0.007287f, 0.021901f, 0.019744f, 0.003523f, 0.006066f, 0.004244f, 0.003985f, 0.007044f, -0.000852f, -0.001898f, -0.004113f, -0.014893f, 0.009086f, -0.018173f, -0.013677f, 0.017928f, 0.003359f, 0.001711f, 
0.012820f, 0.009081f, 0.039316f, 0.011066f, 0.004762f, 0.010280f, -0.015136f, 0.008502f, -0.005205f, -0.013020f, 0.007083f, -0.001107f, -0.012932f, 0.005674f, 0.007309f, -0.004641f, 0.008941f, 0.000962f, 0.011010f, 0.020278f, 
0.021727f, 0.014152f, 0.011058f, 0.013119f, 0.008621f, -0.010002f, 0.004550f, 0.006794f, 0.024504f, 0.024338f, -0.001091f, 0.015936f, 0.016192f, -0.007929f, 0.015082f, -0.001009f, -0.005046f, 0.001400f, -0.014585f, -0.016411f, 
-0.009948f, -0.007719f, 0.001462f, 0.017722f, 0.016162f, -0.001742f, 0.015454f, 0.001241f, -0.018647f, -0.000267f, 0.015922f, -0.007107f, 0.018285f, 0.006147f, -0.006411f, -0.005262f, 0.012651f, 0.015562f, 0.007163f, -0.002283f, 
0.015291f, -0.007565f, -0.011416f, -0.031880f, -0.008394f, -0.010435f, -0.004778f, -0.019103f, 0.001237f, -0.004138f, -0.019981f, -0.001697f, 0.000434f, -0.005492f, -0.009997f, -0.010316f, -0.010647f, -0.004273f, 0.005781f, -0.011582f, 
-0.007295f, 0.023911f, 0.006449f, 0.013129f, -0.008066f, -0.005185f, -0.000399f, -0.000066f, 0.012180f, 0.010564f, 0.009285f, -0.004603f, -0.012592f, -0.001191f, 0.002765f, -0.009235f, -0.018567f, -0.015482f, -0.018292f, 0.007544f, 
0.010144f, 0.009295f, 0.015299f, 0.019682f, -0.001173f, 0.012922f, 0.013762f, -0.007897f, 0.005913f, -0.004598f, 0.008649f, 0.000978f, 0.002781f, 0.010079f, 0.008118f, -0.001781f, -0.005519f, 0.004155f, -0.011293f, -0.001777f, 
0.018854f, -0.011837f, -0.009458f, 0.006480f, -0.006334f, -0.016225f, 0.005030f, -0.008900f, -0.016425f, 0.001035f, 0.018255f, -0.004108f, 0.006055f, 0.007347f, 0.014185f, 0.000948f, -0.004604f, -0.001816f, 0.020063f, -0.020836f, 
0.025028f, 0.009755f, -0.006549f, 0.020021f, 0.009088f, -0.006162f, 0.010007f, 0.014785f, 0.001397f, -0.025098f, -0.013391f, -0.016704f, -0.002792f, 0.001717f, -0.022349f, 0.000221f, -0.013500f, -0.020563f, -0.007161f, 0.000527f, 
-0.001297f, -0.022822f, 0.005928f, 0.016017f, 0.025136f, 0.003839f, 0.018936f, 0.005985f, -0.014412f, -0.007665f, 0.010768f, 0.017995f, 0.003627f, 0.013089f, -0.014227f, 0.001726f, -0.001559f, -0.009434f, -0.026971f, -0.020708f, 
-0.004421f, 0.001144f, -0.026072f, -0.020477f, -0.014499f, 0.003963f, -0.007170f, -0.004441f, -0.000621f, -0.013954f, -0.000846f, 0.016221f, 0.012951f, 0.000944f, 0.008274f, 0.024306f, -0.004873f, 0.015979f, 0.012520f, 0.005271f, 
0.010887f, 0.005230f, 0.010603f, -0.000662f, -0.013902f, -0.020735f, 0.006403f, -0.013503f, -0.016968f, -0.002227f, -0.011268f, -0.015628f, -0.010851f, -0.000653f, -0.004578f, 0.018085f, -0.005912f, 0.007626f, 0.004942f, 0.019474f, 
-0.002353f, -0.003140f, 0.010927f, 0.014945f, -0.001240f, 0.013118f, 0.011704f, 0.013580f, 0.014633f, -0.010796f, 0.003451f, 0.017344f, -0.014973f, -0.004468f, -0.014037f, 0.008202f, -0.010863f, -0.012868f, -0.022775f, -0.029702f, 
0.010103f, -0.005062f, 0.006544f, 0.002807f, 0.009539f, -0.015725f, -0.018483f, -0.016457f, 0.024576f, 0.013479f, -0.008877f, 0.017125f, 0.023036f, 0.018417f, 0.016205f, -0.003494f, 0.004923f, -0.018009f, 0.010549f, -0.007335f, 
-0.004283f, -0.017667f, -0.012468f, 0.004332f, -0.021228f, -0.024459f, -0.008029f, -0.000682f, 0.007297f, -0.019065f, 0.004617f, 0.005110f, -0.002036f, 0.014928f, 0.011282f, -0.008447f, 0.001028f, 0.020299f, 0.013414f, 0.019412f, 
0.026164f, 0.023351f, -0.012225f, 0.006028f, 0.001545f, -0.000179f, -0.005969f, 0.005255f, -0.007068f, 0.015123f, -0.007882f, 0.008944f, -0.001025f, -0.005899f, -0.012108f, -0.015158f, -0.001713f, 0.004588f, -0.006797f, -0.007418f, 
0.012796f, -0.012536f, -0.011885f, -0.008654f, -0.011766f, -0.004042f, 0.028751f, 0.008091f, 0.003586f, 0.002667f, -0.002117f, -0.002388f, -0.007352f, 0.005173f, -0.016763f, -0.014299f, 0.002496f, 0.002120f, -0.000085f, -0.013891f, 
-0.022651f, -0.030485f, -0.012978f, 0.000748f, -0.000632f, 0.003214f, -0.013982f, -0.021885f, -0.003557f, 0.007807f, -0.011914f, -0.010168f, 0.014231f, -0.024717f, 0.009439f, 0.013161f, 0.015389f, -0.001830f, 0.022537f, -0.004835f, 
-0.003675f, -0.008779f, 0.010554f, -0.007188f, 0.016477f, -0.019391f, -0.025032f, -0.007644f, -0.004467f, -0.011708f, -0.018805f, -0.009247f, -0.030057f, -0.035118f, -0.032366f, -0.019564f, -0.016546f, -0.019434f, 0.003516f, 0.011177f, 
-0.003471f, 0.017870f, -0.007478f, 0.004099f, -0.003074f, 0.000302f, 0.018656f, 0.021507f, -0.007628f, 0.007281f, -0.003732f, -0.011496f, 0.009203f, -0.013660f, -0.006452f, -0.004457f, -0.030919f, -0.005789f, -0.029944f, -0.027539f, 
-0.019721f, -0.004031f, -0.026775f, -0.028197f, 0.003329f, -0.010374f, 0.012120f, -0.017109f, 0.004904f, 0.007971f, -0.016595f, 0.013284f, -0.014752f, -0.007446f, 0.010000f, 0.018580f, 0.007936f, -0.002007f, 0.009270f, -0.000695f, 
-0.002517f, -0.015132f, -0.008990f, -0.006514f, -0.009340f, -0.008851f, -0.026084f, -0.016794f, -0.025032f, 0.000772f, -0.000491f, -0.031930f, -0.005047f, -0.027529f, -0.022272f, 0.001234f, -0.012304f, -0.030348f, -0.030182f, -0.010953f, 
-0.008725f, 0.013094f, -0.007347f, 0.000123f, -0.010373f, -0.008568f, 0.025390f, 0.000859f, -0.014495f, 0.007886f, 0.007454f, 0.006111f, 0.017060f, 0.005995f, -0.002230f, 0.018036f, -0.006842f, 0.022852f, 0.007467f, -0.006213f, 
-0.008104f, 0.016167f, 0.009016f, -0.020965f, 0.005095f, 0.004656f, 0.005102f, 0.010252f, 0.018587f, -0.000434f, -0.001412f, 0.019176f, -0.010307f, 0.002631f, 0.023838f, 0.007487f, 0.009683f, -0.006462f, 0.028930f, 0.020522f, 
0.007428f, -0.008824f, -0.000864f, 0.010280f, -0.020022f, 0.009897f, -0.003011f, 0.010282f, 0.007731f, 0.006037f, 0.024981f, 0.000618f, -0.004403f, -0.003177f, 0.014934f, 0.012533f, 0.016781f, 0.008640f, 0.004442f, -0.001907f, 
0.007777f, 0.019781f, 0.010069f, 0.008337f, 0.001995f, -0.000653f, -0.000823f, 0.013088f, 0.004387f, -0.000276f, -0.012271f, 0.008962f, 0.021301f, 0.009559f, -0.010304f, 0.010218f, 0.013931f, -0.008142f, 0.018053f, 0.000339f, 
0.009383f, -0.008025f, -0.005961f, -0.010265f, -0.003854f, -0.007701f, 0.002331f, 0.021121f, 0.010307f, -0.011243f, 0.005700f, 0.011490f, -0.001200f, -0.004094f, 0.003835f, -0.000982f, 0.008936f, -0.013247f, -0.013074f, -0.001937f, 
0.009110f, 0.000900f, -0.008436f, -0.012580f, 0.025528f, 0.001881f, -0.000735f, 0.005007f, -0.002383f, -0.000236f, 0.003165f, 0.006149f, -0.011187f, 0.023370f, -0.022683f, 0.004907f, 0.007585f, 0.007910f, -0.002277f, -0.009033f, 
0.016099f, 0.003909f, -0.005192f, 0.003641f, 0.020782f, 0.017075f, -0.000478f, 0.025436f, 0.007570f, -0.008253f, 0.012834f, 0.012281f, 0.022385f, 0.016286f, 0.022694f, 0.011870f, 0.020368f, 0.006141f, 0.007571f, 0.003275f, 
0.005811f, 0.013294f, 0.022733f, -0.001314f, 0.000105f, 0.008738f, 0.024143f, 0.015723f, -0.001304f, -0.001303f, 0.015323f, 0.011771f, -0.006738f, -0.011789f, -0.012498f, 0.019820f, -0.008833f, -0.000956f, 0.007409f, 0.022825f, 
0.025983f, -0.011440f, -0.000013f, 0.016704f, 0.010967f, 0.015817f, 0.001586f, 0.002138f, -0.014744f, -0.001619f, 0.001805f, 0.019503f, -0.001886f, 0.012445f, 0.019668f, 0.004357f, -0.004168f, 0.017854f, -0.006098f, -0.001658f, 
-0.008126f, 0.030892f, 0.001994f, 0.015083f, 0.003874f, -0.005163f, -0.013003f, 0.004684f, 0.009808f, 0.006662f, 0.006859f, 0.016163f, 0.022735f, -0.000923f, 0.005865f, 0.017947f, -0.001304f, 0.008347f, 0.004096f, -0.007773f, 
0.000626f, -0.000008f, -0.017896f, -0.016380f, -0.018674f, -0.009624f, 0.017317f, 0.006044f, 0.006028f, 0.026220f, 0.010920f, 0.017001f, 0.010059f, 0.012905f, -0.010843f, 0.008991f, -0.010039f, 0.015340f, -0.004785f, 0.011346f, 
0.026224f, 0.020071f, 0.008101f, -0.006420f, 0.004525f, 0.020229f, -0.000364f, -0.009000f, 0.002397f, 0.011094f, 0.021349f, 0.000340f, 0.003190f, -0.001832f, 0.001177f, 0.001487f, 0.008514f, -0.020347f, -0.010839f, 0.001997f, 
-0.006283f, 0.012074f, -0.016873f, 0.010777f, 0.011422f, -0.001602f, 0.004330f, 0.007790f, -0.003801f, 0.008731f, 0.021692f, -0.002978f, 0.007462f, 0.001946f, -0.003986f, 0.002318f, 0.023583f, -0.010203f, -0.007947f, -0.005277f, 
0.002607f, 0.003612f, 0.020528f, -0.013234f, 0.007912f, 0.010239f, -0.002507f, -0.006034f, -0.003429f, 0.008427f, -0.011723f, -0.012810f, 0.006954f, -0.012662f, 0.003823f, 0.000408f, 0.011920f, 0.019721f, -0.003022f, 0.002008f, 
0.016133f, 0.012076f, -0.003241f, 0.015858f, 0.008048f, -0.005433f, -0.001702f, -0.001878f, 0.004109f, 0.018945f, 0.023839f, 0.029505f, 0.017593f, 0.008841f, -0.004481f, -0.016597f, 0.022674f, 0.010955f, -0.006530f, -0.020536f, 
-0.007096f, -0.015120f, 0.007347f, -0.012618f, 0.013205f, 0.030802f, 0.016256f, 0.019608f, -0.007689f, 0.017440f, 0.013096f, -0.011622f, -0.014680f, -0.007228f, 0.010892f, -0.013222f, -0.004227f, 0.002682f, -0.000134f, 0.001724f, 
0.003780f, 0.006502f, -0.001611f, -0.012671f, 0.009561f, 0.010290f, 0.005701f, 0.001261f, -0.003386f, -0.014157f, 0.009010f, 0.008965f, -0.009133f, 0.007973f, 0.015217f, 0.009229f, 0.000809f, -0.004870f, 0.004148f, 0.010137f, 
-0.020671f, -0.007927f, 0.009134f, -0.003449f, 0.002317f, 0.000994f, -0.014337f, -0.014482f, 0.013204f, -0.009480f, 0.012517f, -0.011502f, 0.019397f, -0.010634f, 0.015351f, 0.010275f, 0.003944f, 0.008789f, -0.016562f, 0.009063f, 
0.014635f, -0.005446f, 0.020585f, 0.014877f, 0.026866f, 0.003036f, 0.012487f, 0.009690f, -0.007946f, -0.020834f, -0.008348f, -0.027042f, -0.017233f, -0.021811f, -0.006995f, 0.006652f, -0.010871f, -0.010568f, -0.012369f, 0.010765f, 
0.012985f, 0.017908f, 0.001788f, -0.011532f, 0.005610f, -0.002629f, 0.027879f, 0.008050f, 0.000019f, 0.005080f, 0.017505f, 0.021874f, 0.005794f, 0.017244f, 0.022068f, -0.001179f, -0.021816f, -0.001835f, -0.025770f, -0.018628f, 
-0.025694f, -0.023039f, 0.006805f, -0.007743f, 0.016919f, -0.011946f, -0.001235f, -0.001317f, -0.001185f, -0.008158f, -0.003578f, 0.000555f, 0.006387f, -0.003714f, 0.011366f, -0.000358f, -0.018169f, 0.001717f, 0.000702f, 0.005334f, 
0.021096f, 0.014230f, 0.007518f, 0.006554f, 0.008660f, 0.001580f, -0.012703f, -0.035948f, -0.003253f, -0.020414f, -0.008906f, -0.010904f, -0.014309f, -0.000272f, -0.001494f, 0.013188f, 0.021366f, 0.014421f, -0.011043f, -0.009102f, 
0.016838f, 0.002923f, -0.001059f, 0.016619f, -0.007084f, 0.008241f, 0.014482f, 0.006707f, 0.017906f, -0.000315f, 0.016230f, 0.015766f, 0.008365f, 0.010929f, 0.004416f, 0.003935f, -0.023750f, -0.034412f, -0.002082f, 0.006737f, 
-0.018477f, -0.006631f, 0.007600f, -0.005878f, 0.007942f, -0.001400f, 0.003028f, 0.000196f, 0.009839f, -0.002553f, -0.007414f, -0.004559f, 0.014795f, -0.012729f, 0.008616f, 0.008915f, -0.000459f, 0.018844f, 0.009336f, -0.000913f, 
0.033786f, -0.007132f, -0.010883f, -0.014295f, 0.003076f, -0.016628f, -0.015612f, 0.003594f, 0.010878f, -0.025017f, 0.004707f, -0.012384f, -0.014056f, -0.008627f, -0.010270f, -0.001462f, 0.017109f, 0.014984f, 0.006207f, -0.006824f, 
0.013169f, 0.018484f, 0.014821f, 0.008324f, -0.007808f, -0.013577f, 0.002394f, 0.026020f, 0.006541f, 0.006028f, -0.007062f, -0.009780f, 0.011414f, -0.032835f, -0.023093f, -0.006371f, -0.009621f, -0.003351f, -0.015440f, 0.011704f, 
0.007810f, 0.004537f, 0.006712f, -0.001840f, 0.016465f, 0.003486f, 0.003280f, 0.017537f, 0.018137f, 0.010081f, -0.005023f, 0.014730f, -0.007940f, 0.016810f, 0.016616f, -0.001201f, 0.029731f, 0.021383f, 0.010668f, -0.011747f, 
-0.008843f, -0.019617f, -0.014460f, -0.015578f, -0.008025f, -0.016213f, -0.017604f, -0.016702f, 0.000940f, 0.002884f, 0.004148f, 0.016316f, 0.005944f, -0.005510f, 0.013530f, 0.015464f, -0.018714f, 0.010844f, -0.012636f, 0.017955f, 
-0.005960f, -0.003232f, -0.004347f, -0.008173f, 0.015833f, 0.014289f, -0.001252f, 0.014346f, -0.004727f, 0.006029f, 0.002277f, -0.024372f, -0.030142f, -0.002898f, -0.003702f, -0.013664f, -0.005047f, 0.011246f, -0.000372f, -0.006684f, 
-0.007826f, -0.003332f, 0.010957f, -0.002126f, 0.004446f, 0.004797f, 0.018720f, 0.004978f, 0.021031f, 0.010805f, -0.006434f, -0.016296f, 0.010009f, 0.011959f, -0.008321f, 0.004959f, -0.005305f, 0.000911f, -0.010572f, -0.029979f, 
-0.010690f, -0.038773f, -0.005979f, 0.007799f, -0.001170f, -0.017143f, -0.009553f, -0.001447f, -0.005514f, 0.010729f, -0.000586f, 0.003896f, 0.017600f, 0.014538f, 0.012347f, 0.018873f, 0.015479f, 0.005819f, -0.001411f, 0.017287f, 
0.012206f, -0.000217f, 0.024239f, -0.002897f, 0.008046f, -0.037009f, -0.002915f, 0.008125f, -0.011564f, -0.000785f, -0.022148f, 0.004499f, -0.006726f, 0.001055f, 0.018769f, 0.003654f, -0.014670f, -0.002591f, -0.001621f, -0.004433f, 
0.009207f, 0.018055f, -0.009704f, 0.032998f, -0.003401f, -0.008536f, 0.014204f, 0.012138f, -0.000114f, 0.004743f, 0.003903f, 0.014662f, -0.023546f, 0.014045f, -0.005198f, -0.018781f, -0.013789f, -0.005269f, -0.021551f, -0.030434f, 
-0.017108f, -0.003624f, -0.014052f, 0.015446f, 0.004509f, 0.015263f, -0.008538f, 0.007851f, 0.005002f, 0.007780f, 0.030142f, -0.003381f, -0.009091f, 0.001798f, 0.025387f, -0.011157f, 0.007409f, 0.017419f, 0.014478f, -0.007284f, 
0.002467f, -0.009085f, -0.007815f, 0.001538f, -0.007672f, -0.030169f, -0.020432f, -0.028438f, -0.022500f, -0.015934f, -0.015507f, -0.003711f, 0.001628f, -0.003455f, -0.009080f, -0.010304f, 0.006023f, 0.011815f, -0.011834f, 0.007523f, 
-0.002299f, 0.031499f, 0.014286f, 0.017519f, -0.011561f, 0.015234f, -0.021786f, -0.018654f, 0.000254f, 0.000443f, -0.026874f, -0.023098f, -0.001401f, -0.015571f, -0.042429f, -0.030110f, -0.009554f, -0.010448f, -0.007751f, -0.008352f, 
-0.031680f, 0.007111f, 0.002460f, -0.005180f, -0.007394f, 0.034297f, 0.014865f, 0.017146f, 0.018385f, -0.007720f, 0.011648f, 0.022864f, -0.007261f, -0.015549f, 0.001678f, -0.006993f, -0.006417f, -0.009272f, -0.026154f, -0.010451f, 
-0.028291f, -0.012617f, -0.033805f, -0.039453f, -0.014197f, -0.019197f, -0.025954f, 0.003301f, 0.005869f, 0.003643f, -0.010361f, -0.012876f, 0.017328f, -0.014040f, 0.008945f, 0.004336f, -0.013005f, 0.006720f, 0.006781f, -0.002594f, 
0.010956f, -0.002236f, -0.010120f, -0.002672f, -0.011338f, -0.027815f, -0.018864f, -0.024309f, -0.029389f, -0.009759f, -0.032691f, -0.028481f, -0.045470f, -0.009242f, -0.008082f, -0.031915f, -0.019427f, -0.013481f, 0.002289f, -0.018913f, 
-0.013841f, -0.006285f, 0.008012f, -0.020002f, 0.018840f, 0.020171f, 0.009354f, -0.008151f, -0.001656f, 0.001310f, -0.019729f, 0.013739f, -0.025866f, -0.012920f, -0.012730f, -0.024790f, -0.040020f, -0.037243f, -0.029392f, -0.032460f, 
-0.021989f, -0.007919f, -0.030190f, -0.036992f, -0.002785f, 0.000329f, -0.019366f, 0.003727f, 0.014139f, 0.011140f, -0.003499f, -0.018482f, -0.009259f, 0.003217f, 0.011805f, 0.010264f, -0.009192f, 0.008366f, 0.008303f, -0.005347f, 
0.014154f, -0.002725f, -0.016483f, -0.001653f, -0.023433f, -0.031705f, -0.020100f, -0.032958f, -0.026375f, -0.007285f, -0.007627f, 0.000599f, -0.012457f, -0.006197f, 0.000445f, -0.011888f, -0.009640f, -0.017273f, 0.011934f, 0.008150f, 
-0.006281f, -0.017565f, 0.012642f, -0.000401f, 0.010140f, -0.028072f, -0.024820f, -0.007401f, -0.006431f, 0.001971f, -0.025472f, 0.005645f, 0.009819f, 0.011862f, 0.014404f, -0.002243f, -0.016346f, -0.014329f, -0.019511f, -0.002506f, 
-0.000231f, 0.015044f, -0.017566f, -0.011062f, 0.040262f, 0.029411f, -0.018050f, -0.021703f, 0.005411f, 0.011856f, -0.028556f, -0.032028f, -0.017675f, -0.023523f, -0.014459f, -0.018478f, 0.002758f, 0.032492f, -0.004676f, 0.004060f, 
-0.021633f, 0.012618f, 0.016748f, -0.016721f, -0.003939f, -0.015389f, -0.004439f, 0.002815f, 0.001231f, 0.004665f, -0.000259f, -0.009309f, 0.014202f, 0.018358f, 0.016366f, -0.021529f, -0.041985f, -0.010588f, 0.030472f, -0.008370f, 
-0.006942f, -0.008931f, -0.020029f, -0.025402f, -0.023674f, -0.005268f, 0.016611f, -0.005584f, -0.004343f, 0.011776f, 0.008799f, 0.005299f, 0.008754f, 0.022195f, -0.000768f, 0.010555f, -0.015564f, -0.009834f, 0.003438f, -0.010587f, 
-0.011644f, 0.023013f, 0.003572f, 0.026756f, -0.001296f, -0.012435f, 0.001585f, 0.014835f, 0.016135f, -0.027230f, -0.010318f, -0.038218f, -0.018616f, -0.034167f, -0.013268f, -0.008755f, -0.009716f, 0.002692f, 0.001922f, 0.017886f, 
0.021166f, -0.005665f, -0.006674f, 0.004245f, -0.005249f, -0.006877f, -0.000736f, -0.000821f, 0.000354f, -0.017604f, 0.002702f, 0.001004f, 0.004454f, 0.008909f, 0.005149f, -0.040900f, -0.005540f, 0.011521f, 0.016198f, 0.002803f, 
-0.008867f, -0.030832f, -0.031808f, -0.014049f, -0.027778f, -0.012126f, 0.010382f, 0.026440f, -0.008621f, 0.015473f, -0.002090f, -0.001443f, -0.014223f, 0.021925f, -0.009515f, -0.018470f, 0.001015f, 0.003557f, 0.019505f, -0.004924f, 
-0.023561f, 0.022790f, 0.013333f, -0.005341f, -0.041161f, -0.022234f, 0.003053f, 0.009765f, -0.013845f, -0.005550f, -0.022076f, -0.023877f, -0.013934f, 0.005007f, -0.001175f, -0.017795f, 0.007502f, 0.004361f, 0.003075f, 0.013376f, 
-0.003681f, -0.004876f, 0.029768f, -0.003405f, 0.010229f, 0.028996f, 0.015024f, 0.023857f, 0.022015f, 0.014547f, 0.014713f, -0.001290f, 0.009922f, -0.033016f, -0.022929f, 0.025924f, -0.017383f, -0.021279f, -0.007511f, -0.015888f, 
-0.020464f, -0.014517f, -0.013165f, 0.010461f, 0.002493f, -0.003351f, 0.009078f, 0.017047f, -0.010945f, 0.000969f, -0.009949f, 0.009647f, 0.000771f, 0.021626f, 0.031287f, -0.019672f, -0.009343f, 0.021141f, 0.018539f, 0.013413f, 
0.001921f, -0.003103f, 0.011080f, -0.022151f, 0.012540f, -0.006252f, 0.004844f, 0.011381f, -0.020514f, -0.007009f, -0.017448f, -0.046726f, -0.004508f, -0.013015f, -0.008604f, -0.002923f, 0.006610f, -0.002579f, -0.001660f, 0.010130f, 
0.000197f, -0.008254f, 0.012666f, 0.031685f, 0.023547f, 0.029401f, -0.006450f, 0.017397f, 0.004001f, -0.000944f, 0.003814f, -0.003233f, -0.004657f, -0.015605f, 0.008100f, -0.016277f, -0.010015f, -0.031734f, -0.030146f, -0.020959f, 
-0.011176f, -0.026023f, -0.010718f, 0.008128f, 0.044900f, 0.012412f, -0.013779f, -0.022325f, 0.015521f, -0.023233f, 0.002073f, 0.010900f, 0.026092f, -0.009185f, -0.005875f, 0.002195f, 0.014598f, 0.003301f, 0.010455f, 0.014165f, 
0.003582f, -0.011094f, -0.006851f, 0.001351f, 0.007456f, -0.009212f, 0.011633f, -0.003477f, -0.013957f, -0.044776f, -0.043753f, -0.014585f, -0.024918f, -0.011007f, 0.012471f, -0.011195f, 0.023453f, 0.019715f, -0.023006f, 0.002611f, 
-0.006314f, -0.004545f, 0.004905f, -0.006402f, 0.012823f, -0.005568f, 0.008609f, -0.011358f, 0.018004f, 0.000205f, -0.000172f, 0.029508f, -0.025875f, -0.015423f, 0.000019f, 0.034101f, 0.002064f, -0.008404f, -0.022272f, -0.016562f, 
-0.018356f, -0.031899f, 0.005031f, -0.004770f, -0.019716f, -0.001169f, 0.036400f, -0.016604f, -0.003794f, -0.004662f, -0.010182f, 0.005593f, 0.004136f, -0.002342f, 0.012970f, 0.017371f, 0.013533f, 0.011572f, 0.019190f, 0.002940f, 
0.001739f, -0.006367f, -0.006578f, -0.016609f, -0.001887f, 0.018135f, -0.010185f, 0.017376f, -0.023264f, -0.006130f, -0.018339f, -0.028390f, -0.016389f, -0.041667f, -0.016697f, 0.036643f, 0.002202f, -0.007275f, -0.034239f, 0.002042f, 
0.009255f, -0.003036f, 0.000562f, 0.018243f, 0.007891f, 0.024268f, 0.034832f, 0.024096f, -0.007133f, 0.000760f, 0.002488f, 0.005916f, -0.017819f, -0.022604f, -0.007530f, -0.032877f, -0.007043f, 0.002953f, -0.014672f, -0.028016f, 
-0.006275f, -0.046605f, -0.005352f, -0.002636f, 0.023843f, -0.001804f, 0.003629f, -0.026569f, -0.024520f, -0.004479f, 0.006793f, -0.036442f, -0.013813f, 0.024208f, 0.009988f, 0.033383f, 0.041242f, -0.007816f, -0.002978f, -0.034075f, 
0.001042f, -0.002081f, -0.020340f, -0.007502f, -0.005372f, -0.023421f, 0.001411f, -0.000669f, 0.005914f, -0.023699f, -0.052671f, -0.035506f, 0.000514f, 0.013151f, -0.001272f, 0.004305f, -0.031007f, -0.011630f, 0.011465f, -0.017246f, 
-0.020481f, -0.023978f, 0.016967f, 0.005349f, -0.007780f, 0.020796f, -0.006678f, 0.002727f, -0.035500f, -0.012355f, -0.002744f, -0.007966f, -0.030883f, -0.005997f, -0.028456f, -0.009741f, -0.021709f, -0.032577f, -0.036913f, -0.038420f, 
-0.034406f, -0.009739f, 0.018080f, 0.015482f, 0.001053f, 0.006168f, -0.030348f, -0.005427f, -0.019742f, -0.020245f, -0.024854f, -0.000595f, -0.003409f, 0.002229f, -0.002252f, 0.043895f, -0.008953f, -0.002313f, -0.032676f, -0.025126f, 
-0.038383f, -0.023073f, 0.001513f, 0.006989f, -0.029126f, -0.007332f, -0.026335f, -0.033209f, -0.041001f, -0.028230f, -0.014948f, 0.012789f, -0.005933f, 0.017661f, 0.017810f, 0.008237f, -0.004513f, -0.041050f, -0.024273f, -0.029408f, 
-0.008595f, 0.018499f, -0.009891f, 0.017860f, 0.008615f, 0.008371f, 0.029827f, -0.004875f, -0.013170f, -0.022214f, -0.025573f, -0.016850f, -0.022205f, -0.001250f, -0.023283f, -0.035364f, -0.016384f, -0.030420f, -0.005733f, -0.013263f, 
0.018524f, -0.018089f, 0.007826f, 0.004151f, 0.035361f, -0.017560f, -0.029015f, -0.015681f, -0.019690f, -0.004023f, 0.016037f, -0.006038f, 0.034782f, 0.037795f, -0.002073f, -0.007248f, 0.000874f, -0.016087f, 0.009616f, -0.022516f, 
-0.040106f, -0.017172f, -0.001193f, -0.029351f, -0.040562f, -0.020102f, -0.004974f, 0.006676f, -0.026138f, 0.027518f, -0.013442f, 0.014888f, 0.023708f, 0.011680f, -0.020448f, -0.029902f, -0.024124f, -0.016807f, -0.038948f, -0.011551f, 
0.003375f, 0.014873f, 0.012310f, -0.022968f, -0.027576f, -0.012245f, -0.010796f, -0.013787f, -0.008775f, -0.028381f, 0.008828f, -0.004566f, -0.018462f, -0.027388f, -0.015072f, 0.002062f, -0.019504f, -0.007135f, 0.039020f, 0.014564f, 
0.003991f, 0.010883f, 0.022878f, -0.010878f, -0.012111f, -0.025419f, -0.010891f, -0.061167f, -0.024143f, -0.020816f, 0.009809f, 0.027763f, -0.008721f, -0.001079f, -0.044030f, -0.011228f, 0.012401f, -0.025179f, -0.011541f, -0.027180f, 
0.003753f, 0.010730f, -0.010244f, -0.031537f, -0.028071f, -0.004549f, 0.002044f, 0.034031f, 0.003409f, 0.007238f, 0.030746f, 0.018904f, 0.012364f, -0.021522f, -0.023358f, -0.050605f, -0.034238f, -0.007932f, -0.007147f, 0.000106f, 
0.008101f, -0.013796f, 0.007072f, -0.020507f, -0.010183f, -0.018902f, -0.013052f, -0.023735f, -0.004031f, -0.008068f, 0.003027f, 0.000727f, 0.004582f, -0.035719f, -0.024198f, -0.018856f, 0.002855f, -0.015668f, 0.017231f, 0.023024f, 
0.010170f, 0.000635f, -0.000181f, -0.031402f, -0.033724f, -0.025762f, -0.011693f, -0.006258f, -0.001123f, 0.027440f, -0.010604f, -0.012282f, -0.033352f, -0.016758f, -0.010577f, -0.012041f, -0.024306f, -0.012421f, -0.020063f, -0.010061f, 
-0.024323f, -0.009182f, -0.005131f, -0.030345f, -0.046706f, -0.008776f, -0.018018f, -0.021994f, 0.007267f, 0.008134f, -0.035211f, 0.005310f, 0.003005f, -0.014918f, -0.033665f, 0.004782f, -0.031611f, -0.000773f, 0.017373f, -0.010412f, 
-0.018708f, -0.015727f, -0.000549f, 0.014216f, 0.002668f, 0.025306f, -0.012237f, 0.012990f, -0.003966f, -0.017717f, -0.018505f, 0.000831f, -0.001848f, -0.017121f, -0.005541f, 0.004543f, -0.016440f, 0.008147f, -0.006117f, -0.015539f, 
-0.015794f, -0.003816f, -0.033987f, -0.010982f, -0.014547f, -0.012939f, 0.000155f, 0.012363f, 0.026531f, -0.021892f, -0.020917f, -0.015590f, -0.005110f, 0.020963f, 0.030665f, -0.013127f, 0.001097f, -0.026519f, -0.018343f, -0.017087f, 
0.012496f, 0.013092f, -0.004106f, -0.004926f, 0.027922f, -0.019910f, 0.024300f, -0.007679f, -0.021897f, -0.019309f, -0.008013f, -0.031402f, -0.021971f, 0.000972f, -0.013804f, -0.001571f, 0.019077f, 0.002191f, 0.001900f, -0.011284f, 
-0.029104f, 0.006254f, 0.003173f, -0.001498f, -0.005106f, 0.010338f, -0.019323f, -0.024165f, 0.005133f, -0.026002f, -0.007720f, 0.028765f, 0.022085f, 0.038521f, 0.017735f, 0.000806f, 0.010058f, 0.018828f, -0.006739f, -0.030642f, 
0.005657f, -0.008385f, -0.005530f, 0.008650f, -0.006225f, 0.006448f, 0.025245f, 0.005258f, 0.015669f, -0.012783f, -0.014629f, 0.014315f, 0.014244f, -0.026581f, -0.012683f, -0.002653f, 0.013560f, 0.013354f, -0.037401f, -0.006817f, 
0.008546f, 0.001732f, 0.049984f, 0.027537f, 0.008652f, 0.032841f, 0.038304f, 0.008959f, -0.035383f, -0.003259f, -0.019148f, -0.014815f, 0.000239f, 0.023983f, 0.010960f, 0.005747f, 0.029984f, -0.022851f, 0.006617f, -0.010703f, 
0.023502f, 0.029603f, 0.014704f, -0.006540f, 0.018592f, -0.005720f, 0.023937f, -0.009542f, -0.049195f, -0.017710f, 0.039457f, 0.029801f, -0.005729f, 0.027068f, -0.013113f, 0.026413f, 0.031916f, -0.009676f, -0.017284f, 0.007860f, 
-0.017341f, -0.018802f, -0.008493f, 0.020185f, 0.009322f, 0.040192f, -0.014185f, 0.002552f, 0.005890f, 0.024517f, 0.016512f, 0.013727f, 0.021379f, 0.001571f, 0.023401f, 0.020210f, 0.025024f, -0.032752f, -0.005018f, 0.017177f, 
0.017370f, 0.025652f, 0.036515f, -0.022335f, 0.035770f, 0.025799f, -0.014698f, -0.017172f, 0.018498f, 0.013150f, 0.002576f, -0.002937f, 0.010168f, 0.031554f, 0.037097f, -0.015791f, 0.001434f, -0.000549f, 0.020206f, 0.002360f, 
0.008286f, 0.004760f, -0.004028f, -0.003052f, 0.013023f, 0.015758f, -0.016220f, -0.025958f, -0.000495f, 0.018086f, 0.000669f, 0.021533f, 0.006186f, 0.022995f, 0.007777f, -0.018509f, -0.041662f, 0.001103f, 0.013966f, 0.037010f, 
0.011080f, 0.011274f, 0.036906f, 0.003434f, 0.010680f, -0.012488f, 0.007953f, -0.002231f, 0.000584f, -0.016463f, -0.007428f, -0.011236f, -0.004975f, -0.011297f, -0.012064f, -0.023063f, -0.000866f, -0.009949f, 0.017093f, -0.020574f, 
0.002365f, 0.004288f, -0.015110f, -0.018378f, -0.012711f, -0.004795f, -0.010427f, 0.008883f, 0.006460f, 0.008933f, -0.006008f, -0.009322f, -0.010193f, -0.005842f, -0.019194f, -0.012575f, -0.002428f, -0.003051f, -0.004080f, -0.003811f, 
0.004339f, 0.011493f, 0.002900f, 0.011576f, -0.022693f, -0.006890f, -0.005652f, 0.003587f, 0.007184f, -0.011207f, -0.004083f, 0.001893f, -0.015114f, -0.014069f, 0.007533f, -0.009260f, -0.016603f, -0.002155f, -0.009565f, 0.008858f, 
0.001144f, 0.000670f, 0.006122f, 0.009270f, -0.005936f, -0.000698f, -0.005312f, 0.002351f, -0.016549f, -0.022472f, -0.015331f, 0.011710f, 0.014266f, -0.023202f, -0.017838f, -0.013273f, 0.010033f, -0.020682f, -0.005796f, -0.007195f, 
0.003975f, -0.017692f, -0.022690f, -0.002086f, -0.012691f, 0.006447f, -0.005611f, 0.001953f, -0.003250f, -0.009984f, -0.015671f, -0.008188f, 0.006805f, -0.010859f, -0.014880f, -0.012572f, 0.002766f, 0.000202f, 0.008525f, -0.006020f, 
-0.014178f, 0.013566f, -0.014556f, -0.008229f, -0.005117f, -0.009646f, -0.009622f, -0.001033f, 0.010345f, -0.008191f, 0.008209f, -0.000260f, -0.010391f, -0.007756f, -0.017357f, -0.009126f, 0.010176f, -0.003705f, 0.007559f, -0.008848f, 
-0.007580f, 0.003911f, -0.002772f, -0.002422f, -0.010399f, -0.003853f, -0.003607f, -0.002465f, -0.010182f, 0.008154f, 0.007948f, 0.004722f, -0.010950f, -0.017450f, -0.008577f, -0.006030f, -0.004511f, -0.007782f, 0.012303f, -0.017863f, 
-0.017825f, 0.004147f, -0.020428f, -0.005097f, 0.016301f, -0.012807f, 0.011797f, -0.007827f, -0.013276f, -0.007578f, -0.001334f, -0.011848f, 0.010102f, 0.004030f, 0.007068f, -0.006865f, 0.017161f, 0.011952f, -0.017802f, -0.001375f, 
-0.008538f, -0.011867f, -0.011160f, 0.001611f, -0.006430f, -0.016445f, -0.002992f, -0.015013f, -0.026527f, -0.014485f, 0.004014f, 0.015000f, -0.018857f, -0.015785f, -0.007056f, 0.000315f, -0.015332f, 0.007440f, 0.003622f, -0.000763f, 
-0.017899f, -0.016018f, 0.003232f, -0.014414f, -0.017903f, 0.002748f, -0.014886f, -0.016033f, -0.014264f, 0.007878f, -0.006143f, -0.006652f, -0.012755f, 0.000964f, -0.016457f, -0.027395f, -0.011317f, -0.018408f, -0.005412f, -0.003850f, 
-0.005241f, -0.003899f, 0.000682f, 0.005388f, -0.000567f, -0.022831f, -0.003473f, -0.004358f, -0.017989f, 0.001639f, -0.010529f, 0.014875f, 0.001096f, 0.001367f, -0.004857f, -0.020391f, -0.001548f, -0.016832f, -0.005468f, 0.007603f, 
0.007249f, -0.013163f, -0.025883f, -0.014753f, 0.005314f, -0.017504f, -0.011104f, 0.000110f, -0.005391f, -0.003798f, -0.022109f, 0.000595f, -0.011090f, -0.017921f, -0.014169f, -0.017781f, -0.030943f, 0.002140f, -0.008487f, -0.017997f, 
-0.006709f, -0.004337f, 0.006443f, 0.000951f, -0.012619f, 0.007536f, -0.008031f, 0.006922f, -0.018912f, -0.024129f, -0.011794f, -0.025842f, -0.016524f, 0.001443f, -0.012968f, -0.003836f, -0.000332f, -0.013792f, -0.005771f, -0.025835f, 
-0.017759f, -0.014462f, 0.007399f, 0.003627f, -0.002510f, -0.009219f, 0.001993f, -0.006687f, 0.013300f, -0.002689f, 0.006162f, -0.015946f, -0.016016f, -0.021150f, -0.002671f, -0.005857f, -0.011683f, 0.011912f, -0.020755f, -0.014095f, 
-0.020204f, -0.019653f, -0.003073f, -0.010261f, -0.005859f, -0.018826f, -0.009379f, -0.006357f, -0.014210f, -0.012050f, -0.001880f, -0.002510f, -0.005526f, 0.009715f, -0.022814f, -0.001689f, -0.013881f, -0.014399f, -0.000488f, -0.001632f, 
0.001170f, -0.010648f, -0.009255f, 0.017167f, -0.004320f, 0.013081f, 0.005239f, 0.001290f, 0.002518f, -0.006125f, -0.016274f, -0.021765f, -0.011299f, -0.016845f, -0.004088f, -0.011870f, -0.012425f, -0.010758f, -0.013038f, 0.007466f, 
-0.001125f, -0.010152f, -0.000592f, 0.011992f, 0.009453f, -0.023198f, 0.006294f, -0.006827f, -0.016756f, -0.006294f, 0.002088f, 0.020801f, 0.009394f, -0.006578f, 0.001725f, -0.002518f, -0.006209f, -0.016794f, 0.006330f, 0.002766f, 
-0.007688f, 0.003152f, 0.003540f, -0.011437f, 0.000593f, -0.002992f, -0.000769f, -0.013725f, 0.017324f, -0.001330f, -0.010812f, -0.008146f, -0.018445f, 0.014156f, -0.007600f, -0.017765f, -0.003536f, -0.014733f, 0.000355f, 0.002086f, 
0.002752f, 0.008810f, -0.002312f, 0.012915f, -0.021975f, 0.000059f, -0.013873f, -0.012799f, 0.005825f, -0.006266f, -0.000813f, 0.010125f, -0.007838f, -0.006114f, 0.008812f, 0.016935f, -0.006733f, 0.000380f, 0.001659f, -0.002244f, 
-0.003460f, 0.008481f, -0.007734f, -0.010595f, 0.006767f, -0.017162f, -0.009615f, 0.005315f, -0.005662f, 0.017992f, 0.006460f, -0.011705f, -0.007486f, -0.004795f, -0.008981f, 0.000972f, 0.001593f, 0.005526f, -0.011402f, 0.011025f, 
0.017500f, 0.011128f, 0.008309f, 0.002748f, 0.015599f, -0.006030f, 0.025120f, -0.019126f, 0.013566f, -0.011724f, -0.010452f, 0.005230f, 0.001923f, -0.018261f, 0.004896f, -0.008557f, 0.007639f, -0.016950f, -0.000385f, 0.015196f, 
0.017983f, -0.013182f, -0.015992f, -0.015603f, -0.011409f, -0.019582f, 0.010025f, -0.004727f, -0.020516f, -0.010080f, 0.011675f, -0.001023f, 0.009163f, -0.010397f, -0.005391f, 0.008303f, -0.005395f, -0.008858f, -0.016605f, -0.022726f, 
-0.021351f, 0.000462f, -0.002027f, -0.015888f, 0.005590f, -0.004277f, 0.001330f, -0.011089f, -0.003266f, 0.016460f, 0.006028f, -0.025004f, 0.000009f, -0.020073f, -0.025122f, 0.006468f, -0.009279f, -0.009903f, 0.015040f, 0.007243f, 
0.021761f, 0.013405f, 0.012590f, 0.006170f, -0.019249f, 0.015128f, -0.016756f, 0.008880f, -0.011796f, -0.013990f, 0.016405f, -0.007453f, -0.014547f, 0.004557f, -0.015218f, 0.009998f, -0.002806f, 0.005914f, -0.012762f, 0.004865f, 
0.004907f, -0.026278f, -0.016651f, -0.007561f, -0.017021f, 0.008654f, 0.002716f, -0.000815f, 0.003459f, -0.005644f, 0.003299f, 0.003951f, 0.014820f, -0.007724f, 0.009091f, -0.006409f, 0.008382f, -0.004352f, -0.016840f, -0.015942f, 
-0.017902f, 0.016429f, -0.024029f, -0.010978f, -0.003926f, 0.007288f, 0.017369f, 0.008334f, -0.006072f, -0.012566f, 0.000073f, -0.016002f, 0.002417f, 0.006020f, -0.001445f, 0.012723f, 0.007155f, 0.026644f, 0.002640f, 0.020112f, 
0.021325f, 0.010706f, 0.017158f, -0.014808f, -0.001975f, -0.011746f, 0.011707f, -0.003252f, 0.000628f, -0.001599f, 0.013096f, -0.003448f, -0.028184f, 0.012878f, 0.007737f, -0.004286f, 0.005390f, -0.004579f, -0.020810f, 0.000346f, 
-0.016633f, -0.012437f, 0.005909f, -0.006934f, 0.001713f, 0.013442f, -0.007062f, 0.016272f, 0.021271f, 0.016877f, 0.012969f, 0.020773f, 0.009764f, 0.010404f, 0.013336f, -0.000904f, -0.010236f, -0.001302f, 0.011693f, 0.004390f, 
0.007729f, -0.004446f, -0.005632f, -0.010121f, 0.009288f, -0.011146f, -0.014848f, -0.003240f, 0.006770f, -0.001323f, -0.016060f, 0.000306f, 0.004838f, 0.000950f, 0.015828f, 0.002856f, 0.004533f, 0.007835f, 0.008265f, 0.011989f, 
-0.007637f, -0.009607f, 0.005914f, -0.012438f, -0.001584f, 0.000347f, -0.002791f, -0.006428f, -0.001825f, -0.014002f, -0.001804f, 0.003043f, -0.000772f, 0.013084f, -0.004813f, -0.003084f, 0.011678f, -0.001138f, 0.009537f, 0.002326f, 
-0.013888f, 0.024337f, 0.011299f, 0.015606f, 0.017515f, 0.027431f, 0.027315f, 0.012224f, 0.006349f, 0.014738f, -0.006940f, 0.018930f, -0.017017f, 0.003394f, 0.002498f, -0.008836f, -0.003007f, 0.007687f, 0.011422f, -0.002133f, 
-0.005738f, 0.001568f, -0.009273f, 0.000702f, -0.013168f, -0.014265f, 0.000271f, -0.003919f, -0.006026f, -0.000130f, 0.010683f, 0.004722f, 0.008767f, 0.026012f, 0.007317f, 0.010750f, 0.019778f, 0.021678f, 0.021864f, 0.011847f, 
0.015874f, 0.011615f, -0.011843f, 0.006062f, -0.019641f, -0.021352f, 0.000463f, 0.004359f, -0.013645f, -0.001705f, 0.011758f, 0.001177f, -0.008438f, -0.007491f, 0.013511f, -0.007331f, 0.011564f, 0.000812f, 0.009504f, 0.020042f, 
0.022875f, 0.025459f, 0.013789f, 0.022431f, 0.006582f, -0.011175f, -0.011427f, -0.009456f, 0.005197f, -0.013452f, -0.005603f, -0.002601f, 0.016011f, 0.003712f, 0.010675f, -0.020117f, -0.011920f, -0.002718f, -0.014361f, 0.002547f, 
0.001248f, 0.007886f, -0.006979f, 0.008604f, 0.018618f, -0.004474f, 0.015039f, 0.003987f, 0.019125f, 0.019630f, 0.007952f, 0.026467f, 0.008154f, 0.009386f, 0.001215f, -0.019506f, -0.008992f, 0.000826f, -0.009152f, 0.000868f, 
0.003199f, 0.008181f, 0.000234f, -0.002061f, -0.010792f, -0.010692f, -0.007497f, 0.006022f, 0.002037f, 0.006891f, -0.001064f, -0.000830f, 0.001363f, 0.010315f, 0.011616f, -0.001968f, 0.002644f, 0.022829f, 0.022330f, 0.013430f, 
0.017651f, 0.015958f, 0.015710f, -0.007122f, 0.000131f, -0.019906f, -0.006631f, -0.000111f, -0.004439f, 0.003187f, -0.011581f, -0.003979f, -0.003439f, 0.004089f, 0.005962f, -0.024521f, 0.015083f, 0.003204f, -0.000588f, -0.003172f, 
0.015998f, 0.018487f, -0.004988f, 0.029419f, 0.013262f, 0.020834f, 0.028028f, 0.026578f, 0.019134f, 0.008105f, 0.005508f, 0.002857f, -0.011244f, -0.005006f, 0.014921f, -0.000761f, 0.002485f, -0.010298f, -0.004749f, 0.007970f, 
0.005421f, -0.006746f, -0.011513f, -0.006127f, 0.007094f, 0.006980f, -0.002190f, -0.000968f, 0.001275f, 0.012506f, 0.010071f, 0.005392f, 0.009029f, -0.006901f, 0.016803f, 0.003468f, 0.007922f, 0.002105f, 0.032759f, 0.026481f, 
0.017909f, -0.013217f, 0.017860f, 0.022973f, -0.004669f, -0.015733f, 0.005408f, 0.002510f, -0.001481f, 0.010325f, 0.004614f, -0.002162f, -0.021085f, 0.015477f, 0.011597f, 0.003102f, 0.010101f, -0.002547f, 0.024812f, 0.000708f, 
0.016803f, 0.009184f, 0.032400f, 0.012899f, 0.016732f, 0.012044f, 0.027531f, 0.034749f, -0.002615f, -0.006563f, -0.003861f, -0.012293f, 0.011267f, 0.010212f, 0.004728f, -0.008546f, 0.013129f, -0.016679f, -0.013282f, 0.007105f, 
-0.014204f, 0.014789f, -0.003323f, 0.003295f, 0.020090f, 0.022985f, 0.009707f, 0.009082f, 0.025624f, 0.000988f, 0.001523f, 0.036957f, 0.002308f, 0.021700f, 0.011086f, 0.004363f, 0.014753f, -0.001743f, 0.021814f, -0.005270f, 
0.005194f, -0.017433f, 0.010667f, 0.013823f, 0.010724f, 0.010404f, 0.003387f, -0.005126f, -0.002641f, -0.022782f, -0.002140f, 0.004761f, -0.011862f, 0.020759f, -0.006046f, -0.004960f, 0.010978f, 0.001719f, 0.009323f, 0.014878f, 
0.015681f, 0.005273f, -0.009640f, 0.009736f, -0.006028f, 0.010463f, 0.010741f, -0.003694f, 0.020390f, 0.004673f, 0.005308f, -0.008521f, 0.023247f, 0.011164f, 0.025692f, -0.007950f, 0.000558f, 0.019105f, 0.011394f, 0.000070f, 
0.008263f, -0.001444f, 0.012675f, 0.020472f, -0.014024f, 0.012107f, 0.000669f, -0.002411f, -0.014244f, 0.025062f, 0.026308f, -0.004967f, -0.009140f, -0.011579f, 0.005274f, 0.019325f, 0.015151f, 0.019006f, 0.000283f, 0.006121f, 
-0.007442f, 0.003768f, -0.007905f, 0.008011f, -0.000790f, 0.024909f, 0.003107f, 0.012388f, 0.006142f, -0.012971f, -0.003214f, 0.011303f, 0.005178f, 0.018962f, 0.033720f, 0.013986f, 0.004522f, 0.018149f, 0.005849f, -0.002560f, 
0.025702f, -0.013208f, 0.003519f, 0.003269f, 0.022702f, 0.013593f, 0.018322f, 0.009223f, 0.014055f, -0.007969f, -0.009372f, 0.011756f, 0.001972f, 0.026059f, 0.007175f, -0.009533f, -0.005239f, -0.002583f, -0.015701f, 0.011871f, 
0.002722f, 0.023581f, 0.002104f, -0.006834f, 0.015017f, 0.003652f, 0.022851f, 0.011132f, 0.017311f, 0.010341f, 0.014558f, -0.007581f, -0.004511f, -0.002940f, 0.007908f, 0.008260f, 0.002111f, -0.006508f, 0.013502f, 0.011622f, 
0.000091f, 0.016977f, 0.021574f, -0.004464f, 0.014877f, 0.011910f, 0.009578f, 0.009553f, 0.014026f, -0.010299f, 0.003829f, -0.001397f, 0.003199f, -0.004265f, 0.010728f, 0.025472f, 0.004125f, 0.003961f, 0.005026f, 0.001088f, 
0.013338f, -0.004678f, 0.003409f, 0.019653f, 0.010096f, -0.004657f, 0.003543f, -0.003962f, 0.026845f, -0.006712f, 0.003095f, 0.001501f, 0.008049f, -0.010300f, -0.006737f, 0.006288f, -0.007351f, 0.017958f, 0.004111f, 0.013694f, 
0.011803f, -0.012996f, -0.006905f, -0.015399f, -0.002659f, 0.018064f, 0.010007f, 0.016708f, 0.030867f, 0.007161f, -0.009180f, 0.010677f, 0.001815f, 0.002422f, 0.006994f, 0.014873f, -0.012357f, 0.002758f, -0.003097f, -0.012373f, 
0.006310f, 0.015563f, -0.009411f, 0.007269f, 0.000545f, 0.004819f, 0.014626f, 0.023989f, 0.012141f, -0.002451f, -0.015622f, -0.000536f, -0.003027f, 0.027728f, 0.025107f, 0.016545f, 0.016953f, 0.011316f, 0.005959f, -0.004382f, 
-0.001075f, -0.002472f, -0.000068f, 0.010432f, 0.017706f, 0.018101f, 0.011136f, 0.000774f, -0.001970f, 0.018303f, 0.000692f, 0.000370f, -0.007607f, -0.016998f, 0.008649f, 0.010976f, 0.015416f, -0.002427f, 0.024903f, -0.005220f, 
0.010963f, 0.007321f, -0.005113f, 0.019054f, 0.009138f, 0.002253f, 0.020376f, -0.005282f, -0.009658f, 0.007883f, 0.011277f, 0.003302f, 0.014695f, -0.017473f, -0.003632f, 0.006189f, -0.005526f, 0.011556f, 0.008847f, 0.003634f, 
-0.005387f, -0.001548f, 0.020985f, -0.005838f, -0.014107f, -0.008988f, 0.001911f, 0.017028f, 0.006408f, 0.010899f, -0.008473f, 0.014478f, 0.005813f, 0.008023f, 0.021632f, -0.006584f, -0.002600f, 0.005185f, -0.010191f, -0.010204f, 
-0.002200f, 0.001605f, 0.001399f, 0.001389f, -0.006889f, 0.014933f, -0.002499f, 0.014607f, 0.003575f, 0.003605f, -0.007916f, -0.006423f, -0.004089f, 0.010677f, 0.013999f, 0.016233f, -0.018913f, 0.009705f, -0.002461f, -0.003210f, 
0.016247f, 0.037628f, 0.012406f, 0.000833f, 0.016777f, 0.000975f, -0.003732f, -0.001688f, 0.006504f, -0.001726f, 0.014020f, 0.010491f, 0.017705f, -0.007217f, 0.000222f, 0.017512f, 0.000348f, 0.006461f, 0.003580f, -0.014844f, 
-0.015710f, -0.007474f, 0.002276f, -0.014741f, 0.008466f, -0.015186f, -0.003106f, -0.002542f, -0.007021f, 0.018346f, 0.001423f, 0.004736f, 0.011811f, 0.002025f, -0.014131f, -0.002718f, 0.017672f, -0.011593f, 0.011383f, -0.006428f, 
0.009896f, -0.005906f, -0.011202f, -0.009502f, 0.022162f, 0.007601f, 0.021361f, 0.012255f, -0.003993f, 0.013777f, 0.023805f, 0.016168f, -0.007342f, 0.005653f, 0.018294f, -0.018311f, -0.005932f, 0.007707f, 0.014190f, -0.003197f, 
0.013247f, -0.002694f, -0.016304f, 0.010016f, 0.029617f, -0.005442f, -0.005407f, -0.016557f, -0.016707f, -0.015588f, -0.011365f, -0.003235f, -0.017850f, -0.001246f, 0.007092f, 0.022515f, 0.002711f, 0.013578f, -0.010941f, 0.010991f, 
-0.011940f, -0.002504f, 0.008458f, 0.007140f, -0.010852f, 0.007947f, 0.023506f, 0.008918f, -0.003351f, 0.008412f, 0.000684f, 0.006420f, 0.019356f, 0.000902f, 0.005674f, 0.003270f, 0.005002f, 0.002899f, 0.003901f, -0.014528f, 
0.014821f, 0.009717f, 0.014193f, 0.014276f, 0.025379f, -0.000573f, 0.001635f, 0.010403f, 0.013783f, 0.017967f, -0.009719f, -0.019442f, -0.014917f, 0.005575f, 0.008450f, -0.010258f, 0.027463f, 0.007801f, 0.015986f, 0.015797f, 
0.012776f, -0.005627f, -0.005177f, -0.015311f, -0.023932f, -0.017470f, -0.029300f, 0.009267f, -0.024840f, 0.008281f, -0.008752f, -0.007415f, -0.001245f, 0.021890f, -0.000542f, -0.010119f, -0.004539f, 0.003719f, 0.001968f, -0.004515f, 
0.007885f, 0.015140f, 0.010689f, 0.004944f, -0.009281f, 0.000775f, 0.017365f, 0.023765f, 0.005003f, -0.011345f, -0.006518f, -0.015672f, -0.005661f, -0.006730f, -0.013163f, 0.010329f, -0.012369f, 0.013833f, -0.006759f, 0.012367f, 
0.014634f, -0.002071f, 0.012721f, -0.009273f, 0.007739f, 0.015504f, 0.002186f, -0.009330f, 0.002138f, 0.012856f, -0.002316f, 0.017924f, -0.015089f, -0.001726f, -0.007672f, 0.023426f, 0.005164f, 0.015653f, 0.013971f, 0.012816f, 
-0.015949f, -0.010856f, -0.015454f, 0.002690f, -0.003505f, 0.004761f, -0.004700f, -0.002972f, 0.003201f, -0.004592f, 0.010774f, 0.022311f, -0.000334f, 0.017017f, 0.020309f, 0.012602f, 0.000993f, 0.005539f, 0.012249f, -0.013228f, 
0.011736f, 0.019143f, 0.011891f, 0.022640f, 0.001931f, 0.021856f, 0.008158f, 0.016439f, -0.002264f, -0.019951f, -0.016072f, -0.011732f, -0.024489f, -0.003527f, -0.023294f, -0.008453f, 0.006258f, 0.009246f, -0.000244f, 0.028188f, 
0.028115f, 0.007311f, 0.006091f, 0.019273f, 0.005014f, 0.009473f, 0.001449f, -0.001532f, -0.017803f, -0.015344f, -0.009859f, 0.012540f, -0.003176f, -0.007146f, 0.007808f, 0.027296f, -0.003172f, -0.000079f, -0.012150f, -0.020683f, 
-0.015147f, -0.014658f, -0.023436f, -0.003933f, -0.000211f, 0.002375f, -0.006039f, 0.007619f, -0.013878f, 0.004854f, 0.009111f, -0.004044f, 0.005753f, 0.017711f, 0.008244f, 0.000696f, 0.015370f, -0.004663f, -0.003255f, 0.010515f, 
-0.009779f, 0.005590f, 0.000963f, -0.006637f, 0.002167f, -0.001766f, 0.000153f, 0.005375f, -0.017194f, -0.021799f, -0.013646f, -0.004939f, 0.001347f, -0.007281f, -0.013557f, 0.008096f, 0.007991f, -0.011610f, 0.001831f, 0.011711f, 
-0.000368f, 0.014169f, -0.009201f, 0.005516f, -0.009285f, 0.030693f, 0.014631f, -0.006925f, 0.014369f, -0.001027f, 0.005220f, 0.025237f, 0.010243f, 0.001099f, -0.015100f, -0.006195f, -0.022830f, 0.001625f, -0.012032f, -0.000084f, 
0.001256f, -0.011363f, -0.016240f, -0.020984f, -0.003097f, 0.012599f, 0.007097f, 0.023873f, -0.006480f, 0.010807f, 0.020769f, -0.003379f, -0.005308f, -0.003839f, 0.006402f, -0.021485f, 0.007558f, 0.004593f, 0.002141f, -0.007339f, 
0.006267f, 0.008501f, 0.014199f, 0.010573f, -0.024704f, -0.030323f, -0.012614f, -0.025467f, -0.019205f, 0.000269f, -0.003447f, -0.006770f, 0.011352f, -0.008499f, 0.009948f, 0.012757f, 0.012035f, -0.009380f, -0.009034f, -0.008056f, 
0.006693f, 0.000869f, -0.016641f, -0.011446f, 0.012541f, 0.003854f, -0.013334f, -0.020010f, 0.013890f, 0.003074f, 0.013728f, -0.017274f, -0.008556f, -0.001707f, -0.016893f, -0.020539f, -0.011140f, 0.002823f, -0.016131f, -0.001399f, 
-0.014630f, -0.010499f, -0.007503f, -0.001603f, -0.005692f, -0.001115f, -0.005025f, -0.007701f, 0.027793f, 0.003435f, 0.026255f, 0.006823f, -0.003067f, -0.009598f, 0.019457f, -0.004005f, 0.000701f, -0.014799f, -0.006003f, -0.016118f, 
-0.008454f, -0.022400f, -0.000880f, -0.023810f, -0.006806f, 0.004232f, 0.009827f, -0.025280f, -0.007003f, 0.008231f, 0.019997f, -0.001966f, -0.009960f, 0.004184f, -0.005329f, 0.002835f, -0.001517f, -0.002799f, -0.003053f, -0.007927f, 
0.010586f, 0.005387f, 0.013338f, -0.010286f, -0.011582f, -0.002084f, 0.015983f, 0.009295f, -0.000474f, -0.019187f, -0.020425f, -0.027208f, 0.002569f, -0.027977f, 0.001691f, -0.014570f, 0.009058f, 0.009129f, -0.002944f, -0.012835f, 
-0.012844f, 0.015498f, 0.014785f, -0.009245f, -0.004917f, 0.001949f, 0.019521f, 0.013120f, 0.007882f, 0.018712f, -0.009445f, -0.001637f, -0.022699f, -0.007254f, -0.021499f, -0.001121f, -0.000455f, -0.018105f, -0.030594f, -0.010231f, 
-0.022442f, -0.008145f, -0.028911f, 0.000442f, -0.000863f, 0.011178f, -0.015673f, 0.019572f, 0.018896f, -0.008135f, -0.004683f, 0.009394f, 0.024009f, 0.000892f, 0.005117f, -0.004686f, -0.010282f, 0.008759f, 0.011581f, -0.005828f, 
0.008492f, -0.009034f, -0.024427f, -0.009517f, -0.017171f, -0.010008f, 0.004191f, -0.015999f, -0.018653f, -0.016188f, -0.000252f, -0.002658f, -0.006905f, 0.003937f, -0.020493f, -0.013359f, -0.009502f, 0.003008f, -0.001182f, 0.025016f, 
0.004362f, 0.006479f, 0.004951f, -0.000757f, -0.014445f, -0.000654f, 0.005911f, -0.010718f, 0.000158f, -0.029041f, -0.004077f, 0.003879f, -0.025133f, -0.008817f, -0.033575f, -0.005957f, -0.005925f, -0.038871f, 0.002229f, -0.018828f, 
-0.013005f, 0.006297f, -0.006644f, -0.000318f, -0.022485f, 0.008544f, 0.009899f, 0.003229f, 0.003036f, -0.005292f, 0.001987f, 0.010190f, -0.016869f, 0.012724f, 0.011003f, -0.019186f, 0.016741f, 0.013588f, -0.005119f, 0.001224f, 
-0.013723f, -0.030076f, -0.023600f, -0.012768f, -0.033105f, -0.025139f, -0.017239f, -0.004884f, -0.004787f, -0.017040f, -0.025243f, -0.015533f, 0.013611f, 0.006429f, -0.027541f, -0.008846f, 0.003639f, 0.015358f, -0.003903f, -0.006981f, 
0.005830f, 0.018443f, -0.016956f, -0.005066f, 0.011741f, -0.017720f, 0.007620f, 0.003132f, -0.003183f, -0.026933f, -0.002419f, -0.036486f, -0.029801f, -0.002375f, -0.018741f, 0.000177f, -0.029381f, -0.014777f, -0.024514f, -0.007730f, 
0.000111f, -0.002318f, 0.002985f, -0.007890f, -0.014326f, -0.012219f, -0.017842f, 0.007639f, 0.009853f, 0.005459f, 0.019050f, -0.000494f, -0.001049f, -0.022462f, 0.008899f, 0.013833f, 0.016432f, -0.011327f, 0.006338f, -0.004516f, 
0.000886f, -0.014974f, 0.002590f, -0.017385f, -0.019102f, 0.009969f, 0.007775f, -0.002244f, 0.006641f, -0.005862f, 0.011301f, 0.003527f, 0.019569f, 0.011040f, -0.020780f, -0.016320f, 0.000977f, -0.013876f, 0.005917f, 0.024919f, 
0.008523f, -0.012255f, -0.018536f, -0.011512f, 0.010928f, -0.011477f, 0.001036f, 0.011801f, -0.014860f, -0.006180f, 0.002668f, -0.016245f, -0.014516f, -0.005523f, -0.008309f, -0.005325f, 0.007188f, 0.013817f, 0.010469f, -0.015261f, 
0.010416f, 0.011701f, -0.017464f, -0.004780f, -0.017448f, 0.004247f, 0.008528f, 0.000515f, 0.001641f, 0.000912f, 0.007228f, 0.014743f, -0.014213f, -0.011121f, -0.026277f, 0.007105f, -0.008140f, -0.005496f, -0.016819f, -0.028259f, 
-0.020750f, 0.016273f, -0.021331f, -0.006918f, -0.008615f, -0.001445f, -0.015186f, 0.003498f, 0.012631f, 0.018061f, 0.005440f, 0.003636f, -0.030882f, -0.024005f, -0.026271f, 0.011516f, -0.007007f, -0.016360f, 0.007309f, -0.001526f, 
-0.013216f, -0.010818f, -0.004824f, -0.010189f, 0.009089f, -0.014026f, -0.000719f, -0.008195f, -0.016976f, -0.005884f, -0.004965f, 0.004954f, -0.005676f, -0.021144f, -0.016184f, -0.016942f, -0.006922f, -0.024703f, 0.005985f, 0.005226f, 
-0.001612f, 0.005302f, 0.012962f, -0.010348f, 0.005326f, 0.008989f, -0.004016f, 0.000946f, -0.001036f, 0.003885f, 0.008238f, -0.023179f, 0.008562f, -0.010648f, -0.006610f, 0.014557f, 0.004338f, -0.000016f, -0.010975f, 0.002097f, 
-0.007648f, 0.000530f, -0.022842f, -0.015293f, -0.008734f, -0.008934f, 0.003278f, 0.017991f, 0.003663f, 0.005736f, -0.017511f, -0.010711f, 0.004891f, -0.029240f, -0.003739f, -0.024339f, 0.005720f, 0.000920f, 0.015052f, -0.025641f, 
-0.005807f, -0.016492f, -0.021270f, -0.006819f, -0.009807f, -0.020398f, -0.011545f, -0.021730f, -0.018191f, -0.022156f, -0.024820f, -0.022365f, -0.022292f, -0.004269f, 0.001421f, 0.001311f, -0.004216f, -0.014951f, -0.012268f, -0.002422f, 
0.007581f, 0.003282f, 0.002425f, 0.005534f, -0.002292f, -0.007803f, 0.011331f, -0.018092f, 0.009908f, -0.002837f, -0.011993f, 0.008738f, -0.003039f, 0.007182f, -0.015527f, 0.000658f, -0.017492f, -0.015532f, -0.020914f, -0.004816f, 
-0.012878f, 0.004178f, -0.017054f, -0.017512f, -0.021308f, 0.000801f, 0.009077f, -0.000209f, 0.006008f, -0.012244f, -0.007057f, -0.014234f, 0.005979f, -0.014584f, -0.004048f, -0.014903f, 0.011933f, 0.011889f, -0.002693f, 0.007808f, 
0.005109f, 0.016724f, -0.003724f, -0.008554f, 0.003920f, -0.027177f, -0.020318f, 0.001103f, -0.015660f, -0.000428f, -0.012522f, -0.016798f, -0.021083f, -0.012606f, 0.004401f, 0.010577f, 0.019357f, -0.007815f, -0.023205f, -0.012847f, 
-0.011095f, -0.011301f, 0.017613f, 0.009929f, -0.013297f, 0.002868f, 0.009194f, -0.008839f, 0.008364f, 0.009000f, 0.012644f, -0.014027f, -0.013721f, -0.017434f, -0.016519f, -0.024770f, 0.002115f, -0.015263f, 0.009513f, 0.005520f, 
-0.013017f, -0.007368f, -0.021681f, 0.008390f, 0.005689f, 0.007553f, -0.008941f, 0.000629f, -0.006982f, -0.018588f, -0.008265f, 0.002590f, -0.005529f, 0.012550f, -0.004565f, 0.017537f, -0.007275f, 0.008132f, -0.010862f, 0.004461f, 
0.006086f, 0.007348f, 0.005647f, -0.001801f, -0.013217f, 0.004346f, -0.017790f, -0.000343f, 0.001796f, -0.009854f, 0.008943f, 0.000231f, -0.001548f, -0.013645f, -0.011486f, -0.001139f, -0.006209f, -0.006992f, 0.013597f, 0.000067f, 
0.010475f, 0.002534f, -0.000380f, 0.006706f, 0.004059f, 0.011891f, 0.009460f, 0.021932f, -0.012636f, -0.013225f, -0.021519f, 0.001325f, 0.007366f, -0.023830f, -0.016847f, -0.011007f, 0.005164f, -0.009095f, -0.014867f, -0.011495f, 
-0.013324f, 0.006736f, -0.000733f, 0.003240f, -0.000563f, -0.013467f, -0.010619f, -0.007136f, 0.012736f, -0.005108f, -0.003313f, 0.016927f, 0.007289f, -0.001714f, 0.013446f, 0.019467f, -0.004300f, 0.018748f, 0.010028f, -0.012955f, 
-0.001570f, -0.014412f, -0.003973f, -0.027552f, -0.020324f, -0.020267f, -0.014194f, -0.001738f, -0.000093f, 0.003739f, 0.013295f, -0.000619f, 0.004555f, 0.015284f, -0.026525f, -0.012279f, -0.003954f, -0.024188f, 0.003191f, 0.007440f, 
0.016330f, -0.002722f, -0.017193f, 0.003447f, 0.006518f, 0.016548f, -0.006288f, -0.022035f, -0.008716f, -0.028347f, 0.001099f, 0.004509f, 0.005235f, -0.012200f, -0.008693f, -0.000084f, -0.011597f, 0.004506f, 0.014298f, 0.003990f, 
-0.021056f, 0.000442f, 0.017286f, -0.016929f, 0.002061f, 0.013439f, 0.009938f, -0.019249f, 0.011030f, 0.003235f, 0.000450f, 0.002921f, 0.009013f, -0.009051f, 0.002655f, -0.002993f, -0.007505f, -0.001875f, -0.022506f, -0.024236f, 
-0.014355f, -0.012588f, -0.007246f, -0.011844f, -0.002413f, 0.016053f, 0.012564f, -0.001960f, -0.002710f, -0.002147f, -0.011788f, 0.010847f, -0.017313f, -0.018397f, -0.017612f, -0.009248f, -0.001954f, 0.001468f, -0.007649f, -0.000224f, 
-0.011247f, -0.018373f, 0.012455f, -0.004415f, 0.018385f, -0.008744f, -0.017722f, -0.034061f, -0.013234f, -0.008536f, 0.012999f, -0.000958f, -0.009372f, -0.003853f, 0.017678f, 0.000919f, 0.007911f, 0.000581f, -0.004894f, 0.012942f, 
-0.005996f, 0.002604f, -0.014159f, -0.006117f, 0.006304f, -0.000049f, 0.006918f, -0.013550f, -0.013104f, -0.009240f, -0.007640f, 0.003475f, -0.014591f, 0.010750f, 0.004116f, -0.020340f, -0.017224f, -0.003902f, -0.017086f, -0.016008f, 
-0.007813f, -0.001630f, 0.017381f, 0.011903f, 0.033547f, 0.029969f, -0.001278f, 0.021769f, 0.002207f, 0.000724f, -0.008978f, -0.013564f, -0.005281f, -0.001180f, 0.007393f, -0.019468f, -0.010111f, 0.003844f, -0.025813f, 0.012948f, 
-0.003700f, 0.017578f, -0.008941f, 0.007677f, -0.009818f, -0.000009f, -0.008316f, -0.011339f, -0.001320f, 0.017965f, 0.008027f, 0.023451f, -0.001868f, 0.006314f, 0.025494f, -0.005370f, 0.003748f, 0.007631f, 0.007836f, -0.004726f, 
-0.006737f, 0.000832f, 0.013056f, 0.006876f, -0.012109f, 0.000121f, -0.019526f, -0.002209f, -0.007024f, -0.004487f, 0.007820f, -0.001791f, -0.006147f, 0.000997f, -0.004245f, -0.008538f, -0.006545f, 0.004554f, 0.008440f, 0.000664f, 
0.002809f, 0.027179f, 0.019604f, -0.003095f, -0.000858f, 0.008636f, -0.001698f, 0.017913f, 0.014835f, -0.008671f, 0.006951f, 0.005035f, -0.007217f, -0.010105f, 0.011534f, -0.011286f, 0.002691f, 0.005213f, 0.014977f, -0.025608f, 
0.005200f, -0.001277f, -0.022794f, 0.004208f, -0.018982f, -0.030374f, -0.007596f, 0.013106f, 0.023436f, 0.009184f, 0.008377f, 0.003048f, -0.006316f, -0.001979f, 0.002792f, 0.013201f, -0.008999f, 0.015351f, -0.000548f, -0.014809f, 
-0.015129f, -0.021745f, -0.001773f, -0.009125f, -0.017185f, -0.015248f, 0.012037f, 0.007312f, 0.017956f, -0.008995f, 0.001680f, -0.016432f, 0.003234f, 0.010637f, -0.006652f, -0.021906f, 0.006841f, 0.025301f, 0.030456f, 0.028611f, 
0.024817f, 0.000488f, 0.004979f, -0.010733f, 0.011574f, 0.017412f, -0.004134f, -0.015210f, 0.000563f, -0.025064f, 0.005493f, -0.012291f, -0.023123f, -0.002894f, 0.002929f, 0.007847f, -0.019182f, 0.009455f, -0.010950f, -0.008820f, 
0.010622f, 0.000646f, -0.011474f, 0.004918f, -0.012655f, 0.020171f, 0.032351f, 0.021086f, 0.019735f, -0.002468f, 0.016850f, 0.011010f, -0.007171f, 0.005111f, -0.013637f, -0.019693f, -0.022456f, -0.000942f, 0.003216f, 0.014612f, 
0.008111f, 0.002524f, 0.015695f, 0.004537f, 0.013501f, 0.013305f, 0.009509f, 0.011975f, 0.003316f, -0.016321f, -0.019347f, -0.016279f, 0.005892f, -0.004323f, -0.007496f, 0.014769f, 0.001058f, -0.006411f, 0.004315f, -0.005949f, 
-0.010788f, -0.002596f, 0.002197f, -0.018151f, -0.003978f, 0.001271f, 0.001788f, -0.006992f, -0.014846f, -0.000813f, 0.004003f, -0.013109f, -0.012201f, 0.004357f, 0.000567f, -0.011469f, 0.011180f, -0.015062f, 0.000625f, 0.001456f, 
0.014681f, 0.018016f, 0.014960f, 0.015661f, 0.031770f, 0.028604f, 0.028626f, 0.007769f, -0.008060f, 0.023120f, -0.006147f, -0.015480f, -0.005840f, 0.000892f, 0.006131f, 0.007067f, 0.010014f, -0.014868f, -0.017140f, -0.007473f, 
0.000641f, -0.003823f, -0.005662f, 0.013317f, 0.007589f, 0.006715f, 0.017107f, 0.019229f, 0.016898f, 0.006816f, -0.002410f, 0.003214f, 0.000268f, 0.010466f, 0.022850f, 0.007154f, 0.022567f, -0.000228f, 0.009434f, -0.000502f, 
0.005662f, 0.002258f, 0.012933f, -0.013582f, -0.008128f, -0.014256f, -0.000625f, 0.002074f, 0.012811f, -0.018456f, -0.003419f, 0.005764f, 0.011793f, -0.002326f, 0.020520f, 0.020611f, 0.017612f, 0.023892f, 0.001946f, 0.022512f, 
0.029629f, 0.020492f, 0.001051f, 0.028974f, 0.016225f, -0.001706f, 0.010305f, 0.015809f, -0.018229f, -0.020072f, 0.014228f, -0.017322f, -0.023335f, -0.018346f, -0.015623f, 0.009539f, -0.015600f, 0.009034f, 0.009607f, -0.016236f, 
-0.006035f, -0.012399f, 0.004494f, 0.022995f, 0.001363f, 0.027338f, 0.019144f, -0.002598f, 0.012689f, 0.010360f, 0.027221f, 0.004395f, 0.031377f, 0.023709f, 0.012856f, 0.015589f, 0.005801f, 0.017939f, 0.001399f, 0.007278f, 
-0.018231f, 0.005587f, 0.007464f, -0.007560f, -0.008928f, -0.007754f, -0.009482f, 0.008965f, -0.008993f, 0.003913f, -0.001495f, -0.006305f, 0.028195f, 0.026429f, 0.003530f, 0.010519f, 0.000773f, 0.032854f, 0.022706f, 0.008827f, 
-0.005975f, 0.020282f, 0.022464f, -0.001025f, -0.012011f, -0.001858f, 0.009827f, -0.015183f, -0.007609f, 0.017669f, -0.020092f, -0.017473f, 0.003425f, 0.003860f, -0.010875f, -0.012065f, -0.004166f, 0.004231f, 0.009182f, 0.011977f, 
-0.003872f, -0.001152f, 0.010658f, 0.019233f, 0.027116f, 0.021383f, -0.002364f, 0.026916f, 0.021854f, 0.032838f, 0.022273f, -0.002696f, -0.003665f, -0.000128f, -0.010645f, -0.015710f, 0.007198f, 0.012598f, 0.010728f, -0.008487f, 
-0.018665f, 0.000418f, 0.009237f, 0.004007f, 0.001318f, 0.008078f, 0.008077f, 0.010182f, 0.025032f, 0.009805f, 0.034617f, 0.010625f, 0.029517f, 0.021222f, 0.019016f, 0.031267f, 0.023135f, -0.009454f, 0.019918f, 0.009584f, 
-0.004060f, -0.002650f, 0.015128f, 0.021756f, -0.000994f, 0.007521f, -0.008245f, 0.006504f, -0.011957f, -0.006827f, -0.018940f, 0.003795f, 0.016804f, 0.008921f, -0.023772f, 0.001329f, -0.000593f, -0.014241f, -0.008879f, -0.002232f, 
0.015154f, 0.012490f, -0.000967f, 0.012950f, -0.006153f, -0.021841f, -0.012588f, -0.021673f, 0.002467f, 0.018531f, 0.020343f, -0.006221f, -0.007676f, -0.015291f, -0.016811f, -0.006634f, 0.004086f, 0.015829f, 0.008060f, -0.011015f, 
0.004443f, 0.001537f, -0.008172f, -0.008317f, -0.003935f, 0.007649f, -0.027648f, 0.016181f, 0.002485f, -0.002031f, -0.011703f, 0.005672f, -0.008093f, -0.016672f, -0.019550f, -0.023058f, -0.016137f, -0.011784f, -0.009390f, 0.000135f, 
0.005401f, 0.004337f, -0.001924f, -0.000865f, -0.029883f, 0.012563f, 0.009932f, -0.001355f, 0.013031f, 0.012245f, 0.009906f, -0.018112f, 0.010739f, -0.016244f, -0.000008f, 0.013115f, 0.009897f, -0.006549f, -0.012659f, 0.005037f, 
-0.003831f, -0.025814f, -0.027589f, -0.004967f, -0.024164f, -0.014480f, 0.006403f, -0.006974f, 0.016755f, 0.020798f, -0.004859f, -0.012555f, -0.028088f, -0.017619f, -0.004422f, -0.004038f, 0.012543f, 0.017263f, 0.003061f, 0.002227f, 
0.009422f, -0.011248f, -0.009215f, 0.000125f, 0.014054f, -0.012917f, -0.003827f, 0.001428f, -0.001525f, -0.005315f, -0.002279f, -0.004823f, 0.001066f, -0.009248f, -0.006367f, 0.005968f, 0.003622f, 0.016109f, 0.003242f, -0.012643f, 
-0.024994f, -0.025847f, -0.015838f, -0.010890f, -0.011308f, 0.001351f, -0.004173f, 0.000594f, -0.021493f, -0.019384f, -0.004087f, 0.009619f, -0.029904f, -0.006977f, -0.000427f, -0.001611f, -0.032454f, -0.007849f, 0.016100f, -0.002650f, 
-0.014529f, -0.009496f, 0.019238f, -0.015745f, -0.005390f, -0.015154f, 0.009130f, -0.013131f, 0.012045f, 0.000163f, 0.000266f, 0.002902f, -0.021486f, 0.019750f, -0.013159f, 0.000238f, -0.011852f, -0.004923f, -0.003405f, 0.002598f, 
0.003796f, -0.009990f, 0.010081f, 0.015733f, -0.002808f, 0.002031f, -0.024701f, -0.018999f, 0.004317f, 0.005679f, -0.013133f, -0.003003f, 0.007039f, 0.010350f, 0.001242f, -0.007683f, -0.005816f, 0.015898f, -0.002758f, -0.013858f, 
-0.011355f, -0.004460f, 0.011123f, -0.005630f, -0.000760f, 0.002052f, -0.005649f, -0.008261f, 0.011950f, 0.007526f, 0.016692f, 0.008842f, -0.027554f, -0.025337f, -0.020841f, -0.023893f, -0.028663f, -0.009809f, -0.007230f, -0.019421f, 
-0.015371f, 0.015703f, -0.014042f, 0.000645f, -0.015168f, -0.024511f, -0.005582f, 0.006405f, -0.022863f, 0.002276f, 0.000984f, -0.015807f, -0.007021f, -0.001838f, 0.001242f, 0.010405f, 0.006651f, -0.021261f, -0.000725f, -0.011907f, 
0.000090f, -0.029020f, -0.002253f, -0.015239f, -0.002826f, -0.023182f, -0.002506f, -0.015323f, 0.004468f, 0.007021f, 0.011348f, 0.018746f, 0.010496f, 0.000594f, 0.004777f, 0.002357f, -0.012222f, -0.008878f, -0.025513f, -0.001905f, 
-0.000804f, -0.003891f, -0.011963f, -0.008626f, -0.013277f, -0.004844f, -0.006607f, -0.013897f, 0.006979f, -0.011328f, -0.005119f, -0.039881f, -0.026697f, -0.033225f, -0.007082f, 0.000769f, -0.018091f, 0.001126f, 0.006817f, -0.006442f, 
0.006430f, 0.019156f, 0.012120f, 0.022334f, -0.012499f, -0.009347f, 0.009297f, 0.001353f, -0.008176f, -0.019981f, -0.005855f, 0.003912f, 0.003975f, -0.008044f, 0.002388f, 0.011459f, -0.006083f, -0.003910f, -0.019371f, -0.025636f, 
-0.030836f, -0.021337f, -0.018819f, -0.019490f, 0.000196f, -0.006757f, -0.007513f, 0.004643f, 0.000344f, -0.021590f, 0.021406f, -0.005724f, -0.004692f, -0.015143f, 0.002188f, -0.018845f, 0.007603f, 0.004090f, -0.004344f, 0.003668f, 
-0.009143f, 0.010097f, -0.001508f, 0.015944f, -0.001897f, -0.000173f, -0.011178f, -0.005584f, -0.033878f, -0.020853f, -0.034254f, -0.000074f, -0.010022f, 0.005469f, -0.000125f, 0.000424f, 0.019890f, -0.004998f, -0.017922f, -0.006741f, 
-0.018382f, -0.002377f, -0.017001f, -0.008956f, 0.000470f, 0.003779f, -0.005003f, 0.002167f, 0.001162f, 0.016848f, -0.019190f, 0.009052f, 0.018719f, -0.005871f, -0.004411f, 0.014281f, -0.004744f, -0.012744f, -0.026480f, -0.029436f, 
0.007396f, 0.000094f, 0.020254f, 0.006139f, 0.005763f, 0.001201f, 0.012458f, 0.007794f, -0.000453f, -0.016417f, -0.015268f, -0.010647f, -0.025791f, 0.002359f, -0.023413f, -0.016729f, -0.016253f, -0.011814f, -0.006380f, 0.005734f, 
0.004400f, 0.004371f, 0.001684f, 0.001304f, -0.002390f, 0.000164f, -0.020734f, -0.039345f, -0.043910f, -0.010704f, 0.000623f, -0.015008f, -0.001996f, 0.023719f, 0.004196f, 0.025031f, 0.007932f, 0.010524f, -0.001420f, -0.011575f, 
-0.007899f, 0.015169f, -0.008714f, -0.030857f, -0.005093f, -0.017675f, -0.007574f, -0.000006f, 0.006532f, 0.001714f, 0.007869f, -0.004917f, 0.014861f, -0.008227f, -0.027410f, -0.003967f, -0.045825f, -0.038289f, -0.008483f, 0.002449f, 
-0.009325f, -0.005581f, 0.035671f, -0.000021f, 0.021897f, 0.001107f, 0.020720f, 0.005475f, -0.012362f, -0.015601f, 0.003583f, -0.027713f, -0.007035f, 0.013901f, 0.000425f, 0.001119f, -0.006783f, -0.015719f, 0.000609f, 0.009544f, 
0.018452f, -0.008681f, 0.019492f, -0.020121f, -0.005383f, -0.036492f, -0.019027f, -0.034217f, -0.012665f, 0.011628f, 0.015433f, 0.026405f, -0.003378f, 0.012848f, 0.010870f, -0.000500f, -0.037902f, -0.031107f, 0.000498f, -0.011215f, 
-0.014243f, 0.011879f, 0.011047f, -0.015347f, -0.002102f, 0.004736f, -0.004044f, -0.022663f, -0.004872f, -0.001799f, 0.015378f, -0.010187f, -0.014953f, -0.006636f, -0.025907f, -0.036664f, -0.022613f, 0.010136f, -0.003223f, 0.023273f, 
0.040274f, 0.011868f, -0.005288f, 0.012000f, -0.014024f, -0.017468f, -0.027063f, -0.001315f, -0.017282f, 0.015487f, 0.013199f, -0.022327f, -0.013123f, -0.013044f, 0.008465f, -0.004186f, -0.002109f, -0.012769f, 0.009634f, 0.005192f, 
0.006889f, -0.008227f, -0.006934f, -0.013740f, -0.032355f, 0.005923f, -0.008699f, -0.009558f, 0.011801f, 0.044273f, 0.037675f, 0.019167f, 0.021694f, -0.013412f, -0.014213f, -0.025953f, -0.013224f, -0.013802f, -0.006786f, -0.011547f, 
0.003988f, -0.006285f, -0.007478f, 0.012732f, -0.013640f, 0.010621f, -0.000545f, -0.011976f, 0.010954f, 0.009204f, -0.018984f, -0.018881f, -0.039142f, -0.026622f, -0.020111f, 0.004325f, 0.015496f, 0.031183f, 0.027986f, 0.041578f, 
0.004205f, 0.014877f, -0.006454f, 0.002644f, -0.016037f, -0.019772f, 0.010579f, 0.009661f, 0.004935f, -0.012145f, -0.010177f, -0.001783f, 0.009514f, -0.021164f, 0.008147f, 0.005709f, -0.011352f, 0.008453f, 0.007733f, -0.003402f, 
-0.033584f, -0.031648f, -0.017932f, 0.013200f, 0.008305f, 0.012218f, 0.016854f, 0.028518f, 0.015787f, 0.007035f, 0.009383f, -0.007778f, 0.007142f, -0.026815f, -0.016218f, -0.018092f, -0.013917f, 0.007865f, -0.006641f, -0.011454f, 
-0.008789f, -0.016926f, -0.021259f, 0.005908f, 0.011870f, 0.017210f, 0.009794f, 0.017059f, -0.027325f, -0.015586f, -0.022596f, -0.019671f, 0.004688f, -0.022983f, -0.001739f, 0.016731f, 0.043010f, 0.016591f, 0.016764f, 0.022609f, 
-0.009681f, 0.018610f, -0.004421f, -0.009663f, -0.018371f, 0.011994f, 0.015303f, 0.015966f, -0.008985f, -0.023823f, -0.018256f, 0.001460f, 0.018374f, -0.016046f, -0.014329f, 0.016874f, -0.013958f, 0.012569f, -0.021884f, -0.011294f, 
-0.027293f, -0.010347f, -0.006295f, 0.016147f, 0.007983f, -0.001299f, 0.036441f, 0.021215f, 0.023409f, 0.008605f, -0.010199f, -0.015998f, -0.031145f, 0.008362f, 0.003191f, 0.011862f, -0.015184f, 0.002461f, -0.005309f, -0.015823f, 
-0.010478f, 0.013370f, 0.008967f, -0.001585f, -0.000874f, -0.002550f, -0.017376f, -0.023349f, -0.034645f, -0.004958f, 0.015891f, -0.003954f, 0.025635f, 0.019286f, 0.030116f, 0.004113f, 0.012770f, 0.014786f, 0.012777f, 0.010302f, 
-0.012399f, -0.014553f, -0.005221f, -0.011076f, 0.007150f, -0.007434f, -0.007063f, -0.003020f, -0.015914f, -0.015307f, -0.006946f, 0.005417f, -0.004453f, 0.008218f, 0.005355f, -0.018130f, -0.000926f, 0.010248f, -0.006212f, 0.004832f, 
0.023660f, 0.012716f, 0.025082f, 0.003149f, 0.002700f, 0.017644f, 0.019030f, 0.014561f, 0.009320f, 0.007104f, -0.000193f, 0.004113f, -0.006518f, -0.009338f, 0.004908f, -0.016383f, -0.023888f, -0.020803f, -0.002694f, -0.020290f, 
0.001410f, 0.014366f, -0.005926f, 0.003131f, -0.004805f, -0.006359f, 0.018515f, 0.008844f, 0.008131f, 0.004543f, 0.004173f, 0.020521f, 0.018492f, 0.010393f, -0.000516f, 0.008387f, -0.013279f, -0.016397f, 0.003367f, -0.032835f, 
0.014679f, -0.018350f, 0.012681f, -0.008144f, -0.015703f, -0.004850f, -0.009741f, -0.014908f, -0.000566f, -0.019114f, 0.009609f, 0.021644f, -0.001764f, 0.021351f, -0.011732f, -0.009011f, -0.008418f, 0.004080f, 0.017559f, 0.020480f, 
0.020184f, -0.002049f, 0.034516f, 0.007941f, 0.012805f, 0.008639f, 0.000077f, -0.013839f, -0.019189f, 0.005637f, -0.010169f, 0.004508f, -0.010455f, -0.010518f, -0.008975f, -0.024611f, 0.011778f, 0.010788f, 0.016549f, 0.007114f, 
0.004680f, -0.003156f, 0.011932f, -0.004857f, 0.018149f, 0.000484f, -0.010952f, 0.028798f, 0.034632f, 0.011175f, 0.020985f, 0.008196f, 0.024374f, -0.012977f, -0.012539f, -0.011364f, 0.005469f, -0.010917f, -0.002882f, -0.020611f, 
-0.005407f, -0.010336f, -0.015647f, -0.011805f, -0.022974f, -0.016781f, 0.014888f, 0.010551f, 0.002053f, 0.015053f, 0.020393f, 0.017636f, 0.000796f, 0.012229f, 0.006952f, 0.009702f, 0.009189f, 0.018084f, -0.008142f, 0.019933f, 
0.002841f, 0.015804f, -0.005560f, 0.005932f, -0.017743f, -0.014190f, -0.002573f, 0.019969f, -0.017757f, -0.002372f, -0.001505f, -0.024605f, -0.022705f, -0.011677f, 0.014115f, 0.005150f, 0.008265f, 0.004971f, -0.002461f, 0.019455f, 
0.038866f, 0.018680f, 0.000895f, 0.012989f, -0.000613f, 0.004542f, 0.031965f, 0.010941f, 0.014830f, -0.005160f, 0.008514f, 0.010000f, 0.011183f, 0.017678f, 0.011312f, 0.001337f, 0.002136f, 0.005293f, -0.029205f, -0.014461f, 
-0.003095f, -0.003509f, -0.003184f, -0.015041f, 0.001055f, -0.020449f, 0.001313f, 0.007557f, 0.001861f, 0.031274f, 0.015116f, 0.020872f, 0.003585f, 0.026491f, 0.008293f, -0.004845f, 0.030359f, -0.000631f, 0.011176f, 0.004831f, 
0.008039f, -0.001255f, -0.005046f, 0.012347f, 0.004254f, 0.017793f, 0.013763f, -0.013765f, -0.001200f, 0.015203f, 0.019315f, 0.029132f, 0.013310f, -0.020287f, 0.007275f, 0.018603f, 0.004261f, -0.013118f, 0.025964f, 0.010997f, 
0.020555f, 0.022150f, 0.022602f, -0.007563f, 0.025184f, 0.015220f, -0.002939f, 0.008453f, 0.003978f, 0.021059f, 0.016069f, -0.003879f, -0.006798f, 0.007111f, -0.002774f, 0.002041f, -0.010939f, 0.018681f, 0.004311f, 0.029714f, 
-0.015883f, -0.005218f, 0.006361f, 0.011495f, 0.006126f, -0.001528f, 0.004159f, 0.025207f, 0.021742f, 0.009537f, -0.001264f, 0.029774f, 0.002432f, 0.019020f, -0.000331f, 0.000857f, 0.019325f, 0.026739f, 0.014913f, -0.002627f, 
0.036206f, 0.029384f, -0.003045f, 0.012821f, 0.020473f, 0.030985f, 0.027773f, 0.002817f, 0.015583f, -0.000073f, -0.006637f, 0.004564f, -0.006287f, 0.020703f, -0.004305f, -0.006136f, -0.003725f, 0.000906f, 0.014484f, 0.024610f, 
0.001967f, 0.014364f, 0.021413f, 0.019171f, 0.024457f, 0.013749f, 0.027246f, -0.003568f, 0.006521f, 0.011771f, 0.011713f, 0.014895f, -0.005764f, 0.027661f, 0.019837f, 0.010645f, 0.029546f, -0.003951f, -0.004343f, 0.017068f, 
-0.003504f, 0.013026f, -0.014815f, -0.006202f, 0.004163f, 0.022434f, -0.006823f, -0.012106f, -0.002779f, 0.010586f, 0.012771f, 0.012106f, 0.032806f, -0.003561f, -0.003856f, 0.015879f, 0.021399f, 0.017388f, -0.012169f, 0.023612f, 
-0.004380f, 0.004891f, 0.018106f, 0.023359f, 0.018305f, -0.011004f, -0.000544f, 0.023692f, 0.016044f, 0.014312f, 0.004394f, -0.008501f, 0.011403f, -0.019715f, -0.011868f, -0.007346f, 0.022256f, 0.017096f, 0.005816f, 0.011080f, 
0.016072f, -0.000328f, 0.021627f, 0.012701f, 0.017373f, 0.019635f, 0.000530f, 0.019550f, 0.021007f, 0.005282f, 0.030759f, 0.025006f, 0.010822f, 0.003129f, 0.018392f, 0.008578f, -0.001398f, 0.014741f, -0.003353f, -0.006927f, 
-0.017957f, -0.012884f, -0.003105f, -0.004292f, 0.011370f, -0.006143f, 0.013329f, 0.000947f, 0.018106f, 0.004130f, -0.003633f, 0.010979f, 0.011158f, -0.003322f, 0.019945f, 0.000454f, 0.007870f, 0.023566f, 0.010424f, 0.021298f, 
0.020640f, 0.010579f, 0.023535f, 0.005002f, 0.015256f, -0.002684f, 0.015547f, -0.004229f, 0.012051f, -0.001056f, -0.013149f, 0.010214f, 0.004376f, -0.002790f, 0.022688f, 0.008726f, -0.004742f, -0.011434f, 0.003866f, 0.007590f, 
0.005881f, 0.001622f, 0.013173f, -0.012161f, 0.012450f, 0.027586f, 0.002862f, 0.008524f, 0.030378f, 0.032104f, 0.026217f, 0.018220f, -0.004044f, -0.008377f, 0.020467f, -0.008386f, 0.012626f, 0.017098f, -0.005605f, -0.025055f, 
-0.009810f, 0.004698f, -0.005128f, -0.012975f, -0.018232f, -0.033133f, 0.007048f, -0.002781f, 0.004918f, -0.017503f, -0.020051f, 0.013522f, 0.004182f, -0.001177f, 0.004152f, 0.018976f, 0.001906f, 0.006034f, 0.004614f, 0.021324f, 
0.026163f, 0.016908f, 0.010089f, 0.001433f, 0.018003f, 0.005518f, -0.004569f, -0.022297f, -0.008447f, -0.015229f, 0.000317f, -0.026759f, -0.022339f, -0.026367f, 0.002465f, -0.012973f, -0.005467f, -0.016654f, -0.024757f, -0.008454f, 
-0.015250f, -0.004814f, -0.007387f, 0.017133f, 0.018078f, 0.029776f, 0.008490f, 0.000417f, 0.021802f, 0.000984f, 0.011306f, 0.005914f, 0.007734f, 0.031338f, 0.006185f, -0.010806f, -0.021610f, -0.024184f, -0.028318f, -0.023203f, 
-0.041398f, -0.035596f, 0.010155f, -0.004897f, -0.005723f, -0.014747f, -0.021932f, -0.009763f, -0.009577f, 0.001759f, 0.007149f, 0.012595f, -0.002855f, 0.030160f, -0.007836f, 0.010718f, -0.001464f, -0.007302f, 0.006006f, -0.000516f, 
0.023190f, 0.014766f, 0.025943f, 0.007208f, -0.017549f, -0.022113f, -0.026234f, -0.034428f, -0.020297f, -0.040919f, 0.008265f, 0.013793f, -0.000681f, -0.006943f, -0.019890f, -0.014328f, -0.004605f, -0.002254f, 0.014370f, 0.002852f, 
0.010156f, -0.000038f, 0.018903f, 0.008898f, -0.001849f, 0.005129f, 0.006824f, 0.010222f, 0.005354f, -0.017493f, -0.000379f, 0.014476f, -0.012027f, -0.018279f, -0.019341f, 0.003724f, -0.043263f, -0.023460f, -0.030855f, -0.011324f, 
0.009145f, 0.005660f, -0.017960f, -0.001180f, -0.009540f, -0.024275f, -0.016378f, 0.018611f, 0.018378f, -0.006228f, 0.003405f, 0.003240f, 0.009792f, 0.003952f, -0.000403f, -0.006503f, 0.003694f, 0.015764f, 0.005799f, 0.000534f, 
0.024880f, 0.020357f, 0.010971f, -0.016347f, -0.032293f, -0.018094f, -0.041431f, -0.026428f, -0.005680f, 0.007524f, 0.001150f, -0.008851f, -0.011753f, -0.021385f, -0.027514f, -0.015885f, -0.005138f, 0.007758f, -0.001224f, 0.013678f, 
0.011600f, -0.021581f, -0.015890f, -0.021870f, 0.002507f, -0.007079f, 0.005173f, 0.003639f, 0.027588f, 0.003292f, 0.003898f, 0.009683f, -0.004118f, -0.025454f, -0.010886f, -0.022532f, 0.006918f, -0.004014f, 0.011065f, -0.021721f, 
-0.014364f, -0.027364f, -0.017321f, -0.013668f, -0.017583f, -0.004169f, 0.006601f, -0.005484f, -0.011447f, -0.014994f, -0.030474f, -0.036587f, 0.001096f, 0.010478f, 0.008999f, 0.016426f, 0.014667f, 0.017759f, 0.006318f, 0.006123f, 
0.022321f, -0.010507f, 0.004706f, -0.018477f, -0.013797f, -0.002630f, -0.012828f, -0.007350f, -0.009343f, -0.008201f, 0.016274f, -0.006343f, -0.026485f, -0.031481f, -0.014307f, -0.005310f, 0.003822f, -0.003616f, 0.002974f, -0.010857f, 
0.006810f, 0.006910f, -0.014896f, -0.002723f, 0.019300f, -0.005468f, -0.000944f, 0.014046f, 0.011761f, 0.008655f, 0.015037f, -0.008588f, -0.015384f, 0.006287f, -0.000180f, -0.002281f, -0.002726f, -0.000216f, 0.009875f, 0.016027f, 
0.010976f, -0.004548f, -0.001632f, -0.028728f, -0.030263f, 0.005113f, 0.009220f, -0.005563f, -0.002235f, -0.009823f, 0.008316f, -0.002367f, -0.001290f, -0.003443f, 0.005452f, 0.012834f, 0.023930f, 0.000161f, 0.017888f, -0.004323f, 
-0.026831f, 0.007889f, -0.016495f, -0.022180f, -0.009235f, -0.001307f, 0.002331f, 0.009450f, -0.017582f, -0.014948f, -0.003122f, 0.000737f, -0.031392f, -0.024737f, 0.015002f, -0.008065f, 0.018636f, 0.017421f, 0.007079f, -0.004090f, 
0.022155f, -0.013574f, -0.002970f, 0.014755f, 0.009271f, 0.031910f, 0.001699f, 0.022054f, -0.006534f, -0.007307f, -0.003384f, -0.006004f, 0.008116f, 0.002746f, -0.010986f, -0.001419f, 0.007325f, -0.015487f, -0.029240f, -0.023028f, 
-0.015187f, -0.017113f, -0.013591f, -0.004813f, -0.004374f, 0.005236f, 0.028175f, -0.009640f, -0.006277f, 0.009196f, 0.008444f, -0.004483f, 0.014911f, 0.018036f, -0.001316f, 0.005945f, 0.028943f, -0.001622f, -0.009920f, -0.010667f, 
-0.025655f, -0.007612f, -0.016496f, 0.009037f, -0.002377f, -0.002668f, -0.028970f, -0.030451f, 0.007145f, -0.010989f, 0.006051f, -0.006028f, -0.004172f, 0.015987f, 0.003965f, 0.017681f, -0.003260f, 0.016179f, 0.019844f, 0.007077f, 
0.003774f, -0.008547f, 0.004035f, -0.018859f, 0.024210f, 0.011117f, 0.008837f, 0.010729f, -0.002091f, -0.001408f, -0.026086f, -0.022799f, 0.004570f, 0.000863f, -0.010191f, -0.030622f, -0.048610f, -0.025979f, -0.030329f, -0.006363f, 
0.005681f, -0.012873f, -0.010370f, 0.013379f, 0.017657f, -0.003387f, 0.019103f, 0.001667f, 0.001239f, -0.008749f, 0.000640f, 0.010436f, -0.009455f, 0.020838f, -0.006895f, 0.003665f, -0.000209f, -0.023779f, -0.005663f, -0.003179f, 
-0.018735f, -0.022073f, -0.018615f, -0.032015f, -0.045656f, -0.038643f, -0.048362f, -0.022302f, -0.028173f, -0.018120f, -0.005891f, 0.029218f, 0.012608f, 0.002448f, 0.009879f, 0.013388f, 0.008930f, -0.003066f, 0.003763f, 0.010662f, 
0.017807f, 0.011111f, -0.008058f, 0.010717f, 0.011749f, -0.031321f, -0.015425f, -0.003510f, -0.003395f, -0.024540f, -0.033085f, -0.030614f, -0.021399f, -0.051272f, -0.045120f, -0.050125f, -0.040038f, -0.043372f, -0.021809f, 0.007267f, 
-0.016051f, 0.001789f, 0.007731f, 0.020139f, 0.024590f, 0.020162f, -0.002571f, 0.015633f, 0.015154f, 0.000975f, -0.012572f, 0.009892f, -0.000565f, -0.008891f, -0.027058f, 0.002256f, -0.016253f, -0.029225f, -0.022219f, -0.023175f, 
-0.031590f, -0.039794f, -0.037922f, -0.075107f, -0.039229f, -0.049541f, -0.025057f, -0.000488f, -0.016322f, 0.007908f, 0.011870f, 0.001692f, -0.009937f, 0.003632f, 0.026625f, 0.021900f, -0.005875f, -0.001748f, 0.007952f, -0.015534f, 
-0.015906f, -0.011021f, -0.022676f, -0.022647f, -0.011511f, -0.019031f, -0.025668f, -0.052470f, -0.019247f, -0.037525f, -0.055621f, -0.052357f, -0.074273f, -0.040770f, -0.046731f, -0.022634f, -0.032460f, -0.010649f, -0.011316f, 0.000930f, 
0.018588f, 0.024422f, 0.022688f, 0.011621f, 0.000978f, 0.009659f, 0.009565f, -0.021029f, 0.002959f, -0.005615f, -0.015470f, 0.000031f, -0.018386f, -0.034200f, -0.030379f, -0.030204f, -0.058822f, -0.034330f, -0.046463f, -0.047198f, 
-0.081238f, -0.052094f, -0.032186f, -0.035013f, -0.015624f, -0.025298f, 0.006526f, -0.003866f, 0.008645f, -0.010725f, 0.022909f, 0.022545f, 0.011117f, -0.003440f, 0.007852f, -0.025383f, -0.024147f, -0.004688f, 0.001974f, -0.020013f, 
-0.015416f, -0.017364f, -0.025305f, -0.056306f, -0.060227f, -0.046960f, -0.055373f, -0.061103f, -0.062248f, -0.060064f, -0.051094f, -0.046646f, -0.046665f, -0.014052f, -0.018237f, -0.009624f, -0.007357f, -0.025426f, 0.001261f, -0.006088f, 
-0.008983f, 0.027089f, -0.017248f, -0.016037f, 0.010365f, 0.011781f, -0.020265f, -0.025717f, 0.000549f, -0.009194f, -0.016928f, -0.044038f, -0.032979f, -0.063380f, -0.046727f, -0.035988f, -0.061443f, -0.049950f, -0.041329f, -0.048335f, 
-0.028533f, -0.023187f, -0.001581f, -0.019925f, -0.014940f, -0.012959f, -0.006540f, -0.027084f, -0.014494f, -0.021754f, 0.019187f, -0.017734f, -0.000943f, 0.002600f, -0.017583f, -0.016898f, -0.021404f, -0.027183f, -0.025405f, -0.020183f, 
-0.043189f, -0.044113f, -0.048485f, -0.053844f, -0.038564f, -0.061541f, -0.066814f, -0.050381f, -0.036508f, -0.021678f, -0.020763f, -0.031153f, -0.035605f, -0.033184f, -0.030725f, -0.032743f, -0.007628f, -0.008541f, -0.001295f, 0.003082f, 
0.005432f, -0.014815f, -0.005150f, -0.006493f, -0.040741f, -0.036120f, -0.025246f, -0.013097f, -0.054164f, -0.032021f, -0.055093f, -0.042758f, -0.039006f, -0.036700f, -0.068841f, -0.057974f, -0.042066f, -0.037604f, -0.030573f, -0.050957f, 
-0.027292f, -0.036771f, -0.026910f, -0.031367f, -0.025644f, -0.013283f, -0.004455f, -0.006923f, -0.019316f, 0.008665f, -0.015912f, -0.005012f, 0.003050f, -0.004279f, -0.004345f, 0.001622f, -0.008255f, -0.008841f, 0.004749f, 0.015684f, 
0.007549f, 0.002311f, -0.013185f, -0.025188f, -0.019535f, -0.023938f, 0.008898f, -0.013605f, -0.011198f, -0.001707f, 0.004479f, -0.005876f, -0.020066f, -0.000900f, -0.000452f, -0.004530f, -0.011202f, -0.008719f, 0.003406f, 0.006048f, 
-0.008737f, 0.003072f, 0.004089f, 0.017700f, 0.013106f, -0.014956f, 0.010377f, 0.001736f, -0.005723f, -0.000588f, -0.014332f, 0.007776f, 0.000271f, 0.005558f, 0.013069f, 0.008560f, -0.006306f, -0.024737f, -0.023414f, 0.002961f, 
0.005960f, -0.002099f, -0.011879f, -0.001732f, -0.019469f, -0.019741f, -0.023335f, -0.001453f, 0.010640f, 0.014954f, 0.000679f, 0.009643f, -0.019900f, 0.012679f, -0.011082f, 0.004044f, 0.000026f, -0.001274f, -0.005564f, -0.018287f, 
-0.014859f, -0.014218f, -0.014541f, -0.015537f, -0.015284f, 0.006442f, 0.007967f, 0.002271f, -0.000898f, -0.009189f, -0.011199f, 0.005718f, -0.010586f, 0.002340f, -0.009473f, -0.012728f, -0.013491f, -0.015048f, -0.010084f, 0.013442f, 
-0.002582f, 0.018632f, -0.006686f, -0.016015f, 0.004464f, -0.008814f, -0.013181f, 0.006372f, -0.012561f, -0.002679f, -0.012788f, 0.005077f, 0.007536f, 0.002990f, 0.012225f, 0.006084f, 0.015252f, -0.005788f, -0.013486f, -0.020553f, 
-0.012260f, -0.024467f, -0.011741f, -0.018291f, -0.019480f, 0.006004f, 0.003625f, 0.008441f, -0.002962f, -0.006747f, 0.007148f, 0.014995f, -0.017446f, 0.015798f, -0.013521f, -0.014540f, -0.007915f, -0.017991f, -0.017935f, 0.008772f, 
-0.005965f, -0.023271f, 0.004817f, -0.024353f, -0.007313f, -0.010311f, 0.006348f, -0.013129f, -0.012881f, 0.004560f, -0.020784f, -0.028020f, -0.022594f, -0.017456f, 0.000182f, -0.017665f, -0.018872f, -0.005513f, -0.015307f, -0.011599f, 
-0.002516f, 0.017312f, -0.005171f, 0.004538f, 0.011760f, 0.007255f, -0.005033f, 0.014802f, 0.004882f, -0.002358f, -0.009938f, -0.006721f, -0.018374f, -0.013618f, 0.007536f, 0.003778f, -0.002388f, -0.015932f, 0.004233f, -0.029361f, 
0.000700f, -0.016528f, -0.017931f, -0.008406f, 0.001090f, -0.015565f, -0.004339f, -0.016489f, -0.007058f, -0.008354f, -0.002274f, -0.004043f, -0.009125f, 0.010972f, 0.002456f, -0.001122f, 0.015480f, -0.018433f, -0.018253f, 0.004272f, 
-0.017832f, -0.022366f, -0.011803f, -0.006608f, -0.023283f, -0.012068f, -0.017282f, 0.010875f, -0.000177f, -0.014175f, 0.003104f, 0.007745f, 0.000510f, -0.020323f, 0.003286f, -0.012302f, 0.012376f, -0.006330f, 0.008852f, -0.004791f, 
0.001738f, -0.005177f, -0.010329f, -0.008301f, 0.001244f, -0.002192f, -0.003190f, -0.017957f, -0.024584f, -0.018852f, -0.006507f, 0.006655f, -0.000459f, -0.010680f, -0.017194f, 0.005968f, -0.006688f, -0.000543f, -0.021595f, -0.008382f, 
-0.017368f, -0.000189f, -0.010346f, -0.020716f, -0.008750f, 0.003313f, -0.000698f, 0.019243f, 0.007490f, -0.020837f, 0.022129f, 0.022620f, -0.006270f, 0.011941f, 0.006517f, -0.009393f, 0.003478f, 0.000421f, -0.006823f, -0.009116f, 
-0.008933f, -0.003486f, -0.006346f, -0.001634f, -0.014470f, -0.011904f, -0.015387f, -0.029690f, -0.010504f, -0.004613f, 0.005213f, 0.000060f, 0.002386f, -0.000125f, -0.007103f, -0.010945f, -0.010403f, -0.013137f, 0.019451f, -0.006664f, 
-0.003393f, 0.019891f, 0.003650f, -0.001939f, 0.014807f, -0.013299f, -0.022132f, -0.004205f, -0.012840f, -0.007337f, 0.017630f, -0.009152f, -0.025513f, -0.017094f, -0.024676f, -0.023429f, 0.002758f, -0.000852f, -0.020487f, -0.016691f, 
-0.004617f, 0.000605f, -0.013475f, -0.012787f, 0.017922f, 0.003081f, -0.011090f, 0.005737f, 0.002872f, 0.010482f, 0.024726f, -0.001533f, 0.015622f, -0.000835f, 0.006631f, 0.001330f, 0.000523f, 0.003439f, 0.012831f, -0.012999f, 
-0.009489f, -0.020521f, 0.001888f, 0.000674f, -0.007485f, -0.021658f, -0.002792f, -0.005442f, -0.007486f, -0.013233f, -0.012289f, 0.002349f, -0.002487f, 0.011156f, -0.000633f, 0.017909f, 0.025696f, 0.029087f, 0.028723f, -0.004118f, 
0.003414f, 0.006231f, 0.015633f, 0.002375f, -0.004359f, 0.015946f, 0.009014f, -0.012185f, 0.004553f, 0.014500f, -0.003503f, 0.011859f, 0.004361f, 0.008077f, -0.002083f, -0.012911f, -0.022721f, -0.016830f, -0.023420f, -0.018781f, 
-0.019114f, -0.017097f, -0.019858f, -0.004325f, -0.008859f, 0.007227f, 0.016421f, -0.000414f, 0.003699f, 0.003302f, -0.003972f, 0.015456f, -0.006582f, 0.009804f, 0.020558f, 0.008590f, -0.001795f, -0.009113f, 0.000264f, 0.004572f, 
0.008696f, -0.015222f, 0.000818f, 0.005996f, -0.008276f, -0.010077f, 0.000024f, -0.001561f, -0.001178f, 0.012171f, -0.008064f, 0.001530f, 0.013301f, 0.020026f, 0.020130f, 0.008732f, 0.023604f, 0.009119f, 0.006277f, 0.006270f, 
-0.006041f, 0.000646f, -0.007163f, 0.016119f, 0.011873f, 0.020484f, 0.012028f, 0.017556f, -0.005486f, 0.007434f, -0.010310f, -0.011003f, 0.010444f, -0.015692f, 0.000941f, -0.019657f, 0.004480f, -0.009315f, -0.023600f, -0.023119f, 
-0.010049f, 0.006164f, 0.014158f, 0.000110f, 0.017598f, -0.002856f, 0.007908f, 0.010946f, 0.023263f, -0.003955f, -0.014854f, 0.013494f, 0.012156f, 0.029964f, 0.015217f, -0.023260f, -0.013235f, 0.016337f, -0.002877f, 0.013425f, 
-0.019260f, -0.000392f, 0.007776f, -0.010114f, -0.004935f, 0.003701f, -0.016572f, -0.015130f, -0.030356f, 0.008320f, -0.011667f, 0.022232f, 0.020193f, 0.001448f, 0.013096f, 0.011493f, 0.008768f, 0.001238f, 0.006273f, 0.002672f, 
0.015211f, 0.006082f, 0.010656f, 0.001093f, 0.020270f, -0.000336f, 0.002324f, 0.021815f, -0.000511f, -0.007824f, 0.012662f, -0.009700f, -0.002511f, 0.007216f, -0.009486f, 0.012101f, -0.014720f, -0.009045f, -0.012236f, 0.003854f, 
-0.001931f, 0.015016f, 0.024247f, 0.014990f, 0.024351f, 0.014478f, -0.001906f, 0.006254f, -0.014721f, 0.001867f, 0.010506f, -0.003360f, 0.016601f, 0.013935f, -0.002599f, -0.015570f, -0.011699f, 0.009283f, -0.009360f, -0.018137f, 
0.015574f, 0.003806f, -0.018225f, 0.002822f, 0.003829f, -0.018851f, -0.020085f, -0.004925f, 0.002236f, -0.000591f, -0.008430f, 0.021343f, 0.011899f, 0.004853f, 0.007534f, 0.003650f, 0.019540f, -0.011259f, 0.003621f, 0.000939f, 
-0.001238f, 0.012242f, -0.007432f, -0.007695f, -0.004589f, -0.015023f, 0.000634f, 0.006058f, -0.011591f, -0.006326f, -0.013915f, 0.014231f, -0.008675f, 0.002369f, 0.006579f, -0.003423f, -0.013700f, -0.002463f, 0.016387f, 0.019725f, 
0.021429f, 0.009841f, 0.027069f, 0.016215f, 0.012964f, -0.003765f, 0.003228f, 0.016459f, 0.014853f, 0.011910f, 0.015435f, 0.004798f, 0.022646f, 0.002559f, 0.019413f, -0.007845f, 0.008172f, -0.007137f, -0.008444f, -0.009301f, 
-0.000107f, 0.007073f, 0.009075f, -0.016482f, -0.022098f, -0.028494f, -0.005326f, -0.005234f, -0.002966f, -0.004566f, 0.027186f, 0.011010f, 0.020178f, 0.003761f, 0.005831f, -0.015283f, -0.005028f, -0.004914f, 0.004531f, 0.003133f, 
0.001091f, -0.004086f, -0.017360f, 0.015461f, -0.007543f, -0.009003f, -0.007976f, 0.006303f, 0.011858f, -0.002259f, -0.016689f, -0.017570f, 0.005838f, -0.018576f, -0.009024f, -0.002495f, -0.018378f, 0.011415f, 0.017231f, 0.012471f, 
