// Overflow-Protected 2-Layer CNN Model with Labels
#ifndef MY_MODEL_H
#define MY_MODEL_H

// Class Labels
const char* myClassLabels[3] = {
  "keyboard",
  "yellow",
  "white"
};


const float myConv1_w[] = { 0.317291, 0.253655, -0.087096, -0.025279, 0.065162, 0.109251, -0.175953, -0.087740, 0.178672, 0.151191, 0.087212, -0.197069, -0.199477, 0.216305, 0.059788, 0.094279, -0.155535, -0.130950, 0.084676, -0.066925, 0.133345, 0.108754, 0.059938, -0.072877, -0.278998, -0.144384, 0.073421, -0.051795, 0.085862, -0.142606, 0.019668, -0.059527, 0.217534, 0.065454, -0.211365, 0.135696, 0.283518, 0.095590, -0.181845, 0.159287, 0.060374, 0.061106, 0.003098, 0.203168, -0.047279, 0.210742, -0.327956, 0.069585, -0.154485, 0.120632, 0.093774, -0.018847, -0.114914, 0.080735, 0.216796, -0.029190, 0.085740, 0.200288, 0.007652, 0.212595, -0.037027, -0.017722, -0.035724, 0.015750, -0.212110, 0.354506, -0.162070, 0.123109, -0.136543, -0.055569, 0.031778, -0.039904, 0.160908, 0.035281, 0.128350, -0.141330, -0.211324, 0.293238, 0.269189, -0.063351, 0.190236, -0.005228, 0.004003, -0.027617, 0.184218, 0.119740, 0.031211, -0.322139, -0.348320, 0.137640, 0.137695, 0.245558, -0.122014, 0.028334, 0.031244, 0.132177, -0.140469, 0.084794, -0.213836, 0.147188, 0.041625, 0.084018, 0.010401, 0.259677, 0.283738, -0.043094, -0.231230, 0.190959 };

const float myConv1_b[] = { 0.044283, -0.044169, 0.142259, -0.031339 };

const float myConv2_w[] = { -0.082937, -0.223931, 0.036591, 0.024506, -0.149264, 0.183877, -0.047362, -0.002669, 0.003490, -0.049309, 0.073688, -0.048448, -0.078330, 0.010351, -0.108667, -0.000466, -0.007401, -0.015452, 0.118155, 0.015305, -0.179766, -0.178095, -0.111244, 0.011199, -0.035352, -0.012959, 0.130766, -0.064254, 0.022100, -0.010400, 0.057964, -0.036871, -0.072891, 0.010185, 0.160753, -0.037695, -0.073884, 0.125716, -0.326375, 0.188413, 0.034728, 0.048785, -0.126985, -0.070098, 0.053496, -0.059387, -0.086125, 0.128191, 0.000542, -0.194590, -0.257061, -0.044189, 0.093726, 0.070387, -0.100716, -0.083319, 0.002311, -0.191493, -0.038698, 0.021843, 0.237445, -0.112267, 0.161892, 0.015062, -0.051100, -0.130742, -0.228485, 0.023030, -0.024237, 0.125025, -0.024596, -0.128784, -0.047941, -0.161754, -0.087546, 0.053237, 0.135344, 0.153653, 0.188772, 0.171778, 0.101545, 0.137169, -0.359629, -0.056995, -0.037966, -0.045032, -0.168516, -0.170552, 0.130661, -0.138623, 0.126168, 0.096675, 0.015471, 0.099812, 0.123478, 0.009604, -0.005135, -0.215016, -0.220742, 0.033429, -0.014826, 0.179294, -0.240545, 0.058505, -0.035459, 0.203045, 0.076396, -0.043971, 0.202722, 0.102195, -0.004775, -0.123823, -0.059992, -0.068452, -0.019145, 0.045791, -0.002195, -0.307498, 0.032281, 0.097830, -0.010003, 0.021252, 0.025885, -0.054145, 0.108866, 0.053988, 0.068005, 0.029543, -0.019748, -0.049598, 0.029921, 0.041942, 0.134652, 0.043267, -0.403566, -0.121344, 0.029373, -0.038922, 0.093706, -0.077482, 0.063086, -0.060712, 0.116626, 0.046082, 0.031991, 0.279877, -0.062480, 0.049585, -0.123047, -0.062312, 0.127746, 0.062817, -0.050993, 0.118841, -0.007291, -0.029265, -0.113667, 0.184006, 0.106808, 0.043211, 0.117365, -0.048994, 0.063210, 0.079607, -0.116972, -0.070357, 0.103232, -0.025399, -0.089068, 0.162851, 0.046907, 0.048751, -0.094339, 0.092976, 0.264032, -0.021301, -0.117835, -0.179586, -0.133963, -0.092765, -0.211695, -0.021093, -0.014486, -0.020691, 0.047456, 0.006745, 0.098352, 0.055852, -0.263764, -0.104606, 0.115061, -0.000546, 0.016216, -0.076513, -0.031370, -0.005170, 0.109435, 0.015790, 0.062896, 0.067705, 0.031459, 0.129166, 0.159425, -0.016757, -0.096377, -0.038483, 0.029431, -0.084162, -0.107136, -0.191035, -0.364074, 0.026838, 0.057779, 0.004415, -0.165108, 0.098567, -0.113217, 0.051875, 0.161299, 0.030256, -0.269314, -0.002559, -0.033962, 0.072404, 0.002825, 0.021334, -0.144890, -0.137670, 0.079697, -0.162575, -0.106489, -0.011350, -0.118316, 0.133871, 0.036055, -0.110210, 0.034705, 0.028673, 0.104965, -0.048860, -0.065262, 0.008206, -0.258838, 0.043683, -0.341086, -0.102653, -0.170898, -0.167256, 0.031560, 0.146996, 0.034443, -0.064746, 0.113008, 0.136136, -0.105913, -0.081454, -0.062936, 0.007458, 0.088247, 0.036480, -0.065863, -0.075390, -0.146670, -0.122312, -0.005408, -0.119294, 0.052892, -0.063049, 0.172970, 0.097670, -0.021294, -0.130417, 0.003564, 0.044183, -0.210691, 0.005548, -0.022699, -0.155620, -0.191072, 0.104830, -0.069824, 0.001591, -0.083006, -0.031831, -0.000690, -0.110511, -0.005198, 0.117864 };

const float myConv2_b[] = { 0.000000, -0.033789, -0.043150, -0.006509, -0.040157, -0.042094, -0.050133, 0.026956 };

const float myOutput_w[] = { 0.030271, 0.006844, 0.011337, 0.021758, 0.005982, 0.007443, 0.004448, -0.016252, 0.010775, 0.017255, -0.009424, 0.020860, 0.008351, -0.006013, 0.020702, -0.003385, -0.040966, 0.022870, -0.003329, -0.075038, 0.063887, -0.054008, 0.010354, 0.048636, 0.015791, 0.005226, -0.021086, 0.014304, -0.017744, -0.006932, 0.001667, -0.015853, -0.008204, -0.017860, 0.012581, -0.001066, 0.010166, -0.059724, 0.049038, -0.007405, -0.040130, 0.010762, 0.002650, -0.111703, 0.071431, -0.058156, -0.028539, 0.037681, -0.028019, 0.003676, 0.008934, 0.006312, -0.034649, -0.027143, 0.011034, -0.017832, 0.007437, 0.013866, -0.032491, 0.025651, 0.001004, -0.067233, 0.041373, -0.005472, -0.032001, -0.006061, 0.000864, -0.122267, 0.063121, -0.018573, -0.060601, 0.065559, -0.000107, -0.008641, -0.004517, 0.011122, -0.038460, 0.007953, 0.034402, -0.058233, -0.000688, -0.016398, -0.010203, -0.020345, 0.015816, -0.074015, 0.019545, -0.006504, -0.046772, 0.032404, 0.012573, -0.123505, 0.078485, -0.029910, -0.026999, 0.029729, -0.002893, 0.005689, 0.002014, 0.010822, -0.024292, 0.011545, 0.014903, -0.044070, 0.031962, -0.005707, 0.006847, 0.007976, 0.018898, -0.020900, 0.016402, 0.041549, -0.055103, 0.007706, 0.046079, -0.114205, 0.026230, 0.025659, -0.013458, -0.024356, 0.014910, 0.031034, 0.018920, 0.024842, 0.010887, 0.024416, 0.009806, -0.005267, 0.024190, -0.002244, 0.007211, -0.020359, 0.036823, -0.046112, 0.008816, 0.017205, -0.028345, -0.026172, 0.114162, -0.068038, -0.094271, 0.011158, 0.011336, -0.009997, 0.010757, 0.007168, 0.003176, -0.009638, 0.023222, -0.029808, 0.001107, -0.009551, -0.001278, 0.014878, -0.018757, 0.022843, 0.015743, -0.005573, -0.001080, 0.035883, -0.001253, 0.000354, 0.065391, -0.020552, -0.069225, 0.038626, -0.004925, -0.029494, -0.004948, 0.008116, 0.000387, 0.017520, 0.013690, -0.026424, 0.048234, -0.033418, 0.013954, 0.001861, -0.023006, -0.000923, 0.018934, -0.012265, -0.031513, 0.027146, -0.000046, -0.007872, 0.036371, 0.021319, -0.037910, 0.016719, -0.031758, -0.002964, -0.001170, -0.015938, -0.027807, 0.034346, 0.019434, -0.002314, -0.011631, -0.010275, 0.009509, -0.001962, -0.002147, 0.020986, 0.034939, -0.008823, -0.063810, 0.028334, -0.040094, -0.037185, 0.068302, -0.037384, -0.018321, 0.034621, 0.002573, -0.001826, -0.002179, 0.000402, -0.011966, 0.025777, -0.004601, -0.050554, 0.020947, -0.023515, 0.005933, 0.000996, -0.007627, -0.029574, 0.041160, -0.032750, -0.020906, 0.046752, -0.018316, -0.026798, 0.025514, -0.037914, 0.001654, 0.031829, -0.000161, -0.013286, 0.022801, -0.005133, -0.016835, -0.003057, 0.010627, -0.021418, -0.005543, -0.030354, -0.053885, -0.001656, -0.031597, 0.014008, 0.016332, -0.025712, 0.014443, 0.018581, -0.027549, -0.030142, 0.066086, -0.042471, -0.063417, 0.009240, 0.005964, 0.028581, 0.022981, -0.007307, 0.020758, 0.032491, -0.015350, -0.027437, 0.017287, -0.039673, -0.013236, -0.004597, 0.018470, -0.028279, 0.048418, -0.033853, 0.002950, 0.026368, 0.003244, -0.016118, 0.080257, -0.027985, -0.051341, 0.010748, 0.002764, -0.018333, 0.019917, 0.019626, -0.009825, 0.025655, -0.033900, -0.011115, 0.014214, 0.002613, -0.036848, 0.031991, -0.029931, -0.025427, 0.054173, -0.037721, -0.005060, 0.019774, -0.030899, -0.015485, 0.091734, -0.060616, -0.049280, -0.011975, -0.007758, -0.007352, 0.000080, 0.026629, 0.004500, 0.022884, -0.024366, -0.019832, 0.018388, -0.039875, -0.002540, 0.005750, 0.010452, 0.002008, 0.046622, -0.061746, -0.050900, 0.014306, -0.011281, -0.027084, 0.086984, -0.076995, -0.030759, 0.022675, -0.042580, -0.011751, -0.025448, 0.004033, 0.030337, 0.028731, 0.004972, 0.001379, 0.004592, -0.014921, -0.000587, -0.014029, 0.005154, 0.031867, 0.017795, -0.026935, 0.011971, 0.052427, -0.044983, -0.006379, 0.071174, -0.091490, -0.022161, -0.015213, -0.007975, 0.016622, 0.004271, 0.012482, 0.013754, 0.030264, -0.039837, -0.050802, 0.023007, 0.002253, -0.001196, 0.012546, -0.003286, -0.012365, 0.019718, -0.031555, -0.019272, -0.002749, -0.030569, -0.008420, -0.015655, -0.058869, 0.059808, -0.064539, -0.022062, 0.042401, 0.016579, 0.028305, -0.011730, -0.009824, 0.012218, -0.027273, 0.036709, -0.035776, -0.040665, 0.019618, 0.012719, -0.008208, 0.012561, -0.010385, 0.006234, 0.023867, -0.046070, 0.023715, 0.011632, -0.118571, 0.000499, -0.049411, -0.036459, 0.067624, 0.006930, 0.001128, -0.001109, 0.019405, -0.036026, -0.039131, 0.040115, -0.012656, -0.024290, 0.028451, 0.017335, -0.003472, 0.019769, -0.025936, -0.007777, 0.024209, -0.009529, 0.022746, 0.046652, -0.110862, 0.004564, -0.041881, -0.075168, 0.065026, 0.005301, 0.011969, -0.021295, 0.012272, -0.009357, -0.027459, 0.033483, -0.018820, -0.007912, 0.016304, -0.028053, -0.012831, 0.034921, -0.037704, -0.021180, 0.043261, -0.042730, -0.005135, 0.054641, -0.094685, 0.024189, -0.068505, -0.050523, 0.056281, 0.001618, -0.001358, -0.014222, 0.031435, -0.018821, -0.043535, 0.014744, -0.029204, -0.007259, 0.022586, -0.021561, 0.001553, 0.013458, -0.065238, 0.021215, 0.016322, -0.029486, 0.012253, 0.040889, -0.071415, 0.031251, -0.070451, 0.007161, 0.025755, -0.005189, -0.003155, -0.019973, 0.018854, -0.036952, -0.017570, 0.047769, -0.022127, -0.000593, 0.004871, -0.023331, -0.008783, 0.030662, -0.004030, 0.018569, 0.003177, -0.036303, -0.002267, 0.042343, -0.064467, 0.046013, -0.034146, 0.016300, -0.014029, -0.001272, 0.006538, -0.022560, 0.003487, -0.010743, -0.029133, 0.015404, -0.030186, 0.014211, -0.033154, 0.005955, -0.008552, 0.037078, -0.050273, 0.014735, -0.011310, -0.060752, -0.002755, 0.019938, -0.083947, 0.020710, -0.003544, 0.024831, 0.008211, -0.015445, 0.018563, 0.008889, -0.005787, -0.050225, 0.004375, 0.020405, -0.002949, -0.015902, 0.015563, -0.017924, 0.032920, 0.025508, -0.064577, 0.024184, 0.040435, -0.032598, 0.021599, 0.040779, -0.132868, 0.013106, -0.001686, 0.002827, 0.026873, -0.002565, 0.002490, -0.019130, -0.008411, -0.036676, 0.020199, -0.001845, -0.044807, 0.001203, -0.006597, 0.017206, 0.032726, 0.025506, -0.061740, 0.044009, 0.018914, -0.058266, 0.018171, 0.042021, -0.145452, 0.019207, 0.021119, -0.042215, 0.007315, 0.012165, -0.004231, 0.015973, 0.017925, -0.041944, 0.013162, 0.015802, 0.002360, 0.021680, -0.005669, 0.010896, -0.014136, 0.042089, -0.041274, -0.001957, 0.005358, -0.050769, 0.008037, 0.053381, -0.140206, -0.010269, -0.009253, -0.031368, 0.044470, 0.014654, 0.028354, -0.013708, 0.021492, -0.047001, 0.011980, 0.023063, -0.046177, 0.020185, 0.002421, -0.023532, -0.010591, 0.029847, -0.033245, 0.014506, 0.029501, -0.066590, -0.014828, 0.055143, -0.112045, 0.003652, -0.031781, -0.036938, 0.040129, 0.005975, -0.006518, -0.004708, 0.024480, -0.041537, 0.023712, 0.016521, -0.022446, 0.023124, -0.004761, 0.018481, -0.002617, 0.034274, -0.050767, 0.007047, 0.001350, -0.046094, 0.002428, 0.051753, -0.107396, 0.013023, -0.009287, -0.045744, 0.061856, -0.000846, -0.008529, 0.002623, 0.011867, -0.044361, -0.009372, 0.005041, -0.046304, -0.011588, 0.003750, 0.023564, 0.028940, 0.016648, -0.058858, 0.046623, 0.031543, -0.054615, 0.024982, 0.046115, -0.113849, 0.011103, -0.000141, -0.041425, 0.037806, 0.014397, -0.002882, 0.019828, 0.017989, -0.038115, 0.014629, 0.030772, -0.036155, 0.002021, -0.000497, -0.023189, -0.009049, 0.063669, -0.040138, 0.015676, 0.029937, -0.046350, 0.010269, 0.046409, -0.131181, 0.051376, 0.060024, -0.030340, 0.015288, 0.010882, -0.001436, -0.001733, -0.004702, 0.010141, -0.018882, 0.037239, -0.019447, 0.017123, -0.033049, 0.005167, 0.000143, 0.040977, -0.029203, 0.014145, 0.022964, -0.042134, 0.005817, 0.026180, -0.080459, -0.014506, -0.021684, -0.014321, 0.058345, 0.011729, 0.015550, -0.017145, 0.020074, 0.019629, -0.047780, 0.033676, -0.043225, -0.018009, -0.012427, 0.033249, 0.022823, 0.035533, -0.045950, -0.000732, 0.026154, -0.020493, 0.022894, -0.004279, -0.148877, 0.071525, -0.062561, -0.017303, 0.034918, 0.013751, 0.000904, 0.019826, 0.021440, -0.018736, -0.020939, 0.014734, -0.005427, 0.008747, 0.012683, -0.012789, 0.023269, -0.013513, -0.009256, 0.022564, -0.012343, -0.016139, 0.029268, 0.043661, -0.066940, 0.034028, -0.054673, -0.006885, 0.026408, -0.003290, 0.010930, -0.019133, -0.014408, 0.019455, -0.017722, 0.040842, -0.015011, -0.018947, 0.026057, -0.018378, 0.015134, 0.041895, -0.035535, 0.026380, -0.024585, -0.049749, 0.036390, -0.027712, -0.100826, 0.045100, -0.011843, -0.036112, 0.023393, 0.031802, 0.002110, 0.013189, -0.013928, -0.004829, 0.026810, 0.031849, -0.015823, -0.028652, 0.016346, -0.001312, -0.019235, 0.025468, -0.032644, 0.036625, 0.049432, -0.044634, 0.007181, -0.002536, -0.046253, 0.027172, -0.046870, -0.042112, 0.003611, -0.007242, -0.002113, -0.018464, -0.006367, 0.012340, -0.017579, -0.001702, 0.014751, 0.029997, 0.003305, -0.015592, -0.004909, 0.033666, -0.046405, 0.023012, 0.028578, 0.012279, -0.003227, 0.061941, -0.001125, -0.058726, -0.034666, -0.023470, 0.022673, -0.011206, -0.000754, 0.012907, 0.008086, 0.015832, -0.009107, 0.007628, -0.006526, 0.001348, 0.012729, -0.009336, 0.000026, 0.016543, -0.042790, -0.034184, -0.010958, -0.030521, -0.025220, 0.058574, -0.005759, -0.078545, 0.031154, -0.040229, -0.000060, -0.032816, 0.014267, -0.022970, 0.020668, 0.004719, -0.012962, 0.025070, 0.022716, -0.003914, 0.021726, -0.007500, -0.025615, 0.014683, -0.008370, 0.000312, 0.033004, 0.000681, -0.003928, 0.049474, -0.012288, -0.021412, 0.012146, -0.017343, -0.034951, 0.004477, 0.004764, 0.018219, 0.002618, -0.014228, 0.010420, 0.028365, -0.017291, -0.028846, -0.002229, -0.014804, 0.005561, 0.019470, -0.040647, -0.034075, 0.008686, 0.002328, -0.015426, 0.022396, -0.043977, -0.037409, 0.032099, -0.004550, 0.020884, -0.006604, 0.013020, -0.010045, -0.004118, -0.020017, -0.012090, 0.005389, -0.029943, -0.009027, 0.008575, 0.007536, -0.006020, 0.021779, -0.024092, -0.002208, 0.020125, -0.003783, -0.010411, 0.025455, -0.019677, -0.021555, 0.035332, -0.034956, 0.012247, 0.012394, -0.019389, -0.013287, 0.003810, 0.014183, 0.004805, 0.001082, -0.019580, -0.014558, 0.029487, 0.012085, 0.012211, 0.043837, -0.013158, -0.026162, -0.010354, -0.022868, -0.022602, 0.050026, -0.021903, -0.041337, 0.018335, 0.014721, -0.023761, 0.010068, -0.014518, 0.008525, 0.007645, -0.003587, -0.022963, 0.001306, 0.014371, 0.020278, -0.015735, -0.005390, -0.002098, 0.048077, -0.020868, -0.036863, 0.022760, 0.012679, -0.022056, 0.089975, -0.036031, -0.044074, 0.026536, -0.023453, 0.000014, -0.007991, 0.003005, -0.000918, -0.016228, 0.018527, -0.020488, 0.014099, -0.018524, -0.030880, -0.000744, -0.019173, -0.003927, 0.028619, -0.025796, -0.003421, 0.046953, -0.011835, -0.019328, 0.089710, -0.042124, -0.059456, 0.011787, -0.013365, 0.018405, 0.019410, 0.002997, -0.005834, 0.007086, -0.020848, -0.043043, 0.034380, -0.011872, -0.014939, -0.021916, -0.017733, -0.006352, 0.000483, -0.031763, -0.035834, 0.041949, -0.038708, -0.015421, 0.046357, -0.056627, -0.027020, 0.005760, -0.021447, 0.006467, 0.023238, -0.013467, -0.003458, -0.011130, -0.008781, -0.036402, 0.007940, -0.016823, -0.022669, 0.009640, -0.016539, 0.002814, 0.045992, -0.033814, 0.012999, -0.002416, -0.003567, -0.007446, 0.050635, -0.046790, -0.019828, -0.043352, 0.011638, 0.030004, 0.021712, 0.020719, 0.022565, 0.010616, 0.029425, -0.033914, -0.009185, 0.005144, -0.020245, -0.005633, 0.022815, 0.013097, 0.023333, -0.010474, -0.004680, 0.034493, -0.025162, -0.019989, 0.029331, -0.069335, -0.000307, -0.044634, -0.036622, 0.015334, 0.028425, 0.021484, 0.006813, 0.013505, -0.014765, 0.000636, 0.005726, -0.013429, -0.007354, 0.000221, 0.001011, -0.001304, 0.016411, -0.035261, 0.021610, 0.008328, -0.048480, -0.007946, 0.026219, -0.073296, 0.012562, 0.013983, -0.064465, 0.031985, -0.020829, 0.018770, -0.015963, 0.010190, -0.003566, -0.001000, 0.036150, -0.040772, -0.009046, 0.017176, 0.015639, -0.001747, 0.012308, -0.042003, -0.011264, 0.032981, -0.003613, 0.009055, 0.083830, -0.050937, 0.005668, -0.033050, -0.063147, 0.069974, 0.021419, -0.023334, -0.004853, 0.018186, -0.031063, -0.049530, 0.003652, 0.000484, 0.014210, -0.008109, 0.004905, 0.004686, 0.022683, -0.038826, 0.003598, 0.002906, -0.066731, 0.036763, 0.041246, -0.077103, -0.026890, -0.065852, -0.041290, 0.086625, -0.007405, 0.025807, -0.002319, 0.006781, -0.019276, -0.003636, 0.036074, -0.022747, -0.024408, -0.012870, 0.027641, -0.006810, 0.018103, -0.031464, 0.001345, 0.055543, -0.042768, 0.032694, -0.010458, -0.063818, 0.025098, -0.029672, -0.050434, 0.073193, -0.014834, -0.022436, -0.021567, 0.013311, -0.008940, -0.016579, 0.022311, -0.040447, 0.000505, -0.027674, -0.007915, 0.010004, 0.018431, -0.037456, -0.009521, 0.042180, -0.022307, 0.040814, 0.057655, -0.077552, 0.003445, 0.009490, -0.007201, -0.010276, -0.003044, -0.029384, 0.004184, 0.001039, -0.033317, -0.000637, 0.018408, -0.038738, -0.024298, -0.018568, -0.010664, 0.019892, 0.029286, -0.050607, -0.005377, 0.040610, -0.028343, -0.014298, 0.040143, -0.095371, -0.002005, 0.000439, 0.042812, 0.005457, -0.011054, -0.007028, 0.005712, -0.000224, -0.031084, 0.019458, 0.010083, 0.000676, 0.012398, 0.018005, -0.010870, -0.015705, 0.028722, -0.043577, 0.010056, 0.010423, -0.043339, 0.008735, 0.041161, -0.079306, -0.023985, 0.016350, -0.021120, -0.008610, 0.016554, 0.009049, 0.002811, 0.000346, -0.022517, 0.013685, 0.021414, -0.019203, 0.017003, 0.001857, 0.006547, 0.022529, 0.021016, -0.059682, -0.001805, 0.012809, -0.012792, 0.016519, 0.019736, -0.089741, 0.032475, 0.063020, 0.003382, -0.024147, 0.008764, 0.028368, -0.025253, -0.003222, -0.042722, -0.009467, 0.001498, -0.008624, 0.003996, 0.002593, 0.019069, 0.008112, 0.025016, -0.018731, 0.017586, 0.026896, -0.027361, -0.001258, 0.011724, -0.099666, 0.072549, 0.004396, -0.008613, 0.046627, -0.022878, 0.000784, 0.013546, -0.007734, -0.021941, 0.006823, 0.023411, -0.053606, -0.000410, -0.025957, 0.002570, -0.029603, 0.042441, -0.053639, 0.010155, 0.024531, -0.042858, -0.000495, 0.030729, -0.102101, 0.024406, 0.007493, -0.059032, 0.043119, 0.014660, -0.015872, 0.000275, 0.018783, -0.009679, 0.016050, 0.032391, -0.055325, 0.031509, -0.010581, -0.020711, -0.015180, 0.009956, -0.064651, 0.033787, 0.041258, -0.035856, 0.008152, 0.049431, -0.120017, 0.013501, 0.000058, 0.001092, 0.024068, 0.002350, 0.015393, 0.019656, 0.011069, 0.002991, -0.012042, 0.009892, -0.038873, -0.006358, 0.006604, -0.000293, -0.021207, 0.036923, -0.045077, 0.005717, 0.041184, -0.017515, 0.034938, 0.047769, -0.075875, 0.001327, 0.041936, -0.043807, 0.025578, -0.006143, -0.003386, 0.001109, 0.039042, -0.034518, 0.023489, 0.039633, -0.002382, -0.020610, 0.008639, -0.008361, 0.015615, 0.014595, -0.052014, 0.026304, 0.045174, -0.040341, 0.000033, 0.021457, -0.111019, 0.030168, 0.058990, -0.047143, 0.028567, 0.006801, 0.015009, -0.020509, 0.024109, 0.019102, -0.052939, 0.021351, -0.024560, 0.001091, -0.000980, 0.004162, 0.021497, -0.002073, -0.036749, -0.006234, 0.021093, -0.007450, -0.008126, 0.014298, -0.046461, -0.002689, -0.053754, -0.022845, 0.028388, 0.007625, 0.027494, 0.012193, -0.000451, 0.047389, -0.062221, 0.014754, 0.000020, -0.010589, -0.016599, -0.002769, -0.015817, 0.019468, -0.070296, 0.023448, -0.009273, 0.011476, -0.002800, 0.025340, -0.109632, 0.043539, -0.015916, -0.018912, 0.013933, -0.012563, -0.004070, -0.016415, 0.003268, -0.016862, 0.000212, 0.024474, 0.012548, -0.005929, 0.000483, -0.010705, -0.004554, 0.005376, -0.058071, -0.009678, 0.017869, -0.035572, 0.045141, 0.022953, -0.033026, 0.016073, -0.019477, 0.006255, 0.062182, 0.005338, 0.014539, -0.012626, -0.023832, 0.030377, -0.015308, 0.038735, -0.001476, 0.020828, -0.011778, 0.013718, 0.000675, 0.030858, -0.013712, -0.007366, 0.007571, -0.022864, 0.033356, -0.050207, -0.087874, 0.086236, 0.016191, 0.004241, -0.023967, -0.009664, -0.014494, 0.008801, -0.002212, -0.008821, 0.004242, 0.017438, -0.020782, 0.010107, 0.010695, -0.027664, 0.023159, -0.015345, -0.019531, 0.038691, 0.029122, 0.022520, -0.012677, 0.015439, 0.003212, -0.041700, 0.012798, -0.007097, 0.013025, 0.000820, -0.026550, -0.013455, -0.000552, -0.001926, -0.009670, -0.015482, -0.000646, -0.020419, -0.022238, 0.023583, -0.008260, 0.009223, 0.000329, 0.002091, 0.032653, -0.017216, -0.009005, 0.042168, 0.069129, -0.097207, -0.026388, 0.019433, -0.014161, 0.005356, -0.018152, 0.005228, -0.007891, 0.005162, -0.032095, 0.003733, 0.035160, -0.031766, 0.025937, 0.009443, 0.001390, 0.034551, -0.003021, -0.023703, 0.014463, -0.017529, -0.024418, 0.015681, 0.021139, -0.090550, 0.010776, 0.006245, -0.024238, 0.002430, -0.026465, -0.018974, 0.001067, -0.005606, -0.000038, 0.001723, -0.003187, -0.007096, 0.010335, 0.030492, 0.027676, 0.032394, -0.000836, -0.025231, 0.012720, -0.004015, -0.037117, 0.009201, 0.026152, 0.006707, 0.024633, -0.023975, 0.029460, 0.000231, 0.013363, -0.014697, 0.017945, 0.009583, -0.041755, 0.019022, -0.015037, -0.025434, -0.006935, 0.020735, 0.028003, 0.042800, 0.001289, 0.000906, 0.021614, -0.028781, -0.003959, 0.034442, 0.015698, -0.049895, 0.032587, -0.045045, 0.004007, 0.032308, -0.009005, -0.019911, -0.001505, 0.030313, -0.014379, -0.007106, 0.012401, -0.022727, 0.013002, -0.014296, 0.031669, 0.020970, 0.009117, -0.023765, 0.034334, 0.007495, -0.012974, 0.010183, -0.020932, -0.021051, 0.011410, 0.005896, -0.009893, 0.008722, 0.017473, 0.006848, 0.017346, 0.005866, -0.020724, 0.003796, -0.033582, -0.007944, -0.026607, 0.019421, -0.010599, 0.017158, -0.013262, -0.032907, 0.014672, -0.029212, -0.011838, 0.001261, -0.045698, 0.004529, 0.029046, -0.004714, -0.010294, -0.000835, 0.006726, -0.012129, -0.008136, -0.006542, -0.010917, 0.043763, 0.006355, -0.005264, -0.020558, -0.031888, 0.006693, 0.005681, -0.025492, -0.032843, 0.007431, -0.003483, 0.006256, 0.027057, -0.037939, -0.048647, -0.002909, -0.003904, -0.030879, -0.001319, 0.012726, 0.014466, 0.015948, 0.014842, -0.017433, 0.016350, -0.011557, -0.052167, 0.033567, 0.027544, 0.027160, 0.014518, -0.024506, -0.015300, 0.017554, 0.003465, -0.027767, 0.066401, 0.026373, -0.075467, 0.026388, 0.010853, -0.029786, -0.013667, 0.003962, 0.033193, 0.006542, 0.006130, -0.016574, -0.003110, 0.012331, -0.007689, 0.019743, -0.004129, -0.016064, 0.030811, -0.006754, -0.041292, 0.021184, -0.025696, -0.017313, 0.016591, -0.001165, -0.049639, 0.003320, 0.014670, 0.028449, 0.006600, -0.004222, 0.026228, 0.040522, 0.020406, -0.046623, 0.022825, 0.003538, -0.015896, -0.014964, -0.007095, -0.008591, 0.022522, -0.005098, -0.012925, 0.005997, -0.029407, -0.010416, 0.017864, -0.048567, -0.012343, -0.042569, -0.007652, 0.065024, 0.008474, -0.003398, -0.005884, 0.010830, -0.005931, 0.004263, -0.002897, -0.019096, -0.017599, 0.001379, -0.017510, -0.012603, 0.038999, -0.005124, -0.025326, 0.031501, -0.043609, -0.006284, -0.005097, -0.078575, 0.050362, -0.033285, -0.036582, 0.010435, -0.021794, -0.005802, 0.004253, 0.016572, 0.014718, -0.015660, 0.011859, -0.016584, 0.006228, 0.007930, -0.006756, 0.028408, 0.038890, -0.017506, 0.000396, -0.008426, -0.023136, 0.013485, 0.035881, -0.085930, 0.010538, 0.010144, -0.055737, -0.001151, -0.004591, 0.033543, -0.020922, 0.014570, 0.004799, -0.000983, 0.005230, -0.051926, 0.020877, -0.006454, 0.009111, 0.010191, 0.010407, -0.047815, 0.029798, 0.040160, -0.020971, 0.013127, 0.031347, -0.095543, 0.011291, -0.003337, -0.026121, -0.004062, 0.014522, 0.010508, -0.022788, 0.003713, -0.038813, 0.000379, -0.021775, 0.009373, 0.031283, 0.011632, -0.013619, -0.025903, -0.011334, -0.021883, 0.001386, 0.001762, -0.033157, 0.006692, 0.035803, -0.110251, -0.004623, -0.046635, -0.038591, 0.044999, 0.006682, 0.013058, -0.021959, 0.000933, -0.042937, 0.026239, 0.008506, -0.002555, 0.007722, 0.000315, -0.033447, -0.010965, 0.017818, -0.050703, -0.035981, 0.044239, -0.009910, -0.004558, 0.012292, -0.057625, 0.075483, -0.015767, -0.011230, 0.054080, -0.020650, 0.016684, -0.015834, 0.005528, -0.009221, 0.006874, 0.005170, -0.037198, -0.024538, 0.006942, -0.014773, 0.015198, 0.034378, -0.038290, 0.024259, 0.016594, -0.027847, 0.010410, 0.043926, -0.103746, 0.018778, 0.025948, -0.021904, 0.014994, 0.031386, -0.005391, 0.009496, 0.011697, -0.034335, 0.020960, 0.024408, -0.052710, 0.002124, 0.005759, 0.007623, 0.005084, 0.036356, -0.028509, 0.042617, 0.022898, -0.042018, 0.017742, 0.025619, -0.075297, 0.011634, -0.016129, -0.016003, 0.045115, -0.003326, 0.003774, 0.008693, 0.000044, -0.008511, 0.020152, 0.002372, -0.031806, -0.008766, 0.017170, 0.006971, -0.011989, 0.005656, -0.037153, 0.030585, 0.002930, -0.021889, 0.032212, 0.009634, -0.098854, 0.033709, -0.011735, 0.016034, -0.009686, -0.020184, -0.004260, 0.009130, -0.013003, -0.016814, 0.019439, 0.009871, -0.028375, 0.014959, 0.011463, 0.014355, -0.028515, 0.003924, -0.033346, 0.021516, 0.042135, -0.018609, 0.020767, 0.016782, -0.058416, 0.035036, 0.021895, 0.026765, -0.028735, -0.005023, 0.008149, -0.014127, 0.025948, -0.051741, 0.014671, 0.026161, -0.023682, -0.006906, 0.005878, -0.015725, 0.000444, -0.005033, -0.043876, 0.018558, 0.022561, -0.061051, 0.010182, 0.030220, -0.078640, 0.039853, 0.005330, -0.037256, 0.011888, 0.011477, 0.009009, -0.013497, 0.043272, -0.036219, 0.012298, 0.028959, -0.008931, 0.003350, 0.012728, -0.008735, 0.009443, 0.016069, -0.039385, 0.005740, 0.016386, -0.035323, -0.025130, 0.037469, -0.082174, 0.031192, 0.030176, -0.010348, -0.015175, -0.003986, -0.020044, 0.009179, -0.002790, -0.027494, -0.009649, 0.004608, -0.042522, 0.011003, 0.021058, -0.023897, 0.019795, 0.050922, -0.033204, 0.008696, 0.027799, -0.042618, -0.013372, 0.062987, -0.086742, -0.024332, -0.015164, -0.038364, 0.043313, 0.017620, 0.004763, -0.033167, 0.017255, -0.022829, 0.002209, 0.040393, -0.055587, -0.015707, -0.013338, -0.005971, 0.005538, 0.038376, -0.024310, -0.010332, -0.006827, -0.042474, 0.003202, 0.066436, -0.107569, 0.026491, -0.027870, -0.020581, 0.028202, 0.003356, 0.027948, 0.006171, 0.029384, -0.044363, -0.019578, 0.006758, -0.011662, -0.002318, -0.016156, -0.001083, 0.012291, 0.011861, -0.048208, 0.013033, 0.005494, -0.035258, 0.002618, 0.033753, -0.116181, 0.012013, -0.008147, -0.038827, 0.011845, 0.027217, 0.010707, 0.023100, 0.011970, 0.017895, -0.063389, 0.005626, -0.008981, -0.013427, -0.025083, -0.015483, -0.015056, 0.008516, 0.018070, -0.013534, -0.001913, -0.013304, 0.020236, 0.053991, -0.049890, -0.018230, -0.015461, 0.009800, 0.009946, -0.004163, -0.015605, 0.012799, 0.003965, 0.008598, -0.014007, -0.003934, -0.030562, -0.017948, 0.001871, -0.000278, -0.004903, -0.001866, -0.042135, 0.009977, 0.003448, -0.017021, 0.033991, -0.015522, -0.036711, 0.038664, 0.002615, -0.010504, 0.030022, -0.003043, 0.002836, -0.008950, 0.004177, -0.019099, -0.031018, 0.010306, -0.025080, -0.005935, 0.020521, 0.000026, -0.005401, 0.036356, -0.030415, 0.026889, -0.009810, -0.038831, 0.036863, -0.063549, 0.017944, 0.017668, -0.019149, 0.006136, 0.012172, -0.010135, -0.007318, 0.019384, 0.015678, 0.019495, -0.020140, -0.007348, 0.010163, -0.003902, -0.021515, -0.027236, -0.008379, -0.002708, 0.009982, 0.011030, 0.009389, -0.041573, -0.015494, -0.063507, -0.052473, 0.077545, 0.021649, -0.003567, -0.021713, 0.012501, 0.004716, 0.019312, -0.027423, -0.012801, 0.001505, 0.004027, -0.023061, 0.017236, 0.009878, -0.003908, -0.027547, 0.000588, -0.021307, 0.041076, 0.009127, -0.016900, -0.022118, 0.014045, 0.010045, -0.092533, 0.006218, -0.044815, 0.007830, 0.003964, 0.009801, -0.011390, -0.005961, 0.028695, -0.020555, 0.017359, 0.005480, 0.002093, -0.002268, 0.015409, 0.001990, 0.025910, -0.015592, -0.036896, 0.005475, -0.020118, -0.024937, 0.031601, 0.012663, -0.049853, 0.024241, 0.001838, -0.009155, 0.020694, -0.021290, -0.009640, -0.036059, 0.020047, -0.021191, -0.025244, -0.014631, -0.000337, 0.000600, -0.014680, -0.018562, 0.005137, 0.019765, -0.024458, 0.013239, -0.014298, -0.035592, -0.031909, 0.024365, -0.018424, 0.004290, -0.002918, 0.016565, 0.003662, -0.013503, -0.024771, 0.008557, 0.017361, -0.021474, 0.041213, -0.015684, -0.003645, 0.014556, -0.022833, -0.028958, 0.033541, 0.017040, -0.044478, -0.023214, 0.018524, -0.026295, 0.010350, 0.021465, -0.028177, 0.006594, -0.016217, -0.008003, -0.017797, -0.028619, 0.011526, -0.022802, 0.027014, -0.023259, 0.004911, 0.002287, 0.007857, 0.028342, 0.017715, -0.012806, -0.003670, -0.015652, 0.000681, 0.015229, 0.000008, -0.009124, 0.018864, 0.037775, -0.055153, -0.020636, -0.017802, 0.034898, 0.015800, -0.011841, 0.004958, -0.016038, -0.000877, -0.056332, 0.004277, 0.003378, -0.034220, 0.012008, -0.000547, 0.012827, 0.021311, 0.001915, -0.032814, 0.032394, -0.013281, -0.002742, 0.044093, -0.018040, -0.030381, -0.002651, -0.015608, 0.008113, 0.001062, -0.032230, -0.000539, 0.010747, 0.004660, -0.025516, 0.024464, -0.016113, -0.022750, 0.011550, -0.003396, 0.008168, -0.008769, -0.002096, -0.008174, 0.003353, -0.018974, -0.027141, 0.030562, -0.037813, 0.005789, -0.019230, -0.038748, 0.002818, -0.002873, -0.007575, -0.011574, 0.013250, -0.021747, -0.016011, 0.008053, 0.001973, -0.022688, -0.004950, 0.006029, -0.020382, 0.020823, -0.014368, -0.037951, 0.007333, -0.013224, -0.017757, 0.066611, 0.037973, -0.056034, -0.005863, -0.014546, 0.007167, 0.010195, -0.009667, -0.000841, -0.010728, 0.015402, -0.029862, -0.001993, -0.011150, -0.005927, -0.020707, -0.028260, 0.009230, 0.014901, 0.001844, -0.020617, 0.028221, -0.020799, -0.022062, 0.050286, 0.027369, -0.082284, 0.037685, 0.006807, -0.011186, 0.014307, -0.002203, -0.014430, 0.001862, 0.018292, -0.036442, -0.003593, 0.018200, -0.011419, 0.014478, -0.018474, 0.008309, -0.004711, -0.037683, 0.000898, 0.014710, -0.015043, 0.021299, 0.032983, 0.011027, -0.054597, -0.004880, 0.004761, 0.035375, 0.017847, -0.004749, 0.006795, -0.008302, -0.025614, -0.046232, 0.008793, -0.010742, -0.021781, 0.003894, -0.005092, 0.033536, 0.003883, -0.017544, -0.054137, 0.003038, -0.033463, 0.000445, -0.013567, -0.024046, -0.015517, -0.033291, -0.013288, 0.019117, 0.015050, -0.018975, -0.007736, -0.003471, 0.043622, -0.026031, 0.016088, -0.007219, -0.001787, 0.012666, -0.014981, 0.032451, 0.036943, -0.020162, -0.023307, 0.015303, -0.023357, 0.008095, 0.022111, -0.053217, 0.052015, -0.031752, 0.009911, 0.055519, -0.025510, 0.029625, 0.026146, 0.023058, -0.018766, -0.009462, 0.006878, 0.008549, 0.006487, 0.005475, -0.006054, 0.008192, 0.004528, -0.012399, -0.014090, 0.027333, -0.023963, 0.004976, 0.020396, -0.070736, 0.052253, -0.014868, -0.006022, 0.031106, -0.004862, 0.019718, -0.014979, 0.008871, 0.010950, -0.037536, 0.008521, 0.006776, -0.001888, 0.005345, -0.005918, -0.012578, 0.045889, -0.015247, 0.019642, 0.000804, -0.039624, 0.004675, 0.053668, -0.083778, 0.040597, -0.024852, -0.015985, 0.010953, 0.015714, 0.000150, -0.000011, 0.008839, 0.016566, -0.048465, -0.009903, -0.013682, 0.022266, -0.003003, -0.031346, -0.009875, 0.048373, -0.019227, 0.005691, -0.005390, -0.013466, -0.004449, 0.016062, -0.065296, 0.014088, -0.033762, -0.015905, 0.042522, 0.016496, 0.010214, -0.022718, -0.019894, -0.007833, 0.001072, 0.012003, -0.042614, 0.003922, 0.032879, -0.013761, 0.024797, 0.026502, -0.049034, -0.004149, 0.024804, -0.006733, 0.004422, -0.012504, -0.114221, 0.050058, -0.023157, -0.043532, 0.020418, 0.010981, 0.024511, -0.011250, -0.012199, 0.002763, -0.001034, 0.020456, 0.001875, 0.015041, -0.007118, -0.033068, -0.014669, 0.024542, -0.060710, 0.019662, 0.036220, -0.004100, 0.014271, -0.008239, -0.028110, 0.045482, -0.018631, -0.025077, 0.017403, -0.008840, 0.012771, -0.000227, -0.033322, -0.011839, 0.009553, 0.016835, -0.028995, -0.004708, -0.012961, -0.016906, -0.008314, 0.017970, -0.049318, 0.037658, 0.034420, -0.028151, -0.004677, -0.007219, -0.087357, 0.043394, -0.006636, -0.024172, 0.023542, 0.012959, -0.008303, 0.013044, -0.013480, -0.022689, 0.029292, -0.010594, -0.026743, 0.044045, 0.021468, 0.015272, 0.026930, 0.015092, -0.035878, 0.000961, -0.006915, -0.035454, 0.010193, 0.055543, -0.074130, 0.010398, 0.009410, -0.018541, 0.012836, -0.009799, -0.015231, 0.008565, 0.015345, -0.022140, 0.015372, 0.001186, 0.009818, -0.017354, -0.034110, -0.007960, 0.004283, -0.015001, -0.041647, 0.014075, 0.010250, -0.014894, 0.043396, 0.043205, -0.030113, 0.020014, -0.005143, 0.047125, -0.050932, 0.007605, -0.013867, -0.014533, 0.011807, -0.023565, 0.014789, 0.020591, -0.028318, 0.017938, 0.013382, 0.013706, 0.020539, 0.033478, -0.032414, 0.012134, 0.016126, -0.029680, 0.006564, 0.016756, -0.046346, 0.007317, -0.005123, 0.014539, 0.003967, -0.023088, 0.000007, 0.013770, 0.030533, -0.022667, -0.004931, 0.002357, -0.018960, 0.002963, 0.004839, 0.033548, -0.022774, 0.023937, -0.015748, 0.011894, 0.013554, -0.031076, 0.022382, 0.032122, -0.066650, -0.039034, 0.021593, 0.009239, -0.044119, -0.003088, -0.003756, -0.004956, 0.035560, -0.031921, -0.020951, 0.021581, -0.011279, -0.021160, 0.004674, -0.000139, 0.016195, 0.024715, -0.024345, 0.009358, 0.026376, -0.018709, -0.019560, 0.092631, -0.048175, -0.025662, 0.004706, -0.015977, 0.025811, 0.020565, 0.006314, -0.029660, 0.029011, 0.007102, -0.016448, 0.050804, -0.028131, -0.006740, 0.032547, 0.009766, 0.014397, 0.047759, -0.058815, -0.009765, 0.014532, -0.004706, -0.020221, 0.069166, -0.064944, -0.024918, -0.027311, -0.022418, 0.074262, 0.021580, -0.014081, 0.012755, -0.007008, -0.046770, 0.011690, 0.014916, -0.027896, 0.002569, -0.005924, 0.008349, 0.009684, 0.044598, -0.021852, -0.006715, 0.021555, -0.063846, -0.014460, 0.050955, -0.109557, -0.047258, -0.006894, -0.028898, 0.038458, 0.004179, -0.017441, 0.012044, 0.019243, 0.007640, -0.051083, 0.006261, 0.024557, 0.003806, 0.000205, 0.028959, 0.007189, 0.023207, -0.021142, 0.001009, 0.005110, 0.005784, 0.003501, 0.023836, -0.005197, -0.011264, 0.003027, -0.050301, 0.047708, 0.034275, 0.034478, -0.019039, 0.031723, 0.022206, -0.022413, -0.016006, 0.002824, 0.001833, -0.003610, 0.006295, -0.010533, 0.020791, -0.007430, 0.012175, 0.004280, 0.009825, 0.036539, -0.027973, -0.016994, -0.001256, -0.013991, -0.053135, 0.003226, 0.004315, -0.012838, 0.006714, -0.003024, 0.008097, -0.008300, 0.009949, 0.033173, 0.007665, -0.006570, 0.015162, 0.025609, -0.000890, 0.007216, 0.028778, -0.002861, -0.018136, 0.037998, -0.080949, 0.006551, 0.054250, -0.009551, -0.000039, -0.011263, 0.016380, 0.000425, -0.019106, -0.011188, 0.001333, -0.016654, 0.034840, -0.011445, -0.013580, -0.017760, 0.010580, -0.016283, -0.011047, -0.029762, 0.045664, 0.006199, -0.044062, 0.029391, -0.048895, -0.010584, 0.040597, 0.001928, -0.028986, -0.031354, -0.027379, -0.012310, 0.003600, 0.011076, -0.020272, 0.018033, 0.007966, 0.006852, 0.004777, 0.013680, -0.004013, -0.003412, 0.016330, -0.042922, 0.021699, 0.017408, -0.012185, -0.020113, 0.031120, 0.036459, -0.057724, 0.033063, -0.005376, 0.005160, -0.001646, -0.008030, -0.016263, 0.007590, -0.007178, -0.009958, 0.031048, -0.002323, -0.019847, 0.016693, 0.004441, -0.002961, -0.028210, 0.006323, -0.046721, 0.031624, -0.024768, -0.006440, 0.039033, 0.055864, -0.084785, -0.007418, -0.033117, 0.018287, -0.012825, 0.014490, -0.002302, 0.033926, 0.021544, -0.012176, -0.012150, 0.025181, -0.001938, 0.006044, 0.006936, 0.023379, -0.006503, 0.020626, -0.006365, 0.011608, -0.017813, -0.002412, 0.001387, 0.050290, -0.068163, 0.020223, -0.015144, -0.013943, 0.014706, 0.009453, 0.001251, 0.003496, 0.023901, -0.011217, 0.018509, 0.005557, -0.002897, 0.017036, 0.002435, -0.013157, 0.016048, 0.035525, -0.028845, -0.018958, -0.003636, -0.028849, 0.012164, 0.036007, -0.086345, 0.024924, -0.008353, 0.029657, -0.016794, -0.013208, 0.015831, 0.041810, 0.002877, -0.018050, 0.001320, 0.008490, -0.009959, 0.017552, 0.012080, -0.018184, 0.020657, 0.029420, -0.003894, 0.025262, -0.003829, -0.022393, 0.006092, 0.035035, -0.048992, 0.033263, 0.020596, -0.008360, -0.024230, 0.003365, 0.027866, -0.003389, 0.013642, -0.025545, 0.001145, 0.012532, -0.026884, 0.015215, 0.026559, -0.002490, 0.015184, 0.011019, -0.019416, -0.010224, 0.006660, -0.055422, 0.008009, -0.015239, -0.015169, -0.027253, -0.000726, 0.007097, 0.023543, 0.012694, -0.001532, -0.018636, 0.016632, -0.021512, 0.005303, -0.023413, -0.037129, -0.007311, 0.020422, -0.020621, 0.002015, -0.027562, -0.008890, -0.008358, -0.000818, -0.019320, 0.019689, -0.035903, -0.021256, 0.014809, -0.012041, -0.013955, 0.018813, 0.000681, 0.003914, -0.022796, 0.002218, -0.014463, 0.018224, 0.001046, -0.019530, 0.002877, 0.027151, -0.020788, 0.038055, -0.006321, -0.007815, -0.008879, -0.020510, -0.022283, 0.023008, 0.017078, -0.050131, 0.022014, -0.011094, -0.030189, 0.006709, 0.019434, 0.029799, 0.000752, 0.026618, -0.010215, 0.008527, 0.017879, -0.034343, -0.021785, -0.014995, 0.012722, 0.014581, -0.010869, -0.007646, 0.013362, 0.008934, -0.029017, 0.018862, 0.009381, -0.048015, -0.005035, -0.029493, -0.003994, -0.015775, -0.015697, -0.009681, 0.024017, -0.005950, 0.009367, 0.022035, 0.016234, 0.007731, -0.009270, 0.019438, 0.015115, 0.003702, -0.016381, 0.003656, -0.025517, -0.030829, 0.012971, 0.008556, 0.006661, 0.006920, 0.036856, -0.024109, 0.000330, 0.013300, 0.029280, -0.007145, -0.000043, -0.005344, -0.005377, 0.010009, 0.001121, -0.004207, 0.000338, 0.016160, -0.023957, 0.021042, -0.028661, -0.030585, 0.030634, -0.024265, -0.036624, -0.002050, -0.024887, -0.019185, 0.029926, 0.001304, -0.001748, -0.008605, -0.008938, -0.008697, 0.010671, 0.028734, -0.008715, 0.006812, -0.013101, -0.005310, -0.003347, 0.017023, 0.008396, 0.003189, -0.039821, -0.008278, -0.001551, -0.012090, -0.001866, 0.021525, -0.063228, -0.001585, 0.005638, -0.026255, 0.006154, -0.006547, -0.009970, -0.023226, 0.014928, 0.008671, -0.034053, -0.000441, -0.002447, -0.038697, 0.019832, 0.024362, 0.030061, -0.004465, -0.036182, -0.016134, -0.012232, -0.023849, -0.011720, 0.009203, -0.021604, 0.011953, 0.003548, -0.015948, 0.001218, -0.008973, 0.003257, -0.008181, 0.018042, 0.007560, -0.059640, 0.023989, 0.012586, -0.027068, 0.012722, -0.007189, 0.024521, 0.038671, -0.021098, -0.036705, 0.035071, -0.009942, -0.035024, -0.006009, -0.030212, -0.016115, -0.053838, 0.004355, 0.071108, 0.009446, 0.005456, -0.002607, -0.010942, 0.028501, -0.008032, -0.007366, -0.012008, -0.019332, 0.020453, 0.017600, -0.008137, -0.009885, -0.027006, -0.018435, 0.019890, -0.004318, -0.030021, 0.003732, -0.029381, -0.009830, -0.035041, -0.030492, 0.048896, 0.001936, 0.004435, 0.000590, -0.007716, 0.019601, -0.000648, -0.016861, -0.012247, -0.025564, -0.002516, -0.024286, 0.004807, 0.019515, -0.016351, 0.006733, 0.039783, -0.005794, -0.015999, -0.014617, -0.029754, 0.032416, -0.015002, -0.028090, 0.050508, 0.002988, -0.002307, 0.013120, -0.007820, 0.026474, 0.011914, -0.007385, -0.002520, -0.013279, 0.024523, -0.004521, -0.004811, 0.028731, -0.025950, 0.018367, 0.018349, -0.027686, 0.015977, -0.010998, -0.055361, 0.044310, -0.039324, -0.033155, 0.013905, 0.021124, 0.014561, 0.016164, -0.000978, -0.012604, 0.018892, 0.023050, -0.018674, 0.022245, -0.007754, -0.026923, 0.024861, 0.015089, -0.038726, 0.037279, 0.029742, -0.003027, 0.012599, -0.004354, -0.038197, 0.014079, 0.014933, -0.036176, 0.030195, -0.007137, 0.017871, -0.004479, -0.025260, -0.019456, 0.036732, -0.014568, -0.015160, 0.023591, -0.022203, -0.005297, 0.006461, -0.015667, 0.003859, 0.005619, -0.008244, -0.040293, -0.014411, -0.028542, -0.063333, 0.009263, 0.029449, -0.048308, 0.026220, -0.001923, -0.028077, -0.020818, 0.006284, -0.002538, -0.009980, 0.000982, -0.011898, 0.016951, -0.003334, 0.012331, 0.010207, 0.027980, -0.016314, 0.022942, 0.023965, -0.040583, -0.007916, -0.004948, -0.054762, 0.002002, 0.045400, -0.016177, -0.065661, -0.019622, 0.003691, 0.027453, -0.025079, -0.005313, 0.005364, 0.015282, -0.019052, -0.008523, 0.012895, -0.030586, 0.010096, 0.019898, -0.025889, 0.007915, -0.001440, -0.049321, 0.009159, 0.023617, -0.051528, -0.016979, 0.061775, 0.061565, -0.088287, 0.018007, -0.027211, -0.010963, 0.021071, 0.012547, -0.002665, 0.015620, 0.001107, -0.014329, -0.007679, -0.017398, 0.016673, 0.019392, -0.060184, 0.004633, 0.021761, -0.013003, -0.005400, 0.052531, -0.034080, -0.056839, 0.031173, 0.011434, -0.050799, 0.018200, 0.008166, -0.008036, 0.020169, -0.018272, -0.021589, 0.023932, -0.028745, 0.006138, 0.013216, -0.011542, -0.007864, 0.052139, -0.033285, 0.022096, 0.035077, -0.011262, 0.012233, 0.071840, -0.037570, -0.035718, 0.044096, 0.000609, -0.039736, 0.004208, 0.012361, 0.004328, 0.029762, -0.035865, -0.000430, 0.034847, 0.010045, -0.007690, -0.005457, -0.012143, -0.009924, -0.000007, -0.049026, 0.007610, 0.049802, -0.044912, 0.010503, 0.078355, -0.046241, -0.051853, 0.031997, -0.051134, -0.009586, 0.001742, 0.014543, -0.014671, 0.005643, -0.008422, -0.028265, 0.041752, -0.009053, 0.010440, -0.010367, -0.007742, 0.016540, 0.062713, -0.026069, -0.006406, 0.008671, -0.004650, -0.001248, 0.068392, -0.058235, -0.037004, 0.003329, -0.013956, 0.004226, -0.020374, 0.004657, -0.017446, 0.012017, 0.001443, -0.029463, -0.010513, 0.030156, -0.005277, 0.022509, 0.012455, -0.004231, 0.032621, 0.008664, 0.015755, 0.000115, -0.017716, 0.009341, -0.007945, 0.013417, 0.001212, 0.000062, -0.005126, 0.002068, 0.016253, 0.015667, -0.013437, -0.021212, 0.019148, -0.039588, -0.022906, 0.018761, -0.001559, -0.004646, -0.005223, -0.012342, 0.014860, -0.016529, -0.006419, 0.010658, -0.015702, -0.000785, -0.041254, -0.040488, 0.045954, -0.024549, -0.018079, 0.013898, 0.008941, 0.002115, -0.002289, -0.010950, -0.003344, -0.003506, -0.016001, 0.005314, -0.005791, -0.007455, 0.001767, -0.003142, 0.001663, -0.029281, -0.001341, 0.018495, -0.029105, 0.035062, -0.061124, -0.050269, 0.042305, 0.004318, -0.015659, 0.030579, 0.013357, -0.019211, -0.004522, -0.008333, 0.015426, -0.017434, 0.016713, -0.012482, -0.020442, 0.000553, 0.005561, 0.010235, 0.012679, -0.018696, 0.021906, 0.012777, 0.021115, 0.004514, 0.018023, 0.034346, -0.021955, -0.031748, -0.001618, 0.018186, -0.015112, 0.018909, 0.002566, -0.015106, -0.010020, 0.021467, -0.026156, 0.005902, 0.007406, -0.009466, 0.002820, -0.015921, -0.008974, -0.011359, -0.007539, 0.026452, -0.001213, -0.028906, -0.004233, 0.061360, -0.062938, -0.010726, -0.010669, 0.023498, 0.012118, -0.003495, 0.011421, -0.006290, -0.004092, -0.012261, -0.010278, -0.003522, -0.027877, 0.013381, 0.021346, 0.005214, 0.029777, -0.000006, -0.045536, 0.002809, -0.008745, -0.032220, 0.019705, 0.081554, -0.102987, -0.019814, -0.023805, 0.016166, -0.026380, 0.006402, -0.000620, -0.011208, 0.037049, -0.020329, 0.014429, -0.011351, -0.030397, 0.016386, 0.006838, -0.018382, 0.030750, 0.009777, -0.038689, 0.013131, 0.007281, -0.016927, 0.037964, 0.042578, -0.048350, -0.008187, -0.020627, 0.025910, 0.006444, 0.007964, 0.006697, 0.006472, 0.024052, -0.022581, 0.012623, 0.008536, -0.023577, 0.002744, 0.025829, 0.002812, -0.015291, 0.026466, -0.042145, 0.007003, 0.012768, -0.027976, 0.045302, 0.034538, -0.070063, -0.012928, -0.006093, 0.003990, 0.020022, 0.033362, -0.017829, -0.012097, -0.003748, -0.019643, -0.024058, -0.002826, -0.023764, -0.015755, -0.016576, -0.001510, -0.012059, 0.022501, -0.024807, 0.041236, -0.019933, -0.005706, -0.009423, 0.008002, -0.062260, -0.019683, -0.036280, 0.004504, 0.005056, -0.026162, -0.003727, -0.007967, 0.022813, -0.022371, -0.014379, 0.002709, -0.054787, 0.016968, 0.003853, -0.018883, 0.003603, 0.009987, -0.024068, -0.005378, 0.021426, -0.025661, 0.035869, 0.015312, -0.015872, 0.032293, -0.045731, -0.018718, -0.030839, -0.000372, 0.002380, -0.004208, 0.026235, -0.030672, -0.011839, -0.002542, -0.013472, -0.012391, -0.010945, -0.010265, 0.020199, 0.015964, -0.010643, 0.034736, -0.014609, -0.021253, 0.004544, -0.032997, -0.011152, 0.008668, 0.011817, 0.006807, -0.029977, 0.016920, 0.017909, -0.014775, 0.037382, -0.010350, -0.007826, 0.007050, -0.006495, 0.032200, -0.005775, -0.009675, 0.000713, -0.026321, -0.015122, 0.030720, 0.017882, 0.002248, 0.008809, 0.010234, -0.009917, 0.027496, 0.020133, -0.025495, 0.011554, -0.003963, -0.015139, 0.001805, 0.005002, -0.015390, 0.026672, 0.006148, 0.003042, 0.004681, 0.010934, -0.025312, 0.007085, 0.023639, -0.022391, 0.007696, -0.005247, 0.009745, 0.016344, 0.024756, -0.013254, 0.025485, 0.000667, -0.026543, -0.024459, -0.018161, -0.003049, -0.000634, 0.039115, -0.009289, 0.008099, 0.014763, -0.000730, 0.019009, 0.019118, -0.010036, -0.007047, 0.005639, -0.033595, -0.016455, -0.029603, -0.002706, 0.015288, 0.027366, -0.003456, 0.000844, -0.016795, 0.028701, 0.006843, -0.015871, 0.006699, -0.008071, 0.005440, -0.012212, 0.008787, -0.010769, 0.012933, 0.018180, -0.014234, -0.001156, 0.026145, 0.013026, -0.006944, 0.010168, 0.012403, 0.014002, 0.041458, 0.027295, -0.062498, -0.012419, 0.002952, 0.017014, -0.022659, 0.013046, 0.003433, -0.003063, 0.028985, -0.020974, -0.005915, -0.029956, -0.008639, -0.023880, 0.012808, -0.001837, 0.035427, -0.014588, -0.040372, 0.019817, -0.013441, 0.021990, 0.017009, -0.004325, -0.002918, 0.061778, 0.014953, -0.027576, -0.026501, 0.014410, 0.005553, 0.017818, -0.007608, -0.009564, -0.005150, -0.000246, 0.015058, -0.001310, 0.008371, 0.030496, 0.005199, 0.004498, -0.043705, 0.008978, -0.000078, 0.010130, -0.050068, 0.039271, -0.010401, 0.023706, -0.011669, -0.011866, 0.006284, -0.005361, -0.008998, 0.002941, 0.001582, -0.026334, 0.019452, -0.016702, 0.015996, 0.003385, 0.011516, 0.001303, 0.001808, -0.002781, 0.016983, 0.006760, -0.009308, 0.010554, 0.014972, -0.003194, -0.008021, 0.069485, -0.047097, -0.004646, 0.003029, -0.017930, -0.006139, -0.021901, 0.021982, -0.026019, 0.017481, 0.023256, -0.028906, -0.016759, 0.014005, -0.011372, 0.008445, -0.011920, -0.028414, 0.011113, -0.016768, -0.005644, -0.012381, -0.010490, -0.001904, 0.028596, -0.029641, -0.014160, -0.022675, -0.006943, -0.008148, -0.016934, 0.000107, -0.032157, -0.017699, 0.012033, -0.034169, -0.019587, -0.006719, -0.000121, 0.005853, -0.003708, 0.022699, 0.021574, -0.039244, 0.008139, -0.011651, -0.021010, 0.003771, -0.046003, -0.000529, 0.042965, 0.011466, 0.024497, -0.004404, -0.028094, 0.019497, -0.010516, -0.015084, -0.025563, -0.005758, -0.010883, 0.025598, -0.015541, 0.003315, -0.004366, 0.023669, 0.024231, -0.038261, 0.011360, -0.013558, -0.046280, 0.038657, -0.074902, -0.007858, 0.049435, -0.011453, 0.001075, -0.008944, -0.005021, -0.007313, 0.023434, 0.013365, -0.032109, 0.015848, -0.032831, -0.023223, -0.019519, -0.003322, -0.040818, 0.015090, -0.002131, 0.004774, 0.013043, 0.024043, -0.060278, 0.027404, -0.066080, -0.007406, 0.047332, -0.008240, 0.028340, -0.011365, -0.022831, 0.003690, -0.005038, 0.003926, -0.002229, 0.018303, 0.005238, 0.010825, 0.002117, -0.014014, -0.018493, -0.000046, 0.025648, -0.012501, -0.011504, 0.008515, -0.054452, 0.029162, 0.001216, -0.024267, 0.004714, -0.005145, 0.006027, 0.031505, -0.002581, 0.016595, 0.038505, 0.002854, -0.025564, -0.019480, -0.000630, 0.009328, -0.012866, 0.000525, -0.005447, 0.002231, 0.006400, -0.042747, 0.045005, 0.037969, -0.068879, 0.020803, 0.037992, -0.056032, 0.002000, 0.024383, -0.014131, 0.002081, -0.022128, -0.003245, 0.023715, 0.012012, -0.020737, -0.007954, 0.003122, -0.002869, -0.020805, 0.013214, -0.002545, 0.007886, -0.008493, -0.048259, 0.015993, 0.052633, -0.052729, -0.007817, 0.048086, 0.017687, -0.065830, -0.003978, 0.007226, -0.012029, 0.005213, -0.012034, 0.021463, 0.006958, -0.005458, 0.004978, -0.001846, 0.007809, -0.004350, 0.022380, -0.025448, 0.002193, -0.002913, -0.027346, 0.019668, 0.040621, -0.029350, -0.020863, 0.028856, 0.052784, -0.072379, 0.011624, 0.020567, 0.011667, 0.022949, -0.000690, -0.009937, 0.031592, -0.004185, 0.010701, -0.004072, -0.007678, 0.015087, 0.031200, -0.062275, 0.010402, 0.038924, -0.034803, 0.001740, 0.039145, -0.045702, -0.047539, 0.036820, 0.049744, -0.029234, -0.008053, -0.006909, 0.013122, -0.005269, -0.029400, -0.006030, 0.012084, -0.006556, -0.003129, 0.018248, -0.016079, 0.014838, 0.005339, -0.039013, 0.017870, 0.027476, -0.039092, -0.008053, 0.085598, -0.060975, -0.036396, 0.037601, 0.029125, -0.048757, -0.008510, -0.009404, 0.016593, -0.006448, 0.008770, 0.024966, 0.030412, -0.024897, -0.014372, 0.011226, 0.023226, -0.017508, 0.012631, -0.032373, -0.022354, 0.015273, -0.033620, 0.009623, 0.041801, -0.055233, 0.025213, 0.013997, -0.017575, 0.000898, -0.018826, -0.031572, 0.014809, -0.012879, 0.011720, -0.042795, 0.022730, 0.016336, 0.008656, 0.004642, -0.013332, 0.002666, 0.001270, 0.027958, -0.013649, 0.009127, -0.005875, -0.020746, -0.010333, 0.026902, -0.024561, -0.018386, 0.003937, 0.018820, 0.002601, 0.008516, 0.018209, -0.000938, 0.023078, -0.021632, -0.001844, -0.006136, -0.049053, 0.020078, 0.010357, 0.002404, 0.003900, -0.014452, 0.001962, -0.024823, -0.018148, 0.032306, -0.029223, 0.003235, 0.053380, -0.026334, -0.000130, -0.012152, -0.030517, 0.017057, -0.002606, -0.014362, 0.023826, -0.001675, 0.000522, 0.004202, -0.015928, -0.007438, 0.000107, 0.013131, -0.012938, -0.013546, 0.004137, 0.000009, 0.007775, 0.015202, -0.028601, -0.040106, 0.029676, 0.013299, 0.007300, -0.021001, -0.008122, 0.007505, -0.007285, -0.021683, -0.016146, 0.022221, 0.009052, -0.003493, 0.001513, 0.005966, -0.001127, -0.008531, -0.002762, 0.000841, 0.002084, 0.023846, -0.019698, 0.017387, 0.006133, -0.007200, 0.016993, -0.004502, -0.024951, -0.009522, -0.012574, -0.014067, 0.007032, 0.021553, 0.017600, -0.017456, 0.002038, -0.015854, 0.001515, -0.028862, -0.004358, 0.018315, -0.015592, 0.005538, -0.015147, 0.017844, 0.019417, 0.000622, 0.033053, 0.020641, -0.074689, -0.011305, 0.027974, 0.005189, -0.005727, 0.019638, -0.008206, 0.016740, -0.014653, 0.011570, -0.011275, 0.004434, -0.034508, -0.021288, 0.018979, -0.010785, -0.008133, 0.013043, -0.036716, 0.013088, -0.001789, 0.007567, 0.007711, 0.051009, -0.095727, 0.010367, 0.033814, -0.032952, 0.033531, 0.005137, -0.025488, 0.004225, -0.015947, -0.035968, 0.010076, 0.003578, -0.020885, -0.030200, 0.008566, -0.002001, -0.019914, 0.003638, -0.004684, -0.014303, 0.014420, -0.050439, 0.025753, 0.043280, -0.085516, -0.032455, -0.006930, 0.008576, 0.030095, 0.003707, -0.007712, 0.023110, 0.024362, -0.011738, 0.006837, 0.019255, -0.025149, -0.002174, -0.029507, 0.009331, 0.039137, 0.020482, -0.030399, -0.009083, -0.007884, -0.029339, 0.010027, 0.050309, -0.051289, -0.003871, -0.009410, 0.010507, -0.021430, 0.011483, 0.000738, -0.010374, 0.001931, -0.036859, 0.007519, -0.007259, -0.020399, -0.004776, -0.004162, 0.000162, -0.001928, 0.018271, -0.031057, 0.006585, 0.005611, -0.011434, -0.022261, -0.002114, -0.028976, 0.005940, -0.009720, 0.025820, 0.004644, -0.020568, -0.010908, 0.020657, 0.015938, -0.021151, 0.007021, 0.000177, -0.033725, -0.008146, -0.010440, -0.013858, 0.005733, -0.011249, -0.019910, -0.003139, 0.007853, -0.024564, -0.042388, -0.020910, 0.019441, 0.011621, -0.009088, 0.011361, -0.008359, -0.031410, -0.001232, -0.009926, -0.013482, 0.013458, -0.032559, -0.014199, 0.022948, 0.015486, -0.028517, -0.010257, 0.013989, -0.025698, -0.022549, 0.005024, 0.001499, -0.010462, -0.001142, -0.016153, -0.012789, 0.012482, -0.043727, -0.043747, 0.018135, 0.007650, 0.001487, -0.029124, 0.007385, -0.018422, 0.009099, 0.027822, -0.003644, 0.012860, 0.002645, 0.017994, -0.009958, -0.008979, -0.023029, -0.003791, -0.006719, -0.028718, 0.005647, -0.022934, -0.007825, -0.018330, -0.007722, 0.014128, 0.011474, 0.016397, 0.007013, -0.011774, -0.011925, -0.009764, -0.024103, 0.013414, 0.005002, 0.003557, 0.014730, 0.000800, 0.016453, 0.009793, 0.006588, 0.002622, -0.033212, -0.009196, -0.004236, 0.019599, -0.015905, 0.027112, -0.013075, 0.011919, -0.001797, -0.017474, 0.019970, 0.008760, 0.032035, -0.003296, -0.004081, 0.008173, 0.003323, 0.005532, -0.017246, 0.005634, 0.005142, 0.001492, -0.010004, -0.004962, -0.019711, 0.012025, -0.002562, 0.000885, 0.010499, 0.043638, 0.016844, -0.028440, 0.025233, -0.018632, -0.016842, 0.008312, 0.000176, -0.014782, -0.018746, 0.015349, 0.002780, -0.006980, 0.013389, -0.010389, 0.014737, -0.013072, -0.039998, 0.027175, 0.005791, -0.004719, 0.024708, 0.043204, -0.008806, 0.028106, 0.019479, -0.021777, -0.000189, -0.009381, 0.001584, -0.005590, -0.002860, -0.033540, -0.004011, 0.014424, -0.006679, -0.018907, -0.023468, 0.001698, -0.004939, 0.004763, -0.020293, 0.023810, 0.020401, 0.015181, -0.033606, 0.024600, -0.033213, 0.002476, 0.013581, 0.004659, 0.006943, -0.010902, -0.003887, -0.008064, 0.017363, 0.015709, -0.022954, -0.010828, -0.025373, 0.012827, -0.000090, -0.005530, 0.006379, -0.003712, -0.023051, 0.009113, -0.009800, 0.017854, -0.019776, 0.052004, -0.010244, -0.032025, -0.004975, 0.010633, -0.011394, 0.011310, 0.011849, 0.007283, -0.006418, -0.015845, -0.015889, 0.001098, 0.017478, -0.026089, 0.016626, -0.014461, 0.020200, 0.031490, -0.013275, -0.019578, 0.027989, 0.003525, -0.019887, 0.010676, -0.022955, -0.031151, 0.004607, 0.032297, 0.001384, -0.016475, 0.024694, -0.000204, -0.007987, 0.005774, -0.022217, -0.003927, 0.004438, 0.005930, -0.008826, -0.000478, 0.010733, 0.017676, -0.033206, 0.000507, 0.011982, 0.001277, 0.024799, -0.041285, 0.007396, 0.018080, -0.013843, 0.010480, -0.030831, 0.005250, 0.005192, -0.014587, 0.023299, -0.010351, -0.031857, 0.020383, 0.012510, -0.009320, -0.019261, -0.012688, 0.001697, -0.013229, -0.008792, 0.017522, 0.021569, 0.001895, -0.010871, 0.006019, 0.043865, 0.005670, -0.011552, -0.009107, 0.005351, -0.003456, 0.000869, -0.000631, 0.011812, -0.045192, -0.006022, -0.032352, 0.015431, 0.009825, 0.010337, -0.014072, -0.002807, -0.022565, -0.008948, 0.005392, 0.010210, 0.012518, -0.040176, -0.019037, 0.041765, -0.032158, -0.012612, 0.057435, 0.017840, -0.011997, -0.007407, 0.006897, 0.009350, -0.034104, -0.009009, -0.001976, 0.014061, 0.005593, -0.002959, 0.007675, -0.004216, -0.006109, 0.007637, 0.023797, -0.028060, 0.028491, -0.037027, -0.039436, 0.042280, -0.070351, -0.004160, 0.075522, 0.001814, -0.005235, -0.015787, 0.000700, 0.014070, -0.009494, 0.006665, 0.002305, 0.033008, 0.016394, -0.025601, -0.007151, -0.014400, -0.022746, 0.019530, 0.037564, 0.006345, -0.004494, 0.010007, -0.012695, 0.027987, -0.044596, -0.022900, 0.065221, 0.012479, -0.004240, 0.022994, 0.004465, 0.046555, -0.000790, -0.001404, 0.003125, -0.022986, -0.027169, 0.003295, 0.001865, -0.000737, -0.015399, -0.008093, 0.011244, -0.030655, 0.001662, 0.017729, -0.039523, -0.024046, -0.050045, -0.028374, 0.052944, -0.008502, -0.013862, 0.014096, -0.027845, -0.005871, -0.029934, 0.002079, -0.006557, -0.001120, 0.015510, -0.000671, -0.021889, 0.015460, -0.012636, -0.011319, 0.017331, -0.014429, 0.019639, 0.014105, -0.011541, -0.023891, -0.005397, -0.001705, 0.030049, 0.034150, 0.021915, -0.007129, 0.013075, -0.000615, -0.003704, -0.001665, -0.019351, 0.013226, -0.001934, -0.032792, -0.008582, 0.024897, -0.031722, -0.008693, 0.025189, -0.042531, 0.028974, 0.037085, -0.032336, -0.051602, 0.054353, 0.001670, -0.014951, -0.003370, -0.015391, -0.013593, -0.007772, -0.002888, 0.001063, -0.008427, -0.040078, -0.017088, 0.014074, 0.002862, 0.004922, 0.007622, -0.037092, -0.013409, 0.014109, -0.030923, 0.000066, 0.012330, -0.051801, 0.000489, 0.036356, 0.023001, -0.077964, -0.000709, 0.014940, 0.018876, -0.003478, -0.019525, 0.005336, 0.020100, -0.019595, 0.010507, -0.013471, -0.025308, -0.004232, 0.039880, -0.033231, 0.003458, 0.025216, -0.012276, -0.016249, 0.064665, -0.061272, -0.032898, 0.009604, 0.020768, -0.045166, -0.000151, 0.018693, 0.015603, -0.022791, 0.025241, -0.013518, 0.004939, -0.007349, -0.005071, 0.007722, -0.031237, -0.003504, 0.013749, -0.019963, -0.035504, -0.010202, -0.041813, -0.001236, 0.014261, -0.065791, 0.009688, 0.009559, 0.023947, -0.048382, -0.001701, 0.013791, -0.005877, 0.010024, 0.003985, -0.038191, 0.012307, 0.002404, -0.020607, 0.011973, -0.003486, -0.011217, -0.017541, 0.018744, -0.011536, -0.001882, -0.008954, 0.022456, 0.028740, -0.014438, -0.019217, -0.051854, -0.011243, -0.025899, -0.005603, -0.008624, -0.020599, 0.012565, 0.017654, -0.037763, 0.031576, 0.004054, -0.023231, 0.003917, -0.001212, -0.002709, 0.021592, 0.011245, -0.013185, 0.016667, -0.003744, 0.013951, -0.023990, -0.025541, 0.034916, 0.002977, 0.007607, 0.007751, 0.014581, 0.022811, -0.028021, -0.022289, -0.006724, 0.011860, -0.011438, -0.008764, -0.009691, -0.007787, 0.000526, 0.000824, 0.014683, -0.018024, 0.043770, -0.010363, -0.011246, -0.002380, -0.046243, -0.023909, 0.043741, 0.007689, -0.003370, -0.007876, -0.002462, -0.025492, -0.005480, -0.017283, 0.010499, -0.009323, -0.023468, 0.015306, 0.014226, 0.001947, -0.030551, 0.009577, -0.011501, 0.004253, -0.017790, 0.005993, 0.011298, -0.022654, 0.034804, 0.013499, -0.035830, -0.013904, -0.039005, 0.001266, -0.007693, 0.026750, -0.006334, -0.023748, -0.005282, 0.018797, 0.021099, -0.002776, 0.021998, -0.014223, 0.010351, -0.006816, 0.030403, 0.030327, -0.001531, 0.009659, -0.000724, -0.017381, 0.005467, 0.066005, -0.053521, 0.002703, -0.003545, 0.007399, -0.006336, 0.003383, 0.000501, -0.009246, 0.000749, -0.007817, 0.006786, 0.023067, -0.015191, -0.004948, 0.004751, -0.015455, 0.024274, 0.006906, -0.070845, 0.028186, -0.001264, -0.023640, -0.007219, 0.087187, -0.086296, 0.032257, -0.020352, 0.013895, 0.014813, 0.012885, -0.013149, -0.022125, 0.039583, -0.028569, 0.006263, 0.024704, -0.001607, 0.000278, 0.026761, 0.006645, 0.009005, 0.050063, -0.023746, -0.000839, 0.026801, -0.023897, -0.007841, 0.049137, -0.044475, 0.006789, 0.005989, 0.013549, 0.017981, 0.004078, -0.016176, -0.026035, -0.003586, -0.047334, -0.013468, 0.032872, -0.029106, 0.003765, -0.016726, 0.010780, 0.018495, 0.024200, -0.021120, 0.026073, 0.010756, 0.000286, -0.009035, 0.045651, -0.050186, 0.035091, -0.019704, -0.014100, -0.008347, -0.008076, -0.022059, -0.021615, -0.003431, -0.038874, -0.003634, 0.031404, -0.027196, 0.008825, -0.030216, 0.022361, 0.007585, 0.017905, -0.036341, -0.019350, -0.001286, -0.029910, -0.006611, 0.002136, 0.007006, -0.025361, -0.031150, 0.021399, -0.016266, -0.000033, -0.004611, -0.003710, 0.018414, -0.024104, -0.029874, 0.000619, -0.023463, -0.000905, -0.010099, -0.001751, 0.009830, 0.012842, 0.003278, 0.029744, -0.001098, -0.014177, -0.028348, 0.008890, 0.009815, -0.001403, -0.029804, 0.024048, 0.005171, -0.017184, 0.016565, -0.013776, 0.016291, -0.010336, 0.008779, 0.023263, -0.014990, -0.005645, 0.024722, -0.009193, -0.001664, 0.009421, -0.026273, 0.010789, 0.023145, 0.013232, 0.024003, 0.019416, -0.023658, 0.017222, -0.026988, -0.009331, 0.014451, 0.007281, 0.006204, -0.012692, 0.006359, -0.012133, 0.004432, -0.008662, -0.013455, -0.002533, 0.001104, -0.003462, -0.007213, -0.018029, -0.007687, -0.011928, 0.016807, 0.010959, -0.013495, 0.024074, -0.020400, 0.007367, -0.022807, 0.022469, 0.013154, -0.024989, 0.000157, -0.019956, 0.025594, 0.022264, 0.023520, 0.009065, -0.019161, 0.011327, -0.024280, 0.012128, -0.000144, 0.011216, -0.005663, 0.012810, 0.013695, -0.004381, -0.035245, 0.067144, -0.032839, 0.003648, -0.030160, 0.009836, 0.030852, -0.022843, -0.008323, -0.026903, 0.010175, -0.003931, -0.001683, 0.022669, 0.009335, 0.012003, -0.008115, 0.008420, -0.004256, 0.005489, 0.005490, 0.002281, 0.024408, 0.008739, -0.031384, 0.052356, -0.016654, -0.002701, -0.045419, 0.012673, 0.004565, 0.018134, 0.026286, -0.047471, 0.016104, -0.006385, -0.011588, -0.003824, 0.025038, 0.003151, -0.002035, 0.024394, 0.005735, 0.004503, -0.020823, 0.004519, 0.013543, -0.017905, -0.032299, 0.044857, -0.032624, 0.028197, -0.011656, -0.011605, 0.002319, -0.018732, 0.007757, -0.001989, -0.011908, 0.012837, -0.035732, -0.019017, 0.013618, -0.009620, -0.019014, -0.006674, -0.028368, 0.036719, -0.040926, 0.022034, 0.009897, -0.019340, -0.013051, 0.016350, -0.018628, 0.024217, -0.016177, -0.031825, 0.027271, 0.006357, 0.007937, 0.001775, 0.001418, 0.012658, -0.006662, 0.003839, -0.005350, -0.015087, -0.007832, -0.022167, 0.026787, 0.035828, -0.059903, -0.009928, -0.008190, -0.015055, -0.035923, 0.051920, -0.013341, -0.006893, 0.008194, -0.019899, 0.007653, 0.005328, -0.018986, -0.016021, -0.008749, 0.004424, -0.024398, 0.029723, 0.032308, -0.004082, 0.000501, -0.001324, 0.020689, 0.014272, -0.008876, 0.013786, 0.001539, -0.028146, -0.020065, 0.031254, 0.018885, -0.012262, 0.001891, 0.000217, -0.014524, -0.000177, 0.009867, -0.011379, 0.033138, -0.011515, -0.000645, 0.015688, -0.018714, 0.006073, 0.029657, 0.007327, 0.031668, -0.024658, -0.002389, -0.015846, 0.009802, -0.025678, -0.047131, -0.042516, 0.043369, -0.007517, 0.013726, -0.014605, 0.002982, -0.015847, 0.013011, -0.018203, 0.001625, 0.011313, 0.023749, 0.006139, -0.027780, -0.028341, -0.008691, -0.018256, -0.035131, 0.011609, 0.015851, -0.010091, 0.009583, -0.005929, -0.026232, -0.022715, 0.037727, 0.013769, -0.009612, 0.023309, -0.010697, -0.001483, 0.003627, -0.025233, -0.002446, -0.021621, 0.028600, -0.019668, -0.018950, -0.024565, 0.008174, -0.002865, -0.008515, -0.012954, 0.022327, 0.016196, -0.012436, -0.002380, 0.001469, -0.038107, 0.018909, 0.013328, -0.021560, 0.014970, 0.020951, -0.030128, 0.019856, -0.007701, 0.003823, 0.009716, -0.002820, -0.007510, 0.008623, -0.005943, -0.016656, 0.000284, 0.004004, -0.021795, -0.002608, 0.012322, -0.015025, -0.022918, 0.018230, -0.024558, 0.010124, -0.016627, -0.003896, 0.010592, 0.008235, 0.005538, 0.009347, -0.031558, -0.000116, -0.007531, -0.000576, -0.018938, 0.036582, -0.007718, 0.003377, 0.030439, 0.011420, 0.008090, 0.009400, 0.018952, -0.002239, -0.017580, -0.040484, 0.009848, 0.002814, -0.047109, -0.018295, 0.079197, 0.019833, 0.006651, 0.002730, -0.007954, -0.002133, 0.009991, 0.015731, -0.032059, 0.020596, 0.009058, -0.002148, 0.020574, -0.001883, -0.016436, -0.001564, 0.038439, -0.011603, 0.020813, 0.010390, -0.025294, -0.007082, -0.045225, 0.012938, 0.053397, -0.019660, 0.015810, 0.000451, -0.011869, 0.023879, -0.012491, -0.002863, -0.020568, -0.016082, 0.022476, 0.015605, -0.016776, 0.014411, -0.028265, 0.012614, 0.020140, -0.009956, -0.009062, 0.056444, -0.049216, -0.018851, -0.052679, -0.018344, 0.025509, 0.016304, -0.001451, -0.001511, 0.017076, -0.009904, -0.010829, 0.005443, -0.001102, 0.005834, -0.007937, -0.013553, -0.007478, 0.020797, -0.001234, 0.001974, 0.013062, -0.007924, -0.031761, 0.034823, -0.015743, -0.036726, -0.039194, 0.042544, 0.049220, -0.005035, -0.002555, 0.016105, 0.021144, 0.004696, -0.020836, 0.009360, 0.000564, 0.007225, -0.002308, 0.014673, 0.011399, 0.020347, -0.006890, 0.006217, 0.005988, -0.022611, -0.006809, 0.021192, -0.049966, 0.004670, -0.023834, 0.015094, 0.047117, -0.009917, 0.005593, -0.009533, -0.000225, 0.006751, -0.038835, 0.045536, 0.021884, -0.015570, -0.012932, 0.000083, -0.000868, -0.005566, -0.010213, 0.006186, 0.031730, -0.025426, -0.020051, 0.045683, -0.050475, -0.000945, 0.015486, -0.008538, 0.013649, 0.020353, 0.024890, 0.003314, 0.028222, -0.012794, -0.024986, 0.023755, -0.037205, 0.000111, -0.012618, 0.001193, -0.031116, 0.017275, -0.005790, -0.004148, 0.016261, -0.039416, -0.026529, 0.029802, -0.029990, -0.011856, 0.073270, -0.000027, -0.039725, 0.010120, -0.008630, -0.007151, 0.024342, 0.028125, -0.005371, 0.007598, -0.005961, -0.007028, 0.001522, 0.008555, -0.004855, 0.006958, -0.022156, -0.004617, -0.006959, -0.023373, 0.026021, 0.005898, -0.027137, 0.015765, 0.015890, 0.013790, -0.029962, -0.000773, -0.010474, 0.024539, 0.019760, 0.006848, -0.001259, -0.005856, -0.015616, 0.012147, -0.020724, -0.005652, -0.022119, 0.010605, -0.004331, 0.001054, -0.007502, -0.008879, 0.024559, -0.017994, 0.000820, 0.024995, -0.020783, -0.017326, -0.004757, -0.016814, -0.001776, 0.009472, 0.026982, -0.011993, 0.003385, -0.004658, 0.014448, -0.005391, 0.022465, -0.027322, 0.008926, -0.020245, -0.007811, 0.020301, 0.016851, -0.004687, -0.004729, -0.055131, 0.005384, 0.040788, 0.003471, -0.026400, -0.009946, 0.010108, 0.022218, 0.018955, 0.006507, 0.021061, -0.021627, 0.009982, 0.008854, -0.027998, 0.015544, -0.014680, 0.015166, 0.022534, -0.023511, 0.003069, -0.009564, -0.013580, -0.030383, 0.006461, 0.057731, -0.094608, 0.001490, -0.028373, -0.008470, 0.006539, -0.010773, -0.004766, -0.006057, 0.026138, -0.013337, -0.025044, 0.037707, -0.018193, -0.012875, -0.013329, -0.006370, 0.007000, 0.009733, -0.030326, -0.010952, -0.019691, -0.021397, -0.002740, 0.051158, -0.119163, -0.007172, 0.026837, -0.000410, 0.000004, 0.026714, -0.018195, -0.011886, 0.029738, -0.019820, 0.033485, -0.005142, -0.041658, -0.029354, -0.011429, -0.023987, -0.001036, 0.002928, -0.018878, -0.017035, 0.019260, -0.025148, -0.000497, 0.107577, -0.110964, 0.018302, -0.011603, 0.000425, -0.000775, 0.001024, -0.030188, 0.011328, -0.003631, -0.044898, 0.009083, 0.009710, 0.009572, 0.016480, -0.028772, 0.004983, 0.004112, 0.037078, -0.068188, 0.010365, 0.022117, -0.013111, -0.042194, 0.046125, -0.053032, 0.008141, -0.001162, -0.012167, 0.005559, -0.012528, 0.013509, -0.037284, 0.025430, -0.007518, -0.015213, 0.014559, -0.014856, -0.007100, -0.000481, -0.012118, 0.001780, 0.004227, -0.053278, -0.019796, 0.015717, -0.014439, -0.004763, 0.005034, 0.007255, -0.004480, 0.002144, -0.013090, 0.004994, -0.016265, -0.025944, -0.009883, 0.011067, 0.014435, -0.005211, -0.008960, -0.008600, -0.015103, -0.003137, -0.009011, -0.026626, 0.035733, -0.027133, -0.011476, -0.011184, -0.005571, -0.030231, -0.009107, 0.005617, 0.031191, -0.013173, 0.006049, -0.010422, 0.023664, -0.000724, -0.008224, 0.022264, -0.039082, -0.008798, 0.037406, -0.011981, 0.010421, 0.018965, -0.007082, -0.032912, 0.023114, -0.015183, -0.011531, 0.013506, -0.035253, -0.041394, 0.029444, -0.014570, 0.008674, -0.042616, -0.006859, -0.030645, 0.006849, -0.000684, -0.022415, 0.028988, 0.015917, -0.005059, -0.000614, -0.013094, -0.003974, -0.005039, 0.000602, -0.010883, 0.023737, 0.012457, 0.007718, 0.018599, 0.023146, -0.012216, 0.012132, 0.005339, -0.003131, -0.010875, -0.003632, 0.009961, 0.032778, -0.004277, -0.007796, 0.024333, -0.008338, -0.020048, 0.012448, -0.013356, -0.018217, -0.009237, 0.005741, 0.005269, 0.002702, 0.012245, 0.005771, 0.014191, -0.005357, 0.001066, 0.012341, -0.027659, 0.000327, -0.033521, 0.043076, -0.002773, 0.020269, 0.004532, -0.022317, 0.023590, -0.030651, -0.021454, 0.007728, -0.009901, 0.003706, -0.018146, 0.010090, 0.013593, -0.001066, -0.037432, 0.003351, -0.018238, 0.012893, -0.042018, 0.005032, 0.039644, -0.026351, -0.044898, 0.034102, -0.011636, -0.000895, -0.017617, -0.004230, 0.008242, 0.019177, 0.015147, 0.005714, 0.043389, -0.022188, -0.001229, -0.015930, -0.026780, 0.023969, -0.013364, -0.026740, 0.005420, 0.007898, -0.085144, 0.013828, 0.014605, -0.004073, -0.037941, 0.052785, -0.001038, -0.016149, 0.000057, -0.033866, 0.007148, 0.014494, -0.021098, -0.024690, 0.005157, -0.030850, -0.001856, 0.012323, -0.026694, 0.012656, 0.013623, 0.002286, 0.001456, 0.002351, -0.043777, -0.013217, 0.027389, 0.026196, -0.001879, -0.004910, 0.008921, -0.000762, 0.003252, -0.016618, 0.012057, 0.037931, -0.040256, -0.018110, -0.004389, 0.000846, 0.006556, 0.028816, 0.013842, -0.001559, -0.026953, -0.024551, 0.020988, 0.002758, -0.019000, -0.010711, -0.015852, 0.004855, -0.026088, -0.001754, 0.014139, 0.012308, 0.018637, -0.011326, 0.001359, 0.039015, -0.019086, 0.009554, 0.029421, 0.001388, -0.020938, -0.003020, -0.020146, 0.014297, -0.022938, -0.017960, -0.007108, 0.011232, -0.009292, -0.046733, 0.030467, 0.012593, 0.020312, 0.003717, -0.019737, 0.004166, -0.021528, -0.010587, 0.002282, -0.007478, -0.007410, 0.007626, -0.000392, -0.031745, 0.007214, 0.012798, -0.004843, 0.014919, 0.007623, -0.004187, -0.001363, -0.001634, -0.040575, 0.009949, 0.009971, 0.002854, -0.012354, 0.014716, 0.009647, -0.011906, -0.015035, 0.016726, -0.018094, -0.019645, -0.002678, 0.018396, -0.002952, 0.015607, 0.005757, -0.017678, 0.019239, -0.016113, 0.007518, 0.016842, 0.008478, -0.002480, -0.020008, -0.005613, 0.002564, 0.013794, -0.004927, -0.010938, -0.022126, 0.006732, -0.021631, -0.033610, -0.004441, 0.003373, -0.008166, 0.003107, -0.010857, -0.015033, 0.022230, -0.001505, 0.006290, 0.003031, -0.002407, 0.012010, -0.002641, -0.014154, -0.026097, -0.013631, -0.020365, 0.008721, -0.027372, 0.006081, 0.000281, 0.002673, 0.026270, 0.018450, 0.003891, -0.009141, -0.016786, 0.006924, -0.024788, 0.003766, -0.005803, 0.021567, 0.018814, 0.006027, 0.011455, 0.014144, 0.015477, 0.007113, -0.037610, -0.005921, -0.013631, 0.015623, -0.010095, -0.010456, 0.003264, -0.013292, 0.004438, 0.000121, 0.009228, -0.017076, -0.016968, -0.005509, 0.008149, 0.000529, -0.002241, -0.010667, 0.004354, -0.016039, -0.005816, 0.008760, 0.008741, -0.001582, -0.008272, 0.029151, -0.013504, -0.017896, -0.018859, 0.008401, -0.015659, 0.010392, -0.004478, 0.000091, 0.021889, 0.024721, 0.001745, -0.004420, 0.018689, -0.010894, -0.001627, -0.016403, 0.005078, 0.024287, 0.001512, -0.023081, 0.004551, 0.008151, -0.015559, 0.048317, -0.024661, 0.023541, -0.023597, 0.002238, -0.021216, -0.002262, -0.019538, -0.022290, 0.016984, -0.019870, 0.009933, 0.011503, -0.046995, -0.012114, -0.018504, 0.013058, 0.013801, -0.002235, -0.006276, 0.009206, 0.009702, -0.002464, 0.026809, 0.002521, 0.007042, -0.036545, 0.000444, 0.017952, 0.025311, -0.018515, -0.003727, 0.021713, -0.002094, -0.000322, 0.017864, -0.001197, -0.025451, -0.016141, -0.006816, -0.008544, 0.001996, -0.019783, -0.024025, 0.009003, 0.013972, -0.018680, 0.044046, -0.043121, -0.030001, -0.022986, 0.026876, 0.027240, -0.009755, -0.001811, -0.027411, 0.009879, -0.031756, -0.032230, 0.000597, -0.015691, 0.004961, 0.004622, 0.001659, 0.005990, 0.030546, -0.011042, -0.013121, -0.005610, -0.003280, 0.000660, 0.060135, -0.017507, -0.066499, -0.054090, 0.008960, 0.050047, 0.026993, -0.016676, 0.004592, 0.022359, 0.032734, -0.036085, 0.024005, -0.021081, -0.012464, -0.017917, -0.031122, 0.011712, 0.041832, -0.025109, -0.016376, 0.013018, -0.020207, 0.002932, 0.058021, -0.010370, -0.070659, 0.003075, 0.045470, 0.026081, 0.002587, -0.009293, -0.002113, 0.023681, -0.027667, -0.017665, 0.014828, 0.013484, -0.001174, 0.004386, 0.005264, 0.011211, 0.005011, -0.018578, -0.005754, 0.027879, -0.016989, -0.008033, 0.066391, -0.020310, -0.051325, -0.036106, -0.002070, 0.022900, -0.003754, 0.014547, 0.004026, 0.032986, -0.033835, -0.033826, 0.009038, 0.012884, -0.011334, 0.003266, -0.025535, -0.029162, 0.021828, -0.021497, -0.012066, 0.016802, -0.027228, 0.004000, 0.050106, -0.026997, -0.021778, -0.025542, 0.010766, 0.053598, -0.002851, 0.004865, 0.019164, -0.003572, -0.028066, -0.018365, -0.012402, 0.027813, 0.009579, 0.028917, -0.014415, -0.014769, 0.009789, 0.012670, 0.009040, -0.005602, -0.019224, -0.006417, -0.017498, -0.004131, 0.023557, -0.009000, 0.018474, -0.008417, 0.014345, 0.005982, 0.019835, 0.001140, 0.000132, -0.005845, -0.017726, -0.009298, -0.010885, -0.029075, 0.011017, 0.013476, 0.000958, -0.034266, 0.001445, 0.017935, 0.002110, -0.025858, -0.033231, -0.005912, 0.049745, -0.016586, 0.001209, -0.012829, -0.011304, 0.003155, 0.016602, 0.021309, 0.005848, 0.008720, 0.014596, -0.015946, 0.026109, 0.004006, -0.002588, 0.027378, 0.019493, 0.010592, 0.027971, 0.006060, -0.007063, 0.014140, 0.020213, 0.019947, -0.057170, -0.028025, -0.033080, 0.018508, -0.021189, -0.002571, 0.032801, 0.004257, 0.000086, 0.034706, 0.018060, 0.010597, -0.013096, -0.033132, -0.001420, 0.009124, -0.022179, -0.001546, -0.007840, 0.004716, 0.004921, -0.011412, 0.015915, 0.042011, -0.054399, -0.012248, 0.005832, 0.006521, 0.010221, 0.014547, -0.011958, -0.008299, -0.011220, -0.002619, -0.019796, 0.036237, -0.005629, -0.001264, 0.016570, -0.002320, 0.023812, 0.049524, -0.031251, 0.034834, -0.013811, -0.032983, 0.018325, 0.086230, -0.134805, -0.004915, 0.003351, 0.026384, 0.019882, -0.014205, -0.005028, -0.012900, 0.017987, -0.018557, -0.006717, -0.017545, 0.009497, 0.003045, 0.019038, 0.004169, 0.008635, 0.001512, -0.047946, -0.008539, 0.042991, -0.015514, -0.035047, 0.068745, -0.037424, 0.010195, 0.010585, 0.021227, -0.005821, 0.010030, 0.002695, -0.009950, 0.001080, -0.005682, 0.001911, -0.015352, -0.025878, -0.015573, 0.001834, -0.001309, -0.014427, 0.013202, -0.021379, -0.006757, 0.005712, -0.020215, -0.048180, 0.028555, -0.021708, 0.003558, -0.007252, -0.010347, 0.015955, 0.001542, -0.007257, -0.002525, 0.025904, 0.013108, -0.024192, 0.049466, -0.004691, -0.006234, -0.021350, 0.013562, -0.032180, 0.019039, -0.018636, 0.000431, 0.001735, -0.036264, -0.021607, 0.022126, 0.024298, -0.022174, -0.018368, -0.005939, -0.004304, 0.011033, 0.005399, -0.027243, 0.029389, 0.028933, -0.002767, 0.026380, 0.001991, -0.020517, -0.014546, -0.013835, -0.015237, 0.008424, -0.020756, -0.025661, 0.006470, 0.020514, -0.054024, 0.023523, -0.020692, 0.012084, -0.051433, 0.012800, 0.016198, -0.003317, 0.009346, -0.013091, 0.010484, -0.034678, -0.020527, 0.031734, -0.015467, -0.013567, 0.005346, -0.019610, 0.016172, 0.020238, 0.010790, 0.001264, 0.014401, -0.018990, -0.038233, 0.023592, -0.018201, -0.004297, -0.005073, 0.010532, -0.006291, 0.010134, 0.020707, -0.025307, 0.011921, -0.009550, -0.010550, -0.000426, -0.011253, -0.000559, -0.010384, -0.030198, -0.012541, 0.010480, -0.002668, -0.015756, 0.009384, -0.010660, -0.037951, 0.019345, -0.043954, 0.006224, -0.029566, 0.018495, -0.013863, -0.032123, 0.008839, -0.022304, 0.028499, 0.019449, -0.013198, 0.005795, 0.002273, 0.014917, -0.030938, -0.003605, -0.015439, -0.015758, 0.005809, 0.000776, 0.009817, 0.009444, -0.046183, 0.004547, 0.018743, -0.004282, -0.069076, 0.046801, -0.017784, -0.000780, 0.000780, 0.018732, 0.029064, -0.015458, -0.016179, 0.016891, 0.031444, 0.003172, -0.006280, 0.006576, -0.043234, 0.003709, -0.014886, -0.016787, -0.010596, 0.033105, -0.067876, 0.018377, 0.029321, -0.037888, -0.054554, 0.054617, -0.027470, 0.020447, -0.025031, -0.036788, 0.009411, 0.015301, -0.013663, 0.006406, 0.017617, -0.018733, -0.013438, -0.012269, 0.008204, 0.005687, 0.024487, -0.019619, -0.015280, 0.009937, -0.058779, 0.030467, 0.025965, -0.019501, -0.062402, 0.026608, 0.021443, 0.011779, -0.004958, -0.040183, 0.005520, 0.015477, -0.033851, 0.006015, 0.043244, -0.033491, 0.012066, -0.028607, -0.021996, 0.005629, 0.014036, -0.006704, 0.005987, 0.046380, -0.052528, 0.012962, 0.022064, 0.010605, -0.015230, 0.036969, 0.031473, -0.016982, -0.016568, 0.001047, 0.030227, -0.023354, -0.011724, 0.002072, -0.002186, -0.026299, 0.003112, -0.006282, -0.021848, 0.003480, -0.010496, 0.004665, 0.000643, -0.007722, -0.002034, -0.007116, 0.024239, 0.019711, -0.000491, -0.008394, -0.005461, 0.017676, 0.003865, 0.014369, 0.005466, -0.010622, -0.028682, 0.002219, 0.017097, -0.006706, -0.006951, 0.003621, 0.007157, -0.006705, 0.026683, -0.021234, 0.009468, 0.014331, -0.043875, -0.016087, 0.016954, 0.042689, -0.012598, 0.018234, -0.001698, 0.006851, 0.006863, -0.009126, -0.000103, 0.004480, 0.027712, 0.002891, -0.031675, -0.000694, 0.018970, 0.002090, -0.009295, -0.000976, 0.029124, -0.001076, 0.015903, -0.006506, -0.047157, 0.036785, -0.003625, -0.007543, 0.024925, 0.010080, 0.026933, -0.016717, -0.009904, -0.014390, -0.003890, 0.012164, 0.018907, -0.000893, 0.003279, -0.013460, 0.015551, 0.009904, -0.030785, -0.005433, -0.000727, 0.006403, 0.019084, -0.002609, -0.030291, 0.028511, -0.042009, -0.029977, -0.024787, 0.008906, 0.003661, -0.009633, 0.029532, -0.004195, 0.015942, 0.022657, -0.001586, -0.002137, 0.010536, -0.010090, -0.031187, -0.008559, 0.023649, -0.020584, -0.003751, -0.010420, 0.006062, 0.013417, -0.007896, 0.034894, -0.053589, -0.024533, -0.022820, 0.012972, -0.004736, 0.005881, 0.007394, -0.006195, 0.022464, 0.026442, -0.014351, 0.015945, -0.028281, 0.014757, -0.015436, 0.016941, 0.026715, 0.001554, -0.031380, 0.024105, -0.012465, 0.020312, -0.002609, 0.013070, -0.006955, -0.012438, 0.031696, -0.019232, 0.015423, -0.003975, 0.003722, 0.021363, 0.007261, 0.003674, -0.004389, 0.012699, 0.010495, 0.007596, -0.022936, -0.001007, -0.019171, 0.003237, -0.020235, -0.002293, 0.019095, -0.020014, -0.013692, -0.000817, 0.021216, 0.013529, 0.013546, -0.013471, 0.006024, -0.000037, -0.020692, -0.014222, -0.014357, 0.000602, -0.006055, 0.004436, 0.012679, -0.011035, -0.009958, 0.002535, -0.014582, 0.002669, 0.014501, 0.007779, -0.015537, -0.022631, 0.003683, 0.000251, -0.008927, -0.009076, 0.012102, -0.025951, 0.003758, -0.006230, 0.019887, 0.012020, 0.031508, -0.029380, 0.019181, 0.001944, -0.006585, -0.002371, -0.001730, 0.011860, 0.013257, 0.011078, 0.006685, 0.032112, 0.019434, -0.002217, 0.026605, -0.016415, -0.025665, -0.025335, 0.008996, 0.017905, 0.015621, 0.013760, 0.002935, -0.033705, 0.002587, -0.002890, -0.002292, -0.012958, -0.005365, -0.004657, 0.009908, -0.002669, 0.037416, 0.007813, -0.012639, -0.003957, -0.033276, -0.014733, 0.069334, -0.036985, -0.063300, -0.012689, -0.009278, 0.014970, -0.023131, -0.020045, -0.015707, 0.016208, 0.017497, 0.017025, 0.021677, -0.003061, -0.004488, 0.030453, -0.016085, -0.001006, 0.002847, -0.007482, -0.029244, 0.045509, -0.013771, 0.022736, 0.076737, 0.002788, -0.024413, 0.015793, -0.018737, -0.021999, -0.016814, -0.008030, 0.009737, -0.007025, -0.030753, -0.000498, 0.012435, -0.042522, -0.025315, -0.028594, -0.027067, 0.009890, 0.008905, -0.007087, 0.014747, -0.007514, -0.003514, -0.001078, 0.077326, 0.009089, -0.033195, 0.019729, -0.018271, -0.000077, 0.007362, 0.016541, -0.018363, 0.010424, -0.023058, 0.018392, 0.035437, -0.009659, -0.039348, -0.011322, -0.018520, -0.002566, 0.003064, -0.007362, 0.003450, 0.030194, -0.019167, -0.014567, 0.035345, -0.034192, -0.033384, 0.000132, 0.017095, -0.022503, -0.010400, 0.026720, -0.000726, 0.022111, -0.016174, -0.026174, 0.019426, -0.015910, -0.017930, -0.003497, 0.012982, 0.013660, 0.022314, -0.015951, -0.014005, 0.010949, -0.022300, -0.000772, 0.023174, -0.076840, 0.011789, -0.041694, 0.000969, 0.032796, 0.018275, 0.010278, -0.008227, 0.001283, 0.020346, 0.011379, 0.010992, 0.000894, -0.012938, 0.006951, 0.012731, 0.006499, 0.010773, 0.009389, 0.011012, -0.023072, -0.039585, 0.025961, -0.001189, -0.005348, 0.039118, 0.014543, 0.008898, 0.010406, 0.008171, -0.021598, -0.019011, 0.026006, 0.004769, 0.004465, -0.031414, -0.025550, -0.019938, -0.018477, -0.004638, -0.004316, -0.009656, -0.035336, -0.016156, 0.006839, -0.002004, -0.010191, -0.031687, -0.020557, 0.030524, 0.026665, -0.002287, -0.002924, -0.021402, 0.032045, -0.010348, -0.019509, 0.012485, 0.034904, 0.011824, 0.014484, 0.002761, 0.020537, 0.003588, 0.014942, -0.018113, 0.000687, 0.013281, -0.010873, -0.020673, 0.008852, -0.007062, 0.003568, 0.011834, -0.018853, 0.017377, 0.028785, 0.012967, 0.012746, 0.014024, -0.004526, 0.026922, 0.002730, 0.026474, 0.000327, 0.023120, -0.007237, -0.010741, -0.026049, -0.025749, 0.006331, -0.010481, -0.010473, 0.021267, -0.018018, -0.010414, 0.030109, -0.023291, 0.028165, -0.005797, -0.015054, 0.018826, 0.006488, 0.003735, -0.017952, -0.011449, 0.007427, -0.016397, 0.004873, 0.020368, -0.008983, -0.033332, 0.000440, 0.001311, 0.016142, -0.031691, -0.007368, 0.035088, 0.010603, -0.047513, 0.009734, 0.003498, -0.040187, -0.022984, 0.024731, 0.001744, 0.009688, -0.021222, -0.008221, -0.000931, -0.000600, -0.025440, -0.017980, 0.028958, 0.029326, 0.027059, -0.029864, 0.031225, 0.019944, 0.014755, -0.014978, 0.031129, -0.025636, -0.031191, 0.028817, -0.015797, -0.003113, -0.012433, -0.022513, -0.000348, -0.001797, -0.001712, -0.032811, -0.008654, -0.003380, 0.007093, 0.006610, -0.008985, -0.013503, -0.015123, -0.008435, -0.019991, 0.010534, -0.003391, -0.017218, 0.000104, -0.010348, -0.023621, 0.044545, 0.016583, 0.001027, 0.024273, 0.015663, -0.007947, 0.017654, -0.004051, -0.006884, 0.010507, -0.020158, 0.018443, 0.029013, 0.005711, -0.001039, 0.028569, -0.026718, -0.017423, 0.035890, 0.004616, 0.001847, 0.024063, -0.021818, -0.048411, 0.013368, -0.006342, 0.020254, -0.028194, 0.023300, -0.009467, -0.002357, 0.021936, -0.024586, 0.034095, -0.025051, -0.039553, 0.011732, 0.006295, 0.016196, 0.002954, 0.011516, -0.001115, 0.002031, -0.007747, 0.019794, 0.001637, -0.029406, -0.050367, 0.043368, 0.000423, 0.003166, 0.004085, 0.018949, 0.010107, -0.001351, -0.023060, 0.005516, 0.014639, -0.006594, -0.016930, 0.018451, 0.016265, 0.006934, -0.012891, 0.014697, -0.029445, 0.026459, -0.011399, -0.022885, 0.022730, 0.026731, 0.001639, 0.066908, -0.030860, 0.011135, -0.005575, 0.034670, 0.014155, 0.003797, 0.029798, -0.041409, 0.025983, -0.001828, -0.023166, 0.021711, -0.012809, 0.015363, 0.003199, 0.006382, -0.029518, 0.032101, 0.024304, -0.013384, 0.002928, -0.016296, -0.073969, 0.030755, 0.037122, 0.011563, -0.021286, 0.002242, 0.019334, -0.024749, -0.022133, -0.005523, 0.025370, -0.010261, 0.010749, 0.016759, -0.016802, 0.010408, -0.007828, 0.008638, -0.018704, -0.012326, -0.013631, -0.018239, 0.034866, 0.012905, -0.035531, -0.002982, 0.008655, -0.008560, -0.001611, -0.015476, 0.005913, -0.007544, 0.001725, 0.022981, 0.005614, -0.007612, -0.014055, -0.010345, 0.003577, -0.034182, 0.009598, -0.018307, -0.037808, -0.007623, 0.008707, -0.036497, 0.002378, 0.008168, -0.083704, -0.007660, 0.048216, -0.016922, -0.048217, 0.019958, -0.009202, 0.000443, -0.011474, -0.012195, 0.015828, 0.019158, 0.002114, -0.018806, 0.023831, -0.025386, 0.032249, -0.009229, -0.020159, -0.009640, 0.024351, -0.047976, -0.008885, 0.009431, -0.035046, -0.022978, 0.013091, -0.025973, -0.029400, 0.002909, 0.007491, 0.033955, 0.004124, -0.021377, 0.006157, 0.028568, -0.019520, -0.011089, 0.012345, 0.010612, 0.012982, 0.016061, 0.000332, 0.028658, 0.023705, -0.004418, -0.015453, -0.009677, 0.005595, 0.017752, -0.025619, 0.016813, -0.013239, 0.006343, 0.001014, -0.001481, -0.014984, -0.014226, 0.002937, 0.008443, -0.031357, 0.021666, 0.011362, 0.008470, 0.007259, -0.012088, 0.013342, -0.025807, 0.025475, -0.013801, 0.002030, 0.002636, 0.037888, -0.028944, 0.015203, 0.000342, -0.021843, 0.006188, -0.020336, 0.000882, 0.003522, -0.030327, 0.023829, -0.002837, -0.020203, 0.006673, -0.006620, -0.004891, 0.017512, 0.008085, -0.033166, 0.015111, -0.019493, 0.006794, 0.009468, 0.005079, -0.030709, -0.013393, 0.023285, 0.001365, -0.020629, 0.027978, -0.021387, -0.005332, 0.005572, -0.002472, 0.039424, 0.008565, 0.003990, -0.021168, 0.005425, -0.003408, -0.027171, 0.017494, -0.022924, -0.011407, 0.014718, -0.022336, 0.015647, 0.010862, -0.032831, 0.010539, 0.015208, 0.026015, -0.026276, -0.008708, -0.005801, -0.001448, -0.023964, -0.016630, 0.009219, 0.004851, -0.027545, -0.021848, 0.013966, -0.026443, 0.018461, 0.022695, -0.012335, 0.037414, 0.025189, -0.002185, -0.003706, -0.002613, -0.041215, 0.005424, 0.007954, -0.002596, 0.035476, -0.001555, -0.010587, 0.017345, 0.030605, -0.016333, -0.020532, 0.004881, 0.002224, -0.015172, 0.040300, -0.014749, -0.006998, 0.004475, 0.005497, 0.021732, -0.004524, 0.021131, 0.025747, -0.008053, 0.003212, 0.000620, -0.022807, 0.031929, -0.020328, -0.012081, -0.018994, -0.003670, -0.013914, -0.006061, 0.009861, 0.005397, -0.019998, 0.022695, -0.019914, 0.010555, -0.022893, 0.006191, -0.035997, 0.008672, -0.019171, 0.031611, 0.002511, 0.020951, -0.004137, -0.034313, -0.007937, 0.005908, 0.038704, -0.020311, -0.023378, -0.005342, -0.019060, -0.000891, 0.024904, 0.029480, -0.021629, 0.000901, 0.020003, -0.004131, -0.021941, 0.012660, 0.019662, -0.041490, 0.007011, 0.008810, -0.015991, -0.005899, 0.027783, 0.003641, 0.017049, 0.005488, -0.001124, 0.025991, 0.003955, 0.004964, 0.007748, -0.016478, 0.013586, -0.016729, -0.000191, 0.006047, -0.002417, -0.011627, -0.017975, 0.014047, 0.002381, 0.023161, -0.015094, 0.029848, -0.007632, 0.019456, 0.031505, -0.043102, -0.038107, 0.009528, 0.012030, -0.023880, -0.005533, -0.008238, -0.010726, -0.006885, 0.010000, 0.011942, 0.016689, 0.016459, 0.016934, -0.011068, 0.003570, 0.011367, -0.000795, 0.027681, -0.004836, -0.025988, -0.021224, 0.015520, 0.021681, -0.027327, -0.039871, 0.037664, -0.008342, -0.019255, -0.001380, 0.017094, -0.023700, -0.015806, -0.000180, 0.017494, -0.028832, -0.006892, 0.012396, 0.008274, -0.016490, 0.012644, 0.008923, -0.009979, -0.032023, -0.001123, -0.030512, -0.006934, 0.063423, -0.018965, -0.021373, -0.009039, 0.006420, -0.007665, 0.025393, 0.017018, -0.001225, 0.006908, 0.004744, 0.004667, -0.000157, -0.010419, 0.024997, -0.013073, 0.003291, 0.011843, -0.005395, -0.030835, 0.015002, 0.031240, -0.009082, -0.004645, 0.065144, -0.006220, -0.062309, 0.042637, -0.035882, -0.049933, 0.008200, 0.003490, -0.023058, -0.001417, -0.006459, -0.020346, 0.021195, -0.013571, -0.031205, 0.023315, 0.003690, -0.019159, 0.009944, 0.005085, -0.003178, 0.030973, -0.040783, -0.014227, 0.031099, 0.013706, -0.011927, 0.021748, 0.011948, -0.000725, -0.027537, -0.022663, -0.003830, 0.030413, -0.013958, -0.003581, 0.020341, -0.021599, -0.009852, -0.014112, -0.008428, 0.003176, 0.003362, -0.000551, -0.014812, 0.003441, -0.032281, -0.040194, 0.033599, -0.047234, -0.004381, 0.056750, -0.008925, 0.002339, -0.010221, -0.001441, 0.010799, 0.003805, -0.003742, -0.010678, -0.000360, 0.009152, -0.039430, -0.003377, -0.025075, -0.015965, 0.024834, -0.026340, 0.008249, 0.005166, -0.007801, -0.019630, 0.019977, -0.036665, 0.001424, -0.026914, 0.001106, 0.034900, 0.021224, -0.016050, -0.000830, 0.010320, 0.020025, -0.008436, 0.016431, 0.001328, -0.028594, -0.017321, 0.002491, -0.025018, 0.014362, -0.005427, 0.017206, 0.006118, -0.002074, -0.006037, -0.062013, -0.033061, 0.051764, 0.011480, 0.001819, -0.004215, -0.031639, -0.017201, -0.016143, 0.008103, 0.004507, 0.006275, 0.022921, -0.001639, -0.006464, -0.010484, 0.007751, -0.005376, -0.009617, 0.007600, 0.029766, 0.011048, 0.012550, -0.016916, -0.034652, -0.024299, 0.045962, 0.011827, 0.009956, -0.001455, -0.014403, -0.019766, -0.005976, -0.023919, -0.002114, 0.000870, -0.017204, 0.014847, 0.037717, 0.025080, -0.016614, 0.006333, -0.000992, -0.010595, -0.028018, 0.001417, -0.026507, -0.019268, -0.015169, 0.026198, 0.012892, -0.036300, 0.001363, -0.013487, 0.014150, 0.007983, -0.013130, -0.033469, -0.011799, -0.004443, -0.005953, 0.030164, 0.023703, 0.007083, -0.003423, -0.004803, 0.004389, 0.019802, -0.026113, 0.019785, 0.024298, 0.009977, -0.028016, 0.059289, -0.044867, -0.004754, -0.006650, -0.019816, -0.002755, -0.006070, -0.012679, 0.016102, 0.016071, 0.015115, -0.002268, 0.017893, 0.005599, -0.006772, -0.003563, -0.004806, -0.013374, 0.014855, 0.008222, -0.006688, 0.042694, -0.025164, -0.079194, 0.053252, -0.041467, 0.007170, -0.003537, -0.036379, 0.013479, 0.017237, -0.005059, -0.011039, 0.021253, -0.033025, 0.001810, -0.008683, -0.015592, 0.011917, -0.002886, -0.005210, -0.041488, 0.008860, -0.013010, 0.006766, 0.016045, 0.001343, -0.045783, 0.025932, 0.005032, -0.015348, -0.014829, 0.015590, -0.007439, -0.017002, 0.031773, -0.030783, -0.000904, -0.034913, 0.003002, -0.003602, -0.012865, -0.006336, 0.018419, 0.027628, -0.017991, 0.006307, 0.011167, -0.016438, 0.026112, 0.005714, -0.066675, 0.019166, -0.005232, 0.036174, 0.021907, 0.004394, -0.015599, 0.010735, 0.030712, -0.033064, -0.007919, -0.008683, -0.015865, 0.023077, -0.019324, 0.004438, -0.014919, 0.031587, -0.012449, 0.005898, 0.014251, -0.025868, 0.004467, -0.013167, -0.077038, 0.020015, -0.000062, -0.003422, -0.041681, 0.010907, -0.016337, 0.022024, 0.002937, 0.007227, -0.000069, -0.018378, 0.003517, -0.006263, 0.008793, 0.033016, 0.023387, -0.033016, -0.007828, -0.002762, -0.007379, -0.003659, 0.012939, -0.033801, -0.054245, 0.026493, -0.008932, 0.003746, -0.019971, -0.002589, 0.003758, 0.011625, -0.010469, -0.002148, 0.008667, -0.004836, 0.004879, 0.044362, -0.010476, -0.018227, -0.000193, -0.003652, -0.001834, 0.019609, 0.003227, 0.014678, 0.015659, -0.019290, -0.060381, -0.009875, -0.008628, 0.003206, -0.019075, 0.031597, -0.026499, -0.004487, -0.005591, -0.002423, 0.021384, -0.030781, 0.017034, 0.031502, -0.014014, 0.024370, -0.000097, -0.023675, -0.006139, -0.002451, 0.010535, -0.001839, 0.000457, -0.014081, -0.048037, 0.025920, 0.020666, 0.018241, 0.011560, 0.001332, -0.010113, 0.025287, 0.012433, -0.004823, 0.010521, 0.015283, -0.007987, 0.029725, 0.018516, -0.016105, 0.000634, -0.017530, -0.018262, -0.011269, 0.024932, -0.027801, -0.019098, 0.034739, -0.051605, 0.002011, -0.011422, 0.005426, 0.018857, -0.018952, 0.001074, -0.022209, -0.018789, 0.001748, 0.041149, 0.010376, -0.023231, -0.000546, 0.006348, 0.012256, -0.017091, 0.020093, -0.027397, -0.006932, -0.014525, -0.015408, -0.006334, 0.041183, -0.035818, 0.021360, -0.017630, -0.000901, 0.015738, -0.005567, 0.008733, 0.002210, 0.024105, -0.031545, 0.014163, -0.000740, -0.001067, -0.004001, -0.005322, 0.006998, 0.000295, 0.028820, -0.012304, -0.013356, 0.016450, -0.042614, 0.039654, -0.020206, -0.061110, 0.014211, 0.000550, -0.029853, -0.001024, 0.045809, -0.003128, 0.020158, -0.010198, -0.051318, 0.013513, 0.004910, -0.023345, -0.012275, -0.000603, 0.005330, 0.016860, 0.009581, -0.024084, -0.005235, 0.022922, -0.042376, -0.009443, 0.011942, -0.029950, 0.022054, 0.005265, 0.017456, -0.038973, 0.019376, -0.030216, -0.030817, 0.006784, -0.015410, 0.011086, 0.020349, -0.004414, 0.029564, 0.022422, 0.021552, 0.005861, 0.017052, -0.011826, -0.000878, 0.020540, -0.011349, 0.005431, 0.016203, -0.011000, 0.027387, -0.017274, -0.017802, -0.002159, 0.003074, -0.022942, -0.023358, -0.015025, -0.061447, -0.009031, 0.017702, -0.019796, 0.017081, -0.015727, 0.014547, -0.006384, -0.016251, 0.016727, -0.008421, -0.006984, -0.003486, 0.036583, -0.006375, -0.041871, 0.000937, 0.016768, 0.017838, -0.022070, 0.010344, 0.011826, -0.004476, -0.004889, -0.032748, 0.012397, 0.030809, -0.008614, -0.018116, 0.031835, -0.021129, -0.012431, 0.017611, -0.000186, 0.017596, -0.004455, -0.006451, 0.005546, 0.001954, -0.043862, 0.015725, -0.008003, 0.033556, -0.000928, -0.021870, 0.006948, -0.003606, 0.032090, -0.007192, -0.002300, 0.011479, 0.012621, 0.008204, -0.015379, -0.012627, 0.008383, 0.017451, -0.021666, -0.009025, 0.017698, -0.012767, 0.003117, 0.002249, -0.057265, 0.009621, 0.011471, -0.004604, 0.012734, -0.004482, 0.021242, 0.009865, 0.004284, -0.022895, 0.021069, 0.002981, 0.006914, -0.003289, 0.019611, 0.007815, 0.012728, -0.009447, -0.013741, 0.001070, 0.028000, 0.019643, -0.028617, -0.003508, -0.021091, 0.012910, -0.016174, 0.023040, 0.016584, 0.016327, -0.017327, -0.008219, 0.000384, -0.029765, 0.001286, 0.003471, 0.004286, 0.006426, 0.013641, 0.007634, 0.013394, -0.001610, -0.002508, 0.036341, -0.013265, 0.014130, 0.000933, -0.028802, 0.019784, 0.002251, -0.028443, 0.035811, -0.019668, 0.004285, 0.006337, 0.008560, 0.031705, 0.011522, -0.008713, 0.012765, 0.014840, -0.009534, -0.028050, 0.002112, 0.025106, -0.003902, 0.002364, -0.021643, -0.022119, 0.006255, -0.016585, -0.031472, 0.038152, 0.009051, -0.045697, 0.006532, -0.011614, -0.040769, 0.014724, -0.023495, 0.019827, -0.011271, 0.006294, 0.014864, 0.007038, -0.008286, -0.014677, 0.015163, 0.030389, 0.005252, -0.009768, -0.023879, 0.001656, 0.018162, 0.011865, 0.004812, 0.019013, 0.002690, 0.000337, 0.026409, -0.034328, 0.018456, 0.002234, 0.009861, -0.025712, -0.020827, -0.000037, -0.006900, -0.001910, -0.010325, 0.000524, 0.026128, -0.011344, -0.005086, -0.002113, 0.000839, 0.009688, 0.021312, -0.021762, -0.003247, 0.026013, 0.019048, -0.017743, 0.023886, -0.005322, -0.012995, -0.002980, 0.023334, -0.024910, -0.015567, 0.019736, 0.004361, 0.019367, -0.013101, 0.019113, -0.002957, -0.024774, 0.016973, -0.010454, -0.014240, -0.022945, 0.009519, 0.002956, -0.003190, 0.035389, -0.002124, -0.076231, 0.046102, -0.027550, -0.003720, -0.003708, 0.005324, 0.007527, -0.012830, 0.015198, -0.018467, 0.002178, -0.002551, -0.016782, 0.013623, -0.000235, -0.013419, -0.000638, 0.013735, 0.000196, -0.007118, -0.026299, -0.014357, 0.075712, -0.032978, -0.033771, -0.010024, -0.005288, -0.000113, -0.019661, 0.001782, 0.027589, -0.004247, 0.002006, -0.022961, 0.016241, 0.013220, -0.016332, 0.013393, -0.031837, 0.016012, 0.019037, -0.008321, -0.039025, 0.036011, 0.015668, -0.012559, 0.028995, 0.018216, -0.068506, 0.023032, -0.008998, -0.035027, 0.000454, 0.012168, 0.015068, 0.031818, 0.001895, -0.011399, -0.002134, -0.018203, -0.017709, 0.011195, 0.023462, 0.006927, 0.020010, -0.024753, -0.003594, 0.021982, -0.032161, -0.010734, -0.000100, 0.000552, -0.033796, 0.004194, -0.006310, -0.008483, 0.002456, -0.001575, 0.030430, 0.035485, -0.018930, -0.007159, 0.032918, -0.038159, -0.036461, -0.004105, -0.015349, 0.006708, -0.014289, -0.017841, 0.003783, 0.030226, -0.001440, -0.014071, 0.027048, -0.043695, 0.011664, -0.001786, 0.011110, -0.013483, 0.006686, 0.001042, 0.032447, 0.016340, -0.008780, -0.024958, 0.011454, 0.022740, -0.042330, 0.022388, -0.004295, -0.010063, 0.013314, -0.016638, 0.034829, 0.012948, -0.011666, 0.009009, -0.060377, -0.023371, 0.011359, -0.061956, 0.008793, 0.008211, -0.010754, -0.011953, -0.004976, 0.014531, 0.008568, -0.034272, -0.002955, -0.015887, 0.019213, -0.020882, 0.006365, 0.009057, 0.003794, 0.002098, 0.029001, -0.032789, -0.017582, 0.005793, -0.029184, 0.007556, 0.041711, 0.004520, -0.021301, 0.005117, -0.004118, -0.023480, 0.014981, -0.014089, 0.017490, -0.014402, -0.009510, -0.005198, 0.016366, 0.025108, -0.015468, 0.025879, -0.006143, 0.011544, 0.005941, -0.025270, -0.005715, -0.010120, -0.036145, 0.021727, -0.014495, 0.003552, -0.026339, 0.003968, 0.030773, -0.008401, -0.012952, -0.002924, 0.052117, -0.025054, 0.006487, 0.022224, 0.006118, -0.005904, -0.010097, -0.006349, -0.005054, 0.023842, -0.019102, -0.005143, 0.027084, -0.019041, -0.009714, 0.026851, -0.035404, 0.036838, -0.011153, 0.015571, -0.008307, 0.004865, 0.011333, -0.017385, 0.017786, -0.013280, 0.016778, 0.010015, 0.001978, -0.021795, -0.013404, -0.013841, -0.005269, -0.008732, -0.010246, -0.034487, 0.003211, 0.003191, -0.023293, 0.055867, -0.016878, 0.022270, -0.041768, 0.003525, 0.013760, -0.003378, -0.002609, -0.041752, 0.008225, -0.021777, -0.009530, 0.013391, -0.041047, 0.027755, -0.010823, -0.005756, 0.005572, 0.018467, -0.017197, -0.012983, -0.018623, -0.016109, -0.043009, 0.064258, -0.043742, -0.009995, 0.012675, -0.028196, -0.017144, -0.012099, -0.026763, 0.001480, 0.030345, -0.011387, -0.005041, -0.006242, -0.031570, 0.009329, 0.004144, 0.000750, -0.015007, 0.019326, 0.011129, 0.001082, 0.024195, -0.031593, -0.064668, 0.036510, -0.039920, 0.001645, -0.032162, -0.005943, 0.013129, 0.013658, -0.008826, 0.010588, 0.054673, 0.001253, -0.034708, -0.006753, -0.024864, 0.018894, 0.010402, -0.019320, -0.008843, 0.003216, 0.001833, -0.013340, 0.019607, 0.001111, -0.063209, 0.053232, -0.035067, 0.016543, 0.010195, -0.008711, 0.024636, 0.003410, 0.001417, -0.019863, 0.000272, -0.002297, 0.011708, -0.005091, -0.008257, 0.007185, 0.000955, -0.002718, -0.013725, 0.053427, -0.026343, 0.004603, 0.028253, -0.032869, -0.075655, 0.041619, -0.018857, 0.018319, -0.002071, 0.014607, -0.013953, -0.026785, 0.024672, -0.012688, 0.022342, -0.045351, -0.028133, 0.013409, -0.004528, 0.004168, -0.020555, 0.020836, -0.011515, 0.029082, -0.026730, -0.012928, 0.008200, 0.020365, -0.066861, 0.014029, 0.002705, -0.015142, -0.035819, 0.032278, -0.003915, 0.004595, 0.026910, -0.031073, 0.032281, -0.007877, 0.006748, 0.037219, -0.007072, 0.001232, 0.022037, 0.015529, 0.011414, -0.000348, -0.027556, -0.018782, 0.009893, 0.002994, -0.077121, 0.008851, 0.021922, 0.025537, -0.008974, 0.019258, 0.028240, 0.006485, -0.007783, -0.047858, 0.032627, -0.021768, -0.004805, 0.025863, -0.019896, -0.018886, 0.020603, 0.023708, -0.022363, -0.018950, 0.026925, -0.005905, 0.013709, 0.001909, -0.037758, 0.032696, -0.000720, -0.004559, -0.028108, 0.009246, -0.008766, -0.013843, -0.009287, -0.011609, -0.004317, -0.004670, -0.039149, -0.003247, -0.019480, 0.026325, -0.010111, -0.015853, -0.010154, 0.023786, 0.011726, -0.021962, -0.017166, 0.003319, -0.045889, 0.025019, -0.014451, -0.022578, -0.017136, 0.044757, -0.006065, -0.003695, -0.011726, -0.055770, 0.033879, -0.002851, -0.000899, -0.012405, -0.026443, -0.004555, -0.000741, 0.015369, -0.028187, 0.007407, 0.020723, -0.054059, 0.001913, -0.006958, -0.075040, 0.021048, -0.004591, 0.009248, -0.036907, 0.014195, 0.021622, 0.005327, 0.017460, -0.007737, 0.034050, 0.005885, -0.018778, 0.005008, 0.023572, -0.019822, -0.021885, -0.004773, -0.010645, 0.030933, 0.018804, 0.003164, 0.006749, 0.041027, -0.066921, 0.042213, 0.002572, 0.005742, -0.003153, -0.057183, -0.027968, -0.015229, -0.027477, -0.016337, -0.023971, 0.018175, -0.021770, 0.000866, 0.008573, -0.006045, 0.003440, -0.010933, -0.030187, 0.018464, -0.002249, -0.008020, -0.001415, 0.046132, -0.040804, 0.016016, 0.015601, 0.025701, -0.046239, 0.007215, -0.029385, 0.001372, -0.005314, -0.033907, -0.014029, 0.029270, -0.010614, 0.008883, 0.020851, -0.013663, 0.017732, 0.005200, -0.041500, 0.007018, 0.022800, 0.006582, -0.013221, 0.024927, -0.073091, -0.024047, 0.035802, 0.028041, -0.040587, 0.005543, 0.011610, -0.003318, 0.005500, -0.011083, -0.005680, 0.006365, 0.009731, 0.010565, 0.017914, -0.026967, 0.029063, 0.024220, -0.048659, 0.004527, -0.009313, 0.011285, -0.005419, -0.014637, -0.038870, -0.021732, 0.046917, -0.021438, 0.024654, -0.022382, -0.007061, 0.033854, 0.027088, -0.015600, 0.016710, -0.000470, -0.008892, -0.004375, 0.004806, 0.010053, 0.007978, 0.024480, -0.022995, 0.002557, -0.000438, -0.018349, -0.015512, -0.009417, -0.071794, -0.000744, 0.022952, 0.009804, 0.001749, -0.014962, 0.008448, 0.006680, -0.029897, -0.014910, 0.020242, 0.027098, -0.004147, -0.008734, -0.001464, -0.002435, -0.010442, -0.022519, -0.021828, -0.011150, 0.000687, -0.027406, 0.007014, 0.009557, -0.052619, 0.027957, 0.015232, 0.029717, 0.013921, -0.033135, -0.018614, -0.001191, -0.004950, -0.010085, -0.013945, 0.011098, -0.027589, -0.001604, 0.016362, -0.003429, 0.014787, -0.007527, -0.010579, 0.019412, -0.020433, 0.011300, -0.000842, 0.009455, -0.024513, 0.031828, -0.028987, 0.018767, -0.008772, 0.017160, -0.018420, 0.013158, -0.019291, -0.039471, 0.032116, -0.003795, -0.008128, 0.021798, -0.007216, -0.011689, 0.027598, 0.004967, 0.014821, 0.031570, 0.009293, 0.029342, -0.015472, -0.017131, 0.019434, 0.030211, -0.044191, 0.021588, 0.006411, 0.022118, -0.010055, 0.026043, 0.015760, -0.010568, 0.013519, -0.020493, 0.008571, -0.010833, -0.026583, -0.002641, -0.008554, 0.000513, -0.003313, -0.023039, -0.027159, -0.006577, 0.008723, 0.005030, -0.007404, 0.031897, -0.037305, 0.035646, 0.002934, -0.001263, -0.004640, -0.017438, -0.014332, -0.036523, 0.015973, 0.010613, -0.025304, 0.023393, -0.018746, -0.021769, 0.018696, 0.007139, 0.002166, 0.010094, -0.016057, 0.012455, -0.002725, -0.005484, 0.011980, 0.020061, -0.028660, 0.006272, 0.003023, 0.029995, -0.007348, 0.004426, 0.027875, -0.012279, 0.004057, -0.020549, -0.027000, 0.015260, 0.014246, 0.030521, -0.002006, 0.002291, 0.002104, 0.011399, -0.014160, -0.011553, -0.002592, -0.001866, 0.024747, 0.019684, -0.047807, 0.005211, -0.014562, 0.030872, 0.002932, 0.007829, 0.020176, 0.020446, 0.041254, 0.010715, 0.027426, 0.009200, 0.008886, 0.032621, 0.006474, -0.017273, 0.015425, 0.007417, 0.000647, 0.003690, -0.029382, -0.017719, 0.101406, -0.007336, -0.070534, 0.002105, -0.024825, -0.001499, 0.003179, 0.027047, -0.015559, 0.000503, 0.031471, -0.040543, -0.015293, -0.008111, -0.016175, 0.000693, 0.022004, -0.000164, 0.029683, -0.034513, -0.027952, 0.025988, 0.003895, -0.009688, 0.056986, 0.017396, -0.041059, 0.034342, 0.045303, -0.015913, 0.022681, -0.023232, -0.024501, 0.005662, -0.004049, -0.013225, 0.024397, -0.008533, -0.029809, 0.000018, -0.019437, 0.026705, 0.012868, -0.005631, -0.007514, 0.027824, 0.009478, -0.000005, -0.019200, -0.005935, -0.023666, -0.026250, 0.035046, -0.019051, 0.016850, -0.005277, -0.002414, 0.008505, -0.011017, -0.019861, 0.026864, 0.022985, -0.039066, 0.010511, 0.007197, -0.003577, 0.017416, -0.023687, 0.002939, 0.013085, 0.008840, -0.034300, 0.022638, -0.016680, -0.025779, -0.010241, 0.030319, 0.008217, 0.022721, -0.015530, -0.007127, 0.030226, 0.016961, -0.021409, 0.014511, 0.005692, 0.008957, -0.029051, -0.012738, 0.001541, 0.018098, -0.020991, 0.014733, 0.000640, -0.011346, 0.007773, -0.031062, 0.010801, 0.032501, -0.036582, 0.003878, 0.011742, 0.000964, 