// Overflow-Protected 2-Layer CNN Model with Labels
#ifndef MY_MODEL_H
#define MY_MODEL_H

// Class Labels
const char* myClassLabels[3] = {
  "background",
  "cell",
  "face"
};


const float myConv1_w[] = { -0.020404, -0.296434, 0.091767, -0.039788, 0.387693, -0.374329, -0.118665, -0.328523, -0.132867, -0.108133, -0.139926, 0.124765, -0.275333, 0.064101, -0.007851, -0.109334, -0.027880, 0.058000, -0.138751, 0.026179, 0.102377, -0.200974, 0.127781, 0.113366, 0.160378, -0.192339, -0.008706, -0.113503, -0.108143, -0.009134, 0.299461, -0.224169, -0.224124, -0.173083, -0.037753, -0.190249, 0.178205, -0.073596, -0.007360, 0.065606, 0.292603, -0.112276, -0.292398, -0.066774, -0.062475, -0.016880, -0.074514, 0.113782, -0.137174, -0.128436, -0.071947, -0.159397, -0.046050, -0.324416, -0.138522, -0.013834, 0.035371, 0.242491, -0.243741, -0.133698, -0.186899, 0.057541, 0.271595, -0.117594, -0.149424, -0.184918, -0.036780, 0.068726, -0.046859, 0.073383, 0.041804, -0.026636, -0.262603, 0.079054, -0.102280, -0.016972, -0.118168, 0.032361, 0.027825, -0.056325, -0.096725, -0.184639, -0.206300, -0.070235, 0.163700, -0.088503, -0.004398, -0.377363, 0.171360, 0.071578, -0.020787, -0.242620, -0.156508, 0.201263, 0.193317, -0.327097, -0.030167, -0.232475, -0.095798, -0.240029, 0.213627, -0.099746, 0.333012, -0.006488, 0.033973, -0.158365, 0.118283, 0.045053 };

const float myConv1_b[] = { 0.150762, 0.024825, 0.133602, 0.054775 };

const float myConv2_w[] = { 0.171512, 0.376806, -0.045818, -0.085112, 0.392066, -0.062413, 0.157986, 0.316922, -0.003985, -0.116057, 0.010512, -0.046648, -0.000917, -0.255659, -0.143586, 0.036567, -0.319149, 0.079084, 0.187194, 0.016786, -0.108380, -0.075976, 0.061001, -0.014682, -0.056242, -0.150093, 0.013488, -0.018174, -0.040100, -0.205408, -0.132600, 0.040650, 0.355563, 0.190498, -0.102454, -0.016206, 0.327822, -0.068821, 0.254365, 0.213894, 0.236159, -0.031973, 0.046247, 0.051658, 0.144575, -0.010360, -0.076330, 0.098545, 0.214111, 0.077859, -0.067015, 0.127280, 0.171169, -0.122565, 0.063604, 0.181101, 0.170677, 0.120689, -0.131986, -0.107374, -0.005543, -0.005308, 0.201458, 0.085836, 0.077819, 0.111276, -0.108918, -0.073894, 0.280634, -0.157687, 0.372885, 0.186426, 0.078688, -0.160954, 0.016405, -0.030465, -0.020602, -0.104584, 0.018694, 0.023956, 0.707942, -0.015256, 0.098163, -0.002292, 0.054684, -0.150214, 0.264534, 0.203517, 0.127593, -0.084470, -0.183640, -0.161583, -0.149220, -0.051305, -0.009682, -0.004117, 0.529105, -0.021934, -0.039421, -0.111012, 0.439116, 0.120057, 0.048736, 0.256036, -0.089913, 0.127677, -0.213183, -0.099484, 0.001637, -0.210623, -0.089190, -0.009216, -0.004704, 0.193016, 0.090899, -0.095476, -0.047738, -0.079317, 0.285437, 0.114349, 0.012447, 0.164293, -0.097113, -0.127331, -0.026292, -0.107562, 0.133881, -0.063263, 0.346113, 0.196850, -0.189697, -0.177971, 0.282317, -0.146035, 0.298906, 0.212310, 0.114806, 0.161827, -0.259889, -0.238056, -0.056123, -0.040066, -0.037848, 0.200854, 0.416985, -0.080177, 0.013242, 0.061900, -0.133707, 0.049063, 0.268616, 0.316945, 0.111377, 0.216878, 0.173824, 0.049221, 0.131538, 0.077511, 0.027439, 0.249331, 0.087766, 0.341186, -0.000602, -0.110414, 0.240717, -0.071920, 0.240661, 0.201619, 0.142831, -0.100132, -0.236277, -0.048745, 0.129282, -0.177411, 0.142948, -0.075873, 0.648033, 0.183556, 0.111438, 0.132096, 0.114834, -0.249778, 0.312514, 0.025060, -0.049524, 0.263585, 0.089847, -0.179202, -0.054529, -0.069419, -0.027361, 0.114360, 0.249780, 0.130728, -0.030339, -0.077213, 0.250384, -0.073291, 0.333856, 0.112804, 0.025149, 0.249565, -0.154393, -0.092722, -0.110265, -0.216116, 0.014726, -0.028400, -0.098018, 0.127665, -0.110772, -0.071249, 0.231700, 0.117143, 0.336891, 0.149334, -0.140259, 0.158612, -0.108430, -0.143361, -0.009621, 0.182170, -0.024779, 0.262120, 0.390433, 0.420566, -0.095789, -0.198920, 0.234437, -0.025767, 0.228892, 0.267968, 0.144839, 0.237158, -0.037595, -0.123125, 0.115001, -0.242862, 0.047698, 0.198202, 0.336503, -0.014800, 0.018596, 0.037257, -0.092457, -0.137439, 0.461742, 0.428528, -0.068643, 0.164915, -0.061908, 0.202262, -0.092088, -0.110473, 0.272052, 0.037416, 0.039407, 0.393577, -0.083357, -0.127767, 0.266998, 0.059818, 0.111250, 0.243812, 0.012347, 0.061002, 0.091997, -0.025839, -0.082943, -0.069389, 0.017650, 0.093208, 0.565347, 0.404932, -0.146474, 0.032494, -0.054845, -0.335298, 0.362888, 0.355338, -0.237515, 0.060630, -0.155299, -0.148997, 0.181276, -0.207200, -0.178712, 0.089955 };

const float myConv2_b[] = { 0.068305, 0.133982, -0.009139, 0.002731, 0.005660, 0.007176, 0.031250, 0.121476 };

const float myOutput_w[] = { 0.004640, 0.026560, -0.089219, 0.086300, 0.043292, -0.093104, -0.010628, -0.043017, 0.032311, 0.015313, -0.017140, 0.057563, -0.011277, 0.032084, -0.052292, -0.009219, -0.063365, 0.055506, 0.025753, 0.067974, -0.043954, 0.037719, 0.025961, -0.105306, -0.036240, 0.113031, -0.144636, 0.027156, 0.079351, -0.080417, -0.024279, -0.012977, 0.023688, 0.024890, -0.023855, -0.000277, -0.021446, 0.030372, -0.025744, 0.013453, -0.058555, 0.031575, 0.014799, 0.036042, -0.049072, 0.015759, 0.063638, -0.104515, -0.090283, 0.121988, -0.113040, -0.026095, 0.101651, -0.109191, 0.020833, -0.014294, 0.010072, -0.008884, -0.028985, 0.021821, -0.024573, 0.036909, -0.035673, -0.016410, -0.087694, 0.049038, 0.020016, 0.082140, -0.081150, 0.033070, 0.086316, -0.157002, -0.024123, 0.062191, -0.076837, 0.001304, 0.078666, -0.086213, 0.018936, -0.034545, -0.019163, 0.017832, -0.050687, 0.003017, -0.047124, 0.028871, -0.006068, 0.020150, -0.021493, 0.045375, -0.021871, 0.123483, -0.086174, -0.026380, 0.105179, -0.089475, 0.002007, 0.065282, -0.038707, 0.063619, 0.028873, -0.091399, 0.032071, -0.007869, 0.005991, 0.042760, -0.052211, -0.009007, -0.072961, 0.090024, -0.054360, -0.003836, -0.001580, 0.000126, 0.028147, 0.046116, -0.058674, 0.024387, 0.012337, -0.073152, -0.132486, 0.160085, -0.014627, 0.010741, 0.049381, -0.041847, 0.049376, -0.013898, -0.025124, 0.042599, -0.002346, -0.004030, -0.071080, 0.098499, -0.046247, 0.035012, -0.028295, 0.014321, 0.077126, -0.027734, -0.062335, 0.044291, -0.038075, -0.057089, -0.154965, 0.069597, 0.096628, 0.028194, 0.009111, -0.024058, 0.026694, -0.037318, -0.012080, 0.040754, 0.009654, -0.007900, -0.011806, 0.056743, 0.027734, 0.067960, -0.028441, -0.009404, 0.065025, -0.021541, -0.035667, -0.020704, 0.025093, -0.005387, -0.092087, -0.049539, 0.147765, 0.036571, -0.054329, -0.017204, 0.028458, 0.008871, -0.020054, 0.021662, 0.012040, -0.029883, 0.001740, -0.044343, 0.040683, 0.038366, -0.004333, -0.045657, -0.021206, -0.050133, 0.027863, 0.013208, -0.053696, 0.013148, -0.009571, -0.055209, 0.074194, 0.058397, -0.079784, 0.006121, 0.043143, -0.025712, -0.037110, 0.002876, 0.014269, -0.020745, -0.004025, -0.027724, 0.017018, 0.019621, 0.023796, -0.063977, 0.011761, -0.100679, 0.067479, 0.051888, -0.114362, 0.012710, -0.028289, -0.018458, 0.066047, 0.001285, -0.053346, 0.034404, 0.010355, -0.014662, -0.004154, 0.036677, -0.013284, -0.047262, 0.025808, -0.014579, 0.018096, 0.043306, -0.010497, -0.032415, 0.014040, -0.082557, 0.085183, 0.062778, -0.090136, -0.039081, -0.051642, 0.014714, 0.009497, 0.089914, -0.019400, -0.062903, 0.047739, -0.049274, 0.017911, 0.026383, -0.013574, 0.016555, 0.006255, -0.013992, 0.044497, 0.061678, -0.040433, -0.022392, 0.001302, -0.000836, 0.023755, 0.029721, -0.083438, -0.007466, 0.031679, 0.044797, -0.002105, 0.084877, 0.039274, -0.113478, 0.066108, -0.042330, 0.005376, 0.014992, -0.040952, 0.002212, -0.033296, 0.016422, 0.008847, 0.013572, -0.025748, -0.024886, 0.049470, 0.024940, -0.065405, 0.049266, 0.042680, -0.065103, 0.024157, 0.051056, -0.075575, 0.056041, -0.015762, -0.088042, -0.023174, -0.024332, 0.027515, 0.019897, -0.031223, 0.021398, -0.054425, 0.090591, -0.040313, 0.010781, -0.008376, -0.005564, 0.068030, 0.005043, -0.095387, 0.047658, 0.001786, -0.133215, -0.081808, 0.061772, -0.028578, 0.077811, -0.018514, -0.115925, 0.019040, -0.015331, 0.029020, 0.006010, -0.010708, 0.025864, -0.003125, 0.066647, -0.086104, 0.027498, -0.014048, 0.029366, 0.061281, -0.038538, -0.088356, 0.123904, -0.016546, -0.131431, -0.111447, 0.036650, 0.042299, 0.059955, 0.022887, -0.106680, -0.011692, -0.048431, 0.018444, 0.000708, -0.020096, 0.003654, 0.051631, 0.006005, -0.031995, 0.049002, -0.045415, 0.039757, 0.036970, -0.028452, -0.039211, 0.027569, 0.076858, -0.109518, -0.013431, 0.015671, 0.045003, 0.054255, 0.013112, -0.033666, 0.013018, 0.015690, 0.041019, -0.004578, -0.001060, 0.018318, 0.043336, -0.025089, -0.046008, 0.008058, -0.030126, -0.013554, -0.024850, 0.020200, -0.043600, 0.058205, 0.016673, -0.074285, 0.006592, -0.005815, 0.075492, 0.113728, -0.029506, -0.084241, -0.009753, -0.025675, 0.024627, 0.002217, -0.037593, 0.050792, -0.000758, 0.023303, -0.045374, -0.017042, -0.001082, 0.009045, 0.034013, -0.002878, 0.011252, 0.048642, 0.017944, -0.069629, -0.045874, 0.052367, -0.016384, 0.030577, 0.065116, -0.058616, 0.015386, 0.001644, 0.013288, -0.008187, -0.025564, 0.024675, 0.019180, -0.015559, -0.019623, 0.029091, -0.023093, 0.029505, 0.004908, 0.029345, -0.030982, 0.081807, 0.035679, -0.052265, -0.150440, 0.179661, -0.040984, -0.043271, 0.112642, -0.076911, -0.002395, -0.047886, 0.038508, 0.008120, -0.013622, 0.007520, 0.011412, -0.013849, -0.019609, 0.032783, -0.082183, 0.030213, -0.027403, 0.088818, -0.045003, -0.012149, 0.104008, -0.098617, -0.104603, 0.131641, -0.025387, -0.006524, 0.071608, -0.079587, -0.031971, -0.011575, 0.047992, -0.021089, -0.017957, 0.013637, -0.022604, -0.011166, 0.010728, 0.040423, -0.049188, 0.022328, -0.076633, 0.117593, -0.091699, -0.059897, 0.140759, -0.078292, -0.040055, 0.044706, -0.069242, -0.004054, 0.092111, -0.100048, 0.007758, 0.004013, 0.001953, 0.009795, -0.028264, 0.008068, 0.010288, 0.029734, -0.014951, 0.054166, -0.030590, 0.031683, -0.088156, 0.097564, -0.048153, -0.025429, 0.138311, -0.128092, -0.108549, 0.093523, -0.001389, -0.034942, 0.081583, -0.096776, 0.015889, 0.005907, -0.026859, 0.024328, -0.013216, -0.005162, -0.035478, 0.028426, -0.010429, 0.006025, -0.022703, 0.000469, -0.072094, 0.081567, -0.063336, 0.029698, 0.025321, -0.055220, -0.134615, 0.037883, 0.058342, 0.063663, -0.035386, -0.030826, -0.008636, -0.005864, -0.007972, -0.021452, -0.016811, 0.012298, 0.031040, -0.017222, -0.011680, 0.028129, -0.031710, -0.024017, -0.045037, 0.052593, -0.012168, -0.002473, 0.050367, -0.010066, 0.108738, -0.127413, 0.017831, 0.060142, 0.042018, -0.099106, 0.018030, 0.008470, 0.041166, 0.017581, -0.009261, 0.010031, 0.029063, 0.021029, -0.037257, -0.026203, -0.012904, 0.007086, 0.097991, -0.048012, -0.048231, 0.069455, 0.047324, -0.096902, 0.130757, -0.076076, -0.114595, 0.051290, 0.000554, -0.089489, -0.007745, -0.011965, -0.015354, 0.027349, -0.013932, 0.024537, 0.065577, -0.012614, -0.083186, 0.020796, -0.036821, 0.013515, 0.092353, -0.036897, -0.076691, 0.140058, -0.054033, -0.120989, -0.055303, 0.088620, -0.110808, 0.053121, 0.043235, -0.149679, 0.023375, -0.055837, 0.026993, -0.004160, -0.011982, -0.001450, 0.102933, -0.005148, -0.107105, 0.010377, -0.041527, 0.017916, 0.023886, 0.063678, -0.068630, 0.081029, 0.023931, -0.123148, 0.005076, 0.047432, -0.133909, 0.089277, 0.015344, -0.113069, 0.004022, -0.035660, 0.028860, -0.013361, -0.031748, 0.010447, -0.018742, 0.044654, -0.060536, 0.005218, -0.004242, 0.038136, 0.055812, 0.035505, -0.089839, 0.009887, 0.075970, -0.143374, 0.057410, 0.003505, -0.166387, -0.005883, 0.061141, -0.100033, 0.003216, -0.015718, 0.039627, 0.017540, -0.024212, 0.016457, -0.024628, 0.115003, -0.102445, -0.038930, -0.022673, 0.034877, 0.010586, 0.043681, -0.130636, 0.031176, 0.081888, -0.169351, 0.018247, 0.020550, -0.143145, 0.025856, 0.046622, -0.147736, 0.011254, -0.013472, 0.011067, 0.010174, -0.047774, 0.004167, -0.005616, 0.073377, -0.075635, 0.019942, -0.013769, 0.007267, -0.009722, 0.055898, -0.090190, 0.051095, 0.073908, -0.130211, 0.013860, 0.030036, -0.063181, 0.043487, 0.051672, -0.104663, 0.016296, -0.050368, 0.031881, 0.018008, -0.067957, 0.044866, 0.008076, 0.039020, -0.082097, 0.031953, -0.031174, 0.029092, 0.017526, 0.024556, -0.030784, 0.069305, 0.027458, -0.097034, 0.014347, 0.011069, -0.073562, 0.042039, 0.039783, -0.065213, 0.036284, -0.014546, 0.024002, 0.012423, -0.041408, 0.011143, -0.073237, 0.059361, -0.026178, 0.002026, -0.050122, 0.048738, 0.058501, -0.000001, -0.029688, 0.061759, 0.003676, -0.078589, -0.079821, 0.122286, -0.053236, 0.001938, 0.040502, -0.063961, -0.027469, -0.000579, -0.012917, -0.028924, -0.004094, 0.014458, -0.021033, -0.015578, 0.004073, -0.008270, -0.042474, 0.043041, 0.060465, -0.007994, -0.060468, 0.034293, -0.001624, -0.094332, -0.030072, 0.015498, 0.002868, 0.083393, -0.033522, -0.067152, 0.036324, -0.021055, -0.025721, -0.033384, 0.021549, -0.016322, -0.004166, 0.042001, -0.040593, 0.017805, -0.017824, -0.002804, 0.028099, 0.020423, -0.080222, 0.039414, 0.086406, -0.126071, 0.094234, -0.110177, -0.007980, 0.060470, -0.026824, -0.077815, 0.028785, -0.025591, -0.013275, -0.007121, -0.002660, -0.027354, 0.023178, 0.001379, -0.044227, -0.014601, 0.007544, 0.019562, 0.054439, -0.026724, -0.042774, 0.024017, -0.002250, -0.057951, -0.028764, 0.018907, 0.051720, 0.046875, -0.009543, -0.055619, 0.002471, 0.013789, -0.001043, 0.001560, -0.031197, -0.014105, -0.038575, 0.042313, -0.029001, -0.038758, 0.004645, 0.018989, 0.053363, -0.080352, -0.019516, 0.078464, -0.088675, -0.067593, -0.096518, 0.080447, 0.039154, 0.059763, -0.001751, -0.057901, 0.017532, -0.022411, -0.031289, 0.018502, 0.013998, 0.008808, -0.018701, 0.064370, 0.017388, 0.014486, 0.000831, -0.041389, 0.103786, -0.101619, 0.005736, 0.027039, -0.003556, -0.066170, -0.058170, -0.022250, 0.097906, 0.066376, -0.073771, -0.002228, 0.027538, 0.008256, 0.023138, 0.006758, 0.014330, -0.001964, 0.001732, -0.024477, 0.033165, 0.054078, -0.006601, -0.047794, 0.034598, -0.095167, 0.005666, 0.040409, -0.049477, -0.021177, 0.065344, -0.040202, -0.012452, 0.078888, -0.055807, -0.010123, 0.003623, -0.018220, -0.051172, 0.022231, -0.033431, 0.009148, 0.031047, -0.083252, 0.026103, 0.038018, 0.032903, -0.034715, 0.033923, -0.020700, 0.015179, 0.057199, -0.082640, 0.040088, -0.119109, 0.004131, 0.072865, 0.047663, -0.032737, -0.047979, 0.019894, -0.020191, -0.025137, 0.038728, -0.025849, -0.004967, 0.001688, -0.029452, -0.023902, 0.054515, 0.034190, -0.031007, 0.015171, -0.051607, 0.098327, 0.100951, -0.112249, -0.042358, -0.001556, -0.002886, -0.028329, 0.091939, -0.080905, -0.049772, 0.037129, -0.021739, 0.009541, -0.010580, -0.026349, 0.002359, 0.062635, -0.002527, -0.038127, -0.014521, -0.019680, -0.024570, 0.028651, -0.033418, 0.016120, 0.034886, -0.044293, -0.011056, 0.129384, -0.095209, -0.052789, 0.045319, -0.018174, -0.045717, 0.004808, -0.059902, 0.001031, 0.014285, -0.024770, 0.011512, -0.025707, 0.037661, -0.010319, -0.005786, -0.007452, -0.011207, 0.108978, -0.042771, -0.049053, 0.105904, -0.021047, -0.081106, 0.014851, -0.049087, 0.014234, 0.095041, 0.009542, -0.093944, -0.006374, -0.008101, 0.029548, -0.001491, -0.025088, 0.058473, -0.033464, 0.048456, -0.041520, -0.005579, -0.036055, -0.001539, 0.108987, -0.065660, -0.071214, 0.102169, -0.033076, -0.103822, -0.060513, 0.092069, -0.000472, 0.087289, 0.031034, -0.136343, -0.013189, 0.004346, 0.003905, -0.010687, -0.038475, -0.014793, 0.016141, 0.004012, 0.001023, -0.012739, 0.012339, 0.035957, 0.124405, -0.077445, -0.074211, 0.088341, -0.022708, -0.077486, 0.023530, -0.021616, -0.005657, 0.121804, -0.045863, -0.053747, 0.001281, 0.004643, 0.021209, -0.008257, -0.005786, -0.001410, 0.087739, -0.105787, 0.015024, 0.017181, -0.035144, 0.036925, 0.041378, -0.010021, -0.094417, 0.099956, -0.007006, -0.092630, 0.022519, -0.046751, 0.049441, 0.093630, -0.079963, -0.020721, 0.025298, -0.004900, 0.001857, -0.021634, 0.017695, 0.046129, 0.072010, -0.070136, -0.013683, 0.030028, -0.035848, -0.009236, 0.042236, -0.002368, -0.050837, 0.101693, -0.036753, -0.067713, 0.011076, -0.056148, 0.100685, 0.078260, 0.008097, -0.108724, 0.035488, -0.021346, 0.044031, -0.032290, -0.029368, 0.037617, 0.062075, 0.010982, -0.061955, -0.006650, -0.011060, 0.015710, 0.028115, -0.047026, 0.056877, 0.050756, -0.025411, -0.044649, -0.051485, 0.040800, -0.009854, 0.031587, -0.004364, -0.094948, -0.004349, -0.032777, -0.007854, -0.025446, -0.017746, -0.000597, 0.038839, -0.004831, -0.047416, 0.001101, -0.023853, 0.030884, 0.031212, -0.048808, -0.017726, 0.099069, -0.027736, -0.079821, -0.140135, 0.130477, -0.025159, -0.032876, 0.088871, -0.085005, 0.030739, -0.011553, 0.052382, -0.012427, -0.024201, 0.008911, 0.004211, 0.019737, -0.004155, 0.037891, -0.033945, 0.013612, -0.015212, 0.039567, -0.058104, -0.023323, 0.093054, -0.098069, -0.144939, 0.137202, -0.025028, 0.040138, 0.058921, -0.083957, 0.047843, 0.000827, 0.052680, -0.032435, 0.013577, 0.021458, -0.019389, -0.009235, -0.003786, 0.052442, -0.062482, 0.024703, -0.081586, 0.147107, -0.081203, -0.051261, 0.112490, -0.081016, -0.049717, 0.113790, -0.081242, -0.007841, 0.058888, -0.095485, -0.003674, -0.040670, 0.025604, 0.043472, -0.023073, -0.007173, -0.019132, 0.058022, -0.013483, 0.039618, -0.029195, -0.025899, -0.087584, 0.157208, -0.037535, -0.038900, 0.125991, -0.103511, -0.152185, 0.147839, 0.003561, -0.027257, 0.071205, -0.043333, -0.003495, -0.008051, 0.005958, 0.011977, -0.001908, -0.009701, -0.011582, -0.013040, 0.023504, 0.022166, -0.043741, -0.014708, -0.083213, 0.073422, -0.003395, -0.023942, 0.066495, -0.089762, -0.046836, -0.039753, 0.103716, 0.060574, -0.037539, -0.086705, -0.001972, -0.029812, -0.021662, 0.000588, -0.018531, 0.031438, 0.022225, -0.001927, -0.037036, 0.024575, 0.001712, -0.027037, -0.040179, 0.052619, -0.017278, -0.033557, 0.056667, -0.056264, 0.181523, -0.159674, -0.023228, 0.057019, 0.014853, -0.069153, -0.036811, -0.008311, -0.024000, -0.015094, -0.016095, 0.028547, 0.020618, 0.009902, -0.030260, -0.014413, -0.016645, 0.029454, 0.119193, 0.011428, -0.086629, 0.095011, 0.000513, -0.097001, 0.113335, -0.054171, -0.114461, 0.047539, -0.017467, -0.101013, -0.015465, -0.000319, 0.040644, -0.001096, -0.005899, 0.022438, 0.067722, -0.018284, -0.089769, 0.011350, -0.035696, -0.002113, 0.008231, 0.024945, -0.078810, 0.113755, 0.000715, -0.156463, -0.066266, 0.076676, -0.093536, 0.100153, -0.001921, -0.081310, 0.033334, -0.030757, 0.040062, 0.010752, -0.022038, 0.015072, 0.028071, 0.010187, -0.118312, 0.006958, -0.024476, 0.047169, -0.045689, 0.072709, -0.056646, 0.033310, 0.016579, -0.130777, 0.027970, 0.013328, -0.113502, 0.065710, 0.021277, -0.109990, 0.019365, -0.015094, 0.030571, 0.014675, -0.001886, 0.008695, -0.035703, 0.033147, -0.049290, 0.016251, -0.015921, -0.000237, 0.038029, 0.028398, -0.074878, 0.047605, 0.060745, -0.100978, -0.002382, 0.018233, -0.083138, 0.044904, 0.038303, -0.078657, -0.010261, -0.011367, 0.003901, 0.008911, -0.034138, 0.015970, -0.007966, 0.051333, -0.066860, 0.014518, -0.005703, 0.048111, 0.035429, 0.053572, -0.100173, 0.056141, 0.019842, -0.120706, 0.003311, 0.071067, -0.154102, 0.046756, 0.034724, -0.107811, -0.022236, -0.016674, 0.054397, -0.026696, -0.021804, 0.034471, -0.027175, 0.057893, -0.142973, -0.026467, -0.035112, 0.024558, -0.009078, 0.053640, -0.077057, 0.061834, 0.047429, -0.126139, 0.062865, -0.091890, -0.001184, 0.085064, 0.016855, -0.112353, -0.007575, -0.036359, 0.039533, -0.017033, -0.035278, 0.043084, 0.039191, 0.031702, -0.070123, -0.032489, -0.014338, 0.050548, 0.032428, 0.023483, -0.030807, 0.055927, 0.003250, -0.049272, 0.033225, 0.015009, -0.069687, 0.046594, 0.014628, -0.073178, 0.000350, -0.014762, 0.053658, -0.003424, -0.007354, 0.038050, -0.009347, 0.042506, -0.085513, 0.019168, 0.003128, 0.046533, 0.055227, -0.004546, -0.040175, 0.107473, 0.010285, -0.078735, -0.100829, 0.114602, -0.051056, 0.051930, -0.004358, -0.058337, -0.008820, -0.007839, -0.019403, -0.002671, 0.020728, 0.023583, 0.021899, -0.000393, -0.019527, -0.020636, -0.016211, 0.050532, 0.066853, -0.015805, -0.052689, 0.070551, -0.002543, -0.116597, -0.090029, 0.079815, 0.065377, 0.061517, -0.018933, -0.064489, 0.013572, -0.001714, -0.009963, -0.030004, 0.004047, 0.014667, 0.036122, 0.022456, -0.025493, 0.000547, -0.005852, -0.003467, 0.078342, -0.024728, -0.019394, 0.044534, -0.006500, -0.098915, 0.113978, -0.091150, -0.029057, 0.051383, -0.043599, -0.053824, 0.012928, -0.010657, 0.004663, -0.040045, 0.031098, 0.014773, 0.061785, -0.045813, 0.000886, -0.018335, 0.029318, 0.017474, 0.059844, -0.040834, -0.028895, 0.071751, -0.023642, -0.066028, 0.083080, -0.066148, -0.008543, 0.089700, -0.085520, -0.032565, 0.006836, 0.023065, -0.005670, -0.000227, 0.014226, 0.008033, 0.066982, -0.020700, -0.079892, -0.012550, 0.057587, -0.032455, 0.073233, -0.048157, -0.036112, 0.093480, -0.082193, -0.006189, -0.013713, 0.044239, -0.048917, 0.073957, -0.080103, -0.013204, 0.015512, -0.008872, -0.024563, -0.018446, 0.019747, -0.002534, -0.030379, 0.066076, -0.035306, -0.015205, 0.039448, -0.012154, 0.115720, -0.075744, 0.002263, 0.105100, -0.169664, -0.030642, -0.082165, -0.019404, 0.046905, 0.064862, -0.084068, -0.008253, 0.016260, 0.016653, -0.012674, -0.013111, 0.009782, 0.002249, -0.004304, 0.002832, -0.017411, 0.021111, 0.051746, -0.048507, 0.119837, -0.136852, 0.008551, 0.091125, -0.119265, 0.001047, 0.035717, -0.042577, 0.045931, 0.070511, -0.116826, -0.023301, 0.001319, 0.028976, -0.019637, -0.021148, 0.015256, 0.013690, 0.066004, -0.050042, -0.003055, 0.054771, -0.001127, -0.037429, 0.062162, -0.138181, 0.040001, 0.067439, -0.155314, 0.045401, -0.077723, 0.000881, 0.074177, 0.065993, -0.079188, -0.068863, 0.008722, -0.005199, -0.002628, -0.004517, -0.004730, -0.003778, 0.055546, -0.073799, 0.030022, 0.002064, -0.000685, 0.024180, 0.034577, -0.028677, 0.013435, 0.112511, -0.091790, -0.062732, 0.116313, -0.035039, -0.109558, 0.150520, -0.082657, -0.078363, 0.005867, -0.011079, -0.005446, -0.030193, 0.034586, 0.043750, 0.056019, -0.036280, -0.016559, -0.019422, 0.016563, -0.003614, 0.116402, -0.051412, -0.067068, 0.115470, -0.014790, -0.059583, 0.126571, -0.108440, -0.047095, 0.098920, -0.018161, -0.076254, 0.004606, -0.015529, 0.025899, 0.010471, -0.006445, 0.042835, 0.015198, -0.028023, -0.000029, 0.018404, 0.037355, -0.027358, 0.063890, -0.002608, -0.025020, 0.160137, -0.050423, -0.120421, 0.068536, -0.070698, 0.016037, 0.061882, 0.064515, -0.181763, 0.032412, -0.022519, -0.000446, 0.021055, -0.031647, 0.060913, -0.031076, 0.063533, -0.052098, 0.003155, 0.011164, 0.032721, 0.106428, -0.054207, -0.023592, 0.087668, 0.024024, -0.057091, -0.108549, 0.156800, -0.084506, 0.034682, 0.071627, -0.138158, 0.000823, -0.006325, 0.005946, -0.015858, -0.035341, 0.043831, 0.029858, -0.001474, -0.031048, -0.012202, -0.026057, 0.009224, 0.090291, -0.007091, -0.101163, 0.056303, 0.000884, -0.135090, -0.005180, 0.055900, -0.074395, 0.128766, -0.140219, -0.037164, -0.009907, -0.022196, 0.011088, -0.050056, -0.018186, 0.018310, 0.098612, -0.087940, -0.011151, -0.017033, -0.017355, 0.038591, 0.052024, -0.001990, -0.072447, 0.094692, -0.022176, -0.141348, 0.071527, -0.169025, 0.089333, 0.151739, -0.139407, -0.068495, -0.021658, 0.017840, 0.011645, -0.026781, -0.009197, 0.001577, 0.052733, -0.100250, 0.022485, 0.009146, 0.001438, 0.010828, 0.041669, -0.061836, -0.007108, 0.125720, -0.097409, -0.084655, 0.067208, -0.182279, 0.095202, 0.093496, -0.017171, -0.094580, -0.025336, -0.000236, 0.006901, -0.006950, -0.012096, 0.025316, 0.035440, -0.094761, 0.012687, 0.009106, -0.020650, 0.030117, 0.073078, -0.083589, -0.049553, 0.139163, -0.095958, -0.010217, -0.031823, 0.016576, -0.029927, 0.061365, -0.022091, -0.043685, -0.025321, -0.045481, 0.008534, -0.002430, -0.020800, 0.001474, 0.012380, -0.058562, -0.002299, -0.001152, -0.020082, 0.016465, 0.053055, -0.018796, -0.027841, 0.063768, 0.017605, -0.085225, -0.155604, 0.159128, -0.001604, 0.017405, 0.038358, -0.082313, -0.013924, -0.018827, 0.038347, -0.023111, -0.017102, 0.006826, 0.014999, 0.023959, -0.015024, 0.039890, -0.044436, 0.021575, -0.080812, 0.107633, -0.023017, 0.016025, 0.056007, -0.069731, -0.113042, 0.144265, 0.026198, 0.043353, 0.014845, -0.059055, 0.007135, -0.010594, 0.024134, -0.001351, -0.009217, 0.008105, -0.036816, -0.009721, -0.022397, 0.037071, -0.017934, 0.050242, -0.089026, 0.120912, 0.032100, -0.046793, 0.083616, -0.065056, -0.051518, 0.069625, -0.117948, 0.001717, 0.091786, -0.099728, 0.000826, -0.003599, 0.006279, 0.014268, -0.038000, -0.000911, -0.019988, 0.009960, -0.007035, 0.028227, -0.047743, -0.001180, -0.006783, 0.070412, -0.057502, 0.007058, 0.086699, -0.096799, -0.151828, 0.113106, 0.039685, 0.022902, 0.012779, -0.075643, -0.027173, -0.017992, 0.021273, 0.017306, 0.006249, -0.002029, 0.014443, -0.024809, -0.004991, 0.073831, -0.043463, 0.001588, -0.098110, 0.075672, -0.037030, -0.028156, 0.090659, -0.138404, 0.008616, -0.086641, 0.042707, 0.125523, -0.093057, -0.041820, -0.003173, -0.019053, 0.003613, -0.009380, -0.004452, 0.011669, 0.052995, -0.024983, -0.017985, 0.006664, -0.014353, -0.008820, -0.020359, 0.023243, -0.056381, -0.004450, 0.049779, -0.048467, 0.146392, -0.156459, -0.094516, 0.050811, -0.067016, -0.017871, 0.001083, -0.001766, 0.020113, 0.020590, 0.009259, 0.015460, 0.028254, -0.052688, -0.038419, -0.005254, -0.006489, 0.014762, 0.069134, -0.007959, -0.069281, 0.114592, -0.129871, -0.046132, 0.027845, 0.003369, -0.053035, 0.105793, -0.092204, -0.015652, 0.000352, -0.026577, -0.001003, -0.021761, -0.017239, -0.025109, 0.061975, -0.006867, -0.084607, -0.008720, -0.038468, 0.005032, 0.036225, -0.023532, -0.007072, 0.113397, -0.038292, -0.049313, -0.057445, 0.093186, -0.093915, 0.085866, -0.025705, -0.052185, -0.009910, 0.005923, -0.012237, -0.005326, -0.022401, 0.003413, -0.004390, -0.006461, -0.039967, 0.025917, -0.009261, -0.004439, -0.032690, 0.049780, 0.002288, 0.070786, -0.014045, -0.061171, -0.018528, 0.032946, -0.096808, 0.088770, -0.013692, -0.053743, 0.031714, -0.017994, 0.011543, -0.027511, 0.010849, -0.007997, -0.020499, 0.042505, -0.036011, -0.004291, 0.019069, 0.002168, 0.072100, -0.034432, -0.060052, 0.059197, -0.010362, -0.097884, 0.053101, 0.029242, -0.111708, 0.071361, -0.024123, -0.081571, -0.022474, 0.033437, 0.006374, -0.009211, -0.008443, -0.002077, 0.016058, 0.022848, -0.053160, -0.010064, -0.019869, 0.008259, 0.034113, -0.001751, -0.055919, 0.034427, -0.031675, -0.105319, 0.023838, 0.005287, -0.170644, 0.040953, -0.008441, -0.089046, -0.024850, 0.009225, 0.030097, -0.016561, 0.001600, 0.047341, -0.003303, 0.040363, -0.094804, -0.045293, 0.007407, 0.025088, 0.041871, 0.033618, -0.077917, 0.002553, 0.025257, -0.115471, 0.109850, -0.114551, 0.009635, 0.093445, 0.019582, -0.136812, -0.029954, -0.032233, 0.023819, -0.002265, -0.033806, 0.064799, 0.068521, 0.026454, -0.142986, -0.030959, -0.018200, 0.017411, 0.069493, 0.007550, -0.090786, 0.093026, 0.009945, -0.112924, 0.120348, -0.047687, -0.093472, 0.086317, -0.008623, -0.107839, -0.018759, 0.010620, 0.028021, -0.023817, -0.032693, 0.042220, 0.042218, 0.014342, -0.071101, -0.032891, 0.004233, 0.022525, 0.100236, -0.031103, -0.074844, 0.110919, -0.023933, -0.108799, -0.089532, 0.068246, -0.066677, 0.107524, -0.028133, -0.099180, 0.023857, 0.002358, 0.012010, -0.017437, 0.013684, 0.020858, 0.036052, 0.037286, -0.078021, -0.014755, 0.008265, 0.039850, 0.130097, -0.067967, -0.082253, 0.126483, -0.035446, -0.087797, -0.069782, 0.002712, 0.025832, 0.067802, -0.040748, -0.068164, -0.029991, -0.005855, 0.013637, -0.016613, 0.004359, -0.016515, 0.013691, -0.015883, -0.025993, -0.037392, 0.012442, 0.016612, 0.084216, -0.050562, -0.094498, 0.104190, -0.034168, -0.078124, 0.017318, 0.031895, -0.015640, 0.081856, -0.088532, -0.025672, 0.002986, -0.002987, 0.018178, -0.030538, 0.003786, -0.001965, 0.034108, -0.013635, -0.013288, -0.052399, 0.014641, 0.017917, 0.053246, -0.038314, -0.043161, 0.096097, -0.067044, -0.069450, 0.107355, -0.098927, -0.020455, 0.087554, -0.114433, 0.012265, -0.035150, 0.004178, -0.031750, -0.023815, 0.045820, -0.010855, 0.089222, -0.128860, 0.019856, -0.030058, 0.060652, -0.002146, 0.078424, -0.067864, -0.027277, 0.114368, -0.082322, -0.039772, 0.015658, -0.079303, 0.062966, 0.046872, -0.081548, 0.025641, -0.000407, 0.023485, -0.001442, -0.023539, 0.028568, -0.009533, 0.012877, -0.017467, -0.024018, -0.042213, 0.061857, -0.013097, 0.064371, -0.029546, 0.002267, 0.068010, -0.119301, 0.016591, -0.017699, -0.070324, 0.061574, 0.067172, -0.047745, 0.015374, 0.048151, 0.004311, 0.003168, -0.000419, -0.034972, -0.026388, 0.004473, 0.010261, -0.012767, 0.018841, 0.038321, -0.029621, 0.056813, -0.106189, 0.050351, 0.067673, -0.097910, 0.008876, -0.049578, 0.022391, -0.008111, 0.139492, -0.070832, -0.040848, -0.035195, 0.013882, -0.026392, -0.030025, 0.016641, -0.003735, 0.062372, 0.008373, -0.087142, 0.004372, 0.049449, -0.007898, 0.065456, -0.133681, 0.065981, 0.098034, -0.076911, 0.010275, -0.046481, -0.054631, 0.079432, 0.080558, -0.079301, -0.046531, -0.003469, 0.010029, 0.020954, -0.006070, -0.002485, -0.005773, 0.045920, -0.061767, 0.014484, 0.001134, -0.010900, -0.010097, 0.028042, -0.080575, 0.056257, 0.103300, -0.090146, 0.019211, 0.132513, -0.055353, -0.026898, 0.090194, -0.021953, -0.087514, -0.026605, 0.017880, 0.020308, -0.032962, 0.035086, 0.004362, 0.040579, -0.039511, -0.024880, -0.018216, -0.014284, 0.013613, 0.050391, -0.009598, -0.066821, 0.097639, -0.073218, -0.071307, 0.112275, -0.096708, 0.050693, 0.095203, 0.072381, -0.138011, -0.004012, -0.009946, 0.014238, 0.013117, -0.009146, 0.019524, 0.018844, -0.038238, -0.037727, 0.001429, 0.002931, 0.028317, 0.030297, 0.021363, -0.083027, 0.137566, 0.012398, -0.145834, 0.048306, -0.007076, -0.075497, 0.012637, 0.088546, -0.165098, 0.008518, -0.022811, 0.066401, 0.027722, -0.046088, 0.036874, -0.010488, 0.027063, -0.028152, 0.001555, -0.006464, -0.000355, 0.041982, 0.074062, -0.150172, 0.049595, 0.095130, -0.129596, -0.075553, 0.184049, -0.171137, 0.050148, 0.047687, -0.108915, -0.019756, -0.050086, 0.017969, 0.010881, -0.004896, 0.026328, -0.007819, 0.095369, -0.050319, -0.021191, -0.036750, 0.066513, -0.026397, 0.090541, -0.059638, 0.066427, 0.042438, -0.149134, 0.051325, 0.026798, -0.116848, 0.149537, -0.045409, -0.119750, -0.007328, -0.005833, 0.034064, -0.019985, -0.005042, 0.019878, 0.065539, -0.049130, -0.005636, -0.030963, -0.038524, 0.018173, 0.087355, -0.068011, -0.005547, 0.087580, -0.002090, -0.115925, 0.129630, -0.216152, 0.105586, 0.185991, -0.175414, -0.015001, -0.006707, 0.004817, 0.006519, -0.016612, -0.042190, 0.010507, 0.063790, -0.117739, 0.041745, 0.001164, 0.023566, 0.006841, 0.121386, -0.124992, 0.009471, 0.129481, -0.164986, -0.006385, 0.141766, -0.131934, 0.021820, 0.067466, -0.053987, -0.050926, -0.001286, -0.001805, 0.035789, -0.030796, -0.007202, 0.010243, 0.081055, -0.110016, 0.027596, -0.004011, -0.009665, 0.034040, 0.077655, -0.092952, -0.029072, 0.145248, -0.140400, -0.021063, -0.050461, 0.047012, -0.022313, 0.075821, -0.035465, -0.047112, -0.027506, -0.002993, 0.011757, -0.014360, -0.006315, 0.005041, 0.054957, -0.060423, -0.004857, 0.002844, -0.011605, 0.001543, 0.015473, -0.035643, 0.019854, 0.073652, 0.016768, -0.050881, -0.173106, 0.092391, 0.133071, 0.093451, -0.009340, -0.036097, -0.004941, -0.005466, 0.015913, -0.010750, -0.026875, 0.007431, 0.012584, 0.012200, -0.018761, 0.038943, -0.027803, -0.020685, -0.092773, 0.091054, 0.006781, -0.023702, 0.056249, -0.058042, -0.065618, 0.093035, -0.008465, 0.115947, -0.035165, -0.113967, 0.004404, -0.033732, -0.022580, 0.004387, 0.010447, 0.022986, 0.018082, -0.006431, 0.001860, 0.018326, -0.024953, 0.013822, -0.012535, 0.037235, 0.018314, -0.010785, 0.051994, -0.059700, -0.015619, 0.035114, -0.147266, 0.004206, 0.014949, -0.072220, -0.004620, 0.028552, -0.034957, 0.008812, 0.033879, 0.026498, 0.027361, -0.005564, -0.020949, -0.002999, -0.015403, 0.010667, -0.024681, 0.045424, -0.075636, 0.087832, 0.024971, -0.117714, -0.139863, 0.120979, 0.049528, 0.125470, -0.072848, -0.014272, 0.003639, 0.012148, 0.003482, 0.000637, -0.020686, 0.009663, -0.009967, -0.010669, -0.015163, 0.044446, -0.003667, -0.013170, -0.021821, 0.092266, -0.024894, 0.017367, 0.026729, -0.085277, 0.085314, -0.028819, -0.048067, 0.084103, -0.086787, -0.014671, -0.007424, 0.009133, -0.014341, -0.045642, 0.018002, 0.021464, 0.014019, -0.013966, 0.014791, -0.009836, 0.031326, -0.033005, 0.062874, -0.023054, -0.026514, -0.012447, 0.002478, -0.008767, 0.114269, -0.106043, 0.014130, 0.042174, -0.076982, 0.028830, -0.034676, -0.000974, 0.015727, 0.007087, 0.019716, -0.017215, 0.103857, -0.071951, 0.008431, 0.017249, -0.022597, 0.005822, 0.055819, -0.049757, -0.000031, 0.098638, -0.097956, -0.041626, -0.032886, 0.031810, 0.013755, 0.063543, -0.088657, 0.019830, 0.012199, -0.002661, -0.016450, 0.023276, -0.004387, 0.004873, 0.031552, -0.043757, -0.004817, 0.032917, -0.002809, -0.048940, 0.024859, -0.058717, 0.039126, 0.100967, -0.077520, 0.016898, -0.006102, -0.044158, 0.052651, 0.047834, -0.087868, 0.010043, 0.005043, -0.031487, -0.007886, -0.022483, -0.005454, -0.025334, 0.002754, 0.024205, -0.024121, -0.003536, 0.019976, -0.023313, -0.018159, 0.018549, 0.015612, 0.072021, -0.064879, 0.022292, 0.042798, 0.000180, -0.097736, 0.057711, -0.027637, -0.020835, 0.007145, 0.018448, -0.022787, -0.013696, -0.029846, -0.005574, 0.022097, 0.018520, -0.016769, -0.008993, 0.019353, -0.033620, 0.067076, -0.015755, 0.008697, 0.083887, -0.034380, -0.059396, 0.029428, 0.022694, -0.128460, 0.071339, -0.038930, -0.028637, -0.031503, 0.046711, 0.025146, -0.031727, 0.003451, -0.015500, -0.010848, 0.014586, -0.022487, 0.017039, 0.018778, -0.018423, 0.059134, -0.028975, -0.016874, 0.119053, -0.037868, -0.062112, 0.008179, -0.008330, -0.095392, 0.031661, -0.029924, -0.068858, 0.007301, 0.009405, 0.021256, -0.022455, 0.014357, 0.043286, -0.001483, 0.049966, -0.065412, -0.026495, -0.012255, 0.004074, 0.041478, 0.012330, -0.040959, 0.075712, 0.001933, -0.125928, 0.104003, -0.100542, -0.040532, 0.138836, -0.035958, -0.119641, -0.027541, -0.058927, 0.070739, -0.052832, -0.025644, 0.067761, 0.050229, -0.036320, -0.089207, -0.022852, -0.026362, 0.035168, 0.080283, -0.018207, -0.078523, 0.140617, -0.019477, -0.099075, 0.130801, -0.081736, -0.083210, 0.108092, -0.039419, -0.123052, -0.045023, 0.009699, 0.061422, -0.026413, -0.021948, 0.075341, 0.059502, 0.002413, -0.075533, -0.021469, -0.021162, 0.049532, 0.117219, -0.064401, -0.053584, 0.127532, -0.048735, -0.103310, 0.033202, 0.000167, -0.068776, 0.082220, -0.026317, -0.121991, 0.035004, -0.014475, -0.005090, 0.003806, -0.010893, 0.028637, 0.038112, 0.022678, -0.017551, -0.035282, -0.016249, 0.040584, 0.150825, -0.082201, -0.086441, 0.147306, -0.068542, -0.098145, 0.039518, -0.020773, 0.032579, 0.104553, -0.081170, -0.091665, -0.001605, -0.021976, 0.025791, -0.025793, -0.030598, 0.003700, 0.065622, -0.052797, -0.045478, -0.031186, 0.009983, 0.029804, 0.126672, -0.108951, -0.055369, 0.103635, -0.076489, -0.079576, 0.017388, 0.014784, -0.051719, 0.065758, -0.064515, -0.001026, -0.017652, 0.021374, -0.005985, 0.004395, 0.032615, -0.016078, 0.078766, -0.081202, -0.028615, -0.020324, 0.006221, 0.003192, 0.115590, -0.089575, -0.086061, 0.118967, -0.120693, -0.080008, 0.031070, -0.106923, 0.060150, 0.099803, -0.140526, -0.012827, -0.000925, 0.030027, 0.033714, -0.021653, 0.024431, -0.018387, 0.088447, -0.089183, 0.008222, -0.007862, 0.042291, -0.013637, 0.074735, -0.094059, -0.007553, 0.144236, -0.103165, -0.033479, 0.003879, -0.123600, 0.088730, 0.044440, -0.097726, 0.007391, -0.030426, 0.001412, 0.005607, -0.007393, 0.004937, -0.005486, 0.104777, -0.076965, 0.024462, -0.016694, 0.019475, -0.016650, 0.002739, -0.051850, 0.072032, 0.102730, -0.112479, 0.042075, -0.050358, -0.025441, 0.061373, 0.089916, -0.097389, -0.028653, -0.021395, 0.037669, -0.024920, 0.016940, 0.029679, 0.008303, 0.028950, -0.054936, 0.032409, -0.020674, 0.037635, -0.014200, 0.045444, -0.043897, 0.030594, 0.070869, -0.102908, 0.049240, -0.064381, 0.043484, 0.030530, 0.012278, -0.098241, -0.002852, -0.018003, 0.004926, 0.008497, -0.023900, -0.003175, 0.019438, -0.043370, 0.035529, 0.003687, 0.010032, 0.030557, -0.029519, 0.040922, -0.043466, 0.000491, 0.037215, -0.095973, 0.021390, 0.011030, 0.007952, -0.060165, 0.075638, -0.040007, -0.037015, 0.009639, -0.010110, 0.010530, -0.027127, -0.016401, 0.015600, 0.035006, 0.018950, -0.087858, 0.002012, 0.046368, 0.006151, 0.025203, -0.063080, 0.045177, 0.067710, -0.090812, 0.002176, 0.049310, 0.016613, -0.041035, 0.019086, 0.018500, -0.039238, -0.004576, -0.008214, 0.023401, -0.020127, -0.018894, -0.005411, 0.013366, 0.036692, -0.030617, 0.000511, 0.000652, 0.007850, 0.039300, -0.042095, 0.009805, 0.058216, -0.047711, -0.048912, 0.071190, -0.019518, -0.013143, 0.044392, 0.061493, -0.085215, 0.012745, -0.023510, -0.004874, -0.023114, -0.035601, 0.019464, 0.024907, -0.007126, -0.007072, -0.005215, -0.019971, 0.032400, 0.012664, 0.041542, -0.056865, 0.060863, 0.061719, -0.102496, 0.027483, 0.019105, -0.021984, -0.019258, 0.072568, -0.042251, 0.018957, -0.006547, -0.003703, 0.004725, -0.021436, 0.061276, -0.030435, 0.030035, -0.032629, -0.001984, -0.010387, 0.029267, -0.033682, 0.049571, -0.034026, 0.039073, 0.069562, -0.052225, -0.039947, 0.083996, -0.048563, 0.071846, 0.022100, -0.060191, -0.016977, -0.031800, 0.027761, -0.017147, -0.012095, 0.021505, 0.028422, 0.027526, -0.031067, 0.016140, -0.035246, 0.023451, -0.019219, 0.018048, 0.000817, 0.026501, 0.030032, -0.046087, 0.081472, -0.044180, -0.070025, 0.096410, -0.063779, -0.082128, -0.012197, 0.015032, -0.022654, -0.000432, -0.009213, 0.017440, 0.029542, -0.087827, 0.044088, -0.046951, -0.013453, 0.047112, 0.078208, -0.098474, 0.024897, 0.053467, -0.010326, -0.050311, 0.134809, -0.221378, 0.083401, 0.095642, -0.068294, -0.053623, -0.014940, -0.032348, 0.015552, 0.006762, -0.004167, -0.001882, 0.134801, -0.151960, 0.016529, 0.003461, -0.022710, 0.009648, 0.119534, -0.106100, 0.030598, 0.154732, -0.063192, -0.115903, 0.128948, -0.089922, 0.014345, 0.109699, 0.016291, -0.121129, -0.002515, -0.002246, 0.007040, 0.004254, -0.025036, -0.001127, 0.109488, -0.102259, 0.006601, 0.012457, -0.018427, 0.045785, 0.079621, -0.008201, -0.070497, 0.108557, -0.072269, -0.097058, -0.022449, 0.022132, 0.034750, 0.107921, -0.112555, -0.026423, 0.010953, -0.013823, 0.034653, 0.029670, 0.000349, 0.030141, 0.058707, -0.078531, -0.008408, 0.003603, -0.030663, 0.021892, -0.001752, 0.028909, -0.026785, 0.100617, -0.011061, -0.076308, -0.094883, 0.025838, 0.124534, 0.063640, -0.030525, -0.074204, -0.025984, 0.030952, -0.011125, -0.030216, -0.015058, -0.006820, -0.013428, 0.020099, -0.042353, -0.010530, -0.037389, 0.012742, -0.044460, 0.007634, -0.000534, 0.010826, 0.019296, -0.069554, 0.036610, -0.021435, -0.018374, 0.080418, -0.045796, -0.087052, -0.003829, -0.035764, -0.003654, 0.012814, 0.002597, -0.014432, 0.045021, -0.020718, 0.034853, 0.019072, -0.036276, 0.008426, 0.023653, 0.022577, -0.027747, 0.007527, -0.000288, -0.026550, -0.007462, 0.047086, -0.139420, 0.008082, 0.005397, -0.016172, 0.001394, -0.022629, 0.002726, -0.001152, -0.021154, 0.002581, 0.068327, -0.023496, -0.020257, 0.044445, -0.046711, 0.017017, -0.068310, 0.069455, -0.049301, 0.039422, 0.051307, -0.082273, -0.075398, 0.093720, 0.002432, 0.033299, -0.047935, -0.009879, 0.014671, 0.018469, 0.000607, -0.033684, 0.042289, 0.003657, 0.035032, -0.012342, -0.031685, 0.025172, -0.003503, 0.004083, -0.026745, 0.048179, -0.003330, 0.008168, 0.017398, -0.032095, 0.128057, -0.124514, -0.008506, 0.070478, -0.071234, 0.043601, 0.018467, 0.020698, -0.017492, 0.005241, 0.028918, -0.009638, -0.022502, -0.004891, 0.024106, -0.003934, 0.032371, -0.018255, 0.038202, 0.001219, -0.002352, 0.027551, -0.022633, -0.026268, -0.004389, -0.073878, 0.056867, -0.033606, -0.028683, 0.022600, -0.033562, 0.038958, -0.037226, -0.010007, 0.042673, -0.040455, 0.024324, -0.078934, 0.023860, 0.047488, -0.029415, -0.036113, 0.005449, -0.012312, 0.073079, 0.069564, -0.099875, 0.016304, -0.085273, -0.030543, 0.135214, 0.052889, -0.092211, 0.042108, 0.017354, 0.013397, -0.050350, 0.008784, 0.029506, -0.011519, 0.069224, -0.059442, 0.007230, 0.015565, -0.000016, -0.024343, -0.066197, 0.024742, 0.059115, 0.029554, -0.037429, 0.087820, -0.042523, 0.032335, 0.042069, 0.038890, -0.119541, 0.063244, 0.032030, 0.028117, -0.035532, -0.014811, 0.029381, -0.022666, -0.031703, -0.035999, 0.033017, -0.003365, 0.013051, -0.030352, -0.004813, -0.009609, 0.046450, 0.030838, -0.074276, 0.042200, 0.132601, -0.112530, -0.038789, 0.081544, -0.083539, -0.004742, -0.027806, 0.006602, 0.022224, -0.005740, 0.044808, 0.000525, 0.026352, 0.010862, -0.025813, -0.013967, 0.009052, -0.032117, 0.051117, -0.022689, -0.007806, 0.114272, -0.082356, -0.001237, 0.045822, 0.011996, -0.020927, 0.066213, -0.033247, -0.007299, -0.020573, 0.031163, -0.015646, -0.021797, 0.062102, 0.006148, 0.032206, 0.004426, -0.047922, -0.005639, 0.040109, -0.002480, 0.047592, -0.015687, -0.029892, 0.126677, -0.068961, -0.033563, 0.028599, -0.051383, -0.008941, 0.082677, -0.056537, -0.006397, -0.021363, 0.007516, -0.005752, -0.039671, 0.020769, 0.003518, 0.012695, -0.008164, -0.045976, 0.001462, 0.036804, 0.020503, 0.024352, -0.037239, -0.022524, 0.109171, -0.061104, -0.078266, 0.160555, -0.169943, -0.013755, 0.143590, -0.037231, -0.094242, -0.037814, -0.034136, 0.037693, -0.054246, -0.044571, 0.062695, 0.072718, -0.034422, -0.123530, -0.044312, -0.023966, 0.056816, 0.144847, -0.053591, -0.087130, 0.105981, -0.040597, -0.068476, 0.167315, -0.093934, -0.069166, 0.144277, -0.014964, -0.098095, -0.035631, -0.021531, 0.033155, -0.010365, -0.017955, 0.074096, 0.096943, -0.019663, -0.101684, -0.029691, -0.027739, 0.049246, 0.117617, -0.044817, -0.043191, 0.114761, -0.048207, -0.090207, 0.086648, -0.035350, -0.039576, 0.102740, -0.041854, -0.107242, 0.001913, -0.032569, 0.009590, -0.038656, -0.022407, 0.051306, 0.048940, 0.003238, -0.056438, -0.023275, 0.018770, 0.062970, 0.150800, -0.095633, -0.069731, 0.144698, -0.081801, -0.107744, 0.017128, -0.021283, 0.014145, 0.135796, -0.095025, -0.050878, -0.003317, -0.006346, 0.024712, -0.001022, -0.002490, -0.002556, 0.074552, -0.049672, -0.003243, -0.011096, -0.007020, 0.032622, 0.143594, -0.086034, -0.060577, 0.112581, -0.079274, -0.073991, 0.035569, 0.034892, -0.067553, 0.125464, -0.080533, -0.040848, -0.022004, 0.017877, -0.008788, -0.042429, 0.000005, 0.009385, 0.073901, -0.071214, -0.040310, -0.002332, 0.023168, 0.027469, 0.109809, -0.066996, -0.031728, 0.127168, -0.116619, -0.068713, 0.046863, -0.067032, 0.003987, 0.087112, -0.156827, 0.032750, -0.012425, 0.021948, -0.032838, -0.008724, 0.034247, 0.006076, 0.112263, -0.109776, 0.009185, -0.034124, 0.045538, -0.011723, 0.086739, -0.079478, -0.023020, 0.094255, -0.087116, -0.055528, -0.055440, -0.075619, 0.109328, 0.029753, -0.054299, -0.013687, -0.019660, 0.022819, -0.014569, -0.014735, 0.019899, -0.019215, 0.051040, -0.112287, 0.068341, -0.008591, 0.053800, -0.018415, 0.035962, -0.047823, 0.060833, 0.067081, -0.131929, 0.024570, -0.018436, -0.064916, 0.084677, 0.015121, -0.037945, -0.015135, -0.000125, 0.028705, -0.041698, -0.025698, 0.007292, -0.016592, -0.007218, -0.049928, 0.009801, -0.011994, 0.018451, -0.045633, 0.009592, -0.033910, 0.013132, 0.037844, -0.075378, -0.000148, -0.050692, 0.000854, 0.019231, -0.004974, 0.000473, -0.003576, -0.035926, -0.007926, 0.028715, 0.011216, -0.022520, -0.023249, -0.023771, 0.044648, -0.046444, 0.011768, 0.007252, -0.076510, -0.088809, 0.017095, 0.018100, -0.002431, -0.061929, 0.027520, 0.031744, 0.002410, -0.018007, 0.012013, 0.030438, -0.029993, 0.004836, -0.038797, 0.028562, -0.014971, -0.013740, 0.014686, 0.021701, 0.042890, -0.038668, -0.008404, 0.009560, 0.018739, 0.025737, 0.031804, -0.024747, 0.031102, -0.048391, -0.000449, 0.026811, 0.100508, -0.078192, -0.000839, 0.067790, -0.099678, -0.011551, 0.006995, 0.051125, -0.039501, 0.003451, 0.021302, 0.019482, 0.088040, -0.073667, 0.007305, 0.004710, 0.003720, -0.008360, -0.036537, 0.045316, 0.016574, 0.049463, -0.082843, -0.019217, 0.015756, -0.028929, 0.059823, 0.014568, -0.075967, -0.015390, -0.008321, 0.025692, 0.016842, -0.018485, 0.053139, -0.023030, 0.052895, -0.046811, 0.002914, -0.032710, -0.007799, -0.036897, -0.034505, 0.018584, 0.003363, 0.081236, -0.103095, -0.047323, -0.063473, 0.067126, -0.042375, 0.066608, -0.084251, 0.003092, -0.025363, -0.011566, -0.010258, -0.032824, 0.051992, -0.004834, 0.044678, -0.058372, 0.038202, -0.011096, 0.011423, -0.005798, -0.014199, 0.010993, 0.011790, 0.058534, -0.084844, -0.029708, 0.020341, 0.010126, 0.105809, 0.082994, -0.170980, -0.023609, -0.003931, 0.028032, -0.001340, -0.001203, 0.019716, 0.013549, 0.015021, -0.059644, -0.018547, -0.020821, 0.006596, -0.033198, -0.001909, 0.038062, -0.002432, 0.043936, -0.054414, 0.083214, -0.033264, -0.059755, 0.070888, 0.012571, -0.115861, -0.013204, -0.015844, -0.004127, -0.010672, 0.027687, 0.000588, 0.040459, -0.095898, 0.048639, -0.009075, -0.039399, 0.049029, 0.090680, -0.026147, -0.025358, 0.112012, 0.023071, -0.161629, 0.060315, -0.130386, 0.026519, 0.137758, -0.020186, -0.162128, -0.040583, -0.007018, 0.019703, -0.002497, -0.015277, -0.004004, 0.096987, -0.116210, 0.003737, -0.013464, -0.009004, 0.059726, 0.118769, -0.007798, -0.055026, 0.126206, -0.063605, -0.058356, 0.027855, -0.060925, 0.025950, 0.028498, -0.056801, -0.034980, 0.001288, -0.035387, 0.023263, -0.040816, 0.003020, 0.007689, 0.065467, -0.112799, 0.041964, -0.038001, -0.016795, 0.037868, 0.057405, 0.009742, -0.107933, 0.157463, -0.093534, -0.100389, 0.028228, -0.041435, 0.034489, 0.151422, -0.137173, -0.013353, 0.001251, -0.005965, 0.062455, -0.023408, 0.000300, -0.003327, 0.065534, -0.047076, 0.001021, -0.014338, 0.006317, -0.002974, 0.069133, -0.023608, 0.006461, 0.106591, -0.061799, -0.040369, -0.076822, 0.015829, 0.044425, 0.061104, -0.037994, -0.100375, 0.001895, 0.000436, 0.005970, -0.013403, 0.019483, 0.012696, 0.027952, -0.078289, 0.008433, -0.018749, 0.000409, -0.006066, 0.063128, -0.035493, -0.017346, 0.049243, -0.081625, 0.009898, 0.074181, 0.002306, -0.059763, 0.054476, -0.070299, -0.035801, 0.028136, -0.021100, -0.034016, 0.002737, -0.007403, -0.015935, 0.037767, -0.124254, 0.044909, -0.021104, -0.007194, 0.010840, 0.044029, -0.040704, -0.018044, 0.070207, -0.000849, -0.042943, -0.104271, 0.086496, 0.047767, 0.022697, 0.014882, -0.014420, -0.008608, -0.010050, 0.008494, 0.020849, -0.000908, -0.035551, -0.020143, -0.034715, 0.001260, 0.037857, -0.015113, -0.007049, -0.047506, 0.044613, -0.022742, 0.011179, 0.021551, -0.051721, -0.016675, 0.020614, 0.061633, 0.071324, -0.055762, -0.003896, 0.017018, 0.004121, -0.043763, 0.008346, 0.030552, 0.006713, 0.028200, -0.036395, -0.011157, 0.004690, 0.004201, -0.026769, -0.050855, 0.020188, 0.028249, -0.010938, 0.004072, -0.024248, 0.015478, -0.033218, 0.042237, 0.001024, 0.002294, 0.017743, 0.006502, 0.020544, -0.008211, 0.017887, -0.001230, -0.001658, -0.013824, -0.022510, 0.057945, -0.019805, 0.013447, 0.003976, 0.027123, 0.007987, -0.008833, 0.002425, -0.009113, -0.008209, -0.210553, 0.121251, 0.082618, -0.019682, 0.001089, 0.045878, 0.011302, 0.003436, -0.022691, 0.019794, 0.033817, -0.030509, 0.026996, -0.062127, 0.031265, -0.012446, 0.000322, -0.045978, -0.036286, 0.030404, 0.036067, -0.016686, -0.053853, 0.025950, -0.154958, 0.085123, 0.135061, 0.106483, -0.112862, 0.058028, 0.019453, 0.015265, -0.025846, 0.011685, 0.023636, -0.029878, 0.010288, -0.053527, 0.018790, 0.035436, 0.022810, -0.048293, -0.044051, 0.051190, 0.055915, -0.005127, -0.058165, 0.012710, 0.050648, -0.074120, 0.088062, 0.062420, -0.130583, 0.034154, -0.034621, -0.002952, -0.034497, 0.011605, 0.019582, -0.031588, -0.044401, 0.049282, 0.020945, 0.019834, 0.037744, -0.039073, -0.004529, -0.068084, 0.045247, 0.074540, -0.073904, 0.029965, 0.083621, -0.089692, 0.004427, 0.052626, -0.069015, 0.015757, -0.035530, 0.039650, -0.026675, -0.002474, 0.005529, -0.001723, 0.038653, -0.043597, -0.029284, -0.035169, 0.051224, -0.035355, 0.097665, -0.096959, 0.016549, 0.127389, -0.142717, -0.012309, 0.043600, -0.039303, -0.002186, 0.086794, -0.060491, -0.018034, -0.013357, 0.020174, -0.011786, -0.016262, 0.020742, -0.008343, 0.059514, -0.047975, -0.014884, -0.017710, 0.015330, -0.025780, 0.089652, -0.017834, -0.046188, 0.081267, -0.083265, -0.018176, 0.027702, -0.047376, 0.010939, 0.106916, -0.071878, -0.007203, -0.036664, -0.006234, 0.021865, -0.033445, 0.018315, 0.011063, 0.042369, -0.024910, -0.084957, -0.027308, 0.026571, -0.009868, 0.012608, 0.000148, -0.044366, 0.089329, -0.050809, -0.053482, 0.139099, -0.103096, -0.058265, 0.113308, 0.004503, -0.117558, -0.010271, -0.027877, 0.040385, -0.039726, -0.020215, 0.067347, 0.108292, -0.049333, -0.131011, -0.008755, -0.032524, 0.057484, 0.115074, -0.031472, -0.075299, 0.093352, -0.006733, -0.110881, 0.183706, -0.136389, -0.038047, 0.128920, -0.012938, -0.090219, -0.020428, -0.055878, 0.052193, 0.010442, -0.046889, 0.045973, 0.090275, -0.068356, -0.094467, -0.026624, 0.000514, 0.028397, 0.162667, -0.097528, -0.043432, 0.141709, -0.067863, -0.061861, 0.038844, 0.007745, -0.105287, 0.079094, -0.032881, -0.076775, 0.014769, -0.041513, 0.019184, -0.022660, -0.031657, 0.043461, 0.005019, -0.041143, 0.000931, -0.033802, 0.017565, 0.035693, 0.092863, -0.006357, -0.070574, 0.132313, -0.084896, -0.079078, -0.013404, 0.001744, -0.012808, 0.083902, -0.058937, -0.027755, -0.009562, 0.012372, 0.009712, -0.014447, 0.005604, 0.009959, 0.000348, -0.023451, 0.016320, 0.004675, -0.008848, 0.016476, 0.096414, -0.029450, -0.063774, 0.055559, -0.056454, -0.006866, -0.089821, 0.067337, 0.057653, 0.098603, -0.057611, -0.051827, 0.006725, 0.017136, 0.027458, -0.019216, 0.050562, 0.011471, 0.025921, -0.101429, -0.012904, 0.010569, -0.017971, 0.006886, 0.047894, -0.046574, -0.005814, 0.072684, -0.079211, -0.013189, -0.072882, -0.027183, 0.048677, 0.073072, -0.141839, 0.032698, -0.002669, 0.015662, -0.016097, -0.031805, -0.010097, 0.024188, 0.075601, -0.131450, 0.005327, -0.024073, 0.010888, -0.035420, 0.070185, -0.081390, 0.017376, 0.088953, -0.140974, -0.006989, -0.129961, 0.019992, 0.109668, 0.051019, -0.127718, 0.028305, 0.011334, 0.026841, -0.029335, -0.035188, 0.055717, -0.013018, 0.007202, -0.042255, -0.003752, -0.009782, 0.015255, -0.027623, 0.001556, -0.003841, 0.043223, 0.032232, -0.098325, 0.032136, -0.025711, -0.037607, 0.046997, -0.020769, -0.026285, 0.047904, -0.002449, 0.037065, -0.005091, 0.000806, 0.026808, 0.008955, -0.016761, -0.040547, 0.047543, 0.017486, 0.041302, -0.042926, 0.011992, -0.023113, 0.037565, -0.003647, -0.032089, -0.004202, -0.066093, -0.078493, 0.100183, -0.049395, 0.069037, -0.005206, -0.034429, 0.018698, -0.000420, -0.032206, 0.005310, 0.001444, -0.004109, 0.034537, -0.020406, -0.043924, 0.037956, -0.010100, -0.077930, 0.036346, -0.003100, -0.016718, -0.011213, -0.010974, -0.049159, 0.009620, 0.015116, 0.003405, 0.065406, -0.036541, -0.004119, -0.002549, 0.010831, -0.038060, 0.010752, 0.009257, -0.020137, 0.078349, -0.068723, -0.026012, 0.041847, 0.007782, -0.054116, 0.042199, 0.013533, -0.071334, 0.044733, -0.010744, -0.049832, 0.055118, -0.007964, 0.003301, 0.030582, -0.027711, -0.015651, 0.024259, 0.011543, -0.000558, -0.039102, 0.004481, -0.038115, 0.071168, -0.063900, -0.008467, 0.032963, -0.032723, -0.037216, 0.064661, -0.003668, 0.000020, 0.058230, -0.066231, -0.071435, 0.002647, 0.060998, -0.027723, 0.029483, 0.019188, -0.011302, -0.047689, 0.029265, -0.011934, -0.021391, 0.013957, -0.018784, 0.101840, -0.061161, -0.010045, 0.013349, 0.013221, -0.027076, -0.030937, 0.015261, 0.035774, 0.023422, -0.046383, -0.109647, -0.114987, 0.166659, -0.002659, 0.049653, -0.011046, -0.015701, -0.025940, 0.034681, -0.031387, -0.028242, 0.052525, 0.003832, 0.021675, -0.037042, 0.019425, 0.017816, -0.013197, -0.083032, -0.067926, 0.112405, -0.026252, -0.029023, 0.021442, 0.111734, -0.047639, -0.056521, 0.080145, 0.039849, -0.183679, -0.006117, -0.015065, 0.036675, -0.039713, -0.006256, 0.054221, 0.018560, -0.018860, -0.012457, -0.021018, -0.016845, 0.017192, -0.029751, -0.095859, 0.092708, 0.042145, -0.020453, -0.026989, 0.114953, 0.021181, -0.140988, 0.066054, 0.023706, -0.128114, -0.016854, -0.014667, 0.030208, 0.004529, -0.017902, 0.031334, -0.002325, -0.038673, 0.040497, -0.009338, -0.011433, 0.066332, 0.091992, -0.036491, -0.030592, 0.130370, 0.078640, -0.202115, 0.102624, -0.005711, -0.143436, 0.088500, -0.037844, -0.071280, -0.024879, -0.038785, 0.040978, 0.002333, -0.007328, 0.019944, 0.062447, -0.081072, 0.023286, -0.025707, -0.010917, 0.057904, 0.114995, -0.007758, -0.150856, 0.079060, -0.002902, -0.115066, 0.053748, -0.004615, -0.076252, 0.067814, -0.108350, 0.002831, 0.001060, 0.001439, 0.031689, -0.025831, 0.016480, 0.007888, 0.025336, -0.070299, 0.015603, 0.010597, 0.003726, 0.040450, 0.071167, 0.017600, -0.056650, 0.114531, -0.088648, -0.059758, 0.071036, -0.178852, 0.126638, 0.119046, -0.052105, -0.031896, -0.032620, -0.004713, 0.023008, -0.007312, 0.011355, 0.030119, 0.006568, -0.065549, 0.059195, -0.008043, -0.003688, -0.001062, 0.090741, -0.072448, 0.003202, 0.085741, -0.060507, -0.055680, 0.000253, -0.021407, 0.041925, 0.045881, -0.013865, -0.039465, 0.007744, -0.024914, 0.027944, -0.036454, 0.000031, -0.002676, 0.019189, -0.036281, 0.013294, 0.035952, -0.019740, 0.037544, 0.010308, -0.052458, 0.022520, 0.047287, -0.021480, 0.028187, 0.028088, -0.022304, -0.027919, 0.009899, -0.043161, 0.008616, 0.004486, 0.018283, 0.003858, 0.015199, -0.008650, 0.003793, -0.001617, -0.011310, -0.012581, 0.028016, 0.010349, 0.001115, -0.016834, 0.024805, 0.012697, 0.045855, 0.004952, -0.076873, -0.127953, 0.071065, 0.056573, -0.045480, 0.048525, -0.012174, 0.005075, 0.019476, -0.008275, 0.011542, 0.004310, 0.000040, -0.034223, -0.013457, 0.030362, 0.041196, -0.034288, 0.003106, -0.130701, 0.107932, -0.013511, -0.024665, 0.049397, -0.034138, -0.086241, 0.024385, 0.055116, 0.119112, -0.070460, -0.081001, -0.014302, 0.027800, -0.011509, 0.016166, -0.007564, -0.019540, 0.001724, -0.026636, 0.023691, 0.032438, 0.003928, -0.017616, -0.021267, 0.064092, -0.030976, 0.001015, -0.004047, -0.048622, -0.034919, -0.009905, 0.018129, -0.100650, 0.071484, 0.074085, 0.013157, 0.031663, -0.022505, -0.005227, 0.054432, -0.005997, -0.008102, -0.003006, 0.048915, 0.038930, 0.027931, -0.030569, -0.053035, 0.053431, -0.008929, 0.023371, -0.027835, -0.009155, -0.138780, 0.106495, 0.097260, -0.002192, -0.056097, 0.056493, -0.002042, 0.049687, -0.029500, -0.006095, 0.024100, -0.023251, 0.054285, -0.097911, 0.026635, 0.001421, 0.008483, -0.028939, -0.087030, 0.060204, 0.033117, 0.005644, -0.008688, 0.001409, -0.036609, -0.066729, 0.140020, 0.108224, -0.171256, 0.051389, -0.005218, 0.022218, -0.017049, 0.011278, 0.040628, -0.053036, -0.032314, -0.015919, 0.075934, -0.037747, 0.052311, -0.021594, -0.000244, -0.001376, 0.043028, 0.024544, -0.047484, 0.043115, 0.172488, -0.242346, 0.120558, 0.042726, -0.058610, -0.000564, -0.015165, 0.017811, -0.017791, -0.017453, 0.036615, -0.043471, 0.060268, -0.057780, 0.038796, -0.011093, 0.045528, -0.049260, 0.121876, -0.110032, -0.010481, 0.093611, -0.113282, 0.022129, 0.154226, -0.182113, 0.015128, 0.090818, -0.093152, 0.016977, -0.017965, 0.046987, -0.017938, -0.048851, 0.030320, -0.005540, 0.091110, -0.068011, 0.030863, -0.037531, 0.025256, -0.024510, 0.114574, -0.113281, -0.000139, 0.183505, -0.164473, -0.032995, 0.060692, -0.057325, 0.021082, 0.052239, -0.054116, 0.011225, -0.021744, -0.005843, 0.003608, -0.017279, 0.003259, -0.003637, 0.028804, -0.007330, -0.036082, -0.035360, 0.025255, -0.015485, 0.070927, -0.049267, -0.001590, 0.120368, -0.112561, -0.015440, -0.005582, -0.024517, 0.030936, 0.054289, -0.005051, -0.051131, 0.013112, 0.021689, -0.007194, -0.039563, 0.012584, 0.036004, 0.032028, -0.002165, -0.017924, -0.048145, 0.030374, -0.036658, 0.057849, -0.043242, -0.036532, 0.068911, -0.020589, -0.070813, 0.097988, -0.110495, 0.032263, 0.025328, 0.038906, -0.070464, -0.017873, -0.033852, 0.035873, -0.042950, -0.062613, 0.051616, 0.066773, 0.002560, -0.121331, -0.035103, -0.055283, 0.045260, 0.086227, -0.058392, -0.025164, 0.104018, -0.020439, -0.091302, 0.156630, -0.154430, -0.008568, 0.072264, -0.073756, -0.084565, 0.008771, -0.009634, 0.039030, -0.000284, -0.026050, 0.035192, 0.061122, -0.042254, -0.066388, -0.003912, -0.045557, 0.047161, 0.053735, -0.048559, -0.013346, 0.135742, -0.107525, -0.067721, 0.016009, 0.060220, -0.066869, 0.062723, 0.029886, -0.085163, -0.001200, -0.009605, -0.019307, -0.019095, -0.004245, 0.017070, -0.011102, -0.036656, 0.013052, -0.019457, -0.009801, 0.048220, 0.012890, -0.006858, 0.002528, 0.096515, -0.047331, -0.079062, -0.065657, 0.004135, 0.076693, 0.077330, -0.089873, -0.031494, -0.009183, -0.012052, -0.009296, -0.025003, -0.005727, 0.007551, 0.003475, -0.032430, -0.012724, -0.017018, 0.013340, 0.020757, 0.041200, -0.076140, 0.000074, 0.012453, -0.043331, 0.009815, -0.096159, 0.026389, 0.037640, 0.052912, -0.095468, 0.019218, 0.006860, 0.045819, 0.007346, -0.011961, 0.040015, -0.013980, 0.025491, -0.061655, 0.024104, -0.056455, 0.016074, 0.002801, 0.054560, -0.041792, -0.017976, 0.018040, -0.078976, 0.005059, -0.073165, -0.049504, 0.098827, 0.013410, -0.077371, 0.022607, 0.010435, 0.015967, -0.046402, 0.003066, 0.015424, -0.016452, 0.032831, -0.056025, -0.018255, -0.003758, 0.023621, -0.003804, 0.011478, -0.035339, 0.041552, 0.055901, -0.060364, 0.002549, -0.044428, 0.005634, 0.055737, 0.073553, -0.042509, 0.019936, -0.018136, 0.010210, 0.013520, -0.004369, 0.046737, -0.006617, 0.077764, -0.066697, -0.020786, -0.010363, 0.014227, -0.005899, -0.015744, -0.048541, 0.037904, 0.036440, -0.084469, -0.004050, -0.044128, -0.061570, 0.056814, 0.048304, 0.016757, -0.052875, 0.007730, 0.009552, 0.017576, -0.001915, 0.019080, 0.012462, -0.028461, 0.044568, 0.047282, -0.007661, 0.015225, -0.013455, -0.047723, -0.029158, 0.045817, -0.036227, -0.012079, 0.017452, -0.111070, 0.001515, 0.108352, -0.035235, 0.116353, -0.019432, -0.020997, -0.019237, -0.016714, -0.010508, -0.018591, -0.000244, -0.016462, 0.019049, 0.006163, 0.003936, -0.003084, -0.034510, -0.093480, 0.056550, 0.035887, -0.039679, 0.033370, 0.002871, -0.080986, 0.054238, 0.017210, -0.032638, 0.068684, -0.043143, -0.003272, 0.002280, 0.013231, 0.016918, 0.032815, -0.020291, -0.047680, 0.067622, 0.004607, -0.006234, 0.008421, -0.024226, -0.040870, 0.096341, -0.009765, -0.040843, 0.066432, -0.020849, 0.013527, 0.017156, -0.030497, 0.015303, 0.082061, -0.069923, -0.041336, -0.036258, 0.022760, -0.014407, -0.020394, 0.022012, -0.058975, 0.069992, -0.042928, -0.017949, 0.026269, -0.001756, 0.005664, 0.072208, -0.040413, 0.008924, 0.099426, -0.119035, -0.085558, -0.060987, 0.119010, -0.010815, 0.012302, 0.005318, 0.013043, 0.009096, 0.017756, 0.010729, -0.040695, 0.007530, -0.043848, 0.064771, -0.025932, 0.043058, 0.001524, -0.014601, -0.004488, -0.040771, 0.053465, -0.005576, 0.028500, -0.031229, -0.124847, -0.104468, 0.208427, 0.064676, -0.012762, -0.070672, -0.025604, -0.011998, 0.037356, 0.005954, -0.033760, 0.063188, 0.004473, 0.008856, -0.055710, 0.021585, 0.031478, 0.000198, -0.041953, -0.102331, 0.117025, 0.059990, -0.059969, -0.002010, 0.097684, 0.002741, -0.143015, 0.067369, 0.018156, -0.099146, -0.000065, 0.022389, 0.011502, -0.012016, -0.008378, 0.035777, 0.020031, -0.001534, -0.022094, -0.005001, 0.005093, 0.019236, 0.046289, -0.052210, 0.010348, 0.032085, -0.022901, -0.083949, 0.149761, -0.057580, -0.122356, 0.082549, -0.017339, -0.094360, 0.003241, -0.016280, 0.032488, -0.013093, -0.022911, -0.000318, 0.046709, -0.016098, -0.029190, -0.019765, -0.023174, 0.019410, 0.062262, -0.054454, -0.036831, 0.098203, 0.009905, -0.140785, 0.126793, -0.062806, -0.079096, 0.003116, -0.045785, 0.009316, -0.006537, -0.026012, 0.019308, 0.011854, -0.002297, 0.004246, 0.023852, -0.047292, 0.049332, -0.004513, -0.050051, 0.084459, 0.044481, -0.030242, 0.021575, 0.050254, -0.050009, -0.044462, -0.005019, -0.034864, 0.021250, -0.025269, -0.023813, -0.014375, -0.007759, 0.032344, 0.020815, -0.023114, -0.014807, -0.000810, 0.023483, -0.035602, 0.043107, -0.017029, -0.010950, 0.032319, 0.041354, -0.047810, 0.010727, 0.018103, -0.020347, 0.001816, -0.061587, -0.103554, 0.123235, 0.084321, -0.076403, -0.012436, 0.033897, -0.027622, -0.002545, -0.018508, 0.023645, 0.007083, -0.026321, -0.069740, 0.077664, -0.009227, -0.022088, -0.006277, 0.000045, -0.035223, 0.047888, 0.065687, -0.085438, -0.009843, -0.074609, 0.065349, -0.000460, 0.054533, 0.016819, -0.059790, 0.009595, 0.032471, 0.024741, 0.011346, -0.018499, 0.029173, 0.052491, -0.073259, 0.036468, 0.025665, -0.021803, -0.013010, -0.066879, 0.028643, 0.030218, 0.042389, -0.030735, -0.014859, 0.012237, 0.000235, -0.063401, 0.097119, -0.065174, -0.043528, 0.008549, -0.026263, -0.013845, 0.015792, 0.026181, -0.019439, 0.005052, 0.005098, 0.014555, -0.018523, -0.003383, 0.030382, -0.004900, 0.007800, 0.007807, 0.003302, 0.067237, -0.053642, -0.179074, 0.105980, 0.031204, -0.003338, 0.049064, -0.055139, -0.001664, 0.025548, -0.009673, 0.007545, 0.013579, -0.004200, -0.023419, 0.020309, 0.065769, 0.046595, -0.019535, -0.048022, -0.071883, 0.069835, -0.052811, -0.001433, -0.005982, -0.040319, -0.010234, -0.026129, 0.056333, 0.009558, -0.031798, -0.011810, 0.013420, -0.005685, -0.004245, 0.012193, 0.021591, -0.026890, 0.002250, -0.032932, 0.025551, -0.016972, 0.014477, -0.042055, 0.055826, 0.013340, -0.054818, 0.031835, 0.033265, -0.041071, -0.095241, 0.033313, 0.099759, -0.037261, 0.012045, 0.085073, -0.012709, 0.015032, -0.045144, 0.000550, 0.005013, -0.060660, -0.062893, 0.018986, 0.027430, 0.019359, 0.019325, -0.027870, -0.051080, 0.040119, 0.037537, 0.006786, -0.001225, -0.036311, -0.118322, 0.119435, 0.094789, 0.058676, -0.095352, 0.068989, 0.000663, 0.037352, -0.056115, -0.006541, 0.075287, -0.037338, 0.014984, -0.065026, 0.069836, 0.046494, 0.025922, -0.030123, -0.092319, 0.004222, 0.059203, -0.028082, 0.023623, -0.024614, 0.051135, -0.166235, 0.113818, 0.074676, -0.092030, 0.047326, 0.026520, 0.026573, -0.040147, 0.006367, 0.032641, -0.026842, -0.005294, -0.060525, 0.053721, -0.004002, 0.035883, -0.038718, 0.040045, -0.060636, 0.071544, -0.011115, -0.041630, 0.045261, 0.180194, -0.255217, 0.072953, 0.050338, -0.073319, 0.010594, -0.028880, 0.017658, -0.040002, -0.042384, 0.041476, -0.037077, 0.062087, -0.127317, -0.000693, -0.021062, 0.054865, -0.045244, 0.094172, -0.096913, 0.031819, 0.105703, -0.152014, -0.002848, 0.113435, -0.138148, 0.044531, 0.067367, -0.088543, -0.002882, -0.012775, 0.025664, 0.003751, -0.027613, 0.037501, -0.037881, 0.048767, -0.031878, 0.001012, -0.016743, 0.003436, -0.024769, 0.066207, -0.055868, -0.005284, 0.088008, -0.109751, -0.032512, 0.038109, -0.064884, 0.038300, 0.055173, -0.035985, -0.008366, -0.035244, 0.023283, 0.017115, -0.016835, 0.035738, 0.006601, -0.019102, 0.004708, -0.010999, -0.035435, 0.015424, -0.043685, 0.014040, -0.016647, 0.015949, 0.101102, -0.080279, -0.046240, 0.035959, -0.090676, 0.076877, 0.088545, -0.022932, -0.015471, 0.004539, 0.006809, -0.001733, -0.037784, 0.004100, -0.009405, 0.028307, 0.000104, -0.063314, -0.037355, 0.030895, 0.006470, 0.040569, -0.011146, -0.009808, 0.010377, -0.019633, -0.021703, -0.018910, -0.060392, 0.101194, 0.036122, 0.034510, -0.089028, -0.014401, -0.025595, 0.066378, -0.000654, -0.055045, 0.043598, 0.012045, 0.006139, -0.062232, -0.030796, -0.053805, 0.040328, 0.009102, 0.003887, -0.028634, 0.048743, 0.036818, -0.073524, 0.056515, -0.102526, 0.059870, 0.041334, 0.023615, -0.059016, 0.013833, -0.053622, 0.039318, -0.004093, -0.019340, 0.048242, 0.019473, 0.010458, -0.071826, -0.030464, -0.025144, 0.040605, 0.030174, -0.054269, 0.012361, 0.062293, -0.062037, -0.059755, -0.015729, -0.003661, 0.005505, 0.064879, -0.034870, -0.041672, -0.011520, 0.001501, 0.042044, -0.005604, 0.022082, -0.013287, -0.007733, -0.037073, 0.020125, 0.005356, -0.011695, 0.050923, 0.029862, -0.033212, -0.042841, 0.097252, -0.095874, -0.071912, -0.044112, -0.031601, 0.041586, 0.078442, -0.116955, -0.000149, -0.011343, 0.033947, -0.026521, -0.002425, 0.014912, -0.001953, -0.005347, -0.056576, 0.017270, -0.014176, -0.022589, 0.031535, 0.015490, -0.040224, -0.020795, 0.068502, -0.049071, -0.016517, -0.064481, 0.000060, 0.046356, 0.004712, -0.050735, 0.032984, 0.009809, 0.016442, -0.025222, 0.004955, -0.006778, 0.009702, 0.057537, -0.064600, 0.002172, 0.026254, 0.020538, -0.000716, -0.008196, -0.028548, 0.006279, 0.044528, -0.077377, 0.017928, -0.101683, -0.046293, 0.092955, 0.038374, -0.109665, 0.031154, -0.016514, 0.045064, -0.024832, -0.022117, 0.030230, -0.050690, 0.061138, -0.030914, -0.003354, -0.021207, 0.005879, -0.003352, -0.039178, -0.027785, 0.047049, 0.002959, -0.047001, 0.001946, -0.059117, -0.037663, 0.081146, 0.044372, -0.066835, -0.017090, -0.004512, 0.038075, -0.004082, -0.024647, 0.013327, -0.012474, 0.020361, -0.047060, 0.035381, 0.014916, -0.009348, 0.000381, -0.003334, 0.007272, 0.007489, 0.017209, -0.063079, -0.009938, -0.028055, -0.023284, 0.024808, -0.018401, 0.020833, -0.014187, -0.023261, 0.001738, -0.029509, -0.025305, -0.009102, -0.011422, -0.036033, 0.009918, 0.024398, -0.006472, 0.039624, -0.049863, -0.006341, 0.031739, 0.004882, 0.006617, -0.048762, -0.003623, -0.086117, 0.037587, 0.045320, 0.028670, 0.038323, -0.040723, -0.005957, 0.020544, 0.018240, -0.027457, -0.004125, 0.010593, -0.026127, 0.071095, -0.040525, -0.010148, 0.016555, -0.011496, -0.054223, 0.093368, -0.012772, -0.030182, 0.049630, -0.032756, -0.001598, 0.045205, -0.071715, 0.049329, 0.043880, -0.100099, -0.029872, 0.006482, 0.008537, 0.013600, -0.017630, 0.037591, -0.052002, 0.055923, -0.013548, 0.011925, 0.005401, 0.004397, -0.030715, 0.071040, -0.018727, -0.015874, 0.070885, -0.035979, 0.048896, 0.015167, -0.066969, -0.041857, 0.094313, -0.058478, 0.004719, -0.001114, 0.014447, 0.022633, -0.014046, 0.002284, -0.051767, 0.058337, -0.022065, -0.016812, 0.005790, 0.013536, 0.041675, 0.013803, -0.012513, 0.005762, 0.067651, -0.068790, -0.111481, -0.109673, 0.156925, 0.006414, -0.053878, 0.000847, -0.032576, -0.000051, 0.018038, 0.021924, -0.024736, 0.020233, -0.038885, 0.007309, 0.035977, 0.018379, -0.008018, -0.021046, 0.015383, -0.073130, 0.087637, -0.056954, 0.046112, 0.023260, -0.082186, -0.142227, 0.217863, 0.068809, -0.026532, -0.003935, 0.024233, -0.017368, 0.017471, -0.028219, -0.011679, 0.028412, -0.024890, -0.015590, 0.025146, 0.001427, 0.045875, -0.035217, -0.004334, -0.101935, 0.090811, -0.020797, -0.081568, 0.072531, 0.165344, -0.064805, -0.106235, 0.053478, -0.016795, -0.021970, -0.010996, -0.029860, 0.024602, -0.033653, 0.008627, 0.006892, -0.018842, -0.010908, 0.030750, -0.031270, 0.017490, 0.046727, 0.070537, -0.095203, 0.035573, 0.048257, -0.049343, -0.053311, 0.175205, -0.034401, -0.128833, 0.059415, 0.001803, -0.013564, -0.032667, 0.003433, 0.018267, -0.008157, -0.010150, 0.011109, 0.097439, -0.049279, -0.055684, 0.010107, -0.030256, 0.044452, 0.091810, -0.005170, -0.044859, 0.100622, -0.009049, -0.077710, 0.012780, 0.008393, 0.024904, 0.004054, -0.048824, 0.063512, -0.025623, -0.023721, 0.028104, 0.009689, -0.011588, -0.001979, 0.016930, -0.026540, 0.024687, -0.021116, -0.003229, 0.041086, -0.018336, -0.013346, 0.017838, -0.001471, 0.014610, -0.014521, 0.018291, -0.062917, 0.048732, 0.020861, 0.059232, -0.039113, -0.020131, 0.007851, 0.016917, 0.026577, 0.002864, 0.007706, -0.009369, -0.080710, 0.026802, -0.012692, -0.029848, 0.022641, -0.006985, 0.014887, -0.009434, -0.010022, 0.039976, -0.027946, -0.064323, 0.033857, 0.032053, 0.008810, 0.024790, -0.032276, -0.008520, 0.020518, 0.012568, -0.020762, -0.022834, 0.019082, -0.055357, -0.037424, 0.041019, 0.000209, -0.017490, 0.039741, -0.014391, 0.019246, -0.007554, 0.037535, -0.015694, -0.062370, -0.071568, 0.078990, -0.012517, 0.072862, -0.045264, -0.051044, -0.000900, 0.028330, 0.020138, -0.043280, -0.013788, 0.011551, 0.018752, -0.028286, 0.020368, 0.021944, 0.026269, 0.002660, -0.058094, 0.059050, 0.004245, 0.018345, -0.040056, 0.000170, 0.044618, -0.024918, 0.010607, 0.058130, 0.004295, -0.005919, -0.012816, -0.002875, 0.000629, -0.014249, 0.036142, 0.014288, 0.027772, -0.041614, -0.002506, -0.006298, 0.019366, 0.006411, -0.015251, 0.016665, 0.018109, 0.022228, 0.064803, -0.059404, -0.093371, 0.126757, -0.022677, 0.009501, -0.043213, 0.011093, -0.000429, 0.031149, -0.021390, -0.013530, 0.004156, -0.043357, -0.029076, 0.020665, 0.019504, 0.006468, -0.000932, -0.053241, -0.031380, 0.032979, -0.008941, 0.032252, -0.013200, 0.002481, -0.019968, 0.014502, -0.014366, -0.005152, -0.062219, 0.075709, 0.013605, -0.014517, -0.040636, -0.012580, 0.013225, -0.043134, -0.016770, -0.039593, 0.036123, 0.022383, 0.022468, -0.056445, -0.000075, -0.011637, 0.023687, 0.013197, 0.027663, -0.003324, -0.079405, 0.048031, 0.057657, -0.034331, 0.041384, 0.009440, 0.002379, 0.069897, -0.033825, 0.007854, 0.016383, -0.036523, 0.011196, -0.058194, 0.047822, 0.044968, 0.012976, -0.026886, -0.105608, 0.067698, 0.123415, 0.011202, -0.001794, 0.010909, -0.137866, 0.007417, 0.169932, 0.098963, -0.092426, 0.006680, 0.041609, 0.019197, -0.040282, -0.001371, 0.037284, -0.054760, -0.035244, -0.057263, 0.072838, -0.009077, 0.047095, -0.009283, -0.023114, -0.000658, 0.074925, -0.060069, -0.028174, 0.054375, 0.091058, -0.159020, 0.109219, 0.003515, -0.030164, 0.059018, -0.001725, 0.045948, -0.035141, 0.037865, 0.019750, -0.026855, 0.052645, -0.085356, 0.063970, 0.015585, 0.048638, -0.034860, 0.016861, -0.007668, 0.026918, 0.040631, -0.090543, 0.044252, 0.108658, -0.174150, 0.091392, 0.037048, -0.051067, 0.025350, 0.000387, 0.057594, -0.031901, -0.027499, 0.024532, -0.038552, 0.081761, -0.087668, 0.033376, -0.010532, 0.036312, -0.028916, 0.018073, -0.028310, 0.008210, 0.072437, -0.122354, 0.012727, 0.022838, -0.053608, 0.044781, 0.066796, -0.056984, 0.009045, 0.015679, 0.020197, -0.007758, -0.009413, -0.000487, -0.005772, 0.016086, -0.054779, -0.007440, -0.011932, 0.038486, -0.011757, 0.019233, -0.015594, 0.022669, 0.072670, -0.104183, 0.004291, -0.043026, -0.017481, 0.060180, 0.052452, -0.035935, 0.000661, -0.026931, 0.013256, -0.013108, -0.016749, 0.010544, 0.000999, 0.012382, -0.015014, -0.005582, 0.001450, 0.029346, -0.041041, 0.001143, -0.007239, 0.026113, 0.066380, -0.040438, -0.024273, -0.012968, -0.059545, 0.066688, 0.036793, -0.011551, -0.039841, 0.012334, 0.004558, 0.019538, -0.010685, 0.018501, 0.026666, 0.009590, 0.039129, -0.069946, -0.023828, 0.025941, 0.002690, -0.015490, -0.003117, 0.026334, 0.006192, -0.017449, -0.003647, -0.063472, 0.023291, -0.012252, 0.048613, 0.042958, -0.068916, -0.041667, -0.034980, 0.066016, -0.013963, -0.017939, 0.059802, -0.032852, 0.044757, -0.031034, 0.008235, -0.051750, 0.072871, 0.045550, -0.020229, -0.086735, 0.082235, -0.014890, -0.075375, 0.035614, 0.024855, -0.004750, 0.049551, 0.001369, -0.032496, 0.010262, -0.045626, 0.065067, 0.011998, -0.032613, 0.041297, 0.019750, -0.033017, -0.006440, 0.002669, -0.060392, 0.048190, 0.026088, -0.004251, -0.030141, 0.056697, -0.061545, -0.015145, 0.025052, 0.067749, -0.046719, 0.078106, -0.092118, 0.018478, 0.020275, -0.015013, 0.039888, 0.003779, -0.004340, 0.003038, 0.059580, -0.077808, 0.062540, -0.007635, 0.012934, 0.044371, 0.010900, 0.003337, 0.028288, 0.054300, -0.025400, -0.037946, -0.044255, -0.082859, 0.135195, 0.055722, -0.124175, 0.015713, -0.000476, 0.000242, -0.012429, 0.003699, 0.028170, -0.001021, -0.006644, -0.067203, 0.079011, -0.016336, 0.044419, 0.014157, 0.038476, -0.072676, 0.009872, 0.014235, -0.083419, 0.038086, -0.104988, -0.005367, 0.119312, 0.022753, -0.075608, 0.056075, -0.018141, 0.008478, -0.009254, 0.009526, 0.030439, -0.030900, 0.013592, -0.036142, 0.065906, 0.005125, -0.018544, 0.005955, -0.043572, -0.031754, 0.060642, 0.031942, -0.079147, 0.049363, -0.090376, -0.078712, 0.109866, 0.018697, -0.119791, 0.076388, 0.001004, 0.008960, -0.024538, -0.001962, 0.002125, 0.000807, 0.022485, -0.084065, 0.053961, -0.018645, -0.009849, 0.006496, -0.050535, -0.024568, 0.015210, -0.022445, -0.123185, 0.087468, -0.026285, -0.079331, 0.066232, -0.046210, -0.028162, 0.089048, 0.032781, -0.030027, -0.015161, -0.018293, 0.018069, -0.014197, 0.021525, 0.001029, -0.029243, -0.026796, 0.033237, -0.016724, -0.057065, -0.018259, 0.060170, -0.045816, -0.086712, 0.098500, -0.000982, -0.000075, 0.000910, 0.000364, 0.034494, -0.021748, -0.023311, 0.026642, -0.007797, 0.004066, 0.027360, 0.000069, -0.051229, -0.019357, 0.042537, 0.000236, 0.011416, -0.010911, -0.063099, -0.009233, 0.076635, 0.046834, 0.019538, -0.051487, -0.068862, 0.008071, 0.004179, 0.086957, 0.026363, -0.100348, 0.015396, -0.008528, -0.012992, -0.034305, -0.016922, 0.030228, -0.018272, 0.021464, -0.011296, -0.016720, 0.046318, -0.018289, -0.030659, 0.011243, 0.037832, 0.000323, 0.052284, -0.025767, 0.081372, -0.002132, -0.068198, 0.019984, 0.062019, -0.043247, 0.007041, -0.033462, 0.026465, -0.003105, -0.011935, 0.012657, -0.052282, 0.049213, -0.023763, 0.001298, -0.013229, 0.005192, -0.013760, 0.015092, 0.000129, -0.021262, 0.113073, -0.062411, 0.054965, -0.009774, -0.079825, -0.025480, 0.079212, -0.018527, -0.012559, -0.011043, -0.010436, -0.002457, -0.019510, -0.000126, -0.047741, 0.034330, -0.014963, -0.019871, -0.024749, 0.026027, -0.019364, 0.014694, -0.042455, 0.001139, 0.064507, -0.041865, -0.069785, -0.067547, 0.140439, -0.027489, -0.023195, 0.028600, 0.006582, -0.028527, 0.028832, -0.041682, 0.019695, 0.043914, -0.024556, 0.004396, 0.028552, -0.011545, 0.034944, -0.018271, -0.047131, -0.004314, 0.051153, 0.018002, 0.042739, -0.015873, 0.031240, -0.164635, 0.197011, -0.000498, -0.030837, 0.027944, 0.004462, -0.012892, 0.031973, -0.011379, -0.031937, 0.026413, 0.002170, -0.029734, -0.006827, 0.009983, 0.039404, -0.001297, 0.017979, -0.103436, 0.072073, -0.025745, -0.065581, 0.083332, 0.085319, -0.108640, -0.062369, 0.081833, -0.048496, -0.098255, -0.022013, -0.017994, 0.014258, -0.031235, -0.007706, 0.021395, 0.049993, -0.058543, 0.022467, -0.006306, 0.002229, 0.044507, 0.098084, -0.054948, 0.013748, 0.064411, -0.090931, -0.030155, 0.105022, -0.014059, -0.141657, 0.010435, -0.095154, 0.059958, 0.008553, -0.013951, 0.013109, 0.027610, 0.014977, -0.015112, 0.072232, -0.040774, 0.004272, -0.032808, 0.012931, 0.036133, 0.080646, -0.069935, -0.023524, 0.095088, -0.061023, -0.043725, 0.050154, -0.088391, 0.011610, 0.010544, -0.028099, 0.025824, -0.031924, 0.014095, -0.012236, -0.024580, 0.026284, -0.020550, 0.003632, -0.018169, -0.005694, 0.002941, -0.004361, 0.001001, -0.021805, -0.066372, 0.065920, 0.010182, -0.063104, 0.057085, -0.029736, 0.011281, 0.022394, -0.005829, -0.003773, 0.020972, -0.005116, -0.021151, -0.013953, 0.001434, -0.014875, -0.009053, -0.041759, -0.041302, 0.065375, 0.008483, -0.017853, 0.034765, -0.047711, -0.001986, 0.043161, -0.034468, -0.031203, 0.060427, 0.032825, 0.036418, -0.035420, -0.023446, 0.026896, -0.020544, 0.011177, 0.018832, -0.023646, -0.011321, 0.012207, -0.023403, -0.037649, -0.004554, 0.049234, -0.009940, 0.004975, 0.011630, -0.049855, 0.023039, 0.012030, -0.030360, 0.027824, -0.007097, -0.093801, 0.108634, -0.035552, -0.006371, 0.067558, -0.067105, 0.001303, 0.001010, 0.001424, -0.021115, -0.005632, -0.026199, -0.037455, 0.024153, 0.045270, 0.044480, -0.017264, -0.021665, 0.022532, 0.050823, -0.045683, -0.051974, 0.008958, 0.026333, 0.078005, -0.064164, -0.006083, 0.014261, 0.014194, 0.003274, 0.038577, -0.005577, -0.036147, 0.035360, -0.001335, -0.040824, 0.033301, -0.061066, -0.006348, 0.007280, 0.025941, -0.044494, -0.024771, 0.042846, -0.044565, -0.024495, 0.016163, -0.016338, 0.010388, 0.048001, -0.044822, -0.019310, -0.001639, -0.005133, 0.007432, 0.001914, -0.030576, 0.038944, 0.010855, -0.062445, 0.042683, -0.009609, -0.035811, 0.035931, 0.035874, -0.000844, -0.031697, 0.012862, 0.027716, 0.020522, 0.006805, -0.036847, -0.073389, 0.037269, 0.089370, 0.002144, 0.014770, 0.021324, 0.026865, 0.019306, -0.044711, 0.014362, 0.037804, -0.059370, -0.045911, 0.048233, 0.050691, 0.037298, 0.009455, -0.027190, -0.051472, -0.005436, 0.090676, -0.052174, 0.031227, -0.044496, -0.117810, 0.006558, 0.153178, 0.004001, -0.033872, 0.039655, -0.003235, 0.029044, -0.051870, 0.029251, 0.008138, -0.058775, 0.002369, -0.085432, 0.054752, 0.041098, 0.003275, -0.035070, -0.089854, 0.056153, 0.054693, -0.054517, 0.084573, -0.016247, -0.010991, -0.012648, 0.085562, -0.038828, -0.079105, 0.094694, 0.009545, 0.047242, -0.079103, 0.001402, -0.006351, -0.032400, -0.068921, 0.036491, 0.087739, 0.034010, 0.031361, -0.032740, -0.034832, -0.014796, 0.088275, -0.034016, -0.025786, 0.051826, 0.031159, -0.141183, 0.127886, 0.016519, -0.062885, 0.050868, -0.019890, -0.004349, 0.006309, 0.006668, 0.011952, -0.045295, 0.001154, -0.008525, 0.002648, 0.023529, 0.003462, -0.079986, 0.017824, -0.062057, 0.091078, 0.018332, -0.038015, 0.022324, 0.045358, -0.078054, 0.047501, 0.015857, 0.004647, 0.003666, 0.003761, 0.029479, -0.031128, 0.018974, 0.019119, -0.016373, 0.007082, -0.057615, 0.040701, 0.014816, 0.047454, -0.004028, 0.009089, -0.061587, 0.076223, 0.056315, -0.032145, 0.041638, -0.066746, -0.017176, 0.074391, -0.018267, -0.009689, 0.047903, -0.022083, -0.010052, -0.032305, -0.016310, 0.012882, -0.018237, -0.024062, 0.011928, 0.041403, -0.007466, 0.036152, -0.008662, -0.029887, 0.020533, 0.026090, 0.059426, -0.067911, -0.006968, -0.082990, -0.040739, 0.112172, 0.029509, -0.004897, -0.015742, -0.025754, -0.007884, -0.010119, 0.005450, 0.020136, -0.020447, -0.004908, 0.008981, -0.007171, -0.036201, 0.046021, -0.015456, -0.016389, 0.006090, 0.051972, 0.042323, -0.009650, -0.044585, -0.074458, -0.021369, 0.090847, 0.023752, 0.009694, -0.096321, -0.011177, -0.009333, -0.001654, -0.035871, 0.009899, 0.032460, -0.042624, 0.064108, -0.086327, -0.011965, 0.018263, -0.001197, -0.029169, 0.019536, -0.007881, -0.001604, 0.005664, -0.038486, 0.064123, -0.058144, -0.029990, 0.012882, 0.015126, -0.055330, -0.018688, -0.049178, 0.067539, -0.027964, -0.021598, 0.077872, 0.036624, 0.048292, -0.023017, -0.032960, -0.029549, 0.038201, 0.033006, -0.018856, -0.044716, 0.049362, 0.006632, -0.103432, -0.027501, -0.018616, 0.003980, 0.059283, 0.014476, -0.074228, -0.019113, 0.006449, 0.034981, -0.014240, -0.022301, 0.022349, 0.017062, -0.023693, -0.010907, 0.005102, -0.026591, 0.074426, 0.060429, -0.066237, 0.006823, 0.041976, -0.001892, -0.028605, -0.013899, 0.008245, -0.002180, 0.090653, -0.067864, -0.019401, -0.004635, 0.020486, 0.016877, 0.008261, -0.013359, 0.009417, 0.044375, -0.079837, 0.081832, 0.000509, -0.026709, -0.003904, 0.013854, -0.033040, 0.006751, 0.025938, -0.036201, 0.010493, -0.064819, -0.145576, 0.168971, -0.026929, -0.100250, 0.138518, 0.018653, 0.028270, -0.035662, 0.018202, 0.016525, -0.009499, -0.010538, -0.043898, 0.086598, -0.010930, 0.021810, -0.005447, -0.013459, -0.091955, 0.094567, -0.016037, -0.080088, 0.028264, -0.081642, -0.008153, 0.089501, 0.090116, -0.031297, -0.027639, -0.043980, 0.010015, -0.009482, -0.035818, 0.025977, -0.014816, 0.009337, -0.054968, 0.035936, -0.001516, -0.007005, -0.004112, -0.039220, -0.041417, 0.082811, -0.022140, -0.110747, 0.090600, -0.110516, -0.060950, 0.091831, -0.027898, -0.080079, 0.071383, 0.014420, 0.017454, 0.013606, 0.004058, 0.009800, -0.036307, -0.047977, -0.089392, 0.076474, -0.048283, 0.052446, -0.006479, -0.062116, -0.028348, 0.067252, 0.003590, -0.053741, 0.021087, -0.053319, -0.051442, 0.102515, -0.016265, -0.044213, 0.013796, 0.006846, -0.011263, -0.004540, -0.033904, 0.023889, -0.009454, 0.060674, -0.011856, -0.039936, -0.002520, 0.061807, -0.026120, -0.076575, -0.040586, 0.038220, 0.018459, -0.041613, 0.045387, -0.029983, -0.031308, 0.068853, 0.058013, -0.005517, -0.037786, -0.040492, 0.028650, 0.010223, -0.020499, 0.001481, 0.005417, -0.013053, -0.007594, 0.046014, 0.007242, 0.004304, 0.006044, -0.056761, 0.005715, 0.006211, -0.049257, 0.035418, -0.000723, -0.043448, -0.067459, 0.074994, 0.020308, 0.022172, -0.045669, 0.009661, -0.005389, 0.016225, 0.015353, -0.019876, 0.000181, -0.022396, 0.034473, 0.015047, 0.004761, 0.017046, 0.015777, 0.005964, 0.056632, -0.023155, 0.034519, 0.064396, -0.049138, 0.076204, 0.009607, -0.070665, 0.007203, 0.027050, -0.009656, 0.001286, -0.018408, 0.029822, -0.024730, -0.002497, 0.009267, 0.042320, 0.023203, -0.113165, 0.000181, -0.017072, -0.021438, 0.012227, 0.026041, -0.047607, 0.023179, 0.068023, -0.054615, 0.001225, 0.033082, -0.072500, 0.041529, 0.009264, -0.056972, -0.012239, -0.000783, 0.029087, -0.012572, -0.002216, -0.021979, 0.004012, 0.019106, 0.023926, -0.019804, -0.013222, 0.020495, -0.028463, 0.019353, -0.017613, 0.078053, 0.040203, -0.130021, -0.128424, -0.055208, 0.154359, -0.006280, -0.022383, -0.000869, -0.009635, 0.024906, 0.013654, -0.014992, 0.013386, -0.001976, -0.018168, -0.024891, 0.047566, 0.004190, -0.004339, 0.008186, -0.012605, -0.021535, 0.053196, 0.063943, -0.023201, -0.007528, 0.065482, -0.198553, 0.105704, 0.054252, -0.031467, -0.062363, 0.008732, -0.010027, 0.007547, -0.051276, 0.004827, 0.042376, 0.062678, -0.019534, -0.009744, 0.002756, 0.028514, 0.002817, 0.007573, -0.091020, 0.083566, 0.022966, -0.067970, 0.065816, 0.183946, -0.048437, -0.197806, 0.057723, -0.076324, -0.008256, -0.000265, -0.027827, 0.035610, -0.022962, 0.005156, 0.017809, 0.071155, -0.068983, -0.026679, -0.071472, 0.003804, 0.020416, 0.059195, -0.035598, -0.017477, 0.025315, -0.070558, 0.007363, 0.061327, -0.083988, 0.025204, -0.005090, -0.053111, 0.002628, 0.032076, -0.010503, -0.001224, -0.011167, 0.028192, -0.016805, 0.021091, -0.047232, -0.015163, -0.027595, -0.005866, -0.019392, 0.040053, -0.049142, 0.016019, 0.072534, -0.065687, -0.002178, -0.012752, -0.086763, 0.058883, 0.005371, 0.000797, -0.010202, -0.008899, -0.017891, -0.005837, -0.031085, 0.017890, 0.015075, 0.031386, -0.039992, -0.037977, -0.002420, -0.012234, -0.021836, -0.013210, -0.068568, 0.059204, 0.016137, -0.045565, 0.051451, 0.112158, -0.059131, -0.068324, 0.050806, -0.045495, 0.001796, 0.003450, 0.022991, -0.015957, 0.008579, -0.020208, 0.006379, -0.021871, -0.026791, 0.001895, -0.005011, -0.021935, 0.019982, -0.061227, -0.015391, 0.076906, 0.015734, -0.053441, 0.028044, 0.048014, 0.021360, -0.071654, 0.018375, 0.002958, -0.034936, 0.012435, -0.023172, 0.025633, 0.000957, 0.005658, -0.022631, 0.015425, -0.024681, 0.004544, 0.003636, -0.013836, 0.009065, -0.004695, -0.045354, -0.005347, 0.012970, 0.032009, 0.009168, -0.061432, 0.068750, -0.010547, -0.005532, 0.010652, -0.021511, -0.009759, -0.017271, 0.008066, -0.004450, 0.014096, -0.003088, -0.028237, 0.032417, -0.015774, 0.025328, 0.007765, -0.001814, -0.035538, 0.024784, 0.032506, -0.000702, 0.031002, -0.009814, -0.033745, -0.062573, 0.069347, 0.049974, -0.031517, -0.022814, 0.000859, 0.025527, -0.035920, 0.013220, -0.001387, -0.012049, 0.002236, 0.009435, 0.008572, 0.028652, 0.008282, -0.042408, -0.023485, 0.046052, -0.002083, -0.031326, 0.023521, -0.046568, -0.026044, -0.010662, 0.074721, -0.007697, 0.080215, -0.032864, 0.012049, -0.009063, -0.023934, 0.041426, 0.004902, -0.039932, -0.012748, -0.033887, -0.009960, 0.034202, 0.002569, -0.053318, -0.063917, 0.054860, 0.039728, 0.010529, -0.020538, -0.041228, -0.122929, 0.087861, 0.063257, -0.010102, 0.074854, -0.071602, 0.025806, -0.000595, -0.066413, 0.013681, 0.020517, -0.047282, -0.033455, 0.006470, 0.011503, 0.025056, 0.008087, -0.016579, -0.082549, 0.095244, 0.006566, -0.045324, 0.094923, -0.101086, -0.049220, 0.077733, 0.032936, 0.012333, 0.022273, -0.023803, 0.001300, 0.015977, -0.042803, 0.001292, 0.017987, -0.018715, -0.019460, 0.010496, 0.021451, 0.058059, 0.010660, -0.079796, -0.023184, 0.082226, -0.050029, -0.070007, 0.066195, -0.068111, -0.036225, -0.041741, 0.048574, -0.013811, 0.071182, -0.003491, 0.020921, -0.001618, -0.039080, 0.041809, 0.007313, -0.020152, -0.012446, 0.056403, 0.019520, 0.061605, 0.023595, -0.035321, -0.065329, 0.048468, 0.009024, -0.015841, 0.066939, -0.040223, -0.073320, -0.081207, 0.145744, 0.037416, 0.041154, 0.007164, 0.017543, 0.024139, -0.039021, 0.019431, -0.013473, -0.002861, -0.062036, 0.069146, -0.038576, 0.043665, -0.002660, -0.036671, -0.059491, 0.022245, 0.053203, -0.002650, -0.008283, -0.027786, -0.058082, -0.011539, 0.100430, 0.019885, 0.029333, -0.023408, 0.022810, -0.026122, 0.030079, -0.002901, 0.023647, -0.005566, -0.056375, -0.009828, 0.044464, 0.014803, 0.028350, -0.003337, -0.012360, -0.025011, 0.036995, -0.028880, -0.048626, 0.037797, -0.061118, 0.072398, -0.020707, 0.010426, 0.023444, -0.000939, 0.013100, 0.028564, 0.012319, 0.001297, 0.022839, 0.002833, -0.022850, 0.017813, -0.009152, 0.003609, -0.008208, -0.005263, -0.031220, 0.008235, 0.025090, -0.042081, 0.050447, -0.008382, -0.074647, -0.040585, 0.077827, 0.023990, 0.033027, -0.064273, -0.005255, -0.000063, 0.011320, -0.002272, 0.005746, 0.018144, -0.064913, 0.029242, 0.015184, 0.007689, -0.004032, -0.013361, 0.004300, 0.021450, -0.027314, 0.018826, 0.054057, -0.073268, 0.009297, -0.000711, 0.045770, 0.057140, 0.038700, -0.114024, -0.036259, 0.017479, 0.036996, 0.013670, 0.020488, 0.032522, -0.031801, 0.054650, -0.022110, -0.026332, 0.027723, 0.036488, -0.014932, 0.044463, -0.067185, -0.000837, 0.016616, -0.114640, 0.075061, -0.018711, -0.066113, 0.063119, -0.008650, -0.097315, 0.005080, -0.061699, 0.061549, 0.018411, -0.015693, 0.059326, 0.030515, 0.030796, -0.096794, 0.004874, -0.047775, 0.063649, -0.024151, 0.019595, -0.032765, 0.041352, 0.030049, -0.095189, -0.002743, 0.013425, -0.055570, 0.090288, -0.016322, -0.079274, -0.008882, -0.025626, 0.014353, -0.010971, -0.018838, 0.033567, 0.063667, -0.024905, -0.018005, -0.022858, -0.045700, 0.028087, 0.062336, -0.009053, -0.033734, 0.033395, -0.048625, 0.014966, 0.035436, -0.010020, -0.008604, 0.067850, -0.052662, 0.057556, 0.000857, -0.000133, 0.017024, 0.009038, 0.000784, 0.005896, -0.010356, -0.090532, 0.046798, -0.013159, -0.022972, 0.032559, 0.015737, 0.023048, 0.022225, 0.058773, -0.002057, -0.011277, -0.073274, -0.081341, 0.124180, -0.014493, -0.066291, 0.037635, 0.017816, 0.007765, 0.019689, 0.005395, 0.006641, 0.001562, 0.003692, -0.051144, 0.051071, 0.000127, 0.020029, -0.032595, -0.059409, -0.037531, 0.079903, 0.019020, -0.038840, -0.014486, -0.010472, -0.054132, 0.051103, 0.077213, -0.050903, -0.060113, -0.022238, 0.018130, -0.010968, -0.039020, 0.018222, 0.004336, -0.013305, -0.035284, 0.041092, 0.020247, -0.015863, -0.006787, -0.048518, 0.009026, 0.067210, -0.032944, -0.040808, 0.066683, -0.085540, 0.028728, 0.071909, -0.007842, -0.025080, 0.048358, -0.021579, 0.001239, 0.006262, -0.027243, 0.050419, -0.027879, -0.004079, -0.060367, 0.094222, -0.014206, 0.016116, -0.012560, -0.099221, 0.005754, 0.056585, 0.004557, -0.005355, 0.017490, -0.072409, -0.015988, 0.073845, 0.085199, -0.010830, -0.067139, -0.012982, 0.037585, 0.000525, -0.019265, -0.003589, 0.037247, 0.008601, -0.056060, 0.031908, -0.013719, -0.005714, 0.006085, -0.031268, 0.021239, 0.051460, 0.007563, -0.037317, 0.037200, 0.025446, 0.026916, -0.079391, 0.048794, -0.088760, 0.048325, 0.015603, -0.000513, 0.007298, -0.044916, 0.028636, 0.003788, -0.014622, -0.023003, 0.012620, -0.001152, -0.000790, 0.007062, -0.001520, 0.000069, -0.045502, -0.019988, -0.001333, 0.010494, -0.034179, 0.012566, 0.003819, 0.017121, -0.049173, 0.010557, -0.011939, -0.006094, 0.029533, -0.027375, 0.023170, 0.023096, 0.012908, 0.013699, 0.015392, 0.007535, 0.012570, 0.004241, 0.005030, -0.029627, -0.003914, 0.023039, -0.013973, 0.012975, 0.019904, -0.005723, -0.025549, 0.079198, 0.004854, -0.067220, -0.007745, -0.003056, 0.021583, -0.034668, -0.007130, -0.011986, 0.003125, -0.018734, 0.002998, -0.018062, -0.016572, 0.005697, -0.005396, -0.020882, 0.031020, 0.020808, -0.005008, 0.003426, 0.053533, 0.024754, -0.117173, 0.058719, 0.008745, -0.074727, -0.063059, 0.014432, 0.017309, 0.011402, -0.000998, 0.020214, -0.001764, -0.019256, 0.016604, -0.030063, 0.013478, -0.003974, 0.005490, -0.025308, 0.054136, 0.033798, 0.012783, -0.055278, -0.026811, -0.142282, 0.174804, 0.031891, 0.019578, -0.069874, -0.012546, -0.002742, 0.001137, -0.017592, 0.025567, 0.017208, -0.030756, -0.006522, 0.065232, 0.014628, 0.016852, -0.001133, 0.030276, -0.043145, 0.047960, 0.064729, -0.004563, -0.043086, 0.021534, -0.061464, 0.080032, 0.032249, 0.009393, -0.068120, -0.029598, -0.010314, 0.050280, -0.044904, -0.014224, 0.056892, 0.038446, -0.012353, -0.001978, -0.023877, 0.025726, 0.002816, 0.038831, -0.055053, 0.014597, 0.003046, -0.039949, 0.039904, 0.120522, -0.092851, -0.093771, 0.014922, -0.096961, 0.041195, -0.013205, 0.001633, 0.014814, 0.006262, -0.000442, 0.001814, 0.054697, -0.018023, -0.093349, 0.011653, 0.004271, -0.006782, 0.024580, -0.048837, -0.019943, 0.034037, -0.031682, -0.009829, 0.056394, -0.106353, 0.040528, 0.031072, -0.078624, 0.013761, -0.025778, -0.007492, 0.038842, 0.008839, -0.007131, 0.023282, 0.030189, -0.021574, -0.004334, -0.014458, 0.018435, 0.024102, -0.020400, -0.102057, 0.065701, 0.053382, -0.111676, -0.000967, 0.007435, -0.115903, 0.068166, 0.080365, -0.066070, 0.007729, -0.009471, 0.019724, -0.009658, 0.012543, 0.021402, -0.003786, 0.049272, -0.058288, -0.020637, -0.020665, 0.013671, 0.013496, 0.062507, -0.093422, 0.027490, 0.026065, -0.066880, 0.031819, 0.105714, -0.031672, -0.111164, 0.095646, -0.080637, -0.037937, 0.016942, 0.015116, -0.010724, -0.003528, -0.031567, 0.002185, 0.025139, -0.016163, -0.049824, 0.010929, -0.007265, -0.025560, -0.001900, -0.015439, 0.043972, 0.056725, -0.057768, 0.020299, 0.093237, 0.005888, -0.091311, 0.049352, -0.013341, -0.022880, 0.016124, -0.014391, 0.015049, -0.025154, 0.011727, -0.015308, 0.029002, -0.032822, 0.000487, -0.005730, 0.005769, 0.017026, 0.009809, -0.018411, 0.017714, 0.072320, -0.045773, -0.022300, -0.045101, 0.078132, -0.010337, 0.104982, 0.029420, -0.100263, -0.013922, 0.027821, -0.014354, 0.028399, -0.017622, -0.004230, 0.027037, -0.006496, -0.016187, 0.004820, -0.006052, -0.023454, 0.003387, 0.004206, 0.003164, 0.015711, 0.014720, -0.036170, 0.026636, -0.101918, 0.041581, 0.081527, -0.022278, -0.085052, 0.010901, 0.016488, -0.054102, 0.025053, 0.004654, -0.006370, -0.045456, 0.055790, 0.016162, -0.009960, 0.021239, -0.027784, 0.057763, -0.011462, -0.005390, -0.000293, 0.031967, -0.052414, -0.027528, 0.012123, -0.030540, 0.029439, 0.044288, -0.097388, 0.021272, 0.021951, -0.059239, 0.002891, -0.013207, -0.019197, -0.025970, 0.014304, -0.003606, -0.004637, 0.023012, -0.042853, 0.036577, 0.008518, -0.013807, 0.075891, 0.016135, -0.049620, -0.047047, 0.059880, -0.060089, 0.048488, 0.034446, -0.084842, -0.003742, 0.010078, -0.031762, 0.024406, 0.008755, -0.006402, -0.023994, 0.010863, 0.015511, 0.017001, 0.038963, -0.036977, -0.014769, 0.035771, -0.029049, 0.041889, 0.041415, -0.085963, -0.039526, 0.040871, -0.065732, -0.047207, 0.077078, -0.058598, 0.042482, 0.015302, -0.023463, 0.043171, 0.004900, -0.031930, -0.005356, 0.032318, -0.025864, 0.050632, 0.005853, -0.050957, -0.047044, 0.104750, -0.060023, -0.019246, 0.087984, -0.113438, 0.034903, -0.097237, 0.120949, -0.051980, 0.101785, -0.073064, 0.021378, -0.007318, 0.004210, -0.009832, -0.007311, 0.007777, -0.008039, -0.008715, 0.023499, 0.068514, -0.014358, -0.059110, 0.016619, 0.013141, 0.013114, -0.064022, 0.109906, -0.062100, -0.110005, 0.033013, 0.082894, -0.082453, 0.092722, -0.034371, -0.001148, -0.022710, -0.008026, 0.012275, -0.048446, 0.014831, -0.020999, 0.033507, 0.013834, 0.037628, -0.001496, -0.060579, -0.041042, 0.064035, 0.017249, -0.054705, 0.066685, -0.035743, -0.044790, 0.049581, -0.050459, -0.062324, 0.044404, 0.019239, -0.001793, 0.013795, 0.022055, 0.004917, -0.000385, -0.008897, -0.062108, 0.027127, -0.023827, -0.001075, -0.028947, -0.016875, -0.101623, 0.072306, 0.029927, -0.012467, 0.035291, -0.037796, 0.006629, 0.018422, -0.073253, -0.021373, 0.024496, -0.094406, -0.014333, -0.002442, -0.010762, 0.032966, -0.002208, 0.005991, -0.018147, 0.064311, -0.075495, 0.007372, -0.015631, -0.014714, -0.067887, 0.060041, -0.002559, 0.008627, 0.033847, -0.070825, -0.013792, -0.052739, 0.020851, 0.030594, 0.046867, -0.099318, -0.032554, 0.005692, 0.013152, -0.011413, -0.010277, 0.015058, -0.051820, 0.072283, 0.004620, -0.014157, -0.002264, 0.026019, 0.009699, 0.023695, -0.024891, -0.011117, 0.031698, -0.063742, -0.032204, 0.072972, -0.050893, 0.020909, 0.026060, -0.101769, -0.035996, -0.012096, 0.033734, -0.027966, -0.008227, 0.009166, -0.043282, 0.030623, 0.011137, -0.025853, -0.002252, 0.031308, 0.044410, 0.005147, -0.056940, 0.056618, 0.001270, -0.083512, 0.015859, -0.002842, -0.015173, 0.011632, 0.027044, -0.094378, -0.021735, -0.071698, 0.061520, -0.000930, -0.015277, 0.062202, 0.054082, 0.022287, -0.125434, -0.003848, -0.065319, 0.064861, 0.046164, -0.004400, -0.014075, 0.046141, 0.017360, -0.071335, 0.098117, 0.000669, -0.130640, 0.029592, -0.022058, 0.024248, -0.013894, -0.024752, 0.031673, -0.022183, -0.009755, 0.044155, 0.084224, -0.069148, -0.053818, -0.008398, -0.031782, 0.051359, -0.007183, -0.001298, 0.017680, 0.019117, -0.052219, 0.002958, -0.027879, 0.033915, -0.046273, 0.012149, -0.027562, 0.002006, -0.040929, -0.005444, 0.008803, -0.017290, -0.004480, -0.000658, -0.030287, -0.050970, 0.029209, -0.015335, -0.021278, 0.020504, 0.010290, -0.033780, 0.035953, 0.009502, -0.066036, 0.050648, -0.100551, -0.092580, 0.148248, 0.042374, -0.060941, -0.010651, -0.001477, -0.008083, 0.044438, -0.013339, 0.028895, 0.031853, 0.001108, -0.037857, 0.013737, 0.014792, 0.014860, -0.018310, -0.078883, -0.059571, 0.077387, -0.015651, -0.039731, 0.043382, -0.014979, 0.032702, -0.011940, 0.103162, -0.044693, -0.041066, -0.016783, 0.037676, 0.026300, -0.018281, 0.023373, 0.009345, -0.021985, -0.059692, 0.052369, -0.011012, 0.005603, 0.011288, -0.020068, -0.004619, 0.005652, 0.022737, -0.050563, 0.043328, -0.034194, 0.141152, -0.116246, 0.114255, -0.054616, -0.074598, -0.034678, 0.021362, 0.015686, -0.026047, 0.055388, -0.021135, 0.050065, -0.031471, -0.043248, -0.056794, 0.004533, -0.013489, -0.023883, 0.048327, -0.008654, 0.076908, -0.032209, -0.098554, -0.025364, -0.010825, 0.026417, 0.118562, -0.059809, -0.054240, -0.018569, 0.022633, -0.004764, -0.003711, 0.009317, -0.005176, 0.049667, 0.001223, -0.004985, -0.016717, 0.037155, -0.025357, 0.018760, 0.011917, -0.023067, 0.061121, -0.038583, -0.022558, 0.046742, -0.016045, -0.074616, 0.049298, -0.015045, -0.023052, -0.022475, 0.011278, 0.050414, -0.012232, 0.007104, 0.037881, 0.003116, -0.008497, -0.020740, 0.008285, 0.015663, -0.030504, -0.021560, -0.023232, -0.003992, 0.035835, -0.013867, 0.007861, 0.018173, -0.014017, -0.026369, 0.079550, 0.010345, -0.083399, -0.044436, 0.014850, -0.000244, -0.011298, -0.017871, 0.007536, 0.024288, 0.002097, -0.012468, -0.024722, 0.037924, 0.019484, -0.019159, -0.016799, 0.015870, 0.062952, 0.005405, -0.074263, -0.045388, -0.074758, 0.070300, 0.044021, -0.014829, -0.069577, -0.017286, 0.017062, 0.028904, -0.011839, 0.000025, 0.013222, -0.011522, -0.020973, 0.040818, -0.019432, 0.012993, 0.000174, 0.017458, -0.035169, -0.006132, 0.024632, -0.050020, 0.013499, 0.125732, -0.036800, -0.094661, 0.050035, 0.027764, -0.034659, -0.026338, 0.016666, 0.040830, -0.014622, 0.020873, 0.016228, 0.024703, 0.009962, -0.029559, -0.024321, -0.007203, 0.018723, 0.020674, -0.034944, -0.038396, -0.000629, 0.024535, -0.023405, 0.057726, -0.119568, 0.070151, 0.003176, 0.019051, -0.031553, -0.028494, 0.034682, 0.018581, 0.022930, -0.000340, 0.024089, -0.016048, 0.007148, 0.003142, -0.016268, 0.054064, -0.033400, 0.008331, -0.027632, -0.007584, 0.017328, 0.029081, -0.062382, -0.017847, -0.132874, 0.152422, 0.032751, -0.045058, 0.035692, -0.039323, 0.026422, 0.034073, -0.012635, -0.026231, 0.007314, -0.023141, -0.004831, 0.012053, -0.007679, 0.021967, -0.003029, 0.024808, -0.026688, 0.034990, -0.014632, -0.053551, 0.082326, 0.061137, -0.002573, -0.023578, 0.061743, -0.040164, 0.002112, -0.005393, -0.020002, 0.021616, -0.007721, 0.025808, 0.028330, 0.026295, -0.004412, -0.036523, -0.004698, 0.032209, 0.004906, -0.010716, -0.122430, 0.052873, -0.012948, 0.028353, -0.001228, 0.022996, -0.054487, 0.021329, 0.112811, -0.035850, -0.054207, -0.031816, -0.024692, 0.062197, 0.016469, 0.022323, 0.009921, 0.036757, -0.039593, -0.002870, -0.049567, 0.047299, 0.026439, -0.005612, -0.036057, 0.020732, -0.009438, -0.003640, -0.032944, 0.014957, -0.093513, 0.010334, 0.126229, -0.105731, 0.001716, -0.002900, 0.003274, -0.002813, -0.024837, -0.025029, -0.016006, 0.068801, -0.040060, -0.032580, -0.010509, -0.013664, -0.002305, 0.012197, -0.036783, 0.046660, 0.018279, -0.055935, 0.021829, 0.174544, -0.115452, -0.043444, 0.092898, -0.072714, -0.042447, 0.008503, -0.011971, 0.044097, 0.014458, -0.000772, -0.002154, 0.074264, -0.053944, -0.047423, -0.012961, -0.007887, -0.003825, 0.125393, -0.115366, 0.008822, 0.108031, -0.121422, 0.016699, 0.103955, -0.008751, -0.108199, 0.137333, -0.084030, -0.040751, -0.026883, -0.000746, -0.016293, -0.000284, -0.009510, 0.022255, 0.073398, -0.035051, -0.003533, 0.049139, 0.012024, -0.020143, 0.040536, -0.051024, 0.009848, 0.104340, -0.025911, -0.032077, 0.026143, 0.024215, -0.043863, 0.114999, -0.066624, -0.000599, -0.000949, 0.008802, -0.027431, -0.011912, 0.038230, -0.013860, 0.070952, -0.047176, -0.051335, 0.029851, 0.007078, -0.024415, 0.004499, -0.006875, 0.008012, 0.034528, -0.051498, 0.038670, 0.089985, -0.114236, 0.012866, 0.099234, -0.041375, -0.040333, -0.017191, 0.023181, -0.025258, 0.008392, 0.018708, 0.002254, 0.050180, -0.034388, 0.010235, -0.001044, 0.023279, -0.049900, -0.017539, -0.015430, -0.012206, 0.037614, -0.038865, -0.060248, 0.077669, -0.020254, -0.028667, 0.103779, -0.043831, -0.096434, -0.004512, 0.039497, -0.038008, 0.015747, -0.015017, -0.008424, -0.001339, -0.008711, -0.045043, 0.006118, 0.010696, -0.045177, 0.004195, 0.016764, -0.054978, 0.098191, -0.024698, -0.040126, 0.009162, 0.050319, -0.098789, 0.125542, -0.003509, -0.118592, 0.019006, -0.003716, -0.005078, 0.012970, 0.009732, -0.028428, -0.068531, 0.050320, -0.027576, 0.010284, 0.016077, -0.014629, 0.101155, -0.037550, -0.046788, 0.092263, 0.018854, -0.127859, -0.047599, 0.035707, -0.003005, 0.056896, -0.011836, -0.070179, -0.019019, 0.018978, -0.027646, 0.012111, -0.019650, -0.007827, -0.018896, 0.034164, -0.038875, 0.031790, -0.001748, 0.011556, 0.071911, 0.040953, -0.108327, 0.073715, 0.023143, -0.153726, 0.007335, -0.016988, 0.026497, 0.024979, 0.044418, -0.107930, 0.027540, 0.009561, -0.019798, 0.030519, -0.006894, -0.032848, -0.002345, 0.040100, -0.052774, 0.049110, -0.052484, -0.011906, 0.034663, 0.038471, -0.072647, 0.023495, 0.078521, -0.102134, -0.067002, 0.024776, 0.050503, -0.039340, 0.076546, -0.082526, 0.020732, 0.014412, 0.005371, -0.014901, 0.000104, 0.024748, -0.010909, 0.015629, -0.068204, 0.000906, -0.027078, -0.024801, 0.029871, 0.051317, -0.111556, -0.033661, 0.123482, -0.077185, -0.137906, 0.145661, 0.036460, 0.006950, 0.045346, -0.060006, 0.005642, 0.021435, -0.027822, -0.024417, -0.014947, 0.038564, -0.046862, 0.071109, -0.049901, 0.020630, -0.009804, -0.017096, -0.024625, 0.031503, 0.015171, -0.047159, 0.050883, -0.073614, -0.009761, 0.062708, -0.002804, 0.045704, 0.030367, -0.074505, 0.002263, -0.041814, 0.025893, -0.007590, -0.003508, 0.012352, -0.000242, 0.083237, -0.102014, -0.005711, 0.008307, -0.002894, -0.059906, 0.060610, -0.020550, 0.000720, 0.052197, -0.043890, 0.038697, -0.018923, -0.043128, -0.016750, 0.073506, -0.056075, -0.022080, 0.011669, 0.045332, -0.006811, 0.004944, 0.024745, -0.008598, 0.061455, -0.052109, -0.035347, 0.018629, 0.007289, 0.016483, 0.010390, -0.048950, 0.032712, 0.015417, -0.096462, -0.006530, 0.058688, -0.135397, 0.013970, 0.049437, -0.100650, -0.027751, -0.020133, 0.022650, -0.025556, 0.000174, 0.029233, -0.020436, 0.033447, -0.036534, -0.024895, 0.025192, -0.001321, 0.019284, 0.042913, -0.087762, 0.011243, 0.022276, -0.115439, -0.006809, -0.018648, 0.003360, -0.009467, 0.076110, -0.039304, -0.014061, -0.064218, 0.060696, -0.052854, -0.059019, 0.072551, 0.071881, 0.011737, -0.071267, 0.031118, -0.035593, 0.066449, -0.009375, -0.003082, 0.007989, 0.028160, 