// Overflow-Protected 2-Layer CNN Model with Labels
#ifndef MY_MODEL_H
#define MY_MODEL_H

// Class Labels
const char* myClassLabels[3] = {
  "BACKGROUND",
  "HAND",
  "FACE"
};

#define USE_GRAYSCALE_MODE

const float myConv1_w[] = { -0.214192, -0.132866, -0.000008, -0.328426, 0.217240, 0.074255, 0.000014, -0.087789, 0.141639, 0.281158, -0.000053, -0.465257, 0.198097, -0.038636, 0.000009, -0.183705, 0.198149, -0.470148, -0.000235, -0.202932, 0.387242, -0.144751, -0.000148, 0.298324, 0.007136, 0.187276, -0.000013, 0.265540, 0.226536, 0.194669, -0.000008, 0.304725, 0.316805, 0.147303, -0.000010, 0.291901 };

const float myConv1_b[] = { -0.178595, -0.049713, -0.003336, 0.084800 };

const float myConv2_w[] = { 0.034032, -0.121502, 0.113133, 0.090115, -0.000094, 0.225020, 0.337489, 0.094686, 0.243554, 0.136640, 0.036004, 0.262879, 0.000055, 0.020380, -0.045946, 0.147282, 0.000008, 0.000002, -0.000002, -0.000038, 0.000032, -0.000019, -0.000012, -0.000022, 0.178486, 0.148479, 0.075056, -0.046298, -0.000044, -0.033514, -0.245915, -0.013657, 0.126795, -0.038732, 0.143675, -0.048072, 0.000081, 0.059656, -0.043791, 0.099532, -0.085301, 0.013146, 0.183741, 0.277312, 0.000022, 0.062978, 0.123093, 0.346335, -0.000003, -0.000027, -0.000027, -0.000029, 0.000015, 0.000060, -0.000018, -0.000016, -0.031588, 0.123429, -0.132285, 0.145886, -0.000021, -0.088886, 0.017791, 0.325900, 0.142746, -0.017834, 0.126492, 0.163017, -0.000589, -0.052775, -0.123355, 0.073598, -0.015834, 0.040510, 0.177438, 0.052636, -0.000108, 0.073108, 0.391286, 0.083244, 0.000096, 0.000068, 0.000057, -0.000064, -0.000002, -0.000014, -0.000006, -0.000003, 0.376508, 0.220311, 0.237900, 0.018303, 0.000013, -0.178526, 0.070865, 0.244118, -0.186952, -0.138850, 0.203823, -0.060228, -0.000166, 0.202442, -0.015544, 0.082812, 0.182035, 0.248400, 0.095604, 0.196290, 0.000041, 0.063268, -0.016100, 0.155543, 0.000019, 0.000014, -0.000022, 0.000091, -0.000005, 0.000077, -0.000034, -0.000002, -0.133340, 0.157239, -0.173654, -0.048984, 0.000011, -0.174806, -0.344154, -0.152638, -0.200385, 0.031651, -0.028079, 0.255409, 0.000817, 0.172095, -0.105010, 0.243001, 0.495027, 0.249073, 0.180456, 0.327657, -0.000000, -0.018401, -0.096953, 0.244665, 0.000012, 0.000009, 0.000097, 0.000122, 0.000011, 0.000005, 0.000010, 0.000009, 0.065273, 0.375689, -0.009429, 0.097507, -0.000122, -0.141421, 0.069091, -0.195967, -0.296434, -0.265356, 0.023454, -0.037562, 0.000268, 0.208297, -0.229311, 0.172664, 0.107851, -0.003872, 0.108761, 0.112719, 0.000089, 0.065910, 0.188344, 0.132141, -0.000013, 0.000020, 0.000007, 0.000009, 0.000013, 0.000011, -0.000042, 0.000025, -0.015977, 0.583666, 0.001586, 0.018759, -0.000005, -0.215380, 0.326337, 0.025023, 0.026913, 0.217980, 0.149623, 0.297239, -0.000133, 0.134984, -0.063556, -0.157388, 0.167405, 0.005279, 0.043672, 0.213784, 0.000079, 0.046984, -0.021769, 0.002563, -0.000018, 0.000081, 0.000003, 0.000016, -0.000008, -0.000051, 0.000029, 0.000001, 0.540462, 0.685726, -0.302155, 0.153107, -0.000087, -0.153295, 0.322005, -0.313484, 0.343484, 0.285010, 0.127359, 0.167563, 0.000053, 0.183062, 0.217843, 0.076529, 0.439593, 0.136445, 0.072045, 0.113673, 0.000070, 0.141845, 0.321491, -0.033265, 0.000038, 0.000087, -0.000015, 0.000008, 0.000004, -0.000011, 0.000002, -0.000104, 0.812050, 0.629686, -0.204658, -0.013405, 0.000066, -0.333357, 0.562622, -0.149962, -0.049418, -0.186552, 0.116866, -0.068455, -0.000195, 0.288314, -0.082101, 0.183587, 0.170639, 0.141010, 0.082555, 0.314155, -0.000021, 0.003052, 0.226109, 0.281306, -0.000088, 0.000002, 0.000015, 0.000002, -0.000006, -0.000066, -0.000005, 0.000051, 0.532965, 0.772177, 0.003915, 0.045389, -0.000071, -0.139104, 0.796183, -0.214912 };

const float myConv2_b[] = { 0.004634, 0.088809, -0.115302, -0.092199, -0.010616, -0.114314, 0.038877, -0.134939 };

const float myOutput_w[] = { -0.194210, 0.120942, 0.015708, -0.091478, 0.099606, 0.034865, 0.062783, -0.074741, -0.023772, 0.035852, -0.050523, 0.032421, -0.005067, -0.016625, 0.002464, 0.033424, -0.008248, -0.050852, -0.104769, 0.113522, -0.049505, 0.074937, -0.018273, -0.054852, -0.118775, 0.113500, 0.056013, -0.112232, 0.104595, 0.035246, 0.031192, -0.048069, 0.002667, 0.023764, -0.047528, -0.052077, 0.010344, -0.006157, 0.001570, 0.041032, -0.089534, 0.003989, -0.122349, 0.072803, 0.069410, 0.136710, -0.099177, -0.066714, -0.088122, 0.007151, 0.107923, -0.108138, 0.065445, 0.073986, 0.028274, -0.018236, -0.030924, 0.044817, -0.051813, 0.008956, 0.000149, 0.004490, 0.031301, 0.066080, -0.032081, -0.037342, -0.105577, 0.056730, 0.049681, 0.077334, -0.110519, -0.061957, -0.162043, 0.169738, -0.016941, -0.183721, 0.152659, 0.061245, 0.067849, -0.063029, -0.026877, 0.025202, -0.041145, -0.055677, -0.014136, 0.015998, 0.008100, 0.082833, -0.091818, -0.011686, -0.066091, 0.109156, -0.109747, 0.072813, -0.072926, -0.064732, -0.009384, 0.047940, -0.035788, -0.096469, 0.115356, -0.044366, 0.058514, -0.040638, -0.040392, 0.057395, -0.065217, -0.039068, 0.001360, 0.011748, 0.034319, 0.051847, -0.046974, 0.002577, 0.043460, 0.065189, -0.143953, 0.140467, -0.119536, -0.007566, -0.023880, 0.041418, -0.041326, 0.026039, -0.014486, -0.040332, 0.072146, -0.070772, 0.016547, 0.062795, -0.083225, -0.041578, -0.014854, -0.025411, -0.002259, 0.061147, -0.060922, -0.001148, 0.202095, -0.151964, -0.114676, 0.095552, -0.068446, -0.017633, -0.004522, -0.005186, -0.035229, 0.066796, 0.005103, -0.119978, 0.037894, -0.074447, -0.009408, 0.105885, -0.064575, -0.041695, 0.019469, 0.012068, 0.022194, 0.025141, -0.049783, 0.000058, 0.093807, 0.026501, -0.140207, 0.089823, -0.079731, 0.014621, 0.099219, -0.057287, -0.104263, 0.054431, -0.032977, -0.143123, 0.053532, -0.062088, 0.001575, 0.101365, -0.085931, -0.012970, -0.016167, 0.015693, 0.017584, 0.009397, -0.030993, -0.008070, -0.093814, 0.177363, -0.175108, 0.026154, -0.000443, 0.000377, 0.071877, -0.015645, -0.102130, 0.081576, -0.014910, -0.170746, 0.087462, -0.069778, -0.020027, 0.069682, -0.066039, -0.007535, 0.009681, -0.004332, -0.032111, 0.057359, -0.052557, 0.010996, 0.086464, 0.001153, -0.173954, 0.016974, -0.063443, 0.011558, 0.000698, 0.055673, -0.110787, 0.002360, 0.057933, -0.103942, 0.033149, -0.064365, 0.024187, 0.022236, -0.057531, 0.029266, 0.001241, -0.025183, 0.032960, -0.005821, 0.028692, -0.014855, 0.162924, -0.081384, -0.103782, 0.010553, -0.010349, 0.046601, -0.083856, 0.118626, -0.078877, 0.004794, 0.039528, -0.141562, 0.022712, 0.003164, -0.011437, 0.028115, -0.017310, 0.036420, 0.025204, 0.011334, 0.019821, -0.010926, -0.019762, 0.001993, 0.120718, -0.041007, -0.101595, 0.031318, -0.033576, -0.007048, 0.057351, -0.034301, -0.053519, 0.066583, 0.035375, -0.172851, 0.030176, 0.008093, -0.008308, -0.016800, 0.012972, -0.001057, -0.003148, -0.006800, -0.010281, 0.032817, -0.029097, -0.000253, 0.147895, -0.104781, -0.142619, 0.028769, 0.004543, 0.032650, -0.014524, 0.039949, -0.074463, 0.096127, 0.023147, -0.192802, -0.008698, 0.016000, -0.008529, -0.002958, 0.005678, 0.012319, -0.012193, 0.027750, -0.029817, -0.026643, 0.016691, 0.019523, 0.110278, -0.025105, -0.146913, -0.017269, -0.013229, -0.002904, 0.023334, 0.050199, -0.074826, -0.009682, 0.094107, -0.158184, 0.015392, 0.002550, -0.019505, 0.026841, -0.011767, -0.005380, -0.010800, -0.006831, -0.010051, -0.015086, -0.024484, -0.005635, -0.095819, 0.116320, -0.049506, 0.056467, -0.040417, 0.018329, 0.095221, -0.064827, -0.086427, 0.016853, 0.052194, -0.188095, 0.061898, -0.010409, -0.048995, 0.004821, -0.062168, 0.026627, -0.003553, 0.005099, 0.023755, 0.018135, -0.021043, -0.013732, -0.149234, 0.188087, -0.077613, 0.069780, -0.041165, -0.069783, -0.105334, 0.158173, -0.128533, -0.084631, 0.140519, -0.250419, 0.026848, -0.027109, -0.020853, 0.061585, -0.045699, 0.019185, 0.011147, 0.000574, 0.022809, 0.039226, -0.046122, -0.000244, -0.092285, 0.135566, -0.088696, 0.019529, -0.048195, 0.017041, -0.063659, 0.156456, -0.161693, 0.037140, 0.067268, -0.296594, 0.036854, -0.026550, -0.019494, 0.027707, -0.017408, -0.011408, 0.017988, 0.005803, 0.001410, 0.022083, -0.029823, 0.028812, 0.204304, -0.112566, -0.165365, 0.049930, -0.050223, -0.018316, 0.036644, -0.032342, -0.044853, 0.134484, -0.063343, -0.160633, -0.001161, 0.007098, -0.009791, 0.040060, -0.016153, 0.017202, -0.030317, -0.005353, -0.017965, -0.010912, -0.017134, 0.011957, 0.085013, -0.113078, -0.033097, 0.001732, -0.025537, 0.025426, 0.191386, -0.161507, -0.067309, 0.148785, -0.087565, -0.153369, -0.003918, 0.016509, -0.000796, -0.005050, 0.009816, -0.011482, -0.011997, 0.012050, 0.013219, -0.008853, 0.014962, 0.007938, 0.077579, -0.187980, 0.032230, -0.014899, 0.004038, -0.008954, 0.121021, -0.129167, -0.033415, 0.214523, -0.167227, -0.106139, -0.016873, 0.001942, 0.009035, 0.015304, 0.016070, -0.039562, 0.014851, 0.014556, -0.004013, -0.018168, 0.033496, 0.013262, 0.154589, -0.201269, 0.045085, 0.042122, -0.014933, -0.017893, 0.155643, -0.218067, 0.054197, 0.227044, -0.220128, 0.002012, -0.009632, 0.028694, -0.000333, -0.016203, 0.016219, -0.012798, 0.021752, 0.007235, -0.007742, -0.018128, 0.006734, -0.000128, 0.105491, -0.160777, 0.136392, 0.011855, -0.024787, 0.011916, 0.094476, -0.124347, 0.046248, 0.156512, -0.164985, -0.010074, 0.004134, 0.012181, 0.001272, -0.012845, -0.020851, 0.025441, 0.019926, 0.010318, -0.010812, -0.030078, 0.034000, -0.014925, -0.044551, 0.009025, 0.068412, -0.032729, 0.013676, 0.030433, -0.002852, -0.033967, 0.055939, 0.093529, -0.147308, 0.043229, -0.022829, 0.015540, 0.042846, -0.025232, -0.056306, 0.032371, 0.027176, 0.008116, -0.011563, -0.021616, 0.045134, 0.017582, -0.093600, 0.118936, -0.025426, -0.030448, 0.012063, 0.041636, 0.174203, -0.134023, -0.073939, 0.133927, -0.115545, -0.020212, -0.007154, 0.015555, -0.014778, -0.001691, -0.004024, 0.038697, 0.009917, 0.024968, -0.015223, 0.000042, -0.013242, -0.010207, 0.064024, -0.103539, 0.053113, 0.028770, -0.005836, -0.000959, 0.107914, -0.176673, 0.054303, 0.115382, -0.137289, 0.095830, -0.034180, -0.012493, 0.007024, 0.000331, -0.007132, -0.016546, -0.014659, -0.013900, 0.004448, -0.036206, -0.003970, 0.034956, 0.109613, -0.193926, 0.152177, -0.011070, 0.028034, -0.018897, 0.051468, -0.218442, 0.174043, 0.101255, -0.140112, 0.134503, 0.007140, 0.009637, -0.005572, -0.031073, 0.019835, -0.021767, 0.012355, 0.022834, -0.006458, -0.017082, 0.025456, -0.010561, 0.101453, -0.221344, 0.179158, 0.031619, 0.008528, -0.055937, 0.136141, -0.167750, -0.006586, 0.081128, -0.129783, 0.126252, 0.020065, 0.014035, -0.078395, 0.022180, 0.020406, -0.024363, -0.015638, 0.005418, 0.009037, -0.004715, 0.045087, -0.035576, 0.177961, -0.236463, 0.066154, 0.014894, 0.089424, -0.081905, 0.106644, -0.151085, 0.157951, 0.073741, -0.143597, 0.189980, -0.028422, 0.039115, -0.039585, 0.020199, -0.011558, -0.071728, 0.017062, -0.001458, -0.004619, -0.010551, 0.082120, -0.058986, 0.071949, -0.125335, 0.101850, -0.021374, 0.026265, -0.047240, 0.122180, -0.279890, 0.199567, 0.028721, -0.121708, 0.220007, 0.019503, 0.024211, -0.008197, 0.006057, -0.029646, -0.034945, -0.014027, -0.002066, 0.021120, -0.003258, 0.033283, -0.071088, -0.063925, -0.097224, 0.183438, 0.045502, 0.021903, -0.071724, -0.093179, 0.015260, 0.111394, -0.081264, 0.063111, 0.019945, 0.074061, -0.039705, 0.013662, 0.003441, -0.029967, 0.025627, 0.015225, -0.021959, -0.007779, 0.056362, -0.019571, -0.028386, -0.097614, 0.143528, -0.073837, 0.037553, -0.041440, 0.033910, -0.087177, 0.018918, 0.100047, -0.125903, 0.086028, 0.078063, 0.028987, 0.007738, 0.002979, 0.030026, -0.031312, -0.013761, -0.014276, 0.017050, 0.009185, 0.042577, -0.044027, -0.007159, -0.045156, 0.078928, -0.020239, 0.047615, -0.101447, 0.046412, -0.191227, 0.216287, -0.030044, -0.174562, 0.152976, 0.068897, 0.019227, -0.002080, -0.007743, 0.022658, 0.022268, -0.019481, -0.015706, 0.020516, -0.019858, 0.024256, -0.024608, -0.003237, -0.115208, 0.085103, 0.008831, 0.045551, -0.091093, -0.042834, -0.114862, 0.095388, -0.029611, -0.190368, 0.177271, -0.005999, 0.051854, -0.087903, 0.032829, 0.037030, -0.036820, -0.023647, 0.009053, 0.002649, 0.019601, 0.049762, -0.064271, 0.020296, 0.004269, 0.053029, -0.072290, 0.069314, -0.044881, -0.071747, -0.007915, 0.017116, -0.060245, -0.074245, 0.136920, -0.072342, 0.064159, -0.051560, -0.012175, 0.065719, -0.066560, -0.036506, 0.009771, -0.030713, 0.003535, 0.051668, -0.101167, 0.006251, 0.064773, 0.042942, -0.217329, 0.100686, -0.089009, -0.031586, 0.120903, -0.058640, -0.126742, 0.077874, 0.018192, -0.127176, 0.054064, -0.033826, -0.020905, 0.081705, -0.058843, -0.067286, -0.005681, -0.004046, -0.004936, 0.056787, -0.081329, -0.003318, 0.228878, -0.144595, -0.199956, 0.095567, -0.079994, -0.024555, 0.205226, -0.074942, -0.146222, 0.117281, -0.026274, -0.187677, 0.062656, -0.066411, -0.004062, 0.089315, -0.082667, -0.035207, 0.019768, -0.005528, 0.009644, 0.067884, -0.041260, 0.007192, 0.244790, -0.190019, -0.121886, 0.068036, -0.097100, -0.009420, 0.153975, -0.098139, -0.101916, 0.140295, -0.095432, -0.162059, 0.063024, -0.049066, -0.010977, 0.060629, -0.093407, -0.000313, -0.008358, -0.000016, 0.021832, 0.049954, -0.027047, -0.004098, 0.213823, -0.094720, -0.215130, 0.069106, -0.030172, -0.023380, 0.193122, -0.130903, -0.182352, 0.124394, -0.087695, -0.119957, 0.009247, -0.019356, 0.007391, 0.055343, -0.100126, 0.039423, 0.004424, 0.022502, -0.015783, 0.054229, -0.087948, 0.024061, 0.188035, -0.079914, -0.206769, 0.057888, -0.016872, -0.019874, 0.223976, -0.133539, -0.176842, 0.148343, -0.041040, -0.190530, 0.026667, -0.014291, 0.030434, 0.031880, -0.032006, -0.037211, 0.006014, -0.006591, 0.023843, 0.005906, -0.046253, 0.020990, 0.232934, -0.139931, -0.137645, 0.027352, -0.026075, -0.003762, 0.149934, -0.097873, -0.115488, 0.083829, 0.016708, -0.164015, 0.006778, -0.054296, 0.030822, 0.063547, -0.040517, -0.015251, -0.003242, 0.006232, -0.004118, -0.010361, -0.038531, -0.024845, 0.206117, -0.102488, -0.111262, -0.021419, 0.004693, 0.007156, 0.119211, -0.089273, -0.064479, 0.101992, -0.028028, -0.168466, -0.019325, 0.005905, 0.003568, -0.004218, -0.009373, 0.007804, 0.011895, -0.017239, -0.012517, -0.014039, -0.022443, 0.022090, 0.125115, -0.043142, -0.196307, -0.039653, 0.026480, 0.014812, 0.082734, -0.045631, -0.093154, 0.068458, 0.025260, -0.191933, -0.010581, 0.018424, 0.025489, -0.026717, 0.018917, 0.037987, -0.008378, -0.025664, -0.013968, 0.003222, -0.013469, 0.018822, 0.062066, 0.038020, -0.166787, -0.004729, 0.005572, 0.025832, -0.037625, 0.047388, -0.053203, -0.026973, 0.101651, -0.236242, 0.027055, -0.045630, 0.021213, 0.029633, -0.063388, 0.012691, -0.002128, 0.015165, 0.016910, 0.032183, -0.008365, 0.039400, -0.085855, 0.158460, -0.092995, 0.018660, -0.062405, 0.014933, 0.163968, -0.115186, -0.085878, -0.005420, 0.125195, -0.225482, 0.033685, -0.029728, -0.003920, 0.037248, -0.015743, 0.013736, 0.017101, 0.009936, 0.007408, -0.001292, -0.030695, 0.044848, -0.230597, 0.254926, -0.091357, 0.068752, -0.056164, -0.007681, -0.104136, 0.145088, -0.091102, -0.167671, 0.226301, -0.212719, 0.003219, -0.032091, 0.031216, 0.002765, 0.001933, -0.017101, 0.001627, 0.014058, -0.002909, 0.036905, -0.053879, 0.024708, -0.151343, 0.204314, -0.090072, 0.034229, -0.033007, -0.050164, -0.127826, 0.281576, -0.236671, -0.156287, 0.275927, -0.299068, 0.047982, -0.020878, -0.027332, 0.032678, 0.007614, -0.021113, -0.005810, 0.000541, 0.000196, 0.015749, -0.018298, -0.019864, 0.168411, -0.064872, -0.144327, 0.012093, -0.057027, 0.026968, -0.067585, 0.106783, -0.090952, 0.101236, 0.066709, -0.263657, -0.008191, -0.044024, 0.005904, 0.010746, -0.045381, 0.012814, -0.028340, -0.028241, 0.000423, 0.002518, 0.002297, -0.006409, 0.110114, -0.103894, -0.101509, 0.036071, -0.029692, 0.007044, 0.030856, -0.021615, -0.082823, 0.090282, -0.038637, -0.095200, 0.010898, -0.026819, 0.018475, 0.041791, -0.009877, 0.017521, -0.008262, 0.000985, 0.006715, -0.010890, -0.022458, -0.041190, 0.103946, -0.139579, 0.026466, -0.009437, 0.005295, -0.025604, 0.097619, -0.145831, -0.008990, 0.127159, -0.074633, -0.048752, 0.021820, 0.024930, 0.005963, 0.019894, 0.008287, -0.038691, -0.000085, 0.003267, 0.009176, -0.010065, 0.024048, -0.055785, 0.083683, -0.126315, 0.066386, 0.020863, 0.021695, -0.049838, 0.163375, -0.193665, 0.074299, 0.188892, -0.168030, -0.015578, -0.008859, 0.015954, -0.019694, 0.032460, -0.014813, -0.023099, 0.011004, -0.002591, 0.001259, -0.040825, 0.017944, 0.000199, 0.124150, -0.137742, 0.103541, -0.022212, 0.036181, -0.021133, 0.112382, -0.191908, 0.119194, 0.158991, -0.199304, -0.025049, -0.009019, 0.005217, -0.017708, 0.003393, -0.019846, 0.049407, 0.027537, -0.007922, -0.015988, 0.000356, 0.028045, 0.015236, 0.135428, -0.119584, -0.013488, -0.040915, -0.002039, -0.004958, 0.195472, -0.186705, -0.054145, 0.211680, -0.139198, -0.158267, 0.025425, -0.007758, -0.027173, -0.012912, 0.026815, -0.005629, 0.017028, -0.007700, 0.015419, -0.014621, 0.010648, -0.024346, 0.212652, -0.102973, -0.152518, -0.025801, -0.007545, 0.025491, 0.179089, -0.178732, -0.093799, 0.201692, -0.106023, -0.204737, -0.018413, -0.003140, -0.018111, -0.006248, 0.042466, -0.053505, -0.011595, -0.000164, -0.027328, 0.008375, -0.019256, 0.019966, 0.101795, -0.124460, 0.024778, -0.002807, -0.031075, -0.044661, 0.224586, -0.227822, -0.041642, 0.188884, -0.203065, 0.016868, -0.014350, 0.023680, -0.028946, 0.013176, -0.012467, -0.011449, 0.015518, -0.001783, -0.018151, -0.025881, -0.006656, -0.009407, 0.068327, -0.108705, 0.071958, 0.027706, 0.024670, -0.044469, 0.168922, -0.170775, -0.063367, 0.181331, -0.254178, 0.046489, 0.001115, 0.028130, -0.002850, 0.013949, -0.005271, 0.011436, -0.005986, -0.015058, 0.005637, -0.024378, 0.035384, -0.009578, 0.274725, -0.258786, -0.045891, -0.040651, 0.048749, -0.037358, 0.213137, -0.271768, 0.070578, 0.225846, -0.234075, 0.039720, -0.037352, 0.038722, 0.008577, 0.021578, 0.026588, -0.049350, 0.014377, 0.005223, 0.021202, -0.018286, 0.057615, -0.035220, 0.225802, -0.227033, 0.021131, 0.017449, 0.023468, -0.062776, 0.256032, -0.326925, 0.057778, 0.224313, -0.223047, 0.040006, -0.009486, 0.021543, -0.012614, -0.010962, 0.035309, -0.053902, -0.010943, 0.012893, -0.010121, -0.025727, 0.032002, -0.035169, 0.138173, -0.198358, 0.113069, 0.008575, 0.016098, -0.047620, 0.092103, -0.200556, 0.166750, 0.018675, -0.114412, 0.196417, -0.026705, 0.015269, -0.045205, -0.010294, -0.000919, -0.010176, -0.005684, 0.004673, 0.007055, -0.023848, 0.034820, 0.012288, -0.021363, -0.074068, 0.149020, -0.022557, 0.008682, -0.033933, -0.041897, -0.027740, 0.049046, -0.040966, 0.021402, 0.066738, -0.006956, -0.011815, -0.022008, 0.013045, -0.047753, 0.007890, -0.015496, 0.024583, 0.025248, 0.017319, -0.037383, -0.006658, 0.019184, -0.078019, 0.089578, -0.024118, -0.020335, 0.034250, -0.012212, -0.092174, 0.150218, -0.076413, 0.065653, -0.020856, 0.011115, -0.016868, -0.008100, 0.007613, -0.028397, 0.017415, -0.034165, 0.009927, -0.015992, -0.000187, -0.019894, -0.006674, -0.030368, 0.089001, -0.080124, 0.011207, -0.084943, 0.021551, -0.109987, 0.046763, 0.039260, -0.127548, 0.118586, 0.041593, 0.052411, -0.057155, -0.008387, 0.022711, -0.057650, 0.022408, -0.018580, -0.000727, -0.000346, 0.040340, -0.062908, -0.003531, -0.014745, 0.018996, 0.006796, 0.067559, -0.035577, -0.034100, -0.086038, 0.062960, -0.042696, -0.081569, 0.095337, -0.018507, 0.040207, -0.014991, 0.028562, 0.034760, -0.040317, 0.011303, 0.008227, -0.034439, 0.022726, 0.023137, -0.059521, 0.018490, 0.063577, -0.045740, -0.019812, 0.045360, -0.055091, -0.018192, -0.032642, 0.062059, -0.079702, -0.026229, 0.106611, -0.060769, 0.075164, -0.052752, -0.030629, 0.033509, -0.065416, 0.007813, 0.017246, 0.010746, 0.002291, 0.058852, -0.065077, 0.005035, -0.021912, 0.102996, -0.149269, 0.097046, -0.130848, -0.022929, 0.055228, -0.000602, -0.093203, -0.007579, 0.038459, -0.073002, 0.040566, -0.063860, -0.000653, 0.023189, -0.058693, 0.006516, 0.003703, 0.021834, 0.012882, 0.072160, -0.112277, 0.028881, 0.144194, -0.077543, -0.149739, 0.105891, -0.105170, -0.036146, -0.031801, 0.095158, -0.111612, 0.083673, -0.059000, -0.163179, 0.077285, -0.048653, -0.044236, 0.107027, -0.097823, -0.006212, 0.030067, 0.014859, -0.017066, 0.039909, -0.053625, 0.003880, 0.129650, -0.083079, -0.127209, 0.069110, -0.116500, -0.021005, 0.084497, -0.028884, -0.119250, 0.088314, -0.056919, -0.130061, 0.048400, -0.054707, -0.016917, 0.100578, -0.072039, -0.051448, 0.000319, -0.027397, -0.032583, 0.033303, -0.085557, -0.000114, 0.181792, -0.106057, -0.178495, 0.021334, -0.069325, 0.002978, 0.132702, -0.114082, -0.101819, 0.138840, -0.065205, -0.153462, 0.042763, -0.045685, 0.006443, 0.055871, -0.057058, -0.013571, -0.007751, -0.002958, -0.020262, 0.043829, -0.050162, 0.047197, 0.164695, -0.081680, -0.132359, 0.057425, -0.035230, -0.026592, 0.072908, -0.007689, -0.137546, 0.137247, -0.086435, -0.168709, 0.013219, -0.016864, 0.014424, 0.051610, -0.046125, 0.001253, 0.008970, 0.012114, -0.019743, -0.006047, -0.036574, -0.016705, 0.136795, -0.074771, -0.132294, 0.031594, -0.009141, 0.034453, 0.094516, -0.029317, -0.141835, 0.143916, -0.061804, -0.203681, 0.019001, -0.011857, -0.005012, 0.039017, -0.012410, -0.034076, 0.023135, -0.001677, 0.002323, 0.002507, -0.003411, -0.015750, 0.178483, -0.108832, -0.179630, 0.014720, -0.003315, -0.029237, 0.117216, -0.019293, -0.164164, 0.168430, -0.068583, -0.223512, -0.016546, 0.001743, 0.027142, 0.029648, -0.063178, 0.015928, 0.012545, -0.028351, -0.012969, -0.033407, -0.027006, -0.011187, 0.160470, -0.079651, -0.201607, 0.019694, -0.033845, -0.015039, 0.187287, -0.126818, -0.117463, 0.184391, -0.093319, -0.188186, 0.004414, -0.021610, 0.018769, -0.019023, -0.024021, -0.001232, -0.028567, -0.000891, -0.017548, -0.000714, -0.002554, 0.002213, 0.186584, -0.109251, -0.128181, -0.045947, 0.015122, 0.065494, 0.050885, -0.034292, -0.028426, -0.002228, 0.081729, -0.177947, 0.018987, -0.029237, -0.008379, 0.001811, -0.032039, 0.026106, -0.029993, -0.005397, 0.011192, -0.015205, -0.019188, -0.002189, 0.049663, -0.036563, -0.103646, 0.007096, -0.036980, 0.017445, 0.247985, -0.314274, -0.021864, 0.176958, -0.070710, -0.171818, 0.023098, -0.025160, 0.002042, 0.042172, -0.065000, 0.034136, 0.010588, 0.004644, 0.007428, 0.013143, -0.017957, -0.011562, 0.085880, -0.030578, -0.029656, 0.025982, -0.057066, -0.020136, 0.089266, -0.048775, -0.047992, -0.028581, 0.097953, -0.139621, 0.015042, -0.011001, 0.011411, 0.045857, -0.000804, -0.014064, -0.028406, -0.017451, -0.010747, 0.061715, -0.068005, -0.025967, -0.131730, 0.151224, 0.005090, 0.002639, -0.037156, -0.005150, -0.096218, 0.064967, 0.002748, -0.168997, 0.212458, -0.174676, 0.011047, -0.043369, 0.010459, -0.016569, 0.011556, -0.011150, -0.005118, 0.026980, 0.010047, 0.025092, -0.072023, 0.012262, 0.090563, -0.092687, -0.053721, 0.013695, 0.033833, -0.045787, -0.095910, 0.068177, 0.066412, -0.030325, 0.044424, -0.079277, 0.011208, -0.025656, 0.021866, 0.031754, -0.012842, -0.019480, -0.014695, 0.013486, -0.016180, 0.003974, -0.032907, 0.018404, 0.009259, -0.076760, 0.118428, 0.014515, -0.005761, -0.001558, -0.021899, -0.019010, 0.108832, 0.015655, 0.013688, 0.006246, 0.009312, -0.016659, 0.007491, 0.015438, -0.010587, -0.011105, -0.019315, 0.007867, -0.009391, 0.017478, 0.031521, -0.030941, 0.042023, -0.120737, 0.135303, 0.012103, 0.002632, -0.021432, -0.003769, -0.114327, 0.232125, 0.017930, -0.073858, 0.165117, -0.000648, -0.008739, -0.003323, 0.017078, -0.007816, -0.009558, -0.001834, -0.030844, 0.013235, 0.027768, -0.028636, 0.013321, -0.035569, -0.058235, 0.182314, 0.008819, 0.003994, -0.015486, -0.072517, -0.032278, 0.175364, 0.049076, -0.085707, 0.119596, -0.020379, 0.013845, 0.012148, -0.025128, 0.025831, 0.012088, -0.000764, -0.010309, -0.016222, 0.004268, -0.031104, 0.000464, -0.112612, 0.069041, 0.130600, 0.003930, 0.008625, -0.035774, -0.032607, -0.074185, 0.206381, 0.078420, -0.135791, 0.120605, -0.028060, 0.002305, -0.030552, -0.006156, -0.009898, 0.013661, -0.000845, 0.020382, 0.010659, -0.005535, 0.056617, -0.006597, 0.050505, -0.009863, 0.022827, 0.002121, 0.003882, -0.026807, -0.024180, -0.072392, 0.152290, 0.130841, -0.147345, 0.008160, -0.011495, -0.020601, -0.010432, -0.020025, -0.022466, 0.014194, -0.001884, 0.007404, 0.007629, -0.021574, -0.020578, -0.024792, 0.013232, -0.038044, 0.062409, -0.014450, -0.018997, -0.003842, 0.046700, -0.083754, 0.019991, 0.157104, -0.113434, -0.078422, -0.030533, 0.005677, 0.006851, 0.001445, -0.014510, -0.021869, -0.032056, -0.021709, -0.001334, 0.023151, 0.007363, -0.003274, 0.002344, -0.016961, 0.025017, -0.034747, 0.002493, 0.044919, 0.085291, -0.103785, -0.045877, 0.218640, -0.187776, -0.088182, -0.023078, 0.003409, -0.000734, 0.020219, -0.028379, -0.017813, -0.003083, -0.013498, -0.019298, -0.008642, 0.015894, -0.004153, 0.160531, -0.143650, -0.034042, -0.007844, 0.012434, 0.012427, 0.121592, -0.145552, -0.025396, 0.202351, -0.212349, -0.065054, -0.013871, 0.015664, -0.007325, -0.004903, 0.008290, -0.026248, -0.028612, 0.008688, -0.008186, -0.025786, 0.062000, 0.027914, 0.243379, -0.276774, -0.027844, -0.006364, 0.033393, -0.011513, 0.130037, -0.159244, 0.036044, 0.219406, -0.236028, -0.018214, -0.008283, 0.004974, -0.019147, -0.012026, 0.011798, -0.043780, -0.011659, -0.015528, 0.002612, -0.011677, 0.071668, -0.007682, 0.166578, -0.263797, 0.112087, -0.044160, 0.024108, -0.007139, 0.207682, -0.208384, -0.016315, 0.213536, -0.198857, 0.011238, -0.014511, -0.000706, -0.016012, 0.023758, 0.005473, -0.029561, 0.008690, -0.000451, 0.009104, -0.029197, 0.034508, -0.040883, -0.087112, 0.010848, 0.118456, 0.016337, 0.000461, -0.045433, -0.002431, -0.040113, 0.043768, 0.067131, -0.043896, 0.040188, -0.014236, 0.017262, -0.002161, 0.008840, -0.022011, -0.033469, 0.010247, -0.001114, -0.000787, 0.003915, -0.012171, -0.043770, -0.144836, 0.125014, 0.052869, -0.050207, -0.004734, 0.031261, 0.064932, -0.186859, 0.154413, 0.009813, -0.058487, 0.046398, -0.011752, 0.012498, 0.006583, 0.002861, -0.050581, 0.034250, -0.004223, -0.015826, -0.020699, 0.015793, -0.007975, 0.005710, -0.022439, -0.070521, 0.135249, -0.002466, -0.015245, 0.006666, -0.075620, 0.055546, 0.058014, -0.034687, 0.057719, 0.059957, 0.012448, 0.000110, 0.027545, -0.005187, -0.011044, 0.002123, -0.011757, 0.025371, -0.007974, -0.002451, 0.004299, -0.004003, -0.153239, 0.099539, 0.077612, -0.008639, -0.022470, 0.005625, -0.112599, 0.106021, 0.025757, -0.064680, 0.086569, -0.009367, 0.010081, -0.012210, 0.054067, 0.008030, -0.068823, 0.020569, 0.000209, -0.012484, 0.019246, 0.030244, -0.029540, 0.011142, -0.071404, 0.149495, -0.147434, 0.039826, -0.028886, 0.003775, -0.035324, 0.085241, -0.033813, -0.062976, 0.114634, -0.109146, 0.066205, -0.089645, -0.010280, 0.031119, -0.024674, -0.010289, -0.014194, 0.005265, -0.015357, 0.060431, -0.033066, 0.005358, -0.003664, 0.056779, -0.070477, 0.065833, -0.072888, -0.029506, -0.012330, 0.094500, -0.152032, -0.006198, 0.078694, -0.052751, 0.078593, -0.067972, -0.031229, 0.032947, -0.051986, -0.034754, 0.001207, -0.007575, 0.010080, 0.057780, -0.069681, -0.016080, -0.019413, 0.044171, -0.083246, 0.097641, -0.109251, -0.030087, 0.000003, 0.058159, -0.069718, -0.000480, -0.001649, -0.058306, 0.092373, -0.052233, 0.007218, 0.031251, -0.057215, -0.002480, 0.010995, 0.006998, -0.014996, 0.045535, -0.089430, 0.002707, -0.094678, 0.119894, -0.101502, 0.095820, -0.080491, -0.016805, -0.034712, 0.088273, -0.106877, -0.052129, 0.105556, -0.138166, 0.056669, -0.090405, 0.026216, 0.070548, -0.080127, 0.009405, 0.020080, -0.006037, -0.009812, 0.015909, -0.058605, -0.013133, 0.079810, -0.035971, -0.143056, 0.076693, -0.080408, -0.004972, -0.002814, 0.034553, -0.038283, 0.022979, 0.038628, -0.165133, 0.024826, -0.067014, 0.030272, 0.108918, -0.061262, -0.035896, -0.020407, 0.015171, 0.005849, 0.041385, -0.043545, -0.006718, 0.201857, -0.134648, -0.102423, 0.134273, -0.115963, -0.024790, 0.032871, 0.020251, -0.101683, 0.002803, 0.046068, -0.123165, 0.064863, -0.045322, -0.017088, 0.099129, -0.047189, -0.040857, 0.025483, -0.004199, -0.020852, 0.030445, -0.040375, -0.011625, 0.082621, 0.020670, -0.101442, 0.059813, -0.020048, -0.003008, -0.029959, 0.092769, -0.102349, 0.045439, 0.032120, -0.127692, 0.020041, -0.061007, -0.017197, 0.031378, -0.017040, 0.004244, 0.015069, 0.009406, -0.024072, 0.016938, -0.045608, 0.036107, -0.063260, 0.141349, -0.116009, -0.001312, -0.022299, -0.018584, -0.034673, 0.125441, -0.154855, 0.000217, 0.090312, -0.235598, 0.015176, -0.043161, -0.027747, 0.004243, -0.036670, -0.016953, -0.012668, -0.002407, 0.019577, 0.038488, -0.010766, 0.009730, 0.040887, 0.095051, -0.187320, 0.007976, -0.057101, 0.011962, -0.066275, 0.158777, -0.139937, 0.019144, 0.073165, -0.248400, 0.007513, -0.008030, 0.003888, -0.006314, -0.024729, -0.010680, 0.007271, 0.021936, 0.000470, 0.009773, -0.017754, 0.006971, -0.063165, 0.157025, -0.149066, -0.006838, -0.030660, 0.030422, -0.157304, 0.220726, -0.175917, -0.013233, 0.115262, -0.241775, 0.017588, -0.039113, 0.007551, 0.018895, -0.021933, 0.009661, 0.010987, -0.003094, -0.001719, -0.003689, -0.022209, 0.046945, -0.060514, 0.130399, -0.155090, 0.000986, -0.018332, 0.014785, -0.178714, 0.288998, -0.176890, -0.131362, 0.262012, -0.205546, 0.003873, -0.021544, -0.002716, -0.009618, 0.014893, -0.019723, -0.017931, 0.013104, -0.003537, -0.011892, -0.010731, 0.001250, -0.136719, 0.223579, -0.187429, 0.040810, -0.056458, 0.017641, -0.127631, 0.199760, -0.212691, -0.072155, 0.172130, -0.228683, -0.029539, -0.032516, 0.030838, 0.022187, -0.003903, -0.004900, 0.019102, 0.009941, 0.019335, -0.009563, -0.006369, -0.009140, -0.204959, 0.312826, -0.180301, 0.029826, -0.067772, 0.007626, -0.239408, 0.290096, -0.200305, -0.190402, 0.254121, -0.272895, 0.033150, -0.038379, 0.020675, 0.001645, -0.022077, 0.007744, 0.019168, -0.003476, -0.009106, 0.041495, -0.039063, -0.003866, -0.245670, 0.336075, -0.151419, 0.043113, -0.014300, 0.002312, -0.071747, 0.155510, -0.116811, -0.157665, 0.240007, -0.219926, 0.003620, -0.041502, 0.015163, 0.002971, -0.011360, 0.009769, -0.000874, -0.008145, -0.003179, 0.038689, -0.036783, 0.019687, -0.062024, 0.101589, -0.027463, 0.031648, -0.012603, -0.029086, -0.021789, 0.051414, -0.091797, -0.062423, 0.121562, -0.116235, 0.015156, -0.019892, 0.016284, -0.007877, 0.004424, 0.031553, 0.006489, 0.005532, 0.005271, 0.031895, -0.035575, -0.026927, 0.043724, -0.044313, -0.032319, 0.002877, -0.012498, -0.000924, 0.004262, 0.012017, -0.016768, -0.024301, 0.046697, -0.033426, 0.021869, -0.038961, -0.002580, 0.047050, -0.011100, 0.029513, -0.005545, -0.024912, -0.011218, 0.018193, -0.030388, 0.017296, -0.003552, -0.038631, 0.027885, -0.003583, -0.027636, 0.025215, 0.072698, -0.066420, 0.022381, 0.072744, -0.123147, 0.060757, -0.008584, 0.005266, 0.033298, 0.034030, -0.020590, 0.029940, -0.000372, 0.012676, 0.004579, -0.005229, -0.020123, -0.007955, -0.030513, 0.011867, 0.094896, 0.013553, 0.001123, 0.002791, 0.010449, -0.015936, 0.090065, 0.066880, -0.066987, 0.070997, -0.011322, -0.009942, 0.013381, -0.001275, 0.027096, 0.017970, -0.002053, 0.028094, -0.002428, 0.016238, -0.026793, -0.027088, -0.080493, 0.086988, 0.046278, 0.007701, -0.058385, -0.015487, 0.032571, -0.019445, -0.005594, -0.052956, 0.018692, 0.110089, -0.008224, -0.010981, -0.030029, 0.052612, -0.018739, -0.008259, -0.004490, 0.031680, -0.015091, -0.016884, 0.006669, -0.011664, 0.066820, -0.054213, -0.003418, -0.004437, 0.006754, 0.003661, -0.098145, 0.070827, 0.046779, 0.035393, -0.053027, 0.064323, -0.011611, -0.010759, -0.009197, -0.011627, 0.003930, -0.021985, 0.002000, -0.002653, 0.008651, 0.012948, 0.016554, -0.007347, -0.036545, 0.051994, -0.055943, 0.014364, -0.001184, 0.008893, 0.051571, -0.041068, 0.019486, 0.074733, -0.039961, -0.021030, -0.011293, 0.022918, -0.010985, -0.046628, -0.003202, 0.024081, -0.010731, -0.002635, 0.006190, -0.005605, 0.006823, -0.011966, -0.028124, 0.043519, -0.022572, 0.005650, -0.018019, -0.007050, -0.031238, -0.034397, 0.119970, 0.100769, -0.095347, 0.039733, 0.010207, 0.013023, 0.026984, 0.020694, -0.015696, -0.013377, 0.002314, -0.012029, 0.014612, 0.002166, 0.011386, -0.035059, -0.003102, -0.078739, 0.159697, 0.003182, 0.033256, -0.027718, 0.060737, -0.130454, 0.125314, 0.124161, -0.153207, 0.028361, -0.005888, 0.024352, 0.011341, 0.014560, 0.007260, -0.014122, -0.007659, -0.016538, 0.031854, 0.009380, 0.006386, 0.007645, 0.064679, -0.182420, 0.128665, -0.004121, 0.004011, -0.002000, 0.052191, -0.142233, 0.105457, 0.151918, -0.154104, 0.019075, -0.028391, 0.008101, 0.008457, 0.019985, 0.030783, -0.029575, 0.021634, -0.013456, -0.026009, -0.014904, 0.009304, -0.009070, 0.031686, -0.125707, 0.124689, 0.010280, 0.005379, -0.014389, -0.054213, -0.026709, 0.130955, 0.049230, -0.081215, 0.055937, 0.020449, 0.043066, -0.055880, 0.003669, -0.015173, -0.037744, 0.022722, -0.012558, -0.013586, 0.012232, 0.012150, -0.035429, -0.122506, 0.115475, 0.122060, 0.021471, -0.021380, -0.100905, 0.042210, -0.081428, 0.124663, 0.057696, -0.080040, 0.047960, -0.018927, 0.020680, -0.021099, 0.013497, -0.002233, -0.005545, -0.007240, -0.029169, -0.010472, -0.010340, 0.008937, 0.001524, -0.074849, 0.027887, 0.074462, 0.033072, -0.037258, -0.008725, -0.036996, -0.051532, 0.163147, -0.034418, -0.010082, 0.044692, 0.006538, -0.023225, 0.047224, 0.012166, -0.082387, 0.055669, 0.026858, 0.000464, -0.005338, 0.011232, -0.035682, 0.040855, -0.024899, 0.016270, 0.019174, 0.050876, -0.020782, -0.003289, -0.101389, -0.033594, 0.160683, -0.101428, 0.060278, 0.102057, 0.010093, -0.020610, 0.020533, -0.006404, -0.066495, 0.072902, -0.022143, -0.010243, 0.001500, 0.005102, -0.037771, -0.016507, -0.137676, 0.115545, 0.038721, -0.010883, -0.067224, 0.037804, -0.133632, 0.067601, 0.109126, -0.097992, 0.084651, 0.008424, 0.008451, -0.035268, -0.002085, 0.049011, -0.057038, 0.040993, -0.014026, 0.016608, 0.016209, 0.050207, -0.064077, 0.012487, -0.175829, 0.228079, -0.082595, 0.039692, -0.074201, 0.020079, -0.136388, 0.165505, 0.001381, -0.138571, 0.158519, -0.081438, 0.026958, -0.022073, -0.014196, -0.018595, 0.011802, -0.004355, 0.014589, -0.006187, 0.021125, 0.016858, -0.044002, 0.030502, -0.176756, 0.234830, -0.118647, 0.009076, -0.053489, 0.036528, -0.171928, 0.222336, -0.080883, -0.149315, 0.187187, -0.131333, 0.038528, -0.055857, -0.033159, 0.053506, -0.066004, 0.003595, 0.005005, -0.016238, 0.009851, 0.064730, -0.049506, 0.013654, -0.230891, 0.219721, -0.015418, 0.088911, -0.082164, 0.002935, -0.167753, 0.236536, -0.118176, -0.159711, 0.185366, -0.111590, 0.043728, -0.060387, -0.015598, -0.044633, -0.004493, 0.028859, 0.025372, -0.021878, -0.012039, 0.024125, -0.061315, 0.047696, -0.178747, 0.250379, -0.069134, 0.068162, -0.085335, 0.015124, -0.071954, 0.084105, -0.103486, -0.134256, 0.222574, -0.106305, 0.049038, -0.054850, -0.013274, 0.053680, -0.022280, -0.000940, 0.002503, 0.006363, -0.016305, 0.033186, -0.050494, -0.012324, 0.108093, -0.026196, -0.161377, 0.082243, -0.082640, 0.003642, 0.087276, -0.018508, -0.141029, -0.056122, 0.079622, -0.116558, 0.049258, -0.051812, -0.022932, 0.020863, -0.054628, 0.043872, 0.006689, -0.020809, 0.015904, 0.010863, -0.027002, 0.012656, 0.191874, -0.094166, -0.144301, 0.052705, -0.051957, 0.022036, 0.082673, 0.008878, -0.110582, 0.042219, 0.040037, -0.176907, 0.040195, -0.033880, 0.008346, 0.048570, -0.067588, -0.022794, 0.025120, 0.002774, -0.012511, 0.028612, -0.053104, 0.011281, 0.046314, 0.017460, -0.143782, 0.031833, -0.044679, -0.015280, 0.060722, 0.013467, -0.088058, 0.025919, 0.086507, -0.144847, 0.020920, -0.049806, 0.001807, 0.022080, -0.020692, -0.015246, 0.017401, 0.013414, -0.014625, 0.000906, -0.056815, 0.008252, 0.100838, -0.081061, -0.083476, 0.022971, -0.036439, 0.022099, 0.090340, -0.054758, -0.109987, 0.056547, 0.057313, -0.151609, 0.031860, -0.040503, 0.015767, 0.037398, -0.002511, -0.037342, 0.003354, 0.003501, -0.003081, 0.011368, -0.019101, 0.010549, 0.168523, -0.082513, -0.140894, 0.048274, -0.038722, 0.021897, 0.104528, -0.050221, -0.066281, 0.077681, 0.018791, -0.174898, 0.012650, 0.010338, 0.016052, -0.000185, -0.022814, 0.045411, 0.024318, 0.007963, 0.010542, -0.051994, -0.042022, 0.071407, 0.155649, -0.083345, -0.113270, 0.029673, -0.058771, 0.009821, 0.056505, 0.017083, -0.093504, -0.005308, 0.070674, -0.202820, 0.022066, -0.014542, 0.041904, -0.012059, -0.027573, 0.031667, 0.001568, 0.010928, -0.004646, -0.007551, -0.016051, 0.047656, 0.085311, -0.017935, -0.113402, -0.024970, -0.016029, 0.019231, 0.014053, 0.026307, -0.071939, -0.129073, 0.217169, -0.224782, 0.027314, -0.029609, -0.001015, 0.015754, -0.029222, 0.032942, -0.003239, 0.016313, -0.018362, 0.010861, -0.025203, 0.032011, -0.028899, 0.089825, -0.213207, -0.016860, -0.014821, -0.017083, 0.080683, -0.015426, -0.158826, -0.040791, 0.168194, -0.279904, -0.007651, -0.035708, 0.026713, 0.009815, -0.002564, 0.008538, -0.017577, -0.002441, -0.009910, 0.005223, -0.030260, 0.007215, -0.084822, 0.200262, -0.177632, 0.012591, -0.030401, 0.025716, -0.092687, 0.206271, -0.134216, -0.142444, 0.215071, -0.294723, -0.024914, -0.025779, 0.042131, 0.007931, -0.012694, -0.004461, -0.011645, -0.000891, -0.009666, 0.041045, -0.020528, -0.009700, -0.112993, 0.149010, -0.040622, -0.001724, -0.006074, 0.027247, -0.191967, 0.218407, -0.086363, -0.163838, 0.241561, -0.235759, 0.041330, -0.034075, -0.023572, 0.007542, 0.006083, -0.011802, 0.001159, 0.027761, -0.023424, 0.005806, -0.057673, 0.040306, -0.140996, 0.125875, -0.003672, 0.008913, -0.000910, -0.014970, -0.173912, 0.172768, 0.036913, -0.168613, 0.232069, -0.177143, 0.023403, 0.016246, 0.001948, -0.011054, 0.006482, -0.013011, -0.008429, 0.007673, -0.001941, 0.006055, -0.044136, -0.028356, 0.010098, 0.025565, -0.011742, 0.014401, -0.055887, 0.040922, -0.050183, 0.057310, -0.059918, -0.070663, 0.126999, -0.140241, -0.003656, -0.056497, 0.042457, 0.001316, -0.021337, 0.048480, -0.024594, 0.008503, 0.006167, 0.027980, -0.016716, 0.025684, 0.016550, 0.076980, -0.131209, 0.046123, -0.049287, -0.000514, 0.001935, -0.015804, -0.016708, 0.047878, 0.027092, -0.095280, 0.022002, -0.033896, -0.031879, -0.009981, 0.000828, 0.021309, -0.021710, -0.004241, -0.003201, 0.000473, -0.042527, 0.005743, 0.018651, -0.006316, -0.039774, 0.004353, -0.048008, -0.011494, 0.099931, -0.087834, -0.056972, -0.043836, 0.041412, -0.053422, 0.027861, -0.050514, 0.018973, 0.018054, 0.005816, 0.006340, -0.009207, -0.010043, -0.019001, 0.002405, -0.019957, 0.022081, 0.161937, -0.088088, -0.053036, -0.015410, 0.028713, 0.000011, 0.042187, -0.045107, -0.019190, 0.069161, -0.057671, -0.010613, -0.012418, -0.002291, 0.012210, 0.014305, -0.020427, 0.018384, -0.000716, -0.001001, -0.009510, 0.003551, -0.004402, 0.020427, 0.075518, -0.061220, -0.093671, -0.005077, -0.002875, -0.023304, -0.028823, 0.025171, 0.034891, 0.046539, -0.072836, 0.038939, -0.023140, -0.006873, 0.019446, -0.008660, 0.004889, -0.026498, -0.024711, 0.015376, -0.011917, -0.007219, 0.007249, -0.005774, -0.035472, 0.002612, 0.027728, 0.007007, 0.019217, -0.041304, 0.026878, -0.018823, -0.004647, 0.009595, -0.032826, -0.024419, -0.000432, -0.011693, -0.013246, 0.005021, 0.026837, -0.049577, -0.001708, -0.033166, 0.019361, -0.021534, 0.027102, -0.011045, -0.017389, -0.022680, 0.080524, -0.013986, 0.001285, 0.005629, 0.034509, -0.102778, 0.096082, 0.064399, -0.096537, 0.098081, -0.013986, 0.046638, 0.005781, -0.001453, 0.013391, 0.025552, -0.015069, 0.011634, 0.022319, -0.029326, 0.039693, -0.000458, 0.054493, -0.113295, 0.107254, 0.003426, 0.010070, -0.004456, -0.063390, -0.010912, 0.113841, -0.018529, -0.059793, 0.126560, -0.003825, -0.004749, 0.012821, 0.024883, 0.007946, -0.016382, 0.008127, -0.009775, -0.028715, -0.002769, 0.037079, -0.004507, -0.061485, -0.044428, 0.170557, 0.005920, 0.011695, -0.058799, -0.105767, 0.101112, 0.093189, -0.040854, 0.020295, 0.119091, 0.025104, 0.015018, -0.010471, -0.019555, 0.028193, 0.001065, -0.021374, -0.011532, 0.000975, -0.010102, 0.033542, -0.047082, -0.198911, 0.145753, 0.065928, 0.034130, 0.011888, -0.058396, -0.190894, 0.125863, 0.129467, -0.088856, 0.043453, 0.074366, 0.000968, 0.029021, 0.025356, -0.027820, 0.006499, -0.033815, -0.000965, -0.009164, -0.006127, 0.003610, 0.022865, -0.013191, -0.193872, 0.144853, 0.148509, 0.014699, -0.014545, -0.004402, -0.073158, 0.066212, 0.046344, 0.017742, 0.015426, 0.053929, 0.010155, 0.052820, 0.000046, -0.045659, 0.052514, 0.006762, 0.000145, 0.015452, 0.007056, -0.006409, 0.018970, -0.019111, -0.038048, 0.025051, 0.086376, -0.016985, 0.047397, -0.038482, -0.051821, 0.024473, -0.014635, -0.091734, 0.057375, 0.031306, 0.038298, -0.063475, 0.006608, 0.052883, -0.082890, -0.011277, -0.013651, 0.026367, 0.013383, 0.015806, -0.023980, -0.002440, -0.122578, 0.098222, -0.026425, 0.022587, -0.066169, 0.038808, -0.042375, 0.013129, 0.074312, -0.045188, 0.027758, 0.046575, 0.025582, -0.025694, -0.006243, 0.001378, -0.066427, 0.091698, 0.005230, 0.020454, 0.004120, 0.001863, -0.024127, -0.019765, -0.076150, 0.094980, 0.001251, -0.053448, 0.022972, 0.034592, -0.052175, 0.004028, 0.060865, -0.115316, 0.146524, -0.000228, 0.011361, -0.048959, 0.007854, -0.038177, -0.010920, 0.048103, 0.013243, -0.019767, -0.018214, -0.004869, 0.015994, -0.015552, -0.036202, 0.019745, 0.041199, 0.037373, -0.032445, -0.003808, -0.050638, -0.078956, 0.133342, -0.083768, 0.108861, -0.023530, 0.051247, -0.051985, -0.018751, 0.006592, -0.031719, 0.033802, -0.015207, 0.026930, 0.010815, -0.022420, 0.004629, -0.000911, -0.105487, 0.095886, 0.037539, -0.016599, -0.011895, -0.020812, -0.123826, 0.103893, 0.049254, -0.127885, 0.192193, -0.059601, 0.002594, -0.002550, 0.002730, -0.025671, -0.004368, 0.024769, -0.003176, -0.016168, -0.008325, -0.011436, -0.008215, 0.011590, -0.007408, 0.130767, -0.205288, 0.038119, -0.009935, -0.023528, -0.049840, 0.104718, -0.163108, -0.158009, 0.229201, -0.155599, 0.019033, -0.063049, -0.004699, -0.004497, 0.028282, -0.049145, 0.016526, -0.010250, 0.023841, 0.003467, -0.034563, 0.030118, 0.103449, -0.044572, -0.146184, 0.034423, -0.004178, 0.001718, 0.093615, 0.029216, -0.123037, -0.070232, 0.112855, -0.164263, 0.029993, -0.046402, 0.011629, -0.004284, -0.002846, -0.008255, -0.008583, -0.002703, 0.012385, -0.004412, -0.053530, 0.008626, 0.214302, -0.146016, -0.111507, 0.094246, -0.076453, -0.000107, 0.164769, -0.088864, -0.088139, 0.077111, -0.028007, -0.107151, 0.012788, -0.030130, 0.024253, 0.024821, -0.047568, 0.010175, 0.012263, 0.018809, 0.028649, 0.022225, -0.083297, -0.006282, 0.237328, -0.156349, -0.104297, 0.053021, -0.029150, -0.024247, 0.108728, -0.081282, -0.053652, 0.119644, -0.039090, -0.181449, -0.016289, -0.015169, 0.034605, 0.035107, 0.001465, -0.000674, -0.017418, 0.005953, 0.001807, -0.003076, -0.027040, 0.014154, 0.152747, -0.116061, -0.103982, 0.045031, -0.038947, 0.003732, 0.090463, -0.048542, -0.127449, 0.109478, -0.040296, -0.169735, 0.006969, -0.017275, 0.004853, 0.028004, -0.014959, -0.017567, 0.005878, -0.020574, 0.003948, -0.016306, -0.043002, 0.026858, 0.192647, -0.166840, -0.104850, 0.066414, -0.072899, 0.010524, 0.102667, -0.048399, -0.135854, 0.168628, -0.112122, -0.172938, 0.002898, -0.035357, 0.002299, -0.001107, -0.038681, 0.026835, 0.004932, -0.014828, -0.000587, 0.032859, -0.031317, -0.004404, 0.171725, -0.139486, -0.140134, 0.006816, -0.033794, -0.011948, 0.153686, -0.065371, -0.120045, 0.175979, -0.153539, -0.140293, 0.010517, -0.006798, 0.036906, 0.024821, -0.040027, -0.003418, -0.009233, 0.002755, 0.034446, -0.021873, 0.003142, 0.015737, 0.151826, -0.131751, -0.066983, 0.012006, -0.030974, 0.039251, 0.108677, -0.096153, -0.044088, 0.102818, -0.038428, -0.202239, 0.006325, -0.046910, 0.033730, 0.018355, -0.025730, 0.031401, 0.006221, -0.015551, -0.011850, -0.034200, -0.037965, 0.003186, 0.043322, 0.013459, -0.105566, -0.036902, 0.022817, 0.019574, -0.108360, 0.111104, -0.056735, -0.053656, 0.132941, -0.187549, -0.005883, -0.039683, 0.052002, 0.019042, -0.057326, 0.058840, 0.017108, 0.010948, 0.022169, 0.007483, -0.034187, 0.008786, -0.094603, 0.144473, -0.068459, -0.000594, -0.019288, 0.043344, 0.027245, 0.017271, -0.066034, -0.080161, 0.135585, -0.158485, 0.003549, 0.006144, -0.018453, -0.022277, -0.027938, -0.023269, -0.006403, 0.014784, 0.013533, -0.007529, -0.016315, 0.015071, -0.151985, 0.176327, -0.043093, -0.030326, -0.020900, -0.008101, 0.037236, 0.042055, -0.114872, -0.033624, 0.096493, -0.172441, 0.013495, -0.031159, 0.010035, -0.003372, 0.037250, 0.003932, -0.018663, -0.022957, -0.011866, -0.002258, 0.012283, 0.036658, -0.060373, 0.013617, -0.000386, 0.004083, -0.001393, -0.001607, -0.097784, 0.080977, -0.043200, -0.085440, 0.181371, -0.216415, 0.060168, -0.030727, -0.019752, 0.002870, -0.022874, -0.011809, 0.010653, 0.010894, 0.005220, 0.010773, -0.011321, 0.024586, 0.022175, 0.023520, -0.009654, 0.012351, -0.000814, 0.035793, 0.056498, -0.039396, -0.019682, -0.050933, 0.124844, -0.094700, -0.014080, -0.006402, 0.044082, 0.032026, 0.007628, -0.046436, -0.003359, 0.007951, 0.014326, 0.006295, 0.012587, -0.006973, 0.037644, -0.029471, -0.062186, 0.020091, -0.006953, 0.012264, -0.054378, 0.077152, -0.082059, -0.109318, 0.137830, -0.142581, 0.001910, -0.017570, -0.007936, 0.010475, 0.001584, 0.007092, -0.016371, 0.014512, 0.003571, 0.021971, -0.011444, 0.014973, -0.103378, 0.119907, -0.130974, -0.001804, -0.023120, 0.020663, -0.101692, 0.120785, -0.047635, -0.026064, 0.117446, -0.186010, 0.044863, -0.018991, -0.012554, 0.001849, -0.046190, -0.005636, -0.015663, 0.018265, 0.001176, 0.008315, -0.044193, 0.019646, 0.078908, -0.028881, -0.049222, 0.015802, -0.033828, 0.019150, 0.145612, -0.126131, -0.096809, 0.085049, 0.003491, -0.135377, 0.025573, -0.059702, 0.046384, 0.005681, -0.010786, -0.013070, -0.019407, -0.011607, -0.017047, -0.026153, -0.020996, 0.032584, 0.113058, -0.062867, -0.083982, 0.014080, 0.017310, 0.040227, 0.089891, -0.064659, -0.036423, 0.139696, -0.061419, -0.150970, -0.025341, -0.042610, 0.006118, 0.044406, -0.008253, -0.040704, 0.011801, -0.020352, -0.021672, -0.013440, 0.004758, 0.005536, 0.069979, -0.051085, -0.072714, -0.050283, 0.033985, -0.001840, 0.112537, -0.148462, 0.022887, 0.106207, -0.056921, -0.109342, -0.011621, 0.028145, 0.033359, -0.002823, 0.002519, 0.033791, 0.019118, -0.012819, -0.022904, 0.024928, -0.046158, 0.007818, 0.068808, -0.098593, 0.032377, -0.043066, 0.038403, 0.009756, 0.219590, -0.218627, -0.015834, 0.181466, -0.200430, -0.069815, -0.022380, 0.024791, -0.000606, 0.004949, -0.000957, -0.003354, 0.009035, 0.012221, -0.007382, -0.015744, -0.022247, 0.004957, 0.221209, -0.259619, 0.064446, -0.035749, 0.022489, -0.003418, 0.338581, -0.312148, 0.013633, 0.210251, -0.213792, 0.015002, -0.002302, 0.005839, 0.005103, 0.005116, -0.026349, -0.021314, 0.021533, 0.021055, -0.021267, -0.041189, 0.024112, -0.000865, 0.311189, -0.365320, 0.036223, -0.021287, -0.004064, -0.028549, 0.275448, -0.301379, 0.046100, 0.246592, -0.270107, 0.094670, -0.001495, 0.006787, -0.036598, 0.023779, -0.085214, 0.000486, 0.006100, 0.021577, 0.001472, -0.040880, 0.015498, -0.012946, 0.133817, -0.188158, 0.058886, -0.020550, 0.030853, -0.015145, 0.203884, -0.191585, 0.039800, 0.148621, -0.166854, 0.043273, -0.040618, 0.006614, -0.029900, 0.058328, -0.066966, -0.032107, 0.003052, 0.008518, -0.019102, -0.001298, 0.021521, 0.008328, -0.016758, -0.040044, 0.077667, 0.008137, 0.035993, -0.074490, 0.010345, -0.037810, 0.071035, 0.003085, -0.013098, 0.103600, -0.058936, 0.055928, 0.015093, -0.019687, 0.019139, 0.008766, 0.000515, -0.001778, -0.005181, 0.021496, 0.024018, -0.049960, -0.090845, 0.069656, 0.088558, -0.013282, 0.052822, -0.040320, -0.083861, 0.056177, 0.139345, -0.047380, 0.007433, 0.100742, -0.010653, 0.042264, -0.025740, -0.027353, 0.012977, -0.008564, 0.008293, 0.016783, -0.015382, -0.031505, 0.045158, -0.035668, -0.024982, 0.038573, 0.073604, -0.015760, 0.020967, -0.013660, 0.030809, -0.096709, 0.023771, 0.069257, 0.005420, -0.077408, 0.017527, -0.026469, -0.015911, 0.028345, -0.056839, 0.054583, 0.012979, -0.013281, 0.026230, -0.000988, -0.030032, -0.011199, 0.082745, -0.049681, -0.016801, -0.017430, -0.057490, 0.030446, 0.112287, -0.169573, 0.039958, 0.023391, 0.036073, -0.021108, -0.015372, -0.020353, -0.000398, 0.002229, -0.014289, 0.009359, 0.009358, 0.017472, -0.003064, -0.024883, -0.006626, 0.021225, 0.130349, -0.162456, 0.037415, -0.012421, -0.025723, 0.055252, 0.136805, -0.119868, -0.020509, 0.084936, -0.083829, -0.084116, -0.030253, -0.002980, 0.017757, -0.016726, -0.016052, 0.005930, 0.006833, -0.012347, 0.023364, -0.025296, 0.006779, 0.030096, 0.235508, -0.232311, 0.005824, -0.025705, 0.038123, 0.019197, 0.073657, -0.099491, 0.041298, 0.021438, -0.053330, 0.027361, -0.020103, 0.037583, -0.005905, -0.049647, 0.003453, 0.023182, 0.009281, 0.013211, -0.007829, -0.030027, 0.037342, 0.008488, 0.149822, -0.116972, 0.013757, -0.032114, 0.037649, 0.001937, 0.035673, -0.059446, 0.120055, -0.042471, 0.015891, 0.025992, -0.072529, 0.030110, 0.031478, -0.010825, 0.026183, 0.018577, 0.001689, -0.001439, -0.017706, -0.019738, 0.025139, -0.016612, 0.054900, -0.043641, -0.006016, -0.056903, 0.045207, 0.023979, -0.106458, 0.060252, 0.077629, -0.072819, 0.090709, 0.011448, -0.023047, -0.000555, -0.028749, -0.040815, 0.020942, 0.010229, -0.017859, -0.019873, -0.000450, -0.016471, 0.032984, -0.015800, 0.152178, -0.087080, -0.072631, 0.003702, 0.023081, -0.000333, 0.026152, -0.009812, -0.054714, -0.026154, 0.068425, -0.105987, 0.005654, 0.026979, -0.033825, -0.010408, 0.013066, 0.006903, 0.023976, 0.012999, -0.002961, -0.005148, -0.006951, 0.007623, 0.119915, -0.114928, -0.046139, 0.030451, -0.022071, -0.016554, 0.066925, 0.015787, -0.134556, 0.124137, -0.014540, -0.214277, -0.012520, 0.006918, -0.003712, 0.056741, -0.025583, -0.018201, 0.020267, 0.013589, 0.004204, 0.033402, -0.029683, 0.032846, 0.006043, 0.068420, -0.144270, 0.071703, -0.051444, -0.024776, -0.157359, 0.237202, -0.202876, 0.001062, 0.090452, -0.168553, 0.002726, -0.050077, 0.017760, 0.011942, -0.009542, 0.001631, -0.008135, 0.007385, 0.010913, 0.028951, -0.041670, -0.002974, -0.085212, 0.121630, -0.155191, 0.048435, -0.048560, 0.036741, -0.131029, 0.194821, -0.191571, -0.032211, 0.104065, -0.175018, 0.023694, -0.013828, -0.028723, -0.010566, 0.007045, 0.006403, -0.017570, -0.016994, -0.000481, 0.016168, -0.046146, 0.021680, -0.142420, 0.207960, -0.159349, 0.051373, -0.044013, -0.060422, -0.187932, 0.220190, -0.171158, 0.023295, 0.073878, -0.194199, 0.042027, -0.048585, 0.027244, 0.015633, 0.003688, -0.009074, -0.004583, 0.032430, -0.019105, -0.011222, -0.020881, -0.004435, -0.125426, 0.179557, -0.187900, 0.039864, -0.043109, -0.032553, -0.200777, 0.240374, -0.119101, 0.055074, 0.025350, -0.185615, 0.017378, 0.010004, -0.025086, 0.055376, 0.016838, -0.037715, 0.009539, 0.006735, -0.010997, 0.004697, -0.001516, -0.027060, -0.083687, 0.135697, -0.107587, 0.003485, -0.011364, 0.033404, -0.207964, 0.218427, -0.101852, 0.027504, 0.081742, -0.208142, -0.021455, -0.028685, 0.035866, -0.024545, 0.039570, -0.014305, 0.001389, 0.005898, -0.006430, -0.023156, 0.002862, -0.009847, -0.023703, 0.067948, -0.135603, -0.000261, -0.025273, 0.037124, -0.067624, 0.116184, -0.213941, -0.052861, 0.120049, -0.211404, 0.024203, -0.015764, 0.007793, -0.020290, 0.003767, 0.008872, 0.009189, -0.010501, -0.007296, 0.003358, -0.038256, 0.012270, -0.068917, 0.142439, -0.193385, -0.013391, -0.020493, 0.060686, 0.108746, -0.031253, -0.115399, 0.058661, -0.007903, -0.175103, 0.016326, -0.005014, 0.003309, 0.003301, -0.003696, 0.000865, -0.003827, 0.008727, 0.000990, -0.013101, 0.004725, 0.001984, 0.051816, -0.023684, -0.042469, 0.007560, -0.074839, 0.023615, 0.155331, -0.098532, -0.128284, 0.169547, -0.125159, -0.112664, -0.006702, -0.042288, -0.017833, -0.010303, -0.000001, -0.020837, -0.001199, 0.019316, 0.006796, -0.019985, -0.029355, 0.007441, 0.264799, -0.227884, -0.069302, -0.015604, 0.035176, 0.001441, 0.074070, -0.066371, -0.023868, 0.126175, -0.128981, -0.107447, 0.003685, -0.015853, -0.026449, 0.002279, 0.023785, 0.001459, 0.012753, 0.033658, 0.008446, -0.002949, -0.020035, 0.012597, 0.114141, -0.123598, -0.052051, -0.002724, -0.009338, -0.012220, 0.329536, -0.332170, -0.069682, 0.205601, -0.171686, -0.047683, -0.017673, -0.013519, 0.033646, 0.059065, -0.050883, 0.006722, -0.005376, 0.022171, 0.010637, -0.015582, -0.007278, 0.013860, 0.213509, -0.179884, -0.054349, -0.023696, -0.018451, 0.047470, 0.135402, -0.077762, -0.035307, 0.021651, -0.005874, -0.075063, -0.028253, 0.004887, -0.002048, -0.006668, 0.007926, 0.039380, -0.005627, -0.006780, -0.014593, -0.014086, -0.018499, -0.011473, 0.000605, -0.005859, -0.053334, 0.010207, -0.002584, -0.004853, 0.129147, -0.124191, -0.014104, -0.022354, 0.054767, -0.078785, -0.015432, 0.001491, 0.032032, 0.024077, 0.001228, 0.007202, 0.005679, -0.022144, -0.001172, 0.018231, -0.052432, 0.004609, 0.206929, -0.109450, -0.139066, 0.044726, -0.038870, -0.012657, 0.120425, -0.091149, -0.057656, 0.102977, -0.083041, -0.154069, -0.012013, -0.019919, 0.006289, 0.024796, -0.009186, 0.011856, -0.012705, 0.000242, 0.022401, 0.012856, -0.012263, 0.009217, 0.174059, -0.141100, -0.004533, 0.020117, -0.020075, 0.036627, 0.217825, -0.178862, -0.006128, 0.273104, -0.195916, -0.125489, -0.006400, -0.035374, 0.013418, -0.012962, -0.019918, 0.019254, 0.015295, 0.014481, 0.027852, 0.000101, 0.015100, 0.005487, 0.211515, -0.209934, 0.015600, -0.016074, -0.018126, -0.004568, 0.187230, -0.172992, -0.039393, 0.222456, -0.177397, -0.096574, 0.025385, 0.006501, -0.017188, 0.030323, 0.013401, -0.017390, 0.006253, -0.003716, -0.017179, -0.007805, 0.004141, 0.017794, 0.212304, -0.198029, -0.078864, 0.010042, -0.025643, -0.001634, 0.245284, -0.207428, -0.035618, 0.248486, -0.210748, -0.081583, -0.001341, 0.008060, -0.002374, -0.021560, -0.015835, 0.040395, 0.016807, -0.020605, -0.000876, -0.021774, -0.020392, -0.001462, 0.160733, -0.123286, -0.031682, -0.032844, 0.034974, -0.023409, 0.131417, -0.134862, -0.039615, 0.241163, -0.246042, -0.076479, -0.000466, -0.026314, 0.012762, 0.007483, -0.005511, -0.015461, -0.017387, -0.005198, 0.015802, 0.020294, -0.031797, -0.012846, 0.166844, -0.143638, -0.034075, -0.008611, -0.018223, 0.009766, 0.085167, -0.063024, -0.062140, 0.214706, -0.191801, -0.018062, -0.015874, 0.017462, 0.010861, 0.074057, -0.073312, -0.029298, -0.001358, 0.004428, -0.001784, 0.010433, -0.008991, -0.003821, -0.013869, -0.012002, -0.027336, -0.027216, 0.056723, -0.028989, -0.052085, 0.024942, 0.008086, 0.102397, -0.092194, 0.008952, -0.029290, 0.033384, 0.012155, 0.046952, -0.030609, -0.026717, -0.024249, -0.003742, -0.013041, 0.006585, -0.000322, -0.015274, -0.163480, 0.164830, 0.050280, -0.063309, 0.038107, 0.004452, -0.127654, 0.075176, 0.061568, -0.053358, 0.060978, 0.042023, -0.024587, -0.001446, 0.043287, -0.063477, 0.024668, 0.012151, -0.019933, -0.010289, 0.021767, -0.006690, 0.011993, -0.015059, -0.158456, 0.075989, 0.116197, -0.034801, 0.032871, -0.021541, -0.038526, 0.030705, 0.100938, -0.084945, 0.063495, 0.087350, -0.045661, 0.035937, 0.008754, -0.032470, 0.011324, 0.014152, -0.019538, -0.025823, 0.026875, -0.035905, 0.054871, -0.000241, -0.039284, 0.026003, 0.077545, -0.017211, 0.054247, -0.039317, 0.066149, -0.056750, 0.005116, 0.011398, 0.015419, -0.046423, 0.045003, -0.031322, -0.038663, 0.051750, -0.007313, -0.053992, -0.014964, -0.012806, -0.007725, 0.031484, -0.043206, 0.001653, 0.249340, -0.179137, -0.134760, 0.041357, -0.046399, -0.052837, 0.182741, -0.202643, 0.032720, 0.146079, -0.142789, -0.004827, -0.007241, -0.017722, -0.004410, -0.013600, -0.033631, 0.047967, -0.011101, 0.003977, -0.016509, -0.025510, -0.006734, 0.041762, 0.293979, -0.303917, 0.020849, -0.050001, -0.031033, 0.062914, 0.196969, -0.262723, 0.100560, 0.222935, -0.214403, -0.007105, 0.007938, 0.017076, 0.011505, 0.002286, -0.041002, 0.007046, 0.009327, -0.001574, 0.009206, -0.045525, -0.017282, 0.048426, 0.253869, -0.330321, 0.045226, -0.014444, 0.018156, 0.015593, 0.254390, -0.239973, -0.015745, 0.230218, -0.180159, -0.032918, -0.032661, 0.038653, -0.003869, -0.022279, 0.014690, 0.021919, 0.002528, -0.002936, 0.009314, -0.027035, 0.042130, 0.025696, 0.371276, -0.401939, -0.022092, -0.112199, 0.064178, 0.002560, 0.129537, -0.148850, -0.043655, 0.217827, -0.165592, -0.095031, -0.063906, 0.054101, 0.001940, -0.037113, 0.044618, 0.005684, 0.025682, 0.009307, -0.002554, -0.044276, 0.043380, 0.017763, 0.208312, -0.204449, 0.007314, -0.072681, 0.102595, 0.002003, 0.050407, -0.132684, 0.088223, 0.060737, -0.069400, -0.032140, -0.020549, 0.021849, 0.000646, -0.040234, 0.025087, -0.007693, 0.007720, -0.006901, 0.019468, -0.010426, 0.018437, 0.009591, 0.066522, 0.014272, -0.144031, -0.039702, 0.048791, 0.014095, 0.098111, -0.140964, -0.010300, 0.068396, -0.085973, -0.035728, -0.011447, 0.008207, 0.006753, -0.016228, -0.021685, 0.010172, 0.012337, -0.019639, -0.026456, 0.008584, 0.010153, 0.010869, -0.013441, 0.071351, -0.107177, 0.022179, -0.002411, -0.024270, -0.011170, 0.009124, -0.068725, 0.011526, 0.046571, -0.182096, 0.000548, 0.009160, 0.011962, -0.018469, 0.037556, 0.022465, -0.004621, -0.019293, -0.033179, 0.012794, -0.011643, -0.008467, -0.073722, 0.160296, -0.153378, -0.003031, -0.004637, -0.019003, -0.106934, 0.166222, -0.148701, -0.070490, 0.165430, -0.231552, 0.017367, -0.011965, 0.014160, 0.017260, -0.004409, -0.014122, -0.003605, 0.002586, -0.003199, 0.020992, -0.016029, 0.021258, -0.124839, 0.223853, -0.257122, 0.030283, -0.049380, -0.001126, -0.161136, 0.252778, -0.245246, -0.145818, 0.267132, -0.280954, 0.029851, -0.025919, 0.003564, 0.018505, 0.024816, -0.056055, -0.003053, 0.010221, 0.011100, -0.014940, -0.011586, 0.002955, -0.135024, 0.227432, -0.200481, 0.021880, -0.025996, 0.032111, -0.099191, 0.166271, -0.233368, -0.217163, 0.290604, -0.279015, -0.012347, -0.013464, 0.020169, -0.008923, 0.017495, -0.007263, 0.004660, -0.013457, -0.012227, -0.000137, -0.007662, -0.009400, -0.124904, 0.183521, -0.197149, 0.003946, -0.049474, 0.069239, -0.107045, 0.174879, -0.157610, -0.111223, 0.183234, -0.233792, 0.002039, 0.005966, -0.014281, -0.019692, 0.060554, 0.016768, 0.015787, 0.017902, -0.013292, 0.001205, -0.016695, 0.029195, -0.016285, 0.078426, -0.170699, 0.004003, -0.031172, 0.050559, 0.000057, 0.060316, -0.121383, 0.025998, 0.050086, -0.213332, 0.003406, -0.034790, 0.000686, 0.002203, -0.000174, 0.023705, -0.017066, 0.024615, 0.011245, -0.041958, 0.026423, 0.024080, 0.172230, -0.104225, -0.150572, -0.012088, -0.014816, 0.037613, 0.039740, -0.019162, -0.063091, 0.111074, -0.071897, -0.180274, -0.010330, -0.003374, 0.000297, -0.011397, 0.008961, -0.007943, 0.030292, -0.013814, 0.002645, -0.035814, 0.036706, 0.020945, 0.110223, -0.054604, -0.097717, -0.005199, -0.053146, 0.022493, 0.098344, -0.053917, -0.045802, 0.096007, -0.086180, -0.021500, 0.019577, -0.041102, 0.049358, 0.036280, -0.005286, -0.002905, -0.002557, 0.012259, -0.017525, -0.015247, -0.011310, 0.020702, -0.095965, 0.057056, 0.059964, -0.003817, -0.004216, 0.031010, -0.047482, 0.056357, 0.013319, 0.002674, -0.000574, -0.037576, 0.023017, -0.029199, 0.016793, -0.034050, 0.010340, -0.023109, 0.024410, 0.013652, -0.007325, -0.018560, -0.014553, 0.033604, -0.017173, -0.007011, 0.075664, 0.025657, -0.025599, -0.012047, -0.165592, 0.153460, 0.005010, 0.019904, -0.027376, -0.038726, 0.000027, -0.004307, 0.013199, 0.011049, -0.040023, 0.018742, 0.013962, 0.005470, 0.004333, 0.034387, -0.025673, 0.049506, 0.021096, 0.015220, -0.103269, -0.010531, -0.020336, 0.036710, -0.031511, 0.029457, -0.046051, 0.121759, -0.097170, -0.098366, 0.022158, -0.013440, 0.031014, -0.002109, 0.006110, 0.007701, -0.010488, -0.032506, -0.017288, -0.026697, 0.029061, 0.039281, 0.120835, -0.091819, -0.135299, 0.004708, -0.038724, 0.010823, 0.078973, -0.005801, -0.140719, 0.096784, -0.063175, -0.103140, 0.006346, -0.061152, 0.011256, 0.001252, 0.013770, 0.039535, -0.004109, -0.019638, 0.010762, -0.026160, -0.011117, 0.008616, -0.011633, 0.068979, -0.140933, -0.001996, -0.002125, -0.001616, 0.174364, -0.106713, -0.189170, 0.124146, -0.049240, -0.207285, -0.000593, 0.008765, 0.012324, 0.024106, -0.012253, 0.010072, 0.027979, -0.023985, 0.006946, -0.008591, -0.017076, 0.016110, 0.104832, -0.001807, -0.159988, -0.009444, -0.019799, 0.033537, 0.027876, 0.031075, -0.119184, 0.112079, -0.016006, -0.226792, 0.008492, -0.033391, -0.001591, 0.036156, -0.044133, 0.017487, -0.007181, -0.006423, -0.016278, 0.026856, -0.025058, 0.002138, 0.063774, -0.027040, -0.115981, 0.007900, -0.027998, -0.005379, 0.139181, -0.052416, -0.125979, 0.215915, -0.145179, -0.223814, 0.016535, -0.054672, 0.037340, 0.032818, -0.062075, 0.023795, 0.002846, 0.032940, 0.004406, 0.028135, -0.056823, 0.021183, 0.142285, -0.088396, -0.061180, 0.039920, -0.038823, -0.015885, 0.020000, 0.056886, -0.138339, 0.140292, -0.077839, -0.178907, 0.000843, -0.020172, 0.026323, 0.048124, -0.064233, 0.011555, 0.011918, 0.019977, -0.005927, 0.018316, -0.021621, 0.006774, -0.024848, 0.032882, -0.062703, 0.056348, -0.066811, 0.000409, -0.039816, 0.120897, -0.160080, 0.077967, -0.030087, -0.187594, 0.045742, -0.049599, -0.011286, 0.007981, -0.016107, 0.023257, 0.000872, 0.025216, -0.032470, 0.025140, -0.024306, 0.032148, -0.055761, 0.091703, -0.061474, 0.018139, -0.083434, 0.066149, 0.075909, -0.128194, 0.028353, 0.086230, -0.057011, -0.090277, -0.006036, -0.048928, 0.056414, 0.047777, -0.038621, 0.023331, -0.015818, 0.024103, -0.000426, 0.018069, -0.013428, 0.023343, 0.001104, -0.013993, 0.008318, 0.021221, -0.095436, 0.065219, 0.021141, -0.005741, 0.013483, 0.109680, -0.082916, -0.004519, 0.006998, -0.008103, 0.018728, 0.040570, -0.041410, -0.010336, 0.016132, -0.019120, -0.029334, 0.018903, -0.040991, -0.015108, 0.027414, -0.001883, -0.063189, 0.044355, -0.097953, 0.000198, 0.094809, -0.109400, 0.102155, 0.072771, -0.115607, 0.049204, -0.020624, -0.038688, 0.003434, 0.000190, -0.046875, -0.001001, -0.012642, 0.033172, 0.018209, 0.011689, -0.000258, 0.001064, 0.057546, -0.147777, 0.164032, -0.012838, 0.014052, -0.025634, 0.103994, -0.174013, 0.099571, 0.056972, -0.094969, 0.103162, -0.000495, 0.048998, 0.005751, -0.022495, 0.011010, 0.032023, 0.011369, -0.003982, 0.014330, -0.033275, 0.025753, -0.015592, 0.082248, -0.153355, 0.106516, -0.059971, 0.129742, -0.010874, 0.092845, -0.204877, 0.146499, 0.124891, -0.163408, 0.097577, -0.090335, 0.074710, 0.027938, -0.054661, 0.029535, -0.006201, 0.007943, 0.026465, 0.027764, -0.046996, 0.063514, -0.018399, 0.132955, -0.174150, 0.088843, -0.081310, 0.102551, -0.044966, -0.044710, 0.094902, -0.062215, 0.012862, 0.039126, -0.069890, 0.015048, -0.013683, -0.003777, 0.074973, -0.034042, -0.002711, -0.014005, 0.006539, 0.000135, -0.015631, -0.031486, 0.010814, 0.256578, -0.137518, -0.123438, 0.048878, -0.061536, 0.030692, -0.113701, 0.161720, -0.067105, 0.106382, -0.034559, -0.125109, 0.001400, -0.002265, 0.031658, 0.029082, -0.037127, 0.018122, -0.018566, 0.008698, 0.011589, 0.006676, -0.011314, -0.006239, 0.079925, -0.052036, -0.080680, 0.039089, -0.045199, -0.002733, -0.146630, 0.091085, 0.050961, 0.037420, -0.010973, -0.023228, 0.017466, 0.001574, 0.015462, -0.041212, -0.033358, 0.050171, 0.016990, -0.008824, 0.015242, -0.026687, -0.017876, 0.010135, -0.015946, 0.009662, -0.061972, -0.015783, 0.036575, 0.052349, -0.031925, -0.028120, 0.026622, 0.047302, -0.060220, -0.019206, -0.064887, 0.020579, 0.020420, -0.054554, -0.000189, 0.062869, 0.020192, -0.029559, 0.002629, 0.000955, 0.006786, -0.000781, 0.044117, -0.034777, -0.055586, -0.010334, 0.004498, -0.001624, 0.030194, 0.007394, -0.036209, 0.115053, -0.079640, -0.043132, -0.024085, -0.016751, 0.008424, -0.005480, 0.027724, 0.033994, 0.012132, 0.024290, -0.030223, -0.040215, 0.034037, -0.000778, 0.095829, -0.061507, 0.014015, -0.090654, 0.032328, 0.040417, 0.058692, -0.083978, 0.048682, 0.163351, -0.159067, -0.050437, 0.006721, 0.024997, 0.014288, -0.022981, 0.033222, 0.012717, -0.000345, 0.025700, -0.004256, -0.043751, 0.021202, 0.016925, 0.034069, -0.104615, 0.064043, -0.032144, 0.092575, 0.003435, 0.197243, -0.238763, 0.001671, 0.181993, -0.173039, -0.076570, -0.016209, 0.018113, -0.000936, -0.029726, -0.010078, 0.002849, -0.002160, 0.007831, -0.015490, 0.002713, 0.003207, 0.001623, -0.022909, 0.090881, -0.074812, -0.013777, -0.009449, -0.008156, 0.054761, -0.039606, -0.046263, 0.074174, -0.069039, -0.035875, -0.016645, 0.037753, 0.003388, 0.013660, -0.033433, 0.025058, -0.005074, -0.021538, -0.012685, 0.019004, 0.005478, -0.040033, -0.000970, 0.090809, -0.135431, -0.001649, 0.014962, -0.059548, 0.068793, 0.015550, -0.120987, -0.021265, 0.078800, -0.209963, 0.017441, -0.013201, -0.024646, -0.025081, 0.029849, -0.012471, 0.006263, -0.019484, 0.000462, 0.031939, -0.042385, -0.023876, -0.019902, 0.103610, -0.211238, -0.016918, 0.005141, -0.018594, -0.007334, 0.057811, -0.137953, -0.099464, 0.225194, -0.279332, -0.010021, -0.027080, 0.001089, -0.021576, 0.085692, -0.060691, 0.019787, 0.014166, -0.011626, -0.021116, 0.042713, 0.019016, -0.037800, 0.128173, -0.199253, -0.029733, 0.002431, 0.022430, -0.016186, 0.098149, -0.131060, -0.093364, 0.170574, -0.250444, -0.009749, 0.013312, 0.009250, -0.000478, 0.035007, -0.045812, 0.022702, -0.002428, -0.027812, -0.005389, -0.002942, -0.002511, 0.010313, 0.002431, -0.126167, -0.039935, 0.011881, -0.008019, -0.155359, 0.191589, -0.167718, -0.136247, 0.212203, -0.209441, -0.038483, 0.018883, 0.033980, -0.020163, 0.053466, -0.004538, 0.007480, 0.004498, -0.023404, 0.011656, 0.027313, -0.009413, 0.016885, -0.009118, -0.090258, -0.007490, -0.025077, 0.069481, -0.210021, 0.254551, -0.111431, -0.057297, 0.094279, -0.115754, -0.004693, 0.025196, 0.003111, -0.014608, -0.006107, 0.000073, 0.012662, 0.008105, -0.008327, -0.000955, -0.015553, -0.014714, -0.037370, 0.010570, 0.008917, -0.016322, -0.014451, 0.055534, -0.091169, 0.084934, -0.038130, -0.028245, 0.014461, -0.057199, 0.017802, -0.008497, 0.002661, -0.006453, 0.011239, -0.017305, -0.008778, -0.013433, -0.025577, 0.000192, -0.017722, 0.011936, -0.023676, -0.033428, 0.048376, 0.030768, -0.033874, 0.000271, 0.025434, -0.018675, 0.019498, -0.008367, -0.040883, 0.014530, -0.013123, -0.030202, 0.006255, 0.015698, -0.010737, -0.020860, 0.019265, 0.010699, 0.006651, 0.035922, -0.009394, 0.021666, -0.166715, 0.164828, 0.052587, 0.057445, -0.078148, 0.027341, 0.035097, -0.070791, -0.008173, -0.014086, -0.019359, 0.054580, -0.009906, 0.011377, 0.013522, 0.030540, -0.007140, -0.012989, 0.004067, -0.016535, -0.013080, 0.007477, -0.049910, 0.016367, -0.085152, 0.109998, 0.009004, 0.034492, -0.052476, 0.010387, -0.057950, 0.103462, -0.116711, -0.016387, 0.079910, -0.044888, 0.005426, -0.041857, 0.029812, -0.003784, 0.006486, -0.003832, 0.000205, 0.017576, 0.020312, 0.012792, 0.004644, 0.013282, 0.112237, -0.059271, -0.182565, -0.017391, -0.043675, 0.078294, 0.031850, -0.004304, -0.107704, 0.077285, -0.043674, -0.122896, -0.005069, -0.009805, 0.033315, -0.002925, -0.014843, -0.010332, -0.006839, -0.033642, -0.003480, -0.026115, -0.052921, 0.011483, 0.122287, -0.043561, -0.208266, -0.000117, -0.032296, 0.033648, 0.002719, 0.033233, -0.070956, 0.047864, -0.010316, -0.153689, -0.020010, -0.007829, 0.024182, -0.043356, 0.011858, 0.039567, 0.034261, -0.023280, -0.023970, 0.002324, -0.049866, 0.015156, -0.002503, 0.031655, -0.067769, 0.015459, -0.032976, 0.042858, 0.066802, -0.087330, 0.041344, 0.070109, -0.080847, -0.045535, -0.003772, -0.014764, 0.008749, -0.000355, -0.023021, 0.029257, -0.030526, -0.010344, -0.014343, -0.011001, -0.053625, 0.009802, -0.032655, 0.077446, 0.012828, 0.038215, -0.029524, 0.035110, 0.060903, -0.002144, -0.044705, 0.051253, 0.009963, -0.138591, 0.005606, -0.037904, 0.024827, 0.027266, -0.089502, -0.016572, 0.012773, 0.000852, -0.024089, 0.004672, -0.043466, 0.051988, -0.063255, 0.081337, -0.057210, 0.037793, -0.032037, 0.020563, 0.096948, -0.088812, -0.061044, 0.092531, -0.018039, -0.150361, 0.085751, -0.061817, 0.010763, 0.059657, -0.089098, -0.004094, -0.017222, 0.026620, 0.001116, 0.006092, -0.024367, 0.030099, -0.032977, 0.057454, -0.024474, 0.066189, -0.086478, 0.008593, 0.031490, -0.017417, -0.064291, -0.014058, 0.078145, -0.118047, 0.025318, -0.068656, 0.014772, 0.087951, -0.098093, 0.003555, -0.006654, -0.024776, -0.025764, 0.032039, -0.042863, 0.008953, 0.075629, -0.080301, 0.059794, 0.032334, -0.050334, 0.000977, 0.051880, -0.076702, 0.018596, -0.002778, 0.043687, -0.159687, 0.032513, -0.074533, 0.028109, 0.014462, -0.019842, -0.010318, 0.021399, 0.010218, 0.000524, 0.028013, -0.075562, 0.009067, -0.006308, 0.075157, -0.040067, 0.057216, -0.111435, 0.022916, 0.053395, -0.074897, 0.051596, 0.029758, -0.062648, 0.023975, 0.013834, -0.020649, -0.004956, 0.026633, -0.068471, 0.011321, 0.017533, 0.001580, -0.000267, 0.008828, -0.042649, 0.005513, -0.093350, 0.092178, -0.026690, 0.090313, -0.093675, -0.000962, -0.150179, 0.172741, -0.059829, -0.075579, 0.074852, -0.040270, 0.012745, -0.050488, 0.016744, 0.019028, -0.009768, 0.003985, 0.018673, -0.016547, -0.013788, 0.015046, -0.034302, 0.017331, -0.106101, 0.127081, -0.047897, 0.023831, -0.059825, 0.017858, -0.177080, 0.165314, -0.016895, -0.057041, 0.065922, 0.005703, -0.000973, -0.003571, -0.002484, -0.027383, -0.002175, 0.023691, -0.007776, 0.022418, 0.013868, -0.021905, -0.024546, 0.003882, -0.017817, -0.030178, 0.060111, -0.007187, -0.010100, 0.011740, -0.108804, 0.055078, -0.010602, 0.021561, -0.006141, 0.021070, -0.017660, 0.037276, -0.017128, -0.018734, 0.019921, 0.001432, 0.029398, 0.005533, -0.021049, -0.009474, 0.007137, -0.023797, 0.067537, -0.045954, 0.019316, -0.076510, 0.040870, 0.021197, -0.013454, -0.007820, 0.081893, 0.070476, -0.064934, 0.066795, -0.020570, 0.055587, 0.007845, -0.069638, 0.059021, 0.017295, -0.011065, -0.005038, -0.010086, -0.058074, 0.031250, -0.004276, 0.124976, -0.132876, 0.058976, -0.069492, 0.096291, 0.017202, -0.063679, 0.064790, -0.049153, 0.012415, 0.126810, -0.180766, 0.030169, -0.020074, 0.009599, 0.008143, -0.037936, -0.029199, 0.022829, -0.011143, 0.008445, -0.016909, 0.036188, -0.035079, 0.094487, -0.038824, -0.077243, 0.043987, -0.053170, -0.007001, 0.005507, 0.047302, -0.050357, -0.041128, 0.108371, -0.113809, -0.007449, -0.040112, 0.036595, -0.012957, -0.020425, -0.027552, 0.000935, -0.008751, 0.022036, -0.027170, 0.003902, 0.028114, 0.033289, -0.033284, -0.010227, 0.001509, -0.056472, 0.000251, -0.006230, 0.025816, -0.021195, -0.075148, 0.112195, -0.113786, -0.003733, 0.001579, 0.000347, -0.063168, 0.031162, 0.022414, -0.010774, 0.015862, -0.018433, -0.025500, -0.011984, 0.013399, -0.035569, -0.015121, 0.070254, -0.014905, 0.001285, 0.007337, -0.106224, 0.024447, 0.132568, -0.079674, 0.050154, 0.012990, -0.047233, -0.003697, -0.024681, -0.052446, 0.019309, -0.009459, -0.000774, 0.001632, 0.009332, -0.034227, 0.013808, 0.029357, -0.026915, -0.028301, 0.100784, -0.033448, -0.017849, 0.023246, -0.127582, -0.069191, 0.210562, -0.060250, -0.055982, 0.118720, -0.013550, 0.001355, 0.003092, -0.057729, 0.005288, 0.028818, 0.006787, 0.019045, 0.019613, -0.022705, 0.035681, 0.032823, 0.002977, -0.107875, 0.192424, -0.012614, 0.000989, -0.002497, -0.182678, -0.039121, 0.197862, -0.017210, -0.067743, 0.111786, 0.003980, -0.000552, -0.030133, -0.013922, -0.017500, 0.009029, 0.013477, -0.004523, -0.018093, -0.007974, -0.028963, 0.016155, -0.126881, -0.015839, 0.160966, -0.043942, 0.026224, -0.000652, -0.082642, 0.006277, 0.119446, 0.045058, -0.068183, 0.001143, -0.020195, 0.006571, 0.003420, 0.005066, 0.019186, 0.027720, 0.005179, 0.013954, -0.004115, -0.009354, 0.041850, 0.029077, -0.135384, 0.072037, 0.068289, 0.003142, 0.045843, 0.002414, -0.001118, 0.010184, 0.006853, 0.031612, -0.000511, -0.066690, -0.009805, 0.021282, -0.022932, -0.005861, 0.002649, -0.000295, 0.018803, 0.009369, -0.007019, -0.041643, 0.037208, 0.013579, -0.142137, 0.163540, -0.035402, -0.010349, 0.054020, -0.052224, -0.048513, 0.049566, -0.010294, 0.052329, -0.010681, -0.035729, -0.021461, 0.044841, -0.011734, -0.032005, 0.049726, -0.006892, 0.017496, -0.019259, -0.004065, -0.017956, 0.033139, -0.005628, 0.119382, -0.053547, -0.083805, -0.012886, 0.033675, -0.038273, -0.059986, 0.093604, -0.099165, -0.026565, 0.099301, -0.182736, -0.039519, 0.036489, -0.004610, -0.053144, 0.055536, -0.039640, 0.018585, -0.025499, -0.004388, 0.007644, 0.025639, -0.047389, 0.045988, 0.018078, -0.116931, -0.030024, 0.028275, -0.002157, 0.001208, 0.035775, -0.117136, -0.003397, 0.029709, -0.120007, -0.037905, 0.015500, -0.017617, -0.021104, 0.050797, -0.028307, 0.003285, -0.020529, 0.001311, -0.019419, 0.035830, -0.021988, 0.009869, 0.032307, -0.089172, -0.033775, 0.045659, -0.057023, 0.039289, 0.037935, -0.188904, -0.014158, 0.085229, -0.155083, 0.008761, 0.039710, 0.017240, -0.000044, 0.018046, -0.013201, -0.019049, 0.011179, -0.012380, -0.011855, 0.053734, 0.019906, -0.031010, 0.046476, 0.010830, -0.013258, 0.015237, -0.016360, -0.027195, 0.091204, -0.084780, -0.153474, 0.155074, -0.056028, -0.027887, 0.007062, -0.013817, -0.009353, 0.056518, -0.012621, -0.009585, -0.026537, 0.016121, 0.002486, -0.006970, -0.005458, -0.106778, 0.014395, 0.052019, -0.000241, 0.017752, 0.024417, -0.109018, 0.090099, -0.015135, -0.108077, 0.055001, -0.006083, 0.018652, 0.001323, 0.011258, -0.003136, -0.008286, 0.023553, -0.007240, -0.008017, -0.010051, 0.018464, 0.012922, 0.018726, -0.153867, 0.038802, 0.126061, 0.027935, -0.024069, 0.031332, -0.067466, 0.070575, -0.033106, -0.073891, 0.002300, 0.043251, 0.044124, -0.035265, 0.017495, -0.023784, -0.008556, 0.009168, 0.029375, -0.007016, 0.005361, 0.014024, -0.022425, -0.036009, -0.180569, 0.201813, 0.009485, 0.059752, -0.038335, -0.025573, -0.121104, 0.099751, -0.031405, -0.074841, 0.042145, 0.010271, -0.003090, -0.003823, -0.020327, -0.037489, 0.015318, 0.004322, 0.005173, -0.003825, 0.013850, -0.009024, -0.050472, 0.004454, -0.101809, 0.148629, -0.088366, 0.025745, -0.008728, 0.007906, -0.011846, -0.007085, 0.040666, 0.012996, -0.022426, 0.011704, -0.000198, -0.039134, 0.029917, -0.002078, -0.009102, 0.009395, 0.029104, 0.029534, 0.001915, 0.015785, -0.025057, 0.014081, 0.124901, -0.087026, -0.072633, 0.048352, -0.061058, 0.043591, 0.098894, -0.058175, -0.074703, 0.122161, -0.120971, -0.056001, -0.008922, -0.039187, 0.047420, -0.011208, 0.010050, 0.019657, 0.004953, -0.027988, -0.010917, -0.001420, -0.016329, 0.004323, 0.092727, -0.026677, -0.120511, -0.009041, -0.035823, 0.035405, 0.027908, -0.010817, 0.019924, 0.021092, 0.004760, -0.046807, 0.021721, -0.025710, 0.030744, 0.022349, -0.042250, 0.053975, -0.022296, -0.006502, -0.011664, -0.012631, -0.058623, 0.039167, -0.018251, 0.038458, 0.034354, 0.006141, -0.099110, 0.070077, -0.030221, -0.019336, 0.145568, -0.035531, 0.013792, 0.089903, 0.008157, -0.043199, 0.024750, 0.023041, -0.082157, 0.060487, -0.001268, 0.010494, -0.007353, 0.015949, -0.077169, 0.020163, -0.167254, 0.121149, 0.067718, 0.055134, -0.069582, 0.009899, -0.064168, 0.067863, 0.007378, -0.074990, 0.076125, 0.016314, 0.029850, -0.079217, 0.027334, 0.068807, -0.076219, 0.069381, -0.021846, 0.005313, 0.005295, 0.018777, -0.073781, 0.012470, -0.164933, 0.166459, -0.013276, 0.067564, -0.070143, 0.002866, -0.008440, -0.005943, 0.032835, -0.113987, 0.121293, -0.034364, 0.050491, -0.063628, 0.005679, 0.039016, -0.046170, 0.069972, -0.017625, 0.010058, -0.000031, 0.017176, -0.081881, 0.044407, 0.011388, -0.034693, -0.006195, 0.087094, -0.104795, 0.003166, 0.099237, -0.091767, -0.025038, -0.005624, 0.012741, -0.022598, 0.036748, -0.072011, 0.024560, 0.026482, -0.073679, -0.028796, -0.027165, -0.006148, 0.008468, 0.017359, -0.057891, -0.008381, 0.193167, -0.229414, 0.034772, 0.042506, -0.063520, -0.028456, 0.091840, -0.110455, 0.045589, 0.065033, 0.002157, -0.055360, 0.050264, -0.045403, -0.006951, 0.014916, -0.057816, 0.050999, 0.004403, -0.012125, 0.032828, 0.029639, -0.048288, 0.026044, -0.019794, 0.020127, 0.014225, 0.001621, -0.001959, 0.035471, 0.093681, -0.147614, 0.060958, 0.062633, -0.050956, 0.024335, -0.005547, -0.043210, 0.023178, 0.049435, -0.046354, 0.041471, -0.015406, -0.019537, -0.000783, -0.023378, -0.010571, 0.034617, -0.117463, 0.112980, -0.041283, -0.001963, -0.069470, -0.001913, 0.116300, -0.063059, -0.015120, 0.012592, 0.035408, -0.116268, 0.003710, -0.023951, 0.039098, 0.032153, -0.049616, -0.005316, 0.009313, -0.021447, -0.006646, -0.023543, -0.057675, 0.042380, -0.019429, -0.018098, 0.009144, -0.000469, -0.082550, 0.030147, 0.044411, -0.112910, 0.120513, 0.045724, 0.008522, -0.037025, -0.000552, -0.026220, 0.031368, 0.019583, -0.007983, 0.027804, -0.016804, -0.015389, -0.007226, -0.018353, -0.030098, 0.037451, 0.079967, -0.076289, 0.102039, -0.005725, -0.028896, 0.035900, -0.034800, 0.035211, 0.061679, -0.000479, 0.007025, 0.027578, -0.009349, -0.035368, 0.038919, -0.004291, 0.010433, 0.035437, 0.014735, 0.024083, -0.001804, -0.014813, -0.014489, 0.021432, 0.095094, -0.040942, 0.002688, -0.034565, -0.048692, 0.041145, -0.074427, 0.087713, 0.064228, 0.030180, -0.036316, 0.015654, -0.055356, -0.011700, 0.042086, -0.077475, 0.036159, 0.037059, -0.004506, 0.016059, 0.011877, -0.044093, 0.043755, 0.000017, 0.064652, -0.058956, 0.020069, -0.037826, -0.017724, 0.051411, 0.218213, -0.125556, -0.113832, 0.108007, -0.010614, -0.276351, -0.010556, 0.002355, -0.002115, 0.030531, 0.013508, -0.031966, -0.003454, -0.007668, -0.020416, -0.020498, -0.007685, 0.007089, 0.249035, -0.175072, -0.110541, -0.090620, 0.029064, 0.014207, 0.060871, -0.040309, -0.014929, 0.009061, 0.056093, -0.107089, -0.049613, 0.033597, 0.007013, -0.042525, 0.038561, -0.015308, 0.001839, 0.001791, -0.014551, -0.053551, 0.046161, -0.017428, 0.150882, -0.136257, -0.051642, -0.069435, 0.068147, 0.020893, 0.009042, 0.001638, -0.029863, 0.003341, 0.029268, -0.102550, -0.013534, 0.007022, 0.008563, -0.034884, 0.039007, -0.048231, 0.005088, -0.005880, 0.000072, -0.068772, 0.054394, 0.012587, 0.100366, -0.072913, -0.040790, -0.094028, 0.023032, 0.028436, -0.026642, 0.100110, -0.041020, -0.035002, 0.052709, -0.036916, -0.035958, -0.005580, 0.030842, -0.079465, 0.058136, 0.033752, 0.016949, 0.021672, 0.001601, -0.048936, 0.058538, 0.011649, 0.005141, -0.056046, 0.058718, -0.027263, -0.000793, -0.002920, 0.088559, -0.070872, -0.041124, 0.013808, -0.020946, 0.052270, -0.036817, 0.046787, 0.014298, -0.055699, 0.042663, 0.029562, -0.008633, -0.004332, 0.013777, -0.013246, 0.000385, 0.032156, 0.062961, -0.054128, -0.002055, -0.062704, 0.027605, 0.021878, -0.182351, 0.081370, 0.155361, -0.137797, -0.002647, 0.123587, -0.023149, 0.000979, -0.010966, -0.033848, -0.007893, 0.021877, -0.017793, 0.002331, -0.009145, -0.020257, 0.008183, -0.018244, -0.148513, 0.164013, -0.015892, -0.042900, -0.001514, 0.038729, -0.099432, 0.011905, 0.151552, -0.096124, -0.003061, 0.125460, -0.021569, -0.013974, -0.010362, -0.044872, -0.007621, 0.075702, 0.007503, -0.028387, -0.013384, -0.010293, 0.048956, -0.002151, -0.110531, 0.107196, 0.020724, 0.008188, 0.003248, -0.002803, -0.185632, 0.100813, 0.079295, -0.101372, 0.025707, 0.055751, 0.019467, 0.046189, -0.028051, -0.057962, 0.043001, 0.023167, 0.004995, 0.000232, 0.005837, -0.024500, -0.007688, 0.012412, -0.037286, 0.021454, 0.019689, -0.035296, 0.041125, -0.056205, -0.129015, 0.086815, 0.085661, -0.032625, 0.016648, -0.049313, 0.012023, 0.015167, -0.004315, -0.045986, 0.049857, -0.024318, 0.012350, -0.002429, -0.001898, 0.004353, 0.028122, -0.037777, 0.012852, 0.005865, -0.003658, 0.016694, 0.049218, -0.067673, -0.127217, 0.106916, 0.073105, -0.036349, 0.063615, -0.045335, -0.037432, 0.051247, -0.006034, -0.042029, 0.090487, -0.051449, -0.005351, -0.005254, -0.001197, -0.028406, 0.033061, -0.040818, -0.101220, 0.090072, -0.050681, -0.023957, 0.100218, -0.048932, -0.238970, 0.238143, -0.060788, -0.084079, 0.088355, -0.028635, -0.031662, 0.051649, -0.044470, -0.048075, 0.052476, -0.060222, -0.018840, 0.005449, -0.004556, -0.031672, 0.027723, -0.000928, -0.173632, 0.190376, -0.102162, -0.022927, 0.063644, -0.039950, -0.218494, 0.166885, 0.010737, -0.104623, 0.064350, -0.003229, 0.012668, 0.016179, -0.020461, -0.014054, 0.075859, -0.045271, -0.008930, -0.015208, -0.005846, 0.003805, 0.011187, 0.021189, -0.205970, 0.124057, 0.056177, -0.056405, 0.052540, -0.004190, -0.225088, 0.064382, 0.171798, -0.174239, 0.023916, 0.135593, 0.006344, 0.022279, -0.012736, -0.056876, 0.073970, -0.043324, -0.013975, -0.025628, 0.026311, 0.001294, 0.015298, 0.020782, -0.151296, 0.020163, 0.141033, -0.021416, 0.044013, 0.008185, -0.111679, -0.002136, 0.182436, -0.166957, 0.035222, 0.159314, -0.015265, 0.014427, 0.000508, -0.018001, 0.002772, 0.010367, 0.004326, 0.022668, -0.018525, -0.039694, 0.012413, -0.013524, -0.169369, 0.112040, 0.109314, 0.017454, 0.001345, 0.026465, -0.150001, 0.107648, 0.040887, -0.144488, 0.012156, 0.080711, -0.025413, 0.003996, 0.035734, -0.025544, 0.005349, 0.047852, -0.015589, -0.009590, 0.002828, -0.019951, -0.002943, 0.000658, -0.039557, -0.035894, 0.078122, 0.022835, -0.020796, -0.003232, -0.133963, 0.121684, -0.048585, -0.148388, 0.137720, 0.018512, 0.033351, -0.006766, -0.012961, -0.032534, 0.024574, -0.003797, -0.007564, -0.007021, -0.025376, 0.018386, -0.015127, 0.015094, -0.126092, 0.077916, -0.068861, -0.006170, 0.005500, 0.017033, -0.014513, 0.042490, -0.111595, -0.028532, 0.060301, -0.039691, 0.008818, -0.049524, 0.040485, 0.041899, -0.038336, 0.011961, -0.014796, 0.017862, 0.032476, -0.000924, -0.019383, 0.022264, 0.022537, 0.006409, -0.127687, 0.047280, -0.072708, -0.034903, -0.105779, 0.124808, -0.102943, 0.059867, -0.007616, -0.092591, 0.011053, -0.031817, -0.008664, 0.046919, -0.050114, -0.005429, 0.020719, -0.000900, 0.020742, -0.001176, -0.024879, 0.037030, 0.022691, 0.035248, -0.129624, 0.030624, -0.072856, 0.036598, -0.122621, 0.171193, -0.074410, -0.049308, 0.057696, -0.092592, 0.018646, -0.040827, 0.012774, 0.030204, -0.038006, 0.044838, 0.023793, -0.022273, 0.016005, 0.032494, -0.041098, 0.001785, -0.186627, 0.207500, -0.110113, 0.025875, -0.102702, 0.059265, 0.058813, 0.023748, -0.138209, -0.140298, 0.126004, -0.015696, 0.043741, -0.066097, 0.046453, -0.012100, -0.063129, 0.063080, 0.021937, -0.005054, 0.021732, 0.065071, -0.087988, 0.023269, -0.125080, 0.153306, -0.090441, 0.034646, -0.136023, 0.083270, 0.056175, -0.021582, -0.084286, -0.109170, 0.142014, -0.054548, 0.068826, -0.120419, 0.051279, 0.061833, -0.110222, 0.004174, -0.025025, -0.018649, 0.014938, -0.007192, -0.062656, 0.039119, 0.044387, -0.034369, -0.049810, 0.072564, -0.104564, 0.019651, 0.004147, 0.018774, -0.026639, -0.126638, 0.105741, 0.009611, 0.026437, -0.061429, 0.004880, 0.054014, -0.097345, 0.005141, -0.017091, 0.018315, 0.034032, 0.009284, -0.041389, 0.027335, 0.064702, -0.056786, -0.018107, 0.042601, -0.074292, 0.051258, -0.105735, 0.077583, 0.035450, -0.072502, 0.092779, -0.014045, 0.052953, -0.089655, 0.024355, 0.035218, -0.075552, 0.027265, 0.012101, -0.029106, -0.000653, 0.015256, -0.060585, 0.060511, -0.106611, 0.135721, -0.069530, 0.051085, -0.075385, 0.030482, -0.121366, 0.106163, 0.024724, 0.007877, 0.048858, -0.083520, 0.024552, -0.043502, 0.011952, 0.008439, -0.095600, 0.070124, -0.021667, -0.002872, -0.026475, 0.001929, -0.052799, 0.056467, -0.024372, 0.088916, -0.039902, 0.015654, -0.044736, 0.054993, -0.068220, 0.050074, 0.010872, -0.038706, 0.032371, -0.056748, 0.000940, -0.047148, 0.011493, -0.023491, -0.029677, 0.029622, -0.007324, -0.008985, -0.007138, 0.009718, -0.044439, 0.054936, -0.158590, 0.187821, -0.065592, 0.000650, -0.031727, 0.038484, -0.067069, 0.094297, -0.040129, -0.034146, 0.092895, -0.106684, -0.014938, -0.028768, 0.034604, -0.044527, -0.015050, 0.024033, 0.003578, 0.033150, -0.003527, 0.032648, -0.046013, 0.042115, 0.055703, -0.018591, -0.064223, -0.025830, -0.034510, 0.059653, -0.026719, -0.010876, -0.001603, 0.019223, 0.002995, -0.053524, -0.007491, -0.002121, 0.000533, -0.030174, -0.010869, 0.051844, 0.022556, -0.006263, 0.008498, -0.013206, -0.035291, 0.013658, 0.039307, -0.030097, 0.006408, -0.033403, 0.018169, 0.031162, 0.036457, -0.011737, -0.036194, 0.063372, -0.029331, -0.058730, -0.019538, -0.001889, 0.037234, -0.011755, -0.005626, 0.047116, 0.004347, -0.014243, 0.004356, -0.017177, -0.020383, 0.009390, 0.056785, -0.014420, -0.072897, -0.028744, 0.014760, 0.059657, -0.023725, 0.036403, -0.011541, 0.109850, -0.056506, -0.091233, -0.034163, 0.043200, 0.009488, -0.053085, 0.008366, 0.011222, 0.013260, -0.004914, 0.003179, -0.024660, 0.013872, 0.013938, 0.108939, -0.044345, -0.087983, -0.064387, 0.008441, 0.035099, 0.204469, -0.150775, -0.069722, 0.243430, -0.133242, -0.185554, -0.015211, 0.036565, -0.029802, -0.014086, 0.016606, -0.057066, 0.009251, 0.003632, 0.025532, -0.039112, 0.026851, -0.022186, 0.203252, -0.196944, 0.022788, -0.129819, 0.107818, -0.036816, 0.084587, -0.105026, 0.004244, 0.149233, -0.118302, -0.070791, -0.046483, 0.054998, 0.001405, -0.038497, 0.058268, -0.046392, 0.006470, 0.025292, 0.008985, -0.041133, 0.032865, 0.015935, 0.142720, -0.137105, 0.023275, -0.085243, 0.091517, 0.004071, 0.064112, -0.105636, 0.009464, 0.082288, -0.060644, -0.086939, -0.043645, 0.021043, 0.012507, -0.062296, 0.055187, 0.002559, -0.006526, 0.024907, 0.002138, -0.040618, 0.039989, -0.005285, 0.232396, -0.191217, -0.109202, -0.101122, 0.082115, -0.002733, 0.101094, -0.111034, -0.000152, 0.085522, -0.026607, -0.083627, -0.045261, 0.018282, 0.040758, -0.041783, 0.051346, 0.025684, 0.008982, -0.004712, 0.002187, -0.039121, 0.020629, 0.037602, 0.108372, -0.072974, -0.069264, -0.117279, 0.072774, 0.028695, 0.057069, -0.022100, -0.081863, 0.096440, -0.046832, -0.129380, -0.072325, 0.041141, 0.008622, -0.005098, 0.008235, 0.023691, 0.014117, 0.005547, 0.025522, -0.020853, -0.008887, 0.015859, 0.016849, 0.057266, -0.118434, -0.062067, 0.018804, 0.065654, -0.199932, 0.226333, -0.064883, -0.086529, 0.125149, -0.095701, -0.040581, -0.000343, 0.043389, -0.028278, 0.010976, 0.039205, -0.018101, -0.009577, -0.004550, -0.053438, 0.014832, 0.035990, -0.227491, 0.172466, 0.031443, -0.064834, 0.029560, 0.084765, -0.163764, 0.062417, 0.084161, -0.182470, 0.144882, 0.043084, -0.045586, -0.025331, 0.016204, -0.065539, 0.043773, 0.066237, -0.008046, 0.008183, 0.011312, -0.003460, 0.011147, 0.000923, -0.179176, 0.157334, 0.032431, -0.046077, -0.008217, 0.060736, -0.296399, 0.190480, 0.131572, -0.167769, 0.041187, 0.102374, -0.030261, 0.015800, 0.018195, -0.065732, 0.071727, -0.015947, 0.018733, -0.004796, -0.009510, 0.014654, -0.019634, -0.017238, -0.118340, 0.044789, 0.061624, -0.010864, 0.023499, -0.051911, -0.166043, 0.125140, 0.072725, -0.145740, 0.106353, 0.081931, -0.009317, 0.028911, -0.002426, -0.019401, 0.042557, -0.021446, 0.020279, 0.011453, 0.026921, -0.006277, 0.035806, -0.041149, -0.008685, -0.020633, 0.040931, -0.025825, 0.047255, -0.114342, -0.050603, -0.021454, 0.070482, -0.083003, 0.027914, 0.074152, -0.024930, 0.038272, -0.045851, -0.039531, 0.043042, -0.058042, -0.010615, 0.009122, -0.012985, 0.011426, 0.055865, -0.079087, -0.033597, -0.002364, 0.012935, -0.017138, 0.100017, -0.105722, -0.089600, 0.053168, 0.025211, -0.040265, -0.029001, 0.037558, -0.020520, 0.055711, -0.025424, 0.020975, 0.068786, -0.063349, 0.017449, -0.013283, 0.006064, -0.007775, 0.053962, -0.036072, -0.138783, 0.070756, 0.071237, -0.007459, 0.041647, -0.037945, -0.178434, 0.144921, 0.021133, -0.127142, 0.100294, 0.039159, -0.018944, 0.069270, -0.049582, -0.069548, 0.058408, -0.040637, 0.014054, -0.023157, 0.026612, 0.006185, 0.060562, -0.023221, -0.221343, 0.115504, 0.114858, -0.004048, 0.046441, -0.051677, -0.272073, 0.177736, 0.136084, -0.179800, 0.081012, 0.154590, -0.022778, 0.020170, -0.013801, -0.047048, 0.082320, 0.019475, -0.001236, -0.006282, -0.005421, 0.001357, 0.025463, -0.052389, -0.150882, -0.019731, 0.127519, -0.008033, 0.047558, -0.023876, -0.249802, 0.181786, 0.103264, -0.165763, 0.072160, 0.159551, -0.039141, 0.027791, 0.000859, -0.040266, 0.038388, -0.016822, -0.013211, -0.004046, 0.012820, -0.000495, 0.023018, -0.023690, -0.206663, 0.152732, 0.081763, 0.007502, 0.011680, -0.010947, -0.143934, 0.038427, 0.158163, -0.150416, 0.028441, 0.145515, -0.039664, 0.018829, 0.015052, -0.030117, 0.022922, 0.022720, -0.013613, -0.019207, -0.023183, -0.020065, 0.017668, -0.014637, -0.057668, 0.010373, 0.068557, -0.002306, -0.005983, 0.000017, -0.150812, 0.009326, 0.231998, -0.166867, 0.046367, 0.180673, 0.012555, -0.008344, -0.047756, -0.038527, -0.006698, -0.013187, 0.012290, -0.023196, 0.006226, 0.008362, 0.003794, 0.039755, 0.055389, -0.169718, 0.138474, 0.003186, 0.002273, 0.006195, -0.051057, -0.030785, 0.167089, -0.055273, -0.011632, 0.180142, 0.033162, -0.011839, -0.008321, -0.023616, 0.027264, 0.044562, 0.029693, -0.005127, -0.000105, 0.007586, -0.019856, 0.016848, -0.033873, -0.014495, 0.132489, 0.008924, 0.018378, -0.019221, -0.015477, -0.046599, 0.133360, 0.031266, -0.054344, 0.071454, 0.021039, -0.033452, 0.005821, 0.018586, -0.063936, 0.028826, 0.016944, -0.016260, 0.018087, 0.016220, -0.019877, 0.021639, 0.078574, -0.032549, 0.013120, 0.030127, -0.067139, 0.094994, -0.016423, -0.096096, 0.160139, -0.026235, 0.058222, 0.025299, -0.003146, -0.023991, 0.086888, 0.014233, -0.029104, 0.025253, -0.023715, 0.027809, 0.017497, 0.014443, -0.055086, 0.010291, 0.027277, -0.030085, 0.041680, -0.015226, -0.080832, 0.075937, 0.019811, -0.028554, 0.068793, -0.081216, 0.089397, -0.004800, 0.019057, -0.060535, 0.040943, 0.043306, -0.059033, 0.052244, -0.009266, 0.025082, 0.005471, -0.011841, -0.043125, 0.052886, -0.103007, 0.069922, 0.044339, 0.037530, -0.108677, 0.057369, 0.067038, -0.051165, 0.008311, -0.152165, 0.156782, -0.035656, 0.019643, -0.097623, 0.029463, 0.016964, -0.091657, 0.060663, -0.008303, -0.016346, -0.013425, 0.007496, -0.089157, 0.050823, -0.013993, 0.033420, -0.038651, 0.045382, -0.056867, 0.035273, -0.075303, 0.085360, -0.062335, -0.139392, 0.173010, -0.029942, 0.016631, -0.077080, 0.043673, 0.025496, -0.091511, 0.058920, 0.020510, -0.012494, -0.033064, 0.017212, -0.059792, 0.036674, -0.178793, 0.170166, -0.027341, 0.054241, -0.083583, 0.071133, -0.036962, 0.095581, -0.116406, -0.106102, 0.175590, -0.190270, 0.028009, -0.047840, -0.000143, 0.014497, -0.054738, 0.040237, -0.002212, -0.002676, -0.006310, 0.020903, -0.061462, 0.054167, 0.038863, -0.024482, -0.073359, 0.043421, -0.073536, 0.086625, 0.264528, -0.227530, -0.103442, 0.068734, -0.011500, -0.167663, 0.020084, -0.050680, 0.011516, 0.025001, -0.045104, 0.033000, -0.005217, -0.028349, 0.016972, -0.004929, -0.026576, 0.049639, 0.299260, -0.264980, -0.088340, -0.005201, -0.086295, 0.042809, 0.283530, -0.213096, -0.075927, 0.204537, -0.102749, -0.153618, -0.013706, 0.007935, 0.034462, -0.000584, -0.058127, 0.026396, -0.006068, 0.017772, 0.005153, 0.014279, -0.018561, 0.015563, 0.232754, -0.182942, -0.092297, -0.024446, -0.069845, 0.017548, 0.219140, -0.135475, -0.124113, 0.124216, -0.047535, -0.179996, -0.031357, -0.010217, 0.055740, 0.019357, -0.021084, 0.003321, -0.010553, 0.008238, -0.010643, -0.013650, -0.021812, 0.057106, 0.204873, -0.161063, -0.082078, -0.041305, -0.020604, 0.022708, 0.125328, -0.122250, -0.038466, 0.119774, -0.106412, -0.126439, -0.020433, -0.038975, 0.026969, 0.017958, -0.029492, 0.049016, 0.009919, 0.005606, 0.014824, 0.006487, -0.017885, 0.052334, 0.125688, -0.075767, -0.024136, -0.035275, -0.012546, 0.066212, 0.023778, -0.013438, -0.062569, 0.120557, -0.095597, -0.163635, 0.006955, -0.023822, 0.068122, 0.002407, -0.070237, 0.049788, 0.015866, 0.017005, 0.011302, -0.013979, -0.045727, 0.010430, 0.066738, -0.042923, -0.095760, -0.100628, 0.088961, 0.033577, 0.045184, -0.011857, -0.108274, 0.059455, -0.016515, -0.116872, 0.003721, -0.010768, 0.022587, -0.013431, -0.006288, 0.021033, 0.002069, 0.023440, 0.012582, -0.044687, -0.019357, 0.035961, 0.091912, -0.021281, -0.120189, -0.044747, -0.025920, 0.057026, 0.032441, -0.057122, 0.071131, 0.161662, -0.141896, -0.046884, -0.023474, 0.018109, -0.064384, -0.013727, 0.037356, -0.083772, 0.015368, -0.017000, 0.004822, -0.041351, 0.060569, -0.018516, 0.060120, -0.107519, 0.037796, -0.070779, 0.061020, -0.047837, -0.036641, -0.039392, 0.143660, 0.042662, -0.133690, 0.066920, -0.036482, 0.052335, -0.024613, -0.054959, 0.047586, -0.009282, 0.022784, 0.010118, -0.008429, -0.057778, 0.053517, -0.032524, -0.097537, -0.021183, 0.113981, -0.076039, 0.056163, 0.003693, -0.013048, -0.092773, 0.130617, 0.082332, -0.181534, 0.062123, -0.040699, 0.040168, -0.017897, -0.096535, 0.061042, 0.013048, 0.006856, 0.023580, 0.006625, -0.057084, 0.054202, -0.023716, 0.046593, -0.170381, 0.132227, -0.064702, 0.059537, -0.003415, -0.144741, -0.008536, 0.188677, 0.005786, -0.011920, -0.047530, -0.007515, 0.003920, 0.030993, -0.050633, 0.018207, 0.027187, -0.006586, -0.012135, 0.015094, -0.050027, 0.047016, 0.043526, -0.123053, 0.201410, -0.050391, -0.043359, -0.003378, 0.043205, -0.184972, 0.014313, 0.128805, 0.041960, -0.013263, -0.032478, -0.051572, 0.013470, 0.067236, -0.047066, 0.023252, 0.054548, -0.015617, 0.002056, -0.011798, -0.036904, 0.011301, 0.002948, -0.172422, 0.233488, -0.048375, -0.038630, -0.019571, 0.063960, -0.142586, 0.114962, -0.022709, -0.034868, 0.056761, -0.094953, -0.008269, -0.004589, 0.073524, -0.043733, 0.002069, 0.071671, -0.011184, 0.004661, 0.017519, -0.050786, 0.007884, 0.028265, -0.143995, 0.136690, -0.081517, -0.035416, -0.010620, 0.072428, -0.025453, 0.054297, -0.147853, 0.016469, 0.051181, -0.097749, -0.004971, 0.034855, 0.028490, -0.088636, 0.059369, 0.016511, -0.000041, -0.010811, 0.002695, -0.035776, 0.016004, 0.022263, -0.052182, -0.022490, 0.060509, -0.033948, 0.011558, 0.078602, -0.002610, 0.034484, -0.044624, 0.003908, 0.002344, 0.009324, -0.025984, 0.031011, -0.014150, -0.031303, 0.023724, 0.009829, 0.016286, -0.004420, 0.006974, -0.024178, -0.005957, -0.013235, 0.121984, -0.104532, -0.019594, -0.027709, 0.035017, 0.016579, 0.096999, -0.055789, 0.029207, 0.067241, -0.077628, 0.019182, -0.033855, 0.037825, -0.029378, -0.033693, 0.035219, -0.027403, 0.007766, 0.005077, 0.026304, 0.016254, 0.056594, -0.033973, 0.204317, -0.169923, -0.077812, -0.035386, 0.054662, -0.010939, 0.026487, -0.032438, -0.003617, 0.071295, -0.091690, 0.070241, -0.014610, 0.097688, -0.071994, -0.028827, 0.033133, -0.096943, -0.015087, -0.023606, -0.020986, -0.015292, 0.040441, -0.024881, 0.018840, -0.032304, -0.001480, -0.039630, 0.077273, -0.056128, -0.020063, -0.005742, 0.039942, 0.099803, -0.141805, 0.058867, -0.005548, 0.048776, -0.053380, -0.009111, 0.046905, -0.085764, 0.007485, -0.007260, -0.031811, -0.021457, 0.033998, -0.071511, -0.093643, -0.047704, 0.141529, -0.036222, 0.079731, -0.117425, 0.085971, -0.072040, 0.022786, 0.020745, -0.124781, 0.047289, -0.047873, 0.039602, -0.083030, -0.039086, 0.075197, -0.043171, -0.010446, -0.010166, 0.020400, -0.014275, 0.044642, -0.087229, -0.059228, -0.045861, 0.088131, -0.017582, 0.076756, -0.056414, -0.048033, 0.008516, 0.075012, 0.005009, -0.086391, 0.137163, -0.035663, 0.059997, -0.030164, -0.029949, 0.028962, 0.036621, -0.020968, -0.001187, 0.002773, -0.000474, 0.058474, -0.051501, 0.048218, -0.026596, -0.000367, -0.031478, 0.031965, 0.038021, -0.135883, 0.046426, 0.021484, -0.101120, 0.038679, 0.091883, -0.028127, 0.038045, 0.014415, -0.018207, 0.026215, -0.023526, -0.027121, 0.007390, -0.032958, -0.032737, -0.001993, 0.017041, -0.008590, -0.005685, 0.016741, -0.048658, 0.009216, 0.035580, -0.082187, 0.067389, -0.026683, -0.125500, 0.019117, 0.121178, -0.006908, 0.021011, -0.000520, -0.022128, 0.003697, -0.006979, -0.021641, -0.011283, -0.008765, -0.031841, 0.012855, -0.016599, -0.022164, -0.050759, 0.095082, -0.020520, 0.015188, 0.017838, -0.127893, 0.027085, 0.185759, -0.123857, 0.025068, 0.174527, -0.024510, 0.007256, 0.012109, -0.033832, 0.026166, 0.027027, 0.008471, -0.031406, -0.014627, -0.027837, 0.005492, 0.035055, -0.029305, -0.063115, 0.197151, 0.010909, 0.000651, -0.020363, -0.079387, 0.020860, 0.132164, -0.079421, -0.005792, 0.188855, 0.027765, 0.002233, -0.002127, -0.056976, 0.001793, 0.032428, 0.001820, 0.012007, -0.012038, 0.016098, 0.030324, -0.004345, -0.170814, 0.106368, 0.121646, 0.027046, -0.030354, 0.002080, -0.063340, -0.011292, 0.077978, -0.064996, 0.028389, 0.186729, 0.026419, -0.043934, 0.025592, -0.005136, -0.000743, 0.048907, -0.010612, -0.005270, -0.016933, 0.045573, -0.012901, -0.004320, 0.045558, -0.045627, -0.013015, 0.010558, -0.055194, 0.018546, -0.142997, 0.043250, 0.151813, -0.109220, 0.070243, 0.088061, -0.007947, -0.053875, 0.031531, 0.008135, -0.033106, 0.026920, 0.009191, 0.020892, 0.011042, -0.006159, -0.030610, 0.026808, -0.030822, 0.070432, -0.060453, 0.014054, -0.020037, 0.006710, -0.114156, 0.089426, -0.002640, -0.137933, 0.145782, 0.023384, 0.010206, -0.055743, 0.037986, 0.024130, -0.033289, 0.063483, 0.000639, 0.012299, 0.009340, -0.001142, -0.046914, 0.021834, -0.191086, 0.206293, -0.038661, -0.004681, -0.036556, 0.067924, -0.064966, 0.083633, -0.029319, -0.136295, 0.131409, -0.070010, -0.007450, -0.056021, 0.011423, 0.032247, -0.071066, 0.034000, -0.020508, -0.008686, 0.018333, 0.000456, -0.052653, 0.049165, -0.011175, 0.097188, -0.088549, 0.036227, -0.098589, 0.108954, -0.133392, 0.131874, -0.016599, -0.161507, 0.184919, -0.109220, 0.015500, -0.097140, -0.000677, -0.030112, -0.068594, 0.062954, 0.020330, 0.007306, -0.025259, 0.026231, -0.060653, 0.018122, -0.073939, 0.131680, -0.098687, -0.001798, -0.039057, 0.061223, -0.006238, 0.032780, -0.061533, -0.068718, 0.175983, -0.257905, 0.017269, -0.049419, 0.056313, 0.003161, -0.030840, 0.034530, -0.008795, -0.001011, -0.013741, 0.021500, -0.037460, 0.064357, 0.120886, -0.043955, -0.083743, 0.037612, -0.081568, 0.053601, 0.187721, -0.169447, -0.079150, 0.155877, -0.103034, -0.236340, -0.016698, -0.031297, -0.006163, 0.009772, -0.061856, 0.030778, -0.018707, -0.029902, 0.012836, -0.010403, -0.035250, 0.045917, 0.280073, -0.196894, -0.149713, 0.017683, -0.064898, 0.054321, 0.093378, -0.049646, -0.128324, 0.169405, -0.077199, -0.298498, -0.001094, -0.055710, 0.064532, 0.014002, -0.050956, 0.047375, -0.011931, -0.013330, 0.010422, 0.003588, -0.024425, 0.041846, 0.034379, -0.003228, -0.104812, -0.001925, -0.000952, 0.044434, -0.067583, 0.126702, -0.166529, 0.052608, 0.084916, -0.289983, 0.001507, -0.049307, 0.015805, 0.010956, -0.062371, 0.012212, 0.006798, 0.005643, 0.028889, 0.029015, -0.042436, 0.019797, -0.228886, 0.237407, -0.118750, 0.024847, -0.028526, -0.007413, -0.128825, 0.231994, -0.158554, 0.020363, 0.069230, -0.226812, -0.001530, -0.001670, 0.002954, -0.023510, -0.026816, 0.056407, 0.009718, -0.012400, -0.012110, -0.022801, -0.050171, 0.050463, -0.071199, 0.181755, -0.130922, 0.037034, -0.084577, 0.065074, -0.084956, 0.177959, -0.142087, -0.013061, 0.122936, -0.173951, -0.006233, -0.051530, 0.030306, 0.001105, -0.028257, 0.043543, 0.001873, 0.018058, 0.011062, 0.018738, -0.064287, -0.005600, -0.084997, 0.097138, -0.075260, 0.014327, -0.047700, 0.028701, -0.081527, 0.167938, -0.185905, 0.051665, 0.087937, -0.248351, -0.002311, -0.024281, 0.014359, -0.059387, 0.034040, -0.006467, 0.005366, 0.027405, -0.014569, -0.024631, -0.003725, 0.057121, -0.007062, 0.085492, -0.123085, -0.008729, -0.010640, 0.034619, 0.241999, -0.192397, -0.121647, 0.167087, -0.148330, -0.076580, -0.013080, 0.061308, -0.074775, -0.001302, 0.012824, -0.033570, 0.016978, 0.004746, -0.006316, -0.011967, 0.103641, -0.058351, 0.229925, -0.115992, -0.122691, -0.039607, 0.064447, -0.034518, 0.115049, -0.107949, 0.027357, 0.115157, -0.121899, 0.051096, -0.048433, 0.055902, -0.044823, -0.048455, -0.000406, -0.001101, -0.011076, -0.022059, -0.000832, -0.075036, 0.054978, -0.048459, 0.135061, -0.155478, -0.036876, -0.090300, 0.056725, -0.010927, 0.134457, -0.150433, 0.058716, 0.067030, -0.030425, -0.024416, -0.092570, 0.058774, 0.028469, -0.064253, 0.067467, -0.017162, -0.006208, 0.010017, -0.016149, -0.064208, 0.044875, -0.016977, 0.001792, -0.083061, 0.123437, -0.079523, 0.003243, 0.040165, -0.027367, -0.036245, 0.044210, -0.001608, 0.043645, -0.006954, -0.033648, 0.005531, -0.013221, -0.021135, -0.057253, 0.066279, 0.007468, -0.028077, 0.009444, -0.045866, 0.053393, 0.009433, 