// Overflow-Protected 2-Layer CNN Model with Labels
#ifndef MY_MODEL_H
#define MY_MODEL_H

// Class Labels
const char* myClassLabels[3] = {
  "BACKGROUND",
  "HAND",
  "FACE"
};


const float myConv1_w[] = { -0.107090, -0.277276, -0.000000, 0.241069, 0.398161, -0.182982, 0.000000, -0.123395, 0.175085, -0.028599, -0.000000, -0.163486, 0.133443, 0.198368, -0.000000, 0.160901, -0.030676, -0.259166, -0.000000, 0.062543, 0.067276, 0.007560, 0.000000, -0.285125, 0.149648, 0.256583, -0.000000, 0.169762, 0.391022, 0.244397, -0.000000, -0.103368, 0.182264, -0.015003, -0.000000, -0.144255, -0.064389, -0.097041, -0.000000, 0.168632, 0.222974, 0.063055, 0.000000, 0.206436, 0.129432, 0.090518, -0.000000, -0.236578, 0.208590, 0.258350, 0.000000, 0.153154, 0.152138, 0.090131, -0.000000, 0.084291, 0.226015, 0.008315, 0.000000, -0.005398, 0.384991, 0.198123, -0.000000, 0.069141, 0.418783, 0.403256, -0.000000, -0.199356, 0.351494, 0.448655, 0.000000, -0.359440, 0.236923, 0.349131, -0.000000, 0.282291, -0.002049, 0.109652, 0.000000, -0.052457, 0.148925, 0.092061, -0.000000, 0.275314, 0.090751, -0.082069, -0.000000, -0.029504, 0.370336, 0.291590, -0.000000, -0.025809, 0.113622, -0.003658, 0.000000, -0.177354, 0.113356, 0.300150, -0.000000, 0.327722, 0.302300, -0.044989, 0.000000, -0.265755, 0.058852, 0.257580, 0.000000, -0.023106 };

const float myConv1_b[] = { -0.240962, -0.058376, -0.011626, 0.041604 };

const float myConv2_w[] = { -0.010436, 0.086441, -0.059805, 0.234445, 0.031435, -0.184921, 0.199697, -0.121221, -0.090643, 0.147192, 0.117137, 0.126457, 0.218859, -0.229004, -0.003736, -0.028680, 0.000000, 0.000000, 0.000000, -0.000000, 0.000000, 0.000000, 0.000000, -0.000000, -0.036471, 0.231695, -0.000001, 0.129570, 0.059191, 0.188759, 0.008254, 0.134243, 0.168774, -0.090497, -0.068317, -0.166677, 0.117479, -0.178958, 0.017091, -0.013859, 0.207001, -0.045092, 0.119089, 0.140110, 0.047169, 0.062417, -0.050904, -0.104976, 0.000000, -0.000000, 0.000000, 0.000000, 0.000000, -0.000000, -0.000000, -0.000000, -0.114206, 0.226199, -0.000001, 0.201868, 0.229468, 0.272324, 0.007487, 0.222785, 0.106470, 0.267812, -0.090460, -0.163552, -0.250687, -0.195732, -0.061491, -0.133717, 0.051704, 0.403882, -0.013451, -0.109942, -0.140764, -0.204011, 0.058128, -0.147186, 0.000000, -0.000000, -0.000000, -0.000000, -0.000000, -0.000000, 0.000000, 0.000000, 0.005023, 0.094762, 0.000001, 0.051956, 0.186609, 0.313015, 0.001499, 0.230916, -0.187051, 0.017098, 0.015195, -0.064470, 0.190026, 0.068781, 0.033433, 0.175208, 0.032049, 0.073919, 0.125290, 0.151428, -0.014547, 0.232542, -0.064288, 0.243410, -0.000000, -0.000000, -0.000000, 0.000000, -0.000000, -0.000000, -0.000000, -0.000000, -0.026768, 0.284330, 0.000003, 0.068238, 0.084330, 0.202998, 0.006681, 0.118563, -0.097843, -0.120514, -0.123388, -0.182870, -0.123003, -0.081804, 0.002395, 0.045274, 0.000825, -0.140094, 0.023803, -0.026809, -0.027839, 0.334528, 0.085397, 0.243571, -0.000000, 0.000000, 0.000000, 0.000000, -0.000000, -0.000000, -0.000000, 0.000000, -0.007664, 0.143455, -0.000001, 0.120606, 0.367938, 0.175408, 0.004420, 0.203442, 0.030022, -0.174663, 0.074617, -0.022423, -0.161289, -0.123538, -0.067597, -0.031215, -0.094075, -0.031219, -0.019966, -0.157124, -0.102280, -0.052906, -0.041300, -0.026440, -0.000000, -0.000000, -0.000000, 0.000000, -0.000000, -0.000000, -0.000000, -0.000000, -0.041033, 0.233016, -0.000004, 0.159995, 0.218175, 0.232221, -0.001892, 0.267450, 0.179544, -0.154294, -0.091763, 0.108721, 0.205143, 0.136227, 0.000931, -0.043482, 0.110561, -0.063741, 0.022913, 0.107916, 0.183416, 0.084654, 0.028281, 0.034914, -0.000000, 0.000000, -0.000000, -0.000000, -0.000000, 0.000000, -0.000000, 0.000000, -0.065107, 0.390330, 0.000003, 0.013592, 0.059087, 0.189631, 0.005920, 0.077149, -0.015764, -0.123137, 0.030911, 0.070819, 0.146883, 0.377648, -0.134275, 0.212578, -0.038381, -0.254891, -0.050957, 0.037399, -0.195954, 0.072070, 0.100490, 0.022730, 0.000000, -0.000000, -0.000000, 0.000000, 0.000000, -0.000000, -0.000000, -0.000000, -0.093064, 0.216610, -0.000009, 0.093287, 0.205254, 0.157886, 0.002516, 0.127596, 0.168342, 0.042904, -0.008620, 0.207328, 0.050297, 0.092734, -0.087239, -0.058793, -0.230842, 0.145996, -0.030801, -0.010785, -0.141936, -0.019041, 0.011993, -0.136489, -0.000000, -0.000000, 0.000000, 0.000000, -0.000000, 0.000000, -0.000000, 0.000000, -0.071956, 0.062496, -0.000000, 0.089521, 0.105156, 0.375337, -0.002701, 0.206175 };

const float myConv2_b[] = { -0.133067, 0.152275, -0.019905, -0.099879, -0.028228, 0.001122, 0.007843, -0.021872 };

const float myOutput_w[] = { 0.101352, -0.050963, -0.015216, 0.163679, -0.162787, -0.016585, 0.001867, 0.023435, 0.017765, 0.037059, -0.046614, -0.025316, 0.054679, -0.038636, -0.069177, 0.030488, -0.020859, -0.019130, 0.025757, -0.005311, 0.000280, 0.011397, 0.006369, -0.047608, 0.060099, -0.030899, -0.007035, 0.099596, -0.104379, -0.041387, -0.027126, 0.023158, -0.004039, 0.046135, -0.040191, -0.003929, -0.045264, 0.052137, -0.029300, -0.022657, -0.026084, 0.055483, -0.010984, 0.011833, 0.000676, 0.006560, -0.053816, 0.026157, 0.046474, -0.086213, -0.022707, 0.038798, -0.006575, -0.050756, 0.023499, 0.002737, 0.011537, 0.034383, -0.056180, 0.012515, 0.055931, -0.064584, -0.023864, -0.058886, -0.014420, 0.059370, -0.004911, 0.006478, -0.030213, 0.060088, -0.094827, 0.059445, 0.080026, -0.046862, 0.000848, 0.099926, -0.069165, -0.113305, 0.005634, 0.005604, 0.031231, 0.094042, -0.094603, 0.009902, 0.054735, -0.067880, 0.019023, -0.083612, 0.013017, 0.028376, 0.017721, -0.010488, -0.007415, 0.026251, -0.044266, 0.020036, 0.073352, -0.068617, -0.000938, -0.029809, 0.110953, -0.084852, -0.017348, -0.011416, 0.016300, 0.039679, -0.030930, -0.032904, 0.066473, -0.053629, -0.056621, -0.023757, 0.028771, -0.086526, 0.018388, -0.019468, -0.023604, 0.068746, -0.066003, -0.034652, 0.024012, -0.045042, -0.015527, 0.107718, -0.068855, -0.123729, 0.011165, -0.031464, 0.007903, 0.032368, -0.044469, 0.004286, 0.093987, -0.110372, -0.020132, 0.092970, -0.103456, -0.057982, 0.015033, 0.008028, -0.010685, 0.152688, -0.158913, -0.054610, 0.044085, -0.052491, 0.022511, 0.091918, -0.039489, -0.133480, -0.018708, -0.016253, 0.004126, 0.048958, -0.009663, -0.021867, 0.087719, -0.047767, -0.095027, 0.104971, -0.107441, -0.042266, -0.006328, 0.006720, -0.001850, 0.127720, -0.077062, -0.062441, 0.063114, -0.057920, 0.033505, -0.047690, 0.120496, -0.151490, 0.020139, 0.010148, 0.005037, 0.026467, -0.043839, 0.012055, 0.131621, -0.100528, -0.046189, 0.210037, -0.210441, -0.045082, 0.013456, -0.000255, -0.001911, 0.077630, -0.070846, -0.048832, 0.028356, -0.053481, 0.035404, 0.087550, 0.027958, -0.175643, 0.008237, 0.017879, 0.025577, 0.081510, -0.093732, -0.003175, 0.155904, -0.135433, -0.005939, 0.163794, -0.132330, -0.030468, 0.002276, 0.032254, 0.014384, 0.090300, -0.082398, -0.000207, 0.039799, -0.058649, -0.018574, 0.146275, -0.023450, -0.225328, 0.002076, -0.018654, -0.018217, 0.056210, -0.050967, -0.000736, 0.088030, -0.157250, 0.006816, 0.122508, -0.102598, 0.036742, -0.000295, -0.026456, 0.027369, 0.105480, -0.166047, -0.016470, 0.036892, -0.014721, -0.049511, 0.095414, -0.034645, -0.084800, -0.002988, -0.041761, -0.000576, 0.036588, -0.040910, 0.008124, 0.076996, -0.134421, 0.026871, 0.046601, -0.091769, -0.002301, -0.011812, -0.020280, -0.010086, 0.052210, -0.063911, -0.005344, 0.005625, -0.001657, -0.043146, 0.007795, 0.043805, -0.110355, -0.018974, 0.008968, 0.010693, -0.005525, -0.017341, -0.006086, 0.043042, -0.039888, -0.001421, 0.078104, -0.158646, 0.039664, -0.012433, -0.047124, 0.015787, 0.089546, -0.111989, 0.039236, 0.009196, -0.004787, -0.012425, 0.075017, -0.046253, -0.113466, -0.012711, 0.001993, 0.031972, 0.011324, -0.043511, 0.006161, 0.016932, -0.031585, -0.005257, 0.018329, -0.046206, 0.043181, -0.018500, -0.026647, -0.013015, 0.061555, -0.062335, -0.029300, -0.005227, -0.001492, -0.035327, 0.108335, -0.073135, -0.126311, 0.001980, -0.003287, -0.010208, 0.006519, -0.040341, 0.026034, -0.037384, 0.040663, -0.031750, 0.011925, -0.038369, 0.014276, -0.027121, 0.009857, 0.026629, 0.003172, 0.002686, 0.001977, 0.000475, -0.012942, 0.033472, -0.222150, 0.222198, -0.119663, 0.001649, -0.016904, -0.004956, 0.004283, -0.043746, -0.007303, 0.037971, -0.031242, 0.019029, 0.055284, -0.057557, 0.017309, 0.009159, -0.010531, -0.003134, 0.051146, -0.064838, 0.002484, 0.013974, -0.027041, -0.004208, -0.231831, 0.277229, -0.049125, 0.000125, 0.009577, -0.006070, 0.031438, -0.018897, -0.001586, 0.072818, -0.080733, -0.070413, 0.121160, -0.080845, -0.105109, -0.025863, 0.006296, 0.000943, 0.092435, -0.054080, -0.052365, 0.003615, -0.023277, -0.004343, 0.119137, -0.063194, -0.079945, -0.015221, -0.011125, -0.007650, -0.009256, -0.018226, 0.028886, 0.069481, -0.036593, -0.067099, 0.062746, -0.053074, -0.091423, -0.004356, 0.009671, 0.004863, 0.073630, -0.042252, -0.104936, 0.012733, -0.021483, 0.016968, 0.128135, 0.023032, -0.221738, 0.004108, -0.000903, 0.039046, 0.005066, 0.027714, 0.027085, -0.001369, -0.011910, 0.002317, 0.055742, -0.089770, -0.007661, -0.030880, 0.013289, 0.006714, 0.009079, 0.007162, 0.024395, -0.018465, 0.016454, 0.014528, -0.039442, 0.150691, -0.166376, 0.019887, -0.018886, 0.007879, -0.010059, -0.020452, 0.019694, 0.011727, -0.009852, -0.005699, 0.050945, -0.113321, 0.045533, -0.008960, 0.003012, 0.017235, 0.009027, -0.011099, 0.022732, -0.005390, -0.016093, -0.006056, 0.017857, -0.077026, 0.023839, -0.031762, -0.000781, -0.002658, 0.015832, -0.032218, 0.004882, 0.012894, -0.007076, 0.027168, 0.033490, -0.040675, -0.020965, -0.009325, 0.000125, -0.002609, 0.040722, -0.055372, 0.007375, 0.000747, 0.010598, -0.019259, -0.063421, -0.019487, 0.081802, -0.000410, 0.001717, 0.025859, 0.028866, 0.004755, 0.019120, 0.033733, -0.016373, -0.031238, 0.015720, -0.056927, -0.029506, -0.003654, 0.021194, 0.010817, 0.055929, -0.007338, -0.034483, -0.007236, -0.014302, 0.011900, -0.012635, -0.045130, 0.068489, -0.001145, -0.025954, 0.012911, 0.026153, 0.005948, 0.012419, -0.010244, -0.000008, -0.052981, 0.027142, -0.056613, -0.002552, 0.000516, 0.008603, 0.019752, 0.008160, 0.039017, -0.070522, -0.011237, 0.000787, -0.002206, 0.100323, -0.097286, -0.022207, 0.020430, -0.008634, 0.021672, 0.014743, -0.008358, 0.024134, 0.008596, -0.012509, -0.023762, -0.029301, -0.016590, 0.036323, -0.015785, 0.001078, 0.006975, -0.004342, -0.005776, 0.057661, 0.023347, -0.025327, 0.025531, 0.184119, -0.152824, -0.062671, -0.003715, 0.009489, 0.009118, -0.009652, -0.038328, 0.024836, -0.075008, 0.040279, 0.083823, -0.079220, 0.042542, 0.104034, 0.033333, -0.040703, 0.023591, -0.037642, -0.005302, 0.055043, 0.008317, -0.004489, -0.031585, 0.171474, -0.100104, -0.110316, -0.008407, 0.002883, 0.002045, -0.022813, -0.046879, 0.043323, -0.030383, -0.031116, 0.068324, 0.039743, -0.115188, 0.088227, 0.005026, -0.002320, 0.013408, -0.026260, -0.055231, 0.106711, 0.006869, -0.000904, -0.012159, 0.090427, -0.095072, -0.064716, -0.012547, -0.024459, -0.020311, -0.029275, -0.012399, 0.006142, 0.010289, -0.075676, 0.045645, 0.009180, -0.132734, 0.104194, 0.012781, 0.017768, -0.003830, 0.017529, -0.089879, 0.049834, 0.030081, -0.038869, -0.030088, 0.247740, -0.242910, -0.050308, 0.006534, -0.010180, -0.010882, 0.009170, -0.044708, -0.004060, 0.010542, -0.017354, 0.011014, -0.045411, -0.034708, 0.111389, -0.015634, 0.001760, 0.026873, -0.014105, 0.019335, 0.038201, 0.017673, 0.001177, 0.020348, 0.188196, -0.194412, -0.067798, -0.009084, -0.002798, 0.027595, -0.000717, 0.001515, -0.011067, -0.024677, 0.064385, -0.020844, -0.068902, -0.019696, 0.105277, 0.029613, -0.006507, 0.013076, -0.043140, 0.046879, -0.020858, 0.028766, -0.002244, -0.008080, 0.135864, -0.158751, 0.000432, -0.007507, 0.008365, 0.010174, -0.010601, -0.000085, 0.012747, -0.020408, 0.060636, -0.057373, -0.005330, -0.124115, 0.106196, -0.024997, -0.013532, 0.004475, 0.005198, -0.037610, 0.076548, 0.065423, -0.049572, 0.002085, 0.084966, -0.130635, 0.002456, -0.011487, 0.000215, 0.011766, 0.039147, -0.070809, 0.003934, 0.049447, -0.097658, -0.002876, -0.026270, 0.000478, 0.040875, -0.019906, 0.000570, 0.008560, -0.021575, -0.017899, 0.038674, 0.020007, -0.081081, -0.011160, 0.032414, -0.014120, -0.048443, -0.027637, 0.004287, -0.000583, 0.016797, -0.021135, 0.011594, -0.000104, 0.010708, -0.065293, -0.035671, 0.029563, -0.057776, 0.027753, -0.017069, -0.019874, -0.003932, 0.021302, -0.014345, 0.044469, -0.042990, 0.012068, 0.075474, 0.043638, -0.129127, -0.015926, -0.024077, 0.003413, 0.030782, -0.042956, -0.015530, 0.042847, 0.001071, -0.032820, -0.080709, 0.062100, 0.027494, -0.024123, -0.016096, -0.007709, 0.019621, -0.077499, 0.041843, 0.030504, -0.046415, -0.000966, 0.135859, -0.076356, -0.120693, 0.005929, -0.003394, 0.020329, 0.035407, -0.041650, -0.006191, 0.018710, -0.086424, 0.030414, -0.053995, 0.064299, 0.016347, -0.019699, -0.029647, -0.019872, 0.028329, -0.016835, 0.030949, 0.076492, -0.057267, 0.020632, 0.078828, -0.022132, -0.141610, -0.004771, 0.003552, 0.013640, 0.074649, -0.064297, -0.022343, 0.031948, -0.006894, -0.019972, -0.004158, 0.017576, -0.048773, -0.011001, -0.015901, -0.000775, 0.029625, -0.037163, -0.069914, 0.063324, -0.077372, -0.016361, -0.074039, 0.108444, -0.103983, 0.000328, -0.010236, 0.029668, 0.065274, -0.066034, -0.024496, 0.122945, -0.092413, -0.077340, 0.069807, -0.063628, -0.053786, -0.006233, 0.014666, 0.001539, 0.091857, -0.083771, -0.013015, 0.057048, -0.072582, 0.028730, -0.004222, 0.042955, -0.089171, -0.015469, 0.005424, -0.002748, 0.059915, -0.076316, -0.008415, 0.095231, -0.065737, -0.049605, 0.063470, -0.061309, -0.073783, 0.005436, -0.020834, 0.012074, 0.146684, -0.084948, -0.070350, 0.023271, -0.066219, 0.006719, -0.091914, 0.134213, -0.146663, 0.001961, -0.026034, 0.010509, 0.069367, -0.061187, -0.006833, 0.145166, -0.117487, -0.057842, 0.229997, -0.188059, -0.080619, -0.017391, 0.031567, -0.023634, 0.158892, -0.171865, -0.057468, 0.010007, -0.073391, 0.003310, 0.114812, -0.049594, -0.130618, -0.004747, 0.002222, 0.032613, 0.044707, -0.030938, 0.026832, 0.130068, -0.152054, -0.037414, 0.057634, -0.091026, -0.035588, 0.008108, -0.033455, 0.023272, 0.096754, -0.050541, -0.048272, -0.000690, -0.026880, -0.001741, 0.071093, 0.054698, -0.147923, -0.001513, -0.030649, -0.004490, 0.022889, -0.058004, 0.030734, 0.141155, -0.179728, 0.034013, 0.136727, -0.113379, 0.017159, 0.028045, -0.028155, 0.001338, 0.093646, -0.148743, 0.022702, -0.008700, -0.022409, 0.006222, -0.003550, 0.055430, -0.117975, -0.029218, 0.003153, -0.008332, 0.051542, -0.069593, 0.002066, 0.131854, -0.132361, 0.043653, 0.046680, -0.072877, 0.011468, 0.013190, -0.007673, -0.004847, 0.073098, -0.067424, -0.016479, -0.012693, -0.030145, 0.011675, -0.018498, 0.115254, -0.083553, -0.010701, -0.023945, -0.010855, 0.045571, -0.006171, 0.004510, 0.063261, -0.111963, 0.050136, 0.033777, -0.065751, 0.058803, -0.017066, 0.007275, -0.014523, 0.054489, -0.007700, 0.017949, 0.039795, -0.045052, -0.016097, 0.067244, -0.026299, -0.069152, -0.018829, -0.011983, 0.016894, 0.002009, -0.034651, 0.033516, 0.028871, -0.003472, -0.000234, 0.038972, -0.082019, 0.047921, 0.018942, 0.018449, -0.007431, 0.059612, -0.069158, -0.036734, 0.025547, -0.054603, -0.029203, 0.137928, -0.058390, -0.155958, 0.003624, 0.018657, -0.022686, -0.028344, -0.005066, -0.005980, -0.058553, 0.105879, -0.022020, 0.022326, -0.057625, 0.024445, 0.003426, 0.010222, 0.011671, 0.008008, 0.027160, -0.016616, -0.005115, -0.024709, 0.008091, -0.156724, 0.179836, -0.100895, 0.002579, -0.017480, 0.003736, -0.018147, -0.017751, 0.027873, 0.047721, -0.067237, -0.003507, 0.039388, -0.052863, 0.039814, -0.013361, -0.000311, 0.016144, 0.079117, -0.057829, -0.003906, 0.016317, -0.000857, -0.028652, -0.086863, 0.181415, -0.062379, 0.015152, 0.001676, -0.000244, 0.040861, -0.023075, -0.027152, 0.065337, -0.024069, -0.047541, 0.047925, -0.020024, -0.072580, -0.022684, -0.003458, 0.011659, 0.075104, -0.022658, -0.088787, -0.016707, 0.014157, -0.012960, -0.044690, 0.067827, -0.006898, -0.010516, 0.007215, 0.004566, 0.010477, 0.000685, -0.014874, 0.029314, -0.004850, -0.066879, 0.112222, -0.071243, -0.101656, -0.042159, -0.007845, -0.025345, 0.042454, -0.037055, -0.069870, 0.010749, -0.012742, -0.021909, -0.004132, 0.057926, -0.099094, -0.006983, -0.009853, 0.022542, 0.039817, 0.004405, -0.021743, 0.024959, -0.013484, -0.027708, 0.112115, -0.083221, -0.059689, -0.031278, 0.038825, 0.019925, 0.029710, 0.002745, -0.003361, 0.007203, 0.010879, 0.012434, -0.100702, 0.137602, -0.064296, -0.003208, -0.030643, 0.011455, -0.014730, 0.001810, 0.027628, 0.022992, -0.036507, -0.002774, 0.086258, -0.106218, 0.018423, 0.015179, -0.029740, -0.015341, 0.032742, -0.051054, 0.047206, 0.003891, -0.017642, -0.014614, -0.002142, -0.008425, 0.034034, 0.010489, -0.014631, -0.004132, 0.012586, -0.002462, 0.001529, 0.023351, -0.061881, 0.037699, 0.028262, -0.097451, 0.046811, -0.014504, -0.015870, 0.024785, 0.009869, -0.014600, 0.028741, 0.007401, -0.032570, -0.012585, 0.108625, -0.071047, -0.022861, -0.027319, 0.000188, -0.004784, -0.000925, 0.006365, -0.003648, 0.053400, -0.028219, -0.060570, 0.009502, -0.032773, -0.005324, -0.001557, 0.010051, -0.008514, 0.030219, 0.013546, -0.067696, -0.000162, -0.002378, -0.002566, 0.003198, -0.038574, 0.085224, -0.001374, -0.038310, 0.037099, 0.003271, -0.015910, 0.029481, 0.014573, 0.019714, -0.083676, 0.035751, -0.047985, -0.007656, -0.033962, 0.009829, 0.003514, 0.062793, -0.042295, -0.005682, 0.015646, -0.011083, 0.021657, 0.058073, -0.073549, 0.005120, 0.019696, 0.023608, -0.004399, -0.001035, 0.015178, 0.017097, 0.041197, 0.019196, -0.040162, -0.040984, 0.070738, 0.031521, -0.004603, 0.000536, 0.005916, -0.075124, 0.024514, 0.064305, 0.004728, -0.022094, -0.016107, 0.089563, -0.077826, 0.019757, 0.002758, -0.013646, 0.030282, -0.014484, -0.008660, 0.020181, -0.048754, 0.035572, 0.067471, -0.035660, -0.002704, 0.038907, -0.019799, 0.003063, -0.017344, -0.039981, 0.000240, 0.007263, -0.008396, -0.014013, -0.015756, 0.151949, -0.074353, -0.154232, 0.006784, -0.026340, -0.009131, -0.032111, -0.013946, -0.003041, -0.069075, 0.005182, 0.059562, 0.011705, -0.101985, 0.082280, 0.006923, 0.001672, 0.003515, 0.015235, -0.058844, 0.068593, 0.007364, 0.008673, 0.014610, 0.182304, -0.110435, -0.177858, 0.018740, -0.029887, 0.008646, -0.025136, -0.051054, 0.028071, 0.035936, -0.108385, 0.072196, -0.021490, -0.138565, 0.177613, 0.004731, 0.005235, 0.005560, 0.018838, -0.114568, 0.063280, 0.006037, -0.011730, -0.050520, 0.213599, -0.240001, 0.013568, 0.007148, -0.015650, 0.018002, -0.014372, -0.044856, 0.009762, 0.027274, -0.057005, 0.045368, 0.025891, -0.125146, 0.160135, 0.017169, -0.006570, 0.035135, -0.046538, -0.038169, 0.053358, 0.020677, -0.015855, -0.008649, 0.160328, -0.210975, 0.088714, 0.005904, -0.016581, -0.009496, 0.017583, -0.000497, 0.007580, -0.045473, 0.030879, -0.047075, -0.039440, -0.040135, 0.104972, -0.007598, -0.015731, 0.025012, -0.025110, 0.006816, 0.048526, -0.010121, -0.027925, 0.007133, 0.113246, -0.104520, -0.004314, -0.008920, -0.009228, 0.018657, -0.006096, -0.009425, -0.004119, -0.014058, 0.022961, -0.042979, 0.029658, -0.142614, 0.083663, 0.010026, -0.035658, -0.026064, 0.037061, -0.102929, 0.026139, 0.019010, -0.051932, -0.004147, 0.067829, -0.116561, 0.032403, 0.015183, 0.009466, 0.008165, 0.030607, -0.047099, -0.019816, 0.036978, 0.002414, 0.002453, 0.019171, -0.072494, 0.022240, 0.017019, -0.012654, -0.020295, 0.001251, 0.000946, 0.010724, 0.032464, -0.055319, 0.044596, 0.016359, -0.010621, -0.055069, 0.004225, 0.021574, -0.004727, 0.043080, -0.022135, -0.018934, 0.031218, -0.001717, 0.001902, 0.001219, -0.054003, 0.019311, 0.012897, 0.012539, -0.020567, 0.001835, 0.036079, -0.009891, 0.020447, -0.055956, -0.001506, 0.044344, 0.108515, -0.165741, 0.018962, -0.012657, -0.015887, 0.041986, -0.086866, -0.020069, -0.004365, -0.006012, -0.008226, -0.005043, -0.059621, 0.041838, 0.052407, -0.032533, -0.001358, -0.034103, -0.022476, 0.057503, 0.069207, -0.032696, 0.000742, 0.022803, 0.023377, -0.094402, 0.016638, -0.012430, -0.003065, 0.052855, -0.032037, 0.004215, 0.015788, -0.024251, 0.052862, 0.000145, -0.011228, -0.005068, -0.015689, -0.021812, 0.019963, -0.007079, 0.001487, 0.001969, 0.066976, -0.088360, 0.002379, -0.028861, 0.107299, -0.132754, 0.003293, 0.002422, -0.007104, 0.046230, -0.083974, 0.015315, -0.003509, -0.010156, 0.006600, 0.029413, -0.001680, -0.035648, 0.008964, 0.000248, 0.026732, 0.056596, -0.020698, -0.048026, 0.048685, -0.048420, 0.035547, -0.140332, 0.195418, -0.091380, -0.004962, 0.002916, -0.000619, 0.023857, -0.038935, -0.027295, 0.021689, -0.005885, -0.072811, 0.098764, -0.033849, -0.108432, -0.001560, -0.032562, 0.031655, 0.088818, -0.071328, -0.011339, 0.060976, -0.055617, 0.019757, 0.022207, 0.044344, -0.102639, 0.013503, -0.010256, 0.003642, 0.023303, -0.020288, -0.003264, 0.107448, -0.116986, -0.001932, 0.085978, -0.067826, -0.092450, 0.006301, -0.011743, 0.014809, 0.091691, -0.054902, -0.055848, 0.039073, -0.023924, 0.035750, -0.024308, 0.105406, -0.167884, -0.002815, -0.036154, 0.003797, 0.034707, -0.039382, 0.006907, 0.158178, -0.172729, -0.060379, 0.150349, -0.146892, -0.044452, 0.020525, -0.023857, -0.017212, 0.138583, -0.104306, -0.048835, 0.054337, -0.046705, 0.027915, 0.078581, 0.025953, -0.195537, 0.017239, -0.031526, -0.000875, 0.064209, -0.066441, 0.035531, 0.101000, -0.131522, 0.008934, 0.116680, -0.099712, -0.069066, -0.025713, -0.007428, -0.004168, 0.105250, -0.106787, -0.036836, 0.008311, -0.049744, 0.006230, -0.099213, 0.205349, -0.146075, 0.024352, 0.007686, -0.020684, 0.037441, -0.063249, 0.022896, 0.086927, -0.128690, 0.008669, 0.161938, -0.159361, -0.037260, -0.013708, -0.007400, 0.009594, 0.150780, -0.171507, -0.013119, 0.039563, -0.055514, -0.025243, 0.043690, 0.059507, -0.158563, -0.004706, -0.010756, -0.009843, 0.053711, -0.058276, -0.014434, 0.092583, -0.110982, 0.003658, 0.103427, -0.097430, -0.010895, 0.040848, -0.041731, -0.010054, 0.101470, -0.102293, 0.006613, 0.012400, -0.008818, 0.003302, -0.011509, 0.048159, -0.098989, 0.001754, 0.004282, -0.004205, 0.043603, -0.021247, -0.003821, 0.097249, -0.110266, 0.015509, 0.060724, -0.122599, 0.079725, -0.007106, -0.021841, -0.023112, 0.069813, -0.095427, -0.046400, 0.024939, -0.025960, 0.034482, 0.016005, -0.007036, -0.111225, -0.010006, 0.022227, 0.008736, 0.036672, -0.055745, 0.021881, 0.062245, -0.024844, 0.002773, 0.089519, -0.156578, 0.058015, 0.003119, -0.004772, -0.019812, 0.087168, -0.056429, -0.009131, -0.005119, -0.024286, -0.004093, 0.237241, -0.199635, -0.200912, -0.013618, -0.022553, -0.024322, -0.002799, -0.040682, 0.007534, -0.008662, 0.022276, 0.003263, -0.011359, 0.010058, 0.040150, 0.027674, 0.021094, -0.021523, -0.015727, 0.026473, 0.003447, -0.019082, -0.020375, -0.015986, -0.042949, 0.129548, -0.169142, -0.020693, -0.000472, 0.023893, 0.000453, -0.050007, 0.014080, 0.066092, -0.070955, -0.014513, 0.041444, -0.083971, 0.033217, -0.010387, -0.024433, -0.000971, 0.065618, -0.056072, -0.008151, -0.001380, -0.006836, 0.030565, -0.125117, 0.148156, -0.076142, -0.013262, -0.025551, 0.024573, 0.039864, -0.029200, -0.026356, 0.042485, -0.062314, -0.020004, 0.022520, -0.012062, 0.044031, -0.005512, -0.004513, 0.015186, 0.036837, -0.009089, -0.011662, -0.017532, 0.005004, 0.000711, -0.078726, 0.102229, -0.067421, 0.012463, 0.023252, -0.016194, 0.018853, -0.009278, -0.023061, 0.069824, -0.012936, -0.040853, -0.002551, 0.017648, -0.052664, -0.016666, -0.010477, 0.001760, 0.019629, 0.006350, -0.094480, -0.020236, 0.024877, -0.002388, -0.055043, 0.105254, -0.092750, 0.005789, 0.011976, -0.003805, 0.007419, 0.014625, -0.007129, 0.016216, 0.002596, 0.003093, 0.127799, -0.023077, -0.117724, -0.007591, 0.028520, -0.008426, 0.060195, -0.050613, -0.060286, -0.004851, -0.030884, -0.020600, -0.188978, 0.251814, -0.090904, -0.011002, 0.011337, 0.019198, 0.021655, -0.041604, 0.024179, 0.021939, -0.035764, 0.015874, 0.165352, -0.113856, -0.061878, -0.008239, -0.012194, 0.019023, 0.088827, -0.033925, 0.005211, 0.023887, -0.019728, -0.005064, 0.012521, 0.049547, -0.060826, -0.017711, 0.011063, -0.025664, 0.016032, -0.038415, 0.012437, 0.010786, -0.051247, 0.020684, 0.087179, -0.107175, -0.039639, -0.014492, 0.038506, 0.035717, 0.083368, -0.072519, -0.025565, -0.006705, -0.043265, 0.015101, -0.034301, 0.029111, 0.018504, -0.004036, 0.007547, 0.004391, -0.006364, 0.006517, -0.023787, 0.072634, -0.055717, -0.038513, 0.022119, -0.031790, -0.016903, -0.006717, 0.006977, 0.014032, 0.031218, 0.005937, -0.070034, -0.006077, -0.033814, 0.010934, 0.050158, -0.062450, -0.002626, -0.017201, -0.031178, -0.009201, 0.008067, -0.003637, 0.005546, 0.012782, -0.012404, -0.058664, 0.042417, -0.089776, 0.041953, -0.019562, 0.005427, -0.018188, 0.066403, -0.024619, -0.049501, -0.006329, -0.050247, 0.010003, 0.028708, 0.048015, -0.070680, 0.007228, 0.008508, 0.018647, -0.009233, -0.034650, 0.014614, -0.001941, -0.010873, -0.020826, 0.020758, -0.053771, 0.022132, -0.003711, 0.009316, 0.011586, -0.018748, -0.008902, 0.004613, 0.013731, -0.030741, 0.000038, 0.130019, -0.102832, -0.050318, 0.006345, 0.017871, 0.000998, -0.003010, 0.020193, 0.004390, -0.050871, 0.027771, 0.017796, 0.014446, -0.027852, -0.007669, -0.005333, -0.023581, 0.014198, 0.021279, -0.044847, 0.014409, -0.028929, -0.001111, 0.008962, 0.084187, -0.008190, -0.107845, -0.024379, -0.000875, 0.031979, -0.017483, -0.034104, -0.021445, 0.014841, -0.049498, 0.002779, 0.058150, -0.106133, 0.039609, -0.007258, -0.010374, 0.025774, -0.001938, -0.019698, 0.046781, 0.019927, -0.008983, -0.006281, 0.090257, -0.046243, -0.101439, -0.010188, -0.020682, 0.001536, 0.032592, -0.097742, -0.002762, 0.018848, -0.103917, 0.085259, 0.038179, -0.107196, 0.045929, 0.009442, -0.017907, -0.018213, 0.000498, -0.052457, 0.059364, -0.014814, 0.014909, -0.023001, 0.136858, -0.222799, 0.139437, -0.009249, -0.012835, -0.002413, 0.010312, -0.040363, 0.010431, -0.001821, -0.012015, 0.019871, 0.062891, -0.158998, 0.069956, -0.015513, -0.026130, -0.021177, -0.023728, -0.012586, 0.020524, 0.000899, -0.015025, 0.007323, -0.019982, -0.028645, 0.116374, 0.011594, -0.032689, 0.036825, 0.000950, -0.010006, -0.000291, -0.023301, 0.018706, -0.021994, 0.115043, -0.176992, 0.042933, -0.015634, -0.000421, 0.000275, 0.041582, -0.015783, -0.020094, -0.008466, -0.032966, -0.006082, 0.011699, -0.044344, 0.027590, 0.002949, 0.000484, 0.017180, 0.014476, -0.018321, -0.021603, 0.016363, -0.008571, 0.017979, 0.027957, -0.095448, 0.101989, -0.021455, -0.038924, 0.019765, 0.021738, -0.062070, 0.042948, 0.057200, -0.053096, 0.017730, 0.073031, -0.076206, 0.001722, -0.017075, 0.025048, 0.008040, -0.001543, -0.061485, -0.004519, 0.088796, -0.090169, -0.022584, 0.047338, -0.108231, 0.080598, -0.030294, -0.024691, -0.018128, 0.045537, -0.058105, 0.019475, 0.073701, -0.070507, 0.021855, 0.106207, -0.055419, -0.054689, 0.007342, 0.016106, 0.019851, 0.016636, -0.018079, -0.009301, 0.033720, -0.044946, 0.001365, 0.031796, -0.057931, 0.030402, 0.028017, -0.004012, 0.000941, -0.016282, -0.015875, 0.014259, 0.012420, -0.067258, 0.010285, 0.023758, 0.072975, -0.112186, -0.016540, 0.016315, -0.003140, 0.026144, -0.044015, -0.011091, -0.022626, -0.007288, 0.013637, 0.009423, -0.067903, -0.004132, 0.039312, -0.004870, -0.022920, 0.031662, -0.016761, 0.006811, 0.042335, -0.065007, 0.022629, 0.076218, -0.037532, -0.091074, -0.021359, -0.028668, -0.018031, 0.002708, -0.014632, 0.009227, -0.024583, -0.005249, 0.027988, 0.013316, -0.048071, 0.036878, 0.019278, 0.004731, 0.019458, -0.007663, -0.014206, 0.019529, 0.037730, -0.049852, -0.001350, 0.055063, 0.040408, -0.128061, 0.004053, 0.012149, -0.009867, 0.025481, -0.044616, 0.003083, -0.065667, 0.042298, -0.020614, -0.000769, 0.002942, -0.064154, -0.021812, 0.013006, -0.012614, 0.051139, -0.007846, -0.023982, 0.057205, -0.050605, 0.017978, 0.012634, 0.033643, -0.097097, 0.017603, -0.002998, 0.002653, 0.046620, -0.036219, 0.001221, 0.026766, 0.008538, -0.021298, 0.084870, -0.063726, -0.041844, -0.031479, -0.015825, 0.015625, 0.053327, -0.057661, -0.054725, 0.049210, -0.050821, 0.010606, 0.139982, -0.063479, -0.177086, 0.010558, 0.010411, 0.030408, 0.023302, -0.045417, -0.005947, 0.104308, -0.073703, -0.058288, 0.015139, 0.009519, -0.042734, 0.009144, -0.023742, 0.012555, 0.106736, -0.060195, -0.021167, 0.030145, -0.062355, 0.006578, 0.061109, 0.020310, -0.150406, 0.008542, -0.025492, -0.005262, 0.029655, -0.046039, 0.003359, 0.099151, -0.115283, -0.009428, 0.008778, -0.004161, -0.047921, -0.009682, -0.025726, -0.009080, 0.112360, -0.086515, 0.010737, 0.032128, -0.042108, 0.016590, 0.107112, -0.056493, -0.123449, 0.001288, -0.006371, -0.002965, 0.065780, -0.058240, 0.004635, 0.060611, -0.049739, -0.025197, -0.004740, -0.007865, -0.012335, -0.003582, -0.010863, -0.002211, 0.072672, -0.082097, -0.025301, 0.027055, -0.052017, 0.013429, 0.132531, -0.059036, -0.110203, -0.006597, -0.001652, 0.016710, -0.004431, -0.042165, 0.008482, 0.048793, -0.073772, 0.005088, 0.038658, -0.053034, -0.017743, -0.012554, -0.019743, -0.013109, 0.034118, -0.060105, 0.013893, -0.002852, -0.033631, 0.028986, 0.089490, -0.003563, -0.156088, 0.024431, -0.000647, -0.034007, -0.005622, -0.059945, -0.020971, 0.072477, -0.075830, 0.021311, 0.096413, -0.083330, 0.051634, -0.025203, -0.044328, 0.010906, 0.068103, -0.103202, 0.065673, 0.013758, -0.061936, -0.003858, 0.029209, -0.029231, -0.111071, 0.018757, -0.015382, 0.016564, 0.027629, -0.055603, -0.016454, 0.029237, -0.051985, -0.012514, 0.040985, -0.081121, -0.005114, -0.027619, -0.035305, -0.004161, 0.041858, -0.037666, -0.020709, 0.010358, -0.037512, -0.034798, 0.052828, -0.009445, -0.117684, -0.018014, 0.003900, -0.019339, 0.006284, -0.017593, -0.011822, 0.067834, -0.097208, 0.006941, 0.028371, -0.085566, 0.049449, -0.028798, 0.002322, 0.003935, 0.041499, -0.038442, -0.023683, 0.016220, -0.028909, 0.022534, 0.164528, -0.090690, -0.184742, 0.000682, 0.008609, 0.000197, -0.008156, -0.022562, -0.002504, 0.018648, -0.013038, 0.003367, 0.005615, -0.023848, 0.055329, -0.004233, 0.010035, 0.001091, 0.022289, -0.012666, 0.020040, 0.016175, -0.024273, 0.007443, -0.058323, 0.119504, -0.185166, 0.006548, 0.002524, 0.031733, 0.015577, -0.022915, -0.005131, -0.008524, -0.059524, 0.016701, 0.066681, -0.078672, 0.027415, -0.015132, -0.036485, 0.004187, 0.057618, -0.039742, -0.022992, -0.025686, -0.012261, -0.008560, 0.001528, 0.021311, -0.123376, 0.032017, -0.028458, 0.006518, 0.039211, -0.051410, -0.012574, 0.044096, -0.082819, 0.025362, 0.063097, -0.060808, 0.031038, -0.013304, -0.004809, 0.022854, 0.093696, -0.080346, -0.037029, -0.003672, 0.003540, 0.002554, -0.057936, 0.093529, -0.070425, -0.020458, -0.012231, 0.028204, -0.006654, 0.020748, -0.027363, -0.020507, -0.014779, -0.009964, 0.010100, -0.010236, 0.007026, -0.033656, 0.048491, 0.007061, 0.007771, -0.015197, 0.003623, 0.027542, -0.079426, 0.007063, -0.009360, 0.088796, -0.121192, -0.025084, -0.021594, -0.027594, 0.020166, 0.013115, 0.013952, 0.023394, -0.007473, -0.015634, -0.047294, 0.030137, -0.028433, -0.024245, -0.014743, 0.010783, -0.016236, 0.004427, 0.005586, 0.025678, -0.054070, -0.002384, -0.163061, 0.235252, -0.140141, 0.029515, 0.002641, 0.002278, -0.001618, -0.005910, 0.004072, 0.025215, -0.032625, 0.035612, 0.062184, -0.076326, 0.006809, 0.017108, 0.003445, -0.009019, -0.002736, -0.027237, -0.014203, 0.004870, -0.016009, 0.005786, -0.041900, 0.118024, -0.123069, 0.008485, -0.032771, 0.016500, 0.018709, -0.001525, 0.024943, 0.072424, -0.078494, -0.038418, -0.003566, -0.058786, 0.038113, -0.012158, -0.001632, -0.003572, 0.020017, -0.051547, -0.001563, 0.013880, -0.019423, 0.009960, 0.028663, 0.038298, -0.117248, 0.015718, -0.003307, 0.040713, -0.000036, 0.006507, 0.011977, 0.065868, -0.072244, -0.054479, 0.021186, -0.043133, 0.045031, 0.009302, 0.018018, 0.015400, -0.013721, -0.024140, -0.001584, -0.000715, 0.012404, 0.025253, 0.119471, -0.047068, -0.188042, -0.017153, -0.003597, 0.007908, 0.025916, 0.001344, 0.002794, 0.029883, 0.006488, 0.003917, -0.014581, -0.050273, 0.025700, -0.015965, 0.011651, -0.010201, 0.001321, -0.048304, 0.009426, -0.023970, -0.004696, 0.002857, 0.033268, 0.002989, -0.082757, 0.018471, 0.002212, 0.015454, -0.012090, -0.009888, 0.017382, -0.055526, 0.040425, 0.013076, -0.075558, 0.010647, 0.070152, -0.022960, -0.006899, -0.002424, -0.024900, -0.010933, 0.002746, 0.000250, -0.020598, 0.001023, -0.026025, 0.020385, 0.012267, 0.004498, -0.005342, 0.023972, -0.006099, 0.001375, 0.037296, -0.004767, 0.003581, -0.000232, 0.046349, -0.044813, 0.022900, 0.008704, -0.004043, 0.011187, 0.055051, -0.054815, -0.002335, -0.000051, 0.002533, 0.013353, 0.012813, -0.039828, 0.009864, -0.007038, -0.011558, 0.021479, 0.003381, -0.011163, 0.010004, 0.026974, -0.055365, 0.036031, -0.011602, -0.042019, 0.081289, -0.009104, -0.018662, -0.018649, 0.001412, -0.080946, 0.043452, -0.015924, -0.000917, -0.000595, 0.084564, -0.056896, 0.013735, 0.026718, 0.002971, 0.000418, -0.010095, -0.017571, 0.024243, 0.026072, -0.051279, 0.054704, 0.069393, -0.100095, -0.023713, -0.015842, -0.016388, 0.028904, 0.003352, 0.003777, 0.000546, -0.023982, -0.017889, -0.010457, 0.055508, -0.073015, 0.059669, -0.013131, -0.019516, 0.002995, 0.016663, -0.032381, 0.031639, -0.021434, -0.009725, 0.042467, 0.084240, -0.102419, 0.051956, -0.030595, -0.000893, -0.014779, 0.031668, -0.027406, 0.008892, 0.000210, -0.006190, 0.000487, 0.063932, -0.111787, 0.044288, -0.017828, -0.014640, -0.005981, -0.010715, 0.014358, -0.013314, 0.024269, -0.013277, -0.063851, 0.092480, -0.134055, 0.047817, -0.027729, 0.003763, 0.005048, 0.074829, -0.062467, 0.002573, 0.032771, -0.028006, -0.011447, 0.060757, -0.072319, 0.004974, 0.025080, -0.022260, 0.013405, -0.001303, -0.030451, 0.004092, 0.044866, -0.032638, -0.031699, 0.092843, -0.158221, 0.079964, 0.000260, -0.042175, 0.002213, 0.071061, -0.072692, 0.022738, 0.047303, -0.032500, 0.021260, -0.012088, 0.048655, -0.004732, 0.001067, 0.000676, -0.018894, 0.038325, -0.047181, -0.008109, 0.076739, -0.057749, 0.022199, 0.039192, -0.080007, 0.019461, 0.007776, -0.032712, 0.012398, 0.057674, -0.090429, 0.030692, 0.030276, -0.043679, -0.001938, 0.084500, -0.065303, -0.057266, 0.007302, -0.021847, 0.020716, 0.015267, -0.012147, 0.047503, 0.039877, -0.065874, 0.014373, -0.051672, 0.016742, 0.086344, 0.014561, 0.002187, -0.013483, 0.019772, -0.067609, 0.057767, 0.021958, -0.041637, 0.007887, 0.140224, -0.086427, -0.120585, 0.005176, -0.014273, 0.013592, 0.022749, 0.000974, 0.048542, -0.052201, -0.038644, 0.034788, -0.055218, 0.048503, -0.005074, 0.020192, -0.019757, 0.011406, -0.007179, -0.012810, 0.027412, 0.033442, -0.059251, 0.035253, 0.092935, -0.104667, -0.051567, -0.021204, -0.000197, 0.002275, -0.031561, -0.021576, -0.025181, -0.021788, 0.018879, 0.006887, -0.056292, 0.034913, -0.031541, -0.022259, -0.023115, 0.006169, -0.043651, -0.012802, 0.004806, 0.021964, -0.030910, -0.009377, 0.181441, -0.102597, -0.090715, -0.011472, 0.000354, -0.012368, -0.001333, -0.011917, -0.017124, -0.035904, 0.027367, 0.023723, -0.038477, 0.049037, -0.038786, 0.001957, -0.002858, -0.004157, 0.021309, 0.014358, -0.017023, 0.041957, -0.063731, 0.021461, 0.258038, -0.176857, -0.165435, -0.026113, 0.009585, -0.014524, 0.027345, -0.010510, -0.009026, 0.043952, -0.040647, 0.010611, -0.067122, 0.070894, -0.033399, -0.000880, -0.012505, -0.015055, 0.034045, -0.050730, -0.018811, 0.025172, -0.031363, -0.016050, 0.196650, -0.142548, -0.138316, 0.013899, 0.007514, 0.023456, 0.031590, -0.032501, -0.005644, 0.022747, 0.021985, -0.044019, -0.043250, 0.075843, -0.050620, 0.006566, -0.023932, 0.024419, 0.029484, -0.015866, -0.026726, 0.025806, -0.041450, 0.016054, 0.145891, -0.057957, -0.118489, 0.021410, 0.000919, 0.004891, 0.011104, -0.034089, -0.002775, 0.048221, -0.047149, -0.021289, -0.034163, 0.093585, -0.065249, 0.006508, -0.006286, -0.014783, 0.002174, 0.042618, -0.001501, 0.034346, -0.038528, 0.022840, 0.142555, -0.126170, -0.104649, 0.008294, -0.010859, 0.013590, 0.002464, -0.005021, -0.002990, 0.067220, -0.091093, 0.001896, 0.007410, 0.070801, -0.087239, -0.011447, -0.043141, -0.015048, 0.031825, -0.028935, -0.013262, 0.018463, -0.031000, -0.017021, 0.082384, 0.009015, -0.182250, -0.002656, -0.017613, -0.008940, 0.003452, -0.037453, -0.024065, 0.020169, -0.068109, -0.007965, -0.050544, 0.072247, -0.068620, 0.020792, 0.003194, 0.029514, 0.031818, -0.038163, 0.021724, 0.015277, -0.024354, 0.037323, -0.030400, 0.080069, -0.080654, 0.026804, 0.021450, -0.002274, 0.010999, -0.048213, 0.001382, 0.054881, -0.093197, 0.004300, -0.015909, 0.011169, -0.010322, -0.028832, -0.004412, 0.001791, -0.001208, -0.023259, -0.002420, 0.024949, -0.044268, 0.053311, 0.028476, -0.014772, -0.064452, 0.000456, -0.019840, 0.015805, 0.007729, -0.002682, 0.037951, 0.019907, -0.058391, 0.040061, 0.001782, 0.025423, -0.020745, 0.000715, -0.000244, 0.012221, 0.006899, 0.023849, -0.023883, 0.008552, -0.029169, 0.016854, -0.063473, 0.104272, -0.073323, -0.003157, -0.018137, -0.006547, 0.006416, -0.020498, 0.021825, 0.028575, -0.051248, 0.026754, -0.016010, 0.025499, -0.033039, 0.000554, -0.023663, 0.009183, -0.020258, 0.040308, 0.003657, 0.002866, -0.014304, 0.014288, 0.191307, -0.178254, -0.101650, 0.024799, -0.010430, -0.007776, 0.019580, -0.002839, -0.017154, -0.011895, 0.048605, -0.046298, -0.108930, 0.063086, -0.002736, 0.010594, 0.005035, -0.029461, -0.065979, 0.086579, 0.002705, 0.005377, -0.038063, 0.033096, -0.021373, 0.093280, -0.162218, -0.010851, -0.011378, 0.013542, -0.007693, -0.002701, -0.000181, 0.018048, -0.019033, 0.023473, -0.060360, 0.036008, 0.056154, 0.032375, -0.048080, 0.014644, 0.000334, -0.030978, 0.022555, -0.016941, -0.003739, 0.023141, 0.017481, 0.033732, -0.076945, -0.001162, -0.021022, 0.010965, 0.017960, -0.016955, 0.006681, 0.017478, -0.029382, 0.021822, -0.028169, 0.016174, 0.024160, 0.004098, -0.013148, 0.010075, -0.033294, 0.054728, 0.032356, 0.001738, -0.028940, -0.000774, -0.021100, 0.081707, -0.049056, -0.005829, -0.040259, 0.000791, -0.003266, 0.022162, 0.018971, -0.025418, 0.019833, -0.036088, -0.046271, 0.052465, 0.048657, -0.005509, 0.032450, 0.003260, -0.036753, 0.016103, 0.001614, 0.007131, -0.053059, 0.010055, 0.011429, 0.039931, -0.048210, 0.007246, -0.018242, 0.004348, -0.010864, -0.003524, -0.010143, -0.012949, 0.033364, -0.008072, -0.057133, 0.032216, 0.025930, -0.022039, -0.005826, 0.005236, -0.015217, 0.027794, -0.054244, -0.009191, -0.047592, 0.011211, -0.149893, 0.199988, -0.144360, -0.000984, -0.017123, 0.001480, 0.021834, -0.019983, 0.023899, 0.041798, -0.019417, -0.030611, -0.016854, -0.005057, -0.003410, -0.008879, 0.007017, 0.005433, 0.050257, -0.067109, -0.022524, -0.008154, -0.009358, -0.012861, -0.010054, 0.120258, -0.118545, -0.040223, -0.016672, -0.013514, 0.037285, -0.019667, 0.024609, 0.053182, -0.077818, -0.005158, 0.040522, -0.083121, 0.031834, -0.011295, -0.020943, 0.016317, 0.083861, -0.108360, 0.019538, -0.015178, -0.033609, -0.002956, 0.205180, -0.129257, -0.148825, -0.012902, 0.009099, -0.000039, 0.000776, -0.015672, -0.004543, 0.074691, -0.059571, -0.044455, -0.079443, -0.024755, 0.070538, -0.011973, -0.002102, 0.023910, -0.000190, 0.007356, 0.036551, -0.022321, -0.004394, 0.022988, 0.044020, -0.007902, -0.107961, -0.011465, -0.019344, 0.001941, 0.018703, 0.007418, -0.003024, 0.024601, 0.004628, 0.002942, 0.016869, -0.036914, 0.077604, 0.003873, 0.014359, 0.026104, 0.021736, -0.010703, 0.027380, -0.015433, 0.001455, 0.000152, 0.055971, -0.004396, -0.085734, -0.007829, -0.001264, 0.002636, -0.015262, 0.010071, 0.011603, -0.009100, 0.006621, -0.014917, -0.049494, 0.048349, 0.018483, -0.001988, 0.007777, 0.032546, -0.043362, 0.033714, -0.029759, -0.013731, -0.007518, 0.005077, 0.045481, -0.043004, -0.052717, -0.023456, 0.009308, 0.000488, -0.023793, -0.041283, -0.003582, -0.080821, 0.049526, 0.046119, -0.000193, 0.022603, 0.036477, 0.004496, -0.023462, 0.004351, -0.037052, 0.040075, 0.036881, -0.001192, 0.008806, -0.003679, 0.143325, -0.129319, -0.050471, -0.006449, -0.005555, 0.042961, 0.009256, -0.035556, 0.011867, 0.010168, -0.050288, 0.035050, -0.041762, -0.009903, 0.061130, -0.012038, 0.018534, 0.037420, -0.016904, -0.036237, 0.053769, -0.005625, -0.020205, 0.001591, 0.077390, -0.070305, -0.099419, 0.011098, -0.027156, -0.007023, -0.029568, -0.021493, 0.013385, -0.028919, -0.002123, 0.056170, 0.034565, -0.036788, 0.047968, -0.011684, 0.009680, -0.006236, -0.002451, -0.020498, 0.064897, 0.006529, -0.037027, 0.013692, 0.102951, -0.154820, 0.007947, -0.024701, 0.002704, -0.004339, 0.013932, -0.002138, 0.017251, -0.000111, -0.033225, 0.032341, 0.011461, -0.087191, 0.077696, -0.007719, -0.012099, 0.002169, 0.064610, -0.087175, 0.025232, 0.004425, -0.019151, -0.006287, 0.077043, -0.095581, 0.036197, 0.001185, -0.017356, 0.032780, 0.001829, -0.015032, -0.022122, -0.002661, 0.007218, -0.029636, 0.049614, -0.146977, 0.093033, 0.006558, -0.016432, 0.004791, 0.022859, -0.038135, 0.060488, -0.025827, 0.008485, -0.011986, 0.046412, -0.067748, 0.017630, 0.011551, 0.022234, 0.018297, -0.008738, -0.029151, 0.031794, 0.037998, -0.055690, 0.006059, 0.074772, -0.150816, 0.119211, -0.000142, -0.009245, -0.009101, 0.101700, -0.113812, 0.058881, 0.017577, -0.040847, -0.003760, -0.068418, 0.089466, -0.011299, -0.000101, 0.012154, -0.024484, 0.017952, -0.026186, -0.003282, 0.124317, -0.083659, -0.042014, 0.077808, -0.115046, -0.012531, 0.017324, 0.001415, -0.002600, 0.055037, -0.185610, 0.080197, 0.041263, -0.055166, 0.020656, 0.111609, -0.079606, -0.057298, 0.013855, -0.005993, -0.015226, 0.020759, -0.023920, -0.007311, 0.083223, -0.123851, 0.018333, -0.138092, 0.036253, 0.132125, -0.003839, -0.038048, -0.004097, -0.003042, -0.108911, 0.094097, 0.034544, -0.068045, 0.022320, 0.079818, -0.078421, -0.058047, 0.001352, -0.000891, 0.014734, -0.027749, 0.007768, 0.027267, -0.065034, 0.005860, 0.097414, -0.088887, 0.016380, 0.056640, -0.001782, 0.020840, -0.006267, 0.001744, -0.016515, 0.026645, 0.037225, -0.016518, 0.020019, 0.110967, -0.092450, -0.060036, 0.016236, -0.002964, 0.022697, -0.032292, -0.017525, 0.028509, -0.058476, 0.026874, 0.002280, -0.175530, 0.136732, 0.027485, 0.011018, 0.010611, -0.001727, -0.033034, -0.014915, 0.013949, 0.033884, -0.048300, -0.001715, 0.220346, -0.234191, -0.075698, 0.016459, -0.003554, 0.018587, -0.038803, 0.021045, 0.016342, -0.047267, 0.016936, -0.012420, -0.164934, 0.206542, -0.060097, -0.015388, -0.036400, 0.019145, -0.034393, 0.052466, -0.029538, -0.020136, 0.004823, 0.010156, 0.322661, -0.289275, -0.099940, -0.000857, -0.002309, 0.011873, -0.033870, -0.004842, -0.002635, -0.024717, 0.024502, -0.044142, -0.168524, 0.220876, -0.062601, 0.008612, -0.021109, -0.005571, -0.089684, 0.081517, 0.007992, -0.020623, -0.016742, 0.004599, 0.252631, -0.200063, -0.135881, 0.024196, -0.012765, 0.030236, 0.012556, 0.007410, -0.013721, -0.020891, 0.002829, -0.025901, -0.120342, 0.151501, -0.013544, -0.008356, -0.046021, 0.009003, -0.069391, 0.067399, 0.014824, 0.013986, -0.009964, -0.017175, 0.094614, -0.048543, -0.087837, 0.014747, 0.007389, -0.009126, 0.016962, -0.049473, -0.016568, -0.003280, 0.015571, -0.034328, -0.051265, 0.145414, -0.094679, 0.022824, -0.020649, -0.010644, -0.040264, 0.026833, -0.020758, 0.022220, -0.027290, 0.029883, 0.137605, -0.097386, -0.127376, -0.017717, -0.030820, 0.025899, 0.038411, 0.003420, -0.012171, 0.032223, -0.074574, -0.000333, -0.017334, -0.003177, -0.055023, 0.007106, -0.034691, -0.003878, 0.014663, 0.005910, -0.025056, -0.004148, -0.053196, 0.002901, 0.106502, -0.032246, -0.155680, 0.004519, 0.010132, -0.012468, 0.014424, -0.037309, 0.017945, 0.027424, -0.021385, -0.003867, 0.008526, 0.019991, -0.036671, -0.007991, -0.023500, 0.009005, -0.007947, 0.018505, -0.009826, 0.011838, -0.038969, 0.000304, 0.084217, -0.022503, -0.128408, -0.009148, -0.019172, 0.029167, -0.001911, -0.018571, 0.022261, 0.020175, -0.025379, 0.026311, 0.054171, -0.066044, -0.079032, -0.007171, 0.009300, 0.013186, 0.027155, 0.019491, -0.016696, -0.002299, -0.008530, 0.015208, -0.073815, 0.074071, -0.014690, 0.009659, -0.006798, 0.038065, 0.030538, -0.021799, 0.007235, 0.081127, -0.018423, -0.051029, 0.036819, -0.022775, -0.057221, -0.006067, 0.016795, 0.014633, 0.008286, 0.031571, -0.067888, -0.007842, -0.036931, -0.003566, -0.017643, 0.051680, -0.026284, -0.006631, 0.015803, 0.032283, -0.013225, -0.008624, -0.011148, 0.082954, -0.023414, -0.051435, 0.027293, -0.016354, -0.035632, 0.004185, -0.011645, 0.004955, -0.005971, 0.046210, -0.019140, -0.014171, -0.048989, 0.003129, 0.130827, -0.072411, -0.110313, -0.014005, -0.001276, 0.007206, -0.008021, -0.028359, 0.014717, 0.024562, 0.016926, 0.014913, -0.069867, 0.096351, -0.024341, -0.020608, -0.007881, 0.007596, -0.045856, 0.053657, 0.008769, 0.016685, -0.039844, 0.014983, -0.064329, 0.110560, -0.152669, -0.000450, -0.020691, -0.006085, 0.020130, -0.000505, 0.014310, 0.017934, -0.028975, 0.026021, -0.085046, 0.034953, 0.040608, 0.039556, -0.013271, -0.001880, -0.033255, 0.017126, 0.002816, 0.004300, -0.069588, -0.016034, 0.030209, -0.025813, -0.095829, -0.003186, -0.011061, 0.008912, 0.014825, -0.020192, 0.014988, -0.011693, -0.018090, 0.014362, -0.028593, 0.012305, -0.022392, 0.026238, -0.019615, -0.015301, 0.004744, 0.026503, -0.015028, 0.023153, 0.005283, 0.022571, 0.083187, -0.059781, -0.052539, -0.004842, 0.001310, 0.024058, -0.000837, 0.008887, 0.002048, 0.008707, 0.006563, -0.053724, -0.038143, 0.049432, -0.001293, -0.005995, -0.003552, 0.020275, -0.068656, 0.067675, -0.025949, -0.018170, 0.010899, -0.004267, 0.024252, 0.002269, -0.079456, -0.032898, 0.009381, 0.033052, -0.013053, 0.006351, -0.018858, -0.057533, 0.073840, -0.026031, -0.119784, 0.106264, -0.028397, 0.012911, -0.025062, -0.013547, -0.007321, 0.062801, -0.024758, 0.003084, -0.045387, 0.044565, 0.014919, 0.071667, -0.087635, 0.026596, -0.005102, 0.022555, -0.034040, 0.002289, -0.016477, 0.025410, 0.003087, -0.043747, -0.079494, 0.069105, -0.009295, -0.000474, -0.011822, -0.024777, 0.001288, 0.014647, -0.049832, -0.005290, -0.048272, 0.007397, 0.096940, -0.014479, -0.132434, -0.008357, -0.024491, -0.002888, 0.023333, -0.036199, -0.010368, 0.067948, -0.075411, -0.019998, -0.059202, -0.023651, 0.063236, -0.004155, -0.011483, 0.038659, 0.010872, -0.002923, -0.004609, -0.033213, 0.008489, 0.012239, 0.074064, -0.045247, -0.134284, -0.014988, -0.028590, -0.009637, 0.005470, -0.022326, -0.001620, 0.049337, -0.047522, -0.017374, -0.029416, 0.036370, 0.018542, -0.036842, 0.025516, -0.023494, -0.009975, 0.023232, -0.031058, 0.003512, -0.014522, 0.028260, -0.103631, 0.140347, -0.129014, 0.008742, 0.003756, -0.009706, 0.006602, -0.007969, 0.003307, 0.016520, -0.042700, 0.008997, 0.061146, -0.057237, -0.006640, -0.006977, -0.014021, 0.020978, 0.021757, -0.050046, 0.026646, -0.003866, 0.000148, 0.016170, 0.044406, -0.005110, -0.146924, -0.010426, -0.016197, 0.035117, -0.018703, 0.008547, 0.009275, 0.015734, -0.032935, 0.000153, 0.004256, -0.022658, 0.038951, 0.007957, -0.000034, 0.009909, -0.050507, 0.072565, -0.015474, 0.022706, -0.022477, 0.026586, 0.006061, 0.042187, -0.048674, -0.016124, -0.006250, -0.013116, 0.006856, -0.001793, -0.017398, -0.009263, 0.026875, 0.030691, 0.011101, -0.055745, 0.042397, -0.018050, -0.007595, 0.024912, 0.000501, 0.018940, 0.013180, -0.003132, -0.025857, 0.023173, 0.131280, -0.052689, -0.066614, -0.012217, -0.007837, 0.021343, 0.034704, -0.007473, 0.016695, -0.018810, -0.005830, 0.025759, -0.007228, -0.080028, 0.104072, 0.002403, 0.004338, 0.001654, -0.045405, -0.019828, 0.077568, 0.009429, -0.020056, 0.017185, 0.104034, -0.081343, -0.073973, -0.017382, -0.021570, -0.000309, 0.007599, -0.023530, 0.006388, -0.001561, -0.071896, 0.056914, 0.039712, -0.154835, 0.111438, 0.018268, -0.011803, 0.023221, 0.002003, -0.075107, 0.099385, 0.008685, -0.055670, -0.018869, 0.132058, -0.117871, 0.042356, 0.000699, -0.007324, -0.017308, 0.002750, -0.006915, 0.032438, 0.020077, -0.052704, 0.030763, 0.047489, -0.152893, 0.119386, 0.013194, -0.040694, -0.011371, 0.019991, -0.043019, 0.059962, 0.002498, -0.018017, 0.027604, 0.133160, -0.159637, -0.046022, 0.002539, -0.045799, -0.001299, -0.036490, -0.013427, 0.036183, 0.039576, -0.039942, 0.020975, -0.013861, -0.103264, 0.134825, 0.015846, -0.002520, 0.015546, 0.019641, -0.040998, 0.011990, 0.009486, 0.018124, 0.034116, 0.041785, -0.056486, 0.015147, -0.027188, -0.014616, 0.008729, -0.014784, -0.033583, 0.050657, 0.036725, -0.006491, -0.036686, -0.014472, -0.065936, 0.152234, 0.003467, -0.030050, 0.012708, 0.021759, -0.035645, 0.017800, 0.016817, -0.009540, 0.037472, 0.067353, -0.081857, 0.028716, 0.026062, -0.017287, -0.010890, -0.009556, -0.018543, 0.012215, 0.136818, -0.089790, -0.011405, -0.013671, -0.015285, -0.016327, 0.031122, -0.000822, -0.010022, 0.081776, -0.102740, -0.051516, 0.026448, -0.027829, -0.017375, 0.134858, -0.046882, -0.083206, -0.007052, -0.023234, 0.012792, 0.020376, -0.068069, 0.005337, 0.086773, -0.125212, 0.029272, -0.048016, 0.005967, 0.011883, 0.046143, -0.016923, 0.001022, -0.006392, -0.031839, 0.043771, -0.011073, -0.022207, 0.007612, 0.205618, -0.203186, -0.065517, -0.016376, 0.004929, 0.015943, 0.002378, 0.015891, 0.011153, -0.036823, -0.056010, 0.079516, 0.030574, -0.036838, 0.040889, 0.017117, 0.001853, -0.000236, -0.022715, -0.036925, 0.092139, 0.027064, -0.023808, 0.033269, 0.212883, -0.218248, -0.065618, 0.002991, -0.007368, -0.012098, -0.008790, 0.044880, -0.014025, -0.017276, -0.059919, 0.037796, -0.066661, -0.010035, 0.090543, -0.006953, -0.029080, 0.007626, -0.087139, 0.025642, 0.096238, -0.002442, -0.005476, 0.023593, 0.259280, -0.208036, -0.085599, 0.010320, 0.006017, 0.025074, -0.036032, 0.019722, 0.009767, 0.025821, -0.056445, 0.034243, -0.130298, 0.095863, 0.001467, -0.002553, -0.009831, 0.020525, -0.074430, 0.081880, 0.061611, 0.000178, 0.008595, 0.034164, 0.273860, -0.282016, -0.066186, 0.016924, -0.010435, -0.005158, -0.026254, 0.049162, 0.011256, -0.037717, 0.025165, 0.042368, -0.163026, 0.182400, -0.030323, 0.013421, -0.013955, -0.012887, -0.141842, 0.100804, -0.007766, 0.022715, -0.020621, -0.010344, 0.152603, -0.090987, -0.111061, 0.005910, 0.012482, 0.014384, -0.003791, 0.037108, 0.007541, -0.059358, 0.090278, 0.000169, -0.122284, 0.166694, -0.028214, 0.000753, -0.035488, 0.016650, -0.090082, 0.093945, -0.010433, 0.028398, -0.040243, 0.015299, 0.002941, 0.032455, -0.077028, -0.013363, -0.007882, 0.011478, -0.028433, 0.007003, -0.031523, -0.028224, 0.046665, -0.005942, -0.004458, 0.016283, -0.060906, -0.027367, -0.006654, 0.009405, 0.021169, 0.007838, -0.004979, -0.006103, 0.002736, 0.024892, 0.024077, -0.024403, -0.167951, -0.002090, -0.007345, 0.018213, 0.007668, -0.035464, 0.018996, 0.030448, -0.029261, 0.023985, 0.081505, -0.020716, -0.065795, -0.013793, -0.022198, 0.006736, 0.050725, -0.020415, -0.013639, -0.009140, 0.000569, -0.000474, 0.017018, 0.055262, -0.123432, -0.016458, -0.024750, 0.001593, -0.000115, 0.010387, -0.020590, 0.037370, -0.035637, 0.041858, 0.070693, -0.056587, -0.069665, 0.000257, 0.014683, 0.013177, 0.023478, 0.030142, 0.006784, 0.009872, -0.024806, 0.029993, -0.104570, 0.125318, -0.089408, 0.031713, 0.010682, 0.011362, -0.003013, -0.019683, -0.000331, 0.058242, -0.053686, 0.009071, 0.049197, -0.026127, -0.037696, 0.004517, -0.016207, 0.012570, 0.076880, -0.040836, -0.054429, -0.012233, -0.056115, -0.003820, -0.076606, 0.129441, -0.161259, -0.012729, -0.021775, 0.016635, -0.003298, -0.004049, 0.024203, 0.071443, -0.084195, 0.005783, 0.054671, -0.053440, -0.065645, -0.013105, 0.001918, -0.002477, 0.059864, -0.083983, 0.000504, 0.019603, -0.038097, 0.009991, -0.009639, 0.059151, -0.091503, 0.002157, -0.017977, 0.014932, -0.012865, 0.033344, -0.002270, 0.071281, -0.036634, -0.015470, 0.069557, -0.044532, -0.038554, -0.008743, -0.027575, -0.012447, 0.065788, -0.047566, -0.025498, -0.021526, -0.015073, -0.005504, 0.104663, -0.093613, -0.138605, -0.013422, -0.026726, -0.006951, -0.014749, 0.034744, 0.005306, -0.028891, 0.027752, 0.015517, -0.053748, 0.033979, -0.049181, -0.021703, -0.005990, -0.005805, -0.019845, 0.045325, -0.025085, 0.004706, -0.029439, 0.004150, -0.058877, 0.076950, -0.144496, -0.029475, -0.015914, 0.017409, -0.011306, 0.020664, -0.031968, -0.048469, 0.097495, -0.013075, -0.033361, 0.040519, 0.006257, 0.000574, -0.007690, 0.001632, -0.047389, 0.030726, 0.038782, 0.003969, 0.006876, -0.002567, -0.011635, 0.040623, -0.116072, -0.014114, -0.019467, 0.004477, -0.001107, -0.020376, -0.022842, 0.017297, -0.017004, -0.011312, 0.001044, -0.009216, -0.075898, 0.002286, -0.018804, 0.002224, 0.018083, -0.005876, -0.044194, -0.013755, 0.004798, -0.004310, 0.088800, -0.042863, -0.117360, -0.011085, 0.001574, -0.018826, 0.003213, 0.008785, -0.009666, 0.004473, -0.003688, -0.006559, -0.029738, -0.001761, -0.008134, -0.014757, 0.023947, 0.006445, -0.067613, 0.069907, -0.011525, 0.029983, -0.020854, -0.003531, 0.075513, 0.002000, -0.150768, -0.026640, 0.007327, 0.017457, -0.037014, 0.042866, 0.015531, -0.009468, 0.048096, -0.054893, -0.060003, 0.054567, 0.009805, 0.027052, -0.035565, 0.018540, -0.011986, 0.040326, -0.008722, -0.006412, -0.019191, 0.018738, 0.107275, -0.040989, -0.177800, -0.006847, -0.026050, 0.010359, 0.003817, 0.005120, 0.033406, 0.013265, 0.015187, -0.032443, -0.059590, 0.034841, 0.050461, -0.008085, 0.002992, 0.026702, -0.040310, 0.073122, 0.015572, -0.003508, -0.037365, 0.001612, 0.129259, -0.062398, -0.205311, 0.005704, 0.003994, 0.002672, 0.030084, -0.033558, -0.008807, 0.007261, -0.022973, 0.030119, -0.070874, 0.089182, 0.040552, -0.017469, -0.036836, 0.016034, -0.044840, 0.056159, -0.005760, -0.031805, -0.004479, -0.003191, 0.012458, 0.044180, -0.147854, 0.014698, -0.002205, 0.014070, 0.032224, 0.007043, 0.012268, -0.008262, 0.001703, 0.018553, -0.001916, 0.016191, 0.002995, -0.014295, 0.010821, 0.002590, 0.026576, -0.008029, -0.013816, -0.034829, 0.026310, 0.010995, -0.076373, 0.145616, -0.117131, 0.007861, -0.003547, 0.011073, -0.003552, -0.051187, 0.007118, 0.022116, -0.013251, -0.011660, 0.095492, -0.076120, 0.018758, -0.008420, -0.029871, 0.014744, 0.029139, -0.020944, -0.004654, -0.008507, 0.006395, 0.011226, -0.006135, 0.037675, -0.104137, -0.014540, 0.003927, 0.010621, 0.006240, -0.037095, -0.008319, 0.068229, -0.070145, 0.027615, 0.089547, -0.104022, 0.005190, -0.025459, -0.030915, 0.016408, -0.001993, 0.035289, -0.010762, -0.007849, -0.049310, 0.005889, -0.055466, 0.088783, -0.036801, 0.006082, -0.036982, 0.009720, 0.007005, -0.021529, 0.021725, -0.000257, -0.000097, -0.009761, 0.105316, -0.150918, 0.043757, 0.002176, 0.036336, 0.016249, -0.041047, 0.033310, 0.001840, 0.022575, -0.019830, 0.016429, -0.045208, 0.146892, -0.140101, -0.031849, -0.021309, 0.032266, -0.022132, -0.012951, 0.004930, 0.029921, -0.030632, 0.026427, 0.109978, -0.220770, 0.126150, -0.030034, 0.011424, 0.002515, 0.026015, -0.068512, 0.044009, 0.017401, -0.030428, 0.014217, 0.008268, 0.068854, -0.149877, -0.003778, 0.000375, 0.029361, -0.000413, -0.022506, 0.030347, 0.024337, -0.114053, 0.045508, 0.105352, -0.205448, 0.125407, -0.030955, 0.007533, -0.030358, 0.068229, -0.135782, 0.081021, 0.027983, -0.033825, -0.004591, 0.024196, -0.073062, 0.002161, -0.038999, -0.024523, 0.023072, -0.008650, -0.038571, 0.012716, 0.074463, -0.117227, 0.028547, 0.114690, -0.196989, 0.108458, 0.019476, -0.031147, -0.000931, 0.094346, -0.156405, 0.083515, -0.026346, -0.026235, 0.032086, 0.230829, -0.236668, 0.010808, -0.009572, -0.012022, -0.022413, 0.009417, -0.018456, 0.043899, 0.014170, -0.029487, 0.014396, -0.029672, -0.077569, 0.186151, -0.012395, -0.023680, -0.006314, 0.009644, -0.068654, 0.021216, -0.007218, 0.014048, -0.011419, 0.139016, -0.125077, -0.050071, -0.020111, -0.033696, 0.037105, -0.021049, -0.018920, 0.002493, 0.024142, -0.041577, 0.009677, -0.044970, -0.004265, 0.152857, 0.038395, -0.003109, -0.027159, -0.019668, -0.015367, 0.058960, -0.015744, -0.007100, 0.027348, 0.059440, -0.053851, -0.017182, -0.015864, -0.021339, 0.021620, -0.002170, -0.014850, 0.012676, 0.098996, -0.057195, -0.063992, -0.003930, 0.021004, -0.056402, -0.004818, 0.002961, 0.011649, 0.041281, -0.019861, 0.021963, -0.004295, -0.035663, 0.035479, 0.073482, -0.022308, -0.111690, -0.004138, -0.008411, -0.001065, 0.037918, -0.067355, 0.020690, 0.089948, -0.113096, -0.004664, 0.067458, -0.049578, 0.008656, 0.018704, -0.031073, -0.008168, 0.045937, -0.081111, 0.047235, -0.001193, -0.011581, -0.009418, 0.092838, -0.040996, -0.118569, 0.001061, 0.003643, 0.011715, 0.011806, -0.048110, 0.047303, 0.102559, -0.129274, 0.045853, 0.118987, -0.118480, -0.008413, 0.002985, -0.022999, 0.009467, 0.044440, -0.065017, 0.034976, -0.022331, 0.019491, 0.007797, 0.090456, -0.048242, -0.082162, -0.007209, 0.004317, -0.007967, -0.024937, -0.014062, 0.011538, 0.022820, -0.124336, 0.028053, 0.106212, -0.084226, -0.024388, 0.008017, -0.024472, 0.008977, -0.012111, -0.042799, 0.043338, -0.028808, 0.021947, 0.010635, 0.125621, -0.100386, -0.100342, -0.017788, -0.006358, 0.002142, -0.023977, 0.008269, 0.002375, 0.014094, -0.081125, 0.026673, -0.010072, -0.001941, 0.016278, -0.007950, 0.001568, 0.003829, -0.039763, -0.004145, 0.046499, -0.006180, 0.022766, -0.007487, 0.252706, -0.238956, -0.134590, -0.018261, -0.009547, 0.000269, 0.008711, 0.041257, 0.017803, -0.082491, 0.020643, 0.068108, -0.028105, 0.013905, 0.060442, -0.010728, -0.011953, -0.004374, -0.063864, 0.065150, 0.064426, 0.027492, -0.029759, 0.031696, 0.258518, -0.216650, -0.098178, 0.007500, -0.012281, 0.015186, -0.038639, 0.042392, -0.020305, -0.057836, 0.093030, 0.015714, -0.003145, -0.020762, 0.013687, -0.025142, -0.014117, 0.015103, -0.017549, 0.035212, 0.030609, 0.028143, -0.007642, 0.037078, 0.089862, -0.063931, -0.089859, -0.013567, -0.030669, -0.009369, -0.002761, 0.013527, -0.005948, -0.006790, 0.015667, -0.005021, 0.030510, 0.067426, -0.117491, -0.033397, -0.000979, 0.005909, 0.010800, 0.010068, -0.013656, 0.035104, -0.017848, 0.008524, 0.110434, -0.064377, -0.104171, 0.005695, 0.011469, -0.000581, -0.038027, -0.002875, 0.019871, 0.032618, -0.035088, -0.001734, -0.041288, 0.087493, -0.085268, 0.004912, -0.019948, -0.005300, 0.036829, 0.007068, 0.009481, -0.010411, 0.014565, 0.040529, 0.135628, -0.068367, -0.168036, 0.000964, -0.020458, 0.027488, 0.002832, -0.012179, 0.011830, -0.053717, 0.037240, -0.008314, -0.079753, 0.130629, -0.056175, -0.014599, -0.021048, -0.015921, -0.008756, -0.029857, -0.013928, -0.007225, -0.006936, 0.010184, 0.122072, -0.053847, -0.114221, -0.009258, -0.015748, -0.003491, -0.013235, 0.029776, 0.013391, -0.010528, 0.009221, 0.035020, -0.056673, 0.101600, -0.062319, -0.030057, -0.010211, -0.008321, 0.018068, 0.002881, -0.048948, -0.002262, 0.015893, 0.007460, 0.084210, -0.065326, -0.093547, -0.007326, 0.009550, -0.026953, -0.029899, 0.036739, -0.020104, 0.047344, -0.029912, -0.010497, -0.038679, 0.069282, -0.059168, -0.008988, -0.003879, 0.005356, 0.038107, -0.032242, -0.020983, -0.014349, -0.008651, -0.014086, 0.056672, -0.055454, -0.046396, -0.020875, -0.012498, -0.014703, 0.010884, 0.001017, 0.001980, 0.046154, -0.024254, -0.018968, -0.072386, 0.070904, -0.032474, -0.005060, -0.011923, 0.018967, -0.052626, 0.045550, -0.015426, -0.017555, -0.035348, 0.012055, 0.111689, -0.080387, -0.069932, -0.002643, -0.002739, -0.002189, 0.011219, -0.000734, -0.020672, 0.010598, 0.012170, -0.031266, -0.043333, 0.092094, -0.118792, -0.009602, -0.022885, -0.000845, -0.063360, 0.061764, -0.079768, 0.013856, 0.007220, 0.010052, -0.100773, 0.133708, -0.052940, -0.032689, -0.018754, -0.005874, -0.009661, 0.027410, 0.013948, 0.007280, -0.011072, 0.022108, -0.047267, 0.090524, -0.063741, -0.002982, -0.031519, -0.027114, -0.072884, 0.074609, -0.052932, 0.025772, -0.000951, 0.008994, -0.182744, 0.172662, 0.025455, 0.008892, 0.024490, -0.008484, -0.000733, 0.031106, -0.010488, 0.049096, 0.005403, -0.040003, 0.027628, -0.000597, -0.096560, -0.043571, 0.028920, 0.002552, 0.019979, -0.040368, -0.046225, -0.008582, -0.027471, 0.011142, 0.111910, -0.053530, -0.086132, -0.010561, -0.000383, -0.013412, -0.019367, -0.009536, -0.032014, 0.065238, -0.042170, -0.036012, -0.044061, 0.026059, -0.066272, -0.024658, 0.008783, 0.010910, -0.009524, 0.022655, -0.088647, -0.003343, -0.018380, 0.022267, 0.028558, 0.040398, -0.194792, -0.000844, -0.000959, -0.024449, -0.009632, -0.005994, 0.009290, -0.010961, 0.012278, -0.039004, 0.009770, -0.033059, -0.038519, 0.001046, -0.011211, -0.006066, 0.026767, -0.022242, -0.009992, -0.001360, 0.031169, 0.026314, 0.078256, 0.020403, -0.222612, -0.022600, -0.003827, -0.008421, 0.022660, -0.029618, -0.015142, 0.039986, -0.037905, 0.001004, 0.017927, -0.069245, 0.033352, 0.030320, -0.022060, -0.002934, -0.024784, 0.017511, 0.055007, -0.019820, -0.015730, 0.024580, 0.053655, 0.044538, -0.196457, 0.005980, -0.040776, -0.001367, 0.004920, -0.051576, 0.012965, 0.002677, -0.031568, 0.025713, 0.029814, -0.059935, 0.008701, -0.049742, 0.028228, -0.000797, 0.015550, 0.012572, 0.019475, 0.005187, -0.057814, 0.015032, -0.054949, 0.153595, -0.174747, -0.010401, -0.006972, 0.008538, 0.020084, -0.050964, 0.003513, -0.018630, 0.034395, 0.046546, 0.058658, -0.054282, 0.010032, -0.022760, -0.018379, -0.025309, -0.019416, 0.004512, -0.007136, -0.019991, -0.009049, 0.017900, -0.167704, 0.216445, -0.131997, -0.012696, 0.032489, 0.008359, -0.000747, -0.031912, 0.022735, 0.010917, 0.011027, 0.040308, 0.126830, -0.164502, 0.019671, 0.013717, -0.002862, 0.022194, 0.070864, -0.091931, -0.013269, 0.014285, -0.033577, -0.013141, -0.052712, 0.073516, -0.061045, -0.012790, -0.031138, 0.026499, -0.009660, -0.059708, 0.020386, 0.058303, -0.057697, 0.035443, 0.071249, -0.097376, 0.034865, -0.005265, 0.024670, 0.021363, 0.048146, -0.020595, -0.022581, -0.011560, -0.064074, 0.034501, 0.005546, 0.044056, -0.054430, -0.003955, -0.014679, 0.028508, -0.018322, -0.007723, -0.001171, -0.045050, 0.047844, 0.004033, 0.071499, -0.092343, 0.044982, -0.018062, 0.008880, -0.016674, 0.018138, -0.020468, -0.007501, -0.009539, -0.010324, 0.019192, -0.110455, 0.152774, -0.085504, -0.032853, -0.016597, 0.029596, 0.017929, -0.040463, -0.016571, -0.017450, 0.041628, 0.042350, 0.117868, -0.166227, 0.026309, -0.027041, 0.012678, 0.007800, 0.077578, -0.124739, 0.041370, 0.002887, -0.038373, 0.032497, -0.000855, 0.087955, -0.093199, -0.001171, 0.011837, -0.002746, 0.015224, -0.054973, 0.012456, 0.062723, -0.126227, 0.061748, 0.075384, -0.151900, 0.095670, 0.004579, -0.030726, -0.000587, 0.088840, -0.108148, 0.044182, 0.017424, -0.043995, 0.026116, -0.046884, 0.072237, -0.062757, -0.007086, -0.007074, -0.012986, 0.013117, -0.072613, 0.034317, 0.111052, -0.160640, 0.036449, 0.016039, -0.039664, 0.076944, -0.014661, -0.016732, 0.012303, 0.038063, -0.066167, 0.066497, -0.010969, -0.047048, 0.044856, 0.023371, -0.028454, 0.010394, -0.009453, 0.003637, 0.016964, 0.016927, -0.050003, -0.000142, 0.047221, -0.081260, 0.022090, -0.005786, -0.034298, 0.064325, 0.035050, -0.016450, -0.013384, 0.024811, -0.035383, 0.045330, -0.005414, -0.015606, 0.011002, -0.023742, -0.039571, 0.008194, 0.015095, -0.009383, 0.038790, -0.035380, -0.031768, 0.002157, 0.018134, -0.021259, -0.029450, -0.071174, 0.014187, 0.093171, -0.005467, -0.032210, -0.004362, -0.054808, 0.051773, 0.041642, -0.008687, 0.029855, 0.013004, -0.025978, -0.016959, -0.016003, 0.003968, -0.031614, 0.003012, 0.024243, 0.004569, 0.000281, 0.020488, 0.029472, -0.040228, -0.048476, 0.056586, -0.006789, 0.026416, -0.018151, -0.002061, 0.020285, -0.022437, -0.024559, -0.028054, 0.012387, 0.000665, 0.011356, 0.046641, -0.128150, 0.000253, 0.003683, 0.023422, -0.011123, -0.010581, 0.011122, 0.006446, -0.016571, 0.005944, 0.068374, -0.022674, -0.043947, 0.027066, -0.023384, -0.000994, 0.081413, -0.081328, 0.039604, -0.022922, 0.002644, 0.018765, 0.071384, -0.041270, -0.135881, 0.005832, -0.028728, -0.012747, 0.029939, 0.000662, 0.033480, -0.029549, -0.029481, 0.043796, 0.074430, -0.063855, -0.085656, -0.029058, 0.013027, 0.026379, 0.019714, -0.104203, 0.044712, -0.040381, 0.026098, 0.018567, 0.042743, 0.018978, -0.127135, 0.005754, -0.027237, -0.010875, -0.005223, -0.018753, 0.024775, 0.021265, -0.082575, 0.047801, 0.140920, -0.089130, -0.074901, -0.011443, -0.013835, 0.022084, 0.081230, -0.107281, 0.007713, 0.001592, 0.027741, 0.028327, 0.093457, -0.062356, -0.116184, 0.011919, -0.009879, 0.008167, 0.037120, -0.044103, 0.006103, 0.015549, -0.056500, 0.011047, 0.088076, -0.103404, -0.075702, -0.013349, -0.030173, 0.003445, 0.103735, -0.104664, -0.003343, -0.036980, 0.055040, 0.020840, 0.250665, -0.202179, -0.170463, -0.009737, 0.018452, -0.025943, -0.001710, 0.008461, 0.014012, -0.063979, 0.014410, 0.028723, 0.024080, -0.049113, 0.042789, 0.013841, 0.008951, -0.020100, -0.017527, -0.010596, 0.069559, 0.007809, 0.027124, 0.034364, 0.160555, -0.149904, -0.101211, -0.001339, 0.010530, 0.033508, -0.012592, 0.052602, -0.010691, -0.087987, 0.043859, 0.042523, 0.053320, -0.050746, 0.042743, 0.011288, 0.018154, 0.014664, -0.021032, -0.043514, 0.053998, -0.002058, -0.014627, 0.023388, 0.092009, -0.101629, -0.059604, -0.006252, -0.005377, -0.007235, -0.014364, 0.028910, 0.011621, 0.006974, -0.014565, -0.029420, -0.005540, 0.010232, -0.026595, -0.024203, -0.022261, 0.021915, 0.002943, -0.027208, -0.000783, 0.011220, -0.028497, -0.005189, 0.184001, -0.134981, -0.092009, 0.011425, -0.040814, -0.008509, -0.006046, 0.006502, 0.006542, 0.013734, -0.024231, 0.008952, -0.137792, 0.148865, -0.044980, 0.006204, -0.028381, 0.006339, -0.042457, 0.056205, 0.026931, -0.010097, 0.016719, 0.018251, 0.193476, -0.183394, -0.114190, -0.003692, 0.013096, 0.007479, 0.018925, 0.023165, -0.025168, -0.048160, 0.068080, 0.003607, -0.140434, 0.195492, -0.152813, -0.004265, -0.026783, -0.018930, -0.065885, 0.050819, -0.033085, -0.028562, -0.011029, -0.008656, 0.128055, -0.094457, -0.094702, -0.019056, 0.024334, -0.014007, -0.008481, 0.022540, 0.002063, 0.016694, 0.027819, 0.018486, -0.080415, 0.115856, -0.126243, 0.018138, -0.014107, 0.022977, -0.098860, 0.108786, -0.024750, -0.000765, -0.000156, 0.009253, 0.016482, -0.013370, -0.033582, 0.019240, 0.005209, 0.020301, -0.009095, 0.021050, 0.007886, -0.040524, 0.010762, 0.006913, -0.078211, 0.097722, -0.116328, 0.011428, -0.036139, 0.000084, -0.040764, 0.096159, -0.043690, -0.021849, 0.007809, 0.003150, -0.024482, -0.002338, 0.013073, -0.025064, -0.026396, 0.015960, 0.005815, 0.010803, -0.023366, 0.014721, -0.003942, 0.004696, -0.061536, 0.096439, -0.114927, -0.031396, -0.005352, 0.019498, -0.059239, 0.049726, -0.057431, 0.012526, 0.012628, -0.004218, 0.029412, -0.062084, 0.083244, -0.037395, -0.016019, 0.015487, -0.031665, 0.051835, -0.009364, -0.087126, 0.063924, -0.044743, -0.020482, 0.035900, -0.045612, -0.015186, -0.012770, -0.001372, -0.012595, 0.049120, -0.029002, 0.019689, -0.015015, 0.004320, -0.058941, 0.120501, 0.015507, -0.010070, -0.034488, 0.011227, 0.002587, 0.001597, 0.011894, -0.041935, 0.082087, -0.052073, -0.005067, 0.030793, -0.101441, 0.024822, -0.029740, -0.030479, -0.024977, 0.039195, -0.032949, 0.004755, 0.020072, 0.008827, 0.020805, -0.025744, -0.001408, -0.007446, -0.003854, 0.021510, -0.020216, 0.021220, -0.003291, -0.001078, 0.042340, -0.049514, -0.006456, 0.033933, -0.105339, -0.007032, -0.008281, -0.004741, 0.035310, 0.010918, -0.047500, 0.004497, -0.005505, 0.004165, 0.004812, -0.048214, 0.033992, 0.009018, 0.022888, 0.026963, -0.003053, -0.002793, -0.018038, 0.004149, 0.055845, -0.045675, -0.061756, 0.086558, -0.054048, -0.009304, -0.003953, 0.020867, -0.038536, 0.080018, -0.068773, -0.013354, -0.008797, 0.024211, -0.145961, 0.172026, -0.033126, -0.007306, 0.010031, 0.000953, -0.003845, 0.003867, 0.011752, 0.017118, 0.011809, -0.069484, -0.033711, 0.044861, -0.039587, 0.044490, -0.096791, -0.010497, -0.045692, 0.085235, -0.074262, -0.018909, 0.009624, 0.001686, -0.063428, 0.124549, -0.140802, -0.033208, 0.015726, 0.017797, 0.025666, -0.057436, -0.019290, 0.014024, 0.030696, -0.006364, -0.018718, 0.016578, -0.008668, -0.005311, 0.005562, -0.010045, 0.008961, 0.033515, -0.017547, 0.026673, -0.033402, 0.021925, -0.057596, 0.152161, -0.138707, 0.018425, -0.009494, 0.004856, -0.015050, -0.042896, 0.039071, -0.034728, 0.034789, 0.045797, 0.092782, -0.084064, 0.058834, 0.003830, 0.008801, 0.032729, -0.005006, -0.012773, 0.045831, -0.002511, -0.053090, 0.015015, -0.124844, 0.195784, -0.193022, -0.020896, -0.024687, 0.021118, 0.021297, -0.046648, 0.014074, 0.015403, -0.061884, 0.013749, 0.062419, -0.088951, 0.055514, -0.012971, 0.015262, 0.003662, 0.029394, -0.055355, -0.002671, -0.013512, -0.064464, 0.015319, -0.242193, 0.249011, -0.119870, -0.022203, -0.001055, 0.041000, 0.007903, -0.051864, 0.001350, 0.050945, -0.086670, 0.028397, 0.108314, -0.130131, 0.025623, -0.000800, -0.012767, -0.011332, 0.074243, -0.050979, 0.004718, -0.005036, -0.067961, 0.010876, -0.007038, 0.082113, -0.054483, -0.015642, -0.023405, 0.005878, 0.036848, -0.030467, 0.017189, 0.047822, -0.052246, 0.014620, 0.061797, -0.118850, 0.038241, 0.005960, -0.021256, -0.017649, 0.045972, -0.031749, 0.025182, 0.003380, -0.048511, 0.027640, -0.004115, -0.015015, -0.025566, -0.012800, -0.034328, -0.014487, 0.015323, 0.003826, 0.029973, -0.024166, 0.029837, 0.031410, -0.008014, -0.042793, 0.035842, -0.000458, -0.026851, -0.014632, -0.023620, 0.024613, 0.011548, -0.000258, -0.025660, 0.029337, -0.149961, 0.228287, -0.116586, -0.001276, 0.011462, 0.018211, 0.001476, 0.001440, 0.021121, -0.057616, 0.001333, 0.040389, -0.015014, -0.049398, 0.085762, -0.009528, -0.025188, 0.000792, 0.057852, -0.077089, 0.003356, 0.015321, -0.031809, 0.006486, -0.046901, 0.093468, -0.066749, 0.000983, -0.012205, -0.000673, -0.003640, -0.047614, 0.018332, 0.040756, -0.157416, 0.050419, 0.016863, -0.056536, 0.070149, 0.006725, -0.004506, -0.007704, 0.069843, -0.072579, 0.048542, -0.035372, 0.003823, 0.016607, 0.093120, -0.074035, -0.053665, 0.008248, -0.002538, 0.037704, -0.017678, -0.060497, 0.019027, 0.059936, -0.116420, 0.057313, -0.027920, -0.015713, 0.099585, 0.002350, -0.033123, 0.005506, 0.068547, -0.072075, 0.031421, -0.027898, 0.011051, 0.062179, 0.106706, -0.166498, -0.010939, -0.011935, 0.011769, -0.008626, 0.012800, -0.021480, 0.015940, 0.028762, -0.058387, 0.016806, -0.018933, -0.052068, 0.115775, 0.024479, 0.006323, 0.004790, 0.024530, -0.035169, 0.040967, -0.001318, -0.028582, 0.029895, 0.155556, -0.170160, 0.016437, -0.030669, 0.006771, 0.005555, -0.002029, -0.050115, 0.026168, 0.027327, -0.022960, 0.033833, 0.059558, -0.165339, 0.109888, -0.003395, -0.021195, 0.006179, 0.015617, -0.035729, 0.043867, 0.020575, -0.015187, 0.017008, 0.181417, -0.141825, -0.099480, 0.005139, -0.027947, 0.002879, -0.028570, 0.028812, -0.009053, -0.030244, 0.054501, -0.083091, -0.028164, 0.150349, -0.133192, -0.017412, 0.011032, -0.007087, 0.017976, 0.068480, -0.070188, -0.006886, -0.001109, 0.044414, 0.142006, -0.076727, -0.123537, -0.014233, -0.023625, -0.010012, -0.034083, 0.026753, 0.009051, 0.031092, 0.030889, -0.072743, -0.057156, 0.065247, -0.061395, 0.003711, -0.012738, 0.016288, -0.059338, 0.085172, -0.028671, -0.005699, 0.022691, -0.003041, 0.120005, -0.064402, -0.076073, -0.013679, -0.024003, 0.000025, -0.005465, -0.007221, 0.012673, -0.015500, 0.006058, -0.007294, -0.114560, 0.189578, -0.023475, -0.009553, -0.022927, -0.011952, -0.060878, -0.013611, 0.024814, -0.015716, 0.016108, -0.011849, 0.071878, -0.020266, -0.057378, -0.022035, -0.006975, 0.004469, -0.052167, 0.000422, 0.019940, -0.057812, 0.003409, -0.005258, -0.082433, 0.118604, -0.091445, 0.007032, -0.023249, -0.002817, -0.058030, -0.010589, 0.061514, -0.042829, -0.003512, 0.029842, 0.070722, -0.004571, -0.071870, -0.014331, -0.015719, 0.004198, -0.022237, 0.002431, 0.025471, -0.048335, 0.004885, 0.009897, 0.034202, 0.038215, -0.058250, -0.015189, -0.018091, 0.038361, 0.011171, -0.006411, -0.008787, -0.021818, 0.011904, 0.000187, 0.120929, -0.043630, -0.123591, -0.024853, -0.000647, 0.005126, 0.027729, -0.011441, 0.017893, -0.033958, 0.000246, 0.008594, 0.017668, 0.027434, -0.024343, -0.023772, 0.019425, 0.018223, -0.023786, -0.020329, 0.033367, -0.005751, 0.018270, 0.027177, 0.135377, -0.040267, -0.146332, -0.007756, -0.006432, 0.034374, -0.033547, 0.026567, 0.032560, -0.027387, -0.022872, 0.087863, 0.070390, -0.052090, 0.002149, -0.019401, -0.013795, 0.029491, 0.048357, -0.059902, 0.093691, 0.031496, 0.020253, -0.002456, 0.006455, 0.046212, -0.052392, -0.001047, 0.004138, -0.001807, 0.001342, -0.011129, -0.001176, 0.047815, -0.085803, 0.019205, 0.018442, 0.038708, -0.013832, 0.008607, -0.012076, 0.007538, 0.021930, -0.023908, 0.019961, -0.024877, 0.013974, 0.011418, 0.115765, -0.094494, -0.057060, -0.027049, -0.017634, 0.003807, -0.034973, 0.027313, 0.013022, 0.025634, -0.009324, 0.007762, -0.033056, 0.037742, -0.041291, -0.004839, -0.043912, 0.014673, -0.036168, 0.032861, 0.004125, 0.014191, -0.006569, -0.009309, 0.128669, -0.115885, -0.023042, -0.010871, -0.010412, -0.019741, -0.039974, 0.030526, -0.024067, -0.032023, 0.035040, 0.003642, -0.093427, 0.105561, -0.072925, 0.029616, -0.029991, -0.017007, -0.066958, 0.065993, -0.026781, -0.000720, -0.013766, -0.000847, 0.025174, 0.015171, -0.055300, -0.020897, -0.000403, -0.002365, -0.030035, 0.059104, -0.008757, -0.057767, 0.047393, 0.008716, -0.094051, 0.142913, -0.069388, 0.004119, 0.006399, -0.000882, -0.116790, 0.091335, 0.008398, -0.016800, 0.003571, -0.005879, -0.030314, 0.015072, 0.006999, -0.008604, -0.004421, 0.031270, -0.021522, 0.019249, -0.004321, -0.086969, 0.067451, 0.039310, -0.074134, 0.133440, -0.171208, -0.029533, -0.011605, 0.003339, -0.057560, 0.078607, -0.018002, -0.003966, 0.000675, -0.017764, -0.027835, -0.040568, 0.006714, -0.021709, -0.005423, -0.011589, -0.014375, -0.008112, -0.035572, -0.015338, 0.022578, -0.031807, -0.033387, 0.104308, -0.100665, 0.000904, -0.012593, -0.002936, -0.016574, 0.115521, -0.115772, 0.006941, 0.013144, -0.006558, -0.025120, -0.021082, 0.081662, -0.016792, -0.016469, 0.011407, -0.005180, 0.026234, -0.007481, -0.013853, 0.055618, -0.062549, -0.091904, 0.076429, -0.092115, 0.004326, -0.014387, -0.002036, -0.073853, 0.128256, -0.066339, -0.000060, 0.022546, -0.015257, -0.043848, -0.050610, 0.063314, 0.006911, -0.017200, -0.014604, 0.003195, 0.011831, -0.019003, -0.054846, 0.048713, -0.036335, -0.100218, 0.105571, -0.052204, -0.006125, -0.010186, 0.015026, -0.045646, 0.058765, -0.031693, 0.012558, 0.008050, -0.000371, -0.195424, 0.135226, 0.096763, 0.009359, -0.000067, 0.003544, -0.006691, 0.000712, -0.023853, 0.010518, 0.004626, -0.033346, -0.071680, 0.057418, -0.013272, 0.000095, -0.004520, 0.002445, -0.023834, 0.052491, -0.079390, -0.026191, 0.028878, 0.005129, -0.099640, 0.001020, 0.091797, -0.013776, 0.001397, -0.002628, 0.004042, -0.020430, -0.011314, 0.009079, 0.040326, -0.098028, -0.111977, 0.106752, 0.013283, 0.035704, -0.016443, 0.004128, -0.073168, 0.120008, -0.060079, -0.000418, 0.003349, 0.020185, -0.165966, 0.187722, 0.012064, -0.004474, 0.027403, 0.034598, -0.028374, 0.024486, 0.004265, -0.031644, 0.097156, -0.044159, -0.043319, 0.020108, -0.019460, 0.041429, -0.047546, -0.013697, -0.038485, 0.107121, -0.047746, 0.008238, -0.049272, 0.008638, -0.077958, 0.105654, -0.071041, -0.007589, 0.012580, 0.014065, -0.023695, 0.014937, 0.006860, -0.048833, 0.070382, -0.054338, -0.074834, 0.065042, 0.005566, -0.036928, 0.033759, -0.007083, -0.078301, 0.120063, -0.055857, 0.006734, -0.058228, -0.007517, -0.075986, 0.163034, -0.191757, -0.016858, 0.010479, 0.011463, -0.023586, -0.024286, 0.041447, -0.052341, 0.017847, 0.039327, -0.018895, -0.036537, -0.037112, -0.054398, 0.040943, 0.036130, 0.011083, -0.040341, -0.003664, -0.013677, -0.070529, 0.054753, -0.003730, 0.042305, -0.160064, 0.007828, 0.005614, -0.028038, -0.018969, -0.031148, 0.050379, 0.001031, -0.014197, 0.078612, 0.001807, -0.021538, 0.020124, -0.021061, -0.001323, -0.011597, 0.079473, -0.060891, 0.026069, 0.019270, -0.075801, 0.006772, -0.190648, 0.271398, -0.181293, -0.032886, -0.023829, 0.005146, -0.005119, -0.047619, -0.001416, 0.008025, -0.028224, 0.051394, 0.053103, -0.038618, 0.016342, -0.015418, 0.026955, -0.003705, 0.059509, -0.070858, -0.016472, -0.003035, -0.021128, 0.039145, -0.095774, 0.192626, -0.115751, -0.014083, 0.005856, 0.017246, 0.036254, -0.067934, 0.012404, 0.077005, -0.117685, 0.067019, 0.001329, -0.068087, 0.022999, -0.009030, -0.028476, 0.004181, 0.076745, -0.079039, 0.013372, 0.001972, -0.013681, 0.012358, -0.048946, 0.070081, -0.018912, 0.011423, 0.011285, -0.009265, 0.019832, -0.014843, 0.011924, -0.031107, -0.035054, 0.023003, 0.032790, -0.089835, 0.059839, -0.024122, -0.022890, 0.005049, -0.021734, -0.006053, 0.024441, 0.038682, -0.078812, 0.007366, -0.013351, 0.096129, -0.136558, -0.004994, -0.027808, 0.015661, 0.009989, -0.007617, 0.035967, -0.024440, 0.016512, 0.029812, -0.023370, -0.061668, 0.087159, -0.000964, -0.016968, -0.003255, 0.024010, -0.057073, 0.043833, -0.012768, -0.052407, 0.000039, 0.088565, -0.096434, -0.012780, 0.010986, 0.000700, 0.009053, -0.009651, -0.055839, 0.016919, 0.070402, -0.078541, 0.029290, -0.000694, -0.054548, 0.106212, 0.004075, -0.005341, -0.003592, 0.015046, -0.028366, 0.044604, -0.003293, -0.013530, 0.011030, 0.042402, 0.020283, -0.087474, -0.017925, -0.006802, -0.012034, -0.002166, -0.039180, 0.020495, -0.003505, -0.029036, 0.043990, 0.012336, -0.061456, 0.116005, 0.055815, -0.064638, -0.007855, -0.044675, 0.010668, 0.083381, -0.035363, -0.007598, 0.027269, 0.082568, -0.045391, 0.010549, -0.013454, 0.011274, -0.015576, -0.021910, -0.042316, 0.046964, 0.055043, -0.092552, 0.019732, -0.041938, -0.031667, 0.100786, 0.024543, -0.021645, 0.023513, -0.043209, 0.008664, 0.032856, -0.060185, -0.000272, 0.033572, -0.008296, 0.014423, -0.048682, -0.033308, -0.026962, -0.025950, 0.037668, -0.055709, 0.030644, 0.007730, -0.045011, 0.052355, 0.010415, -0.070265, 0.114906, -0.016332, -0.008163, -0.031574, 0.016454, -0.024703, 0.039073, 0.033949, -0.002916, 0.018078, 0.115650, -0.146925, -0.005478, 0.008248, -0.023126, 0.022019, -0.008220, 0.017856, -0.000301, 0.038136, 0.039047, -0.098976, -0.050486, 0.109501, -0.117193, 0.006404, -0.024302, -0.004082, -0.077324, 0.103480, -0.093433, -0.027808, 0.032795, 0.025438, 0.110807, -0.106528, -0.026601, -0.014999, 0.014352, 0.006583, -0.034595, 0.042972, 0.002151, 0.026753, 0.050880, -0.055059, -0.106602, 0.155518, -0.019452, 0.014035, -0.010490, 0.025959, -0.069856, 0.063894, -0.023289, -0.028184, -0.011076, 0.001541, 0.154764, -0.148497, -0.069039, -0.017940, -0.019409, -0.000658, -0.026012, 0.030796, 0.000708, -0.042736, -0.008763, 0.035641, -0.176512, 0.195374, -0.029388, 0.003734, -0.000720, -0.000312, -0.151789, 0.141089, 0.049644, -0.010759, -0.006751, 0.009880, 0.153317, -0.112376, -0.111149, -0.013453, -0.022464, 0.010790, -0.036337, 0.016095, 0.035052, -0.117122, 0.079179, 0.044512, -0.159757, 0.141568, -0.016730, -0.035619, -0.016984, 0.025363, -0.168651, 0.096092, 0.029000, -0.006849, 0.013656, 0.043700, 0.009742, 0.014077, -0.103629, -0.020715, 0.015949, 0.001949, 0.005987, 0.002446, 0.006565, -0.061771, 0.023899, 0.025705, -0.125142, 0.051747, 0.020498, 0.003493, -0.005820, -0.015957, 0.000573, -0.034505, 0.000290, -0.032046, -0.008902, 0.004583, 0.117274, -0.074791, -0.143865, 0.013429, 0.010566, -0.009458, 0.000266, 0.019406, 0.009509, -0.104917, -0.002756, 0.061544, -0.000930, 0.013725, 0.009175, 0.011355, -0.027963, 0.018591, -0.076880, 0.025270, 0.031835, -0.015518, 0.015330, 0.016674, -0.030067, 0.085428, -0.124000, 0.011711, -0.007528, 0.003949, -0.024413, 0.010686, -0.003859, -0.059831, -0.017999, 0.081371, -0.018114, -0.006433, 0.042669, 0.026442, -0.011084, 0.020806, -0.029541, -0.022365, 0.053443, -0.021582, 0.004727, 0.015505, -0.015176, 0.020438, -0.010329, -0.005714, -0.025087, -0.004789, -0.009221, -0.040708, 0.030887, 0.040193, -0.122292, 0.022023, 0.027549, -0.002017, -0.033347, -0.004780, -0.024065, 0.035608, 0.040442, -0.042621, 0.048202, -0.031117, 0.015305, 0.000110, -0.056441, 0.049384, 0.036053, -0.015680, 0.010771, 0.003481, -0.033945, 0.020092, -0.007867, 0.035899, -0.036271, 0.007307, 0.015165, 0.000869, -0.010973, 0.019530, -0.006143, 0.003056, -0.026638, 0.028141, -0.048094, -0.010372, 0.018756, -0.012098, -0.060585, 0.064213, 0.012755, -0.002117, 0.015719, 0.002273, -0.004001, 0.038681, -0.034400, -0.020410, -0.001796, 0.000644, -0.054794, 0.072456, -0.076549, 0.000840, -0.030333, -0.009380, -0.091120, 0.051416, -0.008208, -0.003677, 0.003879, 0.015784, -0.135696, 0.131845, 0.034003, -0.034863, -0.022280, -0.001413, -0.025015, 0.034321, -0.035473, -0.106681, 0.059307, 0.022005, -0.038921, 0.056180, -0.028941, 0.015279, -0.000551, -0.003430, -0.059301, 0.031865, -0.000996, -0.016969, 0.053308, -0.030622, -0.179401, 0.045106, 0.149879, -0.017414, -0.033238, 0.002619, -0.042092, 0.045569, -0.023079, -0.053252, 0.027018, 0.039475, 0.022297, 0.039008, -0.185534, 0.017168, -0.015606, 0.011357, 0.019952, 0.045068, -0.064614, 0.010648, 0.032122, -0.036990, -0.044585, -0.021159, 0.064566, 0.002941, -0.004888, 0.007050, -0.002437, 0.018464, -0.006293, -0.029535, 0.046299, -0.045431, -0.026414, 0.063227, -0.081587, -0.013362, 0.005275, 0.024694, 0.002659, 0.045244, -0.100411, 0.024979, 0.014852, -0.019010, 0.039711, -0.039041, 0.007800, -0.029051, 0.010666, -0.004619, -0.017952, 0.031364, 0.007021, 0.014027, 0.043519, -0.061824, -0.058687, 0.055551, -0.091274, 0.018137, 0.013053, -0.011219, -0.013108, 0.045890, -0.089095, 0.035689, -0.002804, 0.007474, -0.063806, 0.048900, 0.041166, 0.000429, -0.013687, 0.020112, -0.008387, 0.000970, -0.020291, 0.002816, 0.038996, -0.015089, -0.092251, 0.061998, 0.017951, -0.027554, -0.022223, -0.025573, -0.079557, 0.077330, 0.001038, 0.003143, -0.007232, -0.002262, -0.162720, 0.129474, 0.088916, 0.009460, -0.015241, 0.012634, 0.000244, 0.016120, 0.008979, -0.070580, 0.055816, -0.042965, -0.112707, 0.107072, 0.024474, -0.045979, -0.012324, -0.005267, -0.034196, 0.080224, 0.008546, -0.013345, 0.000206, -0.002167, -0.167306, 0.102194, 0.102319, 0.029768, -0.025452, -0.018223, -0.015021, 0.005550, -0.016652, -0.034249, 0.113206, -0.032287, -0.104601, 0.097392, 0.002445, 0.038523, -0.024330, 0.007957, -0.094629, 0.090528, -0.014815, 0.004012, -0.014121, 0.008423, -0.128446, 0.152997, 0.043576, 0.001896, 0.013284, 0.035112, -0.025462, 0.052972, -0.005866, -0.025607, 0.080622, -0.076240, -0.040309, 0.034576, -0.020798, 0.030043, -0.001642, 0.008328, -0.044174, 0.074585, -0.073195, -0.000055, -0.034543, 0.026239, 0.032730, 0.024109, -0.027641, 0.012537, 0.000166, 0.009500, -0.039616, 0.014694, -0.008445, -0.021965, 0.072587, -0.062105, -0.015222, 0.046288, -0.036908, -0.029645, 0.015613, 0.017976, -0.042229, 0.015249, -0.051513, 0.016863, -0.064194, 0.028044, -0.073032, 0.093899, -0.095992, -0.022128, 0.012707, 0.002728, -0.033526, 0.008666, 0.046593, -0.020294, 0.033586, 0.052273, -0.114483, 0.088978, 0.034915, -0.029529, 0.003165, 0.002288, -0.042923, 0.033538, 0.011224, 0.016773, -0.044795, 0.023578, 0.043964, -0.003506, -0.124598, 0.010177, -0.006728, -0.017785, -0.008919, -0.047480, 0.027098, -0.056182, 0.001861, 0.010634, -0.123230, 0.096549, 0.045572, 0.001862, -0.026665, -0.000144, 0.000260, 0.017218, 0.011188, 0.020657, -0.081319, 0.045727, -0.077264, 0.187062, -0.173565, 0.023693, 0.008184, 0.002057, -0.009807, -0.056566, 0.014483, 0.035794, -0.012339, 0.010112, -0.124722, 0.050662, 0.113968, -0.023271, -0.007368, 0.012816, -0.042241, -0.002673, 0.015692, -0.005016, -0.010618, 0.005835, -0.016000, 0.054835, -0.148536, -0.022005, -0.003671, 0.021086, -0.011360, -0.022239, 0.029843, -0.010501, -0.023078, 0.066448, -0.047378, 0.020953, 0.083211, -0.020861, -0.019539, -0.005790, 0.019896, -0.022399, 0.034528, -0.005487, -0.042661, 0.014301, 0.150634, -0.101594, -0.069154, -0.016131, -0.016051, 0.013794, 0.009669, -0.037991, 0.009934, -0.029180, -0.006316, 0.018949, -0.006202, 0.004535, 0.034708, 0.014815, -0.036124, -0.003833, 0.023920, -0.007230, -0.005070, -0.040194, -0.047528, 0.024986, -0.035523, 0.056924, -0.070839, -0.013507, -0.019847, 0.016983, 0.007597, 0.017861, 0.028976, 0.003651, -0.026905, 0.096094, -0.033436, -0.064385, 0.063345, 0.048182, -0.028364, -0.025260, -0.008123, -0.076166, 0.029616, -0.016410, -0.001278, 0.025016, 0.078913, -0.074940, -0.035553, 0.020730, -0.003793, 0.001638, -0.000175, -0.026787, 0.052413, 0.020451, -0.098790, 0.066134, 0.038640, -0.069334, 0.014802, 0.000800, -0.032715, 0.011209, 0.053441, -0.045031, 0.033506, -0.008568, -0.010658, 0.052018, -0.068431, 0.076065, -0.006746, 0.023777, -0.012264, 0.006292, 0.019357, -0.058515, 0.034427, 0.006013, -0.071943, 0.027220, 0.032206, -0.131915, 0.084900, 0.012315, -0.115766, -0.005023, 0.045524, -0.083473, 0.088930, -0.022706, -0.033306, 0.046442, 0.046135, -0.006407, -0.022624, 0.003720, 0.026252, -0.022985, -0.012087, -0.031501, 0.042817, 0.010422, -0.044721, 0.015060, 0.044887, -0.099010, 0.089497, 0.027909, -0.039441, -0.001734, 0.056312, -0.047361, 0.055223, -0.006072, -0.032900, 0.020394, 0.043925, -0.020339, -0.006612, -0.015001, -0.016287, 0.003632, -0.016723, -0.042204, 0.010370, -0.024566, 0.022755, 0.010653, 0.042906, -0.102659, 0.088466, 0.009285, -0.034941, -0.001073, -0.001661, -0.034900, 0.031124, -0.045049, 0.012390, 0.001435, 0.001219, 0.016819, -0.082488, 0.027311, -0.005320, -0.000072, -0.003524, 0.028528, -0.026385, 0.102744, 0.024947, -0.104557, 0.148674, -0.095642, -0.119412, 0.000873, -0.021391, 0.011722, 0.087790, -0.033337, -0.082239, -0.029644, 0.013819, 0.008838, 0.053472, -0.076618, -0.018804, 0.010715, -0.005318, 0.001507, 0.011188, -0.003124, -0.058241, 0.031608, 0.020435, -0.081823, 0.071096, -0.015364, -0.146294, 0.025858, -0.057061, 0.003255, 0.039124, 0.006094, -0.075226, -0.074645, 0.071860, 0.001417, 0.090591, -0.106738, -0.034808, -0.018089, -0.013344, 0.024926, -0.028942, 0.001891, -0.001442, -0.006207, 0.007139, -0.027061, 0.030707, 0.007366, -0.049172, -0.005341, -0.023525, 0.002236, -0.013930, 0.038904, -0.010975, -0.028076, -0.001985, 0.008879, 0.076932, -0.064005, -0.045913, -0.006086, -0.017300, -0.008106, 0.007250, 0.010943, -0.029225, -0.012045, 0.065559, -0.068358, 0.003463, 0.043131, -0.136460, -0.037841, -0.018742, -0.015566, -0.031939, 0.045915, 0.019179, -0.025435, 0.001822, -0.001267, -0.030037, 0.089936, -0.095504, 0.020951, 0.014990, 0.018576, -0.036056, -0.000500, 0.035383, -0.090884, 0.021129, 0.052602, -0.054350, 0.029161, 0.003602, -0.011723, 0.005271, -0.011612, -0.096569, 0.042534, 0.046896, 0.007145, 0.007591, -0.004019, 0.106365, -0.021128, -0.145849, -0.012679, -0.004792, -0.001824, -0.050458, 0.013390, -0.003007, -0.101888, 0.018965, 0.042395, -0.097233, 0.083809, 0.004913, 0.024241, 0.032103, 0.003631, -0.068932, 0.053902, 0.096173, 0.008292, -0.002678, 0.015783, -0.017422, 0.087447, -0.142024, -0.001138, -0.009534, 0.022094, -0.025402, 0.043424, 0.027241, -0.117429, 0.019255, 0.148371, -0.080245, 0.023113, 0.100532, -0.027979, -0.014813, -0.005532, -0.023204, 0.007690, 0.092158, -0.030089, 0.037624, -0.003989, 0.019927, 0.055103, -0.064587, -0.000217, -0.016251, 0.034807, 0.011124, -0.026311, 0.032367, -0.017619, -0.049869, 0.063909, -0.054644, 0.024616, 0.035814, -0.012536, 0.000377, 0.010593, -0.006866, -0.025209, 0.067046, -0.041012, 0.035830, -0.008026, -0.057190, 0.073275, 0.000304, -0.017148, -0.040368, 0.002681, 0.001528, 0.047760, -0.001866, -0.051869, 0.026408, 0.048753, -0.086518, 0.087106, 0.004686, -0.003584, -0.032805, -0.005447, -0.032724, 0.032880, 0.000768, -0.021809, 0.020085, -0.026268, 0.010972, -0.112998, 0.073396, -0.020800, 0.010189, -0.007385, -0.002855, 0.051017, -0.040108, -0.113508, 0.027697, 0.066915, -0.097987, 0.120256, -0.005091, 0.019357, -0.007618, 0.011437, -0.060015, 0.046493, 0.045237, -0.028667, 0.026885, -0.034076, -0.077833, -0.006625, 0.109978, -0.013591, -0.000561, -0.017849, -0.038325, 0.071537, -0.013747, -0.120020, 0.027725, 0.073028, -0.114900, 0.103898, -0.064202, -0.012084, 0.019782, 0.026942, -0.085228, 0.073281, -0.059205, -0.021946, 0.033376, -0.013457, -0.119097, 0.049775, 0.140248, -0.008951, 0.012200, -0.026824, -0.047094, 0.048202, -0.032516, -0.103039, 0.087183, -0.001984, -0.102171, 0.140856, -0.138762, 0.012093, -0.005101, 0.030823, -0.055231, 0.094813, -0.123034, -0.032763, 0.010855, -0.059231, -0.025792, -0.038450, 0.033595, -0.021897, -0.004770, 0.001280, -0.002767, 0.048394, -0.057951, -0.035864, 0.059766, -0.096811, -0.079769, 0.083704, -0.042044, -0.039797, 0.021086, 0.021440, -0.019346, 0.066701, -0.098761, 0.005529, 0.053026, -0.025504, 0.043161, -0.103407, 0.054092, -0.008627, 0.027801, -0.006796, 0.000050, 0.055783, -0.045458, -0.021775, 0.071984, -0.051818, -0.087829, 0.074359, 0.050614, -0.023602, -0.005670, 0.018499, -0.074209, 0.052708, 0.019260, -0.005239, 0.042283, -0.006872, -0.056538, -0.015395, 0.124062, -0.021024, 0.007080, 0.038314, -0.025587, 0.008715, -0.019770, -0.054154, 0.030103, 0.007251, -0.149615, 0.109342, 0.032582, -0.002519, -0.015921, 0.016042, -0.067933, 0.029061, 0.031370, 0.038218, -0.015410, -0.029121, -0.081087, -0.014552, 0.125436, 0.006077, 0.011043, 0.021193, -0.026067, 0.011242, -0.000628, -0.095210, 0.103782, -0.057193, -0.137480, 0.130361, 0.016245, -0.002858, 0.016707, 0.016735, -0.060261, 0.033293, 0.029783, -0.014978, -0.025922, 0.004497, -0.211055, 0.136570, 0.145318, -0.017871, 0.016046, -0.001763, -0.026968, 0.044928, -0.008742, -0.082622, 0.122586, -0.036690, -0.159593, 0.129203, 0.021527, -0.004333, 0.021092, 0.020178, -0.091592, 0.109122, -0.014324, 0.031034, -0.038166, 0.012970, -0.157259, 0.015646, 0.148300, -0.007084, -0.001032, 0.000099, -0.047638, 0.029327, 0.013092, -0.004061, 0.064892, -0.078927, -0.101628, 0.133310, -0.068371, 0.007996, 0.012882, 0.015827, -0.027905, 0.108657, -0.041487, -0.031621, -0.008851, 0.012703, -0.016328, -0.009958, 0.076425, -0.019375, 0.026149, 0.015241, -0.030418, 0.012089, -0.015415, -0.023487, 0.079973, -0.051220, -0.105056, 0.149582, -0.052167, -0.027766, -0.027575, 0.014907, -0.081003, 0.130235, -0.054905, -0.010534, -0.037246, 0.029848, -0.118667, 0.154395, -0.012962, -0.000875, -0.015984, 0.007708, -0.023404, 0.019334, -0.001771, -0.036961, 0.005324, 0.018976, -0.072313, 0.083068, -0.054676, -0.036878, 0.017314, -0.024574, -0.055849, 0.081366, -0.042923, 0.021346, -0.053056, 0.033651, -0.006128, 0.109669, -0.122443, -0.027055, 0.018430, 0.020152, 0.008860, -0.042575, 0.012289, -0.016980, -0.002230, 0.038200, -0.088778, 0.120193, -0.058980, -0.001288, -0.002222, 0.001935, -0.012400, -0.025591, 0.057196, 0.013317, -0.070923, 0.038714, -0.001154, 0.058916, -0.131098, -0.024400, 0.008982, 0.014691, -0.007253, -0.021598, 0.005820, 0.028440, -0.071673, -0.001253, -0.063351, 0.055113, 0.049763, -0.031794, 0.006959, -0.000650, -0.001749, -0.000614, 0.044895, 0.000627, -0.039207, 0.058982, 0.077027, 0.003027, -0.113240, 0.003620, -0.024527, 0.005429, -0.038148, -0.020211, 0.017409, -0.022133, -0.038706, 0.023892, -0.084402, 0.084822, 0.018093, -0.019850, -0.011565, 0.018188, -0.043687, 0.013863, 0.052631, 0.001873, -0.007707, 0.039659, 0.060843, -0.032832, -0.101277, -0.014954, 0.007923, 0.009570, -0.035605, -0.023087, 0.021342, -0.019702, 0.027810, 0.042859, -0.084742, 0.042020, 0.048374, 0.036364, -0.046185, -0.009900, -0.043676, 0.037823, 0.069330, -0.000568, -0.032766, 0.029962, -0.079547, 0.118521, -0.125556, 0.002194, -0.001245, 0.030331, -0.004429, -0.002883, -0.004965, -0.004414, -0.029609, 0.081831, -0.088510, 0.010793, 0.023436, 0.016785, -0.026352, -0.007635, -0.088780, 0.010252, 0.027669, -0.020062, -0.008437, 0.025904, 0.041758, -0.046711, 0.001261, -0.016533, -0.032786, 0.004679, 0.016789, -0.004157, 0.010631, -0.022646, 0.011699, -0.006173, -0.068794, 0.041076, 0.049541, -0.003462, -0.022491, 0.006813, -0.039833, 0.046636, 0.020953, -0.030936, -0.010515, 0.032183, -0.219069, 0.167937, 0.003166, 0.001296, -0.005019, 0.004585, 0.002280, -0.035139, 0.021009, -0.014874, -0.022955, 0.031179, 0.105575, -0.107973, 0.035005, 0.020856, 0.016191, -0.019846, 0.044959, -0.083812, 0.054843, -0.039524, -0.021831, 0.025542, 0.027548, -0.067066, 0.044084, 0.010243, -0.020193, -0.009622, 0.011830, -0.038464, 0.020912, 0.086714, -0.106203, 0.036189, 0.085338, -0.127659, 0.033611, -0.017508, 0.004003, 0.023289, 0.080632, -0.073846, 0.022413, -0.023373, -0.023668, 0.044850, 0.073693, -0.086794, 0.097612, -0.018379, 0.007443, 0.029891, -0.015267, -0.041545, 0.031567, 0.017482, -0.015287, 0.004274, 0.120143, -0.108640, 0.015772, 0.039333, -0.023751, -0.001060, 0.034761, -0.045550, 0.007990, -0.035285, 0.027227, -0.007300, 0.036410, -0.051019, -0.055737, 0.011169, 0.005548, -0.028544, 0.005597, 0.018430, -0.040402, 0.138290, -0.042761, -0.135672, 0.136456, -0.071573, -0.118981, 0.007838, -0.044754, 0.010913, 0.163381, -0.084568, -0.102699, -0.027019, 0.028410, 0.028497, 0.056766, -0.055735, 0.007693, 0.021030, 0.000337, -0.022403, 0.017617, 0.015874, -0.032967, 0.050768, 0.033951, -0.079262, 0.091890, -0.065776, -0.078429, 0.011650, -0.016608, -0.019971, 0.017586, -0.001649, -0.035959, -0.045935, 0.031434, -0.007090, 0.044419, -0.111669, 0.016039, -0.004717, 0.020068, -0.007923, -0.017856, -0.003828, 0.006734, -0.054857, 0.033533, -0.015024, 0.073683, -0.026578, -0.100783, -0.008952, -0.011267, -0.016068, 0.024968, -0.023544, -0.049699, -0.037644, 0.017708, 0.027564, 0.037629, -0.047885, -0.017661, 0.005252, -0.020449, -0.008802, -0.001733, 0.033973, 0.029043, -0.103035, 0.056474, -0.000792, 0.018895, -0.013277, -0.028955, 0.004359, -0.004929, 0.016389, 0.028737, 0.029382, -0.096037, 0.003443, 0.013887, 0.035369, -0.046444, 0.079694, -0.157251, -0.006659, -0.015799, 0.005301, -0.040571, 0.037707, 0.009273, -0.042323, 0.004492, -0.012408, 0.013742, -0.023252, -0.082660, 0.005406, -0.003947, 0.024143, 0.022861, 0.006146, -0.008317, -0.043507, 0.002848, 0.008821, 0.095334, -0.014549, -0.150864, -0.017270, -0.011497, 0.012445, -0.012559, 0.034587, 0.016815, -0.056639, 0.001870, 0.088029, -0.083125, 0.100124, -0.027488, 0.022077, -0.032787, -0.001520, -0.095528, 0.057704, 0.050344, -0.008899, 0.016866, 0.017601, 0.148415, -0.055487, -0.187909, -0.004594, -0.004551, 0.006434, -0.039031, 0.043701, 0.008436, -0.081810, 0.037877, 0.065630, -0.121679, 0.120919, 0.045009, 0.015586, 0.037095, -0.026153, -0.121208, 0.045845, 0.085118, -0.036437, 0.053751, -0.010363, 0.000681, 0.005489, -0.004018, -0.017485, 0.014465, 0.027691, -0.038920, 0.005203, 0.009663, -0.109361, -0.009351, 0.041072, -0.118844, 0.076988, 0.039368, -0.012611, 0.015095, -0.002774, -0.120788, 0.043596, 0.069605, -0.016525, 0.048091, -0.021401, 0.007293, 0.051139, -0.018083, 0.028230, 0.000846, 0.019386, -0.010965, 0.030456, -0.019379, -0.047942, 0.015898, 0.064552, -0.089423, 0.082906, -0.015069, -0.018703, -0.015353, 0.003808, -0.119708, 0.098335, 0.036075, -0.037847, 0.039539, -0.019728, -0.031779, 0.068697, -0.033721, -0.007146, -0.004406, -0.004274, -0.002038, 0.043835, -0.009000, -0.088433, 0.020594, 0.071477, -0.103441, 0.093778, 0.024380, -0.024050, -0.004473, 0.022865, -0.063244, 0.075523, 0.021720, -0.011843, 0.048361, -0.043931, -0.071464, 0.039725, 0.031801, 0.010874, -0.004499, -0.014401, 0.010730, 0.034400, -0.022530, -0.117649, 0.047733, 0.052469, -0.109791, 0.148081, -0.051967, -0.003242, 0.016420, 0.009357, -0.120752, 0.122906, -0.004782, 0.033676, 0.019745, -0.053692, -0.054287, -0.078351, 0.130607, 0.020642, 0.005148, -0.016012, -0.025872, 0.064196, -0.038164, -0.066968, 0.106129, -0.015937, -0.074992, 0.070590, -0.053659, -0.005987, 0.024809, 0.001279, -0.089864, 0.152858, -0.078560, -0.001079, 0.000129, 0.003333, -0.009286, -0.079551, 0.138025, -0.011698, -0.006825, 0.002645, -0.032453, 0.024009, -0.052684, -0.052021, 0.066381, -0.048038, -0.142899, 0.135340, -0.051732, -0.012259, -0.012410, -0.001920, -0.092647, 0.133497, -0.095668, -0.008483, 0.049066, -0.033397, 0.016277, -0.085050, 0.130636, -0.021680, 0.008728, 0.001394, -0.031563, 0.041784, -0.004868, -0.084089, 0.074423, -0.041442, -0.180050, 0.160294, -0.004464, 0.014401, 0.015437, 0.038548, -0.124523, 0.078232, -0.019145, -0.005566, 0.010752, 0.002806, -0.055340, -0.025603, 0.086203, -0.013063, -0.016926, -0.029361, -0.004966, 0.017122, 0.005588, -0.083859, 0.052680, 0.058568, -0.193395, 0.153960, 0.042875, 0.014886, -0.016873, -0.000500, -0.136668, 0.105329, 0.067538, -0.007834, 0.031810, -0.019983, 0.018565, -0.101357, 0.077699, 0.002186, 0.016787, 0.015178, -0.008725, 0.050873, -0.015859, -0.153843, 0.143053, -0.016919, -0.156773, 0.082767, 0.081741, -0.025526, 0.016403, 0.018954, -0.055054, 0.030829, 0.026441, -0.008543, -0.016859, 0.017846, -0.164623, 0.041351, 0.089609, -0.011316, 0.001076, 0.020408, -0.030285, 0.053201, -0.018843, -0.042161, 0.085175, -0.009661, -0.106131, 0.101867, 0.057713, -0.021109, 0.022853, -0.011962, -0.104807, 0.081413, 0.005457, 0.023106, -0.040862, 0.023229, -0.159747, 0.087651, 0.108341, -0.012608, -0.028771, 0.003385, -0.033984, 0.019247, -0.020221, -0.018677, 0.054619, -0.056957, -0.058167, 0.079371, 0.024340, 0.024067, -0.049476, -0.003045, -0.060195, 0.115229, -0.003025, -0.012194, -0.026739, -0.006764, -0.137353, 0.126919, 0.102969, -0.001711, 0.006649, 0.006052, -0.006573, -0.000439, -0.006267, -0.033003, 0.081212, -0.041232, -0.111721, 0.082526, -0.003824, 0.038339, -0.054303, 0.002100, -0.052832, 0.105270, -0.050275, -0.005765, -0.014558, 0.050736, -0.087756, 0.123605, -0.031048, -0.016692, -0.038596, 0.005057, -0.020835, 0.007258, 0.023247, -0.001041, 0.054992, -0.026284, -0.037859, 0.066646, -0.028140, 0.009617, 0.005814, 0.008785, -0.023316, 0.040413, -0.023702, -0.013739, -0.066973, 0.024397, -0.179174, 0.196840, -0.072262, -0.039765, -0.016871, 0.010464, -0.052108, -0.001685, -0.008507, 0.009034, -0.002675, 0.003989, -0.020723, 0.059505, -0.005947, 0.014415, 0.031310, -0.003588, 0.006406, 0.009948, -0.027168, 0.008223, -0.052122, 0.035740, -0.052927, 0.156050, -0.103585, -0.008306, -0.019047, 0.005400, -0.014542, -0.034579, 0.017829, -0.011449, -0.075173, 0.020621, -0.090726, 0.076725, -0.018127, 0.018930, -0.002294, 0.019810, 0.007105, -0.009690, -0.016040, -0.016422, -0.035584, 0.023412, 0.021377, 0.000668, -0.027212, -0.001237, -0.011301, 0.022655, -0.020451, -0.032864, 0.025061, -0.011862, -0.045100, 0.041390, -0.056345, 0.091014, 0.004809, -0.000122, -0.032149, 0.005646, -0.049538, 0.040579, 0.053629, -0.046282, 0.001334, 0.069857, -0.036280, 0.059279, -0.061091, -0.011950, 0.005143, 0.006987, -0.035952, -0.014789, 0.034196, -0.024001, -0.028549, 0.036036, -0.018566, -0.008094, 0.014481, 0.001942, -0.015587, 0.005260, -0.027250, 0.021285, 0.030609, -0.013849, -0.015098, 0.036762, -0.076138, 0.095660, -0.037949, -0.017076, -0.021543, 0.003082, -0.020656, -0.020579, 0.005519, -0.020508, -0.007221, 0.036847, -0.016761, -0.035797, -0.003173, -0.028365, -0.003680, -0.008201, 0.030746, -0.021106, 0.009964, -0.012823, -0.048798, 0.004243, -0.060125, 0.014497, 0.080557, 0.004505, -0.035975, -0.003064, -0.025136, -0.000136, -0.002253, -0.026654, -0.016251, 0.004256, 0.026095, -0.018434, -0.061839, 0.007618, -0.013864, -0.017418, -0.009501, -0.003103, 0.022055, 0.000498, -0.029663, 0.048466, -0.141230, 0.092114, 0.065838, 0.021407, -0.025511, 0.020266, -0.009982, 0.027698, -0.016113, -0.022418, 0.030752, -0.001742, 0.064953, -0.048645, -0.076984, 0.002110, 0.002886, 0.002206, 0.048700, -0.061168, -0.011575, -0.013002, -0.021165, 0.037524, 0.036441, -0.083182, 0.039377, -0.004703, 0.000511, 0.019790, -0.009676, -0.042336, -0.012704, 0.038829, -0.072253, 0.042859, 0.055262, -0.070507, 0.008468, 0.013460, -0.043256, 0.031653, 0.101093, -0.082598, 0.013377, -0.060912, -0.025465, 0.069209, -0.013107, -0.153918, 0.176161, -0.001006, 0.016087, -0.022236, -0.016097, -0.046675, 0.020323, 0.041250, -0.043154, -0.013365, 0.034831, -0.025933, -0.057082, 0.048124, -0.074719, -0.010233, 0.075168, -0.046765, -0.015716, -0.056458, 0.035580, -0.009356, 0.170531, -0.122927, -0.061193, 0.009152, -0.017319, 0.009308, -0.000613, 0.024158, -0.023750, 0.096018, -0.069624, -0.078350, 