// Overflow-Protected 2-Layer CNN Model with Labels
#ifndef MY_MODEL_H
#define MY_MODEL_H

// Class Labels
const char* myClassLabels[3] = {
  "BACKGROUND",
  "HAND",
  "FACE"
};


const float myConv1_w[] = { 0.147666, 0.369559, 0.147563, -0.118203, 0.358762, 0.048224, 0.025882, 0.010650, 0.099390, 0.275845, -0.120321, -0.004820, 0.422199, 0.343078, 0.184181, 0.052656, 0.377721, -0.129294, 0.075341, 0.276178, 0.265399, 0.121689, 0.063875, -0.130430, 0.371778, 0.085398, 0.019326, 0.275333, 0.271147, 0.068492, -0.081242, 0.114888, 0.112430, 0.305315, -0.054109, 0.292860, -0.121572, 0.062377, 0.122743, 0.122764, 0.017675, 0.100933, -0.162985, -0.094994, 0.053150, 0.131532, 0.008474, -0.280802, -0.060713, 0.148871, 0.136117, 0.123479, -0.014396, 0.136311, 0.046753, 0.008199, 0.060030, 0.221726, -0.078134, 0.034026, 0.006465, 0.229260, -0.183009, 0.184998, 0.072960, 0.161429, -0.248898, 0.146103, 0.136793, 0.284239, 0.290947, 0.148665, 0.148813, 0.159431, 0.368326, 0.002425, 0.024338, 0.010814, 0.000130, -0.387205, -0.274081, -0.007600, 0.155039, -0.248256, -0.033641, 0.002171, -0.170059, -0.199825, -0.262777, 0.001918, -0.188391, 0.238680, 0.294257, 0.225952, -0.163002, -0.050600, 0.343294, -0.198998, -0.217939, -0.120986, -0.142234, 0.051728, -0.196998, -0.087119, -0.071592, 0.113848, 0.079205, 0.071980 };

const float myConv1_b[] = { -0.085222, -0.143521, 0.103389, 0.072455 };

const float myConv2_w[] = { 0.002900, -0.149443, -0.009469, 0.272740, 0.118237, 0.029989, -0.050872, 0.115728, -0.004662, -0.214290, 0.044446, -0.076595, -0.071695, -0.084996, 0.212409, 0.238565, 0.001100, -0.124428, -0.286378, 0.014572, 0.421873, -0.054477, 0.433769, 0.174984, 0.001140, -0.130769, -0.150070, 0.045904, 0.145951, -0.184788, 0.089778, 0.064103, -0.004733, -0.042724, -0.133718, 0.052242, 0.050671, -0.140229, -0.086302, 0.146653, -0.005090, 0.062189, 0.231722, 0.115959, 0.139720, -0.183300, 0.205160, -0.076170, 0.000177, -0.038120, -0.320142, 0.002118, 0.258283, 0.188713, 0.376326, 0.499925, -0.000411, 0.096301, 0.041725, -0.074123, 0.144788, -0.099277, -0.227401, -0.131989, -0.001890, -0.090103, -0.000900, -0.136757, 0.168996, -0.076771, -0.009774, -0.264613, 0.000176, -0.009850, 0.141154, -0.080683, 0.053350, -0.059687, 0.010679, -0.060868, 0.000532, -0.120164, -0.114683, -0.062791, 0.022494, 0.110316, 0.233993, 0.520789, 0.001374, -0.121842, -0.150052, -0.244890, 0.379654, 0.151700, -0.154114, -0.069993, 0.010469, 0.103249, -0.038203, -0.078304, 0.047929, 0.237165, 0.330976, -0.051798, -0.000776, -0.178016, -0.157699, -0.068591, -0.030941, 0.109343, 0.176097, 0.131793, -0.003639, -0.090737, -0.225921, -0.152534, 0.401949, -0.180534, 0.393128, 0.319643, -0.000837, 0.076231, 0.093469, -0.073129, -0.105020, -0.007217, 0.320311, -0.012141, -0.008089, -0.006907, -0.041940, 0.072049, -0.180282, -0.269459, 0.076342, 0.162498, -0.005690, 0.009318, 0.030207, -0.026411, -0.155696, -0.033125, 0.001661, -0.056619, -0.001690, 0.028063, -0.267957, -0.278695, 0.347252, 0.296255, 0.387537, 0.387470, 0.006568, 0.135903, -0.081454, -0.017201, 0.068243, -0.105956, -0.028399, 0.058584, -0.001569, -0.018996, 0.095820, 0.141460, 0.085575, 0.139946, -0.173863, 0.127486, 0.004595, 0.195471, -0.166854, 0.141880, 0.177759, 0.016688, -0.034238, -0.230034, 0.004066, -0.132269, -0.205393, -0.072469, 0.119341, 0.053229, 0.056521, 0.098048, 0.000441, 0.003447, -0.241130, 0.047658, 0.391784, -0.040739, -0.074046, 0.002409, -0.008329, 0.003780, -0.082570, -0.028812, -0.099624, 0.193616, -0.105011, -0.011707, 0.001396, 0.023494, 0.116743, 0.004067, -0.030182, 0.222313, -0.072761, 0.070381, -0.001921, -0.017605, -0.248897, -0.423029, 0.180165, 0.012801, 0.391390, 0.187660, 0.000713, -0.070697, -0.019050, -0.110542, -0.124936, 0.250976, -0.012400, -0.015636, 0.001383, 0.050284, 0.111762, 0.172716, -0.255733, -0.083758, -0.116310, -0.132672, 0.007366, 0.038268, 0.235405, -0.157130, 0.069273, -0.036056, -0.032954, 0.059909, 0.004814, 0.013409, -0.396156, -0.253398, 0.361610, 0.084234, 0.026529, 0.225120, 0.007808, 0.354573, 0.014036, -0.014301, -0.335941, 0.003265, -0.022578, -0.044896, -0.002309, 0.270003, 0.104479, 0.198791, -0.075637, 0.152711, -0.077753, -0.094164, -0.003573, 0.010828, -0.008511, -0.010389, -0.310632, 0.025768, -0.242652, -0.133562, -0.000886, 0.024969, -0.232346, -0.305901, 0.004603, -0.133833, 0.153147, 0.357280, -0.005213, -0.008391, 0.109304, -0.063291, 0.084669, -0.017880, -0.016765, 0.041632 };

const float myConv2_b[] = { -0.013766, -0.007786, -0.091845, -0.062447, 0.110922, -0.008302, -0.009796, -0.016267 };

const float myOutput_w[] = { 0.015442, 0.005609, 0.000606, 0.052182, -0.048431, 0.016422, 0.060334, -0.048958, -0.001930, 0.066392, -0.044542, -0.054224, 0.059871, -0.057105, -0.012399, 0.062471, -0.051376, -0.028398, 0.024467, 0.043618, -0.058692, -0.040000, 0.069643, 0.014137, 0.006215, 0.004746, 0.010552, 0.068536, -0.074982, 0.007147, 0.034902, -0.025592, 0.016772, 0.056412, -0.045169, -0.034041, 0.060642, 0.011113, -0.080665, -0.016299, 0.039978, -0.016505, 0.024435, 0.018766, -0.069590, -0.082839, 0.095657, -0.031160, 0.002809, 0.006689, -0.000525, 0.027322, -0.023180, 0.004676, 0.056577, -0.023257, -0.018674, 0.064768, -0.038838, -0.032335, 0.032079, 0.013983, -0.115910, 0.040753, -0.040547, -0.006541, 0.040847, -0.059038, -0.013716, 0.011945, 0.023168, -0.091786, -0.009307, 0.001354, 0.010856, 0.055739, -0.045991, 0.016875, 0.031200, -0.051039, -0.007273, 0.042285, -0.045542, -0.031793, 0.061539, -0.049000, -0.061325, 0.005725, -0.037837, -0.004437, 0.052643, -0.005673, -0.077715, 0.079879, -0.092117, -0.049737, 0.012644, -0.007672, -0.002012, 0.085415, -0.072691, -0.021655, 0.036191, -0.056057, -0.033207, 0.082795, -0.055345, -0.005989, -0.014893, 0.096613, -0.116718, 0.001223, -0.026762, 0.023585, 0.059762, -0.008915, -0.118536, 0.132589, -0.061719, -0.121945, -0.011566, 0.008487, 0.017096, 0.034607, -0.045847, 0.012787, 0.040733, -0.055118, -0.004612, 0.060954, -0.067610, -0.012474, -0.123422, 0.213556, -0.146249, 0.029722, -0.061509, -0.009190, 0.098147, 0.000259, -0.131426, 0.169156, -0.122790, -0.162975, 0.000274, 0.025392, -0.011148, 0.057278, -0.044111, 0.008007, 0.018714, 0.019064, -0.012514, 0.007789, -0.014294, -0.011365, 0.009790, 0.078571, -0.107478, 0.099933, -0.113677, 0.013245, 0.037349, 0.021892, -0.100900, 0.062893, 0.019528, -0.099276, -0.025382, 0.009803, -0.012862, 0.033083, -0.084417, 0.008398, 0.028884, -0.050940, 0.000411, 0.027632, -0.028921, 0.015024, 0.020656, 0.033254, -0.094080, 0.034815, -0.075340, -0.007881, 0.035265, 0.004928, -0.113257, 0.077579, -0.023964, -0.101966, 0.031576, 0.006024, -0.001975, 0.012600, -0.064491, 0.040343, 0.018743, -0.008774, -0.006200, 0.064790, -0.031218, -0.023776, 0.115919, -0.058788, -0.170316, 0.050072, -0.059840, -0.021026, 0.027973, 0.012288, -0.035741, 0.177517, -0.169895, -0.050445, -0.013477, 0.006490, -0.004820, -0.026137, -0.006758, -0.004661, -0.007554, -0.033207, 0.004609, 0.043819, -0.010811, -0.002150, 0.103300, -0.030616, -0.144818, 0.036655, -0.037931, 0.012913, 0.114757, -0.065314, -0.043915, 0.202368, -0.233560, -0.056532, 0.022459, 0.014925, -0.011157, 0.008047, 0.011907, -0.028653, 0.024969, 0.007914, 0.014572, -0.003915, -0.013620, 0.008655, 0.095155, -0.064004, -0.077152, 0.017783, -0.040678, 0.040149, 0.117732, -0.102052, -0.005934, 0.145810, -0.143660, -0.048544, 0.012780, 0.017893, 0.024364, -0.004762, -0.008478, 0.010248, -0.015677, -0.033076, 0.014200, -0.004671, 0.009008, 0.010025, 0.059767, 0.004899, -0.056743, -0.022331, 0.006374, 0.018277, 0.028691, -0.027650, -0.021995, 0.133321, -0.090559, -0.098571, 0.003989, 0.030921, 0.020742, -0.010213, 0.010614, 0.020857, 0.015258, -0.032418, -0.007084, -0.019946, -0.012547, 0.016571, 0.115222, -0.053004, -0.047122, 0.059040, -0.075405, 0.025145, 0.033891, 0.020065, -0.037160, 0.053427, -0.005860, -0.106302, -0.009290, 0.014650, 0.002038, 0.077644, -0.068000, -0.008379, 0.031853, -0.011019, 0.008168, 0.004770, -0.032786, -0.007960, 0.147409, -0.093875, -0.064564, 0.042973, -0.036814, 0.003935, -0.087004, 0.093847, -0.017094, -0.036999, 0.095041, -0.050411, 0.024384, -0.002450, -0.023584, 0.051852, -0.057629, -0.003211, 0.021022, 0.006807, 0.011751, 0.028676, -0.038138, -0.011925, -0.140960, 0.181652, -0.090008, -0.019962, -0.002060, 0.002841, -0.102185, 0.046100, 0.004559, -0.062418, 0.029546, -0.041686, -0.004587, -0.022266, -0.008723, 0.005778, 0.034693, -0.008560, 0.014212, -0.008891, -0.012823, 0.017223, -0.038987, 0.012645, -0.284141, 0.293960, -0.037893, 0.005289, -0.015514, -0.006665, -0.024698, 0.021254, 0.000095, 0.005573, -0.018351, -0.032467, 0.003540, -0.019067, -0.005036, -0.050675, 0.036033, 0.001433, -0.002759, -0.007454, 0.013623, -0.021680, 0.003061, -0.010336, 0.002982, 0.010881, -0.024299, 0.050749, -0.085572, 0.006188, 0.041941, -0.007752, -0.032747, 0.044490, -0.060620, -0.065686, 0.005081, -0.000281, -0.009219, 0.000620, 0.021781, 0.020925, -0.011330, -0.029923, 0.016624, 0.000232, -0.004887, 0.015178, 0.111421, -0.079696, -0.073702, 0.020427, -0.044412, 0.003242, -0.008103, 0.003651, -0.036002, 0.065527, -0.029796, -0.039595, -0.011888, 0.008918, 0.004178, -0.031207, 0.007860, 0.022750, -0.009941, 0.030581, -0.003621, -0.011309, -0.023612, -0.014756, 0.057477, -0.035156, -0.040509, -0.007556, 0.019621, 0.006082, 0.017350, -0.031226, -0.020130, 0.113401, -0.092977, 0.003851, -0.016106, -0.017527, -0.003779, 0.023023, 0.048525, -0.009142, 0.003770, -0.009730, -0.000975, 0.010365, -0.010080, -0.000080, -0.008302, -0.025789, 0.051756, 0.013941, -0.043696, 0.028974, 0.065104, -0.084794, 0.027430, 0.079778, -0.096599, 0.063357, -0.005796, 0.016091, 0.000277, 0.023767, -0.029531, 0.024759, -0.003639, -0.001348, -0.005426, -0.015040, 0.028589, 0.023652, 0.036874, -0.076554, 0.040541, 0.067059, -0.037700, -0.005983, 0.012826, -0.018037, 0.005101, 0.061742, -0.089091, 0.010149, 0.020430, 0.018194, -0.002184, -0.019534, 0.003933, 0.033040, -0.014018, -0.021608, -0.004980, -0.011167, 0.031314, -0.015569, 0.096845, -0.054082, -0.009361, 0.037876, -0.013509, 0.021105, -0.018228, 0.063910, -0.027545, 0.033189, -0.020078, -0.015721, -0.000171, 0.000917, 0.002240, 0.047740, -0.019898, 0.020894, -0.002708, 0.025067, -0.009725, 0.004724, -0.016388, -0.006888, 0.087367, -0.052348, -0.033576, -0.010981, -0.007150, -0.008195, -0.024514, 0.026844, -0.023236, 0.019508, 0.004082, 0.003480, 0.010914, -0.012349, -0.000490, 0.009471, -0.038206, 0.000934, 0.006814, 0.022990, 0.013885, 0.013019, 0.003547, -0.013837, 0.097567, -0.031026, -0.087758, -0.014706, 0.037267, 0.034282, 0.028594, -0.021422, 0.046246, 0.040052, -0.034304, 0.018868, 0.009105, -0.007733, -0.015292, 0.042319, -0.019629, -0.020170, 0.012522, 0.005728, 0.018746, 0.001016, 0.010161, -0.007369, 0.135694, -0.100760, -0.084578, -0.020991, -0.007630, 0.007537, 0.002121, -0.031898, 0.038979, 0.019632, -0.045987, 0.034390, 0.029879, 0.003774, 0.009749, -0.020711, 0.080316, -0.024375, 0.009888, 0.002384, 0.006131, -0.013135, 0.043696, -0.005033, 0.268670, -0.217579, -0.089832, -0.018505, 0.013539, 0.020631, 0.100594, -0.092692, 0.043849, 0.056204, -0.136517, 0.053546, 0.008384, 0.019240, -0.008105, 0.017853, 0.020430, -0.011622, -0.020889, 0.023593, -0.007108, -0.001031, 0.044994, 0.002821, 0.232407, -0.257470, -0.029644, 0.007176, -0.028149, 0.031623, 0.055960, -0.095998, -0.001144, 0.093392, -0.146815, -0.010060, 0.005726, 0.005307, -0.009533, 0.031719, -0.035110, -0.011124, -0.007497, 0.031994, -0.003116, 0.042936, 0.005713, 0.016478, 0.082097, -0.084963, 0.001449, 0.038280, 0.003634, 0.024458, -0.013235, -0.017506, -0.046557, 0.083150, -0.085245, 0.004791, -0.032635, -0.007383, 0.016540, 0.007864, -0.057677, 0.037796, -0.000628, 0.017686, -0.002523, 0.027800, -0.009695, -0.018359, 0.065351, -0.032873, -0.030725, -0.003771, -0.046116, -0.001456, -0.003828, 0.096723, -0.087962, 0.011172, -0.005658, -0.025350, 0.015872, 0.016383, 0.012675, 0.007156, -0.007153, 0.003050, 0.029122, -0.025027, -0.007564, 0.043423, -0.000753, -0.033139, 0.035586, -0.086631, 0.016095, 0.004927, -0.049215, 0.034583, 0.039087, -0.000742, 0.000861, 0.018692, -0.030862, -0.034435, 0.000333, -0.017437, -0.009370, 0.015177, -0.021934, 0.039516, 0.051514, -0.044133, 0.003455, 0.023063, -0.044009, 0.016016, 0.031886, 0.005766, -0.042318, 0.002005, 0.038934, -0.028127, 0.006533, 0.056835, -0.028667, -0.080310, 0.054228, -0.009847, -0.019691, -0.000844, -0.026323, 0.014721, -0.044828, 0.042462, 0.016615, -0.048205, -0.016121, 0.053916, -0.051916, -0.001523, -0.008707, 0.086649, -0.108690, -0.041292, 0.034028, -0.012729, -0.011170, -0.013107, 0.016448, -0.054092, 0.059466, -0.005875, 0.017750, 0.008901, 0.001371, 0.059554, -0.056432, -0.020173, 0.033307, -0.050254, 0.001721, 0.052783, -0.053059, 0.005028, 0.061451, -0.020667, -0.101961, 0.031819, -0.054399, 0.032438, -0.023959, -0.017341, 0.045160, 0.023168, 0.000482, -0.031541, -0.008232, 0.002207, 0.003514, 0.054007, -0.060986, 0.004768, 0.072965, -0.053711, -0.031093, 0.076163, -0.094783, 0.010019, 0.039537, 0.019640, -0.067703, 0.025351, -0.057658, 0.001538, -0.037910, 0.035628, -0.045964, 0.071924, -0.017354, -0.086966, 0.034145, -0.012889, -0.007349, 0.040018, -0.035687, -0.011861, 0.022454, -0.038684, 0.005231, 0.056788, -0.038780, 0.007265, -0.033599, 0.099238, -0.110954, 0.011683, -0.023333, -0.035145, 0.091456, -0.033457, -0.103507, 0.124142, -0.089094, -0.119843, -0.027916, 0.003276, -0.025059, 0.032539, -0.059826, -0.014895, 0.052177, -0.034216, 0.009390, 0.015336, -0.032439, -0.007520, 0.002471, 0.046465, -0.106673, 0.057145, -0.067052, 0.000248, 0.128749, -0.069660, -0.068163, 0.119685, -0.071141, -0.096475, 0.025670, 0.023905, -0.015633, -0.003655, -0.044253, 0.024155, 0.011601, -0.035370, 0.028728, 0.030877, 0.001461, -0.012004, -0.021851, 0.067196, -0.067412, 0.032867, -0.052695, -0.010238, 0.115567, -0.092122, -0.068937, 0.144744, -0.103472, -0.114948, -0.015061, 0.012372, -0.020818, 0.064199, -0.049006, -0.014242, 0.007836, 0.007091, -0.019730, 0.005620, -0.029729, 0.026881, 0.080965, 0.003341, -0.110360, 0.059611, -0.065840, -0.051631, 0.124272, -0.145932, -0.050193, 0.158592, -0.126922, -0.098273, -0.016900, -0.010468, 0.012652, 0.030621, 0.007026, 0.002079, 0.016871, -0.006933, 0.004455, 0.021546, -0.006192, 0.013477, -0.002245, 0.100913, -0.134486, 0.040922, -0.020889, 0.010131, 0.087835, -0.077595, 0.009728, 0.149488, -0.140833, -0.057223, -0.029247, 0.006326, -0.005811, 0.029658, -0.018291, -0.020429, 0.027139, -0.041144, 0.010034, -0.000132, 0.020297, -0.008428, 0.000792, 0.065906, -0.047135, 0.040955, -0.041196, 0.006776, 0.025791, -0.034042, 0.002848, 0.095285, -0.075520, -0.014392, -0.014487, -0.014180, 0.013563, 0.043880, -0.056376, 0.019846, 0.001114, -0.006392, -0.017296, 0.008664, 0.007772, 0.003472, -0.017625, 0.084166, -0.048616, 0.030719, -0.035301, 0.011408, 0.057883, -0.061447, -0.052245, 0.097519, -0.094705, -0.065265, -0.029722, 0.004157, 0.019157, 0.052903, -0.031384, 0.003464, -0.005549, -0.000298, 0.003889, 0.007580, 0.009578, 0.031600, -0.011330, 0.038046, -0.037787, 0.049303, -0.049771, 0.016089, 0.034455, 0.045072, -0.079170, 0.045894, -0.006063, -0.085073, -0.001115, -0.010106, 0.017719, 0.023985, -0.010883, 0.004957, 0.003111, -0.034789, -0.014215, 0.051703, -0.007724, -0.009883, 0.152330, -0.115752, -0.064652, 0.041400, -0.020227, -0.000243, -0.048182, 0.094426, -0.041409, -0.024916, 0.047339, -0.053538, -0.018626, 0.017118, -0.015387, 0.082984, -0.031213, -0.031715, 0.036604, -0.037271, 0.011552, 0.023937, 0.013806, 0.022245, -0.106839, 0.169595, -0.050386, -0.038654, 0.026625, -0.002603, -0.005691, 0.013621, -0.030068, -0.017466, -0.021219, -0.011679, 0.000145, -0.011293, -0.015199, 0.089837, -0.048912, -0.031887, 0.025866, -0.020625, 0.027246, 0.007257, -0.021677, -0.020975, -0.257582, 0.283379, -0.063192, 0.022025, -0.002666, -0.001814, 0.022568, -0.017239, -0.045664, 0.033199, -0.022808, -0.030669, 0.016471, 0.011328, -0.005497, -0.042069, 0.030824, 0.006151, -0.013041, -0.040006, 0.017472, 0.042058, -0.008769, -0.005930, -0.188811, 0.207188, 0.049286, 0.070497, -0.037764, 0.000156, 0.105877, -0.047446, -0.062479, 0.058798, -0.009360, -0.043221, 0.008286, 0.002415, 0.006273, 0.026970, 0.026582, -0.012540, -0.004391, -0.016771, 0.033990, 0.009925, 0.004767, 0.029756, -0.050052, 0.065059, -0.079242, 0.008895, -0.053518, -0.009797, -0.007448, -0.006983, -0.007568, -0.046716, 0.034775, -0.017223, -0.008622, -0.006715, 0.018783, -0.012557, 0.050120, -0.033324, 0.006968, -0.024870, 0.021003, -0.018473, -0.007896, -0.013236, -0.072439, 0.114162, -0.004772, 0.011973, -0.042021, 0.043867, -0.007661, -0.006215, 0.045451, 0.044963, -0.052428, 0.022591, -0.013495, -0.014139, -0.011438, 0.026066, -0.009471, -0.033664, 0.010947, -0.008567, -0.004070, -0.001918, -0.019805, -0.003816, 0.056939, -0.115054, 0.044921, 0.041446, -0.023855, 0.017983, -0.011848, -0.010583, 0.088349, 0.063916, -0.115512, -0.001372, -0.003585, 0.010833, -0.026621, -0.014788, 0.007404, -0.045538, 0.015835, -0.015070, 0.019708, -0.000069, -0.019584, 0.003115, 0.066887, -0.087651, 0.057507, -0.005728, 0.005138, -0.007116, 0.006264, 0.010762, 0.011291, 0.086633, -0.114981, -0.006732, -0.006791, 0.030619, -0.007775, 0.014741, 0.026240, 0.014689, -0.024065, -0.001629, -0.028672, -0.026251, 0.021388, -0.006969, -0.024248, 0.013063, 0.017407, 0.046471, -0.020898, -0.031512, 0.004621, 0.002752, -0.009649, 0.040568, -0.028921, -0.052912, -0.026598, -0.009886, -0.015622, 0.042518, -0.031084, 0.038085, -0.013524, 0.025538, 0.019404, 0.024609, -0.002542, 0.027419, 0.124507, -0.116234, -0.051980, -0.010491, 0.023392, -0.019198, -0.006382, 0.013182, -0.028665, 0.021187, -0.025336, 0.000212, -0.005796, -0.020838, 0.014282, 0.042681, -0.021940, 0.009868, -0.000594, 0.030547, 0.016141, -0.005015, 0.011632, -0.010915, 0.123895, -0.063138, -0.078679, -0.001133, 0.017835, 0.004042, -0.006745, 0.021224, 0.005364, 0.009018, -0.040801, 0.042892, -0.020699, 0.018312, 0.001298, 0.035120, -0.022985, -0.024858, -0.008725, 0.020741, 0.020898, -0.024604, 0.018633, -0.020326, 0.078148, -0.031039, -0.063674, -0.054968, 0.039820, 0.032416, 0.022301, -0.048472, 0.032474, 0.045334, -0.068567, 0.022830, -0.006920, -0.018339, 0.008450, 0.002466, 0.024551, -0.032928, 0.016281, -0.016529, 0.005035, -0.005909, 0.018164, -0.027949, 0.164645, -0.135373, -0.136528, 0.001840, 0.003733, 0.057639, 0.085279, -0.101630, -0.000351, 0.104694, -0.131937, 0.022017, 0.015349, 0.013788, 0.004382, -0.038788, 0.086644, -0.022331, -0.002886, 0.033200, 0.004887, 0.009350, 0.003260, -0.017107, 0.195535, -0.210351, -0.083995, 0.020383, -0.043818, 0.044796, 0.066813, -0.051335, 0.019173, 0.042471, -0.047346, 0.034473, 0.003523, 0.024358, 0.016946, 0.021679, -0.044023, 0.002344, 0.028891, 0.013102, -0.029185, -0.007419, -0.006557, 0.014243, 0.152890, -0.164144, -0.052026, -0.027889, 0.028315, 0.005704, -0.017461, 0.040923, -0.031875, 0.004889, 0.040337, -0.024764, -0.020706, -0.026900, 0.025960, 0.031309, -0.024506, 0.012666, 0.034558, -0.024457, 0.002779, 0.033912, -0.015052, -0.018676, 0.138597, -0.124177, -0.087238, -0.046063, 0.037444, 0.014951, -0.000785, 0.049587, -0.038751, 0.005104, 0.016693, -0.014103, 0.025530, 0.006702, -0.009365, -0.002527, 0.018532, 0.007845, 0.011115, -0.000976, -0.040015, 0.044726, -0.020645, -0.025863, 0.098107, -0.066527, -0.018823, 0.005988, -0.001864, 0.044512, 0.007342, 0.007643, 0.027849, 0.028696, -0.013243, -0.027622, 0.022121, -0.004794, 0.014725, 0.031140, -0.045504, 0.000834, 0.041656, -0.025196, -0.014079, 0.012581, -0.026340, -0.009707, 0.123920, -0.140166, -0.008466, -0.020080, -0.009197, 0.016313, -0.046596, 0.086484, -0.008240, -0.044140, 0.048630, -0.028531, -0.015001, -0.000274, 0.003406, 0.037342, -0.074771, 0.011993, 0.012746, -0.044476, 0.006936, 0.011075, -0.030728, -0.001157, -0.040615, 0.082040, -0.057250, -0.051423, 0.044227, -0.008104, -0.036546, -0.023237, 0.050618, -0.062644, 0.028662, 0.020453, 0.006357, -0.017195, 0.002591, 0.049884, -0.054606, 0.012416, 0.010793, -0.020626, 0.008108, 0.023999, -0.039812, -0.030528, -0.061758, 0.100702, -0.112816, 0.024118, -0.034687, -0.013718, -0.091085, 0.041138, 0.072071, -0.072604, 0.082067, -0.013513, -0.022057, 0.011536, 0.005980, 0.061678, -0.048638, -0.020857, 0.036006, -0.085857, -0.006282, 0.030083, -0.041102, -0.006865, -0.077853, 0.157066, -0.146062, 0.044800, -0.020240, -0.035936, -0.067173, 0.050628, -0.009221, -0.066249, 0.088337, -0.042637, 0.026415, 0.007062, -0.008730, 0.089670, -0.089935, 0.013707, 0.058000, -0.020551, -0.012910, 0.033815, -0.047650, 0.015932, -0.097812, 0.139398, -0.095365, 0.028611, -0.047807, 0.001206, 0.000602, 0.029467, -0.051661, 0.101364, -0.046353, -0.075001, -0.007749, -0.003940, -0.000950, -0.008377, -0.001910, -0.016096, 0.023143, -0.030333, -0.008239, 0.035450, -0.036745, 0.002911, 0.001132, 0.062179, -0.100879, 0.051795, -0.043214, -0.043983, 0.064382, -0.077773, -0.035623, 0.148310, -0.123488, -0.100766, 0.016510, 0.001815, -0.016869, 0.068646, -0.072512, 0.012061, 0.029693, -0.038682, 0.014177, 0.050230, -0.026153, -0.004544, 0.040112, 0.041299, -0.112090, 0.048270, -0.074378, -0.030686, 0.117802, -0.139047, -0.024367, 0.210277, -0.182047, -0.097582, -0.019242, 0.016985, -0.002319, 0.024108, -0.045594, -0.001703, 0.018558, -0.049515, 0.016866, 0.055978, -0.023423, 0.007196, 0.030072, 0.046676, -0.073165, 0.044741, -0.068365, -0.024646, 0.126075, -0.112624, -0.074517, 0.173324, -0.138504, -0.083039, 0.011524, 0.001597, 0.015673, 0.023509, -0.023683, -0.006325, 0.025744, -0.021472, -0.021114, -0.007644, -0.021277, -0.018664, -0.044661, 0.137186, -0.104781, 0.037850, -0.086421, -0.029456, 0.034462, -0.023384, -0.020658, 0.064016, -0.047188, -0.037319, -0.016116, 0.008653, 0.003553, 0.077173, -0.054553, 0.009556, 0.027136, 0.001931, 0.011571, 0.001111, -0.030925, -0.002233, -0.061947, 0.135686, -0.112853, 0.068169, -0.058918, 0.007536, 0.041859, 0.005355, -0.061250, 0.069680, -0.043933, -0.076812, -0.020657, 0.025705, 0.012043, -0.009220, -0.019095, -0.027121, 0.002635, -0.026542, 0.030503, -0.007593, -0.034706, 0.012882, -0.083344, 0.117016, -0.073631, 0.015241, -0.033001, 0.010639, -0.004861, 0.041169, -0.057951, 0.066990, -0.039626, -0.084754, 0.017990, -0.013373, -0.009354, -0.015712, -0.001302, 0.005557, 0.040054, -0.047552, 0.018871, -0.009931, -0.033410, -0.017435, -0.007767, 0.079118, -0.085698, 0.037657, -0.029515, 0.001032, -0.007660, 0.012802, -0.066788, 0.090247, -0.028290, -0.081749, -0.012207, -0.023753, -0.017640, 0.022155, -0.021851, 0.001307, -0.015793, -0.019143, 0.025983, -0.028472, 0.012496, 0.001381, 0.147062, -0.136036, -0.088890, 0.031618, -0.040088, -0.001422, 0.017219, 0.027902, -0.050195, -0.028558, 0.037135, -0.068987, -0.022100, 0.005725, 0.020062, 0.020224, -0.010963, -0.025652, 0.026402, -0.026081, 0.010177, 0.014700, 0.004603, 0.021480, 0.052202, -0.015183, -0.050039, -0.006473, 0.024564, 0.000611, 0.018609, -0.000245, -0.026366, -0.003625, -0.029698, -0.043881, 0.007466, 0.004404, 0.002312, 0.059060, -0.018901, -0.026469, 0.028962, 0.000165, -0.007124, 0.015450, 0.007004, 0.008826, -0.035987, 0.061558, -0.057388, 0.020575, -0.016332, 0.041672, 0.015825, -0.003276, -0.028191, 0.001505, 0.016292, -0.045633, -0.006002, -0.009187, -0.005148, -0.016815, -0.013762, -0.048148, 0.037785, -0.048914, -0.004813, 0.053940, -0.068270, -0.017076, -0.080214, 0.108954, 0.007951, 0.026309, -0.049243, 0.034280, 0.010398, -0.022988, -0.025032, -0.020230, -0.018863, -0.008751, -0.017967, 0.019481, -0.023607, 0.011606, 0.023133, -0.000842, 0.007421, -0.012209, -0.007748, 0.013735, -0.027039, 0.015683, -0.166944, 0.169664, -0.000391, 0.024894, -0.007963, -0.025822, 0.031243, -0.061431, -0.028495, 0.025706, -0.019976, -0.016722, -0.008563, -0.011992, 0.018715, 0.004510, 0.006409, -0.022531, 0.033909, -0.020557, -0.014260, 0.004896, 0.001048, 0.016274, -0.150770, 0.183055, -0.010990, 0.045603, -0.064834, -0.036312, 0.032906, -0.001834, -0.011876, 0.045849, -0.092221, 0.003972, -0.025127, 0.003756, -0.002430, 0.020559, 0.017733, -0.029287, 0.002992, 0.017004, -0.006468, 0.008015, -0.017249, -0.003940, -0.025921, 0.056726, -0.048016, 0.025511, -0.044289, -0.008696, -0.013928, 0.004166, 0.028119, 0.008741, -0.040637, 0.024782, -0.001773, -0.015122, -0.022083, 0.024453, -0.030154, -0.029657, -0.008826, -0.007019, -0.020366, -0.001820, -0.023242, 0.001383, 0.002505, -0.026413, 0.003937, 0.041089, -0.038247, -0.010968, -0.015878, 0.018291, -0.012018, 0.067938, -0.080583, 0.004866, 0.025057, 0.018526, -0.026365, 0.029060, -0.023775, 0.023800, 0.014450, -0.016681, 0.006711, -0.037623, -0.005269, -0.019624, -0.031287, 0.026091, -0.001010, -0.021696, -0.009262, -0.013029, 0.032647, 0.016090, -0.044926, 0.084077, -0.059232, -0.026536, 0.001307, -0.018411, 0.034395, -0.037729, 0.002213, 0.029199, -0.000953, -0.010660, -0.011986, 0.005951, -0.024385, 0.021386, 0.022799, -0.041088, -0.003556, 0.049077, -0.060478, 0.004377, 0.023181, -0.006744, -0.023892, 0.002976, 0.001144, -0.009294, 0.006247, -0.014862, 0.015173, -0.036212, 0.008711, -0.018216, -0.014306, 0.024576, 0.003237, 0.013974, -0.024443, 0.000205, 0.065311, -0.012597, -0.082590, -0.002562, 0.030359, 0.004186, 0.002090, 0.005166, 0.018721, -0.017213, -0.027537, -0.003930, -0.025164, -0.000838, 0.008101, 0.001984, -0.017000, -0.031147, -0.024121, 0.026472, 0.019067, -0.009997, -0.036803, 0.033431, 0.082318, -0.080241, -0.038030, 0.006268, -0.024642, 0.030238, 0.010122, 0.003180, -0.004826, 0.044053, -0.069914, 0.016029, 0.004801, 0.018339, -0.005536, 0.003652, 0.014853, -0.037573, -0.044305, 0.038557, -0.007288, 0.024732, 0.040382, -0.012293, 0.111307, -0.091816, -0.035120, 0.044632, -0.020105, 0.025134, 0.038456, -0.076442, 0.054339, 0.069316, -0.153065, 0.041545, 0.009989, -0.004577, 0.008197, 0.084657, -0.014899, -0.048573, 0.009121, 0.029529, -0.018860, 0.013276, -0.015349, -0.019954, 0.104361, -0.117818, -0.002616, 0.033902, -0.049575, -0.008117, 0.003689, 0.011451, 0.018144, 0.025123, -0.042052, 0.026296, -0.009000, -0.028818, -0.019210, 0.069776, -0.072367, -0.023599, -0.012720, 0.020454, -0.037527, 0.002338, 0.028742, -0.009033, 0.056947, -0.104086, 0.042624, -0.027061, 0.006103, 0.007791, -0.059590, 0.075032, -0.031515, -0.003954, 0.006656, 0.019659, 0.016414, -0.031764, 0.017447, -0.018981, 0.033046, 0.005380, 0.001946, 0.006928, -0.004452, 0.011869, -0.047000, 0.004088, 0.102507, -0.106227, 0.018878, 0.017263, 0.002604, 0.017671, -0.005274, 0.055998, 0.014432, 0.005702, -0.058141, -0.006155, 0.032198, 0.005107, 0.008582, -0.010288, -0.028163, -0.001645, 0.018288, 0.004462, 0.028215, -0.011402, -0.017463, -0.029730, 0.103384, -0.108536, -0.064490, 0.022893, -0.055190, 0.029047, 0.041052, -0.003946, -0.064661, -0.015060, 0.004297, -0.014802, -0.006554, -0.015521, -0.021252, 0.014120, -0.042863, 0.010215, 0.023153, -0.036605, -0.016638, 0.009308, -0.034656, -0.000639, 0.135726, -0.138410, -0.006514, -0.003089, 0.011001, 0.034408, -0.084587, 0.073013, -0.004005, -0.079244, 0.034495, -0.032807, -0.033284, 0.011720, -0.006630, 0.010989, -0.060896, -0.011553, 0.038753, -0.044362, 0.004503, 0.025649, -0.016676, 0.009925, -0.003360, 0.003953, -0.041885, -0.013179, 0.037924, 0.008879, -0.054819, 0.059137, -0.026859, -0.062055, 0.043442, 0.020089, 0.019021, -0.023329, -0.011243, 0.046887, -0.043487, -0.023967, 0.016676, -0.033136, -0.014396, 0.037135, -0.049365, 0.013422, -0.023493, 0.093777, -0.064180, 0.019850, -0.056877, 0.038157, -0.041800, 0.032467, 0.006797, -0.054921, 0.077215, 0.011954, -0.002456, 0.016872, -0.003882, 0.055892, -0.035843, 0.001097, 0.078504, -0.044221, -0.023038, 0.052731, -0.024562, -0.030603, -0.002868, 0.099409, -0.101574, 0.002563, -0.055001, -0.018066, -0.058671, 0.059941, -0.001920, -0.034788, 0.011195, -0.001512, 0.013005, 0.000933, -0.024997, 0.035856, -0.056698, 0.005162, 0.033680, -0.041505, 0.001903, 0.040564, -0.017836, 0.013243, -0.050412, 0.113828, -0.083597, 0.004169, -0.016904, -0.011687, 0.017392, 0.034205, -0.034083, 0.060934, -0.004531, -0.077713, -0.006798, 0.006469, -0.014916, 0.064714, -0.051239, -0.003460, 0.022268, -0.010946, 0.020421, 0.041050, -0.032788, -0.006902, 0.028808, 0.020291, -0.045936, 0.062742, -0.037694, -0.026472, 0.108791, -0.082148, -0.045541, 0.168929, -0.132798, -0.060402, 0.011430, 0.008808, -0.019795, 0.021445, -0.050515, -0.031041, 0.058338, -0.036102, -0.009239, 0.030722, -0.046851, 0.012591, 0.048822, 0.035028, -0.069794, 0.045644, -0.023946, -0.043674, 0.125535, -0.100424, -0.068553, 0.188946, -0.163754, -0.062778, -0.010159, -0.007899, 0.019455, 0.049438, -0.032056, 0.016617, 0.017617, -0.059964, 0.004396, 0.044095, -0.023747, -0.007289, 0.035260, 0.043636, -0.112082, 0.027884, -0.062102, 0.008286, 0.115156, -0.100632, -0.019755, 0.100877, -0.043800, -0.076549, 0.016002, 0.033040, 0.023823, 0.015779, -0.005145, 0.019384, 0.011537, -0.000421, -0.007658, 0.044056, -0.036276, 0.014551, 0.007910, 0.053590, -0.095731, 0.040057, -0.062661, -0.023760, 0.103017, -0.114549, -0.045112, 0.093623, -0.104333, -0.072737, -0.016695, 0.013998, 0.002169, 0.018837, -0.006367, -0.002469, 0.019590, -0.010103, 0.010067, 0.017509, -0.008182, -0.009214, -0.003896, 0.061641, -0.044231, 0.056648, -0.051301, 0.005201, 0.089169, -0.062503, -0.077822, 0.112276, -0.097719, -0.031443, 0.021203, 0.011058, 0.020525, 0.011114, -0.007544, 0.041236, 0.031582, -0.034192, -0.010486, 0.040614, -0.053963, -0.012316, -0.049003, 0.121682, -0.062886, 0.026925, -0.038820, -0.014600, 0.068711, -0.055234, -0.102764, 0.045470, -0.026636, -0.077845, -0.001097, -0.016152, 0.014624, -0.018044, -0.011485, 0.027294, 0.032036, -0.051254, -0.004639, -0.025165, -0.002757, 0.007901, -0.112511, 0.160767, -0.071128, 0.055428, -0.038906, 0.017227, 0.053762, -0.062550, -0.002776, 0.039024, -0.027026, -0.082748, 0.009419, -0.018122, 0.014272, 0.039097, -0.046209, 0.025907, 0.022786, -0.030296, 0.015040, 0.019988, -0.012978, 0.005037, 0.033118, 0.012529, -0.112521, 0.078221, -0.061321, -0.015611, -0.016391, 0.030907, -0.024770, 0.025519, 0.002490, -0.081447, 0.031103, -0.011485, 0.004050, 0.008241, -0.033119, 0.007757, 0.007695, -0.038592, 0.008849, 0.019823, -0.001122, 0.010583, -0.017714, 0.080516, -0.103031, -0.010794, 0.029750, -0.000426, -0.038674, 0.022724, -0.027252, -0.001940, 0.016324, -0.057949, 0.001802, -0.002109, 0.016532, 0.011413, -0.007995, 0.033098, 0.001391, -0.031810, 0.029371, 0.028744, 0.012105, 0.027224, -0.005700, 0.061194, -0.077996, 0.004486, -0.026203, 0.018253, -0.077877, 0.084321, -0.001507, -0.021820, 0.032346, -0.031453, 0.013406, 0.005461, -0.022628, -0.030915, 0.042662, -0.006548, 0.019414, -0.028358, 0.039813, 0.040528, -0.050449, 0.004983, -0.010257, 0.004841, -0.024341, 0.066538, -0.023416, 0.034320, -0.016742, 0.053195, -0.030543, -0.010576, -0.004116, -0.046652, -0.020048, 0.005674, -0.009555, 0.020493, -0.031597, -0.000761, 0.020469, -0.033577, 0.011902, 0.012144, -0.032162, -0.002502, -0.118680, 0.147672, -0.020420, -0.022981, -0.019399, -0.003169, -0.029044, 0.031958, -0.059158, 0.060514, -0.030453, -0.071522, 0.009026, -0.019965, -0.002215, 0.004278, 0.005580, 0.004480, 0.009706, -0.008460, -0.003782, 0.032407, -0.022509, 0.012823, -0.152120, 0.207012, -0.066602, 0.024498, -0.032780, 0.023055, -0.024551, 0.019143, -0.049854, 0.100710, -0.093360, -0.049292, 0.000098, -0.012173, -0.008787, 0.018206, -0.027464, -0.017548, 0.008915, -0.030026, 0.005449, -0.012863, 0.013211, 0.007136, -0.104603, 0.136414, -0.092676, 0.023220, -0.026746, 0.012912, -0.012708, 0.031059, -0.009685, 0.064728, -0.012761, -0.007390, -0.003333, 0.005579, -0.001154, 0.033504, -0.045954, 0.019600, 0.004466, -0.026667, 0.036995, -0.001747, 0.006680, -0.009306, 0.017243, 0.075660, -0.122209, 0.029297, -0.034772, 0.031778, -0.029450, 0.020199, -0.057716, 0.047919, -0.032490, -0.036696, 0.022708, 0.005313, -0.016659, 0.044415, 0.008468, -0.020361, -0.009587, 0.012608, 0.003964, -0.007728, -0.009453, 0.026412, 0.049863, -0.013437, -0.093982, 0.000304, -0.019876, -0.000834, 0.029583, 0.021164, -0.066197, 0.063228, -0.054080, -0.056859, -0.010969, -0.004813, -0.007118, 0.047138, -0.005992, -0.004932, 0.009612, -0.014196, 0.020024, 0.030095, 0.009940, 0.006469, 0.056466, -0.009374, -0.017541, 0.043815, -0.029585, 0.015094, 0.019052, 0.018768, 0.000288, 0.014097, -0.024992, -0.026059, 0.020798, -0.015216, -0.028774, 0.040832, -0.040193, -0.006219, -0.019982, 0.032325, 0.009017, -0.019181, 0.002872, 0.011375, 0.015482, -0.039337, -0.020782, 0.037974, -0.009967, 0.020315, 0.036808, 0.015075, 0.004471, 0.008250, -0.033592, 0.021197, -0.014303, -0.023724, -0.004783, 0.002385, -0.015458, 0.003264, 0.004501, 0.013545, 0.023677, -0.004686, -0.032632, -0.015327, 0.002535, 0.020051, -0.006991, -0.003801, 0.018458, 0.002343, 0.040725, -0.069109, 0.043661, 0.026396, -0.049451, 0.000697, 0.012879, 0.006334, 0.003393, 0.026688, -0.021911, -0.024320, -0.004777, 0.021622, -0.009103, -0.002356, -0.008527, 0.005180, -0.024704, -0.006915, 0.028580, 0.025735, -0.025900, 0.007697, -0.023066, -0.006047, 0.052103, 0.059335, -0.106614, 0.046960, -0.011804, -0.000195, 0.015404, 0.038261, -0.000246, -0.056101, 0.020172, -0.004939, 0.002590, 0.012888, 0.006301, -0.009958, 0.034604, -0.072417, 0.039200, 0.013280, -0.018531, 0.028561, -0.042251, 0.031473, 0.012778, -0.008464, 0.019196, 0.041817, -0.003189, 0.033406, -0.025947, 0.069562, -0.033926, -0.051095, 0.016352, -0.000339, -0.034141, 0.000926, -0.001911, -0.030891, 0.020801, -0.027186, 0.050670, -0.010618, -0.006793, -0.006228, -0.005502, 0.051797, 0.000508, -0.013888, 0.022679, 0.006441, 0.011829, 0.034481, -0.030793, 0.038517, -0.030798, -0.020073, 0.013102, 0.017040, 0.013998, -0.009737, 0.022266, 0.007629, 0.029871, -0.036976, 0.053366, -0.039130, 0.016811, 0.026455, 0.024826, -0.071413, -0.034673, 0.006439, -0.044779, 0.027719, 0.028237, -0.022032, -0.022529, 0.019408, -0.048040, 0.025073, 0.021904, -0.034489, 0.009507, 0.007780, -0.030856, 0.000190, -0.042687, 0.032890, 0.026888, 0.074571, -0.027118, -0.012491, -0.021100, 0.023177, -0.034212, 0.029391, 0.011581, -0.056174, 0.015724, -0.006213, 0.008093, 0.025472, -0.084825, -0.000379, 0.004862, 0.001465, 0.015470, 0.002896, 0.025705, -0.008248, 0.076666, -0.037825, -0.045109, 0.028052, -0.038562, 0.025050, -0.014469, 0.049344, 0.007483, -0.011435, -0.015281, 0.043003, -0.011557, -0.000663, 0.022593, 0.012658, -0.030221, 0.003544, 0.049111, -0.033340, 0.012334, -0.014248, -0.000923, -0.007773, 0.098082, -0.099674, -0.044568, 0.006837, -0.027104, 0.002697, -0.053065, 0.029847, -0.010566, -0.024784, 0.002509, 0.033394, 0.001660, 0.002750, 0.001182, 0.042348, -0.033583, 0.012149, 0.041440, -0.021275, -0.028726, 0.049114, 0.000668, 0.010624, 0.077753, -0.048298, -0.096860, -0.020326, 0.019267, -0.036979, 0.000605, -0.047978, 0.050053, -0.015921, -0.027135, 0.037986, -0.014136, -0.000307, -0.014552, 0.023398, -0.050081, -0.022726, 0.052296, -0.020191, -0.014771, 0.048012, -0.036187, -0.016436, 0.147067, -0.104438, -0.149008, 0.004443, -0.034129, 0.017729, 0.040117, -0.071453, -0.005152, 0.007328, 0.025597, -0.003003, -0.023355, 0.014405, 0.010882, 0.054100, -0.039485, -0.013435, 0.058372, -0.047488, -0.026351, 0.003787, -0.041959, 0.002497, 0.062318, 0.049189, -0.111648, -0.042357, 0.008365, 0.005924, 0.094927, -0.085889, -0.032195, 0.048465, -0.048098, -0.076897, 0.000552, -0.000940, -0.007664, 0.008245, -0.001977, 0.019257, 0.027303, -0.030010, 0.032482, 0.044009, -0.016859, 0.002866, 0.071742, -0.042147, -0.051416, -0.004365, -0.040105, -0.031138, 0.230812, -0.202904, -0.097519, 0.096841, -0.079814, -0.104319, 0.025118, -0.004900, -0.008298, -0.016579, 0.004167, -0.001240, 0.018518, -0.027938, 0.001697, 0.059657, -0.049696, -0.001789, 0.158103, -0.104410, -0.065048, 0.016233, 0.000875, -0.021190, 0.137046, -0.144521, -0.039501, 0.117897, -0.086878, -0.101001, 0.006611, -0.014973, -0.004559, 0.033929, -0.053309, -0.003149, -0.002911, -0.022427, -0.000715, 0.015757, -0.026583, -0.002431, 0.071264, -0.052036, -0.069692, 0.003027, -0.028168, -0.025354, 0.109279, -0.103944, -0.050534, 0.087990, -0.091539, -0.050693, -0.029466, 0.030768, 0.028393, -0.000342, -0.020227, -0.019382, 0.013723, -0.003974, 0.006820, -0.013120, -0.028223, 0.001950, 0.021137, 0.041214, -0.086751, 0.003857, -0.002179, -0.007140, 0.093542, -0.137215, -0.045997, 0.088868, -0.073563, -0.065859, 0.013046, 0.028438, -0.009281, 0.037503, 0.009437, 0.014880, 0.019064, -0.050944, 0.021978, 0.037982, -0.001087, 0.020543, 0.108280, -0.027993, -0.108810, 0.025955, -0.040976, -0.002645, 0.052518, -0.022806, -0.056454, 0.113564, -0.090125, -0.075742, 0.019521, -0.020939, 0.023690, 0.025690, 0.000051, -0.000296, 0.012261, -0.024727, 0.024626, 0.043370, -0.037757, 0.007018, 0.121323, -0.069143, -0.072285, 0.006701, -0.011400, 0.015320, 0.032565, -0.036657, -0.002292, 0.133478, -0.086954, -0.037670, -0.020724, 0.019353, 0.016276, 0.019768, -0.007915, 0.012586, -0.006975, -0.033442, -0.005440, -0.006079, -0.011358, 0.011145, 0.002384, 0.063726, -0.074110, 0.013351, 0.004533, -0.023880, 0.095181, -0.096462, -0.039227, 0.082197, -0.062585, -0.040759, -0.006505, 0.014581, -0.019890, 0.003333, 0.010854, 0.008950, -0.002209, 0.016082, 0.014926, 0.040575, -0.036967, 0.033340, 0.144251, -0.052042, -0.099462, 0.077674, -0.071136, 0.003909, 0.026607, -0.061487, 0.007463, 0.016269, 0.005428, -0.053509, -0.016145, -0.018647, -0.006314, 0.024318, 0.009187, -0.010036, 0.010836, -0.039749, 0.010355, -0.002434, -0.035037, 0.014758, -0.005287, 0.069878, -0.042272, -0.027045, 0.042916, -0.037964, 0.032487, -0.013512, -0.019674, 0.020834, 0.001506, -0.035639, -0.005653, 0.004259, -0.007308, 0.042547, -0.015619, -0.013075, 0.027632, -0.004643, 0.020724, 0.032846, -0.031941, 0.017732, -0.042027, 0.108410, -0.063288, 0.011003, -0.012901, -0.005607, 0.016295, 0.002770, -0.035821, -0.046017, 0.087521, -0.040628, -0.001593, -0.009353, 0.020668, -0.008151, 0.025535, -0.003346, 0.014841, -0.047715, -0.019100, 0.029429, -0.015321, 0.014259, -0.045657, 0.079943, -0.082518, 0.031106, -0.028790, 0.020563, -0.012571, -0.023037, 0.001249, -0.006104, 0.020096, -0.050821, -0.001592, 0.012450, 0.020803, 0.036973, 0.008206, -0.015336, 0.010264, -0.003793, 0.001035, 0.022839, -0.006834, -0.002577, -0.131671, 0.158931, -0.041552, -0.001068, 0.030244, 0.023835, -0.026766, 0.029954, -0.084037, 0.052353, -0.027258, -0.068531, 0.028583, 0.031335, -0.029197, -0.006324, 0.004149, 0.008036, -0.007737, -0.033653, 0.004354, 0.034637, 0.003710, 0.015922, -0.103814, 0.144066, -0.057106, 0.057468, -0.061577, -0.011068, 0.054482, -0.024502, -0.036111, 0.037184, -0.016260, -0.047219, 0.023632, -0.006600, 0.003398, 0.014799, -0.024576, 0.013114, 0.033176, -0.047329, -0.001749, -0.026143, 0.001162, -0.016032, -0.099142, 0.150688, -0.144491, 0.022709, -0.021965, 0.027760, 0.026091, -0.008838, -0.038324, 0.055954, -0.094741, -0.045227, -0.004577, 0.020996, -0.009757, -0.031696, 0.040775, 0.014381, -0.001836, 0.000740, 0.013409, -0.030856, 0.028551, 0.009648, 0.087692, 0.003197, -0.174595, 0.039434, -0.065239, -0.010385, 0.100564, -0.084379, -0.037176, 0.104953, -0.054637, -0.064878, 0.004412, -0.016687, 0.019383, 0.009397, 0.009101, -0.000405, -0.032072, 0.038595, 0.003939, -0.018085, 0.021505, -0.002943, 0.109700, -0.024773, -0.161411, 0.031854, -0.035386, 0.021474, 0.016572, -0.027247, -0.017564, 0.059438, -0.058742, -0.067420, 0.001820, 0.022852, -0.010481, -0.012183, 0.035937, 0.018301, -0.017627, 0.012267, 0.008698, 0.008373, -0.025965, -0.022982, 0.207666, -0.154784, -0.101526, -0.040212, 0.032009, 0.017112, 0.015106, -0.017728, 0.008308, 0.037370, -0.029474, -0.002057, -0.003316, -0.011623, 0.029248, -0.008630, 0.031487, -0.004754, 0.005051, 0.032789, 0.016205, 0.022066, -0.031521, -0.013175, 0.101301, -0.077840, -0.030504, -0.009237, 0.008230, 0.003643, 0.062485, -0.088344, -0.005345, 0.047741, -0.004835, -0.028164, 0.020779, 0.009060, 0.011269, 0.004946, 0.049517, -0.023744, 0.011613, -0.007180, 0.029645, -0.020289, -0.008083, 0.001639, 0.111306, -0.076621, -0.118995, 0.031557, 0.011567, -0.011753, 0.017099, -0.004342, -0.023875, 0.023289, -0.081569, -0.006352, 0.024473, 0.001048, -0.022544, 0.024717, 0.026278, -0.042452, 0.014523, 0.042052, 0.008123, 0.001794, -0.021547, -0.022028, 0.125739, -0.091203, -0.053860, 0.007139, -0.036082, -0.011918, 0.007230, -0.011969, 0.012745, 0.035763, -0.090205, 0.030413, 0.008965, 0.005760, 0.007668, 0.026314, 0.025384, -0.048380, -0.009435, 0.003741, -0.015229, 0.007371, -0.003980, -0.007210, 0.101944, -0.108555, 0.045550, -0.033824, 0.014280, 0.035726, 0.052225, -0.055042, -0.000302, 0.040701, -0.068534, 0.013879, 0.012357, 0.004885, 0.004912, 0.003446, -0.005462, -0.035449, -0.016232, -0.016479, -0.015089, -0.025930, 0.007203, 0.023165, 0.060760, -0.005924, -0.002654, 0.040061, -0.006979, 0.017260, 0.002159, 0.008223, -0.042882, 0.009639, -0.053915, 0.041069, -0.018432, -0.003223, -0.001170, -0.030438, 0.059111, -0.015700, -0.033026, -0.003384, -0.003708, -0.016339, 0.012570, -0.022337, -0.024876, -0.027605, 0.022946, 0.004553, 0.022759, -0.001402, 0.067255, -0.065012, -0.005053, 0.024876, -0.045347, 0.018594, -0.013589, -0.023212, -0.001007, -0.015682, -0.036224, 0.043095, 0.004209, -0.011625, 0.002423, -0.005100, -0.004062, -0.000386, 0.034923, 0.029508, -0.037003, 0.059040, -0.033981, -0.036879, 0.002510, 0.015076, -0.045165, 0.048313, -0.046928, -0.031107, -0.005476, 0.011489, -0.020362, -0.041690, -0.007907, -0.020084, -0.000138, -0.015063, 0.007037, 0.002167, -0.008583, 0.004349, 0.023543, -0.084062, 0.019045, 0.004816, 0.010361, -0.002770, 0.037189, -0.093369, 0.024446, 0.042133, -0.063607, 0.016860, 0.004149, -0.016871, -0.015552, -0.017862, 0.020266, -0.047533, 0.010719, 0.016403, -0.010221, 0.004571, 0.014431, -0.019320, 0.042578, -0.052413, 0.005218, 0.004250, -0.007332, 0.032746, -0.009384, -0.066008, 0.051750, 0.015299, -0.110650, 0.029553, 0.003377, 0.002786, 0.000647, 0.024136, -0.019763, -0.009658, -0.009138, -0.036720, 0.010728, 0.011810, -0.021558, -0.023778, 0.168763, -0.209738, 0.025522, -0.044840, 0.050894, 0.019522, 0.033870, -0.084001, 0.077337, 0.047761, -0.104580, 0.049887, 0.008848, 0.004995, 0.012393, -0.026191, 0.038696, 0.023113, 0.030686, -0.024173, -0.018739, -0.001569, -0.032028, -0.005955, 0.166227, -0.153783, -0.054207, -0.036842, 0.042460, 0.009442, 0.092504, -0.143676, -0.001091, 0.005222, -0.092662, 0.065143, -0.010310, -0.002858, 0.008260, 0.015967, 0.010156, -0.024775, 0.013613, -0.031874, -0.000659, 0.013781, -0.034446, -0.014555, 0.139583, -0.105571, -0.119533, -0.062604, 0.082315, -0.023433, 0.128917, -0.177502, 0.006312, 0.109367, -0.095121, -0.045087, -0.021603, -0.000577, -0.019591, 0.031465, -0.000531, -0.006572, 0.011286, -0.008603, -0.015343, 0.053994, -0.049944, -0.002318, 0.163044, -0.141007, -0.093303, -0.067275, 0.039533, -0.001144, 0.127053, -0.135485, 0.014037, 0.127136, -0.081458, -0.094463, -0.030709, -0.017345, -0.008093, -0.015437, -0.018984, 0.033615, 0.013674, -0.038068, 0.016440, 0.012495, -0.049281, 0.000897, 0.073379, -0.055020, -0.075809, 0.013960, 0.015769, -0.017639, 0.131532, -0.145497, -0.068230, 0.091927, -0.079698, -0.077167, 0.029071, 0.005751, 0.007280, -0.004099, 0.002360, -0.006975, -0.000714, -0.032807, 0.009509, 0.003585, -0.026374, -0.022620, 0.156884, -0.129251, -0.067679, 0.011738, 0.021143, -0.002377, 0.091729, -0.135987, -0.053577, 0.099638, -0.036594, -0.069769, -0.012079, 0.015017, 0.008988, -0.006693, 0.007019, 0.012100, 0.041007, -0.029778, 0.024324, 0.019769, -0.019516, 0.022385, 0.084658, -0.030873, -0.078055, 0.006288, 0.014884, -0.023889, 0.038748, -0.037943, -0.031114, 0.040647, -0.014611, -0.063686, -0.008449, 0.014346, 0.023713, -0.028725, -0.005267, -0.001653, 0.016413, -0.042055, -0.005843, 0.005372, -0.021886, -0.001520, 0.038417, -0.008953, -0.073522, -0.005345, 0.024676, -0.009603, 0.033719, -0.052890, -0.040546, 0.037700, -0.021557, -0.030035, 0.018086, 0.017331, 0.008170, 0.011745, 0.007480, -0.009645, 0.023941, -0.061081, 0.033076, 0.011092, -0.004371, -0.007869, 0.062059, -0.012375, -0.086510, 0.042495, -0.011860, -0.010960, 0.004262, -0.039311, 0.028743, 0.030580, -0.017219, -0.029360, -0.003975, -0.005052, -0.010760, 0.014416, 0.008008, -0.016249, 0.009066, -0.035149, 0.026985, 0.016128, -0.011876, 0.007273, -0.013410, 0.040665, -0.031984, -0.012821, -0.002946, -0.006247, 0.054444, -0.076131, -0.006199, 0.102404, -0.075128, -0.076983, -0.013121, -0.002066, 0.012619, 0.028350, -0.043400, 0.020798, 0.009954, -0.017895, 0.020254, -0.009212, -0.010881, 0.005455, 0.060560, -0.071891, -0.023116, 0.036933, -0.018407, -0.023137, 0.017804, -0.019792, 0.019266, 0.001203, 0.045187, -0.047033, -0.004902, 0.013159, -0.017690, 0.031427, -0.003101, -0.007489, -0.004313, -0.029671, -0.009353, -0.008138, 0.003388, 0.039758, -0.067303, 0.069122, 0.048069, -0.031745, 0.057108, -0.027522, 0.002733, -0.060971, 0.004603, 0.020185, -0.011917, -0.025233, -0.002715, -0.008307, 0.013203, -0.063154, 0.051617, -0.011323, 0.008885, -0.052507, 0.005922, 0.011086, 0.022350, -0.015759, -0.033167, 0.014608, 0.036432, -0.046491, 0.027556, -0.008589, -0.034182, 0.030815, 0.002246, -0.017853, 0.025842, -0.033257, -0.028513, 0.008713, 0.004472, -0.007094, 0.069389, -0.015447, 0.048235, -0.021920, 0.036582, -0.018843, 0.015431, 0.032573, 0.101901, -0.070613, -0.042957, 0.015891, -0.015607, 0.007232, 0.040704, -0.033194, -0.022573, 0.004140, -0.012359, -0.066052, 0.000155, 0.015411, 0.008359, 0.013143, -0.014560, 0.015079, 0.034395, -0.076561, -0.012503, 0.016312, -0.041773, 0.012325, 0.039507, 0.001954, -0.088849, -0.046277, 0.029739, 0.020404, 0.048509, -0.042051, -0.030042, 0.062150, -0.049146, -0.103469, 0.003946, -0.004842, -0.030991, 0.045018, -0.036139, 0.011962, -0.009026, -0.009369, 0.025937, 0.045847, -0.042569, 0.005872, 0.011857, -0.017156, -0.031814, -0.016906, -0.026288, -0.002011, 0.005974, 0.011948, -0.048673, 0.048369, -0.040010, -0.086473, -0.000625, 0.020893, 0.002036, 0.015428, 0.004385, 0.014578, 0.010422, -0.018223, 0.030286, 0.007400, -0.032274, 0.031292, -0.107129, 0.132945, -0.058551, 0.001592, -0.028563, 0.017436, 0.072350, -0.052246, -0.037005, 0.080043, -0.076650, -0.057115, -0.020358, -0.008294, -0.013961, -0.045656, -0.003620, 0.019481, 0.007963, 0.016988, 0.023802, -0.008795, -0.026501, 0.025504, -0.026826, 0.113909, -0.096084, 0.010264, -0.006185, 0.005645, 0.074497, -0.061247, -0.020496, 0.047264, -0.041317, -0.058312, -0.015744, -0.013209, 0.015225, -0.032481, 0.049321, -0.013853, 0.023918, 0.006597, 0.032913, -0.027223, 0.007515, 0.007698, 0.070172, -0.012214, -0.116001, 0.015064, -0.005700, 0.006564, 0.029900, -0.021570, -0.008028, 0.035500, -0.064989, -0.020335, -0.000273, 0.014909, 0.003519, -0.005473, 0.004711, 0.005348, -0.002982, 0.000739, 0.005839, -0.031376, -0.004020, 0.002841, 0.073266, 0.023460, -0.090156, -0.005367, 0.000429, -0.001293, -0.016724, -0.004723, 0.011082, 0.050957, -0.058204, -0.006284, 0.015866, 0.010946, 0.018469, -0.019179, 0.007221, -0.015739, 0.004780, 0.000105, 0.011142, -0.020204, 0.013802, 0.008188, 0.152099, -0.102260, -0.131342, -0.029009, 0.017387, 0.012405, 0.051611, -0.034864, -0.000748, 0.049361, -0.060805, -0.021193, 0.023016, 0.016259, -0.029469, -0.025524, 0.042561, 0.014159, -0.005249, 0.005493, 0.027398, -0.006442, -0.002528, -0.005067, 0.111252, -0.027026, -0.134965, -0.037241, 0.050458, 0.040863, -0.002806, 0.014843, -0.023449, 0.016775, -0.025095, -0.018104, 0.013824, 0.017631, 0.022569, -0.015095, 0.011605, -0.026692, -0.024880, -0.025232, 0.000881, -0.020428, 0.003518, 0.031600, 0.183517, -0.139337, -0.113134, 0.001550, 0.018913, 0.000306, 0.083905, -0.040365, -0.016057, 0.057452, -0.068343, -0.006858, -0.002031, 0.003644, 0.016747, -0.006791, 0.020165, -0.031998, -0.004089, -0.000238, -0.003466, 0.014035, 0.003285, 0.006252, 0.176370, -0.160863, -0.018659, -0.045870, -0.008806, 0.050823, 0.044892, -0.050512, -0.031210, 0.034880, -0.093344, 0.006788, -0.001295, 0.000512, -0.012464, -0.048410, 0.062673, -0.040886, 0.017309, 0.022689, 0.002008, -0.011917, 0.022825, -0.005782, 0.088905, -0.074794, -0.027112, 0.011056, -0.012716, 0.006363, 0.094013, -0.053617, -0.003788, 0.080268, -0.063959, -0.007069, 0.019375, -0.017806, 0.023515, -0.019692, 0.062906, -0.009738, -0.012462, 0.022183, 0.014185, 0.023554, -0.011059, -0.003951, 0.064427, -0.096046, 0.002632, -0.003852, 0.020475, 0.039415, 0.110339, -0.067198, -0.047374, 0.080504, -0.112577, 0.033156, -0.017943, -0.003919, 0.025341, -0.074980, 0.040993, 0.038641, -0.024810, -0.007758, -0.028757, -0.010272, 0.011782, 0.015513, 0.046067, -0.031922, -0.042677, 0.031228, -0.018494, -0.055293, 0.148297, -0.074910, -0.048199, 0.086608, -0.096869, -0.056734, -0.011142, 0.000841, 0.008700, -0.091334, 0.041211, 0.052184, -0.028837, -0.026032, -0.016156, 0.010190, 0.009341, -0.014645, 0.098036, -0.065688, -0.077952, -0.011647, 0.018196, 0.001059, 0.085719, -0.127721, 0.030843, 0.101607, -0.184805, 0.037334, -0.004517, -0.014832, -0.009579, -0.076081, 0.035702, 0.029173, -0.026375, -0.005976, 0.019472, -0.019500, 0.004963, -0.000588, 0.197661, -0.236433, 0.033686, -0.042149, 0.044606, 0.033666, 0.108114, -0.194924, 0.032767, 0.093236, -0.135396, 0.027725, -0.000940, 0.020803, -0.016068, -0.067557, 0.032491, 0.002911, -0.002366, 0.016443, 0.001108, -0.020767, 0.021783, 0.008750, 0.155766, -0.226141, 0.039476, -0.041041, 0.042226, 0.063863, 0.101173, -0.132231, 0.022373, 0.060784, -0.127130, 0.029905, -0.006362, 0.016237, 0.010149, -0.033989, 0.038093, -0.028175, 0.002441, -0.011325, -0.013763, 0.003398, 0.007837, -0.015409, 0.210889, -0.241938, -0.000658, -0.075939, 0.053399, 0.025420, 0.073331, -0.140073, 0.051842, 0.139354, -0.155517, 0.031387, -0.011492, -0.004370, -0.003519, -0.046281, 0.029405, 0.006202, -0.014680, 0.016613, 0.015587, 0.039768, -0.003718, 0.010045, 0.172609, -0.144576, -0.034791, -0.052754, 0.034124, 0.021601, 0.071354, -0.077144, 0.001767, 0.076357, -0.091101, 0.060863, 0.005654, -0.010530, 0.000760, -0.030088, 0.051762, -0.001584, 0.001537, -0.032866, 0.018157, 0.045806, -0.045902, -0.014700, 0.115016, -0.099084, -0.049809, -0.030563, 0.079326, -0.033121, 0.004466, -0.045027, 0.001048, 0.022515, -0.043983, -0.011006, 0.007650, -0.000666, -0.018230, -0.001701, -0.008589, -0.000676, 0.010566, -0.036644, -0.020731, 0.036188, -0.045715, -0.012484, 0.069362, 0.009412, -0.092238, -0.041594, 0.038930, -0.034953, 0.024049, -0.008684, -0.047130, 0.043341, 0.005620, -0.021347, 0.002154, -0.005785, -0.006755, -0.003250, 0.027466, -0.013188, 0.019265, -0.016445, 0.016584, 0.035737, -0.032360, 0.024654, 0.016382, 0.005442, -0.088957, 0.018754, -0.002825, -0.014408, 0.043767, 0.007678, -0.097990, 0.044582, 0.004757, -0.111444, 0.021726, 0.014824, -0.004755, 0.051065, -0.037733, 0.016671, -0.011559, -0.025469, 0.026964, -0.003274, 0.008219, 0.017339, -0.062350, 0.116626, -0.087993, 0.032776, -0.010047, 0.004463, -0.018487, 0.036563, -0.078048, 0.018085, 0.053170, -0.064275, 0.016652, -0.011536, 0.007973, 0.012304, -0.029365, -0.013106, 0.009574, -0.027302, 0.017892, 0.032199, -0.008411, -0.012840, -0.149234, 0.187782, -0.038872, 0.014403, -0.001298, -0.040758, -0.005160, 0.051362, -0.088676, -0.033471, 0.036584, -0.036478, -0.014195, 0.026175, 0.018749, 0.013744, 0.015082, 0.009731, 0.021218, -0.009125, 0.023165, 0.006030, -0.008114, 0.011417, -0.057493, 0.077706, -0.051631, 0.040433, -0.046892, -0.006609, 0.065628, -0.027106, -0.024920, 0.026948, 0.012643, -0.049650, 0.011370, 0.022635, 0.002864, -0.044622, 0.037951, -0.006902, -0.020651, 0.008383, -0.006302, 0.020642, -0.012642, 0.021212, 0.078458, -0.074206, -0.035814, 0.031218, -0.027900, -0.002234, 0.025581, -0.064420, -0.035017, 0.103871, -0.081732, -0.042337, -0.012732, -0.019416, 0.013461, -0.009576, -0.032583, 0.008379, 0.000133, 0.019626, 0.004251, 0.025391, -0.043472, 0.024381, 0.093974, -0.028043, -0.043276, 0.063835, -0.032016, -0.001319, 0.052685, -0.019032, -0.045942, 0.016664, 0.033591, -0.011405, 0.005597, -0.010565, 0.017156, 0.023367, -0.050674, -0.018002, -0.004493, -0.014534, -0.003585, -0.002972, 0.004307, 0.000917, -0.087487, 0.143350, -0.057367, -0.039626, 0.070741, 0.024258, 0.006580, -0.006305, 0.008714, -0.018481, 0.009305, -0.048852, 0.006190, -0.010147, -0.000569, 0.010863, 0.001995, 0.002199, 0.037855, -0.029751, 0.033001, -0.001151, -0.026745, 0.013622, -0.114537, 0.136939, 0.017782, 0.012375, -0.018769, 0.045282, 0.058000, -0.035211, -0.052053, -0.022566, 0.004874, -0.071837, -0.009184, -0.007969, -0.004686, -0.024294, 0.041991, 0.007691, 0.002288, -0.022210, 0.036785, 0.004425, -0.008123, 0.008223, 0.011158, -0.001850, -0.035592, -0.003834, -0.046545, 0.028022, 0.023314, 0.009133, -0.085436, 0.031981, -0.041838, -0.067238, 0.025796, 0.010785, 0.007429, -0.022529, 0.041568, -0.022137, -0.018145, -0.007078, -0.004738, 0.028151, -0.043090, -0.007382, 0.164559, -0.084913, -0.180402, -0.011151, 0.057424, 0.014984, 0.053713, -0.030566, -0.050981, 0.062068, -0.028970, -0.095611, 0.014372, 0.008853, -0.009138, -0.027877, 0.033081, -0.028971, 0.023579, -0.045063, -0.003628, 0.000090, -0.023422, -0.004251, 0.165024, -0.139589, -0.074616, -0.013995, 0.024247, 0.014392, 0.057550, 0.001066, -0.013728, 0.073896, -0.037867, -0.089413, 0.016593, -0.018991, 0.008664, 0.020542, -0.013443, 0.007866, 0.011391, -0.002782, 0.045665, -0.011911, -0.021283, 0.033491, 0.022050, 0.022431, -0.057838, -0.010710, 0.015100, 0.000599, 0.086336, -0.055158, -0.037533, 0.061776, -0.046112, -0.094158, -0.026823, -0.030247, 0.001494, -0.027857, -0.015988, 0.002030, -0.009090, -0.043069, 0.019143, 0.004101, -0.022745, 0.024735, -0.161639, 0.196696, -0.075503, -0.017067, 0.016962, 0.000926, 0.062425, -0.010073, -0.036065, 0.013765, -0.020604, -0.031358, -0.006400, 0.022216, 0.012562, -0.006655, 0.046909, -0.024971, -0.005624, -0.018465, -0.016759, -0.020491, 0.015959, 0.009144, -0.161159, 0.222263, -0.104465, 0.032533, -0.029638, 0.012867, -0.032008, 0.013597, 0.014020, 0.029345, -0.035338, -0.014471, 0.009047, 0.009958, -0.023370, -0.016553, 0.054868, -0.001469, -0.001879, -0.000187, 0.015900, -0.021052, -0.001182, 0.025218, -0.017368, 0.064680, -0.096579, 0.039417, -0.072627, 0.018188, -0.005704, 0.031382, -0.023823, 0.022985, -0.022524, 0.012451, -0.007587, 0.014507, 0.012132, 0.017707, -0.022018, 0.018812, 0.009696, -0.037279, -0.009964, 0.004398, 0.006624, 0.014161, -0.030332, 0.093428, -0.148718, 0.019447, -0.041812, 0.029211, -0.070910, 0.120789, -0.037668, -0.001700, 0.019624, -0.031059, 0.003898, -0.015578, -0.010171, 0.021131, -0.080862, 0.002811, 0.008559, -0.008616, 0.015154, -0.003401, -0.007165, 0.033391, -0.078560, 0.161618, -0.219085, 0.014978, 0.006153, 0.028537, -0.006994, 0.060665, -0.052199, -0.025334, 0.019222, -0.057653, -0.006664, -0.004784, -0.007835, 0.045920, -0.060323, 0.009698, -0.009618, -0.037009, -0.010833, -0.005152, 0.005011, -0.016517, 0.092963, 0.020721, -0.194164, -0.021428, -0.055201, 0.012374, -0.022535, 0.059388, -0.044735, 0.012487, -0.017134, -0.012175, 0.002145, 0.014968, 0.002419, 0.020121, -0.001037, -0.016684, 0.019034, 0.018776, 0.010237, -0.005163, 0.003958, 0.001707, 0.084184, -0.072826, -0.098365, 0.008752, -0.042036, 0.041861, -0.001240, 0.039170, -0.036200, 0.034281, -0.046369, -0.006935, -0.004060, 0.023494, 0.006363, 0.002917, 0.041149, -0.004112, -0.004030, 0.001828, 0.011279, -0.026450, 0.022596, 0.021379, 0.131538, -0.107014, -0.076784, 0.000161, -0.049667, 0.030981, 0.072602, -0.055234, -0.059176, 0.106777, -0.073302, 0.006386, -0.001125, 0.026463, -0.016644, -0.052721, 0.057548, -0.011719, -0.017244, 0.010451, -0.020304, -0.008546, 0.000937, -0.018213, 0.059800, -0.021672, -0.043577, -0.022118, 0.031088, -0.017931, 0.116778, -0.075118, -0.058385, 0.114956, -0.129595, -0.013243, -0.019454, -0.000475, -0.012805, -0.079149, 0.009410, 0.028624, -0.019897, -0.018470, -0.012031, -0.028441, -0.004129, 0.004308, -0.006443, -0.011695, 0.052274, -0.001568, 0.013588, 0.002749, 0.147638, -0.078666, -0.109406, 0.148740, -0.147005, -0.072732, -0.004034, 0.005508, -0.010838, -0.015411, 0.033482, -0.007577, -0.014652, -0.003931, 0.008669, -0.038626, 0.004396, 0.026391, 0.066754, -0.047459, -0.014483, 0.009224, -0.023050, -0.040827, 0.163492, -0.167443, 0.016454, 0.134113, -0.178670, 0.053949, 0.025198, -0.021730, -0.013032, -0.038762, 0.006054, -0.013242, -0.003883, 0.013534, 0.026158, 0.019279, -0.014412, 0.024960, 0.117533, -0.087430, -0.105103, -0.004543, 0.003208, 0.043504, 0.025928, -0.094432, 0.022075, 0.051589, -0.075353, 0.032128, -0.005517, -0.017608, 0.028252, -0.070019, 0.058803, -0.019242, -0.025876, -0.002869, 0.017730, -0.016095, -0.006014, -0.001844, 0.115800, -0.076095, -0.085268, 0.001357, 0.019717, 0.048326, 0.044999, -0.079133, 0.034806, 0.089079, -0.128399, 0.028641, 0.003668, -0.012212, -0.014425, -0.012749, 0.006917, -0.016471, -0.018545, 0.008616, -0.007416, -0.021213, 0.047668, -0.032049, 0.120888, -0.112422, -0.010787, -0.019631, -0.024002, 0.007451, -0.016720, -0.027993, 0.038867, 0.016999, -0.086077, 0.033432, -0.026529, -0.007521, -0.008552, -0.025558, 0.024972, -0.044946, -0.001688, 0.011778, -0.014203, 0.004962, -0.012901, -0.029783, 0.148513, -0.167777, -0.027711, -0.059622, 0.009906, 0.035393, -0.081488, 0.066851, 0.008059, -0.022585, 0.029731, 0.005142, 0.019173, 0.005706, 0.023927, 0.057830, -0.018537, -0.027586, 0.012920, -0.001049, 0.001844, 0.026249, 0.016743, 0.016834, 0.165578, -0.178813, -0.032178, -0.030239, 0.031295, -0.005364, -0.100717, 0.111410, -0.002329, -0.042083, 0.000961, 0.018743, -0.009129, -0.027443, 0.003997, 0.012623, -0.004921, -0.015054, 0.038991, 0.003054, 0.007891, 0.023699, -0.028737, -0.009373, 0.067704, -0.027466, -0.066820, -0.043918, 0.037733, -0.018066, -0.036191, 0.005829, 0.013350, -0.035628, 0.063451, -0.019584, 0.005416, -0.006817, 0.002910, 0.034026, -0.019613, -0.003935, -0.003242, -0.018008, 0.005902, 0.016572, -0.009221, -0.031834, 0.096969, -0.025813, -0.130677, 0.017152, 0.008519, -0.045817, 0.070344, -0.051183, -0.049051, 0.009191, -0.004730, -0.046562, 0.010902, -0.029016, -0.001247, -0.004446, 0.001356, -0.010628, -0.001171, 0.005663, 0.013527, 0.008548, 0.010354, -0.011286, 0.118271, -0.066621, -0.107692, 0.004542, 0.040437, -0.041910, 0.095768, -0.092630, -0.049729, 0.026568, 0.024201, -0.063217, -0.004776, 0.000094, 0.011242, 0.038085, -0.030354, 0.004082, 0.002026, -0.019180, -0.013819, 0.001899, -0.010075, -0.012145, 0.025822, 0.037782, -0.121290, -0.010069, -0.006846, -0.039689, 0.080758, -0.074106, -0.045443, 0.007312, 0.039275, -0.061082, 0.012092, 0.013318, -0.016918, -0.012341, 0.027329, -0.008716, -0.007789, -0.018225, 0.003662, 0.040869, -0.023890, 0.015932, -0.026180, 0.054455, -0.052301, -0.001254, 0.009238, -0.010483, 0.093019, -0.057789, -0.021664, 0.100668, -0.054081, -0.069156, -0.010977, -0.009107, -0.007155, -0.028086, 0.067227, 0.003780, 0.019819, -0.017114, -0.003904, 0.034339, 0.003886, -0.013962, -0.009809, 0.046020, -0.007128, -0.014877, 0.020101, -0.017034, 0.109209, -0.132972, -0.005919, 0.065177, -0.090727, -0.020841, 0.030414, 0.013289, -0.006882, -0.011412, 0.012278, -0.015008, 0.025811, 0.009783, 0.021123, 0.037236, 0.013375, -0.006923, 0.116304, -0.154347, -0.009025, 0.001735, -0.036573, -0.000284, 0.022414, -0.066269, 0.032538, -0.010293, 0.010253, -0.005104, 0.007675, 0.010637, -0.012882, 0.016071, -0.018432, 0.012608, 0.006861, -0.011555, 0.004694, 0.010428, -0.043846, -0.031034, -0.050521, 0.077967, -0.076500, -0.077980, 0.087687, -0.000694, -0.051503, 0.043003, 0.047681, 0.002253, -0.035017, -0.020539, 0.009075, 0.016156, 0.004012, 0.019182, -0.016752, -0.022427, 0.023149, -0.024832, -0.000977, 0.016312, -0.040825, -0.011179, -0.147348, 0.198726, -0.069839, -0.033005, 0.034674, 0.008303, -0.036783, 0.003977, -0.005168, -0.014517, 0.021055, -0.058720, -0.016206, -0.001393, 0.008409, -0.013826, 0.013505, 0.027160, -0.000199, -0.040097, 0.003701, 0.004960, -0.004933, -0.003870, -0.080269, 0.091195, -0.032291, 0.017081, -0.038056, 0.025828, 0.012347, 0.027854, -0.044729, 0.005963, 0.029924, -0.076421, 0.016311, -0.020506, -0.006924, -0.007360, 0.020978, 0.020405, 0.012407, -0.026016, 0.033828, -0.024904, -0.006818, 0.028419, -0.096305, 0.187267, -0.179612, 0.003248, -0.027010, 0.012005, 0.006496, 0.001241, -0.090574, 0.002925, 0.017822, -0.103240, -0.001859, 0.010488, 0.007692, -0.030381, 0.030089, 0.002923, -0.002174, -0.016027, 0.016540, 0.008536, -0.009166, 0.021486, 0.055153, -0.042319, -0.184296, 0.038433, -0.033418, 0.006893, -0.012829, 0.040564, -0.026882, 0.016629, 0.050211, -0.064761, -0.007181, 0.021286, -0.007101, -0.020592, 0.027989, -0.007095, 0.014354, -0.041703, 0.016470, 0.034059, -0.059054, 0.013482, 0.069829, -0.002813, -0.133338, 0.012218, 0.016897, 0.023426, -0.094961, 0.115366, -0.030448, 0.023404, 0.005363, -0.044415, 0.012785, 0.023906, 0.003432, 0.049205, -0.062811, -0.021661, -0.015094, -0.015222, 0.001150, 0.018255, -0.025353, 0.002154, -0.055764, 0.113626, -0.040612, -0.011850, 0.028286, 0.008145, -0.054120, 0.091856, -0.022187, 0.005768, 0.040681, -0.039806, -0.006349, -0.008908, 0.025139, 0.047080, -0.041856, 0.009212, 0.035997, -0.023713, 0.020662, 0.001236, 0.004441, 0.037607, -0.184831, 0.222292, -0.089716, -0.001193, -0.027988, 0.030251, 0.003115, 0.029598, -0.002361, 0.001106, -0.014371, -0.030216, 0.010231, -0.022949, 0.001482, 0.021381, -0.003884, -0.000737, -0.026251, -0.011703, 0.009267, 0.022703, -0.003931, 0.016641, -0.022538, 0.068311, -0.081905, 0.071177, -0.107591, 0.017264, 0.029054, -0.005385, -0.003982, 0.040882, -0.033321, -0.028429, -0.009189, 0.031729, -0.009956, 0.067611, -0.083822, 0.020101, 0.014568, -0.025151, 0.029356, -0.010138, -0.014768, 0.002386, -0.026568, 0.069524, -0.040668, 0.056082, -0.123809, 0.033070, 0.040139, 0.018922, -0.036031, 0.009139, 0.059934, -0.045410, 0.011669, -0.012235, 0.007702, 0.055830, -0.090717, 0.028755, 0.008368, -0.025534, 0.010699, -0.012898, -0.006692, -0.013889, -0.125352, 0.205709, -0.175458, 0.008580, -0.014257, -0.014519, -0.038343, 0.069635, -0.052565, -0.036492, 0.083644, -0.015028, -0.001347, -0.016830, 0.003075, 0.008707, -0.023212, 0.010375, 0.031014, -0.007675, 0.020035, 0.005506, -0.011941, 0.028703, 0.005511, 0.091140, -0.176666, 0.043709, -0.090160, 0.032159, -0.000460, 0.021076, 0.000041, 0.042847, -0.024350, -0.022049, -0.004768, 0.010525, 0.028251, 0.037407, -0.032986, 0.006537, -0.012169, 0.026702, 0.019722, -0.017523, 0.011294, 0.007867, 0.046299, 0.030360, -0.129139, 0.033905, -0.065570, 0.062478, 0.047018, -0.116037, 0.026619, 0.122507, -0.125001, 0.001989, 0.007455, -0.021759, 0.010543, -0.020926, 0.015644, 0.011048, -0.029246, -0.025911, 0.009837, -0.049449, -0.009308, 0.013014, 0.162000, -0.096961, -0.132067, 0.057504, -0.057010, 0.041764, 0.118667, -0.147230, -0.043044, 0.081864, -0.092067, -0.011048, 0.007594, 0.004413, 0.016270, -0.049400, 0.035530, 0.033662, -0.030365, 0.001590, 0.018874, -0.014740, 0.000720, -0.003567, 0.125077, -0.046714, -0.095883, -0.019340, -0.002263, 0.003714, 0.143984, -0.131483, -0.018817, 0.086660, -0.114097, -0.024383, 0.001844, 0.001001, 0.002188, -0.040784, 0.000473, 0.001231, -0.047057, 0.013767, 0.008472, 0.014990, 0.008464, -0.012733, 0.019794, -0.000731, -0.034649, -0.013853, -0.000231, 0.013538, 0.125466, -0.127659, -0.072344, 0.114454, -0.064937, -0.092389, -0.018310, -0.010846, 0.000694, -0.000330, -0.010483, 0.015843, 0.000266, 0.018540, 0.017746, -0.027888, 0.017797, 0.015940, -0.014571, 0.061076, -0.040058, 0.033221, -0.009574, -0.029985, 0.107809, -0.108253, -0.006049, 0.100822, -0.101416, -0.020546, -0.001795, -0.007828, -0.031244, 0.019141, -0.002200, -0.018537, 0.004071, 0.018108, 0.010246, 0.000108, -0.010661, -0.022278, -0.029603, -0.005584, 0.004727, 0.045315, -0.029718, -0.035353, 0.036824, -0.066612, 0.007594, 0.026462, -0.072470, 0.013286, 0.016267, -0.010084, 0.003244, -0.036858, 0.031011, -0.010246, -0.028349, 0.022562, 0.002338, 0.012437, 0.017863, -0.015402, -0.067395, 0.119204, -0.062504, -0.000506, -0.026511, 0.015341, -0.033003, -0.018085, 0.053366, 0.009129, -0.070920, 0.038354, -0.018111, 0.009521, -0.013640, -0.064029, 0.042162, 0.021061, -0.015843, 0.015539, -0.012272, -0.040030, 0.009544, 0.000584, 0.039973, 0.053488, -0.117866, 0.026325, -0.068598, 0.020551, -0.050745, 0.043380, 0.050123, 0.014768, -0.054595, 0.043693, -0.015949, 0.027099, -0.008198, -0.002446, 0.014909, -0.013841, 0.012650, 0.014905, 0.005089, -0.003696, 0.043092, -0.019275, 0.101022, -0.087668, -0.059115, 0.026363, -0.050939, 0.029111, -0.115784, 0.082061, 0.000445, -0.038406, 0.018058, -0.011192, 0.026277, 0.003096, -0.005331, 0.025407, 0.008934, -0.007891, 0.029721, 0.011121, -0.002695, -0.026659, 0.000257, -0.029569, 0.129908, -0.160260, 0.006872, -0.040879, 0.038163, 0.022155, -0.100651, 0.148466, -0.005908, -0.075484, 0.079714, 0.017328, -0.002579, -0.013197, 0.006772, -0.013179, 0.014117, 0.013550, 0.013250, 0.017999, -0.019606, -0.011920, -0.008094, -0.008600, 0.057291, -0.068643, 0.002793, -0.023497, 0.057878, 0.007401, 0.003418, 0.010832, -0.024673, 0.020182, -0.044812, 0.010046, 0.013911, 0.031878, 0.014214, -0.099798, 0.087500, -0.020923, 0.008256, -0.019948, -0.001495, -0.009198, 0.012168, -0.000122, 0.146163, -0.122392, -0.047751, -0.020759, 0.037705, -0.005815, 0.109290, -0.095551, -0.023252, 0.045038, -0.029751, -0.045390, -0.007439, 0.032629, -0.000399, -0.040592, 0.041077, -0.027664, 0.019158, -0.027843, -0.011931, -0.021069, 0.023696, -0.037475, 0.216984, -0.174085, -0.071095, -0.063681, 0.054463, -0.042954, 0.058986, -0.052210, -0.029281, 0.012172, -0.007147, -0.042298, -0.016147, -0.011361, 0.023696, -0.035853, 0.044043, -0.014079, -0.011052, -0.028996, 0.013490, 0.010815, -0.013252, -0.006232, 0.129132, -0.098418, -0.117504, -0.109992, 0.096040, -0.027099, 0.094612, -0.108263, 0.010869, 0.002730, -0.018181, -0.062537, 0.031012, 0.006788, 0.018974, -0.052696, 0.080863, -0.006762, -0.001687, 0.005005, -0.010656, -0.022725, -0.001858, 0.004884, -0.020274, 0.032143, 0.005480, -0.073775, 0.062301, -0.006264, 0.069126, -0.093823, -0.014834, 0.034889, -0.052557, -0.049353, 0.015652, -0.016177, 0.011498, -0.065450, 0.082925, 0.033241, -0.017865, 0.009787, -0.009049, -0.016448, -0.000994, -0.018516, -0.097106, 0.064653, 0.008042, -0.001240, 0.033310, -0.060590, 0.053442, -0.092817, 0.059462, 0.016008, -0.052452, 0.022514, -0.019985, 0.013603, -0.001764, 0.017137, -0.005539, -0.000350, -0.024179, 0.000479, 0.002531, -0.006368, 0.010848, -0.011413, -0.068770, 0.014719, 0.038218, 0.013587, -0.014043, -0.008555, -0.076811, 0.051396, 0.049188, -0.072317, 0.056154, -0.017022, 0.007478, 0.020063, -0.006560, -0.021218, -0.002150, -0.044054, -0.007224, -0.015698, -0.008704, 0.010566, -0.029968, 0.010452, -0.032760, -0.050706, 0.043057, -0.017399, 0.063783, 0.004162, -0.080007, 0.062655, -0.029009, -0.075337, 0.021805, 0.011839, 0.007094, -0.009869, 0.007462, -0.030594, 0.028039, -0.010288, -0.009680, 0.020360, 0.000429, 0.002423, -0.017518, -0.009284, -0.049071, 0.047696, 0.028947, -0.025977, 0.034549, 0.017397, -0.031396, -0.000165, 0.017246, -0.010982, -0.001132, -0.015544, -0.018068, -0.003465, 0.002446, -0.060352, 0.011451, 0.050965, -0.016392, -0.030043, -0.002824, 0.030076, -0.013729, -0.005261, 0.013336, -0.072794, 0.059218, -0.002426, -0.043663, 0.027518, 0.025883, -0.042887, -0.013222, 0.041853, -0.036363, -0.098263, -0.003730, 0.020136, 0.028131, 0.056963, -0.058889, -0.005364, -0.007731, -0.024834, 0.008766, -0.007430, -0.037570, 0.007827, -0.060080, 0.102314, -0.071402, -0.023258, 0.030466, 0.025970, 0.069168, -0.037702, -0.048911, 0.012731, 0.038768, -0.061802, 0.005016, 0.000584, 0.013904, 0.029248, -0.066499, 0.015161, 0.007668, -0.015903, 0.019517, 0.013459, -0.038898, 0.025385, -0.116329, 0.157635, -0.140725, 0.038379, -0.048120, 0.028915, -0.007382, 0.029574, -0.025411, -0.072048, 0.056360, -0.050267, -0.015014, 0.005661, 0.013739, 0.044921, -0.078109, 0.004327, 0.007702, -0.019619, 0.014445, -0.008996, 0.010958, 0.003727, -0.075688, 0.149854, -0.188558, 0.057673, -0.075461, 0.026847, -0.118946, 0.100736, 0.018083, -0.063481, 0.086199, -0.031151, 0.008860, -0.006311, 0.014618, 0.073613, -0.105988, 0.029879, 0.056202, -0.014802, 0.041464, 0.030788, -0.033692, 0.023783, -0.126462, 0.212214, -0.091865, 0.048095, -0.052335, 0.001194, -0.144110, 0.123231, -0.039108, -0.060045, 0.056399, -0.050309, -0.001783, 0.000391, 0.019662, 0.011176, -0.056760, 0.017410, -0.012873, -0.027147, 0.017501, 0.006149, -0.034517, 0.011712, -0.207383, 0.221866, -0.068673, 0.034051, 0.003475, -0.004041, 0.050517, 0.002509, -0.005008, 0.037049, -0.022851, -0.035864, -0.004741, -0.001433, 0.012197, 0.010551, -0.009766, -0.039614, -0.008260, -0.045731, 0.022713, -0.011513, -0.015181, 0.024202, 0.049815, 0.047253, -0.078846, 0.069478, -0.067468, 0.015646, 0.031893, -0.045039, -0.035794, 0.055438, -0.060816, -0.024433, -0.001184, 0.015248, 0.019557, 0.034542, -0.047560, -0.010093, 0.020513, -0.028121, 0.019419, 0.047021, -0.022857, 0.007047, -0.022734, 0.052786, -0.083112, 0.041779, -0.050059, 0.026690, 0.009507, 0.022214, -0.003188, 0.017470, 0.029587, -0.068411, -0.014492, -0.007169, -0.000868, 0.033409, -0.049633, 0.052146, 0.005751, -0.012549, 0.035229, 0.024439, -0.026990, 0.022977, -0.020076, 0.095849, -0.133051, -0.017311, 0.019224, -0.011961, -0.039935, 0.057117, -0.047597, -0.042317, 0.049586, -0.047778, 0.013033, 0.006714, -0.019508, 0.029825, -0.038802, 0.011614, -0.009871, 0.011806, 0.008178, 0.000674, -0.012727, 0.013551, -0.016764, 0.043152, -0.096043, 0.039697, -0.054973, 0.027214, 0.023271, -0.002440, 0.022376, 0.049141, -0.038509, 0.017834, 0.010537, -0.010544, -0.004268, 0.006376, 0.005664, 0.005271, -0.003615, -0.006265, 0.020483, 0.007024, -0.016938, 0.018978, -0.056291, 0.147813, -0.102246, 0.025664, -0.067977, 0.019849, 0.073128, -0.056699, -0.013922, 0.106547, -0.128141, -0.010877, 0.007225, -0.008512, 0.025927, -0.042953, 0.020609, 0.021857, -0.010412, 0.003071, 0.003829, -0.020780, -0.001883, 0.013633, 0.031096, 0.038210, -0.115266, 0.014731, -0.090466, 0.047902, 0.063073, -0.060616, -0.027750, 0.065999, -0.088782, -0.037457, 0.007170, -0.023462, 0.029446, -0.069886, 0.043784, 0.010565, -0.002795, 0.015822, 0.019563, 0.000977, 0.002209, 0.007504, 0.046988, -0.006166, -0.057998, 0.004288, -0.041126, 0.019972, 0.033283, -0.027968, -0.048419, 0.037027, -0.052484, -0.001633, -0.003658, 0.007441, 0.008784, -0.055416, 0.016184, 0.031774, 0.012984, -0.016279, -0.011025, -0.020457, 0.002662, 0.015102, 0.118725, -0.067071, -0.061028, -0.036106, 0.098012, -0.023589, 0.079945, -0.044659, -0.052325, 0.097446, -0.022970, -0.072575, 0.006889, 0.022946, -0.012217, -0.052919, -0.004723, 0.031884, 0.001000, 0.006824, 0.027162, -0.024476, -0.029811, 0.004808, 0.078802, -0.024257, -0.059916, -0.033748, 0.054216, 0.009143, 0.081025, -0.046841, -0.092238, 0.061685, -0.078367, -0.070750, -0.005903, -0.010992, -0.024711, -0.002082, -0.002006, -0.012970, -0.001466, 0.036795, 0.022754, 0.024310, -0.021417, 0.021202, 0.122925, -0.083099, -0.104877, -0.046263, 0.029760, -0.012443, 0.071316, -0.061012, -0.001747, 0.021768, -0.057958, 0.008549, 0.005772, 0.011542, -0.016180, 0.013003, -0.014631, -0.037211, 0.005547, -0.013887, 0.014126, 0.023832, -0.008247, 0.002480, -0.005863, 0.068440, -0.064270, -0.040996, 0.017924, 0.034115, 0.060123, -0.061924, 0.013292, 0.004988, -0.048485, 0.024836, 0.010836, 0.034055, 0.001730, -0.033813, 0.028910, -0.001276, -0.038786, 0.032148, -0.021005, -0.018383, -0.005396, -0.009834, -0.077374, 0.087954, -0.030468, -0.010879, 0.020134, 0.000536, -0.012338, -0.041358, 0.008055, -0.024702, -0.038300, 0.064837, -0.029196, -0.002639, 0.006586, 0.001373, 0.021517, -0.019843, -0.029529, 0.008324, 0.008990, -0.013300, -0.008336, -0.024702, 0.032615, 0.011871, -0.093589, 0.078222, -0.053894, -0.022623, -0.058406, 0.081146, 0.019058, -0.077505, -0.005658, 0.025905, 0.006260, 0.015465, -0.002307, 0.048104, 0.000211, -0.043905, -0.003408, 0.027077, 0.016469, -0.006141, 0.036046, 0.000524, 0.108591, -0.099884, -0.066270, 0.004187, -0.004619, 0.006208, -0.138820, 0.081892, 0.089043, -0.124326, 0.087853, 0.037388, 0.013971, -0.014067, 0.023619, -0.009735, 0.005938, -0.034908, -0.020486, 0.007003, -0.001449, -0.000607, 0.027714, -0.025305, 0.010703, -0.086877, 0.050592, -0.034518, 0.011552, -0.002850, -0.021865, -0.058669, 0.069522, 0.036217, -0.064711, 0.002803, -0.003462, 0.005164, -0.016086, -0.030552, 0.039449, -0.014059, -0.023975, 0.013505, -0.014068, 0.000306, 0.008965, -0.007257, -0.027630, 0.034675, 0.046700, -0.027682, 0.013964, -0.029993, 0.075447, -0.114595, 0.033781, 0.070748, -0.097340, -0.005068, 0.006921, 0.019044, 0.012394, -0.049749, 0.057306, 0.007504, -0.002421, 0.028614, 0.015247, -0.006826, -0.018044, -0.005262, 0.110322, -0.157706, 0.034535, -0.023796, 0.016108, -0.032040, 0.027606, -0.074928, 0.013825, -0.000309, 0.026603, -0.054777, 0.025290, 0.030831, 0.021739, -0.045997, 0.060909, 0.020658, -0.006547, 0.000351, -0.013517, -0.017250, 0.009285, -0.001227, 0.085399, -0.077255, -0.005212, -0.074988, 0.063854, -0.026788, -0.005832, -0.015176, 0.057832, -0.014941, 0.003436, -0.037277, -0.010459, -0.013928, 0.009566, -0.041733, 0.040776, -0.020898, 0.001788, 0.018285, 0.008008, -0.020613, 0.025903, 0.023208, 0.062846, -0.130425, -0.004286, -0.002834, 0.039456, -0.050416, -0.011118, -0.052000, 0.045200, -0.002187, 0.006553, -0.036514, -0.022160, 0.004441, -0.000095, -0.028238, 0.038412, 0.015607, -0.006264, 0.012601, -0.025768, 0.012644, -0.004607, 0.023145, 0.098304, -0.132554, 0.023062, 0.001734, 0.054398, -0.024206, -0.013261, -0.012485, 0.048183, 0.006365, -0.044069, 0.012840, -0.026193, 0.032967, -0.022077, 0.005144, -0.029225, -0.009900, 0.018612, 0.014531, 0.004087, 0.028958, -0.045213, 0.017413, -0.057210, 0.008596, 0.053633, -0.052586, 0.049030, -0.061550, -0.086965, 0.068862, 0.010717, -0.071986, 0.078823, -0.023349, -0.003446, -0.016225, -0.010395, 0.004945, 0.018793, -0.008364, 0.022722, -0.020565, 0.004303, -0.002589, -0.004165, -0.012653, -0.080740, 0.011652, 0.067650, -0.065895, 0.084726, -0.043913, 0.007638, -0.003881, 0.003754, -0.071503, 0.051045, -0.010235, 0.011131, 0.008972, -0.023086, -0.050589, 0.007148, 0.023844, 0.010876, -0.028100, 0.019759, -0.017467, -0.021729, -0.006016, -0.034333, -0.053463, 0.075029, -0.030587, 0.016231, -0.036556, 0.019345, -0.015644, 0.001132, -0.056011, 0.053638, 0.005682, -0.000690, -0.014804, 0.000083, -0.022945, 0.029077, 0.019398, -0.005513, -0.031250, 0.028198, 0.022591, -0.051822, 0.025307, -0.086529, -0.002034, 0.101359, -0.040520, 0.027143, -0.019179, -0.009670, 0.026846, -0.012433, -0.012177, 0.027308, -0.008149, 0.017808, 0.010853, -0.010904, 0.044394, -0.033401, 0.038278, 0.006318, -0.019973, 0.014097, 0.043306, -0.015025, 0.014652, -0.048137, 0.028142, 0.030083, -0.003774, 0.033000, -0.013326, -0.009253, 0.041290, -0.066020, 0.021462, 0.020011, -0.045158, 0.030310, -0.006284, -0.034145, 0.024634, -0.032304, 0.034486, -0.019101, -0.017707, 0.017920, -0.008571, -0.024239, -0.001050, -0.071366, 0.084731, -0.020915, -0.017663, 0.005144, 0.002558, -0.049987, 0.104107, -0.015446, -0.011842, 0.046274, -0.047134, -0.013694, 0.021294, 0.002702, 0.038380, -0.069611, 0.036038, 0.028814, -0.011188, 0.018903, 0.024743, -0.015964, 0.021201, -0.101537, 0.126281, -0.121776, -0.009492, 0.011816, 0.011391, -0.061794, 0.066457, -0.016701, -0.097513, 0.060803, -0.046628, 0.020933, -0.005096, 0.015541, 0.088270, -0.100213, 0.022966, 0.036921, -0.029169, 0.016352, 0.029247, -0.000454, 0.033802, -0.118013, 0.126845, -0.093263, 0.036845, -0.076210, 0.043218, -0.026142, 0.051400, -0.051715, -0.099127, 0.086633, -0.032674, -0.006089, 0.003624, -0.011619, 0.016635, -0.065448, -0.001427, 0.027282, -0.037570, 0.000374, 0.055450, -0.047168, 0.012888, -0.216497, 0.251239, -0.106450, 0.025631, -0.034575, -0.000902, 0.026913, -0.026622, -0.018137, 0.009188, -0.020308, 0.015944, 0.027568, -0.005860, 0.002496, 0.039926, -0.037782, 0.036589, 0.000907, -0.067013, 0.008235, 0.004564, -0.003940, -0.000585, -0.140812, 0.220710, -0.117677, 0.056422, -0.054515, -0.006027, 0.031695, -0.001913, 0.002324, 0.050766, -0.021766, -0.043821, 0.012429, -0.009743, -0.006891, 0.003052, -0.042699, 0.037908, 0.016494, -0.021499, 0.031778, 0.032658, -0.056297, 0.012227, -0.069124, 0.097677, -0.021653, 0.042185, -0.102961, 0.034521, -0.045453, 0.045010, -0.020183, -0.010096, 0.033323, -0.053168, 0.004725, -0.005442, 0.014349, 0.017474, -0.044309, 0.009789, -0.010065, -0.016950, 0.010280, 0.012022, -0.003788, 0.031819, -0.061211, 0.127621, -0.081521, 0.037263, -0.012320, -0.022194, 0.000522, 0.095671, -0.042952, 0.034516, -0.045491, -0.028689, 0.002103, 0.020293, -0.003596, -0.029862, 0.031751, -0.000631, 0.005902, -0.059687, 0.005037, -0.023738, -0.032035, 0.006972, 0.062810, 0.001469, -0.107857, -0.009097, -0.035390, -0.002312, 0.059506, -0.019649, -0.034151, 0.096906, -0.112499, 0.006076, 0.008167, -0.012693, 0.006120, 0.021504, -0.014726, 0.016711, -0.011189, -0.020590, 0.029730, -0.006085, -0.028526, 0.042662, 0.090531, -0.021073, -0.106709, -0.024435, -0.013713, 0.012532, 0.103099, -0.101396, -0.051745, 0.079185, -0.114482, 0.024708, 0.008314, 0.024696, -0.011145, -0.003779, -0.029235, 0.053551, 0.002173, -0.005658, 0.022879, -0.005971, -0.020600, 0.002086, -0.003491, 0.016722, -0.083189, 0.027507, -0.044090, 0.024263, 0.094142, -0.067413, -0.032373, 0.052063, -0.059886, -0.030245, 0.020424, -0.019397, 0.012428, -0.019598, -0.003246, 0.077544, -0.017842, -0.013409, 0.014208, -0.000510, 0.001491, 0.000749, -0.001360, 0.076800, -0.066541, 0.023873, -0.051351, 0.004940, 0.050958, -0.040026, -0.026256, 0.030899, -0.017310, -0.030948, 0.024370, -0.025514, -0.027278, -0.022815, 0.037649, 0.004844, -0.042471, 0.049663, 0.012839, -0.006621, 0.009526, 0.017064, 0.170158, -0.155470, -0.007139, -0.061209, 0.065524, -0.020411, 0.109335, -0.082803, -0.021701, 0.101076, -0.086430, -0.080442, 0.003401, -0.014958, -0.010739, -0.080525, 0.047711, 0.021831, -0.023109, 0.021111, -0.017348, 0.002120, 0.015735, 0.028648, 0.161946, -0.145678, -0.024718, -0.041060, 0.069872, -0.034194, 0.075650, -0.098473, -0.052396, 0.023790, -0.005923, -0.036431, 0.034179, 0.001068, 0.011496, -0.079634, 0.038476, 0.022031, -0.008017, 0.018517, 0.005030, -0.027911, 0.003540, 0.003775, 0.158875, -0.169641, -0.123036, -0.067855, 0.071610, -0.044415, 0.073317, -0.094035, 0.005873, -0.014350, -0.014517, -0.017118, -0.016516, -0.011822, 0.016121, -0.057229, 0.040348, -0.003529, -0.052788, 0.002760, -0.011457, -0.011803, 0.009504, -0.011483, 0.128438, -0.100154, -0.066039, -0.068555, 0.076984, -0.011144, -0.038003, -0.048742, 0.019313, 0.061089, -0.077656, -0.013039, 0.004747, -0.003436, -0.024839, 0.001938, 0.013116, -0.021694, -0.031289, -0.010595, 0.000214, -0.000009, 0.007186, 0.001420, 0.068370, 0.001858, -0.098672, -0.073307, 0.062354, -0.002451, 0.026086, -0.044948, -0.019744, 0.019244, 0.022980, -0.010596, 0.015507, 0.001312, 0.000646, 0.012902, 0.024085, -0.028645, -0.034306, 0.003985, 0.027082, -0.002321, -0.008656, 0.006175, 0.024362, 0.032619, -0.006627, 0.005225, 0.005559, 0.014341, -0.035118, -0.005994, -0.024449, -0.060287, -0.027114, 0.047292, -0.033406, 0.004825, -0.031959, 0.022245, -0.003768, -0.052726, -0.008353, -0.015277, 0.016970, 0.014330, 0.007795, -0.018304, -0.108416, 0.076054, 0.006834, -0.048643, 0.017360, 0.009559, -0.042579, -0.037278, 0.065720, -0.091844, -0.038293, 0.091642, -0.012622, 0.010597, -0.010291, -0.043915, 0.091179, -0.025844, -0.001596, 0.044221, -0.002601, -0.016122, 0.018684, -0.018968, -0.089704, 0.009121, 0.115106, -0.036957, 0.041032, -0.012845, 0.042468, -0.141139, 0.095069, 0.036127, -0.090201, 0.050649, 0.004214, 0.002208, 0.014816, -0.043660, 0.073127, -0.047135, -0.007712, 0.022980, -0.026137, 0.006830, 0.015277, -0.015031, -0.074082, -0.032206, 0.095226, 0.025586, 0.006391, -0.025670, -0.005625, -0.114494, 0.075186, 0.067706, -0.061640, 0.033888, -0.001122, 0.000935, -0.006135, 0.032743, 0.026691, -0.054294, -0.028853, 0.014631, -0.025198, -0.006599, 0.043692, 0.005655, -0.079718, 0.001159, 0.085437, -0.009165, -0.003428, -0.069822, -0.050404, 0.045392, 0.025308, -0.051438, 0.010144, 0.010939, -0.008177, -0.005061, -0.005394, 0.024027, 0.052224, -0.058751, -0.004933, 0.025838, -0.022970, 0.029843, 0.006349, -0.012191, -0.140008, 0.115602, 0.071990, -0.004606, 0.044701, -0.024138, -0.055298, 0.016892, 0.042239, -0.100880, 0.068101, 0.031684, 0.011973, 0.006811, 0.011740, -0.025881, 0.059549, -0.037328, -0.022224, -0.021495, -0.015432, -0.002462, 0.035261, -0.019138, -0.167664, 0.175432, 0.034412, -0.067051, 0.086962, -0.025998, -0.131946, 0.029491, 0.040038, -0.127901, 0.134553, -0.026105, -0.006319, -0.015280, 0.024377, -0.037511, 0.015138, 0.022813, -0.007538, 0.023565, -0.019284, -0.019323, 0.015241, -0.039584, -0.062997, -0.026635, 0.015089, -0.029314, 0.041533, -0.007341, -0.103022, 0.045034, 0.032525, -0.046265, 0.062546, 0.004707, 0.015463, -0.003331, -0.033845, -0.025253, -0.009244, -0.002401, 0.011200, -0.035787, 0.001768, 0.008212, 0.011198, -0.008208, 0.050188, -0.136360, 0.085106, -0.025209, 0.073092, -0.026318, -0.112600, 0.094214, 0.034566, -0.029401, 0.034950, 0.016943, -0.018678, 0.012104, -0.000341, 0.025710, -0.032876, 0.034965, 0.016238, -0.009085, -0.032507, 0.007422, -0.006033, -0.013173, -0.081087, -0.031597, 0.092470, -0.041833, 0.079451, -0.021129, -0.048359, 0.024060, 0.048822, 0.006367, 0.003247, 0.012699, -0.012219, 0.010153, 0.007348, 0.029504, -0.026356, 0.017498, -0.004901, 0.033278, -0.014045, 0.013177, -0.043067, -0.014658, -0.091986, -0.040763, 0.102335, 0.014619, 0.015904, -0.038825, -0.008639, -0.022134, 0.005362, -0.020950, 0.010176, -0.028744, -0.020322, -0.002464, -0.005058, -0.014893, 0.017627, 0.008398, -0.004730, -0.005583, 0.007827, -0.009462, -0.028932, -0.011098, -0.134192, 0.065661, 0.098946, -0.002790, -0.005725, -0.023670, -0.011258, 0.020784, 0.005476, -0.051434, 0.051017, 0.003190, 0.018303, -0.016833, 0.004186, 0.018278, -0.076624, 0.031166, 0.035581, -0.029292, -0.006332, -0.005576, 0.017757, 0.001116, -0.090295, 0.108196, 0.028794, 0.042719, 0.017801, -0.007251, 0.004068, 0.025343, -0.037692, -0.016490, 0.040393, -0.075466, -0.003171, 0.012318, -0.013269, -0.027239, -0.053537, 0.033960, 0.003379, -0.020018, 0.042668, 0.000874, -0.014992, 0.019442, -0.010902, 0.006308, -0.023905, 0.039213, -0.028434, -0.001059, -0.037349, 0.091365, -0.066263, -0.030735, 0.062607, -0.085932, -0.012352, -0.013873, -0.005746, -0.009850, 0.000759, 0.026638, 0.013986, -0.006334, 0.044347, -0.018329, -0.011563, 0.039181, -0.039165, 0.093973, -0.080351, -0.030703, 0.035591, -0.005103, -0.067187, 0.070455, 0.000512, -0.064923, 0.061055, -0.049231, -0.021329, -0.003281, -0.019061, 0.027012, -0.033789, 0.023301, 0.000171, -0.030110, 0.013629, 0.003891, -0.039699, 0.022876, 0.036488, 0.003723, -0.081534, -0.027957, 0.028164, 0.026912, 0.047178, -0.048250, -0.022795, 0.022915, -0.012033, -0.025029, -0.024684, 0.006872, -0.005735, 0.012431, -0.054364, 0.023405, 0.026726, -0.033414, 0.011028, 0.019887, -0.041286, 0.006779, 0.011939, 0.017164, -0.125615, 0.014360, -0.020612, 0.016605, 0.011015, -0.005422, 0.021142, 0.004610, -0.019781, -0.009142, 0.000449, 0.032406, -0.022241, 0.000896, 0.016678, 0.014800, 0.000871, -0.051909, 0.044475, 0.003403, -0.068407, -0.007960, 0.027484, 0.074426, -0.160346, 0.038387, -0.015653, 0.021137, 0.084801, -0.064938, -0.067640, 0.045875, -0.040460, -0.028062, 0.003133, -0.009988, 0.008318, -0.030073, 0.004176, 0.032668, -0.046524, -0.012673, 0.036582, -0.000449, -0.043163, 0.028866, -0.046447, 0.089031, -0.160802, -0.012662, -0.004905, 0.039597, 0.099818, -0.084821, -0.025557, 0.053047, -0.004908, -0.085937, -0.000658, 0.012192, -0.009681, -0.035341, -0.019297, 0.062634, -0.018829, -0.023466, 0.015223, -0.031623, -0.024775, -0.014298, 0.039948, 0.047303, -0.141286, 0.005430, -0.001373, 0.011228, 0.081892, -0.055043, -0.061367, 0.054247, 0.016271, -0.069555, 0.004395, 0.013994, -0.007916, -0.044799, 0.029272, 0.032700, -0.013205, -0.021844, 0.007093, -0.011134, -0.021345, 0.027589, 0.094405, -0.065320, -0.058013, -0.013192, 0.002924, 0.032656, 0.048245, -0.049239, -0.046172, 0.067104, -0.048598, -0.021951, 0.028120, -0.012792, -0.003087, -0.022662, 0.025795, 0.014945, -0.010063, -0.007889, 0.035549, 0.003241, -0.008413, -0.014760, 0.059154, -0.050658, -0.067639, 0.006199, -0.006318, 0.049054, -0.001450, -0.033026, -0.057002, 0.059997, -0.056088, -0.039785, -0.000994, 0.007364, -0.013133, -0.046045, -0.005931, 0.027313, -0.018944, 0.009230, 0.014462, 0.015461, -0.026691, 0.030745, -0.001052, 0.051670, -0.071077, -0.037107, -0.043450, 0.037099, -0.028557, 0.075925, -0.059610, 0.053565, -0.037851, -0.024413, 0.015338, -0.000660, 0.010428, -0.083577, -0.023986, 0.076864, -0.023676, 0.015885, 0.031901, -0.015617, -0.039751, 0.037950, 0.105484, -0.035726, -0.108500, 0.011083, -0.023345, 0.013469, 0.060030, 0.005949, -0.054469, 0.083309, -0.103491, -0.041003, 0.008991, -0.021465, -0.005266, -0.016030, 0.043574, -0.048574, -0.033951, 0.024790, -0.045590, -0.047280, 0.061302, -0.015473, 0.054866, -0.118417, 0.058844, 0.026644, 0.027379, -0.053365, 0.011026, -0.037623, -0.013861, 0.062581, -0.044617, -0.019783, -0.000995, -0.016832, -0.014661, -0.066365, 0.047586, -0.010665, -0.044716, 0.038854, 0.029313, -0.007552, -0.017706, 0.005642, 0.119016, -0.138677, 0.001791, -0.014700, 0.070512, -0.070263, 0.026606, 0.023306, -0.034307, 0.050372, -0.082333, -0.003530, 0.003226, -0.008633, 0.021005, -0.064312, 0.046854, 0.021434, -0.049026, -0.005029, 0.016415, -0.008692, 0.009928, 0.020146, 0.063829, -0.043496, 0.007371, -0.044693, 0.067198, -0.030008, -0.000817, 0.011472, -0.022329, -0.030599, -0.036965, -0.002774, 0.002410, -0.022587, 0.019495, -0.022057, -0.009082, 0.018461, -0.044494, 0.021179, 0.031430, -0.006282, 0.004186, 0.022331, 0.060409, -0.011540, -0.070214, -0.018584, 0.028589, -0.003560, -0.066775, 0.002755, -0.022484, -0.076554, 0.042389, -0.017841, 0.025481, 0.016526, 0.004867, -0.061701, 0.043295, 0.037853, -0.022721, -0.010112, -0.011427, -0.032519, 0.032760, 0.012088, 0.025898, 0.024607, -0.131671, -0.074900, 0.087704, 0.011413, -0.055383, 0.086624, -0.004373, -0.068870, 0.048054, -0.005781, -0.019015, 0.017042, 0.026767, -0.048408, 0.033284, -0.020043, -0.027360, -0.001572, 0.003227, -0.018590, 0.023479, 0.001633, 0.129462, -0.117687, -0.088669, -0.044753, 0.008836, 0.032286, -0.074743, 0.027766, 0.032091, -0.032442, 0.016376, 0.033027, -0.018325, 0.022828, 0.012799, -0.032518, 0.038524, -0.062290, -0.035870, -0.004417, 0.027921, -0.000848, -0.026583, -0.008169, 0.028782, -0.029155, -0.015952, -0.068591, 0.046100, 0.046431, 0.005446, 0.010640, -0.005997, -0.025969, -0.023153, 0.061288, 0.020175, 0.019537, -0.000826, -0.031929, 0.089744, -0.067862, -0.020543, 0.012130, 0.008105, -0.001382, 0.027678, -0.033250, -0.079517, 0.036848, 0.012355, -0.037495, 0.054280, 0.006812, -0.003728, -0.094428, 0.088509, -0.043428, -0.075769, 0.109498, 0.032948, -0.002290, -0.023059, -0.055841, 0.052756, -0.060332, 0.020552, 0.017284, -0.025490, 0.012019, -0.022392, 0.002861, 0.010787, -0.042436, 0.072032, -0.033903, 0.021860, 0.006218, 0.044783, -0.061276, 0.044318, 0.029850, -0.039054, 0.035841, 0.001748, 0.013353, 0.022775, -0.013578, 0.084226, -0.072007, -0.009032, 0.041727, -0.014230, -0.014812, 0.035169, -0.041533, 0.028567, -0.104078, 0.069276, -0.017935, 0.004987, -0.068627, 0.009770, -0.036944, 0.015826, -0.041389, -0.001438, 0.030774, -0.003424, -0.004063, 0.028663, -0.004230, 0.016641, -0.048297, -0.023838, 0.022083, -0.028285, -0.019752, 0.014884, -0.057087, -0.027027, -0.114139, 0.072688, -0.035214, 0.075556, -0.063414, -0.041418, -0.026741, 0.052102, -0.042380, 0.000659, 0.050716, -0.001518, 0.003280, -0.011950, 0.000586, 0.028132, -0.001571, -0.006041, 0.043237, -0.023713, -0.012840, 0.019312, -0.007907, -0.077942, 0.026199, 0.050222, -0.032708, 0.099508, -0.026828, -0.004742, -0.038108, 0.062839, -0.030348, 0.003008, 0.012874, 0.015305, 0.032591, -0.004590, -0.041032, -0.004139, 0.062909, -0.007852, 0.044906, -0.026802, -0.009544, 0.000214, -0.013463, -0.070161, 0.005494, 0.025298, -0.046352, 0.048748, -0.062591, -0.032328, -0.031081, 0.038881, -0.082908, 0.058501, -0.016370, -0.011161, 0.002073, 0.016055, -0.010250, 0.011057, 0.020998, -0.001005, 0.032329, -0.048485, -0.004448, 0.018344, 0.005641, 0.033408, -0.089622, 0.048211, -0.013189, 0.040384, -0.039262, -0.044379, 0.043055, 0.026244, -0.059352, 0.073364, -0.021263, -0.009472, 0.010274, 0.009835, -0.037967, -0.022651, 0.028215, -0.015856, 0.013760, -0.010984, -0.019962, -0.004152, -0.003566, -0.009020, -0.090773, 0.092764, -0.061605, 0.080836, 0.017260, 0.005779, 0.034115, -0.016491, -0.024623, 0.010969, 0.005004, -0.013963, -0.018194, 0.014858, -0.051586, 0.011438, 0.041939, -0.014461, -0.009196, 0.008830, 0.035530, 0.013620, -0.022370, -0.044619, -0.126441, 0.118950, -0.019456, 0.012037, -0.002062, -0.016808, 0.003753, -0.007013, -0.040403, 0.039591, 0.038221, -0.007299, -0.021514, 0.002016, 0.057187, -0.028557, -0.023190, 0.012741, -0.029483, 0.000049, 0.009409, -0.025033, 0.002042, -0.105983, 0.010010, 0.095015, -0.031663, 0.015974, -0.009120, -0.092404, 0.064947, 0.024892, -0.048238, 0.069731, -0.006280, -0.003047, 0.007798, -0.012727, 0.006896, -0.018050, -0.001886, 0.026482, -0.046964, 0.011575, 0.000032, -0.006426, 0.004171, -0.123858, 0.079074, 0.090675, -0.007930, 0.019301, -0.003597, -0.021750, 0.007468, 0.008796, -0.020679, 0.041152, -0.034775, 0.003767, -0.017553, 0.006504, -0.002048, -0.038388, 0.046574, 0.016390, -0.013665, 0.018924, 0.004813, -0.029306, 0.040048, -0.033912, 0.058009, 0.020834, 0.043237, 0.000015, -0.024587, -0.045437, 0.055330, -0.027629, -0.045102, 0.059718, -0.068022, 0.021357, -0.022763, 0.006263, -0.002167, -0.013574, -0.010357, 0.017969, -0.047535, 0.038995, 0.009980, -0.051328, 0.008712, -0.017301, 0.083732, -0.019733, -0.011850, 0.026370, -0.000529, -0.081949, 0.104408, 0.009172, -0.026936, 0.049203, -0.030836, -0.020346, 0.002216, -0.022422, -0.004227, -0.020473, 0.024357, -0.011315, -0.043058, 0.004253, 0.001481, -0.035987, 0.024195, 0.014748, 0.057868, -0.076614, -0.035928, 0.000910, 0.026569, -0.035747, -0.011954, 0.026898, -0.013158, 0.009506, -0.006534, -0.009136, -0.015210, 0.002716, -0.045929, 0.036045, 0.030960, 0.002360, -0.039120, 0.012851, 0.011449, -0.034369, 0.035860, 0.024916, 0.026357, -0.143586, -0.010494, -0.022811, 0.021094, -0.035341, 0.048633, 0.017747, -0.009596, -0.031253, -0.022343, 0.011957, -0.002997, -0.018972, -0.026345, 0.014895, 0.017376, -0.009118, -0.039805, 0.015568, -0.010293, -0.029768, 0.028538, 0.016070, 0.024339, -0.080783, -0.032750, 0.018686, 0.050975, 0.048817, -0.077530, -0.041430, 0.079286, -0.066734, -0.039003, 0.031685, 0.010700, -0.010151, -0.020848, 0.018403, 0.050804, 0.001697, -0.041392, 0.038009, 0.008890, -0.006253, 0.013820, 0.073474, -0.027769, -0.118306, -0.077539, 0.050569, 0.046077, 0.082341, -0.068780, -0.018486, 0.058313, -0.073972, -0.050343, 0.008993, 0.007548, -0.008795, -0.029136, 0.000790, 0.031824, -0.028425, 0.008050, 0.041056, 0.010116, -0.034632, 0.019725, 0.112050, -0.044876, -0.176744, -0.001866, -0.012425, 0.009163, 0.036809, -0.003121, -0.041218, 0.078326, -0.079681, -0.026971, -0.002765, 0.011975, 0.004143, -0.034651, -0.008289, 0.063886, 0.010403, -0.039884, 0.039325, 0.001851, -0.020223, -0.000228, 0.041245, 0.002131, -0.075780, 0.012067, -0.020974, 0.011254, -0.006330, -0.010281, -0.041506, 0.066231, -0.046380, -0.005611, -0.013321, -0.030207, 0.026270, 0.039741, -0.037617, 0.001255, -0.017029, -0.016548, 0.032787, 0.012851, -0.045364, 0.001600, -0.115096, 0.152508, -0.119572, -0.021425, 0.003518, 0.017383, -0.002067, -0.017801, -0.000987, 0.018542, -0.013407, -0.001497, 0.000373, 0.004251, -0.007696, -0.009494, -0.018162, 0.038610, -0.026125, 0.012170, 0.054327, -0.028423, -0.004767, 0.020598, -0.017622, 0.053712, -0.062140, 0.020855, -0.026449, 0.033600, -0.011111, -0.011885, 0.026953, 0.019932, -0.006150, -0.025913, -0.014029, 0.026233, 0.031291, -0.039986, 0.006644, 0.032738, -0.031957, 0.011017, 0.004634, -0.020099, -0.030330, 0.033536, 0.044046, -0.016280, -0.059664, 0.044118, -0.058231, 0.032991, -0.021476, 0.045313, -0.013490, 0.024104, 0.012241, -0.008297, 0.014123, -0.010250, -0.002732, -0.015082, -0.009979, 0.030601, -0.038930, 0.042499, -0.019061, -0.059674, 0.034752, -0.031588, 0.075973, -0.063195, -0.020738, 0.046002, -0.037835, -0.017266, 0.131933, -0.092120, -0.062778, 0.068077, -0.035305, -0.068301, -0.001467, -0.000019, -0.017779, -0.030751, 0.005982, 0.033675, -0.054413, 0.034382, 0.002092, -0.031176, 0.024979, -0.015536, 0.039200, -0.092770, 0.034962, 0.025216, -0.007684, -0.059617, 0.086248, -0.031865, -0.086453, 0.049831, -0.023295, -0.044322, -0.003402, -0.024196, -0.026654, 0.010853, -0.015285, 0.020312, -0.016799, 0.012019, 0.012076, -0.056392, 0.027888, 0.022013, 0.005672, -0.030575, 0.023736, 0.000830, 0.029101, -0.041304, 0.030471, 0.019559, -0.078627, -0.043159, 0.021788, -0.009598, -0.004402, 0.007546, 0.017650, -0.018151, -0.029790, 0.027088, -0.007465, -0.007657, 0.010571, -0.009330, 0.008236, 0.034177, -0.026059, 0.021610, 0.064959, 0.003710, 0.019141, -0.018453, -0.070463, 0.098751, -0.040887, -0.106713, 0.107089, -0.003690, -0.001658, -0.020143, 0.018663, -0.021226, -0.008296, -0.024266, -0.034305, -0.009375, 0.004203, -0.006565, -0.004057, 0.022915, -0.103009, 0.100346, -0.017162, -0.077667, 0.076264, -0.008323, -0.076490, 0.030367, -0.001250, -0.096078, 0.081158, 0.013815, -0.002222, -0.001747, -0.009940, -0.074104, 0.056243, 0.011040, -0.043094, 0.045076, 0.018945, -0.041297, 0.023008, -0.012552, 0.126554, -0.079878, -0.062294, 0.024291, 0.006575, -0.018571, -0.044951, -0.023563, 0.037040, -0.031691, -0.013772, 0.064979, 0.028941, 0.007872, 0.026955, -0.063083, 0.060483, -0.021243, -0.045746, 0.047611, -0.007050, -0.010048, 0.032320, -0.015281, 0.155392, -0.104329, -0.042592, -0.077528, 0.062021, 0.003499, -0.079658, -0.024253, 0.089858, -0.031642, -0.031772, 0.076483, -0.012234, 0.028534, 0.000364, -0.056590, 0.079006, -0.054328, 0.001493, 0.002272, -0.004206, -0.020452, 0.052657, -0.016718, -0.017434, 0.020094, -0.032716, -0.115495, 0.077027, 0.009836, -0.056358, -0.020253, 0.099156, -0.066110, -0.033009, 0.071633, 0.004111, -0.010446, -0.000635, -0.030649, 0.079655, -0.070669, -0.011638, 0.011468, -0.003565, 0.004501, 0.020802, -0.008439, -0.096130, 0.112421, -0.019143, -0.037128, 0.051211, 0.026773, -0.012071, -0.006866, 0.062424, -0.020593, 0.013569, 0.055592, 0.026092, -0.020348, -0.020025, -0.010886, 0.067877, -0.071443, -0.010110, 0.016281, -0.019102, -0.009223, 0.057848, -0.054534, -0.118195, 0.074741, 0.019569, -0.087975, 0.073620, -0.026209, -0.028544, -0.004658, 0.048178, -0.102419, 0.091710, 0.050268, -0.011375, 0.011790, -0.001678, -0.028068, 0.050233, -0.059576, -0.030269, 0.022126, -0.054354, 0.005578, 0.038892, -0.053362, -0.005925, -0.067118, 0.062861, -0.054509, 0.076926, -0.032261, -0.143155, 0.053733, 0.088491, -0.151637, 0.110044, 0.017201, -0.033907, -0.023049, -0.002221, -0.054726, 0.062765, -0.012919, 0.004097, 0.022893, -0.040992, -0.021274, 0.072333, -0.026819, -0.026963, -0.149067, 0.142503, -0.061517, 0.095033, -0.022397, -0.129581, 0.137189, -0.000345, -0.028754, 0.000582, 0.039510, 0.017762, 0.015756, -0.032650, -0.069577, 0.028000, 0.023401, -0.013173, 0.005303, -0.016494, -0.021842, 0.027284, -0.031445, -0.007291, -0.106143, 0.101257, -0.046892, 0.084167, -0.037175, -0.041685, 0.057522, -0.085184, 0.044273, -0.025730, -0.016652, -0.005323, -0.000211, 0.008379, -0.066602, 0.020348, 0.046131, -0.019202, 0.008177, -0.002726, 0.012088, -0.000274, -0.046870, 0.028825, -0.082170, -0.045069, -0.014698, 0.061104, -0.076673, 0.028286, -0.064840, 0.026513, -0.017139, 0.016661, 0.015020, -0.006423, 0.018923, -0.004387, -0.029663, -0.036588, 0.004743, 0.003299, 0.016614, -0.005326, -0.017209, 0.045977, -0.037883, -0.029052, -0.055178, 0.035061, -0.036810, 0.026683, 0.041895, 0.025734, -0.035580, 0.038975, -0.073781, 0.050116, 0.017302, 0.020566, 0.026034, -0.027452, -0.015668, 0.020284, 0.030617, -0.017943, 0.017887, -0.004566, -0.003462, 0.013529, 0.019907, -0.062038, -0.023008, 0.065010, -0.051456, 0.043499, 0.023190, -0.049157, 0.045432, -0.037239, -0.094967, 0.058899, 0.007041, -0.010500, 0.004465, -0.006929, 0.011450, -0.012306, 0.010695, 0.002540, -0.016824, -0.002107, 0.005480, 0.015970, -0.002765, -0.052282, -0.030738, 0.071828, -0.071919, 0.075459, -0.002586, -0.089366, 0.078566, -0.015889, -0.091489, 0.087629, -0.001625, -0.019796, -0.013405, 0.029225, -0.004312, -0.009606, 0.028486, 0.000162, -0.024620, -0.005926, -0.003288, -0.015370, 0.015044, -0.109087, -0.003642, 0.071609, -0.026024, 0.077748, 0.009171, -0.015146, 0.073567, -0.002676, -0.005316, 0.038852, -0.027374, -0.001369, -0.006520, 0.020310, -0.008195, -0.059049, 0.014664, -0.005902, -0.017261, 0.037785, 0.047820, -0.046290, 0.011478, -0.056369, 0.086456, -0.015884, -0.019414, 0.044865, -0.018887, -0.017742, 0.046053, -0.094185, -0.032954, 0.047792, -0.049631, -0.014984, 0.008875, -0.005113, 0.043085, -0.020454, 0.024837, 0.013071, -0.037343, 0.011400, 0.008549, -0.061655, 0.012211, -0.053346, 0.086150, -0.042300, 0.023569, 0.002403, -0.047005, -0.081498, 0.135998, -0.021784, -0.045902, 0.070802, -0.029731, 0.006659, -0.003020, -0.018950, -0.006533, -0.009297, 0.001266, -0.015689, -0.018065, 0.049751, 0.012897, -0.009451, 0.006790, -0.043301, 0.117182, -0.096583, -0.003263, -0.020993, 0.031238, -0.043642, 0.036428, -0.025013, -0.022266, -0.010118, -0.001300, 0.011864, -0.029993, -0.020651, -0.027414, 0.019379, -0.002902, 0.010367, -0.011059, 0.016016, -0.003484, -0.014289, 0.018836, -0.063900, 0.124373, -0.133753, 0.023173, -0.000642, 0.005313, 0.056004, -0.025165, -0.017635, 0.038280, 0.005810, -0.030197, 0.006213, 0.002933, 0.012889, 0.005172, 0.010477, 0.017251, 0.007292, -0.026105, 0.037019, 0.003961, -0.026000, 0.020541, 0.018128, 0.037901, -0.124809, 0.016290, -0.064064, 0.060530, -0.005139, 0.015956, -0.038817, -0.000590, 0.017617, -0.056444, -0.009188, 0.020982, -0.021357, -0.009974, -0.019308, 0.038161, 0.000933, -0.006270, 0.032188, 0.010352, -0.058982, 0.044904, -0.131926, 0.161933, -0.067595, -0.033436, 0.014028, 0.021910, -0.000239, 0.051951, -0.029109, 0.003148, -0.003079, -0.048345, -0.003996, 0.024474, 0.029188, -0.008071, -0.032803, 0.003747, -0.008691, -0.032184, 0.051207, -0.010772, -0.019768, 0.020413, -0.018922, 0.046906, -0.057123, 0.028960, 0.000306, 0.025136, -0.055935, 0.045206, -0.031204, -0.054486, 0.061836, -0.009874, 0.022482, -0.015261, 0.015986, -0.018010, 0.033100, 0.002218, 0.010319, -0.024878, 0.007419, 0.018783, -0.025571, 0.037288, -0.000548, -0.015463, -0.034249, 0.036126, -0.026070, 0.036583, -0.072630, 0.105326, 0.002021, 0.006755, -0.009955, -0.021300, 0.008628, -0.002461, -0.011060, -0.003436, 0.003601, -0.000872, 0.021548, 0.011240, 0.041191, 0.019238, -0.028235, 0.018273, -0.046558, 0.067819, -0.034096, -0.008903, 0.016399, 0.008129, -0.032079, 0.039818, -0.017646, 0.018836, -0.034104, 0.013632, 0.022956, -0.022837, 0.026630, -0.007949, 0.000996, -0.001706, -0.008337, -0.021783, 0.029927, -0.010048, -0.009975, 0.020178, -0.020862, 0.028263, 0.003935, 0.031147, -0.016089, 0.023996, 0.052941, -0.048301, 0.033574, 0.016420, -0.045766, -0.015769, 0.007324, 0.030817, 0.003123, -0.053397, 0.041760, -0.018081, 0.000242, -0.018067, 0.041072, -0.031430, -0.019424, -0.012969, 0.009270, -0.002960, 0.050073, 0.048588, -0.031904, -0.008553, 0.114389, -0.126096, -0.009063, 0.040715, -0.043252, -0.027810, -0.003114, 0.004864, -0.019336, -0.050371, 0.062383, 0.006188, -0.006672, 0.045590, -0.001207, -0.043175, 0.011307, 0.007364, 0.095899, -0.087405, -0.022554, -0.021638, 0.027506, 0.013874, 0.166120, -0.132664, -0.082219, 0.171770, 