// Overflow-Protected 2-Layer CNN Model with Labels
#ifndef MY_MODEL_H
#define MY_MODEL_H

// Class Labels
const char* myClassLabels[3] = {
  "background",
  "pencil",
  "cell"
};


const float myConv1_w[] = { 0.302634, -0.128912, -0.028673, 0.001389, 0.466357, 0.188477, -0.250819, -0.001689, 0.352172, -0.119833, -0.210764, -0.000689, 0.504541, 0.084103, 0.100830, 0.000133, 0.202875, -0.050869, 0.362245, -0.000578, 0.430738, 0.268297, 0.045311, 0.000636, 0.033170, 0.235311, 0.242161, -0.000215, 0.037374, 0.211276, 0.248037, -0.002345, 0.275895, 0.166303, -0.172761, -0.001676, 0.090577, 0.058978, -0.216547, -0.000291, 0.397831, -0.160045, -0.278299, 0.000273, 0.281850, -0.132677, -0.181236, 0.000147, 0.460171, 0.011136, 0.032376, -0.003047, 0.368262, 0.291257, -0.201420, -0.000411, 0.151845, -0.055531, 0.180116, -0.000675, -0.099159, 0.225927, 0.428797, 0.000467, 0.206178, 0.038153, 0.131932, -0.000637, 0.076027, 0.024529, 0.009061, 0.003848, 0.198327, -0.071866, 0.209245, -0.000216, 0.249766, 0.101146, -0.353263, -0.000416, 0.085634, -0.213099, -0.029492, 0.002635, 0.240119, 0.173670, 0.052597, -0.000747, 0.194040, 0.234031, 0.070439, 0.000211, 0.274847, -0.312248, -0.052088, -0.000053, 0.182450, 0.044420, 0.085258, 0.000797, 0.384454, -0.175738, 0.296951, -0.000628, 0.100734, -0.019901, 0.314857, -0.002594 };

const float myConv1_b[] = { -0.297554, 0.286272, -0.158143, 0.000084 };

const float myConv2_w[] = { -0.000146, -0.092644, -0.156723, -0.093814, -0.088001, -0.188328, 0.073955, 0.205514, -0.000195, -0.032342, -0.072258, -0.032231, -0.264461, 0.016865, -0.014084, -0.138244, 0.001591, -0.126936, 0.092849, -0.105461, -0.122848, 0.269741, 0.293030, -0.092929, -0.000580, -0.000075, -0.000047, 0.000005, -0.000161, -0.000969, -0.000490, -0.000158, -0.001004, -0.171704, -0.035568, -0.205886, 0.236921, 0.152590, 0.033222, 0.214991, 0.000565, -0.001308, -0.038066, -0.146226, -0.236143, -0.176702, -0.002214, -0.048407, -0.000945, 0.318333, -0.045604, -0.109349, -0.012539, -0.007089, 0.037295, 0.189216, -0.001081, 0.000002, -0.000435, -0.000066, -0.000050, -0.000129, 0.000141, 0.000222, -0.000114, 0.067769, -0.142740, -0.119668, 0.154835, -0.159251, 0.270836, 0.211288, -0.000031, 0.291071, -0.207902, -0.079972, -0.343832, -0.126354, 0.234526, -0.128490, 0.000003, 0.241315, 0.202547, 0.058290, 0.062927, -0.194068, -0.077859, -0.052845, -0.000203, -0.000519, -0.000462, 0.000055, -0.000530, 0.000544, -0.000323, 0.000057, -0.001787, -0.351520, -0.133610, 0.090493, -0.126896, 0.102545, -0.248460, 0.071703, 0.000548, 0.013435, 0.137409, -0.018160, -0.175277, -0.026996, 0.049845, -0.335211, 0.000113, -0.179244, 0.074296, 0.104522, 0.072948, 0.216382, -0.082295, -0.045162, -0.000204, -0.000414, -0.000653, -0.000240, 0.000527, -0.000681, -0.000192, -0.000304, 0.000797, -0.093891, 0.058094, -0.164006, -0.184772, 0.044395, -0.036352, -0.098567, 0.000994, 0.144521, 0.045772, -0.202542, -0.164981, -0.216275, 0.065359, -0.207239, -0.000674, 0.338218, 0.281600, 0.166519, 0.035229, -0.196435, 0.220593, -0.077118, 0.000594, 0.000312, -0.000769, 0.001623, 0.000053, 0.000028, -0.000826, -0.000398, -0.000856, 0.135857, -0.138845, 0.141288, 0.243361, -0.166256, 0.295824, -0.093102, -0.000345, 0.160640, -0.153834, -0.151744, -0.352564, -0.282721, 0.131133, -0.377657, -0.000260, 0.368987, 0.231623, 0.009190, 0.125828, -0.367281, 0.183144, -0.137912, 0.000129, 0.000060, -0.000909, 0.000331, -0.000079, -0.001288, 0.000718, -0.000195, 0.000225, -0.191283, -0.142524, 0.258967, 0.153569, 0.282302, -0.149230, -0.022910, -0.001236, 0.013932, 0.011438, -0.303700, -0.276054, 0.153337, -0.297093, -0.026043, 0.000320, 0.072731, 0.178588, 0.136419, -0.256228, -0.048362, -0.167102, 0.008445, 0.000729, 0.000236, 0.000180, -0.000078, -0.001022, -0.000212, -0.000434, 0.000143, 0.000206, 0.199152, 0.246420, 0.280365, -0.093202, 0.209314, -0.189182, 0.080828, 0.000027, 0.032787, -0.179368, -0.048375, -0.077801, 0.025316, 0.032080, -0.276181, -0.000721, 0.250052, 0.164884, -0.010710, -0.078732, -0.214716, -0.058802, 0.089526, -0.001170, -0.000148, 0.000228, -0.000614, 0.001603, -0.001176, -0.000407, 0.000598, 0.000029, 0.161147, 0.348565, 0.113859, 0.148064, -0.014754, -0.144172, -0.065630, -0.000075, 0.097324, 0.127705, -0.183978, -0.182391, -0.086372, 0.044349, -0.297902, 0.000525, 0.123638, 0.063075, 0.221244, -0.133579, -0.003761, 0.325253, 0.045433, -0.000294, 0.000184, -0.000382, -0.000806, -0.000991, 0.000444, 0.000058, 0.000194 };

const float myConv2_b[] = { -0.007679, -0.041286, -0.103888, -0.232953, -0.170157, -0.031004, -0.078915, -0.249981 };

const float myOutput_w[] = { -0.006116, 0.009679, 0.005249, -0.059619, 0.027334, 0.017010, -0.033796, 0.028780, -0.019952, 0.011840, 0.006708, 0.021173, -0.045645, 0.052636, 0.021980, 0.000369, 0.020477, -0.038777, -0.048531, 0.031678, 0.041660, -0.005875, 0.005210, 0.013915, -0.016793, -0.006513, 0.001343, -0.045866, 0.053443, -0.014415, -0.035853, 0.041063, -0.023093, -0.040297, 0.023401, 0.042502, -0.035680, 0.027764, 0.007983, 0.015087, -0.036595, 0.028737, -0.081413, 0.123389, -0.021967, -0.038483, 0.031819, 0.010479, -0.008856, 0.011249, 0.011416, -0.093545, 0.084177, -0.035858, -0.056277, 0.034779, -0.012750, 0.027427, -0.032181, -0.015720, -0.082647, 0.028123, 0.007404, 0.037779, -0.060988, 0.011956, -0.116730, 0.137584, -0.020812, -0.028885, 0.041828, 0.001071, 0.002948, -0.013583, 0.005877, 0.006910, 0.002660, -0.067359, 0.004743, -0.012593, 0.007012, -0.026441, 0.017607, -0.021850, -0.055161, 0.059344, 0.007105, 0.011078, 0.012827, -0.050675, -0.113065, 0.107801, 0.030392, -0.039651, 0.058016, 0.025376, -0.017925, -0.016344, -0.025179, 0.084197, -0.098751, 0.015228, 0.064702, -0.057936, -0.001717, 0.025660, -0.030777, 0.031950, -0.034782, 0.045123, -0.006897, -0.122110, 0.153388, -0.109968, -0.028431, 0.049538, -0.034146, -0.067116, 0.021692, -0.004673, 0.001423, 0.001049, -0.009257, 0.138984, -0.096870, -0.005115, 0.058711, -0.077671, 0.019454, -0.005836, 0.028341, -0.017613, -0.031300, 0.018407, 0.031604, -0.098376, 0.122727, -0.140221, 0.027269, -0.042131, 0.009129, -0.046537, 0.032989, -0.014082, -0.033751, -0.024231, -0.020942, 0.137208, -0.093864, 0.003066, 0.082530, -0.085972, 0.000973, 0.012478, 0.006308, 0.021606, -0.006966, -0.006296, 0.021846, 0.046498, -0.020208, -0.101293, 0.075207, -0.068588, 0.024364, -0.040486, 0.037120, 0.016621, -0.007270, 0.000227, 0.011325, -0.048156, -0.003944, 0.051204, 0.010211, -0.030202, 0.033065, -0.022616, 0.002139, 0.025512, -0.015536, -0.014447, 0.015535, 0.102837, -0.048827, -0.118923, 0.029685, -0.056638, 0.010725, -0.030389, 0.006101, 0.023024, -0.005475, 0.013858, 0.003996, -0.045426, 0.003402, 0.049980, -0.025951, 0.014762, 0.039840, -0.019070, -0.010303, 0.028209, -0.050210, 0.034126, 0.013497, 0.172996, -0.153856, -0.091734, -0.044950, 0.043573, -0.016218, -0.005569, 0.021944, 0.027350, 0.002824, 0.000191, 0.017520, 0.012447, -0.037427, 0.061447, -0.027799, -0.024504, -0.000081, 0.002714, 0.015120, -0.020911, -0.019021, 0.030667, -0.001782, 0.110647, -0.095200, -0.057721, -0.039642, 0.021423, 0.039549, -0.022689, 0.017994, 0.010833, -0.007389, 0.013102, 0.023938, 0.053657, -0.068230, 0.072877, -0.002681, -0.034333, -0.003938, -0.013727, 0.000058, 0.007049, -0.021180, -0.029646, 0.012125, -0.084053, 0.024791, -0.004494, -0.009763, -0.006343, 0.011150, -0.006962, -0.001489, 0.018626, -0.005945, -0.003046, -0.007568, 0.053168, -0.073060, 0.036715, 0.019484, -0.026569, 0.005455, 0.002401, -0.025989, 0.054934, -0.014557, -0.017598, 0.034915, -0.033963, 0.016479, -0.059116, 0.059297, -0.062202, -0.002818, -0.040812, 0.044200, -0.006386, -0.018029, 0.003061, 0.008121, 0.054906, -0.075133, -0.021483, 0.048446, -0.037470, 0.011765, 0.008056, -0.001875, 0.032900, -0.037040, 0.016002, 0.035018, 0.030898, -0.041812, 0.026086, 0.056311, 0.006705, -0.060123, -0.042826, 0.025249, 0.017309, -0.005398, 0.014781, -0.002843, 0.052027, -0.077216, -0.002620, 0.042210, -0.034224, 0.023439, 0.000582, -0.013503, 0.024504, -0.014483, 0.011143, 0.030444, -0.069625, 0.022540, 0.059730, 0.070850, -0.042513, -0.083605, -0.014174, 0.013558, 0.002196, 0.008849, 0.005503, 0.013241, 0.090660, -0.079786, 0.015736, 0.047635, -0.012818, -0.009704, 0.021408, 0.007891, 0.016677, -0.012968, 0.006679, -0.001638, -0.001506, 0.005785, 0.029118, 0.101130, -0.082444, -0.018377, 0.047983, -0.039230, 0.046946, 0.002146, 0.005663, 0.033921, 0.069842, -0.081932, -0.007914, 0.042075, -0.037695, -0.010395, 0.003878, -0.004132, -0.007032, -0.007270, 0.014736, 0.012076, 0.009581, -0.015521, 0.026699, 0.036829, -0.068155, -0.017608, 0.005862, -0.025932, -0.006854, 0.004296, -0.011371, -0.022810, 0.060269, -0.058570, 0.002776, -0.024552, -0.048679, 0.045470, -0.008117, -0.060457, 0.018842, 0.015953, -0.018866, 0.002347, 0.028540, -0.035100, 0.022754, -0.003035, -0.015854, -0.000402, 0.008523, -0.025742, 0.016871, -0.007133, 0.000366, -0.000030, 0.124571, -0.115038, 0.000566, 0.005311, -0.035322, 0.057330, 0.006022, -0.028511, 0.042298, 0.022578, -0.021548, 0.004996, -0.006504, 0.010682, 0.055978, 0.110502, -0.058995, -0.058149, 0.015331, -0.014345, -0.008758, -0.000102, 0.013918, 0.012500, 0.102370, -0.124166, 0.024932, 0.042942, -0.046905, 0.089666, 0.039453, -0.048621, 0.057969, -0.004693, 0.010148, 0.023318, -0.030153, 0.005118, 0.035319, 0.092413, -0.026535, -0.071975, 0.025191, 0.021621, 0.010965, 0.021849, -0.011500, -0.021247, 0.050090, -0.029129, -0.030618, 0.067334, -0.086644, 0.050738, -0.006684, -0.014115, 0.063470, 0.012531, -0.002413, -0.006820, -0.031490, -0.024617, 0.187361, 0.068561, 0.005660, -0.108384, 0.033021, -0.005428, -0.017046, 0.021665, -0.017818, -0.004588, 0.052420, -0.008848, -0.047529, 0.041315, -0.014491, -0.014798, -0.011880, -0.030416, 0.036960, 0.014604, -0.019955, 0.023696, -0.020700, -0.070682, 0.157728, 0.029523, 0.035882, -0.105564, 0.015900, -0.025229, -0.002399, -0.013023, 0.015801, 0.014400, 0.028943, 0.009483, -0.066932, -0.004558, 0.006933, -0.030536, -0.034979, 0.022944, 0.040048, 0.052897, -0.019292, 0.000871, 0.018657, -0.065740, 0.066473, 0.037683, 0.047810, -0.082741, 0.032033, 0.000978, 0.007268, -0.023555, 0.013237, -0.029656, -0.051645, 0.098275, -0.074582, 0.033890, -0.030929, -0.025461, -0.000548, -0.009543, 0.008162, 0.001645, -0.000943, -0.014978, 0.012516, -0.055018, 0.074008, -0.016309, 0.081989, -0.090437, 0.003077, -0.002083, -0.001149, -0.017987, 0.018417, -0.006239, -0.122379, 0.158952, -0.089970, -0.027640, 0.058240, -0.010846, -0.018420, -0.030739, 0.049530, -0.002258, 0.019546, -0.035384, 0.045937, -0.091218, 0.067638, -0.054099, 0.152665, -0.147263, 0.002293, 0.003246, -0.008365, 0.021618, -0.008143, 0.000362, -0.076367, 0.144563, -0.087306, -0.017486, -0.012161, -0.013688, 0.041619, 0.003840, 0.020214, -0.015258, -0.015660, 0.004825, 0.032618, 0.031331, -0.080068, -0.106091, 0.120402, -0.041216, 0.014349, 0.000477, -0.004974, 0.003335, 0.018638, -0.025249, 0.071880, -0.052718, 0.001970, 0.049207, -0.030744, 0.024769, 0.012790, -0.034419, 0.005345, -0.012284, -0.019244, 0.020236, -0.020496, 0.077005, -0.081811, -0.100922, 0.115605, 0.002382, 0.034437, 0.018044, -0.013734, 0.011253, -0.009868, -0.005466, -0.047094, 0.020668, 0.002155, 0.025766, -0.033768, 0.013383, 0.034320, -0.026563, -0.012358, -0.026111, 0.033356, -0.003111, 0.137950, -0.138518, -0.007182, -0.131209, 0.104014, -0.057353, -0.014051, 0.016587, -0.017945, -0.001353, 0.029016, -0.006049, -0.045714, 0.048346, -0.035251, -0.005906, 0.003584, 0.030487, 0.003938, -0.043014, 0.028103, -0.011654, 0.019326, -0.008183, 0.068751, -0.054473, -0.018565, -0.104413, 0.081846, -0.074704, -0.028465, 0.017769, -0.007383, 0.001510, 0.019426, 0.016578, 0.010832, -0.004108, -0.015594, -0.004485, 0.026929, 0.013618, -0.022576, -0.022970, 0.002194, -0.032316, 0.001563, 0.021075, 0.016270, -0.012504, -0.054244, -0.043390, 0.037611, -0.019899, -0.033535, 0.031455, -0.032246, -0.012811, 0.003702, 0.019203, -0.072604, 0.051750, -0.016415, -0.021683, -0.002439, 0.016608, -0.038631, 0.035308, 0.028829, -0.021241, 0.027742, 0.013756, -0.029898, 0.059095, -0.050808, -0.073763, 0.076414, -0.001935, -0.015712, 0.004397, 0.021243, -0.019802, -0.009944, -0.013856, -0.026487, 0.048616, -0.030318, -0.057914, 0.033924, 0.010378, -0.021294, 0.026255, 0.027609, -0.028715, 0.023519, 0.020627, 0.014171, -0.054561, 0.038162, -0.054742, 0.072887, -0.026833, -0.014656, 0.004875, 0.003854, 0.009410, 0.015123, 0.009991, 0.043220, 0.027151, -0.056193, 0.033790, -0.025181, -0.017961, -0.014688, -0.018143, 0.009981, -0.040156, 0.015173, -0.009195, 0.024476, -0.046505, -0.028637, -0.076560, 0.087111, -0.019420, -0.005661, 0.037910, 0.020919, 0.025187, 0.016195, 0.020857, 0.050151, -0.054053, -0.045651, 0.062579, -0.012952, -0.006007, 0.029431, -0.029099, 0.021792, -0.026835, 0.022813, -0.001119, -0.058650, 0.059812, -0.058537, -0.049324, 0.068096, -0.042465, -0.048815, 0.024645, -0.018847, 0.024541, 0.016805, -0.008881, 0.077363, -0.094263, 0.016904, 0.056270, -0.044661, 0.014734, 0.018785, -0.073721, 0.020590, -0.049405, -0.006896, 0.000684, 0.038680, -0.019623, -0.097595, -0.027388, 0.054366, -0.033742, -0.041251, 0.035954, -0.000214, -0.029692, 0.010692, 0.018975, 0.109906, -0.142018, 0.044781, 0.055068, -0.032196, 0.029334, 0.028060, -0.015121, 0.003927, -0.007335, 0.012858, -0.039383, 0.052100, -0.016428, -0.138533, 0.043785, -0.089762, -0.002602, -0.083583, 0.031943, 0.020307, 0.010729, 0.011867, -0.020378, 0.072186, -0.077923, 0.022809, 0.029215, -0.045585, 0.010087, 0.020367, -0.054404, 0.028203, -0.000316, -0.014123, 0.029303, 0.110577, -0.079172, -0.123137, 0.033166, -0.041306, 0.003140, -0.045382, 0.004622, 0.014623, 0.021583, -0.013900, -0.008419, -0.044435, -0.025324, 0.056701, 0.033264, -0.015959, 0.045836, 0.016706, -0.023216, -0.009776, -0.049732, 0.004140, 0.030144, 0.102620, -0.074611, -0.114476, -0.044625, 0.061701, 0.001528, 0.033141, -0.012673, 0.012783, -0.017873, -0.029709, 0.010384, -0.075730, 0.079306, 0.042619, -0.010497, 0.031847, 0.010173, 0.007441, -0.014224, 0.024156, -0.018355, 0.011472, -0.002722, 0.118316, -0.103140, -0.027878, -0.058341, 0.042533, 0.003151, 0.003631, 0.010976, -0.010942, 0.001712, 0.016664, 0.028472, -0.011790, 0.006117, 0.039463, 0.000568, -0.007588, 0.059064, -0.017227, 0.000927, 0.021980, -0.023105, 0.005148, 0.028265, 0.126267, -0.119341, -0.016977, -0.009956, -0.017823, 0.006359, -0.041501, 0.010039, 0.015894, -0.004712, -0.013392, 0.032786, 0.018256, -0.062620, 0.026510, 0.015974, -0.019311, 0.014046, -0.053051, 0.028322, 0.018666, -0.013048, -0.009898, 0.030050, 0.008006, -0.008183, -0.008558, 0.008450, -0.074014, 0.033840, -0.049328, 0.011051, 0.040293, 0.000130, 0.006409, 0.020496, 0.078424, -0.094276, 0.070461, 0.076585, -0.065386, 0.036041, -0.020543, -0.023720, 0.046513, -0.011854, -0.009977, 0.014895, -0.032177, 0.048223, 0.003027, 0.048664, -0.077746, 0.020528, -0.002666, 0.021923, 0.014478, -0.028389, 0.004520, 0.014095, 0.073856, -0.089445, 0.046023, 0.039462, -0.029501, 0.043737, -0.033592, 0.045903, 0.022156, 0.027978, -0.000107, 0.017134, 0.039301, -0.018929, -0.033958, 0.021897, -0.004425, -0.047370, -0.009209, -0.008965, 0.018558, -0.000598, 0.025500, 0.031186, 0.102534, -0.095685, -0.001926, -0.018379, -0.015810, 0.021820, -0.014594, -0.004242, 0.051533, -0.016622, 0.008110, 0.029062, -0.048928, 0.002103, 0.043552, 0.052948, -0.048247, -0.046484, 0.026705, 0.001909, 0.016890, -0.000736, -0.017733, 0.006909, 0.153370, -0.140831, -0.005895, 0.018616, -0.003325, 0.016906, -0.003472, -0.034322, 0.026175, -0.004576, -0.014400, 0.021012, -0.040640, 0.041865, 0.047246, 0.068196, -0.031026, -0.021964, -0.012270, -0.007583, 0.013146, 0.008852, -0.025602, 0.003345, 0.076137, -0.057291, 0.014700, 0.002253, -0.031115, 0.029992, 0.038973, -0.011253, 0.052978, 0.012582, -0.013258, 0.027657, -0.019958, 0.009772, 0.047688, -0.008220, -0.023138, 0.022657, -0.006701, -0.016467, 0.013258, 0.018225, 0.000731, -0.016372, 0.019437, -0.037340, 0.040604, 0.004018, -0.035009, 0.023508, -0.036237, 0.003329, 0.001125, 0.001012, 0.001217, 0.006181, -0.035355, 0.000396, 0.013818, 0.043959, -0.045858, -0.015709, -0.027698, 0.021161, 0.038855, 0.009707, 0.003841, 0.001350, 0.030565, -0.040573, 0.039866, 0.010255, -0.063506, 0.042003, -0.020227, -0.019382, 0.029667, 0.000821, -0.021757, 0.001239, -0.065150, 0.058374, 0.022014, 0.063825, -0.073427, -0.011308, -0.010157, 0.003149, 0.025996, 0.006410, -0.017418, 0.010053, 0.081101, -0.096277, -0.013408, 0.032303, -0.046053, 0.040236, -0.015272, -0.023292, 0.039316, -0.018802, -0.041347, 0.021535, -0.071544, 0.008580, 0.037223, 0.066450, -0.031153, -0.045924, 0.022072, -0.045881, 0.015616, 0.003101, -0.015586, -0.014859, 0.042745, -0.025517, 0.010106, -0.003686, -0.042184, 0.070709, 0.011877, -0.040932, 0.050928, -0.007922, -0.029684, 0.006267, 0.002324, -0.087501, 0.134105, 0.046943, 0.008768, -0.060015, 0.001187, -0.023800, 0.044840, -0.001914, 0.019243, -0.026587, -0.004146, 0.050050, -0.058561, -0.008662, -0.029345, 0.011333, -0.023396, -0.043650, 0.042300, 0.044101, -0.025186, 0.008658, -0.075663, -0.028238, 0.161403, 0.008903, 0.065559, -0.100103, 0.021558, -0.027620, 0.020717, -0.012136, -0.002782, 0.003193, 0.003744, 0.036621, -0.067303, -0.018263, -0.035840, 0.004581, 0.037433, -0.055160, 0.050003, 0.016852, -0.047910, 0.000085, -0.049680, -0.055463, 0.084111, 0.089958, -0.007525, -0.060426, 0.038354, 0.013723, 0.021375, -0.002677, 0.011316, 0.003519, 0.013581, 0.002641, -0.001080, -0.004099, -0.041214, 0.036118, 0.001112, -0.020472, 0.043567, 0.021936, -0.022928, 0.003110, 0.030493, -0.075434, 0.098822, 0.062820, 0.030751, -0.077865, 0.020302, 0.010383, 0.004964, -0.003157, -0.004332, -0.001357, -0.090127, 0.111960, -0.060567, -0.018245, -0.013441, 0.035535, 0.011871, -0.027919, 0.041344, 0.011124, 0.010111, -0.007352, 0.055668, -0.084558, 0.159712, -0.035611, 0.128397, -0.132340, 0.054557, 0.014537, -0.015445, -0.008298, -0.019844, 0.020560, -0.031813, 0.051897, -0.061030, 0.049030, -0.040327, -0.007333, -0.009805, 0.004957, 0.014765, -0.009428, 0.035173, -0.004675, -0.050510, 0.025692, 0.018525, -0.057564, 0.121949, -0.097140, -0.008051, 0.024959, -0.008841, -0.009482, -0.013806, -0.010866, 0.102574, -0.117971, -0.009995, 0.046270, -0.039821, -0.001262, 0.050426, -0.043223, 0.044047, 0.010801, -0.018090, 0.003844, -0.016007, 0.013308, 0.059401, -0.043232, 0.085303, -0.035682, -0.004585, 0.035276, -0.007573, -0.018335, -0.024501, 0.013940, -0.002332, 0.011018, -0.031773, 0.069158, -0.052798, 0.025714, 0.024707, -0.005339, 0.026794, 0.037837, -0.021534, -0.030543, 0.119399, -0.171064, 0.016876, -0.104732, 0.090459, -0.065714, -0.026631, 0.006838, -0.032731, 0.002921, 0.005481, -0.004008, -0.038329, 0.066083, -0.071409, 0.008013, 0.018002, -0.004052, 0.010438, -0.006049, 0.009841, -0.028550, -0.004867, -0.017016, 0.169893, -0.135067, -0.075374, -0.087827, 0.094195, -0.067084, -0.010667, 0.024486, -0.020470, 0.017502, 0.032714, 0.021362, 0.007282, 0.014634, -0.061247, 0.021504, -0.022114, -0.014901, -0.022138, 0.001511, 0.003069, -0.000238, -0.000080, -0.014593, 0.088012, -0.093304, -0.063155, -0.075488, 0.055775, 0.005246, -0.019997, 0.032911, -0.009275, 0.011076, -0.013861, -0.008975, -0.038245, 0.045888, -0.038193, -0.054955, 0.033623, 0.009885, -0.021526, 0.037460, 0.005812, -0.036503, 0.052098, 0.002068, -0.027752, 0.061228, -0.055078, -0.137447, 0.077102, 0.015535, 0.000628, 0.019479, -0.001495, 0.017563, -0.007820, -0.031703, 0.040812, -0.016398, -0.031049, 0.009584, 0.033841, -0.028822, 0.006138, 0.004802, 0.028763, -0.008379, 0.038125, -0.007957, 0.017953, -0.038786, 0.025750, -0.017310, 0.057517, -0.034262, 0.006002, 0.000005, 0.015687, -0.015913, 0.005202, -0.013854, 0.036922, -0.011321, -0.054827, 0.034811, -0.041418, -0.020208, 0.004241, -0.030707, 0.013776, -0.016869, 0.007747, 0.004310, -0.010740, -0.022271, 0.018968, -0.034524, 0.014797, -0.019386, -0.021960, 0.023540, 0.012266, 0.007117, 0.011395, -0.029784, 0.059764, -0.054564, -0.063389, 0.054970, -0.023784, -0.038749, 0.000393, -0.027492, 0.001799, -0.032218, 0.026075, 0.016792, 0.010324, 0.000121, -0.041597, -0.014052, 0.022634, -0.032295, -0.026505, 0.016640, 0.004019, 0.010276, -0.004664, 0.018159, 0.042769, -0.053687, -0.034938, 0.081282, -0.075172, -0.013107, 0.029055, 0.000885, 0.014385, -0.016942, 0.035362, -0.016728, 0.085969, -0.039740, -0.044096, 0.002107, -0.032786, 0.006332, -0.058889, 0.023382, -0.010773, 0.023441, 0.013432, -0.018894, 0.112705, -0.102836, 0.018365, 0.061308, -0.058476, 0.001625, 0.015015, -0.029707, -0.002119, 0.017693, -0.003154, 0.013603, 0.102173, -0.041247, -0.127912, 0.009180, -0.017743, 0.022679, -0.031928, -0.001475, 0.015825, -0.019627, -0.002631, -0.004834, 0.047423, -0.095438, 0.052272, 0.019620, -0.028185, 0.026466, 0.052198, -0.029021, 0.022715, 0.011960, -0.020840, 0.007942, 0.081876, -0.029940, -0.096102, 0.028746, -0.071658, 0.023589, -0.003726, 0.009176, -0.007541, -0.008364, 0.021481, -0.013433, -0.035829, -0.025350, 0.101332, -0.012911, -0.040188, 0.048106, -0.035981, 0.011963, -0.007981, -0.028401, 0.020641, 0.011380, 0.056508, -0.077461, -0.086599, 0.018092, -0.005812, 0.037124, 0.030738, -0.012590, 0.005454, 0.003701, -0.013454, -0.024043, -0.088590, -0.000788, 0.058033, -0.010816, -0.033681, 0.054448, 0.030627, -0.046496, 0.036643, -0.043816, 0.051213, 0.046969, 0.059980, -0.052031, -0.038601, -0.075245, 0.087998, -0.047930, 0.019529, -0.040376, -0.006723, 0.010373, 0.004012, 0.022448, -0.003034, 0.026047, 0.021599, -0.021878, 0.005127, 0.030356, -0.006808, -0.049892, 0.046282, -0.015708, 0.003216, 0.035779, 0.075338, -0.111134, 0.047161, -0.046165, 0.037540, 0.013734, -0.010945, 0.011395, 0.020666, 0.032887, -0.001839, -0.022755, 0.062069, -0.057890, 0.029523, 0.034839, 0.003455, 0.029122, 0.004450, -0.024243, 0.009804, -0.009290, -0.006084, -0.004833, -0.066928, 0.027591, -0.003209, 0.059732, -0.054661, 0.021220, -0.005315, 0.001756, 0.001366, 0.009722, 0.003356, 0.018148, 0.081624, -0.147256, 0.069606, 0.077031, -0.063272, 0.026752, 0.018341, -0.008418, 0.008690, -0.031145, -0.013591, 0.024017, -0.020712, 0.007421, -0.005724, 0.006023, -0.040365, 0.049425, -0.011358, 0.023532, 0.018071, -0.031988, 0.000980, 0.013983, 0.109686, -0.065545, 0.000251, 0.071506, -0.044433, -0.007944, 0.037756, -0.012368, -0.003056, 0.010194, -0.011374, 0.027841, 0.077868, -0.092757, -0.075515, -0.008101, -0.004838, 0.005642, 0.000323, -0.005646, -0.010566, -0.030209, -0.023214, 0.018377, 0.035327, -0.009453, -0.071659, -0.021609, 0.024809, -0.004884, 0.007297, -0.005097, -0.007344, -0.031522, 0.006345, 0.006965, 0.032610, -0.024353, -0.011834, 0.076815, -0.040580, -0.047354, -0.043695, 0.024457, 0.033137, -0.016462, 0.026439, -0.012717, 0.052948, 0.001589, -0.045230, 0.024096, 0.001744, -0.031130, -0.022163, 0.021352, -0.027391, 0.024157, -0.024026, 0.010798, -0.015201, -0.013716, 0.007695, 0.068706, -0.050613, -0.006656, -0.028684, -0.029692, 0.042338, -0.000148, 0.027665, 0.010418, -0.016466, -0.031276, 0.030814, 0.001070, 0.013506, -0.009222, 0.007874, -0.001521, 0.012820, 0.002460, -0.032101, 0.036113, -0.013013, 0.032016, -0.000530, 0.039193, -0.068839, 0.019002, 0.013753, 0.007259, 0.010718, 0.000476, -0.022279, 0.023222, 0.017640, -0.042261, 0.089807, -0.059303, 0.023925, 0.014678, -0.030732, -0.007573, 0.005545, 0.004825, -0.025210, 0.000646, 0.009161, 0.062134, -0.065375, 0.016934, -0.086011, 0.077980, 0.010921, -0.028999, 0.000034, -0.004516, 0.006674, -0.019382, 0.034231, -0.043809, 0.022798, -0.029177, 0.018730, 0.036773, -0.012733, -0.013172, 0.019844, 0.001966, -0.014633, 0.021077, -0.070382, 0.063282, -0.018797, 0.103117, -0.084864, 0.043912, 0.013572, -0.041931, 0.037754, -0.010290, 0.018559, -0.007536, 0.081162, -0.060881, 0.065670, 0.013864, -0.020455, 0.028069, -0.000662, 0.011614, 0.013661, 0.009735, -0.016395, 0.022621, -0.087975, 0.081320, -0.021739, 0.101532, -0.078102, -0.000217, 0.017622, -0.014526, 0.017685, 0.006894, -0.009308, -0.013175, 0.066698, -0.033696, -0.001293, -0.026738, -0.032289, 0.031205, -0.038021, 0.003889, 0.017613, -0.014510, -0.011850, 0.004082, -0.089642, 0.043056, 0.068512, 0.097546, -0.036231, -0.046754, 0.016841, -0.031084, 0.032323, -0.003895, 0.022013, -0.020483, 0.000983, 0.032631, -0.058358, -0.020540, 0.006661, 0.002156, -0.002169, -0.019912, 0.078431, 0.000524, -0.040708, 0.022243, -0.100512, 0.011304, 0.115258, 0.074563, -0.021375, -0.061514, 0.038004, -0.030362, 0.029485, -0.021382, 0.003347, -0.020913, 0.005593, 0.008122, -0.055959, -0.073787, 0.001653, 0.062934, 0.002188, -0.065936, 0.039391, 0.019447, 0.008883, 0.005045, 0.033803, -0.054062, 0.123688, 0.024122, 0.024981, -0.109484, -0.006674, -0.013672, 0.008537, -0.015863, 0.000536, -0.008724, -0.013365, -0.035166, 0.005608, -0.052119, -0.011670, 0.041864, -0.023458, -0.024261, 0.051960, 0.022406, -0.015665, 0.014913, -0.055528, 0.047130, 0.050685, 0.027358, 0.014130, -0.097382, 0.008067, 0.014752, 0.018147, 0.001663, 0.016163, -0.010594, -0.023837, 0.096666, -0.054169, 0.065955, -0.062428, 0.042334, -0.011802, -0.014089, 0.035048, 0.000577, 0.031913, -0.035540, -0.010335, -0.099624, 0.132580, -0.000061, 0.054341, -0.068528, 0.005081, -0.006969, -0.012061, 0.029781, 0.011933, -0.011125, 0.032597, -0.040229, -0.016918, -0.051861, 0.018575, 0.013692, 0.002428, -0.022735, 0.057765, 0.007222, 0.002873, 0.001012, -0.069649, 0.048709, -0.011047, 0.018385, 0.028817, -0.076111, -0.017831, 0.001222, -0.036387, 0.018734, 0.003222, -0.000084, 0.034019, -0.047242, -0.013713, 0.032971, -0.037703, -0.018248, -0.005132, -0.022655, -0.002138, 0.039198, -0.002908, 0.025456, -0.011703, -0.038208, 0.043925, 0.017427, 0.060401, -0.077771, 0.037588, 0.005267, -0.025259, 0.007212, 0.010188, 0.022529, 0.026542, 0.011078, -0.074117, 0.002358, 0.017041, 0.025598, -0.051204, 0.031129, 0.008050, -0.004536, 0.023336, -0.020703, 0.070927, -0.039072, 0.059224, -0.016044, 0.006638, -0.009372, -0.019882, 0.022486, -0.019166, -0.016006, -0.015133, 0.011603, -0.018068, 0.038862, -0.049972, 0.010696, 0.007803, -0.048525, 0.026680, 0.018035, -0.010443, 0.009718, 0.007194, 0.009262, 0.106916, -0.066543, -0.040001, -0.057378, 0.052456, 0.004404, -0.015121, -0.010722, 0.011637, -0.016692, 0.018463, 0.019439, -0.006952, 0.017241, -0.019818, -0.003993, 0.033515, -0.015845, 0.013768, 0.003211, 0.000853, 0.008618, -0.029246, -0.007819, 0.066245, -0.041539, -0.003480, -0.009218, 0.018333, 0.045841, -0.011262, 0.003885, -0.002212, 0.009532, -0.013540, -0.000250, -0.015447, 0.001570, -0.043990, 0.048725, -0.017332, 0.005398, 0.024938, -0.022101, -0.028784, -0.027438, 0.021301, 0.018622, 0.032822, -0.021254, -0.138589, -0.091852, 0.067057, -0.015515, -0.043637, -0.007145, 0.012857, -0.005230, -0.017752, 0.012742, 0.052448, -0.009858, -0.033949, 0.034935, -0.031745, -0.008105, 0.036956, -0.028998, -0.008218, -0.012393, 0.053809, -0.000113, 0.067633, -0.075234, -0.029595, -0.023735, 0.046924, 0.000186, -0.006707, -0.003140, 0.007508, 0.004232, -0.003719, -0.022932, 0.069561, -0.040259, -0.070235, 0.039951, -0.047751, -0.029937, 0.020164, -0.065980, 0.012364, 0.006518, 0.015927, -0.005474, 0.031968, 0.009800, -0.074115, -0.027409, -0.000709, -0.019550, -0.061034, 0.020341, 0.001221, 0.010181, -0.013494, -0.002670, 0.050079, -0.045094, -0.044042, 0.023088, -0.022313, 0.016150, 0.030838, -0.029894, -0.006666, -0.025955, 0.001736, -0.011000, 0.074009, -0.066982, -0.026506, -0.028915, 0.052382, -0.058751, -0.004426, 0.003885, 0.024908, 0.000353, -0.018102, -0.000833, 0.055733, -0.001011, -0.031198, 0.011203, -0.015474, 0.023386, -0.000339, -0.016894, 0.005422, 0.014322, -0.030169, 0.023321, 0.124788, -0.106525, -0.065745, -0.005406, -0.011452, -0.020639, -0.001763, -0.008155, -0.001226, -0.006720, -0.002148, 0.017799, 0.072302, -0.051921, 0.048012, 0.021791, -0.043888, 0.016916, 0.003917, 0.006725, -0.002757, -0.008633, 0.013830, 0.017630, 0.048651, -0.039310, -0.058408, 0.019492, -0.026757, 0.022649, -0.031706, 0.027273, -0.021818, 0.008103, -0.000210, 0.010692, 0.031352, -0.093589, 0.076302, 0.023024, -0.009339, 0.029222, -0.048074, -0.009281, 0.017312, 0.031042, -0.026321, 0.026681, 0.052353, 0.027578, -0.129085, 0.046544, -0.036601, 0.032119, -0.025877, 0.016414, -0.000967, -0.010124, 0.020650, -0.007657, -0.006065, -0.037062, 0.075628, -0.015436, -0.030998, 0.048552, 0.000723, -0.003828, 0.065727, 0.012261, 0.012306, 0.009953, 0.006938, 0.024671, -0.098647, 0.051849, -0.032659, 0.021722, -0.007925, -0.006133, -0.009288, -0.032628, -0.018414, 0.008617, -0.024668, -0.000237, 0.056567, -0.023986, -0.027309, 0.065820, 0.008288, -0.012880, 0.057344, -0.025947, 0.001959, 0.020312, 0.019927, -0.030720, 0.041785, -0.015303, 0.027289, 0.005437, -0.004862, -0.022218, -0.005155, 0.018925, -0.006324, 0.003288, -0.064572, 0.046401, 0.003078, -0.022434, 0.014831, 0.005015, 0.025442, -0.069178, 0.037858, -0.019333, 0.026804, -0.008739, 0.041025, -0.095428, 0.090979, -0.001817, 0.013275, -0.025876, -0.021440, 0.033498, -0.011203, 0.032208, 0.015213, -0.016172, 0.089781, -0.058528, 0.001080, 0.019960, -0.002295, -0.012677, -0.010426, -0.011893, 0.016923, -0.016391, -0.004016, 0.038187, 0.003219, -0.036937, 0.044352, 0.085028, -0.068200, 0.000869, -0.039983, 0.033384, 0.045295, 0.000893, 0.007433, 0.005063, 0.101019, -0.074919, -0.011303, 0.092369, -0.056063, -0.031666, -0.026836, -0.002238, 0.015499, -0.004840, 0.001824, -0.013162, 0.013831, 0.015092, -0.073496, 0.068128, -0.075623, 0.005566, -0.066569, 0.007774, 0.019886, -0.000775, 0.005263, 0.013041, 0.051888, -0.019247, -0.006983, 0.003743, 0.011394, -0.010967, 0.017869, 0.012065, 0.000119, -0.025185, 0.026895, 0.023225, 0.085998, -0.049580, -0.106661, -0.014325, -0.010301, 0.029819, -0.019925, 0.026168, 0.035410, 0.005532, 0.018155, 0.005196, 0.025765, 0.030956, -0.084216, -0.025927, 0.017806, -0.001758, 0.015788, 0.006951, -0.002399, -0.016105, 0.009097, 0.013202, 0.036736, -0.052056, -0.102642, 0.036576, -0.035790, 0.009262, -0.025819, -0.010964, 0.026787, -0.000748, -0.016929, 0.019030, 0.035966, -0.020288, -0.043450, -0.024882, 0.025718, -0.008241, -0.016833, 0.018984, 0.003916, -0.001878, -0.041320, 0.007689, 0.052405, -0.059991, -0.082442, 0.021520, -0.032014, 0.023414, 0.003708, -0.004048, 0.020022, -0.020775, 0.022301, -0.031874, 0.006900, -0.019368, 0.028036, -0.032817, 0.012050, 0.008968, -0.016713, 0.030998, -0.006305, -0.031774, 0.013219, 0.026319, 0.039273, -0.030993, -0.065810, 0.000103, -0.046931, 0.052814, 0.030648, -0.028024, 0.003268, 0.027474, 0.002110, 0.010190, 0.020452, -0.021526, 0.064165, -0.045125, 0.002619, 0.003825, -0.003749, 0.002456, 0.022664, 0.015471, -0.013585, 0.012400, -0.039937, 0.037836, -0.066168, -0.008228, -0.044901, 0.088748, -0.028112, -0.023709, 0.040036, 0.013684, 0.004869, 0.009205, 0.075019, -0.090432, 0.080717, 0.000126, -0.014589, 0.010449, -0.027121, 0.045073, 0.028968, -0.010232, -0.023951, -0.003503, -0.003709, 0.015036, -0.056326, 0.022829, -0.065828, 0.074156, 0.010637, -0.034637, -0.007622, 0.013401, 0.020618, -0.030205, -0.038026, -0.033911, 0.070076, -0.014501, -0.035815, 0.046017, -0.062583, 0.018933, 0.014470, 0.012813, -0.018952, 0.027167, -0.100479, 0.111686, -0.044543, -0.022449, -0.038292, 0.024339, 0.009038, -0.019238, 0.016951, 0.012449, 0.021578, -0.009193, 0.032856, -0.062907, 0.002442, -0.031631, -0.004740, 0.032324, -0.053802, -0.013031, 0.011758, 0.024599, -0.022487, -0.014458, -0.173912, 0.121528, 0.017047, -0.001549, -0.062166, -0.035636, -0.039959, -0.004593, 0.055439, 0.003600, 0.016998, -0.026332, 0.006020, 0.037815, -0.055530, 0.024326, 0.001704, 0.038739, -0.031057, 0.044649, 0.033312, -0.027232, -0.009270, 0.008174, 0.022920, -0.051755, 0.062176, 0.040298, 0.006428, -0.035030, -0.006641, -0.045770, 0.023086, 0.016684, 0.006111, 0.007811, -0.048504, 0.011606, 0.003058, 0.014175, -0.028674, 0.028443, -0.010723, -0.026029, 0.041098, -0.011269, 0.015458, 0.018382, -0.016329, 0.014754, 0.030261, 0.033456, 0.012033, -0.046674, -0.003488, -0.008355, 0.034727, 0.000611, 0.009890, -0.008678, 0.016167, -0.054249, 0.015293, 0.011730, -0.030080, 0.016338, -0.002219, -0.044653, 0.049543, 0.020599, -0.038544, 0.015883, -0.047073, -0.009501, -0.001630, 0.024210, 0.015509, -0.044357, 0.056625, -0.060900, 0.024698, 0.022926, 0.014961, -0.003235, 0.007403, 0.003635, -0.029014, 0.030482, -0.040802, 0.017281, -0.014053, -0.015948, 0.041268, -0.025207, 0.005794, 0.036884, 0.034570, -0.067092, 0.086617, -0.005035, 0.029508, -0.052848, -0.010509, -0.022479, 0.037444, -0.024461, -0.003572, 0.013166, -0.021753, 0.043789, 0.001024, -0.047204, 0.001141, 0.010665, -0.038977, -0.002727, 0.037284, -0.027932, 0.011853, 0.008223, -0.043011, 0.036244, 0.031852, 0.014082, 0.084535, -0.057630, 0.000447, -0.047889, 0.029233, -0.010653, 0.017481, 0.000889, 0.014119, 0.027790, -0.064822, -0.005916, 0.015597, 0.001926, -0.032292, 0.018856, 0.049116, 0.026459, 0.023490, 0.006486, -0.071150, 0.049049, 0.056753, 0.052453, -0.005001, -0.036358, 0.013798, 0.014537, -0.028314, -0.024566, 0.010848, 0.012271, 0.038901, -0.022249, -0.058150, 0.054652, 0.000550, 0.013968, -0.006192, 0.027211, 0.009577, 0.014740, -0.004591, 0.010483, -0.046206, 0.000111, 0.036538, 0.068157, -0.041762, -0.039507, 0.020353, -0.012738, 0.004704, -0.014047, 0.006957, 0.008250, -0.008335, 0.048323, -0.032107, -0.016291, -0.030308, 0.018276, -0.006373, -0.000003, 0.031146, -0.005883, 0.025415, -0.023268, 0.073145, -0.053356, 0.050548, 0.004717, -0.000149, -0.029239, 0.021536, -0.029827, -0.001789, 0.021836, -0.032758, -0.026391, -0.018968, 0.002615, -0.024942, 0.054464, -0.036157, -0.009968, -0.019131, -0.001634, -0.006208, -0.028521, 0.005946, -0.000223, 0.059377, -0.005621, -0.054510, 0.049946, -0.012578, -0.054411, -0.017687, 0.018788, -0.018038, 0.017260, 0.014866, 0.018368, 0.030020, -0.049892, -0.037700, 0.033903, -0.026901, -0.009282, 0.026891, 0.008767, -0.001880, -0.024533, 0.020118, 0.024065, -0.003459, 0.063553, -0.125186, -0.075787, 0.037853, 0.002722, -0.055260, 0.017699, -0.002381, 0.010610, 0.004957, -0.000374, 0.077471, -0.014155, -0.111647, 0.033580, -0.015567, -0.072032, 0.044782, 0.007039, 0.003934, -0.029951, 0.027969, 0.003226, 0.089950, -0.052083, -0.108851, -0.055117, 0.034761, 0.006818, -0.016119, -0.018410, 0.018477, 0.002702, 0.009194, -0.016751, 0.087422, -0.033297, -0.044125, 0.045759, -0.038363, 0.014979, 0.034118, -0.023185, 0.026955, -0.002336, -0.003068, 0.023767, 0.190010, -0.133078, -0.082252, -0.019843, 0.056973, 0.012531, -0.046538, 0.015974, 0.013434, 0.023009, -0.017949, -0.021203, -0.013551, -0.003892, -0.023647, -0.016878, 0.014041, 0.031487, -0.015456, -0.010942, -0.012288, -0.000654, -0.022517, 0.024294, 0.194365, -0.088917, -0.099646, -0.018611, 0.063510, -0.059743, -0.003473, -0.011559, 0.001719, 0.019739, -0.013190, -0.018202, -0.045453, 0.045451, 0.002666, -0.031413, 0.042994, -0.010451, -0.028462, -0.008767, 0.003580, -0.013825, 0.034776, 0.011197, 0.112396, -0.075244, -0.062633, 0.003363, -0.005970, -0.013707, 0.002432, -0.007350, -0.003230, -0.016194, -0.019282, -0.002049, -0.057657, -0.005442, 0.059862, -0.076070, 0.052791, 0.012612, -0.070726, 0.008076, 0.026232, -0.010370, -0.003534, 0.039161, 0.046593, 0.007865, -0.098086, 0.086710, -0.088521, -0.020901, 0.048623, -0.010228, 0.009994, 0.010369, -0.020128, 0.004187, -0.039177, -0.051943, 0.092029, 0.042648, -0.054683, 0.047263, -0.044310, 0.036094, 0.007479, -0.000285, -0.013704, 0.007898, -0.054767, 0.123859, -0.129402, 0.041890, -0.106362, 0.049768, -0.006525, -0.020046, 0.032249, 0.009773, -0.001966, 0.006318, -0.057415, -0.058273, 0.092721, -0.009589, -0.008917, 0.055614, -0.035416, 0.029556, 0.042906, -0.024325, 0.024657, 0.016101, 0.024041, 0.014308, -0.092372, 0.021966, -0.002965, 0.033199, 0.029922, -0.021203, 0.022164, -0.016536, 0.005468, -0.008854, -0.083523, 0.043272, 0.010927, -0.062536, 0.010133, 0.019289, 0.005293, -0.026229, 0.026805, -0.026674, -0.018720, 0.021662, -0.024377, -0.029012, 0.091263, -0.020321, 0.003383, 0.000568, -0.013934, -0.022224, 0.024246, 0.003467, -0.021049, -0.017651, -0.008470, 0.010345, -0.038483, -0.041730, 0.020344, -0.000586, 0.010037, -0.012847, 0.036415, -0.029869, -0.003377, 0.025174, -0.035870, -0.052564, 0.032799, 0.007528, 0.015238, -0.030437, -0.051208, -0.018019, 0.023510, 0.014619, -0.013282, 0.003306, 0.120743, -0.086257, -0.018284, 0.003291, 0.000709, -0.016319, -0.005509, -0.043707, 0.026699, 0.005994, -0.007817, 0.031284, -0.135953, 0.056802, 0.012282, 0.092446, -0.056904, -0.015132, -0.019149, 0.003717, 0.049333, 0.017432, 0.008403, -0.007719, 0.088385, -0.088481, -0.049495, 0.039781, 0.011712, -0.031471, 0.014702, -0.013583, 0.011349, 0.012403, -0.018935, 0.008909, 0.014629, -0.000767, -0.073853, 0.074871, -0.089985, 0.010087, -0.042115, 0.038939, -0.001300, 0.006899, -0.007660, 0.018143, -0.017906, 0.042549, -0.027874, -0.015294, 0.041255, -0.059167, -0.002655, 0.016249, -0.022661, -0.035923, 0.037902, 0.000399, 0.039356, -0.038107, -0.140927, -0.029657, -0.010213, -0.008669, 0.026650, -0.028952, 0.029261, -0.000852, -0.009997, 0.005005, -0.000426, 0.052078, -0.107822, -0.022142, 0.050168, -0.044925, 0.003450, 0.011907, -0.030567, 0.026900, -0.029686, 0.045111, 0.055774, -0.052531, -0.136283, -0.017064, -0.007375, 0.052946, -0.024372, -0.004591, 0.006446, 0.003956, -0.010308, -0.010180, -0.048848, 0.043473, 0.012140, -0.050093, 0.041206, -0.007030, -0.025963, 0.013238, -0.021725, -0.008465, -0.031552, 0.020328, 0.015446, 0.052893, -0.197580, -0.034157, -0.032520, 0.074056, -0.005855, 0.020779, 0.008828, -0.017007, -0.020551, 0.004569, -0.023447, 0.004498, 0.055888, -0.040565, 0.060281, 0.023985, -0.037822, 0.008682, 0.019618, -0.009674, 0.018407, -0.003610, -0.043901, 0.064997, -0.104822, 0.013866, -0.035870, 0.074211, -0.013498, -0.001296, 0.020801, -0.026947, 0.034038, -0.006239, -0.024936, -0.003502, 0.016398, -0.037301, 0.055775, 0.029944, 0.001467, -0.025824, 0.014427, -0.006733, -0.020337, 0.003649, 0.010454, 0.031728, -0.027971, -0.002853, -0.075636, 0.102085, -0.014393, 0.004994, 0.009080, 0.026382, 0.020542, -0.018787, -0.056182, -0.012482, 0.059937, 0.005197, -0.004723, -0.001905, 0.016019, -0.015399, -0.018196, 0.007182, 0.002455, 0.012477, 0.017901, 0.053621, -0.069111, -0.064004, -0.053517, 0.115450, 0.016630, -0.005706, 0.025821, -0.002817, 0.014467, -0.021397, -0.022286, -0.012099, 0.035450, 0.012647, -0.016147, 0.009451, -0.018399, 0.009653, 0.004173, -0.017777, 0.009237, 0.027469, -0.089920, 0.097744, -0.042829, -0.034384, -0.021492, 0.058493, -0.000573, -0.017958, 0.022743, 0.000994, -0.020633, -0.004697, -0.008319, 0.019206, -0.025357, 0.039503, -0.044352, -0.006514, -0.054825, 0.043063, 0.019525, 0.026437, -0.011914, 0.007883, 0.009281, 0.044415, -0.017384, 0.009660, -0.036933, 0.041691, -0.027498, 0.002325, 0.015209, -0.007763, -0.025920, 0.020189, 0.021935, -0.015464, -0.002725, 0.005612, -0.055403, -0.001402, -0.061503, 0.030343, 0.040152, -0.012744, -0.030008, 0.027819, -0.027916, -0.023287, -0.017392, 0.009113, 0.013821, 0.002182, -0.013766, 0.005264, 0.037225, 0.002125, -0.014084, 0.008000, 0.037078, -0.070637, 0.005311, -0.002078, -0.019629, 0.026848, -0.023269, -0.003652, 0.037369, 0.004799, -0.008847, -0.020933, 0.022928, -0.025379, -0.004751, 0.045888, -0.007781, 0.005323, 0.037158, -0.025703, 0.018733, 0.009468, 0.006217, 0.000504, 0.043319, -0.042169, -0.010894, 0.048575, -0.030818, 0.020144, -0.013180, -0.054137, 0.033133, -0.006967, -0.002584, -0.005033, -0.033754, 0.024439, -0.013219, -0.013879, 0.006053, -0.004337, -0.018956, -0.034239, 0.020002, -0.007061, 0.022232, 0.017479, 0.013725, -0.017458, -0.007087, 0.036410, -0.071584, 0.027457, -0.003315, -0.032048, -0.007178, 0.019114, -0.025867, -0.030143, 0.021050, -0.019132, 0.026933, 0.026333, 0.022996, -0.036973, 0.003814, -0.033038, 0.027143, -0.010812, 0.008364, 0.000608, 0.010720, 0.037869, -0.064643, 0.003145, -0.039324, -0.014031, -0.002501, 0.004635, 0.039663, 0.010035, -0.024482, -0.003042, 0.028014, -0.074323, 0.058477, -0.015409, 0.064235, -0.069587, 0.017619, -0.029630, -0.014311, -0.005472, -0.002798, 0.000530, 0.007122, 0.011502, -0.068527, 0.000856, -0.045138, 0.009090, 0.022155, -0.023442, -0.005127, 0.006765, -0.009054, 0.013228, -0.016401, -0.033855, 0.070360, 0.052501, -0.010895, -0.049918, -0.015282, -0.018731, -0.000623, 0.014324, -0.016052, 0.005510, 0.043367, -0.011761, -0.089084, 0.012912, -0.005031, -0.008675, 0.017066, -0.030094, 0.023877, 0.015441, -0.018679, 0.038382, -0.005393, -0.063608, 0.044762, 0.062141, -0.007175, -0.066328, -0.013514, -0.027780, 0.014733, 0.006267, 0.007175, -0.032525, 0.028770, 0.001111, 0.000784, 0.007123, -0.000948, -0.001561, -0.008218, 0.031163, 0.015280, -0.021623, 0.031468, -0.011534, 0.006104, -0.036025, 0.063124, 0.024142, -0.011506, -0.029485, -0.007715, -0.019103, -0.006795, 0.032423, -0.011216, -0.008094, 0.016059, 0.025592, -0.023893, -0.026359, 0.036235, -0.036514, 0.006077, -0.016050, 0.019845, -0.015326, -0.001891, 0.000359, 0.044596, 0.003342, -0.014394, 0.060791, -0.050798, -0.026381, -0.000360, -0.011335, 0.000485, 0.003184, -0.024425, -0.000463, 0.043017, -0.047939, -0.043614, 0.062308, -0.023094, -0.027031, 0.011999, 0.001366, -0.011222, 0.020728, -0.021270, -0.021845, -0.002172, 0.042153, -0.125099, -0.013785, -0.007178, 0.015262, -0.038900, -0.015683, 0.005648, -0.019938, 0.027953, -0.025120, 0.041426, -0.050169, -0.074069, 0.032532, -0.003588, -0.044153, 0.007185, 0.016076, 0.011143, -0.023778, -0.003793, -0.003787, 0.076778, -0.031382, -0.110125, 0.022499, -0.010702, -0.001511, 0.011964, 0.011117, 0.023289, -0.009290, -0.003060, -0.008003, 0.039708, 0.013759, -0.017332, 0.044103, -0.003204, 0.001910, 0.033786, 0.009688, -0.003939, -0.055163, 0.013353, -0.007688, 0.186189, -0.170263, -0.113894, -0.023994, 0.034067, 0.032655, 0.009360, -0.012703, -0.017790, 0.006647, 0.006849, -0.009760, -0.043787, 0.041916, 0.006100, -0.061106, 0.022070, -0.001030, 0.011357, -0.021342, -0.020689, -0.014599, 0.015999, 0.021176, 0.173571, -0.121864, -0.119327, -0.015985, 0.004269, -0.012814, 0.047020, -0.025881, -0.004330, -0.005960, -0.003886, 0.008486, -0.095540, 0.099649, -0.025198, -0.039550, -0.010982, 0.035126, -0.007189, 0.006809, -0.022501, -0.008211, 0.015465, 0.000105, 0.156805, -0.085515, -0.032295, -0.028421, 0.044182, -0.013560, 0.018326, 0.012425, 0.003880, 0.010034, 0.020555, -0.008260, 0.005710, -0.062241, 0.056390, -0.043742, 0.059501, 0.017571, -0.043965, -0.010045, 0.012441, -0.030138, -0.004461, 0.044168, 0.029519, 0.052435, -0.096903, 0.041580, -0.020492, -0.016382, 0.022473, -0.031054, 0.016523, -0.013425, 0.006704, 0.003598, -0.017947, -0.047016, 0.032365, -0.051123, 0.029594, 0.030947, -0.043129, 0.018684, 0.018788, -0.012672, -0.012394, 0.048596, -0.072398, 0.032282, -0.073606, 0.063476, -0.086768, 0.005234, 0.017191, 0.008672, -0.029158, -0.005398, -0.010248, 0.003244, 0.006065, -0.020745, 0.052612, -0.029837, 0.018461, 0.017574, -0.048996, 0.039933, 0.014209, 0.016278, -0.013583, 0.045859, -0.021229, 0.060379, -0.124808, -0.000179, -0.061845, 0.069641, -0.018589, 0.035946, 0.009820, 0.018540, -0.013981, 0.020447, -0.000137, -0.018817, -0.027655, -0.022308, 0.017495, 0.001062, -0.042396, 0.015246, 0.032134, 0.008567, -0.019224, 0.019768, -0.076316, 0.031280, 0.040908, -0.034903, 0.002800, 0.023782, -0.029806, -0.014643, 0.017354, -0.018444, 0.008045, -0.003931, 0.000021, 0.059971, -0.047206, 0.044758, -0.009286, -0.041920, -0.006980, 0.012242, 0.012599, -0.006489, 0.009517, -0.000308, -0.014061, -0.032137, 0.062170, -0.039378, 0.068671, 0.009196, -0.031209, -0.011876, 0.011524, -0.000776, -0.004042, -0.000911, 0.149121, -0.108586, -0.069879, 0.013678, 0.007278, -0.042713, 0.005649, -0.002258, 0.004766, 0.001246, -0.029319, 0.011890, -0.058528, 0.076266, -0.044692, 0.010166, -0.051341, -0.002596, -0.026122, -0.031118, 0.015161, -0.030155, -0.000112, 0.003265, 0.137675, -0.096630, -0.044590, 0.071323, -0.020678, -0.028568, 0.016735, -0.021635, -0.014670, 0.037665, 0.005023, 0.013647, 0.033095, 0.018449, -0.091730, 0.068763, -0.081995, -0.013588, 0.005803, -0.001111, 0.014343, 0.005605, 0.004560, 0.022040, -0.014542, 0.087027, -0.112517, 0.012080, 0.035678, -0.068133, 0.037365, -0.014035, -0.007493, -0.002626, -0.021352, 0.015036, 0.180226, -0.173413, -0.054344, 0.006129, 0.019615, -0.012826, -0.019232, 0.001260, 0.019190, -0.007930, 0.018634, -0.010496, -0.027376, 0.092688, -0.077849, -0.011904, 0.035108, -0.046007, 0.032825, 0.013484, -0.047313, -0.007953, 0.008961, 0.007890, 0.112783, -0.074163, -0.149487, -0.029246, 0.012840, 0.048691, -0.008637, 0.023986, 0.025019, -0.017360, 0.012497, -0.030792, -0.053996, 0.014549, -0.030716, 0.000664, 0.013719, -0.047188, -0.030666, 0.019231, 0.006125, -0.021881, 0.016733, 0.014150, 0.064682, 0.015519, -0.227302, -0.021718, -0.023714, 0.099941, 0.018059, -0.015926, 0.017263, 0.012529, -0.004637, 0.014741, -0.051825, 0.014995, 0.059779, -0.002398, 0.007285, -0.004316, -0.018107, 0.008053, -0.012006, -0.021699, 0.023564, 0.002780, -0.019096, 0.091463, -0.169383, -0.039313, 0.018048, 0.035125, 0.006103, -0.003710, 0.015230, 0.016720, 0.025909, 0.027012, 0.052582, -0.044825, -0.009508, 0.011273, 0.000781, -0.012058, -0.009518, 0.016170, 0.016417, 0.007971, 0.004632, -0.006354, -0.006512, 0.048886, -0.079585, -0.073561, -0.011957, 0.089359, 0.012348, 0.008401, -0.011257, -0.024390, -0.004902, -0.004128, -0.014635, -0.011670, 0.018147, 0.010176, 0.005436, -0.016979, 0.000370, -0.003328, -0.006213, -0.011732, 0.000742, 0.007378, 0.022416, -0.024931, -0.014624, -0.061821, -0.031193, 0.136370, -0.043416, -0.019939, 0.035552, 0.018883, 0.015735, 0.008047, -0.016225, -0.026223, 0.075473, -0.028478, 0.002899, 0.044078, -0.006690, -0.000943, -0.024309, -0.008784, -0.025446, 0.051459, -0.001749, 0.036523, -0.072867, -0.055567, -0.042998, 0.067764, -0.027518, -0.021602, 0.046441, -0.007226, 0.018811, -0.001039, -0.049457, 0.024618, 0.004518, 0.051492, -0.065613, 0.014925, -0.014251, 0.029555, 0.040717, 0.007292, -0.017320, -0.000079, -0.066547, 0.065205, -0.042476, -0.038018, -0.007148, 0.046683, -0.023561, -0.001461, 0.015738, -0.012496, -0.033073, -0.006580, 0.004231, -0.034643, 0.051215, -0.017699, -0.011112, 0.001385, -0.007931, -0.023859, 0.004098, -0.038957, 0.005904, 0.010784, -0.010263, -0.027642, -0.030994, -0.045858, 0.009521, 0.031699, -0.020214, 0.000023, 0.037357, 0.002811, 0.008294, 0.010220, 0.035862, -0.060220, 0.050294, 0.014201, -0.010120, 0.040987, -0.006955, -0.030966, 0.004422, 0.009268, 0.004034, 0.029608, -0.046102, 0.035971, -0.050396, 0.017788, -0.002144, 0.017354, -0.032506, -0.024277, 0.018911, 0.011168, -0.017489, -0.005919, 0.028138, 0.006090, 0.015489, 0.036254, -0.058541, 0.047889, -0.041416, 0.014450, 0.057336, 0.027672, -0.038084, 0.038251, -0.090305, 0.060428, 0.009052, 0.036522, 0.000967, -0.034741, -0.027370, -0.029412, 0.009931, 0.011300, -0.018189, 0.003013, 0.001764, 0.002218, -0.033060, 0.055193, -0.033989, 0.054332, 0.009458, 0.007421, 0.034172, -0.014868, -0.001860, -0.000378, -0.074755, 0.019415, 0.019815, -0.014052, 0.042661, -0.069575, 0.030057, -0.040417, 0.043012, -0.004484, -0.001752, 0.027725, -0.025522, 0.078830, -0.117361, 0.022520, 0.003863, -0.003801, 0.018263, -0.048012, 0.028354, 0.000897, -0.018884, 0.017375, 0.022076, -0.072782, 0.031308, -0.023216, 0.068228, -0.047300, -0.001258, -0.023863, 0.033682, -0.003022, 0.016352, -0.003306, 0.017812, 0.075382, -0.105694, -0.079068, 0.026993, 0.005241, 0.042687, -0.010474, 0.013861, 0.013607, 0.011769, -0.001568, 0.047596, -0.056429, 0.011965, 0.062228, -0.048957, -0.044486, 0.045655, -0.037508, 0.019172, 0.010851, 0.000699, -0.019318, 0.024387, -0.000995, -0.018601, 0.023022, -0.003248, -0.030543, -0.015844, 0.014296, 0.010217, 0.034384, 0.005963, 0.004794, 0.020550, -0.030559, 0.037652, -0.003807, 0.031554, -0.032025, -0.019142, 0.001788, -0.007018, -0.004877, -0.031103, -0.000670, -0.015652, 0.027583, -0.018410, -0.032201, 0.070374, 0.012009, -0.040392, 0.046817, 0.017791, 0.009248, 0.010480, 0.018126, 0.007654, -0.018466, 0.055037, 0.017716, 0.008722, -0.032559, 0.035630, -0.037413, -0.022416, -0.010673, 0.001102, 0.025085, -0.017732, 0.044537, -0.049329, -0.057443, 0.037424, -0.012196, -0.054889, 0.010959, 0.000957, -0.039200, 0.009530, 0.013140, 0.054671, -0.046468, 0.003284, 0.073132, -0.035444, -0.051771, -0.008800, -0.020262, 0.003928, 0.016915, -0.000682, -0.002854, 0.037958, -0.036913, -0.019975, 0.039371, -0.023958, -0.008806, 0.019421, 0.002638, -0.019863, -0.014946, 0.012654, 0.028613, 0.014182, 0.044147, -0.108798, 0.028931, -0.018467, 0.004837, -0.016960, 0.018347, -0.000835, -0.017670, 0.028095, -0.021605, -0.054218, 0.016345, 0.006046, 0.019296, 0.014651, 0.027052, -0.003358, 0.021107, -0.022862, -0.001070, 0.017423, -0.015442, 0.115865, -0.048408, -0.090605, 0.022628, -0.031568, -0.008901, 0.005971, 0.006560, 0.013445, -0.006372, 0.009328, -0.010534, -0.014240, 0.019782, 0.016988, -0.000265, -0.029680, -0.000966, -0.007924, -0.036797, 0.005739, -0.005892, -0.003230, 0.008482, 0.114226, -0.052382, -0.146272, 0.017290, -0.009777, 0.016299, 0.009655, 0.018676, -0.012321, 0.007452, 0.009016, -0.022592, -0.030236, 0.038638, -0.042109, -0.028454, 0.061376, -0.012039, 0.005833, 0.033563, 0.004479, -0.003505, -0.025355, 0.031121, 0.162191, -0.138244, -0.041629, -0.018682, 0.003373, 0.012246, 0.013634, -0.045915, 0.034010, -0.021779, 0.005339, 0.020235, -0.046883, 0.036276, -0.014234, 0.003293, -0.016294, 0.023705, 0.019655, -0.001665, 0.026254, 0.011209, 0.002233, -0.001985, 0.078328, -0.014138, -0.072794, -0.038719, 0.002078, 0.016147, -0.014933, 0.022653, 0.038294, -0.030109, -0.023354, -0.011267, -0.040311, 0.012044, 0.035082, -0.067089, 0.048482, 0.026378, -0.042282, 0.017716, 0.025303, -0.004764, 0.008537, 0.010365, 0.042402, -0.028720, -0.084324, -0.073935, 0.054224, 0.026283, 0.003111, -0.004460, 0.019021, -0.002511, 0.022756, 0.005438, -0.011956, -0.029124, 0.063250, -0.057870, 0.076116, 0.008154, -0.030077, -0.017598, 0.000263, -0.020685, 0.025404, 0.049160, -0.017766, 0.026385, -0.079576, -0.004001, -0.030472, 0.057126, -0.014070, 0.009757, 0.010321, -0.007941, 0.026566, -0.010945, -0.031394, -0.000043, 0.031655, -0.021620, 0.011117, 0.000430, -0.048442, 0.040500, -0.003749, 0.007583, -0.063768, 0.006544, -0.078957, 0.092587, -0.073017, 0.058629, -0.102669, 0.074709, -0.001979, 0.012138, 0.007214, 0.014949, 0.001428, -0.027143, 0.006629, 0.022086, -0.041658, -0.005718, 0.010060, -0.003127, -0.014150, 0.020550, 0.004740, 0.007503, -0.000734, 0.022930, -0.122352, 0.101610, 0.052000, 0.011806, -0.034351, 0.061206, -0.018759, 0.007250, 0.024297, -0.011602, 0.003912, -0.008305, 0.037351, 0.009671, -0.056268, 0.062603, -0.018449, -0.053375, -0.001847, 0.029590, -0.006553, -0.024908, 0.019023, 0.004599, -0.050051, 0.027263, 0.024636, 0.008845, -0.034110, -0.022248, -0.057881, -0.018705, 0.054920, -0.012574, 0.024387, 0.028663, 0.128935, -0.070769, -0.114199, 0.020768, 0.018559, -0.033113, 0.016155, -0.012865, 0.012061, 0.017082, -0.005053, -0.005258, -0.018604, 0.010999, -0.093821, 0.083603, -0.048625, -0.022096, -0.051171, -0.007922, -0.001870, 0.009050, 0.011359, 0.008968, 0.086367, -0.048881, -0.093861, -0.001377, 0.005186, -0.034327, 0.004187, -0.021071, -0.008575, 0.019101, -0.033546, 0.013001, -0.043738, 0.059699, -0.083138, 0.035209, -0.007344, 0.003580, -0.030365, 0.006832, 0.015989, 0.013670, -0.005678, 0.011838, -0.003075, 0.038367, -0.103129, 0.032119, -0.004343, -0.033668, 0.035078, 0.015246, 0.005569, 0.004510, -0.000764, -0.009455, 0.070344, -0.079646, 0.027196, 0.020540, 0.001041, -0.029884, -0.007557, -0.006546, 0.005411, -0.001917, 0.004089, 0.019551, -0.042020, 0.100879, -0.039161, -0.009441, -0.000062, -0.054288, 0.011007, 0.035632, -0.010925, 0.004841, 0.002182, 0.000070, 0.140923, -0.081663, -0.117388, -0.026929, 0.029073, 0.002019, -0.024471, 0.008331, 0.026979, -0.021097, 0.010403, 0.014388, -0.033026, 0.012290, 0.054652, -0.020261, 0.012485, 0.003857, 0.040037, -0.009382, -0.008697, -0.010295, -0.015837, 0.016263, -0.007958, 0.108388, -0.197214, -0.063453, 0.031962, 0.051254, -0.015604, -0.008752, 0.003447, 0.033439, -0.013609, 0.019862, -0.038227, -0.010948, 0.039069, -0.003568, -0.025649, 0.016582, 0.043626, -0.039122, -0.024240, -0.025805, -0.030271, 0.011116, -0.043060, 0.085307, -0.062168, -0.041432, 0.003558, 0.059393, -0.040702, 0.025859, -0.012451, -0.013883, 0.016000, 0.002710, 0.009567, -0.000910, -0.015428, 0.048023, -0.023791, -0.036380, 0.008959, -0.034450, 0.016163, -0.003171, -0.005626, 0.022109, -0.004628, -0.007494, 0.016448, -0.093749, 0.061238, 0.084265, 0.016069, 0.005232, 0.020771, -0.008369, -0.002210, 0.007522, 0.005399, -0.033833, 0.031130, -0.026430, 0.022862, -0.018365, 0.045336, -0.009465, -0.028615, -0.000801, -0.034824, 0.033383, 0.090877, -0.077847, -0.054849, -0.090888, 0.009776, 0.090799, -0.034772, -0.014115, 0.025776, -0.001792, -0.002931, -0.004475, -0.022900, -0.036021, 0.042756, 0.029752, -0.007551, -0.012392, 0.022824, -0.042588, -0.035770, 0.010785, -0.015180, 0.030910, 0.094413, -0.053219, -0.127459, -0.087544, 0.012043, 0.125910, 0.009788, 0.021440, 0.025729, 0.008046, -0.003010, -0.013365, -0.004235, 0.028695, 0.039434, 0.001732, -0.047592, 0.051936, -0.003434, -0.014924, -0.038403, -0.012870, 0.006351, 0.029590, -0.000106, 0.033697, -0.101235, -0.056865, -0.008644, 0.079340, 0.002154, 0.033009, 0.027925, -0.026187, -0.009013, 0.019149, -0.011283, -0.008084, 0.058504, 0.049964, -0.009337, 0.054329, 0.019578, -0.036354, -0.010402, 0.001674, 0.019655, -0.006991, -0.009614, -0.014041, -0.071211, -0.034189, 0.000638, 0.037343, 0.050789, -0.034446, 0.009677, -0.000294, -0.011041, 0.002321, 0.012379, 0.005702, -0.037943, -0.001748, -0.023786, 0.023989, 0.022850, -0.037985, 0.037908, 0.036228, -0.061870, 0.067058, 0.031691, -0.056984, -0.015900, 0.017098, 0.002913, 0.013630, -0.034962, 0.000038, 0.018527, 0.015181, 0.025513, -0.007889, 0.041159, -0.050430, 0.006212, -0.005688, -0.018091, 0.008749, -0.030061, -0.003304, 0.005633, 0.016788, -0.016406, 0.018155, -0.049560, 0.011993, 0.005181, 0.028176, -0.032736, 0.057964, -0.039825, 0.014742, 0.038857, -0.016421, 0.002181, 0.002095, 0.027843, -0.060595, -0.010958, 0.040337, -0.055100, 0.005936, 0.029730, 0.001581, 0.008146, -0.026882, -0.024796, 0.002935, -0.022986, -0.003748, 0.014690, 0.009464, -0.012845, -0.017615, 0.016994, -0.038412, 0.001860, 0.004770, -0.007745, -0.009206, 0.024706, 0.006685, -0.068888, 0.036175, -0.006210, -0.014790, -0.025486, -0.009936, 0.021037, -0.020370, 0.016809, 0.012543, -0.015439, -0.012734, 0.029776, -0.025056, 0.050456, -0.084867, 0.001682, -0.006490, 0.032099, -0.008635, -0.005794, -0.017005, -0.052542, 0.102410, -0.055619, -0.012825, -0.003891, 0.000982, 0.029849, -0.029799, 0.005561, -0.001644, 0.010783, -0.000819, 0.055458, -0.116647, 0.082295, -0.000193, 0.010992, -0.053436, 0.011037, -0.005442, 0.032797, -0.020756, 0.019670, 0.021300, 0.080321, -0.019981, -0.019602, 0.009951, -0.002908, -0.011423, -0.015101, -0.013559, 0.026600, -0.003654, 0.018290, -0.004550, 0.102213, -0.090750, 0.002068, -0.018098, 0.032930, -0.046430, -0.026575, -0.029367, 0.004565, -0.006810, -0.002316, 0.006651, -0.016276, 0.030707, -0.038180, -0.038580, 0.024243, 0.016193, -0.055533, 0.010136, 0.016134, -0.013791, 0.039272, -0.018415, 0.096282, -0.100843, 0.084804, 0.017028, 0.029185, -0.081459, 0.030205, -0.003454, 0.000979, 0.016788, 0.021352, 0.016194, -0.008224, 0.054872, -0.055385, -0.025269, -0.001683, 0.000775, -0.032068, 0.000976, 0.028258, -0.038943, 0.030820, -0.007022, 0.011112, -0.041370, 0.044945, 0.049072, -0.026979, -0.047458, -0.042204, 0.011401, 0.053530, -0.017574, 0.031491, 0.024911, 0.048474, -0.030178, -0.012746, 0.002932, 0.008711, 0.017896, -0.022685, -0.007302, -0.017520, -0.040481, 0.014235, 0.009560, -0.013796, 0.019723, -0.053779, 0.031075, -0.058876, -0.002634, -0.023753, 0.034368, -0.033419, 0.004216, 0.021864, 0.002711, 0.009461, -0.022937, 0.002519, -0.003350, -0.011539, 0.030405, 0.004554, -0.015292, 0.012253, -0.029371, 0.011731, 0.026921, 0.053696, 0.002335, -0.093442, 0.023594, -0.017033, -0.005841, 0.052272, -0.024432, 0.023289, -0.003367, -0.032712, -0.001258, -0.026439, 0.039182, 0.013198, -0.014188, 0.009653, -0.000777, -0.032459, 0.035045, 0.014347, -0.014931, 0.016797, 0.005632, 0.110105, -0.053107, -0.069670, 0.021536, -0.002159, -0.013345, 0.046896, -0.042633, -0.033348, -0.013107, 0.008609, -0.009392, -0.067338, 0.041304, -0.041637, -0.040958, 0.022426, 0.022474, -0.015852, 0.042928, -0.030611, -0.052169, 0.014854, -0.025304, 0.103684, -0.074134, -0.018833, -0.037374, 0.029434, -0.046444, -0.002071, -0.021266, 0.019573, -0.017950, -0.010806, -0.009368, -0.011080, -0.000678, 0.002810, -0.046372, 0.032615, 0.005241, -0.050359, 0.013320, 0.012224, -0.005339, 0.013427, 0.019483, 0.105905, -0.066156, -0.090694, -0.064772, 0.029225, 0.042950, 0.011182, 0.004653, -0.014173, -0.013343, 0.011315, -0.015085, -0.045954, 0.007691, 0.024034, -0.030131, 0.051350, 0.020644, -0.003374, -0.007775, -0.005262, -0.021456, 0.003719, 0.031254, 0.059998, -0.067459, -0.051606, -0.014921, -0.042342, 0.062850, -0.005635, -0.006733, -0.019917, 0.011673, -0.013271, 0.007452, -0.010670, -0.004876, 0.025333, -0.055074, -0.002358, 0.016346, -0.009176, 0.015380, 0.023102, -0.026004, -0.001835, 0.012314, -0.030999, 0.052182, -0.034461, -0.014615, -0.024647, 0.030293, -0.024018, -0.024832, 0.041909, -0.011577, 0.010197, -0.025139, 0.039977, -0.021406, 0.007404, 0.020526, -0.027735, -0.003159, 0.010573, -0.016736, 0.015639, -0.022304, 0.008485, -0.002306, -0.111261, 0.094476, -0.053796, 0.024545, -0.021992, 0.035288, -0.009577, -0.006114, 0.022116, -0.031448, -0.014631, 0.033838, 0.077031, -0.030977, -0.087589, 0.015453, -0.018970, -0.014014, 0.034595, -0.027274, 0.004514, 0.025273, -0.012732, 0.010584, -0.116084, 0.068310, 0.017507, 0.027312, -0.063096, 0.047769, -0.001207, 0.000883, -0.008172, -0.017783, -0.002209, -0.020399, 0.066141, 0.000729, -0.091173, -0.010346, 0.011675, -0.031291, -0.008591, 0.014235, -0.013666, 0.007473, -0.034110, 0.024819, -0.027708, -0.020030, -0.020680, 0.022510, -0.045400, 0.031845, -0.026899, -0.011771, 0.034654, 0.007712, -0.027503, 0.024474, 0.074310, -0.076057, -0.068813, 0.023371, 0.005642, -0.044570, -0.020823, 0.006198, -0.029932, 0.019353, 0.008126, 0.011177, -0.047008, 0.107965, -0.143930, 0.090209, -0.070166, 0.005733, -0.046373, 0.013222, 0.032592, -0.019059, 0.001904, -0.008294, 0.037153, -0.024263, -0.037153, 0.011134, 0.025339, -0.042199, -0.009404, -0.007907, -0.041263, 0.004390, 0.005119, -0.011344, -0.063473, 0.030150, -0.032301, 0.025771, -0.000685, -0.051431, 0.002600, 0.002808, -0.021750, 0.026680, -0.015759, 0.010611, 0.011164, 0.027375, -0.051972, -0.009594, 0.006096, -0.020037, 0.023514, -0.004784, -0.021852, -0.003936, 0.009717, 0.009931, 0.033547, -0.130375, 0.081265, -0.002002, 0.038962, -0.033019, 0.029859, -0.026418, -0.005390, 0.011144, 0.014297, 0.005011, -0.031822, 0.053917, 0.009647, 0.026898, -0.038212, -0.012994, -0.015864, -0.015147, 0.037059, 0.022878, -0.001370, 0.008203, 0.059219, -0.019858, -0.108414, -0.039086, 0.072286, -0.052845, -0.026319, 0.043572, -0.026466, 0.008312, 0.003194, 0.018695, 0.039456, -0.022873, 0.038602, 0.006522, -0.034926, 0.021556, 0.012823, -0.011015, 0.014069, -0.004832, -0.014825, 0.000570, -0.028750, 0.101778, -0.124171, -0.051807, 0.057875, -0.036816, -0.004163, -0.001195, -0.042036, -0.022014, 0.030139, 0.025438, -0.058407, 0.047132, -0.019693, 0.062602, -0.044747, -0.010836, 0.034384, -0.027561, -0.000180, -0.001796, -0.020607, -0.002406, 0.003522, -0.033422, 0.042630, -0.054263, 0.042400, 0.015956, -0.003320, 0.024033, -0.004756, -0.007592, 0.001870, 0.022476, -0.059613, 0.090935, -0.048051, 0.030612, 0.000033, -0.027912, 0.052330, -0.008775, -0.031024, 0.026131, -0.021565, -0.018228, -0.005493, 0.037235, 0.014806, -0.041329, 0.035652, 0.019762, 0.002606, 0.018973, 0.002557, -0.027750, -0.022311, -0.013628, -0.034723, 0.012247, 0.041923, 0.044267, -0.015476, -0.028379, 0.040564, 0.008819, -0.034464, -0.011354, 0.001912, -0.000777, -0.003354, 0.029094, -0.044268, -0.041033, 0.014584, 0.060748, -0.016485, -0.006511, 0.009528, -0.005480, -0.003881, -0.025486, -0.023433, 0.024888, 0.076492, 0.060817, -0.030486, -0.011408, 0.037542, 0.012439, -0.021234, 0.010800, -0.029425, 0.018219, 0.035607, 0.037513, -0.115822, -0.064537, 0.003093, 0.098174, -0.021469, 0.023381, 0.001154, -0.005483, -0.005652, -0.027286, -0.049524, -0.021453, 0.089287, 0.034502, -0.021987, 0.037665, 0.056927, -0.008424, -0.049008, -0.010534, -0.029879, 0.006061, 0.017186, 0.058000, -0.222607, -0.060519, -0.039542, 0.116964, -0.006797, -0.011701, 0.008551, -0.015366, 0.008280, -0.011218, -0.067769, 0.025797, 0.059189, 0.003848, -0.047331, 0.072582, 0.017263, -0.020235, -0.012086, -0.024064, -0.023129, 0.033390, 0.063045, 0.015045, -0.115845, -0.076038, -0.001453, 0.051035, -0.034998, 0.007490, 0.039090, -0.010909, 0.001001, 0.011162, -0.026071, 0.048035, -0.011517, 0.010196, -0.008635, -0.002849, 0.048062, -0.043992, 0.017384, -0.010195, -0.005024, -0.000311, 0.057909, -0.065428, -0.036804, 0.006401, -0.014768, 0.025439, 0.000185, 0.023532, 0.051537, 0.015841, -0.001329, 0.004787, 0.026384, -0.032989, 0.033703, 0.022624, -0.025613, 0.001640, 0.020670, -0.018733, 0.042241, 0.008724, -0.025914, 0.033977, -0.036209, 0.023972, -0.001201, 0.034254, -0.079923, 0.066273, 0.010340, -0.023220, 0.032099, -0.005381, -0.012143, 0.008068, -0.036368, 0.012678, 0.009360, 0.014853, -0.008890, 0.055894, -0.040700, -0.002790, 0.002073, -0.027917, -0.012648, 0.009328, 0.011398, -0.015333, 0.014873, 0.040393, -0.005953, -0.014243, 0.003531, -0.012117, 0.020412, 0.010053, -0.005108, 0.021923, 0.013802, 0.038686, -0.119700, 0.032647, -0.030686, 0.003922, -0.031563, -0.026028, 0.015730, 0.024183, -0.026254, 0.032532, -0.016845, -0.037251, 0.021465, 0.010910, 0.028191, -0.050951, -0.012653, -0.025187, 0.026518, 0.024883, 0.000821, 0.000687, 0.004267, 0.020937, -0.055759, 0.020990, -0.055284, 0.008758, -0.013117, -0.024503, 0.062102, -0.011840, -0.016335, 0.006353, 0.044979, -0.089757, 0.013714, 0.000473, 0.044125, -0.044492, 0.030533, -0.022394, 0.005881, 0.003194, -0.007687, 0.003269, -0.065003, 0.048098, 0.004690, -0.015953, -0.001186, -0.002464, 0.030314, -0.036737, 0.021098, -0.005947, -0.028142, 0.034173, 0.066587, -0.065540, 0.039385, -0.018790, 0.031023, -0.026133, -0.001901, 0.015860, 0.033583, -0.000557, -0.009189, 0.021847, -0.040763, 0.046825, -0.018039, 0.015189, -0.014080, -0.015544, 0.014609, 0.004312, -0.009447, 0.005053, 0.011842, 0.012863, 0.042432, -0.087359, 0.032363, -0.037309, 0.051124, -0.069085, 0.021515, 0.012879, -0.001040, 0.024362, -0.011168, 0.008495, -0.013220, 0.040813, -0.032509, -0.011099, -0.010156, 0.025293, 0.007913, -0.008672, 0.029880, 0.000363, 0.025966, -0.020555, 0.109400, -0.128051, 0.015511, -0.007267, -0.000729, -0.063637, -0.058145, 0.034672, -0.007390, -0.004180, -0.010543, 0.020255, 0.012657, -0.006991, 0.009157, -0.008157, -0.003656, -0.003753, -0.050466, 0.060108, 0.016365, 0.005272, -0.003769, 0.023128, -0.004231, 0.040453, -0.025356, 0.050067, -0.013030, -0.019390, -0.006978, 0.011696, -0.029183, 0.001739, 0.014224, 0.013033, -0.021597, -0.001992, 0.003974, -0.032497, 0.007071, 0.022413, -0.032399, -0.001712, 0.010135, -0.002062, -0.033428, -0.006939, 0.064226, -0.019779, -0.058111, 0.052637, -0.056561, 0.020897, 0.033793, -0.010163, 0.022289, 0.010708, -0.012079, -0.008506, -0.027150, 0.028986, -0.025948, -0.034310, 0.055474, 0.022256, -0.071405, -0.001954, 0.039348, -0.007636, -0.004206, -0.003537, 0.072944, -0.031396, -0.041093, 0.024988, -0.014487, -0.015519, 0.032370, -0.016369, 0.007532, 0.020238, 0.020386, -0.004382, -0.030543, 0.049181, 0.004505, -0.001193, -0.019148, -0.009432, -0.038087, 0.026762, -0.017149, 0.004452, 0.005522, 0.005915, 0.033955, -0.019665, -0.043558, 0.032496, -0.029941, -0.025993, 0.028837, -0.013634, 0.003850, -0.013419, -0.002896, -0.009488, -0.086311, 0.074431, -0.046887, -0.058856, 0.030954, 0.002831, -0.030450, 0.014365, -0.017696, -0.029667, 0.011600, 0.024005, 0.097145, -0.065360, -0.113346, -0.026467, -0.000388, 0.004347, 0.004549, -0.035759, -0.002330, -0.023934, 0.009926, -0.005221, -0.012525, -0.003467, 0.007332, -0.008433, 0.005668, -0.016353, -0.023970, 0.031111, 0.026112, -0.042225, -0.008523, 0.018369, -0.013392, 0.020353, -0.048437, 0.010910, -0.011192, 0.002745, 0.009691, -0.004103, 0.019657, 0.005761, 0.014792, -0.005042, 0.013559, -0.014784, -0.021309, -0.026653, 0.029374, -0.005703, -0.006396, -0.029229, -0.011185, -0.009063, -0.007137, 0.005261, -0.091683, 0.093180, -0.021188, 0.022601, -0.041097, 0.059718, -0.029986, 0.037201, -0.000204, -0.005916, -0.011720, -0.014695, 0.134062, -0.040322, -0.071418, 0.026212, -0.018607, -0.038458, 0.014885, -0.006038, -0.033961, -0.024692, 0.016816, 0.041039, -0.051480, 0.037492, -0.059400, 0.001026, -0.002727, 0.012922, -0.064687, 0.038503, 0.007671, 0.033948, 0.024486, -0.022404, 0.022468, 0.055775, -0.083383, 0.035740, -0.009025, -0.046048, 0.025953, 0.014347, -0.020553, -0.001733, -0.005231, 0.035418, -0.037420, 0.072717, -0.056984, -0.049495, 0.031074, 0.005574, 0.006521, 0.024307, 0.045160, -0.011851, -0.017025, -0.011665, 0.000960, 0.040198, -0.091451, 0.004605, 0.030409, -0.045855, -0.037755, 0.027910, -0.004194, 0.003289, -0.007991, 0.030483, 0.028222, 0.038182, -0.138839, -0.016272, -0.029869, 0.048857, 0.008936, -0.028409, 0.011938, 0.000947, 0.010549, -0.025449, 0.046218, -0.079808, 0.021053, -0.052915, 0.031093, -0.007206, -0.031902, 0.020440, 0.013372, -0.007138, -0.002226, -0.007060, -0.057859, 0.147772, -0.186176, 0.041629, -0.028395, 0.022148, -0.000342, -0.008636, -0.013611, -0.000498, -0.009872, -0.020585, 0.032859, -0.035254, -0.017112, 0.008324, 0.006749, -0.002397, -0.022551, 0.022595, 0.009775, 0.024341, -0.000925, 0.023900, -0.120778, 0.098905, 0.047752, 0.112655, -0.051494, -0.061624, 0.028595, -0.001081, -0.009070, -0.005852, -0.019788, 0.004582, 0.010795, 0.042067, -0.021035, -0.008455, -0.029979, 0.012504, -0.019814, -0.021737, 0.002032, -0.027065, 0.015805, 0.002558, -0.050441, -0.008111, 0.127048, 0.022266, 0.009379, -0.004714, 0.030015, -0.016376, 0.000123, -0.005401, 0.003835, 0.026569, -0.009013, 0.022114, 0.032066, 0.041390, -0.068265, -0.022420, 0.028184, -0.025704, 0.013383, 0.019452, 0.022471, 0.009344, -0.062156, 0.072769, -0.023779, -0.002854, 0.024441, -0.050688, 0.009440, -0.010766, -0.009238, 0.008130, 0.010098, -0.012996, 0.023520, -0.036277, 0.019073, 0.059987, -0.028962, 0.008455, 0.023232, -0.014772, 0.010593, -0.014635, -0.005258, 0.015893, -0.031050, 0.052340, -0.022496, -0.033646, 0.044183, -0.021033, -0.030536, 0.007957, 0.010378, 0.015079, -0.030534, 0.009913, -0.025181, 0.101224, -0.125297, 0.044350, 0.009588, -0.040877, 0.045604, -0.001730, -0.019254, 0.019660, -0.022841, -0.020773, 0.017026, -0.067972, 0.057824, -0.041214, 0.009320, 0.006149, 0.000663, 0.022690, -0.006473, 0.018405, -0.034173, 0.022566, -0.075520, 0.088659, -0.042213, 0.034793, 0.002843, -0.048152, 0.018528, 0.007798, -0.039106, -0.004401, 0.025292, -0.008423, 0.015858, -0.034922, 0.019544, -0.043111, 0.025602, 0.040228, 0.015042, -0.017873, -0.011636, 0.020357, -0.009842, 0.004035, -0.077635, 0.031825, 0.021692, 0.073328, -0.042491, -0.044073, -0.005323, 0.022090, -0.025893, 0.009974, -0.007952, -0.012839, 0.020482, 0.016734, -0.062707, -0.070293, 0.018011, 0.102671, 0.023366, 0.009384, -0.004513, -0.020264, 0.000673, 0.013673, -0.064117, 0.010983, 0.111279, 0.024668, -0.046274, -0.024008, 0.024469, 0.005982, -0.038970, 0.037664, -0.008954, 0.022918, 0.008223, 0.068797, -0.158845, -0.080360, -0.021244, 0.088209, 0.015844, -0.005881, -0.032518, -0.021627, -0.016794, -0.003279, -0.054260, -0.023538, 0.123732, -0.023128, -0.007309, -0.010739, 0.038124, -0.009460, -0.028721, 0.011930, -0.041709, 0.016467, -0.022118, 0.077176, -0.232604, -0.104813, -0.027135, 0.160516, -0.022242, -0.020854, 0.011502, 0.025240, 0.009876, -0.015323, -0.120958, 0.099881, 0.000122, 0.009600, -0.022482, -0.008049, 0.034915, -0.002971, -0.043847, -0.034839, 0.014515, 0.029527, 0.129845, -0.059816, -0.102458, -0.097660, -0.021880, 0.069134, 0.003072, 0.009268, 0.044230, 0.005170, -0.011508, -0.013739, -0.000022, 0.049943, -0.080206, -0.033560, -0.018971, -0.008798, 0.039837, -0.021407, -0.039632, 0.000794, -0.009213, 0.027672, 0.092596, 0.004602, -0.136147, 0.003854, -0.047972, 0.085821, -0.014542, 0.017345, 0.028700, 0.007390, -0.014304, -0.009077, 0.021770, -0.032059, 0.008624, 0.018570, 0.001485, -0.019088, 0.034949, -0.023070, 0.004010, -0.004324, -0.006504, 0.038053, -0.014541, 0.048634, -0.040736, -0.000723, -0.030351, 0.099699, 0.014932, -0.021750, 0.007169, 0.006508, 0.002667, -0.002607, 0.006287, -0.035427, 0.031817, 0.006412, -0.043704, 0.004661, 0.013671, -0.040092, -0.009144, -0.006951, 0.015185, 0.016275, -0.038874, 0.043330, -0.046836, 0.044570, -0.064746, 0.060468, -0.039337, -0.007066, 0.052040, 0.025238, -0.010108, 0.013507, -0.031840, 0.099876, -0.088397, -0.014623, -0.035153, 0.005638, -0.023962, -0.020410, 0.043777, 0.008040, -0.014929, -0.011547, 0.050983, -0.049667, 0.000554, 0.001582, 0.030101, 0.001944, 0.021440, -0.025474, 0.033255, -0.002731, -0.017642, -0.004647, -0.012057, 0.047230, -0.026633, -0.044562, -0.000815, -0.013548, 0.027005, -0.039583, 0.038951, -0.006226, 0.030712, 0.004353, 0.092856, -0.098965, 0.024222, 0.010301, 0.023567, -0.062623, -0.026464, -0.037207, 0.018583, -0.004444, -0.012448, 0.021148, 0.018821, -0.009352, -0.008678, 0.014307, 0.003564, 0.015057, -0.015577, -0.037099, 0.025399, -0.011713, 0.040939, 0.017587, 0.071041, -0.072066, 0.011720, -0.000926, 0.044544, -0.032713, -0.001031, -0.022873, 0.015068, 0.014796, 0.010262, -0.011444, -0.002733, 0.015401, -0.058279, -0.002291, -0.046417, 0.000744, 0.028908, -0.042797, 0.038733, 0.002724, -0.001753, 0.014220, 0.081250, -0.116179, 0.044811, -0.022655, 0.034711, -0.067339, -0.026723, 0.023853, 0.048743, 0.002988, 0.033902, -0.002271, -0.030353, 0.029622, -0.060140, 0.033907, -0.050385, 0.003135, 0.039352, -0.068173, 0.029064, -0.017902, 0.010753, 0.022784, 0.037310, -0.042774, 0.021361, -0.045701, 0.091687, -0.051899, -0.007585, 0.008930, -0.003604, -0.003740, -0.024181, -0.011265, -0.001577, 0.026142, -0.039589, 0.006466, 0.013692, 0.037906, 0.016179, -0.002631, 0.014581, -0.019856, -0.014144, 0.032503, -0.020969, 0.066275, -0.051481, 0.029670, -0.040559, -0.019443, 0.024676, 0.016890, -0.003220, -0.024080, 0.006676, 0.020751, -0.002726, -0.019535, 0.022745, -0.043813, -0.008688, 0.046066, 0.002109, -0.021423, -0.004488, -0.029053, 0.043425, 0.014779, 0.061089, 0.003405, -0.085439, 0.054611, -0.025185, -0.019035, -0.010475, 0.003592, -0.015377, -0.001728, 0.007103, 0.007166, -0.004044, -0.056810, 0.018342, -0.001258, 0.006681, 0.005133, 0.020414, -0.013721, 0.020818, -0.026489, 0.037879, -0.026787, 0.071608, -0.048772, -0.029382, 0.024023, -0.032615, 0.006163, -0.029545, -0.007517, 0.022997, -0.024350, 0.014277, -0.007527, -0.040236, 0.013703, -0.017788, 0.020152, -0.027145, -0.008098, 0.000923, -0.020907, 0.023915, -0.015651, 0.009725, 0.022853, 0.083537, -0.074606, 0.023951, -0.010482, -0.013690, -0.030713, 0.011532, 0.003569, 0.020026, -0.021955, 0.025112, -0.011204, -0.021799, 0.057477, -0.025011, -0.009054, -0.010429, -0.021871, -0.005569, 0.019502, 0.007668, 0.006879, 0.046657, 0.000542, 0.110368, -0.100903, -0.070889, -0.025657, 0.018526, 0.003168, 0.015460, 0.003938, 0.006355, -0.005548, -0.005531, 0.006675, 0.038993, -0.067647, -0.018651, 0.001713, 0.004864, -0.018240, 0.026444, -0.035128, -0.010039, -0.025657, -0.020596, 0.012074, 0.000525, -0.007102, -0.056477, -0.035681, 0.006230, 0.005220, -0.026913, 0.014586, -0.003517, 0.021424, 0.009243, 0.023083, 0.086141, -0.084635, -0.018841, 0.011888, 0.046504, -0.042666, 0.027405, -0.041065, -0.002939, 0.005143, -0.006331, 0.016175, 0.001713, -0.021710, -0.009780, 0.020760, -0.017449, 0.035715, -0.011039, -0.019391, 0.011660, 0.024292, 0.019684, -0.009270, 0.053706, -0.001994, -0.032112, -0.007298, 0.004075, -0.064005, 0.017660, 0.051416, -0.039011, 0.007471, -0.010030, -0.019309, -0.034355, 0.009780, -0.006993, 0.017674, -0.098944, 0.041468, -0.035707, 0.026079, 0.010929, 0.002354, 0.008927, -0.008651, 0.009967, 0.011324, -0.098722, -0.008369, 0.018600, -0.037827, 0.014773, 0.002686, -0.021076, -0.009023, 0.030094, -0.022042, 0.050014, 0.023397, -0.150553, -0.013442, -0.000635, -0.004738, -0.037912, 0.023885, 0.034469, 0.018129, -0.001547, -0.005850, -0.006790, 0.017627, 0.004040, 0.018675, -0.017103, -0.051142, 0.007312, 0.017331, 0.011649, -0.022715, -0.000035, -0.001297, 0.037955, 0.078318, -0.205185, -0.129921, 0.096995, 0.043079, -0.036711, 0.002897, 0.014358, -0.012313, -0.021565, 0.024613, 0.015336, -0.013500, 0.017024, 0.007133, 0.004374, -0.007362, -0.005389, -0.022192, 0.001314, 0.002943, -0.001833, 0.019789, -0.083909, 0.147299, -0.242969, -0.014682, -0.027297, 0.031938, -0.000256, 0.002525, -0.024009, -0.007205, 0.013023, -0.019562, 0.017886, -0.020697, -0.015678, 0.000989, 0.021881, -0.000910, -0.052016, 0.012622, -0.010279, 0.026951, -0.033818, 0.016938, -0.134839, 0.084366, 0.015756, 0.046101, -0.049423, -0.008880, -0.006116, 0.003054, 0.005616, 0.014877, 0.004139, 0.009203, 0.026741, -0.051150, 0.023521, 0.043582, -0.026664, -0.018133, -0.018736, 0.005782, 0.008890, 0.035824, 0.002702, 0.007928, -0.157699, 0.023038, 0.105231, 0.017318, -0.048410, 0.029285, 0.003690, -0.004336, 0.002724, -0.018432, -0.013920, -0.001043, 0.042571, -0.073700, 0.013257, 0.012523, -0.013388, -0.031718, -0.004460, -0.024554, 0.007104, 0.029433, -0.003006, -0.011878, -0.093156, 0.057593, -0.016562, 0.033126, -0.058393, 0.012410, 0.013552, -0.018743, 0.028928, -0.011270, -0.003191, -0.007631, 0.045287, -0.002169, -0.086019, 0.103791, -0.070360, -0.020453, 0.015232, 0.019856, 0.000892, 0.007840, 0.031366, -0.013116, -0.043716, -0.029803, 0.082678, 0.016674, 0.017427, -0.000998, 0.005200, -0.008954, -0.017290, 0.022619, 0.004603, -0.034414, -0.062304, 0.119975, -0.107256, -0.003996, 0.022899, -0.029608, -0.016635, -0.006502, 0.008893, -0.016978, 0.007629, -0.010731, -0.005206, -0.042230, 0.080701, -0.059772, 0.039794, 0.021736, -0.014005, 0.011509, -0.009616, -0.010590, -0.022189, 0.003330, -0.014527, 0.028310, -0.039583, 0.067591, -0.041860, -0.062977, -0.003126, 0.011979, -0.038441, 0.031532, -0.023551, -0.033304, -0.070409, 0.082504, 0.076874, -0.036297, 0.031949, 0.047146, 0.038535, -0.020680, 0.011056, -0.016722, -0.013465, -0.007388, 0.061627, -0.028452, 0.042123, 0.031536, -0.035169, -0.033880, 0.017525, 0.024509, -0.054382, 0.036154, 0.018346, -0.012144, -0.083914, 0.078816, 0.011257, -0.008854, -0.047263, 0.076770, -0.033246, 0.012166, 0.018663, 0.015732, -0.010239, -0.006116, -0.070659, -0.013658, 0.075985, 0.046011, -0.033379, 0.000671, 0.054829, -0.016764, -0.030254, 0.019442, -0.002121, 0.009860, 0.058403, 0.043386, -0.159532, -0.077289, -0.012014, 0.095310, 0.018636, 0.008972, 0.026022, 0.008563, -0.002337, 0.001915, -0.133454, 0.011876, 0.098496, 0.014797, -0.001570, -0.018999, 0.034467, -0.007084, -0.040264, 0.006198, -0.017909, 0.004268, 0.038251, 0.009753, -0.192473, -0.073617, 0.044656, 0.097689, 0.028014, -0.064065, -0.015458, 0.017853, 0.006864, -0.032487, -0.089340, 0.082209, -0.018633, -0.033902, 0.003953, 0.001986, 0.065777, 0.004709, -0.033861, 0.001801, -0.004755, 0.034463, 0.122211, -0.025034, -0.154777, -0.044501, -0.036859, 0.068226, -0.029839, 0.001191, 0.032882, -0.018961, -0.020069, -0.011831, 0.027896, 0.025293, -0.041590, 0.011058, 0.014621, -0.028122, 0.024539, 0.000064, -0.035207, -0.008635, -0.033553, -0.008183, 0.162512, -0.106903, -0.165514, -0.036135, -0.016717, 0.124963, -0.028622, -0.019779, 0.025732, 0.003330, 0.000679, 0.022294, 0.013827, -0.074424, 0.066904, 0.016234, -0.020019, -0.014710, 0.027386, -0.030999, -0.011260, 0.002752, -0.007698, 0.008112, 0.050143, 0.045547, -0.099635, -0.018799, -0.022044, 0.069882, -0.012275, -0.015888, 0.024987, 0.022682, -0.001033, 0.011178, -0.059305, 0.038651, 0.064965, 0.043458, -0.038354, 0.002976, -0.004319, -0.017460, -0.024841, 0.020200, -0.012111, 0.025181, 0.088414, -0.010542, -0.098278, -0.022814, -0.057499, 0.078899, -0.017320, -0.012788, 0.025068, -0.007375, -0.026166, 0.004179, -0.025155, 0.010729, 0.016389, 0.017981, -0.030225, 0.018702, -0.004477, -0.028776, 0.019760, 0.043317, -0.022308, 0.004514, 0.125697, -0.098576, -0.029362, -0.007411, 0.020324, 0.050998, -0.018666, -0.017601, 0.065030, 0.013685, 0.010177, 0.008542, -0.033220, 0.032825, -0.029552, 0.008488, -0.022875, 0.047360, -0.003681, -0.004628, 0.015236, -0.011135, -0.017507, -0.001725, 0.057931, -0.069666, -0.044256, -0.005308, 0.023257, -0.078438, 0.005544, -0.000572, 0.027561, 0.004471, -0.014700, -0.004413, -0.029458, 0.002684, -0.033561, -0.001931, -0.020475, 0.046958, 0.007058, -0.031835, -0.005444, -0.006127, -0.011666, 0.007400, -0.006401, -0.015019, 0.017437, -0.009608, 0.052990, -0.083473, 0.003567, 0.006877, 0.022893, 0.014602, 0.013253, -0.000642, 0.060138, -0.047619, -0.030062, 0.011462, -0.025563, 0.004420, 0.006047, -0.021464, 0.046346, 0.023286, 0.004821, -0.010545, -0.017131, -0.052196, 0.070932, 0.022843, 0.018043, -0.078597, 0.000719, 0.003778, 0.024094, 0.017298, 0.033530, 0.012467, 0.035911, 0.006950, -0.055503, 0.052889, -0.040491, 0.031378, 0.045750, -0.058819, 0.028868, -0.027064, -0.007215, 0.032576, 0.006826, -0.038027, 0.053949, 0.021881, 0.012867, -0.053408, -0.031225, -0.004342, 0.019571, 0.008929, -0.026597, -0.005535, 0.027680, -0.032372, -0.010008, -0.000850, 0.013791, -0.005097, -0.024205, 0.011450, 0.018882, -0.031286, 0.005572, -0.004784, 0.021161, 0.025527, -0.034159, 0.011169, 0.003673, -0.026286, 0.002432, 0.017201, 0.011713, -0.012887, 0.006416, -0.011923, 0.020679, -0.033295, 0.035771, -0.019710, -0.053256, 0.051825, -0.000808, -0.025321, 0.013864, -0.041835, -0.003756, 0.020968, 0.123667, -0.055331, -0.042997, 0.039777, -0.010943, -0.018705, -0.007002, -0.027035, 0.008463, -0.010923, 0.001447, 0.009485, -0.054689, -0.009686, -0.010046, 0.007327, -0.033447, 0.039999, 0.006550, 0.008988, -0.011692, 0.016767, -0.044927, 0.005850, 0.067302, 0.001026, -0.040014, 0.030348, -0.034985, -0.023303, 0.006496, 0.023431, -0.023839, -0.013531, -0.005035, -0.028438, 0.000981, 0.001534, -0.005449, -0.047892, -0.009919, 0.005771, -0.007304, -0.041312, 0.035468, -0.011447, 0.005315, -0.010924, 0.022074, -0.071302, 0.008641, 0.050760, -0.020327, -0.033647, -0.015521, -0.013439, 0.014263, 0.005827, 0.008736, -0.009659, 0.064022, -0.048740, -0.043860, 0.014844, -0.012500, -0.005071, 0.056277, -0.029235, 0.015845, -0.024388, 0.023244, 0.002340, -0.004001, -0.007829, 0.021747, -0.020583, 0.065797, -0.034872, -0.012487, -0.005696, -0.019302, -0.002800, -0.006297, -0.002999, 0.079372, -0.050728, -0.056725, 0.002043, 0.020668, -0.026276, 0.038994, 0.007215, 0.008279, 0.015310, 0.009614, 0.020451, 0.042697, -0.073862, -0.011125, -0.066642, 0.025988, -0.010489, -0.057358, 0.021845, 0.004584, 0.020670, 0.020554, -0.000213, 0.055054, -0.015009, -0.067433, 0.033825, 0.036841, -0.039812, 0.059245, -0.005410, -0.039935, -0.020515, 0.012386, 0.022502, 0.076819, -0.067188, -0.030841, 0.000691, 0.027396, -0.021878, -0.032665, -0.002809, 0.038600, 0.007322, -0.016477, -0.006290, -0.001602, 0.040838, -0.038156, -0.035960, 0.043839, -0.031483, 0.013740, 0.003033, -0.000066, -0.021734, 0.015648, 0.018223, 0.012503, -0.007180, -0.074777, 0.056659, -0.067843, 0.017677, 0.019030, 0.026338, 0.019686, 0.013715, 0.015660, -0.020758, 0.004763, 0.056296, -0.076474, -0.027242, 0.042211, -0.067126, -0.001897, -0.007867, -0.036096, -0.014024, 0.016039, -0.014497, -0.011101, 0.044901, -0.199160, 0.054805, -0.056979, 0.020425, -0.040745, -0.012674, -0.007615, -0.008814, -0.001300, -0.002552, -0.044881, 0.043020, -0.015816, 0.019301, 0.041744, -0.022851, 0.002508, 0.041775, -0.059060, 0.000394, 0.006814, 0.005529, 0.034252, 0.068609, -0.193560, -0.028887, 0.015197, 0.032076, 0.008579, 0.010444, 0.023182, -0.010253, -0.004354, 0.014352, -0.044102, 0.039146, -0.030210, 0.010498, 0.011807, -0.027142, -0.004364, 0.004822, -0.015792, -0.026520, 0.001731, 0.015420, -0.072586, 0.146646, -0.199893, -0.105242, 0.057116, 0.045347, -0.006303, -0.004888, -0.006458, -0.003472, -0.020538, -0.008832, -0.048954, 0.013714, -0.010711, -0.003271, -0.014366, -0.033473, -0.029192, 0.047801, -0.036427, -0.001093, -0.045313, -0.008567, 0.004469, -0.005495, -0.054951, -0.017909, -0.014963, -0.004425, -0.008151, -0.014098, 0.010978, 0.003550, 0.012312, -0.013859, 0.091987, -0.064351, -0.011180, 0.002633, 0.008063, -0.029474, 0.007609, 0.005690, 0.011491, 0.008818, -0.009366, -0.008170, -0.081388, -0.005244, 0.130922, 0.018250, -0.039195, 0.051269, 0.015051, -0.008212, -0.004181, -0.012046, -0.006840, -0.002479, 0.020364, -0.001509, -0.047369, 0.082890, -0.048108, -0.029542, -0.001309, 0.019491, -0.013038, 0.052619, -0.042610, 0.015936, -0.051915, 0.002483, 0.040909, 0.013638, -0.059557, 0.061260, 0.016537, -0.041899, 0.008197, 0.017200, 0.007019, -0.031094, 0.001742, 0.043965, -0.082475, 0.030344, 0.007089, -0.043854, 0.032598, -0.022648, 0.001706, -0.017856, -0.001176, -0.012782, 0.057481, -0.086461, 0.113784, -0.036031, -0.047895, 0.039253, 0.046357, -0.017366, -0.003446, -0.022933, -0.003622, -0.012045, -0.097382, 0.113226, 0.010281, 0.000596, -0.031742, -0.018142, 0.028914, 0.021351, -0.022491, -0.007118, 0.014499, -0.007416, 0.017983, -0.097646, 0.047680, -0.022251, 0.011107, 0.026621, 0.013519, -0.030083, -0.019548, -0.009616, 0.028915, -0.030856, 0.037416, 0.007136, -0.031946, -0.000752, -0.005772, -0.029555, 0.055065, -0.015453, -0.004234, 0.049919, -0.012764, -0.011956, -0.030818, -0.028962, 0.087598, 0.077667, -0.057052, -0.040828, 0.003231, -0.017372, 0.024799, -0.006473, 0.013004, 0.001926, 0.022215, 0.001578, -0.009161, 0.041859, -0.005605, -0.013845, 0.008683, -0.008051, -0.016053, 0.026734, -0.014236, -0.044805, -0.033900, -0.032568, 0.091477, -0.012232, 0.006864, 0.022502, -0.001973, -0.006133, -0.000097, 0.010229, -0.004250, 0.015329, -0.110326, 0.021222, 0.059074, 0.016104, 0.004431, -0.051344, 0.032367, 0.007683, -0.003175, -0.005999, -0.006322, 0.012885, -0.032305, 0.079797, -0.112224, -0.089780, -0.045793, 0.087769, 0.012550, -0.005537, -0.008404, 0.015146, -0.001080, -0.019696, -0.195838, 0.120947, 0.040853, -0.051785, 0.025332, -0.004955, 0.022711, 0.028579, -0.037027, 0.030881, -0.023894, -0.025465, 0.077973, -0.033219, -0.108957, 0.001496, -0.030423, 0.073593, 0.013995, -0.026219, -0.000221, 0.015432, 0.004827, 0.012409, -0.174004, 0.110605, 0.026792, -0.041906, 0.024157, -0.003356, 0.004387, 0.060567, -0.047447, 0.004835, 0.001033, 0.012286, 0.156342, -0.059188, -0.115384, -0.000535, -0.084688, 0.078863, 0.008798, 0.000466, -0.002080, 0.033253, 0.013089, 0.008122, 0.010251, -0.037778, 0.020022, -0.062767, 0.044799, 0.012828, 0.027512, 0.025239, -0.009514, -0.008247, -0.015782, -0.009162, 0.074375, 0.025514, -0.164780, -0.002429, -0.076596, 0.076524, 0.041166, -0.032766, -0.018149, -0.028806, -0.012427, -0.005752, -0.026433, -0.052219, 0.086207, -0.022607, -0.002186, -0.004952, -0.001640, 0.006510, -0.029749, -0.000979, -0.020709, -0.018880, 0.000691, 0.047520, -0.122034, 0.026457, -0.087292, 0.054624, 0.020414, -0.008736, 0.024921, -0.026841, 0.022022, 0.012292, -0.082411, 0.060696, 0.055940, -0.037799, 0.022611, 0.006165, -0.023877, 0.012286, 0.002870, 0.004084, -0.002387, 0.036468, -0.005814, 0.074127, -0.082613, 0.018822, -0.063977, 0.054048, -0.028568, -0.019989, 0.029710, -0.000866, 0.027537, -0.015406, -0.109868, 0.093240, 0.049759, 0.018385, 0.017199, 0.042642, -0.040625, 0.030416, -0.010113, -0.015918, 0.017717, 0.003430, 0.015189, -0.003388, -0.046437, 0.002792, -0.057431, 0.063143, 0.000590, -0.047867, 0.003125, -0.013216, 0.006976, 0.016468, -0.029413, 0.027596, 0.014273, 0.012804, -0.032019, 0.016229, 0.007473, -0.004170, 0.010964, 0.006197, -0.016514, 0.025279, 0.051702, -0.014308, -0.095298, 0.000204, -0.050220, 0.028454, 0.004248, -0.032797, 0.003935, -0.014670, -0.015506, -0.019644, -0.012648, -0.009435, -0.041725, -0.026171, -0.020483, 0.022204, 0.000121, 0.000167, 0.010480, 0.020497, -0.010539, 0.012730, 0.017028, -0.031870, 0.001130, 0.018479, -0.012496, -0.057022, 0.027301, -0.054803, 0.032161, -0.001990, 0.016967, -0.004074, 0.065152, -0.057834, -0.052444, 0.010832, -0.042455, 0.023592, -0.000646, -0.015460, -0.000823, 0.033150, 0.003549, 0.001433, 0.010714, -0.038070, 0.077589, -0.012992, 0.075674, -0.067264, -0.023581, 0.019995, 0.040124, 0.014435, 0.012296, -0.018424, 0.064202, -0.080381, 0.015571, 0.013252, -0.069456, 0.041299, 0.039814, -0.045592, 0.035806, -0.014576, 0.008122, 0.028530, -0.010275, -0.011439, 0.044047, 0.022291, 0.020555, -0.051289, -0.022068, -0.001337, 0.018984, -0.012915, -0.008110, -0.001186, 0.073368, -0.063558, 0.021492, 0.008149, -0.018121, 0.000186, -0.004505, 0.004552, 0.034393, -0.007057, 0.003436, -0.009077, 0.105314, -0.066889, -0.055621, 0.036957, -0.050160, 0.015819, 0.014334, 0.012708, -0.015033, -0.011930, 0.001577, -0.005565, 0.007110, -0.012436, 0.059953, -0.010311, -0.047013, 0.036931, -0.004068, -0.009648, 0.015869, -0.035596, 0.012039, -0.005140, 0.140621, -0.122864, -0.042776, -0.005459, -0.022372, -0.014895, 0.012346, -0.008358, -0.003408, 0.008218, -0.002450, -0.004084, -0.038396, 0.019387, -0.014371, -0.007969, 0.020048, 0.031911, 0.028540, -0.046338, 0.004168, 0.006706, 0.010968, -0.015070, 0.046427, -0.067269, 0.037433, -0.052019, 0.035718, -0.036587, -0.031202, 0.018757, 0.032292, -0.009999, -0.004786, 0.014690, 0.009206, 0.005230, -0.049193, -0.005386, 0.029532, 0.002468, 0.006794, -0.018568, 0.000268, -0.012441, -0.013220, 0.009983, 0.016422, -0.039423, 0.028015, 0.014019, -0.013705, -0.068070, 0.001337, -0.014029, -0.003077, 0.013953, -0.031156, 0.008727, 0.058341, -0.052556, -0.065461, 0.024125, 0.015108, -0.014761, 0.010904, -0.008672, -0.011143, -0.006506, 0.008623, 0.015881, -0.015559, 0.007799, -0.021887, 0.052627, -0.017887, -0.011045, -0.012962, 0.026005, -0.006608, -0.001397, -0.001679, 0.002254, 0.039670, -0.007487, -0.058446, 0.055962, -0.004318, -0.027573, 0.004485, -0.003007, -0.016355, 0.009097, 0.021598, -0.012737, 0.062538, -0.054143, -0.047146, -0.033802, 0.007774, -0.006346, -0.022878, 0.020757, 0.017397, -0.017884, -0.009578, 0.015998, 0.040672, -0.012630, -0.099115, -0.016449, 0.024685, -0.067311, 0.045021, -0.014591, -0.028361, -0.014089, 0.041911, -0.025318, 0.080456, -0.057229, -0.019553, -0.025657, 0.061744, -0.098428, -0.023824, 0.005829, 0.000616, 0.025484, 0.011766, -0.032021, 0.007405, 0.024808, -0.085843, -0.019828, 0.020745, -0.047932, 0.027350, 0.001024, -0.050623, -0.020583, -0.019580, 0.008700, -0.018249, 0.064603, -0.121457, -0.011575, 0.020690, -0.037271, -0.025158, -0.009789, -0.003918, -0.006759, -0.002365, 0.028826, 0.050182, 0.000118, -0.048789, -0.028282, 0.062809, -0.032064, -0.008943, 0.042686, -0.018140, -0.018253, -0.004944, -0.032287, -0.004861, 0.023492, -0.117876, 0.025326, -0.060982, 0.024906, 0.002802, -0.027820, -0.001030, 0.030674, -0.019208, 0.005227, 0.006890, -0.028305, -0.007461, -0.010563, 0.002349, -0.028922, -0.028521, 0.023419, -0.046846, -0.004421, 0.016164, 0.014852, -0.041561, 0.107614, -0.139442, 0.009536, -0.031385, 0.001339, -0.032381, 0.043389, -0.007306, 0.005137, 0.033296, -0.034414, -0.061996, 0.019677, 0.027212, -0.000136, 0.020761, -0.023055, -0.032417, 0.012402, -0.022351, -0.019105, -0.005777, 0.018131, -0.060538, 0.105226, -0.134208, -0.092991, 0.086040, -0.010847, -0.008834, 0.013128, -0.001414, 0.003668, 0.008287, 0.016174, -0.059753, 0.017072, 0.004797, 0.010145, 0.001423, -0.021127, 0.016690, 0.040262, -0.023824, 0.007007, -0.002504, 0.005128, 0.060004, -0.030781, 0.029337, -0.008993, -0.005002, -0.003726, -0.016912, 0.006527, 0.013371, 0.020360, -0.018996, -0.003773, -0.011850, 0.013719, -0.031749, 0.009445, 0.023887, -0.026855, 0.001615, 0.003032, -0.007764, -0.005613, -0.009947, -0.012183, -0.070999, -0.057130, 0.155009, 0.025444, -0.023222, -0.018441, 0.001966, -0.021022, -0.007792, -0.022356, 0.017799, 0.017237, 0.028503, -0.031795, -0.050313, 0.025619, 0.043809, -0.074690, -0.018750, 0.041152, -0.014970, 0.019864, -0.035613, -0.000756, -0.073451, 0.041265, 0.098629, 0.081682, -0.076129, 0.008311, 0.010576, 0.010004, -0.006330, 0.004637, 0.024520, -0.025991, -0.001354, 0.024890, -0.052946, 0.030615, 0.037566, -0.071878, 0.005406, 0.045225, -0.028761, -0.006609, 0.036399, 0.020069, -0.011623, -0.061222, 0.096080, -0.003331, -0.051360, 0.068958, 0.015135, -0.033542, 0.027521, 0.023634, -0.033678, 0.031825, -0.073980, 0.023875, 0.035474, 0.004937, 0.010252, -0.029771, 0.013463, 0.024789, -0.012022, -0.039496, 0.012275, -0.010638, 0.052791, -0.094584, 0.064054, -0.042136, -0.027173, 0.046474, -0.005591, 0.011668, -0.002243, -0.023062, -0.012328, 0.001770, 0.102989, -0.092279, -0.007371, 0.013736, -0.023112, -0.011067, 0.064024, -0.026345, -0.057510, 0.031705, 0.010918, -0.031112, -0.032484, -0.018073, 0.089113, 0.032323, -0.028977, -0.030147, 0.009456, 0.041100, -0.013814, 0.010073, 0.005664, 0.018104, 0.066878, 0.031484, -0.045180, 0.005748, 0.028666, -0.033205, 0.045592, -0.009556, 0.006457, 0.049356, 0.006205, -0.018623, 0.015465, -0.056267, 0.080787, 0.061491, -0.018638, -0.002921, 0.009895, -0.008797, -0.030034, -0.021496, 0.002116, -0.031875, -0.177885, 0.106531, 0.062256, -0.010209, 0.021528, -0.016877, 0.013983, 0.022417, -0.018973, 0.037628, -0.043315, -0.023992, -0.015865, 0.035323, -0.092530, -0.062435, -0.012540, 0.065868, -0.015884, -0.010098, -0.057768, 0.003471, -0.023098, 0.021494, -0.245869, 0.124889, 0.046617, -0.076840, 0.049323, 0.031830, -0.002298, 0.035841, -0.008548, 0.055513, -0.009367, -0.004914, 0.050341, 0.000943, -0.095455, -0.048478, -0.012915, 0.048868, 0.053949, -0.017100, -0.029762, -0.028730, -0.009522, -0.022092, -0.088430, 0.039332, 0.049853, -0.068371, 0.024995, 0.027735, -0.001442, 0.020266, -0.023657, -0.001385, -0.000732, -0.015963, 0.067086, -0.007500, -0.111309, -0.022697, -0.065479, 0.025408, 0.043802, -0.025151, -0.024649, 0.022361, 0.004299, -0.009463, 0.011568, -0.062416, 0.066396, -0.073422, 0.064484, 0.006752, -0.007895, 0.008406, -0.014886, -0.006013, -0.015879, 0.019259, 0.007389, 0.080396, -0.161050, 0.101110, -0.144781, 0.007734, 0.031625, -0.009519, -0.011928, 0.006073, -0.013640, 0.004228, -0.053554, -0.037538, 0.064454, -0.048328, 0.033091, 0.030867, -0.049610, 0.044867, -0.007526, -0.027747, 0.007943, 0.017290, -0.079039, 0.126313, -0.068851, 0.062955, -0.093730, 0.027859, 0.022076, -0.005520, 0.000736, -0.005005, -0.009498, 0.013985, -0.134547, 0.098901, 0.045379, -0.064586, 0.045544, 0.007044, -0.054189, 0.058865, 0.014317, 0.017502, 0.004311, 0.036604, -0.144638, 0.156079, -0.026998, 0.055077, -0.141597, 0.067081, 0.017121, -0.016649, 0.023167, 0.001232, 0.005677, -0.021431, -0.106783, 0.104032, 0.002184, -0.064450, 0.065547, 0.027480, -0.063520, 0.043097, 0.002448, -0.026614, -0.012609, 0.033276, -0.068318, 0.090720, -0.059517, 0.070108, -0.104819, 0.034673, 0.030841, -0.009103, 0.021408, -0.011977, 0.013337, -0.005795, -0.045066, -0.005417, 0.012986, -0.033243, 0.033811, 0.021062, -0.029295, 0.034780, -0.004802, -0.008337, -0.040435, 0.041015, -0.082825, 0.073051, -0.045566, 0.082420, -0.068704, 0.002455, 0.002793, -0.020232, 0.028101, -0.011241, 0.017932, -0.008085, 0.050606, -0.003046, -0.055558, 0.013671, -0.046986, 0.022972, -0.001760, 0.005840, 0.029507, -0.008853, -0.029036, 0.031162, -0.042426, 0.025761, 0.007019, 0.063102, -0.070360, 0.036271, 0.008977, -0.021838, 0.012386, -0.022103, -0.033166, 0.012068, 0.081319, -0.048580, -0.025512, 0.054108, -0.044817, 0.014416, -0.007290, -0.056362, 0.055765, 0.000322, -0.012937, -0.000073, -0.075723, -0.018266, 0.065887, 0.044913, 0.006780, -0.062366, -0.045861, 0.025653, 0.029252, 0.009045, -0.023753, 0.020300, 0.088469, -0.108959, 0.081208, 0.008167, -0.083715, 0.030326, 0.005799, -0.032566, 0.026020, -0.007584, -0.007888, 0.048354, 0.044746, -0.056410, 0.032664, 0.058439, -0.019401, 0.008202, 0.007978, -0.011525, 0.021323, -0.010070, 0.015518, 0.021564, 0.007323, -0.072236, 0.027838, 0.012847, -0.029000, 0.006785, 0.004644, -0.013186, 0.015020, 0.006482, -0.014717, 0.018214, 0.038249, 0.012996, -0.092886, 0.038208, -0.028637, 0.016240, 0.013356, -0.013854, 0.031686, 0.018394, 0.033227, 0.011685, -0.002940, -0.044369, 0.021812, 0.052327, -0.073126, 0.013463, 0.011589, -0.006746, -0.001261, -0.023561, 0.026360, 0.011247, 0.093761, -0.060242, -0.037492, 0.016592, -0.024161, 0.011340, 0.015981, -0.013475, 0.006004, 0.016775, 0.018190, -0.009385, 0.000616, 0.021150, -0.044436, 0.049129, -0.040010, 0.002643, 0.023113, -0.016475, 0.009957, 0.024477, 0.005774, 0.012554, 0.132724, -0.142553, 0.047477, -0.076387, 0.071549, -0.023057, -0.002128, -0.007559, -0.011499, 0.007572, -0.005264, -0.032657, 0.012926, 0.012727, -0.074333, 0.017319, -0.022084, -0.005161, -0.006736, -0.007292, -0.008347, 0.015372, -0.018066, 0.001257, 0.143928, -0.185561, 0.040534, -0.032803, 0.004981, -0.037527, 0.033461, -0.025859, 0.020952, 0.025424, -0.014659, -0.008468, 0.058221, -0.020613, -0.101356, -0.010223, 0.023210, -0.023281, -0.040728, 0.018793, -0.013509, 0.004429, -0.011421, 0.037538, 0.032921, -0.062378, 0.021468, 0.064353, -0.036556, -0.029593, 0.002115, -0.001887, -0.004659, -0.000401, 0.014015, 0.007652, 0.014829, 0.042639, -0.124509, -0.025803, 0.054102, -0.024190, -0.010707, 0.018717, -0.013941, -0.033569, 0.001105, -0.011455, -0.016172, 0.023541, 0.006129, 0.034679, -0.004377, -0.069090, -0.011892, -0.015285, 0.009456, -0.021862, 0.013985, 0.004122, -0.008152, 0.097405, -0.119459, 0.006896, 0.046052, -0.069621, -0.017668, 0.034880, -0.064573, -0.026583, 0.020944, -0.021778, 0.022451, -0.023073, 0.008517, 0.010250, 0.022994, -0.049833, -0.003795, -0.023940, -0.022358, -0.010110, -0.014996, -0.016331, 0.031008, 0.020107, -0.106462, -0.022175, 0.035781, -0.071757, 0.034768, 0.022147, -0.010534, -0.025950, 0.012795, -0.035191, 0.009753, 0.052265, -0.115773, 0.008719, -0.018495, -0.005474, -0.023354, 0.024279, -0.017829, 0.001549, 0.027624, 0.026215, -0.005840, 0.003065, -0.052844, -0.013140, 0.056390, -0.075324, -0.003520, 0.054711, -0.011047, -0.028619, 0.003871, -0.019146, -0.043456, 0.120151, -0.085600, -0.034226, 0.014406, -0.015482, -0.059726, 0.053015, -0.004880, 0.006578, 0.009089, -0.006643, -0.007793, -0.025598, 0.022712, -0.039466, 0.021017, -0.012637, -0.006992, 0.013298, -0.014509, -0.018790, 0.009012, -0.032301, -0.065975, 0.087525, -0.089783, 0.013612, -0.066039, 0.013261, -0.026413, 0.016628, -0.000102, -0.012806, 0.007525, -0.024605, -0.030554, 0.008808, 0.040816, 0.039013, 0.035902, -0.017047, 0.004685, 0.006462, -0.013513, 0.011406, -0.005689, -0.006528, -0.024629, 0.041256, -0.005212, -0.024326, 0.005630, 0.013236, 0.027530, -0.006429, 0.006878, -0.031377, 0.009304, -0.003842, -0.085162, 0.051803, -0.024648, 0.013575, 0.040854, -0.003666, -0.024797, 0.060390, -0.028974, 0.030603, -0.018382, -0.024029, 0.029673, -0.063071, 0.034480, -0.032440, 0.030351, -0.037174, 0.009708, 0.006228, 0.036388, -0.033631, -0.019546, 0.006631, -0.021172, 0.012649, -0.036482, 0.008425, 0.041755, -0.043572, 0.000235, -0.007637, 0.010961, 0.032072, -0.023186, -0.010701, -0.045639, -0.059999, 0.172192, 0.017844, -0.008196, -0.025302, -0.008521, 0.004644, 0.012959, -0.002357, 0.024033, 0.005899, 0.052196, 0.004387, -0.144199, 0.015674, 0.083542, -0.081903, -0.022473, 0.014996, -0.040926, 0.022566, 0.015209, -0.018710, -0.125804, 0.033433, 0.162580, 0.091736, -0.068503, -0.015255, 0.016594, -0.010199, 0.006177, 0.020440, 0.019319, -0.012439, 0.065301, -0.048548, -0.023693, 0.038744, 0.018809, -0.053802, 0.007250, 0.018445, -0.015351, 0.033459, -0.009503, -0.007150, -0.086516, 0.015568, 0.056916, 0.061959, -0.138182, 0.089186, 0.042465, 0.015491, 0.019520, 0.025358, 0.013555, 0.027344, -0.013288, -0.049906, 0.090384, 0.038282, -0.034362, -0.017331, 0.050593, 0.010904, -0.081535, 0.033056, -0.028647, -0.032495, -0.033916, 0.052762, -0.071066, 0.019768, -0.142329, 0.058420, -0.018536, 0.031329, -0.027976, -0.020364, -0.000771, 0.000930, 0.076564, -0.080749, 0.016104, 0.060687, -0.044630, -0.032093, 0.084049, -0.026382, -0.064636, 0.029331, -0.024632, -0.028162, 0.020459, -0.019305, 0.103009, 0.025041, -0.079423, 0.030683, 0.012693, -0.026908, -0.018419, 0.000114, 0.009417, -0.001027, 0.017542, -0.011801, -0.029854, 0.036444, -0.050197, -0.025566, 0.017661, 0.024201, -0.013045, 0.036400, -0.032229, -0.060108, -0.016755, -0.020973, 0.094858, 0.026193, -0.000047, -0.027390, 0.011941, -0.042860, -0.019399, -0.010456, 0.005648, 0.005974, -0.158827, 0.121808, 0.048128, -0.027285, 0.023035, 0.014110, -0.016012, 0.039970, -0.028366, 0.016678, -0.010686, -0.042282, 0.010377, -0.005401, 0.003887, -0.014662, -0.009533, 0.053499, 0.031749, -0.030576, -0.012587, 0.004502, 0.002298, -0.014987, -0.224406, 0.092752, 0.095539, -0.062271, 0.053960, 0.027667, 0.027564, 0.035952, -0.001189, -0.006470, 0.014950, -0.029683, 0.061936, -0.003206, -0.126339, -0.004463, 0.000928, 0.018762, 0.039411, 0.020904, -0.018222, 0.000164, 0.013004, 0.012353, -0.128906, 0.013027, 0.078849, -0.083355, 0.020209, 0.070608, 0.027619, -0.020641, 0.026767, -0.012032, 0.024690, -0.000450, 0.077508, -0.038500, -0.042117, -0.043996, 0.004560, 0.020397, 0.013280, -0.018289, -0.015564, -0.009403, 0.002250, -0.007782, -0.003264, -0.037052, 0.076853, -0.072183, 0.064603, 0.008431, -0.016037, 0.003784, 0.041439, 0.004689, -0.025550, 0.016485, 0.019075, 0.003025, -0.052435, 0.012391, -0.049248, 0.049402, -0.007821, -0.001575, 0.004408, 0.001843, -0.023916, 0.028901, -0.091848, 0.052608, 0.040652, -0.104269, 0.035932, 0.049589, -0.039189, 0.032781, 0.038157, -0.008693, 0.015956, 0.019247, -0.046321, 0.022548, 0.011919, 0.057613, -0.094324, -0.002700, 0.008381, 0.015981, -0.008726, 0.001053, 0.000500, -0.008146, -0.151361, 0.075967, 0.054329, -0.072386, 0.031579, 0.018957, -0.046184, 0.041422, 0.010777, -0.017495, 0.018364, 0.024338, -0.188188, 0.139741, 0.009100, 0.076361, -0.106281, 0.081018, 0.012237, -0.011564, 0.001802, -0.016466, -0.016501, 0.029993, -0.053767, 0.050265, 0.008197, -0.035047, 0.017982, 0.032480, -0.072011, 0.053416, 0.009127, -0.016098, 0.024126, 0.057412, -0.073817, 0.097726, -0.057864, 0.093850, -0.066254, -0.010777, -0.025500, 0.001661, 0.016752, 0.001961, 0.003386, -0.012595, -0.006720, -0.028344, 0.004162, -0.025677, 0.022066, 0.030267, -0.057793, -0.002106, 0.007252, 0.009686, -0.036445, 0.005189, -0.111958, 0.105612, -0.013545, 0.046434, -0.010789, -0.010891, -0.012055, -0.027262, 0.031068, 0.005385, -0.011509, 0.016454, 0.011181, -0.023602, -0.020741, 0.035996, -0.067247, -0.019148, -0.020124, -0.003616, 0.020256, 0.025614, -0.025341, 0.011618, -0.126399, 0.076980, 0.008772, 0.006000, -0.050195, -0.016448, -0.016152, -0.006197, 0.015928, 0.013550, -0.023670, -0.003579, 0.007418, -0.058894, 0.029646, 0.031397, -0.081119, 0.020085, -0.015500, -0.038138, 0.015090, 0.013648, -0.030404, -0.000211, -0.056123, 0.010463, 0.057825, 0.070015, -0.086872, -0.043109, 0.030366, -0.013559, 0.009080, 0.008983, 0.007118, 0.019136, -0.002018, -0.052653, 0.082293, 0.052134, -0.094482, 0.074476, 0.014381, -0.086829, 0.065199, 0.034115, -0.033507, 0.019460, 0.007786, -0.067559, 0.049523, 0.072736, -0.048317, -0.018464, -0.010667, -0.027407, -0.009737, 0.024953, 0.004198, -0.006943, 0.058952, -0.114201, 0.043702, 0.009473, -0.031997, 0.040361, -0.030646, 0.015004, 0.021844, 0.000300, -0.027438, -0.006093, -0.059887, 0.095496, -0.099315, 0.035608, -0.058432, -0.009970, -0.020223, 0.026781, -0.004675, -0.024640, 0.016037, -0.006679, 0.053474, -0.037121, 0.021982, 0.004607, -0.036153, -0.005102, 0.016178, -0.013230, -0.016883, 