// Overflow-Protected 2-Layer CNN Model with Labels
#ifndef MY_MODEL_H
#define MY_MODEL_H

// Class Labels
const char* myClassLabels[3] = {
  "keyboard",
  "whiteglue",
  "yellowcard"
};

#define USE_GRAYSCALE_MODE

const float myConv1_w[] = { -0.172904, 0.299563, -0.154562, 0.235400, 0.003429, 0.337599, 0.307846, -0.040979, -0.078121, 0.074114, -0.011179, 0.063339, -0.040857, 0.230194, -0.206967, -0.061621, -0.079363, -0.010133, 0.061193, 0.027480, 0.067239, -0.088110, 0.137906, -0.190100, 0.155243, 0.153001, 0.108572, 0.239913, -0.041052, 0.345895, 0.126814, 0.319516, 0.222013, 0.111375, 0.226292, 0.200356 };

const float myConv1_b[] = { -0.021039, -0.173250, -0.180986, -0.203803 };

const float myConv2_w[] = { 0.000000, 0.000009, -0.000000, 0.000000, -0.000000, 0.036462, 0.010582, -0.000107, 0.039481, -0.002740, -0.000000, -0.000000, -0.005348, -0.169722, -0.043850, -0.005085, -0.000000, -0.000007, 0.000000, -0.000000, -0.000000, -0.059871, 0.189299, -0.000553, 0.000021, -0.000000, 0.000000, 0.000000, -0.001604, -0.103076, -0.027227, -0.001174, -0.000000, 0.000029, 0.000000, -0.000000, 0.000000, 0.102421, -0.002868, -0.000001, -0.003078, -0.018530, 0.000000, 0.000000, -0.030632, -0.016009, 0.055315, -0.004479, -0.000000, 0.000005, 0.000000, -0.000000, -0.000000, 0.138846, 0.223067, -0.000768, -0.000076, 0.000006, 0.000000, 0.000000, -0.001335, -0.009196, 0.082024, -0.001289, 0.000000, 0.000035, -0.000000, 0.000000, -0.000003, 0.106103, 0.038313, 0.000057, 0.002766, -0.038506, -0.000000, -0.000000, -0.011466, 0.015703, 0.160306, -0.003996, -0.000000, 0.000140, 0.000000, -0.000000, -0.000002, 0.223333, 0.211998, -0.000869, -0.000015, 0.000108, -0.000000, 0.000000, 0.000423, 0.003861, 0.290977, -0.001493, -0.000000, 0.000004, 0.000000, 0.000000, -0.000000, 0.083472, -0.064129, -0.000039, -0.052124, -0.014487, -0.000000, -0.000000, -0.005177, -0.153716, 0.111176, -0.005009, -0.000000, 0.000021, -0.000000, 0.000000, -0.000000, 0.008803, 0.156867, -0.000639, -0.000015, -0.000014, 0.000000, 0.000000, -0.001673, -0.049780, 0.156244, -0.001359, 0.000000, 0.000045, 0.000000, -0.000000, 0.000000, 0.152038, -0.011020, -0.000140, -0.017959, 0.014054, 0.000000, 0.000000, -0.032898, -0.088463, -0.013039, -0.004769, 0.000000, 0.000064, 0.000000, 0.000000, -0.000002, 0.263079, 0.304534, -0.000812, -0.000046, 0.000020, 0.000000, 0.000000, -0.000523, 0.018597, 0.064766, -0.001414, 0.000000, 0.000023, 0.000000, 0.000000, -0.000005, 0.125858, 0.000316, -0.000095, 0.024381, 0.074240, 0.000000, 0.000000, -0.002232, 0.061566, 0.223228, -0.004927, -0.000000, 0.000067, -0.000000, -0.000000, -0.000002, 0.203753, 0.146697, -0.000860, -0.000055, 0.000236, -0.000000, 0.000000, -0.001591, 0.188490, 0.170292, -0.001571, 0.000000, 0.000003, 0.000000, -0.000000, -0.000000, 0.104744, 0.049842, -0.000041, 0.024605, -0.006176, 0.000000, 0.000000, 0.004578, -0.176991, 0.019282, -0.004581, -0.000000, -0.000002, 0.000000, 0.000000, -0.000002, 0.079641, 0.253311, -0.000816, 0.001058, -0.000025, 0.000000, -0.000000, -0.001903, -0.068581, 0.099842, -0.001501, 0.000000, 0.000029, -0.000000, 0.000000, -0.000000, 0.113481, 0.013757, 0.000021, -0.034630, -0.034181, -0.000000, 0.000000, -0.006793, 0.113767, 0.146028, -0.004719, 0.000000, 0.000080, -0.000000, -0.000000, -0.000000, 0.180258, 0.242762, -0.000921, 0.000022, 0.000086, -0.000000, 0.000000, -0.001787, 0.030632, 0.039831, -0.001576, 0.000000, 0.000014, 0.000000, -0.000000, -0.000003, 0.059756, -0.055585, -0.000164, -0.035894, -0.003455, -0.000000, -0.000000, -0.006440, 0.121149, -0.001786, -0.005427, -0.000000, 0.000153, -0.000000, -0.000000, -0.000003, 0.248382, 0.170525, -0.000973, -0.000152, 0.000116, 0.000000, 0.000000, -0.002148, 0.072668, 0.087211, -0.001763 };

const float myConv2_b[] = { -0.004192, -0.006741, -0.004526, -0.008867, 0.002923, 0.026615, -0.079308, 0.000754 };

const float myOutput_w[] = { 0.000000, -0.000000, 0.000000, 0.000000, -0.000002, 0.000003, 0.000000, 0.000000, -0.000000, -0.000000, -0.000000, -0.000000, -0.000112, -0.000906, 0.001003, 0.012840, 0.017928, -0.026209, 0.031075, 0.033757, -0.074787, 0.000051, -0.000360, 0.000303, 0.000000, 0.000000, 0.000000, 0.000000, 0.000000, -0.000000, 0.000000, 0.000000, 0.000000, -0.000000, -0.000000, -0.000000, -0.000106, -0.000673, 0.000766, 0.003121, 0.040438, -0.038467, 0.062278, 0.035051, -0.103701, 0.000038, -0.000332, 0.000287, -0.000000, 0.000000, -0.000000, -0.000021, 0.000986, -0.001014, 0.000000, -0.000000, 0.000000, -0.000000, 0.000000, 0.000000, -0.000090, -0.000409, 0.000456, -0.013532, 0.028026, -0.011089, 0.054423, 0.053031, -0.125102, -0.000020, -0.000165, 0.000141, 0.000000, -0.000000, -0.000000, -0.000000, -0.000001, -0.000000, 0.000000, 0.000000, 0.000000, -0.000000, 0.000000, -0.000000, -0.000030, -0.000420, 0.000334, -0.018019, 0.024828, -0.002471, 0.036140, 0.036271, -0.087934, 0.000037, -0.000060, 0.000031, 0.000000, 0.000000, -0.000000, -0.000000, -0.000000, -0.000000, 0.000000, -0.000000, 0.000000, -0.000000, -0.000000, 0.000000, -0.000091, -0.000336, 0.000325, 0.004682, -0.014769, 0.012006, 0.038709, 0.032916, -0.063071, -0.000026, -0.000109, 0.000094, 0.000000, -0.000000, 0.000000, 0.000000, -0.000000, 0.000000, 0.000000, 0.000000, 0.000000, -0.000000, -0.000000, -0.000000, -0.000012, -0.000059, 0.000059, 0.001085, -0.026670, 0.025586, 0.057651, -0.021947, -0.039580, 0.000005, -0.000181, 0.000083, 0.000000, -0.000000, 0.000000, 0.000000, 0.000000, 0.000000, -0.000000, 0.000000, -0.000000, -0.000000, 0.000000, 0.000000, -0.000010, -0.000053, -0.000006, 0.002009, -0.022855, 0.022563, 0.048854, -0.045410, -0.019235, 0.000005, -0.000094, -0.000004, 0.000000, -0.000000, 0.000000, 0.000000, 0.000000, 0.000000, 0.000000, -0.000000, -0.000000, 0.000000, -0.000000, -0.000000, 0.000000, 0.000004, -0.000004, 0.004293, -0.020671, 0.018688, 0.052315, -0.043321, -0.009620, 0.000029, -0.000127, 0.000017, -0.000000, -0.000000, 0.000000, 0.000000, 0.000000, 0.000000, -0.000000, 0.000000, -0.000000, -0.000000, 0.000000, 0.000000, -0.000000, 0.000024, -0.000017, 0.004229, -0.021617, 0.018102, 0.043058, -0.027848, -0.023197, 0.000012, -0.000146, 0.000014, 0.000000, -0.000000, -0.000000, -0.000000, 0.000000, 0.000000, 0.000000, -0.000000, 0.000000, -0.000000, 0.000000, 0.000000, -0.000000, 0.000002, -0.000001, 0.002931, -0.006475, 0.003965, 0.058734, -0.030559, -0.022055, -0.000017, -0.000133, 0.000030, 0.000000, 0.000000, 0.000000, 0.000000, 0.000000, -0.000000, 0.000000, 0.000000, 0.000000, -0.000000, -0.000000, 0.000000, -0.000000, 0.000019, -0.000018, 0.007130, -0.004513, -0.000054, 0.055520, 0.001783, -0.047535, -0.000036, 0.000073, -0.000054, -0.000000, 0.000000, 0.000000, -0.000000, -0.000000, 0.000000, -0.000000, 0.000000, -0.000000, 0.000000, 0.000000, 0.000000, 0.000000, 0.000003, -0.000002, 0.022508, -0.025608, 0.004248, 0.077944, -0.048099, -0.039916, -0.000032, -0.000135, 0.000048, -0.000000, 0.000000, -0.000000, -0.000000, -0.000000, -0.000000, 0.000000, -0.000000, -0.000000, 0.000000, -0.000000, -0.000000, 0.000000, 0.000019, -0.000009, 0.011797, -0.015602, 0.004168, 0.091488, -0.036903, -0.061259, -0.000034, -0.000090, 0.000020, -0.000000, -0.000000, -0.000000, 0.000000, -0.000000, 0.000000, 0.000000, -0.000000, -0.000000, -0.000000, -0.000000, 0.000000, -0.000000, 0.000010, -0.000011, -0.001902, 0.002842, -0.000519, 0.081894, -0.035757, -0.052179, -0.000024, -0.000128, 0.000044, 0.000000, 0.000000, 0.000000, -0.000113, 0.000133, -0.000000, 0.000000, 0.000000, -0.000000, -0.000000, 0.000000, 0.000000, -0.000000, 0.000002, -0.000005, -0.025321, 0.017451, 0.005133, 0.066755, -0.039371, -0.050938, 0.000000, -0.000075, -0.000017, 0.000000, -0.000000, 0.000000, -0.000000, -0.000000, 0.000000, 0.000000, -0.000000, -0.000000, -0.000000, 0.000000, -0.000000, -0.000000, 0.000001, -0.000001, -0.041764, 0.041083, -0.009402, 0.047683, -0.001988, -0.068422, -0.000000, -0.000059, -0.000032, 0.000000, -0.000000, -0.000000, 0.000000, 0.000000, 0.000000, -0.000000, 0.000000, -0.000000, -0.000000, 0.000000, -0.000000, 0.000000, -0.000000, 0.000000, 0.004404, 0.007273, -0.013330, 0.033883, 0.023510, -0.091568, -0.000002, -0.000058, 0.000005, 0.000000, -0.000000, 0.000000, -0.000000, 0.000000, 0.000000, 0.000000, -0.000000, 0.000000, 0.000000, 0.000000, -0.000000, -0.000000, -0.000000, 0.000000, 0.014835, -0.004638, -0.009685, 0.050380, 0.002953, -0.092725, -0.000008, -0.000001, -0.000074, 0.000000, 0.000000, 0.000000, 0.000000, 0.000000, 0.000000, 0.000000, -0.000000, -0.000000, 0.000000, -0.000000, 0.000000, 0.000000, -0.000000, 0.000000, 0.002503, 0.006446, -0.010249, 0.058746, 0.010997, -0.084999, -0.000002, 0.000008, -0.000027, -0.000000, -0.000000, 0.000000, 0.000360, -0.000298, -0.000000, -0.000000, 0.000000, -0.000000, -0.000000, 0.000000, 0.000000, 0.000000, 0.000001, -0.000001, 0.018930, -0.018733, -0.005064, 0.048311, 0.026431, -0.083881, -0.000001, 0.000027, -0.000017, 0.000000, -0.000000, 0.000000, -0.000010, -0.000043, 0.000000, 0.000000, 0.000000, -0.000000, -0.000000, -0.000000, -0.000000, 0.000000, 0.000000, -0.000001, 0.021868, -0.027251, -0.000503, 0.046073, 0.007003, -0.072019, -0.000005, 0.000095, -0.000104, -0.000000, -0.000000, 0.000000, -0.000000, 0.000000, 0.000000, 0.000000, -0.000000, 0.000000, -0.000000, -0.000000, 0.000000, 0.000000, -0.000000, 0.000000, 0.006557, -0.007607, 0.000093, 0.046824, 0.007697, -0.095065, -0.000001, 0.000088, -0.000086, -0.000000, 0.000000, 0.000000, 0.000005, -0.000009, -0.000000, 0.000000, -0.000000, -0.000000, 0.000000, -0.000000, -0.000000, 0.000000, -0.000000, 0.000000, 0.027716, -0.021593, -0.007444, 0.066121, 0.014759, -0.092734, -0.000004, 0.000077, -0.000078, 0.000000, 0.000000, 0.000000, -0.000000, -0.000000, -0.000000, 0.000000, 0.000000, -0.000000, 0.000000, 0.000000, -0.000000, -0.000000, 0.000001, -0.000001, 0.013737, -0.015394, 0.000019, 0.077414, -0.007574, -0.110996, -0.000003, 0.000111, -0.000102, -0.000000, -0.000000, 0.000000, 0.000000, -0.000000, 0.000000, 0.000000, -0.000000, -0.000000, 0.000000, -0.000000, 0.000000, -0.000000, -0.000000, 0.000000, -0.013906, 0.009685, 0.006553, 0.096244, -0.000907, -0.122149, -0.000000, 0.000044, -0.000016, -0.000000, 0.000000, 0.000000, -0.000000, -0.000000, 0.000000, -0.000000, 0.000000, -0.000000, 0.000000, 0.000000, 0.000000, 0.000000, 0.000000, -0.000000, -0.029730, 0.034410, -0.004648, 0.065774, 0.029469, -0.127693, -0.000000, 0.000022, -0.000020, 0.000000, 0.000000, 0.000000, 0.000000, -0.000000, 0.000000, -0.000000, 0.000000, 0.000000, -0.000000, 0.000000, 0.000000, 0.000000, -0.000000, 0.000000, -0.024109, 0.033611, -0.010059, 0.034289, 0.057726, -0.114564, -0.000002, 0.000025, -0.000029, 0.000000, -0.000000, 0.000000, -0.000000, -0.000000, 0.000000, -0.000000, -0.000000, 0.000000, -0.000000, 0.000000, 0.000000, -0.000000, -0.000000, 0.000000, -0.003611, 0.016043, -0.012846, 0.030877, 0.085835, -0.157644, -0.000002, 0.000076, -0.000079, 0.000000, -0.000000, 0.000000, -0.000000, -0.000000, 0.000000, -0.000000, 0.000000, 0.000000, -0.000000, -0.000000, -0.000000, 0.000000, 0.000000, -0.000001, 0.036435, -0.023717, -0.011942, 0.068515, 0.046302, -0.128027, -0.000003, 0.000005, 0.000004, -0.000000, -0.000000, 0.000000, -0.000000, -0.000008, 0.000009, -0.000000, 0.000000, -0.000000, 0.000000, -0.000000, -0.000000, -0.000101, -0.001005, 0.001132, 0.011644, 0.014256, -0.022178, 0.078175, -0.021886, -0.057685, 0.000068, -0.000315, 0.000247, 0.000000, -0.000000, 0.000000, -0.000000, -0.000006, 0.000006, 0.000000, 0.000000, -0.000000, 0.000000, 0.000000, 0.000000, -0.000006, -0.000527, 0.000551, 0.008875, 0.027109, -0.028316, 0.081338, 0.016454, -0.101313, 0.000022, -0.000376, 0.000376, -0.000000, 0.000000, 0.000000, 0.000002, 0.000001, -0.000001, -0.000000, 0.000000, -0.000000, 0.000000, -0.000000, -0.000000, -0.000087, -0.000382, 0.000423, -0.026771, 0.035795, -0.007554, 0.052967, 0.021297, -0.086359, -0.000017, -0.000230, 0.000267, 0.000000, 0.000000, 0.000000, 0.000000, -0.000000, 0.000000, -0.000000, -0.000000, 0.000000, -0.000000, -0.000000, 0.000000, -0.000013, -0.000209, 0.000139, -0.027592, 0.027496, 0.005733, 0.026080, 0.040416, -0.072476, -0.000023, -0.000033, 0.000032, -0.000000, 0.000000, 0.000000, -0.000006, -0.000013, 0.000024, 0.000000, -0.000000, 0.000000, -0.000000, -0.000000, -0.000000, -0.000122, -0.000245, 0.000216, -0.010201, -0.013763, 0.023812, 0.020292, 0.012308, -0.030128, 0.000024, -0.000167, 0.000094, 0.000000, -0.000000, -0.000000, 0.000000, 0.000000, -0.000000, 0.000000, 0.000000, 0.000000, -0.000000, -0.000000, 0.000000, -0.000009, -0.000041, 0.000006, 0.000755, -0.036665, 0.036855, 0.047287, -0.034617, -0.009399, 0.000015, 0.000019, 0.000013, 0.000000, -0.000000, -0.000000, -0.000000, 0.000000, -0.000000, -0.000000, -0.000000, -0.000000, -0.000000, -0.000000, -0.000000, 0.000011, -0.000066, -0.000017, -0.006835, -0.022127, 0.033107, 0.045159, -0.063781, 0.012323, -0.000007, -0.000054, 0.000037, -0.000000, 0.000000, -0.000000, -0.000000, -0.000000, 0.000000, 0.000000, -0.000000, -0.000000, 0.000000, -0.000000, 0.000000, -0.000018, -0.000081, -0.000014, -0.007090, -0.015489, 0.024308, 0.041715, -0.056396, 0.003284, 0.000002, -0.000090, -0.000060, -0.000000, -0.000000, -0.000000, 0.000000, 0.000000, 0.000000, -0.000000, -0.000000, -0.000000, -0.000000, -0.000000, 0.000000, 0.000000, 0.000002, 0.000000, 0.006305, -0.021957, 0.015166, 0.032367, -0.020155, -0.015661, 0.000010, -0.000152, -0.000036, -0.000000, -0.000000, 0.000000, -0.000000, -0.000000, 0.000000, 0.000000, -0.000000, 0.000000, -0.000000, 0.000000, -0.000000, 0.000000, 0.000019, -0.000014, 0.011947, -0.014186, 0.004175, 0.033882, -0.039660, 0.003937, -0.000007, -0.000039, 0.000000, -0.000000, -0.000000, -0.000000, 0.000000, -0.000000, 0.000000, 0.000000, -0.000000, -0.000000, 0.000000, 0.000000, -0.000000, 0.000000, 0.000007, -0.000001, 0.005862, -0.001038, -0.002353, 0.055522, -0.018377, -0.039306, -0.000039, -0.000046, -0.000090, -0.000000, -0.000000, -0.000000, 0.000000, 0.000000, 0.000000, 0.000000, -0.000000, -0.000000, -0.000000, 0.000000, -0.000000, 0.000000, 0.000005, -0.000005, 0.016409, -0.020561, 0.004625, 0.070902, -0.028502, -0.031452, 0.000001, 0.000013, -0.000020, 0.000000, -0.000000, -0.000000, 0.000000, 0.000000, -0.000000, 0.000000, 0.000000, -0.000000, 0.000000, 0.000000, 0.000000, -0.000000, 0.000001, -0.000001, 0.016813, -0.028565, 0.010193, 0.094761, -0.045479, -0.041077, 0.000003, -0.000033, 0.000012, 0.000000, 0.000000, 0.000000, 0.000000, 0.000000, -0.000000, -0.000000, 0.000000, 0.000000, 0.000000, 0.000000, -0.000000, -0.000000, 0.000011, -0.000007, -0.007533, 0.000144, 0.005425, 0.089428, -0.046820, -0.044835, -0.000001, -0.000094, -0.000005, -0.000000, -0.000000, -0.000000, 0.000133, -0.000045, -0.000000, 0.000000, 0.000000, 0.000000, 0.000000, 0.000000, 0.000000, 0.000000, 0.000014, -0.000009, -0.023598, 0.021839, -0.003816, 0.050671, -0.021490, -0.037012, -0.000006, -0.000062, 0.000023, 0.000000, -0.000000, 0.000000, 0.000000, -0.000000, 0.000000, 0.000000, -0.000000, -0.000000, -0.000000, -0.000000, 0.000000, -0.000000, -0.000002, 0.000002, -0.032046, 0.044600, -0.016803, 0.066228, -0.014516, -0.062071, -0.000006, -0.000031, -0.000019, 0.000000, -0.000000, 0.000000, -0.000000, 0.000000, -0.000000, 0.000000, 0.000000, 0.000000, -0.000000, -0.000000, 0.000000, 0.000000, -0.000000, 0.000000, -0.007916, 0.027307, -0.018368, 0.007604, 0.040056, -0.070059, -0.000002, -0.000115, 0.000018, 0.000000, 0.000000, 0.000000, -0.000000, -0.000000, -0.000000, 0.000000, 0.000000, -0.000000, -0.000000, -0.000000, 0.000000, 0.000000, 0.000000, -0.000000, -0.004642, 0.017677, -0.015951, 0.040072, 0.018066, -0.085192, -0.000005, 0.000049, -0.000072, 0.000000, -0.000000, 0.000000, 0.000000, -0.000000, 0.000000, 0.000000, 0.000000, -0.000000, 0.000000, 0.000000, 0.000000, 0.000000, 0.000000, -0.000001, -0.015560, 0.030055, -0.022135, 0.010956, 0.039764, -0.069292, -0.000003, 0.000144, -0.000137, 0.000000, 0.000000, -0.000000, 0.000186, -0.000161, -0.000000, 0.000000, -0.000000, 0.000000, -0.000000, 0.000000, 0.000000, 0.000000, -0.000000, 0.000000, -0.020406, 0.033982, -0.019695, 0.060054, 0.024397, -0.074313, -0.000004, 0.000069, -0.000069, -0.000000, -0.000000, -0.000000, 0.000000, 0.000000, -0.000000, -0.000000, 0.000000, -0.000000, -0.000000, -0.000000, 0.000000, 0.000000, -0.000000, 0.000000, 0.012731, 0.002125, -0.020214, 0.035365, 0.040617, -0.107594, -0.000001, 0.000049, -0.000039, 0.000000, 0.000000, 0.000000, 0.000000, 0.000000, 0.000000, 0.000000, 0.000000, -0.000000, 0.000000, -0.000000, 0.000000, 0.000000, 0.000000, -0.000001, 0.014338, -0.008405, -0.005467, 0.055740, 0.019248, -0.066101, -0.000001, 0.000063, -0.000089, 0.000000, -0.000000, -0.000000, 0.000000, 0.000000, -0.000000, -0.000000, 0.000000, -0.000000, 0.000000, -0.000000, 0.000000, 0.000000, 0.000000, -0.000001, 0.010828, -0.012869, 0.000500, 0.044146, -0.000060, -0.072969, -0.000004, 0.000048, -0.000045, 0.000000, 0.000000, -0.000000, 0.000000, -0.000000, 0.000000, -0.000000, 0.000000, 0.000000, 0.000000, 0.000000, 0.000000, -0.000000, 0.000001, -0.000001, 0.013372, -0.029106, 0.015810, 0.053283, 0.024866, -0.093360, -0.000002, 0.000021, -0.000001, 0.000000, -0.000000, -0.000000, -0.000000, 0.000000, 0.000000, -0.000000, -0.000000, -0.000000, 0.000000, 0.000000, 0.000000, 0.000000, -0.000001, 0.000000, -0.014536, 0.006978, 0.006556, 0.022730, 0.027389, -0.064520, -0.000001, 0.000085, -0.000073, -0.000000, 0.000000, 0.000000, -0.000000, -0.000000, 0.000001, 0.000000, -0.000000, -0.000000, 0.000000, 0.000000, -0.000000, 0.000000, -0.000000, -0.000000, -0.044012, 0.039894, 0.000761, 0.042992, 0.026669, -0.093923, -0.000001, 0.000006, -0.000017, -0.000000, 0.000000, -0.000000, 0.000000, -0.000000, -0.000000, -0.000000, -0.000000, -0.000000, 0.000000, 0.000000, -0.000000, -0.000000, -0.000000, 0.000000, -0.015349, 0.015761, 0.002788, 0.040343, 0.048108, -0.095473, -0.000002, 0.000100, -0.000108, -0.000000, -0.000000, -0.000000, 0.000000, 0.000000, 0.000000, 0.000000, -0.000000, -0.000000, 0.000000, -0.000000, -0.000000, 0.000000, 0.000000, -0.000001, 0.002309, 0.003665, -0.006361, 0.038740, 0.045757, -0.118673, -0.000002, 0.000045, -0.000093, 0.000000, -0.000000, -0.000000, 0.000000, -0.000000, -0.000000, 0.000000, -0.000000, 0.000000, -0.000000, 0.000000, -0.000000, -0.000000, 0.000000, 0.000000, 0.024758, -0.017788, -0.006540, 0.059665, 0.051932, -0.115807, -0.000003, 0.000104, -0.000074, 0.000000, -0.000000, -0.000000, -0.000000, 0.000064, -0.000023, 0.000000, -0.000000, -0.000000, 0.000000, -0.000000, 0.000000, -0.000086, -0.000750, 0.000819, 0.014211, 0.025468, -0.028661, 0.067942, -0.025815, -0.033645, 0.000028, -0.000493, 0.000502, -0.000000, 0.000000, 0.000000, -0.000001, -0.000008, 0.000010, 0.000000, -0.000000, 0.000000, -0.000000, -0.000000, 0.000000, -0.000093, -0.000296, 0.000359, -0.000056, 0.025935, -0.016504, 0.062867, 0.007331, -0.066102, 0.000062, -0.000405, 0.000353, -0.000000, -0.000000, -0.000000, -0.000000, 0.000006, -0.000005, -0.000000, -0.000000, -0.000000, -0.000000, -0.000000, -0.000000, -0.000073, -0.000567, 0.000604, -0.035384, 0.035388, 0.005321, 0.054984, 0.019522, -0.069693, 0.000017, -0.000114, 0.000107, 0.000000, -0.000002, 0.000002, 0.000000, -0.000000, 0.000000, 0.000000, 0.000000, -0.000000, 0.000000, 0.000000, -0.000000, -0.000101, -0.000442, 0.000447, -0.046377, 0.034864, 0.014269, -0.006304, 0.052358, -0.050199, -0.000013, -0.000082, 0.000026, 0.000000, -0.000000, -0.000000, -0.000001, -0.000003, 0.000008, -0.000000, -0.000000, 0.000000, -0.000000, 0.000000, -0.000000, -0.000072, -0.000052, 0.000090, -0.011870, -0.018719, 0.030506, -0.003492, 0.000193, -0.009415, 0.000012, -0.000012, -0.000001, -0.000000, -0.000000, 0.000000, 0.000000, 0.000005, -0.000005, 0.000000, 0.000000, -0.000000, 0.000000, 0.000000, 0.000000, -0.000002, -0.000090, 0.000090, -0.010017, -0.034209, 0.045391, 0.018904, -0.043635, 0.023614, -0.000032, -0.000036, 0.000021, 0.000000, -0.000000, -0.000000, -0.000001, -0.000000, 0.000001, 0.000000, -0.000000, -0.000000, -0.000000, 0.000000, -0.000000, -0.000008, -0.000084, 0.000043, -0.000615, -0.016149, 0.020227, -0.011687, -0.038276, 0.033178, 0.000007, -0.000109, -0.000023, 0.000000, -0.000000, 0.000000, -0.000000, -0.000000, -0.000000, -0.000000, 0.000000, 0.000000, 0.000000, 0.000000, 0.000000, 0.000000, -0.000000, 0.000000, -0.001196, -0.021376, 0.024041, 0.016801, -0.014893, -0.017488, -0.000033, -0.000014, -0.000071, -0.000000, 0.000000, 0.000000, 0.000000, -0.000000, -0.000000, -0.000000, 0.000000, -0.000000, -0.000000, 0.000000, 0.000000, -0.000000, 0.000001, -0.000001, 0.006971, -0.015619, 0.008849, 0.015583, -0.028325, 0.006166, 0.000009, -0.000040, -0.000023, 0.000000, -0.000000, -0.000000, -0.000000, -0.000000, 0.000000, -0.000000, -0.000000, -0.000000, -0.000000, 0.000000, -0.000000, -0.000000, 0.000001, -0.000001, 0.013071, -0.009332, -0.003651, 0.031564, -0.027571, -0.019179, -0.000057, 0.000036, -0.000039, 0.000000, 0.000000, 0.000000, -0.000000, -0.000000, 0.000000, 0.000000, 0.000000, -0.000000, -0.000000, 0.000000, 0.000000, -0.000000, 0.000000, -0.000000, 0.027081, -0.014173, -0.010874, 0.037171, -0.022745, -0.006613, -0.000039, 0.000059, -0.000051, -0.000000, 0.000000, 0.000000, 0.000000, -0.000000, -0.000000, 0.000000, 0.000000, -0.000000, -0.000000, -0.000000, 0.000000, -0.000000, 0.000001, -0.000001, 0.031242, -0.037012, 0.006361, 0.073496, -0.060079, -0.016384, -0.000056, 0.000026, -0.000055, -0.000000, -0.000000, -0.000000, -0.000000, -0.000000, -0.000000, 0.000000, -0.000000, -0.000000, -0.000000, -0.000000, 0.000000, -0.000000, 0.000001, -0.000001, 0.010923, -0.024338, 0.012317, 0.041987, -0.053534, -0.002646, -0.000000, 0.000083, -0.000072, -0.000000, -0.000000, 0.000000, 0.000000, -0.000000, -0.000000, 0.000000, 0.000000, 0.000000, -0.000000, -0.000000, -0.000000, -0.000000, 0.000001, -0.000001, -0.004343, 0.003248, 0.000938, 0.076451, -0.038994, -0.025270, -0.000042, 0.000011, -0.000064, 0.000000, 0.000000, 0.000000, -0.000000, -0.000000, 0.000000, 0.000000, -0.000000, -0.000000, -0.000000, 0.000000, -0.000000, 0.000000, -0.000002, -0.000001, -0.006439, 0.019052, -0.014453, 0.050862, -0.045829, -0.021930, -0.000016, -0.000066, -0.000040, -0.000000, -0.000000, -0.000000, 0.000000, 0.000000, 0.000000, 0.000000, -0.000000, -0.000000, -0.000000, -0.000000, -0.000000, 0.000000, 0.000001, -0.000001, -0.024181, 0.032940, -0.010405, 0.040200, 0.001703, -0.063497, -0.000005, -0.000041, -0.000006, 0.000000, -0.000000, 0.000000, -0.000000, 0.000000, -0.000000, 0.000000, 0.000000, 0.000000, -0.000000, -0.000000, -0.000000, 0.000000, 0.000001, -0.000001, -0.003862, 0.021366, -0.017893, 0.033556, 0.006664, -0.051546, -0.000004, -0.000074, 0.000003, -0.000000, 0.000000, -0.000000, -0.000024, 0.000029, -0.000000, 0.000000, -0.000000, 0.000000, -0.000000, -0.000000, -0.000000, 0.000000, -0.000000, 0.000000, -0.021888, 0.037267, -0.018825, 0.038428, -0.000246, -0.050584, -0.000004, -0.000005, -0.000008, -0.000000, 0.000000, 0.000000, 0.000000, 0.000000, -0.000000, 0.000000, 0.000000, 0.000000, 0.000000, 0.000000, -0.000000, 0.000000, 0.000001, -0.000001, -0.036159, 0.045062, -0.014181, 0.029791, 0.012748, -0.066311, 0.000000, 0.000082, -0.000081, 0.000000, -0.000000, -0.000000, 0.000004, -0.000003, -0.000000, 0.000000, 0.000000, -0.000000, -0.000000, 0.000000, -0.000000, 0.000000, 0.000001, -0.000001, -0.029158, 0.044376, -0.022498, 0.032627, 0.016310, -0.076800, -0.000003, 0.000101, -0.000112, 0.000000, -0.000000, -0.000000, 0.000000, 0.000000, 0.000000, 0.000000, -0.000000, -0.000000, 0.000000, -0.000000, -0.000000, 0.000000, 0.000001, -0.000001, -0.023447, 0.035103, -0.018055, 0.021964, 0.036007, -0.088653, -0.000004, 0.000124, -0.000075, 0.000000, -0.000000, -0.000000, 0.000001, -0.000001, -0.000000, -0.000000, 0.000000, -0.000000, -0.000000, 0.000000, -0.000000, 0.000000, 0.000001, -0.000001, 0.003435, 0.005273, -0.007530, 0.035767, 0.058856, -0.092780, -0.000004, 0.000042, -0.000031, -0.000000, -0.000000, -0.000000, -0.000000, 0.000000, 0.000000, -0.000000, 0.000000, -0.000000, -0.000000, -0.000000, 0.000000, -0.000000, -0.000000, 0.000000, 0.004873, -0.010579, 0.006271, 0.018102, 0.028630, -0.070420, -0.000001, 0.000012, -0.000014, -0.000000, -0.000000, -0.000000, 0.000000, -0.000000, -0.000000, 0.000000, 0.000000, 0.000000, 0.000000, -0.000000, 0.000000, 0.000000, 0.000000, -0.000000, 0.003802, -0.020090, 0.019001, 0.022815, 0.015440, -0.064438, -0.000001, 0.000108, -0.000100, 0.000000, -0.000000, 0.000000, -0.000000, -0.000008, 0.000014, -0.000000, -0.000000, 0.000000, 0.000000, -0.000000, -0.000000, 0.000000, 0.000001, -0.000001, 0.008311, -0.029134, 0.025082, 0.030582, 0.013765, -0.058418, -0.000000, 0.000087, -0.000073, -0.000000, 0.000000, 0.000000, -0.000000, -0.000001, 0.000001, -0.000000, 0.000000, 0.000000, 0.000000, 0.000000, 0.000000, 0.000000, -0.000000, 0.000000, -0.014844, 0.003056, 0.013827, 0.016376, 0.040372, -0.067291, -0.000000, 0.000004, -0.000003, 0.000000, -0.000000, 0.000000, 0.000000, -0.000000, -0.000000, 0.000000, 0.000000, 0.000000, 0.000000, 0.000000, -0.000000, -0.000000, -0.000000, 0.000000, -0.010591, 0.003564, 0.010610, 0.065493, 0.018105, -0.082203, -0.000001, 0.000086, -0.000093, 0.000000, 0.000000, -0.000000, -0.000000, -0.000000, 0.000000, -0.000000, -0.000000, -0.000000, -0.000000, -0.000000, -0.000000, 0.000000, 0.000001, -0.000001, 0.023764, -0.027892, 0.008507, 0.039836, 0.043123, -0.091810, -0.000000, 0.000102, -0.000096, -0.000000, -0.000000, -0.000000, 0.000000, -0.000000, 0.000000, 0.000000, 0.000000, -0.000000, -0.000000, 0.000000, -0.000000, 0.000000, 0.000000, -0.000000, 0.015341, -0.014375, 0.000440, 0.048426, 0.033700, -0.102364, -0.000003, 0.000029, -0.000022, -0.000000, -0.000000, -0.000000, -0.000146, -0.000040, 0.000353, 0.000000, 0.000000, 0.000000, -0.000000, 0.000000, 0.000000, -0.000002, -0.000876, 0.000929, 0.007541, 0.026823, -0.021005, 0.076666, -0.050891, -0.021381, 0.000100, -0.000142, 0.000076, 0.000000, 0.000000, -0.000000, -0.000011, -0.000044, 0.000092, -0.000000, 0.000000, 0.000000, -0.000000, -0.000000, 0.000000, -0.000002, -0.000897, 0.000931, -0.018561, 0.034441, -0.010469, 0.051295, -0.006653, -0.040452, 0.000019, -0.000343, 0.000345, -0.000000, 0.000000, 0.000000, -0.000003, 0.000006, 0.000000, -0.000000, 0.000000, -0.000000, 0.000000, 0.000000, -0.000000, -0.000015, -0.000303, 0.000314, -0.048419, 0.045315, 0.006407, -0.000235, 0.016623, -0.033695, 0.000014, -0.000103, 0.000112, -0.000000, -0.000000, 0.000000, 0.000000, 0.000000, 0.000000, 0.000000, -0.000000, -0.000000, -0.000000, -0.000000, 0.000000, -0.000089, -0.000352, 0.000385, -0.041999, 0.022811, 0.020499, 0.010858, 0.034444, -0.024080, 0.000028, -0.000152, 0.000035, -0.000000, 0.000000, -0.000000, 0.000000, 0.000000, -0.000000, 0.000000, 0.000000, 0.000000, 0.000000, 0.000000, 0.000000, -0.000046, -0.000166, 0.000211, -0.011167, -0.029256, 0.040380, -0.007065, -0.022632, 0.033344, 0.000026, -0.000172, 0.000108, -0.000000, -0.000000, -0.000000, 0.000000, 0.000000, -0.000001, -0.000000, -0.000000, -0.000000, 0.000000, 0.000000, -0.000000, 0.000000, -0.000104, 0.000137, -0.006662, -0.034750, 0.042413, -0.007924, -0.037658, 0.038299, 0.000010, -0.000005, -0.000026, -0.000000, -0.000000, 0.000000, -0.000000, 0.000001, -0.000002, 0.000000, 0.000000, 0.000000, -0.000000, 0.000000, -0.000000, -0.000000, -0.000100, 0.000109, 0.000361, -0.023219, 0.024454, -0.008527, -0.039077, 0.035226, -0.000021, -0.000070, -0.000015, 0.000000, 0.000000, 0.000000, 0.000000, 0.000000, 0.000000, 0.000000, -0.000000, -0.000000, -0.000000, 0.000000, 0.000000, 0.000000, -0.000000, 0.000004, 0.018897, -0.028605, 0.009273, 0.021710, -0.039758, 0.012820, -0.000047, -0.000007, -0.000064, -0.000000, 0.000000, -0.000000, -0.000000, 0.000000, 0.000000, 0.000000, 0.000000, -0.000000, -0.000000, 0.000000, -0.000000, 0.000000, 0.000001, -0.000001, 0.015802, -0.014342, -0.002057, 0.012366, -0.024977, -0.015731, 0.000006, -0.000037, -0.000014, -0.000000, 0.000000, 0.000000, -0.000000, -0.000000, 0.000000, -0.000000, 0.000000, 0.000000, 0.000000, -0.000000, -0.000000, 0.000000, -0.000000, 0.000000, 0.026351, -0.006147, -0.017186, 0.048471, -0.033821, -0.003184, -0.000058, 0.000032, -0.000023, 0.000000, -0.000000, -0.000000, -0.000000, 0.000000, -0.000000, -0.000000, -0.000000, 0.000000, 0.000000, 0.000000, -0.000000, -0.000000, 0.000001, -0.000001, 0.022934, -0.013338, -0.006323, 0.032795, -0.027381, -0.019966, 0.000003, -0.000007, -0.000038, 0.000000, -0.000000, -0.000000, -0.000000, 0.000000, 0.000000, -0.000000, 0.000000, 0.000000, 0.000000, -0.000000, 0.000000, 0.000000, 0.000001, -0.000001, 0.021676, -0.025064, 0.004753, 0.092384, -0.051656, -0.025716, -0.000006, 0.000073, -0.000056, -0.000000, 0.000000, -0.000000, -0.000000, 0.000025, -0.000025, 0.000000, -0.000000, -0.000000, 0.000000, 0.000000, -0.000000, -0.000000, 0.000001, -0.000001, -0.002102, -0.008527, 0.010495, 0.074356, -0.051099, -0.019651, 0.000002, -0.000020, -0.000003, -0.000000, -0.000000, -0.000000, 0.000000, 0.000000, -0.000000, -0.000000, -0.000000, 0.000000, -0.000000, -0.000000, -0.000000, -0.000000, 0.000000, 0.000001, -0.011084, 0.018171, -0.004079, 0.054466, -0.038619, -0.000087, -0.000037, 0.000024, -0.000049, -0.000000, -0.000000, -0.000000, -0.000000, 0.000000, -0.000000, 0.000000, -0.000000, -0.000000, 0.000000, 0.000000, -0.000000, 0.000000, -0.000000, 0.000000, -0.012139, 0.018812, -0.007635, 0.035121, 0.000277, -0.049768, -0.000027, 0.000042, -0.000086, 0.000000, 0.000000, 0.000000, -0.000000, 0.000000, 0.000000, -0.000000, -0.000000, 0.000000, 0.000000, -0.000000, 0.000000, -0.000000, 0.000001, -0.000001, -0.021081, 0.009742, 0.009856, 0.035952, -0.028460, -0.030915, -0.000005, 0.000013, -0.000102, 0.000000, -0.000000, 0.000000, 0.000000, 0.000000, 0.000000, 0.000000, -0.000000, -0.000000, -0.000000, -0.000000, -0.000000, -0.000000, -0.000000, 0.000000, -0.017482, 0.009423, 0.004841, 0.058095, -0.047278, -0.028349, 0.000001, -0.000017, -0.000041, 0.000000, 0.000000, 0.000000, -0.000000, 0.000000, 0.000000, 0.000000, -0.000000, 0.000000, -0.000000, 0.000000, 0.000000, 0.000000, -0.000000, 0.000000, -0.013459, 0.005041, 0.008643, 0.008217, -0.008048, -0.009272, 0.000001, 0.000014, -0.000035, 0.000000, 0.000000, -0.000000, 0.000000, -0.000000, -0.000000, 0.000000, -0.000000, 0.000000, 0.000000, -0.000000, 0.000000, 0.000000, 0.000001, -0.000001, -0.006617, 0.012101, -0.007231, 0.014313, 0.025614, -0.048320, -0.000002, 0.000008, -0.000028, -0.000000, 0.000000, 0.000000, -0.000000, -0.000000, 0.000000, -0.000000, -0.000000, -0.000000, 0.000000, 0.000000, -0.000000, 0.000000, 0.000000, -0.000001, -0.037219, 0.047010, -0.016426, 0.008579, 0.016964, -0.079785, -0.000003, 0.000100, -0.000138, 0.000000, -0.000000, -0.000000, -0.000000, 0.000000, -0.000000, 0.000000, -0.000000, 0.000000, 0.000000, -0.000000, -0.000000, 0.000000, 0.000000, -0.000000, -0.023913, 0.036573, -0.019751, 0.015035, 0.043692, -0.068459, -0.000003, 0.000031, -0.000045, -0.000000, 0.000000, 0.000000, -0.000000, -0.000000, 0.000000, -0.000000, 0.000000, 0.000000, 0.000000, 0.000000, -0.000000, -0.000000, 0.000000, -0.000000, -0.005432, 0.009842, -0.005560, 0.022935, 0.036565, -0.090733, -0.000002, 0.000129, -0.000125, -0.000000, -0.000000, 0.000000, 0.000000, 0.000000, -0.000000, -0.000000, -0.000000, 0.000000, -0.000000, -0.000000, 0.000000, 0.000000, -0.000000, 0.000000, 0.000786, 0.006119, -0.008038, 0.035552, 0.031729, -0.085382, -0.000000, 0.000032, -0.000027, -0.000000, 0.000000, 0.000000, -0.000000, -0.000000, -0.000000, 0.000000, 0.000000, -0.000000, 0.000000, 0.000000, -0.000000, 0.000000, 0.000000, -0.000000, 0.008307, -0.015466, 0.011134, 0.011637, 0.061992, -0.069214, -0.000000, 0.000108, -0.000119, -0.000000, -0.000000, -0.000000, -0.000000, -0.001720, 0.002164, -0.000000, -0.000000, -0.000000, -0.000000, 0.000000, 0.000000, 0.000000, -0.000000, 0.000000, 0.006465, -0.020058, 0.014898, 0.029856, 0.005123, -0.063011, -0.000000, 0.000100, -0.000101, -0.000000, 0.000000, 0.000000, -0.000000, -0.000001, 0.000000, 0.000000, 0.000000, 0.000000, -0.000000, 0.000000, -0.000000, -0.000000, -0.000000, -0.000000, -0.003232, -0.011330, 0.014519, 0.035611, 0.023366, -0.076927, -0.000000, 0.000101, -0.000089, 0.000000, -0.000000, -0.000000, -0.000000, 0.000000, 0.000000, -0.000000, 0.000000, 0.000000, -0.000000, -0.000000, -0.000000, 0.000000, -0.000001, 0.000000, -0.000014, -0.011598, 0.017868, 0.052493, 0.032737, -0.088776, -0.000000, 0.000057, -0.000060, 0.000000, 0.000000, 0.000000, -0.000000, -0.000001, 0.000000, 0.000000, -0.000000, -0.000000, -0.000000, -0.000000, 0.000000, -0.000000, -0.000000, -0.000000, 0.021990, -0.024344, 0.001389, 0.067223, -0.001134, -0.064255, -0.000002, 0.000009, -0.000005, -0.000000, -0.000000, 0.000000, -0.000000, -0.000000, 0.000000, 0.000000, -0.000000, -0.000000, 0.000000, -0.000000, 0.000000, 0.000000, 0.000001, -0.000001, 0.010770, -0.017791, 0.010311, 0.080362, -0.027793, -0.081448, -0.000003, 0.000088, -0.000084, 0.000000, 0.000000, -0.000000, 0.000000, -0.000009, 0.000009, -0.000000, -0.000000, -0.000000, 0.000000, -0.000000, -0.000000, 0.000000, -0.000705, 0.000745, -0.001488, 0.022749, -0.012301, 0.043018, -0.037041, -0.012577, 0.000046, -0.000414, 0.000390, 0.000000, -0.000000, -0.000000, -0.000005, -0.000043, 0.000069, 0.000000, -0.000000, 0.000000, 0.000000, -0.000000, -0.000000, -0.000068, -0.000661, 0.000727, -0.020279, 0.037002, -0.011715, 0.026440, 0.015273, -0.047673, 0.000066, -0.000190, 0.000115, 0.000000, -0.000000, -0.000000, -0.000003, 0.000012, -0.000003, 0.000000, -0.000000, -0.000000, -0.000000, -0.000000, 0.000000, -0.000043, -0.000377, 0.000420, -0.057039, 0.050762, 0.007011, -0.016758, 0.026353, -0.009773, 0.000004, -0.000005, 0.000004, 0.000000, 0.000000, -0.000000, -0.000000, -0.000062, 0.000065, -0.000000, 0.000000, -0.000000, 0.000000, -0.000000, 0.000000, -0.000001, -0.000070, 0.000072, -0.029897, 0.020242, 0.009278, -0.010527, 0.001587, 0.018914, 0.000014, -0.000078, 0.000019, 0.000000, -0.000000, 0.000000, 0.000000, 0.000000, -0.000000, 0.000000, 0.000000, 0.000000, 0.000000, -0.000000, -0.000000, -0.000010, -0.000119, 0.000129, -0.003846, -0.037262, 0.039219, 0.001138, -0.029976, 0.018155, 0.000032, -0.000180, 0.000090, 0.000000, -0.000000, 0.000000, -0.000000, 0.000000, 0.000000, -0.000000, 0.000000, 0.000000, -0.000000, 0.000000, 0.000000, 0.000000, -0.000086, 0.000107, 0.004239, -0.033081, 0.027965, 0.012789, -0.054851, 0.035856, -0.000033, 0.000032, -0.000074, -0.000000, 0.000000, -0.000000, -0.000000, -0.000000, -0.000000, -0.000000, -0.000000, 0.000000, 0.000000, -0.000000, -0.000000, 0.000000, -0.000083, 0.000098, 0.001928, -0.028449, 0.026403, 0.022171, -0.055588, 0.039727, 0.000006, -0.000068, -0.000037, -0.000000, -0.000000, 0.000000, -0.000000, -0.000000, -0.000000, -0.000000, -0.000000, -0.000000, -0.000000, 0.000000, 0.000000, -0.000000, -0.000009, 0.000012, 0.016133, -0.023202, 0.006740, 0.008206, -0.053606, 0.039874, -0.000063, -0.000009, -0.000038, 0.000000, -0.000000, 0.000000, 0.000000, -0.000000, -0.000000, 0.000000, -0.000000, -0.000000, -0.000000, 0.000000, -0.000000, 0.000000, -0.000000, 0.000000, 0.019877, -0.005407, -0.014188, 0.016563, -0.040010, 0.035593, -0.000052, 0.000023, -0.000081, 0.000000, -0.000000, -0.000000, 0.000000, 0.000000, 0.000000, 0.000000, 0.000000, -0.000000, -0.000000, -0.000000, 0.000000, -0.000000, 0.000001, -0.000001, 0.012847, 0.002218, -0.014685, 0.025099, -0.050308, 0.022103, -0.000059, 0.000088, -0.000081, -0.000000, 0.000000, -0.000000, 0.000000, -0.000000, 0.000000, 0.000000, 0.000000, 0.000000, -0.000000, 0.000000, 0.000000, 0.000000, 0.000001, -0.000001, 0.010927, -0.008209, 0.000519, 0.049135, -0.036619, -0.017893, -0.000052, 0.000074, -0.000071, 0.000000, 0.000000, -0.000000, 0.000000, -0.000000, -0.000000, 0.000000, -0.000000, -0.000000, 0.000000, -0.000000, 0.000000, 0.000000, -0.000000, 0.000001, 0.005071, 0.001352, -0.006449, 0.073804, -0.051468, -0.015434, -0.000053, 0.000096, -0.000061, 0.000000, 0.000000, -0.000000, -0.000004, 0.000036, -0.000046, 0.000000, 0.000000, 0.000000, 0.000000, 0.000000, -0.000000, -0.000000, -0.000000, 0.000000, -0.005776, 0.018916, -0.010983, 0.030109, -0.034762, -0.007336, -0.000049, 0.000116, -0.000084, 0.000000, 0.000000, -0.000000, -0.000014, 0.000080, -0.000068, 0.000000, 0.000000, 0.000000, -0.000000, -0.000000, 0.000000, 0.000000, 0.000001, -0.000000, -0.021820, 0.022108, 0.002084, 0.021334, -0.039069, -0.022579, -0.000003, 0.000003, -0.000006, -0.000000, -0.000000, 0.000000, 0.000000, -0.000000, 0.000000, -0.000000, -0.000000, 0.000000, -0.000000, 0.000000, -0.000000, 0.000000, 0.000001, -0.000001, -0.011271, -0.009006, 0.021519, 0.016300, -0.015330, -0.035418, -0.000038, 0.000058, -0.000080, -0.000000, 0.000000, 0.000000, 0.000000, 0.000000, 0.000000, 0.000000, 0.000000, 0.000000, 0.000000, 0.000000, 0.000000, 0.000000, 0.000001, -0.000001, 0.000415, -0.012750, 0.009945, 0.019647, -0.035285, -0.004848, -0.000004, 0.000034, -0.000097, -0.000000, 0.000000, 0.000000, 0.000000, 0.000000, 0.000000, 0.000000, 0.000000, -0.000000, -0.000000, 0.000000, -0.000000, -0.000000, 0.000000, -0.000000, -0.012665, -0.016164, 0.029599, 0.023337, -0.000567, -0.007903, -0.000003, 0.000060, -0.000123, -0.000000, 0.000000, -0.000000, -0.000000, 0.000000, 0.000000, 0.000000, -0.000000, -0.000000, 0.000000, 0.000000, 0.000000, 0.000000, 0.000001, -0.000001, -0.004070, -0.005078, 0.010932, 0.020671, -0.026301, -0.007852, -0.000002, 0.000050, -0.000050, 0.000000, -0.000000, -0.000000, 0.000000, -0.000000, -0.000000, 0.000000, 0.000000, 0.000000, -0.000000, 0.000000, -0.000000, 0.000000, 0.000001, -0.000001, -0.010960, 0.012297, -0.004282, 0.017816, -0.013403, -0.019351, -0.000000, 0.000047, -0.000055, -0.000000, 0.000000, 0.000000, -0.000000, -0.000000, -0.000000, -0.000000, 0.000000, -0.000000, -0.000000, -0.000000, -0.000000, 0.000000, 0.000000, -0.000000, -0.029215, 0.030849, -0.005060, 0.004840, 0.030755, -0.041815, -0.000001, 0.000004, -0.000004, 0.000000, 0.000000, -0.000000, 0.000000, -0.000000, -0.000000, 0.000000, 0.000000, 0.000000, 0.000000, 0.000000, 0.000000, 0.000000, -0.000000, 0.000000, -0.015647, 0.034493, -0.021124, 0.008008, 0.040834, -0.062885, -0.000001, 0.000117, -0.000111, -0.000000, 0.000000, 0.000000, 0.000000, 0.000000, 0.000000, 0.000000, -0.000000, -0.000000, 0.000000, -0.000000, 0.000000, -0.000000, 0.000000, -0.000001, -0.010989, 0.023605, -0.011278, -0.006233, 0.037040, -0.045435, -0.000000, 0.000118, -0.000113, 0.000000, -0.000000, -0.000000, 0.000000, 0.000000, -0.000000, -0.000000, -0.000000, -0.000000, -0.000000, -0.000000, 0.000000, -0.000000, -0.000000, 0.000000, -0.014266, 0.011324, 0.002840, -0.005887, 0.047515, -0.072186, -0.000000, 0.000042, -0.000026, -0.000000, 0.000000, -0.000000, 0.000000, -0.000000, -0.000000, -0.000000, -0.000000, -0.000000, 0.000000, 0.000000, 0.000000, -0.000000, 0.000000, -0.000001, -0.007413, 0.008562, -0.000416, -0.001725, 0.034535, -0.068357, -0.000000, 0.000104, -0.000109, -0.000000, 0.000000, -0.000000, 0.000001, -0.001363, 0.001773, -0.000000, -0.000000, -0.000000, -0.000000, -0.000000, 0.000000, 0.000000, -0.000001, 0.000001, 0.001142, -0.014474, 0.013996, 0.019503, 0.035053, -0.066464, -0.000000, 0.000044, -0.000041, -0.000000, 0.000000, -0.000000, 0.000000, 0.000000, -0.000000, 0.000000, -0.000000, -0.000000, -0.000000, -0.000000, -0.000000, -0.000000, -0.000000, -0.000000, 0.005077, -0.018388, 0.015802, 0.024062, 0.007379, -0.058606, -0.000000, 0.000102, -0.000094, -0.000000, -0.000000, 0.000000, -0.000000, -0.000000, -0.000000, -0.000000, 0.000000, 0.000000, 0.000000, 0.000000, 0.000000, 0.000000, -0.000000, 0.000000, 0.005357, -0.025400, 0.023407, 0.043207, 0.003488, -0.072110, 0.000000, 0.000089, -0.000093, -0.000000, -0.000000, 0.000000, -0.000000, -0.000000, 0.000000, -0.000000, -0.000000, 0.000000, 0.000000, -0.000000, -0.000000, 0.000000, -0.000000, 0.000000, 0.008011, -0.013011, 0.004133, 0.079407, -0.032061, -0.058355, -0.000000, 0.000103, -0.000105, 0.000000, 0.000000, 0.000000, 0.000000, 0.000000, -0.000000, -0.000000, 0.000000, 0.000000, 0.000000, 0.000000, -0.000000, 0.000000, 0.000001, -0.000001, -0.001820, -0.008614, 0.014176, 0.080332, 0.000812, -0.075574, -0.000002, 0.000114, -0.000098, -0.000000, -0.000000, 0.000000, -0.000004, 0.000411, -0.000288, -0.000000, 0.000000, 0.000000, 0.000000, -0.000000, 0.000000, -0.000026, -0.000228, 0.000259, 0.005285, 0.020535, -0.018362, 0.042090, -0.036193, -0.000705, 0.000085, -0.000176, 0.000094, -0.000000, -0.000000, -0.000000, -0.000019, 0.000056, -0.000025, -0.000000, 0.000000, -0.000000, -0.000000, 0.000000, 0.000000, -0.000005, -0.000502, 0.000547, -0.009518, 0.032129, -0.017355, 0.045768, -0.022889, -0.024339, 0.000059, -0.000155, 0.000067, 0.000000, 0.000000, 0.000000, -0.000087, 0.000106, -0.000000, 0.000000, -0.000000, -0.000000, -0.000000, 0.000000, -0.000000, 0.000000, -0.000009, 0.000009, -0.025793, 0.034302, -0.008014, 0.005650, 0.018329, -0.022728, 0.000003, -0.000042, 0.000035, -0.000000, -0.000000, 0.000000, -0.000001, -0.000219, 0.000249, 0.000000, -0.000000, 0.000000, 0.000000, -0.000000, 0.000000, 0.000001, -0.000008, 0.000009, -0.014019, 0.007730, 0.004299, 0.005083, -0.000267, -0.008299, -0.000001, -0.000169, 0.000044, -0.000000, -0.000000, -0.000000, -0.000002, -0.000169, 0.000164, 0.000000, -0.000000, -0.000000, -0.000000, -0.000000, 0.000000, -0.000001, -0.000037, 0.000041, 0.012032, -0.042652, 0.029622, -0.002280, -0.032364, 0.018633, 0.000006, -0.000100, 0.000008, -0.000000, 0.000000, -0.000000, -0.000000, 0.000003, -0.000002, 0.000000, -0.000000, 0.000000, 0.000000, -0.000000, -0.000000, 0.000000, -0.000053, 0.000066, 0.005540, -0.034468, 0.029272, 0.004671, -0.063598, 0.050422, 0.000010, 0.000061, -0.000141, -0.000000, 0.000000, 0.000000, -0.000000, -0.000000, -0.000000, -0.000000, -0.000000, -0.000000, 0.000000, -0.000000, 0.000000, -0.000000, -0.000041, 0.000045, 0.001828, -0.029841, 0.028322, 0.008516, -0.064585, 0.052983, -0.000048, 0.000061, -0.000060, -0.000000, 0.000000, -0.000000, 0.000000, 0.000000, -0.000000, -0.000000, 0.000000, -0.000000, -0.000000, -0.000000, 0.000000, -0.000000, 0.000001, -0.000001, -0.001420, -0.006935, 0.009685, 0.006068, -0.073420, 0.055091, -0.000050, 0.000098, -0.000064, 0.000000, -0.000000, -0.000000, -0.000000, 0.000000, 0.000000, -0.000000, 0.000000, 0.000000, -0.000000, 0.000000, 0.000000, -0.000000, 0.000000, -0.000000, -0.005985, 0.037033, -0.029979, 0.021809, -0.042584, 0.025624, -0.000059, 0.000144, -0.000131, -0.000000, 0.000000, -0.000000, -0.000000, 0.000000, 0.000000, -0.000000, -0.000000, -0.000000, 0.000000, 0.000000, -0.000000, -0.000000, 0.000000, -0.000001, -0.002456, 0.020104, -0.013539, 0.030122, -0.002988, -0.025858, -0.000065, 0.000053, -0.000003, 0.000000, -0.000000, -0.000000, 0.000000, -0.000000, -0.000000, -0.000000, -0.000000, -0.000000, 0.000000, 0.000000, 0.000000, -0.000000, 0.000000, 0.000000, 0.001947, 0.002681, -0.002474, 0.009553, -0.013393, 0.009230, -0.000001, 0.000072, -0.000080, -0.000000, 0.000000, -0.000000, -0.000000, 0.000000, -0.000000, -0.000000, -0.000000, 0.000000, -0.000000, -0.000000, -0.000000, -0.000000, 0.000001, -0.000001, -0.000579, 0.008897, -0.004545, 0.028838, -0.017830, -0.015897, -0.000050, 0.000134, -0.000131, -0.000000, -0.000000, 0.000000, 0.000000, -0.000000, 0.000000, -0.000000, -0.000000, 0.000000, 0.000000, -0.000000, -0.000000, 0.000000, 0.000000, -0.000000, -0.018327, 0.019968, 0.000630, 0.013508, -0.012845, -0.001306, -0.000002, 0.000032, -0.000010, -0.000000, -0.000000, 0.000000, 0.000000, -0.000000, 0.000000, 0.000000, -0.000000, 0.000000, 0.000000, -0.000000, 0.000000, 0.000000, -0.000000, 0.000001, -0.034019, 0.021664, 0.012414, 0.008085, -0.014627, -0.015350, -0.000042, 0.000132, -0.000127, -0.000000, -0.000000, 0.000000, 0.000000, 0.000000, -0.000000, -0.000000, 0.000000, -0.000000, 0.000000, 0.000000, 0.000000, 0.000000, 0.000001, -0.000000, -0.015815, -0.017688, 0.033839, 0.029630, -0.046312, 0.021295, -0.000035, 0.000118, -0.000084, -0.000000, 0.000000, -0.000000, -0.000000, -0.000000, -0.000000, 0.000000, 0.000000, 0.000000, 0.000000, 0.000000, -0.000000, -0.000000, 0.000000, -0.000000, -0.013439, -0.034970, 0.047050, 0.018316, -0.051621, 0.030193, -0.000004, 0.000101, -0.000087, 0.000000, 0.000000, -0.000000, -0.000000, -0.000000, 0.000000, -0.000000, -0.000000, 0.000000, -0.000000, 0.000000, -0.000000, -0.000000, -0.000000, 0.000000, -0.028192, -0.012287, 0.040334, 0.017170, -0.051623, 0.017395, -0.000001, 0.000133, -0.000123, -0.000000, 0.000000, -0.000000, 0.000000, 0.000000, 0.000000, 0.000000, 0.000000, 0.000000, -0.000000, -0.000000, 0.000000, -0.000000, -0.000000, 0.000000, 0.002324, -0.017904, 0.016198, 0.019248, -0.027387, 0.007842, 0.000001, 0.000002, -0.000004, 0.000000, -0.000000, 0.000000, 0.000000, 0.000000, 0.000000, -0.000000, -0.000000, 0.000000, 0.000000, 0.000000, -0.000000, 0.000000, -0.000000, -0.000000, -0.004797, 0.018194, -0.013206, -0.000365, -0.039483, 0.026398, -0.000001, 0.000012, -0.000010, 0.000000, 0.000000, 0.000000, 0.000000, -0.000000, -0.000000, 0.000000, -0.000000, -0.000000, 0.000000, -0.000000, -0.000000, 0.000000, -0.000000, 0.000000, -0.023539, 0.046100, -0.026686, 0.009409, 0.017397, -0.035619, 0.000000, 0.000038, -0.000037, 0.000000, -0.000000, -0.000000, -0.000000, 0.000000, 0.000000, 0.000000, -0.000000, 0.000000, -0.000000, 0.000000, -0.000000, 0.000000, 0.000000, -0.000000, -0.013140, 0.036482, -0.027083, -0.049988, 0.085414, -0.042078, -0.000000, 0.000108, -0.000106, 0.000000, 0.000000, -0.000000, 0.000000, 0.000000, -0.000000, -0.000000, 0.000000, -0.000000, -0.000000, -0.000000, 0.000000, 0.000000, -0.000000, 0.000000, -0.013496, 0.017995, -0.006943, 0.001685, 0.058084, -0.065416, 0.000000, 0.000001, -0.000000, -0.000000, -0.000000, 0.000000, 0.000000, -0.000000, 0.000000, -0.000000, 0.000000, -0.000000, -0.000000, 0.000000, 0.000000, 0.000000, -0.000000, 0.000000, -0.021507, 0.016013, 0.004458, 0.001939, 0.023641, -0.028889, 0.000000, 0.000011, -0.000004, -0.000000, -0.000000, 0.000000, 0.000000, -0.000000, -0.000000, -0.000000, 0.000000, 0.000000, -0.000000, 0.000000, -0.000000, -0.000000, 0.000000, -0.000000, -0.009145, 0.006052, 0.000791, -0.007040, 0.041588, -0.055260, -0.000000, 0.000095, -0.000090, 0.000000, -0.000000, -0.000000, -0.000000, 0.000000, 0.000000, 0.000000, 0.000000, 0.000000, -0.000000, 0.000000, -0.000000, -0.000000, -0.000000, 0.000000, 0.022005, -0.021859, -0.000486, 0.015844, 0.030526, -0.063828, -0.000000, 0.000107, -0.000098, 0.000000, 0.000000, -0.000000, -0.000000, 0.000000, 0.000000, 0.000000, -0.000000, 0.000000, 0.000000, 0.000000, 0.000000, 0.000000, -0.000000, -0.000000, 0.011588, -0.035339, 0.023102, 0.043271, -0.000852, -0.047163, 0.000000, 0.000023, -0.000024, -0.000000, -0.000000, -0.000000, -0.000000, 0.000000, 0.000000, -0.000000, -0.000000, -0.000000, 0.000000, 0.000000, -0.000000, -0.000000, -0.000000, 0.000000, 0.002809, -0.031166, 0.029639, 0.060037, -0.000450, -0.065675, -0.000001, 0.000098, -0.000078, -0.000000, 0.000000, 0.000000, 0.000000, 0.000000, 0.000000, -0.000000, 0.000000, 0.000000, -0.000000, 0.000000, -0.000000, -0.000000, -0.000000, 0.000000, 0.005314, -0.030963, 0.025877, 0.079314, -0.032853, -0.048201, -0.000000, 0.000027, -0.000028, -0.000000, 0.000000, 0.000000, -0.000000, 0.000001, -0.000000, 0.000000, -0.000000, 0.000000, -0.000000, 0.000000, -0.000000, 0.000000, 0.000001, -0.000001, -0.018866, 0.003633, 0.015772, 0.043985, -0.019145, -0.066331, -0.000002, 0.000087, -0.000097, 0.000000, 0.000000, 0.000000, -0.000004, 0.000017, 0.000025, 0.000000, -0.000000, -0.000000, -0.000000, 0.000000, 0.000000, -0.000005, -0.000649, 0.000675, 0.027501, 0.012822, -0.035949, 0.045721, -0.029416, -0.004878, 0.000013, -0.000171, 0.000156, 0.000000, 0.000000, -0.000000, -0.000007, 0.000016, -0.000005, 0.000000, -0.000000, -0.000000, -0.000000, 0.000000, 0.000000, 0.000000, -0.000309, 0.000330, -0.008169, 0.023599, -0.012215, 0.028047, -0.020143, -0.005998, 0.000015, -0.000093, 0.000013, 0.000000, -0.000000, -0.000000, -0.000022, 0.000050, -0.000025, -0.000000, -0.000000, 0.000000, 0.000000, 0.000000, -0.000000, 0.000000, -0.000003, 0.000003, -0.029941, 0.043064, -0.012701, 0.007471, 0.012074, -0.021697, 0.000002, -0.000041, 0.000049, -0.000000, -0.000000, 0.000000, -0.000001, 0.000001, -0.000000, 0.000000, -0.000000, -0.000000, 0.000000, 0.000000, 0.000000, 0.000000, -0.000002, 0.000002, -0.006272, 0.002123, 0.002868, 0.010294, -0.013209, -0.020527, 0.000014, -0.000052, 0.000020, 0.000000, -0.000000, -0.000000, 0.000000, 0.000000, -0.000000, -0.000000, -0.000000, 0.000000, 0.000000, 0.000000, -0.000000, -0.000000, -0.000001, 0.000001, 0.009455, -0.022867, 0.011642, 0.021711, -0.041709, 0.025208, -0.000051, -0.000025, -0.000080, 0.000000, -0.000000, -0.000000, -0.000002, 0.000009, -0.000004, -0.000000, -0.000000, -0.000000, -0.000000, -0.000000, -0.000000, -0.000000, 0.000001, -0.000001, -0.004665, -0.036889, 0.040597, 0.012121, -0.089627, 0.045609, -0.000029, 0.000066, -0.000113, 0.000000, -0.000000, -0.000000, 0.000000, -0.000000, -0.000000, -0.000000, -0.000000, -0.000000, 0.000000, 0.000000, 0.000000, 0.000000, -0.000000, 0.000000, -0.006379, -0.021023, 0.030402, 0.008642, -0.061188, 0.036546, -0.000061, 0.000028, -0.000010, 0.000000, -0.000000, -0.000000, -0.000001, 0.000358, -0.000353, 0.000000, -0.000000, -0.000000, 0.000000, -0.000000, -0.000000, -0.000000, 0.000001, -0.000001, -0.016714, 0.018242, -0.000785, 0.000895, -0.037000, 0.053324, -0.000036, 0.000045, 0.000001, 0.000000, -0.000000, 0.000000, -0.000000, 0.000000, 0.000000, 0.000000, -0.000000, 0.000000, -0.000000, 0.000000, -0.000000, 0.000000, 0.000001, -0.000000, -0.019935, 0.038067, -0.016895, 0.007423, -0.033865, 0.011892, -0.000060, 0.000051, -0.000021, -0.000000, 0.000000, -0.000000, -0.000000, 0.000000, -0.000000, 0.000000, -0.000000, 0.000000, -0.000000, -0.000000, -0.000000, -0.000000, 0.000001, -0.000001, -0.014722, 0.020542, -0.005620, -0.002830, 0.011987, -0.006013, -0.000060, 0.000050, -0.000027, -0.000000, -0.000000, 0.000000, -0.000000, 0.000000, -0.000000, -0.000000, 0.000000, -0.000000, 0.000000, 0.000000, 0.000000, 0.000000, 0.000000, -0.000000, -0.012308, 0.009494, 0.004509, -0.033871, 0.001128, 0.001526, -0.000055, 0.000072, -0.000047, -0.000000, -0.000000, -0.000000, -0.000001, -0.000160, 0.000161, 0.000000, 0.000000, 0.000000, 0.000000, 0.000000, -0.000000, 0.000000, 0.000000, 0.000000, -0.010730, 0.014733, -0.001061, -0.014431, -0.002939, 0.026583, -0.000051, 0.000045, 0.000001, -0.000000, 0.000000, -0.000000, -0.000000, -0.000000, 0.000000, -0.000000, 0.000000, 0.000000, -0.000000, -0.000000, 0.000000, -0.000000, -0.000000, 0.000000, -0.007118, 0.014556, -0.001906, -0.010202, 0.008205, -0.008831, 0.000001, -0.000004, -0.000017, -0.000000, 0.000000, 0.000000, -0.000000, -0.000000, -0.000000, -0.000000, 0.000000, 0.000000, -0.000000, -0.000000, 0.000000, 0.000000, 0.000000, -0.000000, -0.034169, 0.008913, 0.028141, -0.023726, -0.004799, 0.023395, -0.000040, 0.000103, -0.000080, 0.000000, -0.000000, 0.000000, 0.000000, 0.000000, 0.000000, 0.000000, -0.000000, -0.000000, -0.000000, 0.000000, 0.000000, 0.000000, 0.000000, -0.000000, -0.011884, -0.030420, 0.043140, 0.000095, -0.045994, 0.038270, -0.000036, 0.000138, -0.000090, -0.000000, -0.000000, -0.000000, 0.000000, -0.000000, -0.000000, 0.000000, -0.000000, 0.000000, 0.000000, 0.000000, -0.000000, 0.000000, 0.000000, 0.000000, -0.007573, -0.026765, 0.033322, 0.001628, -0.063338, 0.043769, -0.000002, 0.000101, -0.000106, -0.000000, -0.000000, -0.000000, 0.000000, 0.000000, -0.000000, 0.000000, 0.000000, -0.000000, 0.000000, -0.000000, 0.000000, 0.000000, 0.000000, -0.000000, -0.014432, -0.018252, 0.035215, -0.009833, -0.033522, 0.046114, -0.000011, 0.000111, -0.000110, 0.000000, 0.000000, -0.000000, -0.000000, 0.000000, -0.000000, -0.000000, 0.000000, -0.000000, 0.000000, -0.000000, -0.000000, 0.000000, -0.000000, 0.000000, -0.014280, -0.009299, 0.022671, 0.027189, -0.056305, 0.011673, 0.000001, 0.000114, -0.000109, -0.000000, 0.000000, 0.000000, 0.000000, -0.000000, 0.000000, -0.000000, 0.000000, -0.000000, 0.000000, -0.000000, -0.000000, 0.000000, -0.000000, -0.000000, -0.018551, 0.039466, -0.024516, 0.012267, -0.009742, -0.009180, -0.000004, 0.000116, -0.000109, 0.000000, -0.000000, -0.000000, -0.000000, -0.000000, 0.000000, 0.000000, -0.000000, -0.000000, 0.000000, 0.000000, 0.000000, -0.000000, 0.000000, 0.000000, -0.021208, 0.023500, -0.003194, -0.020166, 0.006976, 0.011341, -0.000009, 0.000025, -0.000008, 0.000000, -0.000000, 0.000000, -0.000000, 0.000000, -0.000000, -0.000000, -0.000000, -0.000000, 0.000000, 0.000000, -0.000000, 0.000000, -0.000000, 0.000000, -0.013356, 0.017185, -0.006678, -0.001725, 0.023479, -0.023630, -0.000007, 0.000099, -0.000097, 0.000000, -0.000000, -0.000000, -0.000000, 0.000000, 0.000000, -0.000000, 0.000000, -0.000000, -0.000000, 0.000000, -0.000000, -0.000000, 0.000000, -0.000000, -0.005521, -0.009385, 0.013408, -0.018813, 0.028514, -0.053501, 0.000000, 0.000102, -0.000097, 0.000000, 0.000000, -0.000000, 0.000000, 0.000000, 0.000000, -0.000000, 0.000000, -0.000000, 0.000000, 0.000000, 0.000000, 0.000000, -0.000000, 0.000000, -0.016175, -0.002889, 0.016154, -0.002509, 0.027767, -0.044559, -0.000000, 0.000099, -0.000095, -0.000000, -0.000000, -0.000000, 0.000000, -0.000000, -0.000000, 0.000000, 0.000000, 0.000000, 0.000000, -0.000000, -0.000000, -0.000000, -0.000000, 0.000000, -0.007003, -0.006639, 0.012259, -0.001816, 0.014621, -0.029065, 0.000000, 0.000094, -0.000096, 0.000000, -0.000000, 0.000000, -0.000000, 0.000000, 0.000000, 0.000000, -0.000000, -0.000000, -0.000000, -0.000000, -0.000000, 0.000000, -0.000000, -0.000000, 0.020705, -0.023877, 0.002829, 0.027436, 0.013827, -0.055465, 0.000000, 0.000095, -0.000094, -0.000000, -0.000000, -0.000000, -0.000000, 0.000018, -0.000025, -0.000000, -0.000000, 0.000000, 0.000000, -0.000000, 0.000000, -0.000000, -0.000000, 0.000000, 0.014450, -0.046855, 0.029908, 0.025508, 0.021531, -0.040631, -0.000000, 0.000094, -0.000090, 0.000000, -0.000000, -0.000000, 0.000000, 0.000000, 0.000000, -0.000000, -0.000000, -0.000000, -0.000000, 0.000000, 0.000000, 0.000000, 0.000000, -0.000000, -0.009093, -0.027509, 0.032939, 0.036139, 0.003078, -0.049349, 0.000000, 0.000020, -0.000022, -0.000000, 0.000000, -0.000000, 0.000000, 0.000000, -0.000000, -0.000000, -0.000000, -0.000000, 0.000000, 0.000000, -0.000000, 0.000000, -0.000000, 0.000000, 0.005262, -0.028195, 0.022957, 0.050437, -0.019315, -0.046755, -0.000000, 0.000024, -0.000022, -0.000000, 0.000000, -0.000000, 0.000000, -0.000000, -0.000000, 0.000000, 0.000000, -0.000000, 0.000000, 0.000000, 0.000000, -0.000000, -0.000000, -0.000000, -0.026282, 0.012272, 0.015768, 0.026162, -0.005830, -0.047663, -0.000000, 0.000108, -0.000107, 0.000000, 0.000000, -0.000000, 0.000000, -0.000068, 0.000070, 0.000000, -0.000000, 0.000000, 0.000000, 0.000000, 0.000000, -0.000005, -0.000267, 0.000283, 0.013602, 0.026383, -0.036318, 0.071883, -0.054357, -0.013491, 0.000027, -0.000152, 0.000126, 0.000000, 0.000000, 0.000000, -0.000004, 0.000006, -0.000001, -0.000000, 0.000000, 0.000000, -0.000000, 0.000000, 0.000000, -0.000003, -0.000146, 0.000155, -0.023163, 0.040513, -0.015043, -0.002725, 0.012356, -0.018467, 0.000007, -0.000123, 0.000067, -0.000000, -0.000000, -0.000000, -0.000002, -0.000080, 0.000110, 0.000000, 0.000000, -0.000000, 0.000000, -0.000000, -0.000000, 0.000000, -0.000002, 0.000002, -0.046626, 0.050981, -0.005880, -0.003850, 0.024465, -0.010359, 0.000026, -0.000100, 0.000042, -0.000000, -0.000000, 0.000000, -0.000000, -0.000000, 0.000000, -0.000000, 0.000000, -0.000000, 0.000000, 0.000000, -0.000000, 0.000000, -0.000000, 0.000000, -0.004095, -0.010209, 0.013615, 0.001871, 0.007017, 0.003173, 0.000024, -0.000045, 0.000029, 0.000000, -0.000000, -0.000000, -0.000000, -0.000000, -0.000000, 0.000000, -0.000000, 0.000000, -0.000000, -0.000000, 0.000000, 0.000000, 0.000000, -0.000000, 0.000335, -0.055489, 0.054401, 0.021542, -0.055721, 0.050823, -0.000034, 0.000120, -0.000130, 0.000000, 0.000000, 0.000000, -0.000000, -0.000000, 0.000000, -0.000000, 0.000000, -0.000000, -0.000000, -0.000000, -0.000000, -0.000000, 0.000001, -0.000001, -0.011330, -0.033680, 0.046626, 0.006433, -0.059791, 0.047583, 0.000008, 0.000038, -0.000034, -0.000000, -0.000000, 0.000000, -0.000000, -0.000000, -0.000000, 0.000000, -0.000000, 0.000000, -0.000000, 0.000000, -0.000000, -0.000000, -0.000000, 0.000000, -0.021927, 0.002854, 0.019780, -0.007952, -0.062711, 0.065374, -0.000038, 0.000107, -0.000114, 0.000000, -0.000000, 0.000000, 0.000000, 0.000000, -0.000000, -0.000000, -0.000000, 0.000000, 0.000000, -0.000000, -0.000000, 0.000000, -0.000000, 0.000000, -0.024991, 0.042461, -0.015753, -0.012116, -0.027895, 0.051925, -0.000042, 0.000099, -0.000100, 0.000000, -0.000000, -0.000000, -0.000000, -0.000000, -0.000000, 0.000000, 0.000000, 0.000000, 0.000000, 0.000000, 0.000000, -0.000000, 0.000000, 0.000000, -0.020351, 0.036312, -0.011509, -0.003655, -0.032297, 0.042746, -0.000009, 0.000105, -0.000071, -0.000000, 0.000000, 0.000000, -0.000000, 0.000000, 0.000000, 0.000000, 0.000000, 0.000000, 0.000000, -0.000000, 0.000000, 0.000000, 0.000000, -0.000001, -0.017220, 0.005234, 0.016035, -0.013105, -0.010643, 0.022820, -0.000054, 0.000153, -0.000105, 0.000000, -0.000000, -0.000000, 0.000000, -0.000000, -0.000000, -0.000000, 0.000000, 0.000000, -0.000000, -0.000000, -0.000000, 0.000000, -0.000001, 0.000000, -0.022986, 0.008049, 0.018037, -0.023634, -0.007532, 0.007052, -0.000052, 0.000166, -0.000113, 0.000000, -0.000000, 0.000000, -0.000002, -0.000051, 0.000053, 0.000000, 0.000000, 0.000000, 0.000000, 0.000000, -0.000000, 0.000000, 0.000000, -0.000000, -0.014469, 0.028092, -0.011021, -0.025576, 0.025324, 0.007221, 0.000003, 0.000080, -0.000083, -0.000000, -0.000000, -0.000000, -0.000005, 0.000027, -0.000022, -0.000000, -0.000000, 0.000000, -0.000000, 0.000000, -0.000000, 0.000000, -0.000001, 0.000001, -0.019364, 0.018848, 0.001678, -0.016383, 0.021141, -0.009901, 0.000002, 0.000008, -0.000002, 0.000000, 0.000000, -0.000000, -0.000000, 0.000000, 0.000000, 0.000000, 0.000000, 0.000000, -0.000000, 0.000000, -0.000000, 0.000000, -0.000000, -0.000000, -0.023299, 0.013353, 0.014332, -0.041849, 0.009238, 0.008895, -0.000044, 0.000135, -0.000084, -0.000000, -0.000000, -0.000000, -0.000000, 0.000000, 0.000000, -0.000000, -0.000000, 0.000000, 0.000000, -0.000000, -0.000000, -0.000000, 0.000000, -0.000000, -0.013570, -0.017951, 0.031560, -0.018167, -0.040854, 0.043194, -0.000036, 0.000127, -0.000081, 0.000000, -0.000000, -0.000000, 0.000000, 0.000000, -0.000000, -0.000000, -0.000000, -0.000000, 0.000000, 0.000000, -0.000000, 0.000000, -0.000000, 0.000000, 0.002825, -0.024374, 0.022218, -0.008066, -0.012901, 0.010172, -0.000029, 0.000117, -0.000088, 0.000000, 0.000000, 0.000000, -0.000004, 0.000042, 0.000003, -0.000000, -0.000000, 0.000000, 0.000000, 0.000000, 0.000000, 0.000000, 0.000000, 0.000000, -0.007646, 0.006597, 0.003080, -0.047469, -0.004205, 0.011966, -0.000017, 0.000030, -0.000016, 0.000000, -0.000000, 0.000000, 0.000000, -0.000000, -0.000000, 0.000000, -0.000000, -0.000000, -0.000000, 0.000000, -0.000000, 0.000000, -0.000000, -0.000000, -0.014522, 0.026149, -0.012903, -0.000381, -0.010742, 0.038368, -0.000011, 0.000091, -0.000071, 0.000000, 0.000000, 0.000000, -0.000000, 0.000000, -0.000000, -0.000000, -0.000000, 0.000000, -0.000000, -0.000000, 0.000000, 0.000000, -0.000000, 0.000000, -0.015806, 0.007130, 0.006023, -0.000170, 0.012701, 0.007528, 0.000000, 0.000073, -0.000075, 0.000000, 0.000000, -0.000000, -0.000000, 0.000000, 0.000000, 0.000000, -0.000000, 0.000000, 0.000000, -0.000000, 0.000000, 0.000000, 0.000000, -0.000000, 0.005259, -0.004322, -0.002908, 0.000599, 0.001666, 0.001096, -0.000016, 0.000103, -0.000087, -0.000000, 0.000000, -0.000000, 0.000000, 0.000000, -0.000000, 0.000000, -0.000000, -0.000000, -0.000000, 0.000000, 0.000000, 0.000000, -0.000000, 0.000000, 0.001510, -0.006701, 0.001636, 0.028121, -0.011520, 0.000297, -0.000016, 0.000101, -0.000082, -0.000000, 0.000000, 0.000000, 0.000000, -0.000000, -0.000000, -0.000000, 0.000000, -0.000000, 0.000000, -0.000000, 0.000000, 0.000000, 0.000000, -0.000000, 0.010107, -0.028771, 0.017860, 0.006551, 0.008755, -0.021964, -0.000000, 0.000089, -0.000089, 0.000000, -0.000000, -0.000000, -0.000000, 0.000000, -0.000000, 0.000000, -0.000000, 0.000000, -0.000000, -0.000000, 0.000000, 0.000000, 0.000000, 0.000000, 0.001328, -0.011862, 0.009186, -0.010384, 0.008488, -0.021005, -0.000001, 0.000084, -0.000082, -0.000000, 0.000000, 0.000000, 0.000000, -0.000000, -0.000000, 0.000000, -0.000000, -0.000000, 0.000000, 0.000000, -0.000000, 0.000000, -0.000000, 0.000000, -0.002277, -0.008247, 0.011001, 0.004515, 0.011446, -0.004963, 0.000000, 0.000074, -0.000078, 0.000000, 0.000000, -0.000000, 0.000000, 0.000000, 0.000000, -0.000000, -0.000000, -0.000000, 0.000000, 0.000000, 0.000000, 0.000000, 0.000000, 0.000000, 0.023232, -0.030622, 0.005562, 0.038121, 0.011256, -0.039323, -0.000000, 0.000089, -0.000089, 0.000000, 0.000000, 0.000000, -0.000000, -0.002846, 0.002688, -0.000000, -0.000000, 0.000000, -0.000000, -0.000000, -0.000000, -0.000000, -0.000000, 0.000000, 0.027896, -0.051502, 0.023411, 0.029774, -0.002373, -0.020564, 0.000000, 0.000082, -0.000084, 0.000000, 0.000000, -0.000000, 0.000000, 0.000000, -0.000000, 0.000000, 0.000000, 0.000000, 0.000000, -0.000000, -0.000000, -0.000000, -0.000000, 0.000000, 0.003699, -0.030451, 0.025052, 0.060746, -0.033274, -0.039733, -0.000001, 0.000098, -0.000094, 0.000000, 0.000000, 0.000000, -0.000000, -0.000000, 0.000000, 0.000000, 0.000000, 0.000000, -0.000000, 0.000000, -0.000000, -0.000000, -0.000000, -0.000000, 0.016348, -0.025057, 0.007067, 0.047564, -0.028868, -0.043748, -0.000001, 0.000024, -0.000009, -0.000000, 0.000000, 0.000000, -0.000000, -0.000000, 0.000000, -0.000000, -0.000000, -0.000000, -0.000000, -0.000000, -0.000000, 0.000000, 0.000000, -0.000000, -0.021868, -0.001460, 0.025237, 0.046200, -0.012321, -0.047869, -0.000001, 0.000034, -0.000027, -0.000000, -0.000000, -0.000000, -0.000003, 0.000003, 0.000001, -0.000000, -0.000000, -0.000000, 0.000000, -0.000000, -0.000000, -0.000004, -0.000164, 0.000174, -0.000206, 0.035143, -0.030108, 0.043525, -0.020866, -0.015789, 0.000051, -0.000167, 0.000108, 0.000000, -0.000000, 0.000000, -0.000017, 0.000033, -0.000001, -0.000000, 0.000000, 0.000000, -0.000000, 0.000000, -0.000000, -0.000000, -0.000056, 0.000056, -0.020629, 0.029285, -0.005092, 0.032510, 0.005906, -0.034180, 0.000023, -0.000143, 0.000039, -0.000000, -0.000000, -0.000000, -0.000001, -0.000235, 0.000276, 0.000000, 0.000000, -0.000000, 0.000000, -0.000000, -0.000000, 0.000000, -0.000000, 0.000000, -0.028386, 0.023223, 0.006288, -0.024589, -0.001772, 0.017528, -0.000010, -0.000013, -0.000086, 0.000000, 0.000000, -0.000000, 0.000000, 0.000001, -0.000000, 0.000000, 0.000000, -0.000000, 0.000000, 0.000000, -0.000000, 0.000000, -0.000001, 0.000001, -0.010287, -0.028001, 0.038244, -0.009850, -0.030884, 0.028976, 0.000017, -0.000024, -0.000009, -0.000000, -0.000000, 0.000000, -0.000001, 0.000001, 0.000001, -0.000000, -0.000000, -0.000000, 0.000000, -0.000000, 0.000000, -0.000000, 0.000000, -0.000000, -0.010959, -0.035030, 0.046655, 0.011727, -0.067237, 0.049212, 0.000015, -0.000017, -0.000063, -0.000000, -0.000000, -0.000000, 0.000000, 0.000000, 0.000000, 0.000000, -0.000000, 0.000000, 0.000000, -0.000000, -0.000000, -0.000000, 0.000001, -0.000001, -0.019977, -0.013766, 0.036595, 0.022964, -0.079022, 0.072526, -0.000028, 0.000042, 0.000008, 0.000000, 0.000000, 0.000000, -0.000000, -0.000000, 0.000000, 0.000000, -0.000000, -0.000000, 0.000000, 0.000000, -0.000000, 0.000000, 0.000000, 0.000000, -0.029717, 0.023878, 0.008577, -0.041528, -0.027624, 0.065396, -0.000001, 0.000067, -0.000088, 0.000000, -0.000000, 0.000000, -0.000000, 0.000000, -0.000000, -0.000000, 0.000000, 0.000000, 0.000000, -0.000000, 0.000000, -0.000000, 0.000000, -0.000000, -0.026938, 0.034487, -0.006316, -0.042656, -0.009420, 0.039116, -0.000037, 0.000141, -0.000115, -0.000000, 0.000000, -0.000000, 0.000000, 0.000000, 0.000000, 0.000000, 0.000000, -0.000000, 0.000000, 0.000000, -0.000000, -0.000000, -0.000000, -0.000000, -0.019909, 0.031406, -0.008790, -0.033280, 0.001425, 0.029402, -0.000002, 0.000008, -0.000005, -0.000000, -0.000000, -0.000000, -0.000000, -0.000000, 0.000000, -0.000000, 0.000000, 0.000000, 0.000000, -0.000000, 0.000000, -0.000000, 0.000000, -0.000000, -0.015397, 0.004637, 0.014425, -0.030397, -0.018889, 0.043789, 0.000003, 0.000071, -0.000089, 0.000000, -0.000000, 0.000000, -0.000000, 0.000000, -0.000000, 0.000000, 0.000000, 0.000000, -0.000000, -0.000000, 0.000000, -0.000000, -0.000000, -0.000000, -0.027002, 0.021883, 0.009202, -0.041709, 0.004968, 0.030734, -0.000054, 0.000136, -0.000080, 0.000000, -0.000000, 0.000000, 0.000000, -0.000000, -0.000000, -0.000000, -0.000000, -0.000000, -0.000000, -0.000000, 0.000000, 0.000000, -0.000000, 0.000000, -0.026349, 0.066053, -0.039930, -0.040586, 0.025554, -0.005956, -0.000052, 0.000130, -0.000081, 0.000000, -0.000000, -0.000000, 0.000000, 0.000000, -0.000000, 0.000000, -0.000000, 0.000000, -0.000000, -0.000000, 0.000000, 0.000000, -0.000000, 0.000000, -0.021582, 0.038239, -0.015904, -0.055360, 0.009138, 0.003983, 0.000002, 0.000081, -0.000084, 0.000000, -0.000000, 0.000000, -0.000000, -0.000000, -0.000000, -0.000000, 0.000000, 0.000000, 0.000000, -0.000000, 0.000000, 0.000000, -0.000000, 0.000000, -0.033795, 0.030235, 0.001305, -0.034847, 0.010499, 0.025456, 0.000001, 0.000001, -0.000002, -0.000000, 0.000000, -0.000000, -0.000000, -0.000000, 0.000000, -0.000000, 0.000000, 0.000000, -0.000000, 0.000000, 0.000000, -0.000000, 0.000000, -0.000000, -0.014139, 0.000005, 0.014337, -0.025172, 0.011801, 0.015584, -0.000036, 0.000095, -0.000085, -0.000000, -0.000000, -0.000000, 0.000000, -0.000000, 0.000000, 0.000000, 0.000000, 0.000000, 0.000000, 0.000000, 0.000000, 0.000000, -0.000000, -0.000000, 0.010876, 0.003169, -0.011923, -0.044781, 0.015259, 0.031887, 0.000001, 0.000077, -0.000074, -0.000000, 0.000000, 0.000000, -0.000000, 0.000000, 0.000000, 0.000000, -0.000000, -0.000000, 0.000000, -0.000000, 0.000000, 0.000000, 0.000000, 0.000000, 0.000536, 0.027921, -0.025248, -0.039048, 0.009270, 0.027565, -0.000018, 0.000099, -0.000076, 0.000000, 0.000000, 0.000000, 0.000000, -0.000000, 0.000000, 0.000000, 0.000000, -0.000000, -0.000000, 0.000000, -0.000000, -0.000000, 0.000000, 0.000000, 0.004600, 0.006171, -0.010212, -0.005408, -0.010776, 0.007051, -0.000007, 0.000084, -0.000069, -0.000000, -0.000000, -0.000000, -0.000000, -0.000000, 0.000000, 0.000000, 0.000000, -0.000000, -0.000000, -0.000000, -0.000000, -0.000000, 0.000000, 0.000000, 0.002869, -0.008142, 0.004467, 0.000395, -0.006895, -0.009311, 0.000000, 0.000012, -0.000012, 0.000000, 0.000000, 0.000000, -0.000000, -0.000000, 0.000000, -0.000000, -0.000000, -0.000000, -0.000000, -0.000000, 0.000000, 0.000000, -0.000000, -0.000000, 0.016439, -0.027431, 0.009571, 0.000371, -0.038889, 0.027252, -0.000016, 0.000089, -0.000072, -0.000000, 0.000000, 0.000000, 0.000000, -0.000000, -0.000000, 0.000000, -0.000000, -0.000000, 0.000000, 0.000000, 0.000000, -0.000000, 0.000000, 0.000000, 0.015465, -0.012628, -0.005877, 0.023530, -0.035548, 0.015120, -0.000000, 0.000060, -0.000068, 0.000000, -0.000000, -0.000000, 0.000000, -0.000000, -0.000000, 0.000000, -0.000000, 0.000000, 0.000000, -0.000000, 0.000000, -0.000000, -0.000000, 0.000000, 0.023871, -0.030832, 0.009078, -0.007068, -0.014787, 0.013976, -0.000013, 0.000090, -0.000071, -0.000000, -0.000000, -0.000000, 0.000000, -0.000000, -0.000000, 0.000000, -0.000000, 0.000000, -0.000000, -0.000000, -0.000000, -0.000000, 0.000000, 0.000000, 0.002997, -0.022700, 0.020393, 0.030118, -0.014100, -0.006302, -0.000015, 0.000086, -0.000072, -0.000000, 0.000000, -0.000000, 0.000000, 0.000000, 0.000000, 0.000000, -0.000000, 0.000000, -0.000000, -0.000000, -0.000000, 0.000000, 0.000000, -0.000000, 0.019398, -0.019092, -0.000055, 0.048102, -0.016018, -0.025069, -0.000012, 0.000096, -0.000080, -0.000000, 0.000000, 0.000000, -0.000000, 0.000000, 0.000000, -0.000000, 0.000000, 0.000000, -0.000000, -0.000000, -0.000000, -0.000000, -0.000000, -0.000000, 0.020477, -0.017544, -0.002354, 0.048397, -0.043001, -0.035424, -0.000005, 0.000077, -0.000085, -0.000000, 0.000000, 0.000000, -0.000000, -0.000365, 0.000377, -0.000000, -0.000000, 0.000000, -0.000000, -0.000000, -0.000000, -0.000000, -0.000000, 0.000000, 0.023961, -0.038578, 0.014379, 0.042953, -0.047950, -0.029846, -0.000000, 0.000090, -0.000085, -0.000000, 0.000000, -0.000000, -0.000000, -0.000000, -0.000000, 0.000000, 0.000000, -0.000000, 0.000000, 0.000000, -0.000000, -0.000000, -0.000000, 0.000000, 0.012469, -0.041212, 0.027436, 0.062527, -0.053210, -0.017964, -0.000002, 0.000093, -0.000085, -0.000000, 0.000000, -0.000000, 0.000000, 0.000000, 0.000000, -0.000000, -0.000000, 0.000000, -0.000000, -0.000000, 0.000000, 0.000000, -0.000000, -0.000000, 0.013963, -0.032618, 0.018675, 0.055632, -0.036910, -0.036056, -0.000001, 0.000083, -0.000082, 0.000000, -0.000000, 0.000000, 0.000000, 0.000000, 0.000000, -0.000000, 0.000000, 0.000000, -0.000000, 0.000000, -0.000000, -0.000000, 0.000000, 0.000000, -0.030219, 0.021023, 0.008129, 0.043250, -0.019028, -0.016910, -0.000001, 0.000007, -0.000006, 0.000000, -0.000000, 0.000000, -0.000003, -0.000108, 0.000130, -0.000000, 0.000000, -0.000000, -0.000000, 0.000000, 0.000000, -0.000002, -0.000118, 0.000130, -0.005895, 0.038961, -0.026961, 0.024248, -0.011115, -0.010983, 0.000005, -0.000038, 0.000020, 0.000000, -0.000000, -0.000000, -0.000088, 0.000110, -0.000000, 0.000000, -0.000000, 0.000000, 0.000000, 0.000000, 0.000000, 0.000000, -0.000001, 0.000000, -0.038286, 0.024538, 0.014013, 0.028561, -0.006623, -0.019594, -0.000023, 0.000022, 0.000002, 0.000000, -0.000000, -0.000000, 0.000000, 0.000000, 0.000000, -0.000000, 0.000000, -0.000000, 0.000000, -0.000000, 0.000000, 0.000000, -0.000003, 0.000003, -0.025958, 0.013586, 0.011940, 0.019238, -0.017655, 0.009096, -0.000007, -0.000012, 0.000023, 0.000000, -0.000000, -0.000000, 0.000000, 0.000000, -0.000000, 0.000000, -0.000000, 0.000000, 0.000000, -0.000000, -0.000000, 0.000000, -0.000000, 0.000000, -0.005625, -0.001512, 0.007963, -0.020010, -0.015901, 0.027182, -0.000018, 0.000084, -0.000042, 0.000000, 0.000000, -0.000000, 0.000000, -0.000000, 0.000000, -0.000000, -0.000000, -0.000000, 0.000000, 0.000000, -0.000000, -0.000000, 0.000000, -0.000000, -0.020379, -0.007916, 0.031159, -0.016487, -0.018183, 0.027859, -0.000030, 0.000047, -0.000098, 0.000000, 0.000000, -0.000000, -0.000000, 0.000000, -0.000000, -0.000000, 0.000000, 0.000000, 0.000000, -0.000000, 0.000000, -0.000000, 0.000000, -0.000000, -0.027970, 0.006710, 0.024759, -0.028860, -0.036690, 0.058771, -0.000041, 0.000033, -0.000041, -0.000000, -0.000000, 0.000000, -0.000000, -0.000000, 0.000000, -0.000000, -0.000000, 0.000000, 0.000000, -0.000000, -0.000000, 0.000000, -0.000000, 0.000000, -0.031374, 0.027244, 0.005984, -0.035594, -0.031132, 0.059168, -0.000027, 0.000151, -0.000097, 0.000000, -0.000000, 0.000000, -0.000000, -0.000002, 0.000002, -0.000000, 0.000000, 0.000000, 0.000000, -0.000000, -0.000000, 0.000000, -0.000000, 0.000000, -0.027866, 0.033737, -0.004508, -0.056286, -0.007803, 0.040331, -0.000045, 0.000150, -0.000095, 0.000000, -0.000000, -0.000000, -0.000000, -0.000004, 0.000003, 0.000000, 0.000000, 0.000000, -0.000000, 0.000000, 0.000000, 0.000000, -0.000000, 0.000000, -0.019966, 0.009743, 0.010384, -0.053115, -0.011855, 0.040130, -0.000059, 0.000068, -0.000020, 0.000000, 0.000000, 0.000000, -0.000000, -0.000000, -0.000000, 0.000000, -0.000000, 0.000000, 0.000000, -0.000000, 0.000000, 0.000000, 0.000000, 0.000000, -0.000755, -0.008250, 0.011701, -0.040238, -0.013720, 0.015382, -0.000055, 0.000145, -0.000087, 0.000000, 0.000000, 0.000000, 0.000000, 0.000000, 0.000000, -0.000000, -0.000000, -0.000000, -0.000000, 0.000000, 0.000000, 0.000000, 0.000000, -0.000000, -0.019976, 0.039424, -0.019587, -0.067058, 0.016022, 0.032308, -0.000054, 0.000130, -0.000066, 0.000000, -0.000000, 0.000000, -0.000000, 0.000001, -0.000001, -0.000000, -0.000000, 0.000000, 0.000000, 0.000000, -0.000000, 0.000000, -0.000000, -0.000000, -0.011625, 0.044840, -0.034759, -0.072023, 0.012021, 0.033523, 0.000002, -0.000001, -0.000001, 0.000000, 0.000000, -0.000000, -0.000000, -0.000000, -0.000000, -0.000000, -0.000000, -0.000000, 0.000000, -0.000000, 0.000000, -0.000000, 0.000000, 0.000000, -0.010720, 0.030787, -0.016374, -0.043647, 0.040402, -0.017808, 0.000002, 0.000063, -0.000064, 0.000000, 0.000000, -0.000000, -0.000000, -0.000000, 0.000000, 0.000000, -0.000000, 0.000000, -0.000000, -0.000000, 0.000000, -0.000000, -0.000000, -0.000000, -0.019051, 0.016241, 0.000869, -0.059457, -0.000233, 0.009431, -0.000034, 0.000110, -0.000069, -0.000000, -0.000000, 0.000000, 0.000000, -0.000000, 0.000000, -0.000000, -0.000000, 0.000000, -0.000000, 0.000000, 0.000000, -0.000000, -0.000000, -0.000000, 0.006278, -0.007371, 0.001194, -0.055626, 0.012819, 0.022465, 0.000000, 0.000071, -0.000071, 0.000000, -0.000000, -0.000000, -0.000000, 0.000000, -0.000000, 0.000000, -0.000000, -0.000000, -0.000000, 0.000000, 0.000000, -0.000000, -0.000000, 0.000000, 0.014673, -0.009244, -0.005289, -0.042930, 0.006906, 0.003635, -0.000028, 0.000084, -0.000055, -0.000000, 0.000000, 0.000000, 0.000000, 0.000000, 0.000000, 0.000000, 0.000000, -0.000000, -0.000000, -0.000000, 0.000000, -0.000000, 0.000000, 0.000000, 0.004541, 0.006552, -0.010981, 0.001463, 0.009330, 0.033053, -0.000025, 0.000078, -0.000057, 0.000000, -0.000000, 0.000000, 0.000000, 0.000000, -0.000000, -0.000000, -0.000000, -0.000000, 0.000000, 0.000000, -0.000000, -0.000000, 0.000000, 0.000000, -0.000944, 0.007086, -0.009725, -0.036649, 0.023225, 0.019216, -0.000007, 0.000069, -0.000055, -0.000000, -0.000000, 0.000000, 0.000000, -0.000000, 0.000000, 0.000000, -0.000000, -0.000000, -0.000000, 0.000000, 0.000000, 0.000000, 0.000000, -0.000000, 0.012340, -0.012181, -0.002032, -0.005770, -0.017303, -0.011231, 0.000000, 0.000054, -0.000052, -0.000000, 0.000000, 0.000000, 0.000000, 0.000000, 0.000000, -0.000000, -0.000000, -0.000000, 0.000000, 0.000000, 0.000000, 0.000000, 0.000000, 0.000000, 0.014033, -0.007734, -0.008328, 0.007140, -0.013070, 0.007120, -0.000012, 0.000070, -0.000060, 0.000000, 0.000000, -0.000000, 0.000000, 0.000000, 0.000000, 0.000000, -0.000000, -0.000000, -0.000000, 0.000000, 0.000000, 0.000000, -0.000000, 0.000000, 0.019645, -0.018403, 0.001010, -0.003874, -0.004818, 0.011526, -0.000000, 0.000059, -0.000053, 0.000000, 0.000000, -0.000000, -0.000000, 0.000000, 0.000000, -0.000000, 0.000000, -0.000000, -0.000000, 0.000000, -0.000000, 0.000000, 0.000000, -0.000000, 0.018319, -0.025747, 0.007006, 0.021144, -0.015078, 0.004757, -0.000014, 0.000080, -0.000064, -0.000000, -0.000000, -0.000000, 0.000000, 0.000000, -0.000000, 0.000000, 0.000000, -0.000000, 0.000000, -0.000000, -0.000000, 0.000000, -0.000000, -0.000000, 0.006907, -0.017591, 0.010168, 0.039327, -0.020371, -0.031699, -0.000017, 0.000082, -0.000066, -0.000000, -0.000000, -0.000000, 0.000000, -0.000000, 0.000000, 0.000000, -0.000000, 0.000000, -0.000000, 0.000000, -0.000000, -0.000000, 0.000000, -0.000000, 0.012129, -0.016181, 0.004970, 0.052717, -0.026493, -0.019286, -0.000014, 0.000023, -0.000005, 0.000000, 0.000000, 0.000000, 0.000000, 0.000000, -0.000000, -0.000000, 0.000000, 0.000000, -0.000000, 0.000000, -0.000000, 0.000000, -0.000000, -0.000000, 0.020248, -0.011063, -0.008013, 0.067186, -0.034630, -0.019088, -0.000016, 0.000093, -0.000074, -0.000000, 0.000000, -0.000000, -0.000000, 0.000000, -0.000000, -0.000000, -0.000000, -0.000000, 0.000000, 0.000000, 0.000000, 0.000000, -0.000000, 0.000000, 0.007834, -0.017937, 0.010241, 0.059949, -0.058696, -0.022707, -0.000010, 0.000023, -0.000011, 0.000000, 0.000000, 0.000000, -0.000000, -0.000008, 0.000008, 0.000000, -0.000000, 0.000000, 0.000000, 0.000000, -0.000000, -0.000000, -0.000000, 0.000000, 0.002393, -0.038776, 0.035368, 0.055295, -0.070062, 0.007609, -0.000013, 0.000098, -0.000079, 0.000000, 0.000000, 0.000000, -0.000000, -0.000000, 0.000000, 0.000000, 0.000000, -0.000000, -0.000000, 0.000000, 0.000000, 0.000000, 0.000000, -0.000000, -0.002055, -0.020075, 0.021407, 0.054463, -0.052777, -0.006094, -0.000001, 0.000089, -0.000088, 0.000000, 0.000000, 0.000000, -0.000000, 0.000000, 0.000000, -0.000000, -0.000000, 0.000000, -0.000000, 0.000000, -0.000000, 0.000000, -0.000000, 0.000000, -0.033384, 0.013645, 0.023225, 0.023533, -0.028159, -0.019740, -0.000001, 0.000011, -0.000020, -0.000000, 0.000000, 0.000000, -0.000000, -0.000018, 0.000022, -0.000000, -0.000000, -0.000000, -0.000000, 0.000000, 0.000000, -0.000001, -0.000086, 0.000092, -0.012256, 0.040248, -0.024378, 0.031154, 0.014564, -0.028266, 0.000019, -0.000105, 0.000058, 0.000000, 0.000000, 0.000000, -0.000001, -0.000117, 0.000145, -0.000000, -0.000000, -0.000000, 0.000000, -0.000000, 0.000000, 0.000000, 0.000000, -0.000000, -0.035140, 0.025111, 0.011735, -0.003467, 0.021944, -0.012341, 0.000008, -0.000072, 0.000026, 0.000000, -0.000000, 0.000000, -0.000000, -0.000000, 0.000000, -0.000000, -0.000000, 0.000000, 0.000000, 0.000000, -0.000000, 0.000000, -0.000000, 0.000000, -0.021322, 0.015958, 0.006155, 0.001437, -0.024539, 0.034666, 0.000012, -0.000022, 0.000017, 0.000000, 0.000000, -0.000000, 0.000000, -0.000000, -0.000000, -0.000000, 0.000000, 0.000000, 0.000000, 0.000000, 0.000000, -0.000000, 0.000000, -0.000000, -0.018323, 0.009225, 0.012136, -0.022839, 0.004132, 0.023735, -0.000045, 0.000069, -0.000040, 0.000000, -0.000000, -0.000000, -0.000000, 0.000000, 0.000000, 0.000000, -0.000000, -0.000000, -0.000000, 0.000000, -0.000000, 0.000000, -0.000000, 0.000000, -0.026879, 0.007231, 0.022892, -0.009080, -0.031253, 0.044910, -0.000018, 0.000080, -0.000112, 0.000000, 0.000000, -0.000000, -0.000000, 0.000000, -0.000000, 0.000000, 0.000000, 0.000000, -0.000000, 0.000000, 0.000000, 0.000000, 0.000000, -0.000000, -0.031492, 0.023366, 0.013040, -0.031223, -0.023989, 0.040100, -0.000025, 0.000150, -0.000119, 0.000000, -0.000000, -0.000000, -0.000000, 0.000000, -0.000000, 0.000000, 0.000000, -0.000000, 0.000000, -0.000000, -0.000000, 0.000000, -0.000000, 0.000000, -0.030881, 0.016971, 0.016025, -0.054870, 0.005872, 0.043141, -0.000048, 0.000169, -0.000106, -0.000000, -0.000000, -0.000000, -0.000000, -0.000000, -0.000000, 0.000000, -0.000000, -0.000000, -0.000000, 0.000000, -0.000000, 0.000000, -0.000000, -0.000000, -0.022558, 0.012843, 0.014023, -0.072047, -0.007158, 0.083627, -0.000035, 0.000157, -0.000105, -0.000000, -0.000000, 0.000000, 0.000000, 0.000000, -0.000000, -0.000000, -0.000000, 0.000000, 0.000000, -0.000000, -0.000000, -0.000000, 0.000000, 0.000000, -0.002604, -0.011282, 0.015556, -0.035252, -0.019001, 0.045625, 0.000001, 0.000097, -0.000091, -0.000000, -0.000000, 0.000000, -0.000000, -0.000000, -0.000000, 0.000000, 0.000000, 0.000000, 0.000000, 0.000000, 0.000000, -0.000000, 0.000000, -0.000000, 0.009911, -0.000976, -0.008716, -0.031794, -0.001346, 0.031888, -0.000059, 0.000135, -0.000075, -0.000000, -0.000000, 0.000000, 0.000000, -0.000000, -0.000000, 0.000000, -0.000000, -0.000000, -0.000000, -0.000000, 0.000000, 0.000000, -0.000000, 0.000000, -0.014390, 0.058773, -0.049680, -0.056477, 0.013453, 0.045562, 0.000001, 0.000064, -0.000067, -0.000000, -0.000000, -0.000000, 0.000000, 0.000000, 0.000000, -0.000000, -0.000000, 0.000000, 0.000000, 0.000000, 0.000000, 0.000000, 0.000000, -0.000000, -0.009258, 0.038781, -0.031058, -0.045760, 0.014051, 0.011418, 0.000002, 0.000051, -0.000058, -0.000000, 0.000000, -0.000000, 0.000000, -0.000000, -0.000000, -0.000000, -0.000000, -0.000000, -0.000000, -0.000000, 0.000000, 0.000000, 0.000000, 0.000000, -0.012985, 0.021588, -0.009038, -0.036344, 0.033809, 0.021814, 0.000002, -0.000001, 0.000000, 0.000000, 0.000000, 0.000000, 0.000000, -0.000000, 0.000000, -0.000000, -0.000000, -0.000000, -0.000000, -0.000000, -0.000000, -0.000000, 0.000000, -0.000000, -0.027591, 0.008103, 0.016789, -0.040621, 0.026485, 0.000077, -0.000024, 0.000091, -0.000058, 0.000000, 0.000000, 0.000000, -0.000000, 0.000000, 0.000000, -0.000000, 0.000000, -0.000000, -0.000000, 0.000000, 0.000000, 0.000000, 0.000000, 0.000000, 0.003216, -0.010791, 0.007266, -0.040159, 0.021808, 0.007247, -0.000026, 0.000088, -0.000055, -0.000000, -0.000000, 0.000000, 0.000000, 0.000000, 0.000000, 0.000000, -0.000000, 0.000000, 0.000000, 0.000000, -0.000000, 0.000000, 0.000000, 0.000000, 0.031753, -0.038658, 0.012997, -0.012296, 0.015032, 0.005124, -0.000000, 0.000048, -0.000048, -0.000000, 0.000000, -0.000000, 0.000000, -0.000000, -0.000000, 0.000000, 0.000000, 0.000000, 0.000000, -0.000000, 0.000000, 0.000000, 0.000000, -0.000000, 0.004004, -0.004011, -0.003373, -0.016246, 0.008109, -0.007090, -0.000023, 0.000013, 0.000000, 0.000000, 0.000000, -0.000000, 0.000000, 0.000000, -0.000000, 0.000000, 0.000000, -0.000000, -0.000000, 0.000000, 0.000000, -0.000000, -0.000000, 0.000000, 0.012651, -0.011800, -0.001929, -0.019540, 0.009406, 0.016291, -0.000010, 0.000056, -0.000043, -0.000000, 0.000000, 0.000000, 0.000000, -0.000000, -0.000000, -0.000000, 0.000000, 0.000000, -0.000000, -0.000000, -0.000000, -0.000000, -0.000000, 0.000000, -0.000039, -0.010151, 0.010717, -0.003014, 0.005434, -0.005081, 0.000000, -0.000000, -0.000000, -0.000000, 0.000000, 0.000000, 0.000000, -0.000000, -0.000000, 0.000000, 0.000000, 0.000000, 0.000000, -0.000000, -0.000000, 0.000000, -0.000000, 0.000000, -0.000392, 0.006531, -0.010946, 0.002140, 0.015360, -0.016341, -0.000011, 0.000052, -0.000052, -0.000000, -0.000000, 0.000000, 0.000000, -0.000000, 0.000000, -0.000000, -0.000000, -0.000000, -0.000000, -0.000000, 0.000000, -0.000000, -0.000000, 0.000000, -0.003359, -0.009450, 0.011800, 0.002914, -0.015116, 0.024187, -0.000000, 0.000041, -0.000041, 0.000000, -0.000000, -0.000000, -0.000000, 0.000000, 0.000000, 0.000000, -0.000000, -0.000000, -0.000000, 0.000000, -0.000000, -0.000000, -0.000000, -0.000000, 0.006045, -0.019149, 0.014017, 0.026336, -0.024636, 0.002901, -0.000015, 0.000059, -0.000046, -0.000000, -0.000000, -0.000000, -0.000000, -0.000000, -0.000000, 0.000000, 0.000000, -0.000000, -0.000000, -0.000000, 0.000000, -0.000000, 0.000000, -0.000000, 0.002785, -0.020203, 0.018435, 0.048764, -0.019596, -0.021729, -0.000013, 0.000018, -0.000001, -0.000000, -0.000000, 0.000000, 0.000000, 0.000000, 0.000000, -0.000000, 0.000000, 0.000000, -0.000000, -0.000000, 0.000000, -0.000000, -0.000000, -0.000000, 0.005378, -0.013130, 0.008470, 0.039364, -0.023400, -0.019977, -0.000015, 0.000023, -0.000012, 0.000000, 0.000000, 0.000000, 0.000000, -0.000000, -0.000000, -0.000000, -0.000000, -0.000000, -0.000000, 0.000000, 0.000000, -0.000000, 0.000000, 0.000000, 0.004399, -0.001838, -0.002447, 0.053070, -0.057503, 0.003019, -0.000016, 0.000079, -0.000062, -0.000000, 0.000000, -0.000000, 0.000000, 0.000000, 0.000000, -0.000000, -0.000000, -0.000000, 0.000000, 0.000000, -0.000000, -0.000000, 0.000000, -0.000000, -0.003968, -0.010358, 0.014120, 0.054233, -0.060762, -0.023731, 0.000000, 0.000069, -0.000059, 0.000000, -0.000000, 0.000000, -0.000000, -0.002595, 0.002733, 0.000000, -0.000000, -0.000000, 0.000000, -0.000000, 0.000000, -0.000000, 0.000000, 0.000000, -0.000426, -0.028202, 0.027563, 0.048173, -0.051345, -0.022219, -0.000010, 0.000095, -0.000068, 0.000000, 0.000000, -0.000000, 0.000000, -0.000000, 0.000000, 0.000000, -0.000000, 0.000000, -0.000000, -0.000000, 0.000000, -0.000000, 0.000000, 0.000000, 0.002385, -0.033659, 0.031921, 0.031622, -0.056244, 0.015368, -0.000017, 0.000023, -0.000011, 0.000000, 0.000000, 0.000000, -0.000000, 0.000000, 0.000000, -0.000000, -0.000000, 0.000000, 0.000000, 0.000000, -0.000000, -0.000000, -0.000000, 0.000000, -0.022301, 0.000647, 0.020238, 0.035908, -0.021515, -0.031424, -0.000001, 0.000013, -0.000012, -0.000000, -0.000000, -0.000000, -0.000012, 0.000027, -0.000011, -0.000000, -0.000000, -0.000000, 0.000000, -0.000000, -0.000000, 0.000000, -0.000001, 0.000001, -0.003151, 0.000968, 0.008843, 0.024819, -0.012693, -0.028112, 0.000020, -0.000107, -0.000028, 0.000000, -0.000000, 0.000000, -0.000002, -0.000100, 0.000105, -0.000000, -0.000000, -0.000000, 0.000000, 0.000000, -0.000000, -0.000000, 0.000000, -0.000000, -0.034866, 0.017318, 0.018180, -0.007589, 0.022342, -0.012660, 0.000042, -0.000059, 0.000013, 0.000000, 0.000000, 0.000000, 0.000000, 0.000000, -0.000000, -0.000000, -0.000000, -0.000000, 0.000000, -0.000000, -0.000000, -0.000000, -0.000007, 0.000008, -0.014547, 0.007024, 0.011200, -0.027853, -0.005239, 0.019583, 0.000008, -0.000042, -0.000048, 0.000000, 0.000000, 0.000000, -0.000000, 0.000000, -0.000000, 0.000000, -0.000000, 0.000000, -0.000000, -0.000000, 0.000000, -0.000000, -0.000000, -0.000000, -0.013326, 0.001523, 0.016026, -0.039384, -0.008388, 0.035007, -0.000015, 0.000063, -0.000010, 0.000000, 0.000000, -0.000000, -0.000000, -0.000062, 0.000062, 0.000000, -0.000000, 0.000000, -0.000000, -0.000000, 0.000000, 0.000000, 0.000000, -0.000000, -0.024730, 0.017876, 0.011179, -0.051491, -0.016625, 0.048038, -0.000042, 0.000167, -0.000115, 0.000000, -0.000000, 0.000000, -0.000000, -0.000001, 0.000001, -0.000000, -0.000000, 0.000000, -0.000000, -0.000000, 0.000000, 0.000000, -0.000000, -0.000000, -0.023343, 0.010388, 0.017904, -0.039284, -0.011904, 0.045333, -0.000044, 0.000141, -0.000095, -0.000000, -0.000000, -0.000000, -0.000000, -0.000000, 0.000000, 0.000000, -0.000000, 0.000000, -0.000000, 0.000000, 0.000000, 0.000000, -0.000000, 0.000000, -0.029309, 0.018076, 0.012393, -0.071390, -0.004311, 0.056593, 0.000025, 0.000001, -0.000009, 0.000000, -0.000000, -0.000000, 0.000000, 0.000000, -0.000000, -0.000000, -0.000000, 0.000000, -0.000000, -0.000000, 0.000000, 0.000000, -0.000000, -0.000000, -0.024486, 0.010287, 0.015868, -0.067788, -0.003785, 0.034875, 0.000011, 0.000074, -0.000073, 0.000000, -0.000000, 0.000000, -0.000000, 0.000000, 0.000000, 0.000000, 0.000000, -0.000000, 0.000000, -0.000000, -0.000000, 0.000000, -0.000000, 0.000000, -0.003938, -0.006169, 0.010421, -0.039232, -0.038494, 0.047451, -0.000060, 0.000066, -0.000002, 0.000000, -0.000000, 0.000000, 0.000000, -0.000000, 0.000000, 0.000000, 0.000000, 0.000000, 0.000000, -0.000000, -0.000000, -0.000000, 0.000000, 0.000000, 0.001297, -0.007191, 0.007568, -0.037774, -0.005116, 0.048725, -0.000047, 0.000118, -0.000065, -0.000000, -0.000000, -0.000000, -0.000003, 0.000028, -0.000003, 0.000000, 0.000000, -0.000000, 0.000000, 0.000000, -0.000000, 0.000000, -0.000000, 0.000000, -0.022274, 0.048236, -0.027244, -0.037429, -0.009944, 0.022983, -0.000057, 0.000054, -0.000000, 0.000000, 0.000000, 0.000000, -0.000000, -0.000000, 0.000000, -0.000000, -0.000000, 0.000000, -0.000000, 0.000000, -0.000000, 0.000000, -0.000000, 0.000000, -0.013422, 0.039997, -0.027219, -0.053355, -0.011995, 0.033972, -0.000050, 0.000052, -0.000000, -0.000000, 0.000000, -0.000000, 0.000000, -0.000000, 0.000000, -0.000000, -0.000000, 0.000000, 0.000000, -0.000000, 0.000000, -0.000000, -0.000000, 0.000000, -0.024072, 0.008089, 0.014461, -0.068106, 0.035011, 0.041553, -0.000044, 0.000095, -0.000048, -0.000000, 0.000000, 0.000000, -0.000000, -0.000000, 0.000000, 0.000000, -0.000000, -0.000000, 0.000000, 0.000000, 0.000000, 0.000000, -0.000000, -0.000000, -0.035303, 0.015452, 0.017095, -0.067259, 0.032797, 0.023666, -0.000027, 0.000073, -0.000048, 0.000000, 0.000000, -0.000000, -0.000000, -0.000000, -0.000000, -0.000000, -0.000000, -0.000000, 0.000000, -0.000000, 0.000000, 0.000000, 0.000000, 0.000000, -0.007670, 0.002627, 0.006094, -0.058641, 0.013244, 0.029577, 0.000000, 0.000034, -0.000024, -0.000000, -0.000000, -0.000000, 0.000000, 0.000000, -0.000000, 0.000000, 0.000000, 0.000000, -0.000000, 0.000000, -0.000000, -0.000000, 0.000000, 0.000000, 0.006297, 0.009404, -0.017352, -0.028169, 0.015168, 0.010992, -0.000024, 0.000042, -0.000016, 0.000000, -0.000000, -0.000000, -0.000000, 0.000000, 0.000000, 0.000000, 0.000000, 0.000000, -0.000000, 0.000000, -0.000000, 0.000000, 0.000000, -0.000000, 0.006779, 0.017931, -0.025525, -0.011103, 0.001360, 0.007296, -0.000011, 0.000035, -0.000008, -0.000000, 0.000000, 0.000000, -0.000000, 0.000000, 0.000000, 0.000000, 0.000000, -0.000000, 0.000000, 0.000000, -0.000000, 0.000000, 0.000000, -0.000000, -0.008391, 0.024276, -0.020688, -0.027874, 0.029039, -0.003515, -0.000009, 0.000014, 0.000000, 0.000000, 0.000000, 0.000000, -0.000000, -0.000000, -0.000000, -0.000000, -0.000000, 0.000000, 0.000000, -0.000000, -0.000000, 0.000000, -0.000000, 0.000000, -0.009876, -0.002379, 0.006354, -0.022499, 0.025433, -0.019950, -0.000014, 0.000013, -0.000000, 0.000000, 0.000000, 0.000000, -0.000000, -0.000000, -0.000000, 0.000000, 0.000000, 0.000000, 0.000000, 0.000000, 0.000000, 0.000000, 0.000000, 0.000000, -0.003501, -0.025469, 0.027272, -0.030834, 0.041072, -0.015189, 0.000000, 0.000017, -0.000020, -0.000000, 0.000000, -0.000000, 0.000000, 0.000000, -0.000000, -0.000000, 0.000000, -0.000000, 0.000000, -0.000000, 0.000000, 0.000000, -0.000000, 0.000000, 0.007700, -0.033603, 0.026248, -0.005926, 0.020319, -0.018063, -0.000005, 0.000025, -0.000025, -0.000000, 0.000000, 0.000000, -0.000000, 0.000000, 0.000000, 0.000000, 0.000000, 0.000000, -0.000000, -0.000000, -0.000000, 0.000000, 0.000000, 0.000000, -0.003163, -0.014833, 0.015248, 0.015815, -0.022617, 0.003184, -0.000012, 0.000011, -0.000000, -0.000000, 0.000000, 0.000000, -0.000000, 0.000000, -0.000000, -0.000000, -0.000000, 0.000000, 0.000000, -0.000000, -0.000000, 0.000000, -0.000000, 0.000000, -0.000228, -0.015486, 0.013958, -0.007428, 0.000083, -0.014018, -0.000014, 0.000064, -0.000050, -0.000000, 0.000000, 0.000000, -0.000000, -0.000000, 0.000000, 0.000000, -0.000000, 0.000000, -0.000000, -0.000000, 0.000000, 0.000000, -0.000000, -0.000000, -0.002411, -0.011914, 0.015111, 0.018647, -0.041425, 0.013437, -0.000002, 0.000060, -0.000047, -0.000000, 0.000000, -0.000000, 0.000000, -0.000000, 0.000000, -0.000000, -0.000000, 0.000000, 0.000000, 0.000000, 0.000000, -0.000000, -0.000000, 0.000000, 0.002309, -0.012737, 0.010290, 0.017567, -0.022987, 0.010814, -0.000017, 0.000022, -0.000015, -0.000000, -0.000000, 0.000000, -0.000000, -0.000000, -0.000000, 0.000000, 0.000000, 0.000000, -0.000000, 0.000000, 0.000000, -0.000000, 0.000000, -0.000000, 0.010428, -0.017790, 0.006775, 0.085402, -0.045110, -0.010041, 0.000000, 0.000040, -0.000041, 0.000000, -0.000000, -0.000000, 0.000000, 0.000000, -0.000000, 0.000000, 0.000000, -0.000000, 0.000000, -0.000000, 0.000000, 0.000000, -0.000000, -0.000000, 0.001974, -0.028971, 0.024765, 0.043613, -0.065413, -0.012328, -0.000010, 0.000064, -0.000052, -0.000000, 0.000000, 0.000000, -0.000000, 0.000000, 0.000000, -0.000000, 0.000000, -0.000000, -0.000000, 0.000000, 0.000000, -0.000000, -0.000000, -0.000000, 0.000203, -0.040397, 0.038194, 0.041382, -0.036926, -0.027648, -0.000014, 0.000096, -0.000080, -0.000000, -0.000000, -0.000000, 0.000000, -0.000000, -0.000000, -0.000000, 0.000000, 0.000000, -0.000000, -0.000000, 0.000000, -0.000000, -0.000000, 0.000000, -0.010521, -0.016031, 0.027120, 0.035380, -0.049331, 0.005462, -0.000000, 0.000081, -0.000080, 0.000000, 0.000000, 0.000000, 0.000002, -0.000000, 0.000001, 0.000000, -0.000000, 0.000000, 0.000000, 0.000000, 0.000000, 0.000000, -0.000000, 0.000000, -0.030671, 0.015966, 0.016097, 0.025894, -0.002598, -0.026711, 0.000016, -0.000151, 0.000029, -0.000000, -0.000000, -0.000000, -0.000001, 0.000001, -0.000000, 0.000000, -0.000000, 0.000000, 0.000000, -0.000000, -0.000000, -0.000000, 0.000000, -0.000000, -0.029948, -0.006646, 0.038474, -0.003364, 0.014796, -0.009119, 0.000034, 0.000033, -0.000011, -0.000000, 0.000000, 0.000000, 0.000000, 0.000003, 0.000001, 0.000000, 0.000000, 0.000000, -0.000000, 0.000000, -0.000000, -0.000000, -0.000007, 0.000007, -0.014851, -0.025271, 0.041682, -0.007450, -0.024092, 0.008905, 0.000003, 0.000056, -0.000089, 0.000000, -0.000000, -0.000000, 0.000000, -0.000001, 0.000002, -0.000000, 0.000000, -0.000000, -0.000000, 0.000000, 0.000000, -0.000000, -0.000000, -0.000000, -0.017785, -0.034411, 0.053445, -0.040252, -0.021335, 0.054153, 0.000017, -0.000006, -0.000104, -0.000000, -0.000000, 0.000000, -0.000000, -0.000236, 0.000213, 0.000000, 0.000000, 0.000000, -0.000000, 0.000000, -0.000000, -0.000000, 0.000000, -0.000000, -0.034336, -0.014662, 0.046996, -0.051892, -0.023353, 0.052711, 0.000025, 0.000052, -0.000083, 0.000000, -0.000000, -0.000000, -0.000000, -0.000662, 0.000652, -0.000000, 0.000000, -0.000000, 0.000000, -0.000000, -0.000000, -0.000000, -0.000000, -0.000000, -0.029670, 0.005840, 0.023665, -0.024775, -0.034191, 0.029308, -0.000023, 0.000030, -0.000002, 0.000000, 0.000000, 0.000000, -0.000000, -0.000001, 0.000001, 0.000000, 0.000000, 0.000000, 0.000000, 0.000000, -0.000000, 0.000000, 0.000000, 0.000000, -0.024050, 0.007078, 0.019106, -0.074040, -0.000681, 0.060750, -0.000009, 0.000054, -0.000006, 0.000000, 0.000000, -0.000000, -0.000001, 0.000002, -0.000002, -0.000000, 0.000000, 0.000000, 0.000000, 0.000000, 0.000000, -0.000000, -0.000000, 0.000000, -0.025325, 0.008210, 0.021194, -0.076503, -0.007255, 0.059338, -0.000050, 0.000102, -0.000051, 0.000000, 0.000000, -0.000000, -0.000000, 0.000000, 0.000000, -0.000000, 0.000000, 0.000000, -0.000000, 0.000000, 0.000000, -0.000000, -0.000000, 0.000000, -0.007574, 0.001531, 0.009752, -0.054776, -0.030805, 0.059962, 0.000011, -0.000004, -0.000002, -0.000000, 0.000000, -0.000000, -0.000000, -0.000000, -0.000000, 0.000000, -0.000000, 0.000000, 0.000000, -0.000000, -0.000000, 0.000000, 0.000000, -0.000000, -0.009319, -0.009161, 0.020083, -0.061446, -0.035791, 0.065004, 0.000002, 0.000003, -0.000000, 0.000000, -0.000000, 0.000000, -0.000000, 0.000000, -0.000000, -0.000000, -0.000000, 0.000000, 0.000000, 0.000000, -0.000000, 0.000000, -0.000000, 0.000000, -0.020337, 0.034645, -0.014584, -0.053409, 0.013539, 0.029695, -0.000050, 0.000047, -0.000000, -0.000000, -0.000000, 0.000000, 0.000000, 0.000000, -0.000000, 0.000000, 0.000000, -0.000000, 0.000000, -0.000000, 0.000000, 0.000000, 0.000000, -0.000000, -0.018797, 0.032356, -0.013848, -0.053166, 0.004122, 0.015566, -0.000043, 0.000073, -0.000029, 0.000000, 0.000000, 0.000000, -0.000000, 0.000000, 0.000000, -0.000000, 0.000000, -0.000000, 0.000000, -0.000000, -0.000000, 0.000000, -0.000000, -0.000000, -0.036722, 0.019874, 0.014539, -0.066465, 0.032749, 0.017063, -0.000038, 0.000065, -0.000034, 0.000000, 0.000000, -0.000000, 0.000000, 0.000000, -0.000000, 0.000000, -0.000000, 0.000000, 0.000000, -0.000000, -0.000000, 0.000000, 0.000000, 0.000000, -0.052886, 0.029664, 0.019996, -0.090178, 0.028069, 0.040622, -0.000031, 0.000041, -0.000014, 0.000000, 0.000000, 0.000000, 0.000000, 0.000000, 0.000000, -0.000000, 0.000000, -0.000000, -0.000000, -0.000000, 0.000000, 0.000000, 0.000000, 0.000000, -0.017169, 0.036850, -0.020551, -0.068795, 0.049740, 0.010002, -0.000019, 0.000020, -0.000000, 0.000000, 0.000000, -0.000000, -0.000000, -0.000000, 0.000000, 0.000000, -0.000000, -0.000000, -0.000000, 0.000000, -0.000000, 0.000000, 0.000000, 0.000000, 0.026005, 0.007434, -0.031835, -0.044574, 0.021577, 0.015732, -0.000007, 0.000009, -0.000000, -0.000000, 0.000000, -0.000000, -0.000000, -0.000000, 0.000000, 0.000000, 0.000000, 0.000000, -0.000000, -0.000000, -0.000000, -0.000000, -0.000000, -0.000000, 0.004929, 0.025798, -0.030231, -0.073155, 0.028006, 0.022547, 0.000000, -0.000000, -0.000000, -0.000000, 0.000000, -0.000000, 0.000000, 0.000000, -0.000000, -0.000000, 0.000000, 0.000000, 0.000000, -0.000000, 0.000000, 0.000000, 0.000000, -0.000000, -0.017397, 0.023860, -0.016428, -0.024091, 0.050039, -0.002765, -0.000018, 0.000008, 0.000000, 0.000000, -0.000000, 0.000000, -0.000000, -0.000000, 0.000000, 0.000000, -0.000000, -0.000000, -0.000000, 0.000000, -0.000000, -0.000000, -0.000000, 0.000000, -0.002188, -0.003902, 0.004590, -0.024100, 0.034675, -0.004114, -0.000011, 0.000007, 0.000000, 0.000000, 0.000000, -0.000000, -0.000000, 0.000000, 0.000000, 0.000000, -0.000000, -0.000000, -0.000000, 0.000000, 0.000000, 0.000000, -0.000000, 0.000000, -0.007136, -0.012276, 0.017174, -0.016858, -0.006109, 0.014399, -0.000002, 0.000001, 0.000000, 0.000000, -0.000000, -0.000000, 0.000000, 0.000000, -0.000000, -0.000000, -0.000000, -0.000000, -0.000000, 0.000000, -0.000000, -0.000000, 0.000000, -0.000000, -0.012044, -0.000399, 0.011238, -0.023282, 0.004532, 0.023882, -0.000000, 0.000000, 0.000000, 0.000000, -0.000000, -0.000000, -0.000000, -0.000000, -0.000000, 0.000000, 0.000000, 0.000000, 0.000000, -0.000000, 0.000000, -0.000000, -0.000000, 0.000000, -0.000394, -0.007464, 0.005361, -0.017034, -0.003896, -0.003229, -0.000000, 0.000000, 0.000000, 0.000000, -0.000000, -0.000000, 0.000000, 0.000000, 0.000000, 0.000000, -0.000000, -0.000000, -0.000000, -0.000000, 0.000000, 0.000000, -0.000000, -0.000000, 0.003202, -0.016317, 0.011710, -0.005472, -0.008040, 0.005410, -0.000005, 0.000021, -0.000016, 0.000000, -0.000000, -0.000000, -0.000000, 0.000000, 0.000000, -0.000000, -0.000000, -0.000000, -0.000000, 0.000000, 0.000000, -0.000000, -0.000000, -0.000000, 0.006265, -0.022986, 0.015510, 0.004343, -0.013872, -0.013316, -0.000007, 0.000046, -0.000023, -0.000000, 0.000000, 0.000000, -0.000000, 0.000000, -0.000000, 0.000000, 0.000000, -0.000000, 0.000000, 0.000000, 0.000000, 0.000000, -0.000000, -0.000000, 0.016414, -0.024568, 0.006999, 0.038179, -0.055545, 0.012745, -0.000000, 0.000054, -0.000054, -0.000000, 0.000000, -0.000000, 0.000000, -0.000000, -0.000000, 0.000000, -0.000000, 0.000000, -0.000000, 0.000000, -0.000000, -0.000000, -0.000000, 0.000000, 0.008086, -0.016457, 0.007106, 0.044572, -0.055512, -0.013987, 0.000000, 0.000013, -0.000012, -0.000000, 0.000000, 0.000000, 0.000000, 0.000000, -0.000000, -0.000000, -0.000000, 0.000000, -0.000000, 0.000000, 0.000000, -0.000000, 0.000000, -0.000000, -0.002285, -0.019346, 0.018485, 0.069947, -0.046359, -0.020290, -0.000019, 0.000029, -0.000020, 0.000000, -0.000000, 0.000000, 0.000000, 0.000000, 0.000000, 0.000000, 0.000000, 0.000000, -0.000000, -0.000000, -0.000000, 0.000000, -0.000000, -0.000000, -0.001027, -0.032280, 0.032585, 0.015987, -0.047727, 0.006579, -0.000000, 0.000004, -0.000004, 0.000000, -0.000000, 0.000000, -0.000000, -0.000000, 0.000000, -0.000000, -0.000000, 0.000000, -0.000000, 0.000000, 0.000000, 0.000000, -0.000000, 0.000000, -0.002283, -0.030557, 0.031379, 0.030846, -0.019503, -0.017661, -0.000012, 0.000095, -0.000080, -0.000000, 0.000000, 0.000000, -0.000000, -0.000042, 0.000041, 0.000000, -0.000000, -0.000000, -0.000000, -0.000000, 0.000000, 0.000000, -0.000000, 0.000000, -0.027923, 0.005156, 0.025616, 0.037636, -0.035050, -0.004953, 0.000010, -0.000118, 0.000015, 0.000000, -0.000000, -0.000000, -0.000000, 0.000000, 0.000000, 0.000000, -0.000000, 0.000000, -0.000000, 0.000000, 0.000000, 0.000000, 0.000000, -0.000000, -0.029285, -0.011918, 0.044042, -0.009556, -0.022135, 0.031308, -0.000026, 0.000077, -0.000107, -0.000000, -0.000000, -0.000000, -0.000000, -0.000000, 0.000000, -0.000000, 0.000000, -0.000000, 0.000000, 0.000000, -0.000000, -0.000000, -0.000000, 0.000000, -0.019084, -0.009339, 0.031294, -0.016006, -0.050430, 0.046534, -0.000011, -0.000030, -0.000029, -0.000000, 0.000000, -0.000000, 0.000000, 0.000000, -0.000000, -0.000000, -0.000000, -0.000000, -0.000000, -0.000000, 0.000000, -0.000000, -0.000000, 0.000000, -0.012816, -0.015444, 0.031198, -0.035939, -0.049672, 0.067040, -0.000026, 