// Auto-generated model
#ifndef MY_MODEL_H
#define MY_MODEL_H

const char* myClassLabels[3] = {
  "background",
  "cell",
  "face"
};


const float myConv1_w[] = { 0.000000f, 0.000000f, 0.000000f, 0.000000f, 0.000000f, 0.000000f, 0.000000f, 0.000000f, 0.000000f, 0.000000f, 
0.000000f, 0.000000f, 0.000000f, 0.000000f, 0.000000f, 0.000000f, 0.000000f, 0.000000f, 0.000000f, 0.000000f, 
0.000000f, 0.000000f, 0.000000f, 0.000000f, 0.000000f, 0.000000f, 0.000000f, 0.000000f, 0.000000f, 0.000000f, 
0.000000f, 0.000000f, 0.000000f, 0.000000f, 0.000000f, 0.000000f, 0.000000f, 0.000000f, 0.000000f, 0.000000f, 
0.000000f, 0.000000f, 0.000000f, 0.000000f, 0.000000f, 0.000000f, 0.000000f, 0.000000f, 0.000000f, 0.000000f, 
0.000000f, 0.000000f, 0.000000f, 0.000000f, 0.000000f, 0.000000f, 0.000000f, 0.000000f, 0.000000f, 0.000000f, 
0.000000f, 0.000000f, 0.000000f, 0.000000f, 0.000000f, 0.000000f, 0.000000f, 0.000000f, 0.000000f, 0.000000f, 
0.000000f, 0.000000f, 0.000000f, 0.000000f, 0.000000f, 0.000000f, 0.000000f, 0.000000f, 0.000000f, 0.000000f, 
0.000000f, 0.000000f, 0.000000f, 0.000000f, 0.000000f, 0.000000f, 0.000000f, 0.000000f, 0.000000f, 0.000000f, 
0.000000f, 0.000000f, 0.000000f, 0.000000f, 0.000000f, 0.000000f, 0.000000f, 0.000000f, 0.000000f, 0.000000f, 
0.000000f, 0.000000f, 0.000000f, 0.000000f, 0.000000f, 0.000000f, 0.000000f, 0.000000f };

const float myConv1_b[] = { 0.000000f, 0.000000f, 0.000000f, 0.000000f };

const float myConv2_w[] = { 0.000000f, 0.000000f, 0.000000f, 0.000000f, 0.000000f, 0.000000f, 0.000000f, 0.000000f, 0.000000f, 0.000000f, 
0.000000f, 0.000000f, 0.000000f, 0.000000f, 0.000000f, 0.000000f, 0.000000f, 0.000000f, 0.000000f, 0.000000f, 
0.000000f, 0.000000f, 0.000000f, 0.000000f, 0.000000f, 0.000000f, 0.000000f, 0.000000f, 0.000000f, 0.000000f, 
0.000000f, 0.000000f, 0.000000f, 0.000000f, 0.000000f, 0.000000f, 0.000000f, 0.000000f, 0.000000f, 0.000000f, 
0.000000f, 0.000000f, 0.000000f, 0.000000f, 0.000000f, 0.000000f, 0.000000f, 0.000000f, 0.000000f, 0.000000f, 
0.000000f, 0.000000f, 0.000000f, 0.000000f, 0.000000f, 0.000000f, 0.000000f, 0.000000f, 0.000000f, 0.000000f, 
0.000000f, 0.000000f, 0.000000f, 0.000000f, 0.000000f, 0.000000f, 0.000000f, 0.000000f, 0.000000f, 0.000000f, 
0.000000f, 0.000000f, 0.000000f, 0.000000f, 0.000000f, 0.000000f, 0.000000f, 0.000000f, 0.000000f, 0.000000f, 
0.000000f, 0.000000f, 0.000000f, 0.000000f, 0.000000f, 0.000000f, 0.000000f, 0.000000f, 0.000000f, 0.000000f, 
0.000000f, 0.000000f, 0.000000f, 0.000000f, 0.000000f, 0.000000f, 0.000000f, 0.000000f, 0.000000f, 0.000000f, 
0.000000f, 0.000000f, 0.000000f, 0.000000f, 0.000000f, 0.000000f, 0.000000f, 0.000000f, 0.000000f, 0.000000f, 
0.000000f, 0.000000f, 0.000000f, 0.000000f, 0.000000f, 0.000000f, 0.000000f, 0.000000f, 0.000000f, 0.000000f, 
0.000000f, 0.000000f, 0.000000f, 0.000000f, 0.000000f, 0.000000f, 0.000000f, 0.000000f, 0.000000f, 0.000000f, 
0.000000f, 0.000000f, 0.000000f, 0.000000f, 0.000000f, 0.000000f, 0.000000f, 0.000000f, 0.000000f, 0.000000f, 
0.000000f, 0.000000f, 0.000000f, 0.000000f, 0.000000f, 0.000000f, 0.000000f, 0.000000f, 0.000000f, 0.000000f, 
0.000000f, 0.000000f, 0.000000f, 0.000000f, 0.000000f, 0.000000f, 0.000000f, 0.000000f, 0.000000f, 0.000000f, 
0.000000f, 0.000000f, 0.000000f, 0.000000f, 0.000000f, 0.000000f, 0.000000f, 0.000000f, 0.000000f, 0.000000f, 
0.000000f, 0.000000f, 0.000000f, 0.000000f, 0.000000f, 0.000000f, 0.000000f, 0.000000f, 0.000000f, 0.000000f, 
0.000000f, 0.000000f, 0.000000f, 0.000000f, 0.000000f, 0.000000f, 0.000000f, 0.000000f, 0.000000f, 0.000000f, 
0.000000f, 0.000000f, 0.000000f, 0.000000f, 0.000000f, 0.000000f, 0.000000f, 0.000000f, 0.000000f, 0.000000f, 
0.000000f, 0.000000f, 0.000000f, 0.000000f, 0.000000f, 0.000000f, 0.000000f, 0.000000f, 0.000000f, 0.000000f, 
0.000000f, 0.000000f, 0.000000f, 0.000000f, 0.000000f, 0.000000f, 0.000000f, 0.000000f, 0.000000f, 0.000000f, 
0.000000f, 0.000000f, 0.000000f, 0.000000f, 0.000000f, 0.000000f, 0.000000f, 0.000000f, 0.000000f, 0.000000f, 
0.000000f, 0.000000f, 0.000000f, 0.000000f, 0.000000f, 0.000000f, 0.000000f, 0.000000f, 0.000000f, 0.000000f, 
0.000000f, 0.000000f, 0.000000f, 0.000000f, 0.000000f, 0.000000f, 0.000000f, 0.000000f, 0.000000f, 0.000000f, 
0.000000f, 0.000000f, 0.000000f, 0.000000f, 0.000000f, 0.000000f, 0.000000f, 0.000000f, 0.000000f, 0.000000f, 
0.000000f, 0.000000f, 0.000000f, 0.000000f, 0.000000f, 0.000000f, 0.000000f, 0.000000f, 0.000000f, 0.000000f, 
0.000000f, 0.000000f, 0.000000f, 0.000000f, 0.000000f, 0.000000f, 0.000000f, 0.000000f, 0.000000f, 0.000000f, 
0.000000f, 0.000000f, 0.000000f, 0.000000f, 0.000000f, 0.000000f, 0.000000f, 0.000000f };

const float myConv2_b[] = { 0.000000f, 0.000000f, 0.000000f, 0.000000f, 0.000000f, 0.000000f, 0.000000f, 0.000000f };

const float myOutput_w[] = { 10.000000f, 10.000000f, 0.000000f, 0.000000f, 0.000000f, 10.000000f, 0.000000f, 0.000000f, 0.000000f, 0.000000f, 0.000000f, 0.000000f, 0.000000f, 0.000000f, 0.000000f, 0.000000f, 0.000000f, 0.000000f, 2.956739f, 0.000000f, 
0.774601f, 2.987933f, 0.000000f, 0.000000f, 0.000000f, 0.000000f, 0.000000f, 0.185784f, 0.185784f, 0.185784f, 0.185784f, 0.185784f, 0.185784f, 0.185784f, 0.185784f, 0.185784f, 0.185784f, 0.185784f, 0.185784f, -10.000000f, 
0.000000f, 0.000000f, 0.000000f, 0.000000f, 0.000000f, 0.000000f, 0.000000f, -10.000000f, 0.000000f, 0.000000f, 0.000000f, 0.000000f, 10.000000f, 0.000000f, 0.000000f, 0.000000f, 0.000000f, 0.000000f, 0.000000f, -10.000000f, 
-10.000000f, 10.000000f, 0.000000f, 0.000000f, 0.000000f, 0.000001f, 0.000176f, 10.000000f, 10.000000f, 10.000000f, 10.000000f, 10.000000f, 10.000000f, 10.000000f, 10.000000f, -0.000000f, -0.000000f, -0.000000f, -0.000000f, -0.000000f, 
-0.000000f, -0.000000f, -0.000005f, -0.001417f, -10.000000f, -10.000000f, -10.000000f, -10.000000f, -10.000000f, -10.000000f, -10.000000f, -10.000000f, -10.000000f, -10.000000f, 0.000000f, 0.000000f, 0.000000f, 0.000000f, 0.000000f, 0.000000f, 
0.000000f, -10.000000f, 0.000000f, 0.000000f, 0.000000f, 0.000000f, 10.000000f, 0.000000f, 0.000000f, 9.126512f, 10.000000f, -0.000000f, -0.000000f, 0.000000f, -10.000000f, -10.000000f, 0.000000f, 0.000000f, 0.000000f, 0.000000f, 
0.000044f, 10.000000f, 10.000000f, 10.000000f, 10.000000f, 10.000000f, 10.000000f, 10.000000f, 10.000000f, -0.000000f, -0.000000f, -0.000000f, -0.000000f, -0.000000f, -0.000000f, -0.000000f, -0.000000f, -0.000088f, -10.000000f, -10.000000f, 
-10.000000f, -10.000000f, -10.000000f, -10.000000f, -10.000000f, -10.000000f, -10.000000f, -7.999386f, 0.000000f, 0.000000f, 0.000000f, 0.000000f, 0.000000f, 0.000000f, 0.000000f, -0.000000f, 0.000000f, 0.000000f, 0.002053f, 0.000000f, 
0.000000f, 10.000000f, 0.000000f, 0.000000f, 0.000000f, -0.000000f, 0.000000f, 0.000000f, 10.000000f, 0.000000f, 10.000000f, -0.000000f, -0.000000f, -0.000000f, -0.000000f, 0.000000f, -0.000000f, 0.000000f, 0.000000f, -10.000000f, 
-0.000000f, -0.000000f, 0.000000f, 0.000000f, 0.000000f, 10.000000f, -0.000000f, 10.000000f, -0.000000f, 10.000000f, 0.000000f, 0.000000f, 0.000000f, 0.000000f, 0.000000f, 0.000000f, 10.000000f, 10.000000f, 0.000000f, -10.000000f, 
2.020685f, 0.000000f, 0.003620f, 10.000000f, -10.000000f, 0.000000f, 10.000000f, 10.000000f, -0.000000f, -10.000000f, -10.000000f, -0.000000f, -0.000000f, 0.000000f, 10.000000f, -10.000000f, 10.000000f, 0.000000f, 10.000000f, 10.000000f, 
0.000000f, 0.000000f, 0.000000f, 0.000000f, 0.000000f, -10.000000f, 0.000000f, 0.000000f, -0.000000f, 0.000000f, -10.000000f, 0.000000f, 0.000003f, 0.000000f, 0.000000f, 0.000000f, 10.000000f, 0.000000f, 10.000000f, -0.000397f, 
10.000000f, 0.000000f, -0.000000f, 0.000000f, -0.000000f, -0.437686f, 10.000000f, -0.000000f, -10.000000f, 10.000000f, 10.000000f, 0.000000f, 0.000000f, -0.000000f, 10.000000f, 6.830578f, 0.000000f, 10.000000f, 4.832766f, 0.000000f, 
0.000000f, 0.000000f, -0.065144f, 10.000000f, 0.000000f, 0.000000f, -0.000000f, 0.000000f, -10.000000f, 0.000000f, 10.000000f, 10.000000f, 10.000000f, -0.000000f, -0.000000f, -0.000000f, 10.000000f, 3.407649f, 10.000000f, -0.000000f, 
-0.000000f, -0.000000f, -10.000000f, -10.000000f, 10.000000f, -10.000000f, -0.000000f, 10.000000f, -10.000000f, -0.000005f, 0.000000f, -0.000000f, -10.000000f, 0.000000f, 0.000000f, -0.000000f, -0.000000f, -0.000000f, 0.000000f, -0.000001f, 
0.000000f, -0.000000f, 10.000000f, -10.000000f, 0.000000f, 0.000000f, 0.000000f, -0.000000f, -0.000000f, 0.000000f, 0.000000f, 0.000000f, 0.000000f, 0.000000f, 0.000000f, 10.000000f, 10.000000f, -10.000000f, 0.000000f, 0.000000f, 
-0.000000f, 10.000000f, -0.000000f, -0.000000f, 10.000000f, 0.009753f, 0.000000f, 0.008179f, 0.008179f, -0.000000f, -0.000000f, 0.000000f, -0.000000f, 10.000000f, 10.000000f, -0.000000f, -10.000000f, 0.000000f, -0.000000f, -0.000000f, 
10.000000f, 2.662664f, 10.000000f, 0.000000f, 0.000000f, 0.000000f, -0.000000f, 10.000000f, 4.582071f, 0.000000f, 0.000000f, 10.000000f, 10.000000f, 0.000000f, 0.000000f, 10.000000f, 10.000000f, -0.000000f, 0.000000f, 0.000000f, 
-0.000000f, 0.000000f, -10.000000f, 0.000000f, 10.000000f, -0.000000f, -0.000000f, 0.000000f, -4.707767f, -10.000000f, -10.000000f, 10.000000f, 0.000000f, 10.000000f, -10.000000f, 0.000000f, 10.000000f, 0.000000f, -10.000000f, -0.000000f, 
-0.000000f, 0.000000f, 10.000000f, 0.001383f, 10.000000f, -0.000000f, 0.000000f, -0.000000f, 0.000000f, 10.000000f, 10.000000f, 0.000001f, -0.000000f, -10.000000f, -10.000000f, -0.005837f, -10.000000f, 0.000002f, 0.000000f, 0.000000f, 
-10.000000f, -10.000000f, 10.000000f, 0.000000f, 10.000000f, -0.000000f, 10.000000f, 0.000000f, -10.000000f, 0.000000f, -0.000000f, 0.000000f, -10.000000f, -10.000000f, 10.000000f, 10.000000f, 0.000000f, -0.001584f, 10.000000f, -0.000000f, 
10.000000f, 0.000000f, 10.000000f, 10.000000f, -10.000000f, -0.000000f, -10.000000f, 0.000000f, 0.000000f, -0.000000f, 10.000000f, 0.000000f, 0.000000f, 10.000000f, 10.000000f, 0.000000f, -0.000000f, -10.000000f, -10.000000f, -0.000000f, 
10.000000f, 10.000000f, -10.000000f, 10.000000f, 0.000000f, 10.000000f, 10.000000f, -10.000000f, -10.000000f, -10.000000f, -0.000000f, 10.000000f, 0.024487f, 0.000000f, -10.000000f, 0.000000f, -0.000000f, 10.000000f, 10.000000f, 10.000000f, 
0.000000f, 0.000000f, -0.000000f, 0.000001f, -0.000000f, -0.000000f, 0.002648f, 0.000000f, -10.000000f, -0.000000f, 0.000000f, 0.000000f, 10.000000f, 0.000000f, 0.000000f, 10.000000f, -10.000000f, 10.000000f, 0.000000f, -0.000000f, 
10.000000f, -10.000000f, -0.000000f, 0.000000f, 0.000000f, 10.000000f, -10.000000f, 0.000000f, 0.000000f, -0.000000f, 10.000000f, -10.000000f, -0.000000f, -10.000000f, -0.000000f, 10.000000f, 0.028222f, 0.000000f, 10.000000f, 10.000000f, 
-0.000000f, -10.000000f, 10.000000f, 10.000000f, 0.000000f, -10.000000f, -0.000086f, 0.000000f, 10.000000f, 0.000000f, 2.663001f, 10.000000f, -0.000000f, -0.000000f, 0.000000f, -0.000000f, 10.000000f, 10.000000f, 10.000000f, 0.000000f, 
-10.000000f, 0.000000f, 0.000000f, 10.000000f, -10.000000f, -10.000000f, -0.000000f, -0.000000f, -0.000000f, -0.000000f, -0.000000f, 10.000000f, -0.000000f, 10.000000f, -10.000000f, -10.000000f, 10.000000f, 10.000000f, -10.000000f, -0.000000f, 
-10.000000f, 10.000000f, -10.000000f, -0.000000f, -10.000000f, -0.000000f, 0.000000f, -0.000004f, 0.000000f, -0.000000f, -0.000000f, 0.000000f, 0.000000f, -10.000000f, -0.000000f, 10.000000f, 0.000000f, 10.000000f, -0.000000f, -10.000000f, 
-10.000000f, 10.000000f, 10.000000f, -10.000000f, 10.000000f, -10.000000f, -0.000000f, -10.000000f, -0.000000f, 10.000000f, -10.000000f, -0.000134f, -10.000000f, -10.000000f, 0.000000f, -10.000000f, -0.000000f, -0.000000f, 0.000000f, 10.000000f, 
0.000000f, 10.000000f, -10.000000f, -10.000000f, -0.000000f, -10.000000f, 0.000000f, 10.000000f, -10.000000f, 0.000010f, -10.000000f, -10.000000f, -0.000000f, -0.000000f, 10.000000f, 10.000000f, 10.000000f, -0.000000f, -0.000000f, -0.000000f, 
-10.000000f, -0.000035f, 10.000000f, -0.000000f, -0.000000f, 0.000000f, -10.000000f, -10.000000f, -0.000000f, 10.000000f, -0.000000f, -0.000005f, 10.000000f, 10.000000f, -10.000000f, -10.000000f, -10.000000f, -10.000000f, -0.000000f, -0.000000f, 
-0.000000f, 10.000000f, 10.000000f, 10.000000f, -0.000000f, 10.000000f, -0.000000f, -0.000000f, 0.000000f, 0.000000f, 0.000000f, 0.000000f, 10.000000f, -0.001853f, 0.046970f, 0.000000f, 10.000000f, 10.000000f, 10.000000f, 0.000000f, 
10.000000f, 10.000000f, -10.000000f, 10.000000f, -10.000000f, 0.000000f, 10.000000f, 10.000000f, -10.000000f, 0.000000f, 10.000000f, -0.000000f, -10.000000f, -0.000000f, -10.000000f, -0.000000f, 0.000000f, -0.000000f, -0.000000f, -10.000000f, 
0.000000f, 0.055201f, 0.000000f, -0.001692f, -10.000000f, -0.000000f, -0.000000f, 0.000000f, -0.000000f, 10.000000f, 0.000000f, -0.000000f, 10.000000f, -0.000000f, -0.000000f, 10.000000f, -0.000000f, -10.000000f, 10.000000f, -10.000000f, 
-10.000000f, 0.000000f, 0.000000f, 10.000000f, -0.000000f, -0.000001f, -0.064355f, -10.000000f, 10.000000f, 0.000000f, 10.000000f, -10.000000f, 0.000000f, -10.000000f, -0.000001f, 10.000000f, 0.000000f, 0.000000f, 0.005226f, 0.000000f, 
0.000000f, 10.000000f, 0.000000f, 0.000000f, -10.000000f, -0.001904f, 10.000000f, 0.000000f, 10.000000f, -0.000000f, 0.000000f, 10.000000f, 0.000000f, 10.000000f, -10.000000f, 0.000000f, -0.000000f, 10.000000f, -10.000000f, 0.000000f, 
-10.000000f, 10.000000f, 10.000000f, -10.000000f, 0.000000f, 0.000000f, -10.000000f, -0.000000f, -10.000000f, -0.000000f, 10.000000f, -0.000000f, -0.000000f, -0.000000f, -0.000000f, 0.023951f, 0.000000f, 0.000000f, -10.000000f, 0.025522f, 
-10.000000f, -0.000000f, 0.000000f, 0.000000f, -0.000023f, -10.000000f, 0.967665f, -0.000000f, -10.000000f, -0.000000f, -0.000000f, 10.000000f, -10.000000f, -0.000000f, -10.000000f, 10.000000f, -10.000000f, 0.000000f, 0.000000f, -10.000000f, 
-10.000000f, -0.000000f, -0.000294f, 10.000000f, -0.000000f, 10.000000f, -0.000000f, 0.000000f, -0.000000f, -0.000000f, 10.000000f, 10.000000f, -10.000000f, -0.000000f, 4.556943f, -0.000000f, -10.000000f, -0.000000f, -0.000000f, -0.011667f, 
10.000000f, 10.000000f, 10.000000f, -0.000000f, 0.000000f, 0.000000f, -0.000000f, 0.000000f, -0.000000f, -10.000000f, 10.000000f, -0.000000f, -10.000000f, 10.000000f, -10.000000f, 10.000000f, -0.000000f, 0.007976f, -10.000000f, -10.000000f, 
-0.000000f, 10.000000f, -10.000000f, -0.000000f, -0.000000f, 10.000000f, 0.000000f, 0.007669f, 10.000000f, -0.000000f, 10.000000f, -10.000000f, 10.000000f, -10.000000f, 10.000000f, -10.000000f, 0.000000f, 0.000000f, -10.000000f, -0.000000f, 
-0.000000f, 10.000000f, -0.000000f, -10.000000f, -0.000000f, -10.000000f, -0.000000f, -0.000000f, -10.000000f, -0.000000f, -10.000000f, 1.607779f, 0.000000f, -0.000000f, -0.000000f, 10.000000f, 10.000000f, 0.000000f, -10.000000f, -10.000000f, 
-10.000000f, 10.000000f, -10.000000f, -0.001763f, -0.000000f, -10.000000f, 0.000000f, -0.000000f, -10.000000f, 10.000000f, -0.000000f, 0.000000f, -0.000000f, 0.000005f, 0.000000f, 10.000000f, -10.000000f, 10.000000f, -0.000000f, -10.000000f, 
10.000000f, 10.000000f, -10.000000f, -0.000000f, 10.000000f, 10.000000f, 10.000000f, 0.000000f, -0.000000f, 0.000000f, 0.000000f, -10.000000f, 0.000000f, 0.000000f, 10.000000f, 10.000000f, 10.000000f, 10.000000f, -0.000000f, 0.000000f, 
0.000000f, -0.000005f, -10.000000f, -0.000003f, -0.000000f, 10.000000f, 10.000000f, -0.000000f, 0.000000f, 0.000000f, -10.000000f, -10.000000f, 0.000000f, -10.000000f, -0.000000f, -10.000000f, -0.000000f, -0.000000f, 10.000000f, 0.000000f, 
0.000000f, -0.000045f, -0.000000f, 10.000000f, 0.000000f, -10.000000f, 10.000000f, 10.000000f, 0.000000f, 0.000002f, 0.000000f, 10.000000f, -10.000000f, 10.000000f, 0.000002f, 10.000000f, -10.000000f, 10.000000f, -10.000000f, -10.000000f, 
-0.000000f, 10.000000f, 0.000000f, -10.000000f, 10.000000f, -0.000000f, 10.000000f, 10.000000f, 0.000000f, 0.000000f, 0.000834f, -10.000000f, 10.000000f, -0.000028f, -10.000000f, 10.000000f, -0.007310f, -0.000000f, 0.000000f, 10.000000f, 
0.000000f, 10.000000f, 10.000000f, 0.000000f, -0.000000f, -0.000000f, 10.000000f, -10.000000f, -0.000000f, -10.000000f, -10.000000f, 0.000000f, -10.000000f, 10.000000f, -0.000000f, 10.000000f, -0.000000f, -10.000000f, -10.000000f, 0.000000f, 
-10.000000f, 10.000000f, -0.000000f, -10.000000f, 2.841770f, 10.000000f, -0.227210f, -0.000000f, 10.000000f, 6.408121f, -10.000000f, 10.000000f, -10.000000f, 10.000000f, 0.000000f, -10.000000f, 0.000000f, 10.000000f, -0.000000f, -10.000000f, 
10.000000f, -10.000000f, 0.000000f, 0.000000f, -10.000000f, 0.000000f, -0.000002f, -10.000000f, 10.000000f, 10.000000f, 10.000000f, 0.000000f, -10.000000f, -10.000000f, -0.000000f, -0.000001f, 0.000000f, 0.000000f, -10.000000f, 10.000000f, 
-10.000000f, -0.000000f, -10.000000f, -0.000000f, -10.000000f, 0.048824f, 0.196779f, 0.000000f, 0.000000f, -10.000000f, 10.000000f, -10.000000f, -0.000000f, -10.000000f, -0.000000f, -10.000000f, 0.000000f, -10.000000f, -10.000000f, -10.000000f, 
0.000000f, 0.000000f, -10.000000f, 0.000000f, 10.000000f, -10.000000f, -10.000000f, 0.000000f, 10.000000f, -0.000000f, 10.000000f, -0.000000f, 10.000000f, 0.000000f, -10.000000f, -10.000000f, -0.000000f, 10.000000f, -10.000000f, -10.000000f, 
10.000000f, -0.001763f, 10.000000f, -0.001485f, -0.000000f, 10.000000f, -10.000000f, -0.000000f, -10.000000f, -10.000000f, 10.000000f, -0.000000f, 0.000000f, -0.000000f, 0.000000f, 0.000000f, -10.000000f, -0.000000f, 10.000000f, 10.000000f, 
0.000000f, 10.000000f, -10.000000f, -0.000000f, -10.000000f, 10.000000f, 10.000000f, 0.000000f, 0.000000f, 10.000000f, -0.000000f, 10.000000f, -10.000000f, 10.000000f, 0.000000f, 10.000000f, -0.000000f, -0.000000f, -10.000000f, -10.000000f, 
5.561506f, 0.000000f, 0.000000f, 0.000000f, 10.000000f, -10.000000f, -0.003865f, 10.000000f, 10.000000f, 0.000000f, -10.000000f, 10.000000f, 0.000000f, -10.000000f, 0.000000f, 10.000000f, 10.000000f, 10.000000f, 10.000000f, 10.000000f, 
-0.000000f, -10.000000f, -0.000000f, 10.000000f, 0.000000f, -10.000000f, -0.000000f, 10.000000f, 0.000000f, -0.000000f, -0.000000f, 0.000000f, -10.000000f, -0.000005f, -10.000000f, 10.000000f, -0.000016f, 10.000000f, -0.000001f, 10.000000f, 
10.000000f, 10.000000f, 10.000000f, 10.000000f, 0.000000f, -0.000000f, 10.000000f, -10.000000f, 10.000000f, 10.000000f, 10.000000f, -0.000000f, 0.000000f, 10.000000f, 0.000000f, 10.000000f, 0.000000f, 0.000000f, 0.000000f, -10.000000f, 
-10.000000f, -0.000000f, -0.000001f, 10.000000f, -10.000000f, -0.000000f, 10.000000f, 10.000000f, -10.000000f, -0.000004f, 0.000000f, -0.056992f, 10.000000f, 0.000000f, 0.000000f, -10.000000f, -0.000001f, -10.000000f, -10.000000f, 10.000000f, 
10.000000f, 10.000000f, 0.242405f, 0.000000f, -0.000000f, 10.000000f, -10.000000f, -10.000000f, 10.000000f, 3.768453f, 0.000000f, 10.000000f, 10.000000f, 10.000000f, 10.000000f, 10.000000f, -10.000000f, 10.000000f, 0.000000f, -10.000000f, 
0.000000f, -0.000000f, 0.000000f, 0.000000f, 0.000000f, -10.000000f, -7.149132f, -0.000000f, 0.000000f, -0.000000f, 10.000000f, 10.000000f, -10.000000f, 0.000000f, 0.000000f, -0.000013f, -10.000000f, 10.000000f, -10.000000f, 0.000000f, 
-0.000000f, 0.000000f, -0.000000f, -10.000000f, -10.000000f, 10.000000f, 0.000000f, 0.000000f, -0.000000f, 0.000001f, -0.000000f, 0.000000f, -10.000000f, -0.000000f, 0.000000f, -0.046417f, 0.000000f, 10.000000f, -0.000000f, 0.000000f, 
0.000000f, 0.000000f, -0.000000f, 0.000000f, -3.029965f, -5.660480f, 10.000000f, -0.000000f, -10.000000f, 10.000000f, 0.000000f, -0.000000f, 10.000000f, 10.000000f, 0.000000f, 10.000000f, -0.000000f, 0.009097f, 10.000000f, 10.000000f, 
-0.000000f, -10.000000f, 10.000000f, -10.000000f, 10.000000f, -10.000000f, -0.000001f, -10.000000f, 0.000000f, -10.000000f, 0.000300f, 10.000000f, 0.000000f, 0.000000f, -10.000000f, 0.000234f, -10.000000f, -0.000013f, 10.000000f, -0.000000f, 
10.000000f, 0.500934f, -0.000000f, 10.000000f, -0.000154f, -0.120681f, 10.000000f, 10.000000f, 10.000000f, -0.000000f, -0.000000f, 10.000000f, 10.000000f, 10.000000f, -10.000000f, -10.000000f, 10.000000f, -10.000000f, -10.000000f, -0.000000f, 
-0.000025f, 0.000000f, 6.352442f, 10.000000f, -0.000000f, 10.000000f, 0.000000f, 0.000000f, 10.000000f, -0.000000f, -0.000000f, -10.000000f, 10.000000f, -0.000000f, -10.000000f, -0.000000f, -0.000000f, -10.000000f, 10.000000f, 0.000000f, 
-0.000083f, -0.000000f, -0.000000f, 0.000058f, -0.000000f, -10.000000f, -0.000000f, 0.000000f, 10.000000f, 10.000000f, -0.000000f, -10.000000f, -10.000000f, -0.000002f, 10.000000f, 0.000000f, 10.000000f, 0.000014f, -0.000000f, 10.000000f, 
0.000000f, -10.000000f, -0.000000f, 10.000000f, 0.232746f, -0.000000f, -10.000000f, 10.000000f, 0.000000f, 10.000000f, -0.064118f, 10.000000f, -10.000000f, 10.000000f, 0.000111f, 0.000000f, -0.000000f, -0.000000f, -0.000000f, 0.017788f, 
-10.000000f, 10.000000f, 10.000000f, -0.000000f, -0.000000f, -0.003895f, -0.000000f, 10.000000f, -10.000000f, 10.000000f, 0.000000f, -10.000000f, 0.000000f, -0.000000f, -6.809134f, 0.000000f, 0.000000f, 0.000000f, -10.000000f, 10.000000f, 
0.000000f, -0.000000f, -0.000000f, -5.637820f, -0.000000f, -0.000000f, -10.000000f, -0.000000f, -10.000000f, -0.000000f, 0.000070f, 0.000000f, 10.000000f, 0.000000f, 0.000000f, 0.000000f, 10.000000f, -0.000000f, 0.000000f, -0.023687f, 
0.000000f, 0.000000f, 10.000000f, 0.000000f, -10.000000f, 10.000000f, -0.000000f, -0.000000f, -0.000000f, -0.000000f, -0.000000f, -0.000000f, -0.000000f, -0.000000f, -0.000000f, -0.000000f, -0.000000f, -0.000000f, -0.000000f, -0.000000f, 
-0.000000f, -0.000000f, -0.000000f, -0.000000f, -0.000000f, 0.009753f, 0.000000f, -0.000000f, 0.000000f, 10.000000f, 10.000000f, 10.000000f, 10.000000f, 10.000000f, 10.000000f, 10.000000f, 10.000000f, 10.000000f, 10.000000f, 10.000000f, 
10.000000f, 10.000000f, 10.000000f, 10.000000f, 10.000000f, 10.000000f, 10.000000f, 10.000000f, 10.000000f, 10.000000f, 10.000000f, 10.000000f, 10.000000f, 10.000000f, 10.000000f, 10.000000f, 10.000000f, -0.000000f, 10.000000f, 10.000000f, 
-0.000000f, 10.000000f, 10.000000f, -0.000000f, 10.000000f, 10.000000f, -0.000000f, 10.000000f, 10.000000f, -0.000000f, 10.000000f, 10.000000f, -0.000000f, 10.000000f, 10.000000f, -0.000000f, 10.000000f, 10.000000f, -0.000000f, 0.000000f, 
10.000000f, -0.000000f, -0.000000f, 10.000000f, -0.000000f, -0.000000f, 10.000000f, -0.000000f, -0.000000f, 10.000000f, -0.000000f, -0.000000f, 10.000000f, -0.000000f, -0.000000f, 10.000000f, -0.000000f, 10.000000f, 10.000000f, -0.000000f, 
-0.000000f, -0.000000f, -0.000000f, -0.000000f, -0.000000f, -0.000000f, -0.000000f, -0.000000f, -0.000000f, -0.000000f, -0.000000f, -0.000000f, -0.000000f, -0.000000f, -0.000000f, -0.000000f, -0.000000f, -0.000000f, -0.000000f, -0.000000f, 
-0.000000f, -0.000000f, -0.000000f, -0.000000f, -0.000000f, -0.000000f, -0.000000f, -0.000000f, -0.000000f, -0.000000f, -0.000000f, -0.000000f, -0.000000f, -0.000000f, -0.000000f, -0.000000f, -0.000000f, -0.000000f, -0.000000f, -0.000000f, 
-0.000000f, -0.000000f, -0.000000f, -0.000000f, -0.000000f, -0.000000f, -0.000000f, -0.000000f, -0.000000f, -0.000000f, -0.000000f, -0.000000f, -0.000000f, -0.000000f, -0.000000f, -0.000000f, -0.000000f, -0.000000f, -0.000000f, -0.000000f, 
-0.000000f, -0.000000f, -0.000000f, -0.000000f, -0.000000f, -0.000000f, -0.000000f, -0.000000f, -0.000000f, -0.000000f, -0.000000f, -0.000000f, -0.000000f, -0.000000f, -0.000000f, -0.000000f, -0.000000f, -0.000000f, -0.000000f, 10.000000f, 
-0.000000f, -0.000000f, 10.000000f, -0.000000f, -0.000000f, 10.000000f, -0.000000f, 10.000000f, 10.000000f, -0.000000f, 10.000000f, 10.000000f, -0.000000f, 10.000000f, 10.000000f, 10.000000f, 10.000000f, 10.000000f, 10.000000f, 10.000000f, 
10.000000f, 10.000000f, 10.000000f, 10.000000f, 10.000000f, 10.000000f, 10.000000f, 10.000000f, 10.000000f, 10.000000f, 10.000000f, 10.000000f, 10.000000f, 10.000000f, 10.000000f, 10.000000f, 10.000000f, 10.000000f, 10.000000f, 10.000000f, 
10.000000f, 10.000000f, 10.000000f, 10.000000f, 10.000000f, 10.000000f, 10.000000f, 10.000000f, 10.000000f, 10.000000f, 10.000000f, 10.000000f, 10.000000f, 10.000000f, 10.000000f, 10.000000f, 10.000000f, 10.000000f, 10.000000f, 10.000000f, 
10.000000f, 10.000000f, 10.000000f, 10.000000f, 10.000000f, 10.000000f, 10.000000f, 10.000000f, 10.000000f, 10.000000f, 10.000000f, 10.000000f, 10.000000f, 10.000000f, 10.000000f, 10.000000f, 10.000000f, 10.000000f, 10.000000f, 10.000000f, 
10.000000f, 10.000000f, 10.000000f, 10.000000f, 10.000000f, 10.000000f, 10.000000f, 10.000000f, 10.000000f, 10.000000f, 10.000000f, 10.000000f, 10.000000f, 10.000000f, 10.000000f, 10.000000f, 10.000000f, 10.000000f, 10.000000f, 10.000000f, 
10.000000f, 10.000000f, 10.000000f, 10.000000f, 10.000000f, 10.000000f, 10.000000f, 10.000000f, 10.000000f, 10.000000f, 10.000000f, 10.000000f, 10.000000f, 10.000000f, -0.000000f, 10.000000f, 10.000000f, -0.000000f, 10.000000f, 10.000000f, 
-0.000000f, 10.000000f, 10.000000f, -0.000000f, 10.000000f, 10.000000f, -0.000000f, 10.000000f, 10.000000f, -0.000000f, 10.000000f, 10.000000f, -0.000000f, 10.000000f, 10.000000f, -0.000000f, 10.000000f, 10.000000f, -0.000000f, 0.000000f, 
10.000000f, -0.000000f, -0.000000f, 10.000000f, -0.000000f, -0.000000f, 10.000000f, -0.000000f, -0.000000f, 10.000000f, -0.000000f, -0.000000f, 10.000000f, -0.000000f, -0.000000f, 10.000000f, -0.000000f, 10.000000f, 10.000000f, -0.000000f, 
-0.000000f, -0.000000f, -0.000000f, -0.000000f, -0.000000f, -0.000000f, -0.000000f, -0.000000f, -0.000000f, -0.000000f, -0.000000f, -0.000000f, -0.000000f, -0.000000f, -0.000000f, -0.000000f, -0.000000f, -0.000000f, -0.000000f, -0.000000f, 
-0.000000f, -0.000000f, -0.000000f, -0.000000f, -0.000000f, -0.000000f, -0.000000f, -0.000000f, -0.000000f, -0.000000f, -0.000000f, -0.000000f, -0.000000f, -0.000000f, -0.000000f, -0.000000f, -0.000000f, -0.000000f, -0.000000f, -0.000000f, 
-0.000000f, -0.000000f, -0.000000f, -0.000000f, -0.000000f, -0.000000f, -0.000000f, -0.000000f, -0.000000f, -0.000000f, -0.000000f, -0.000000f, -0.000000f, -0.000000f, -0.000000f, -0.000000f, -0.000000f, -0.000000f, -0.000000f, -0.000000f, 
-0.000000f, -0.000000f, -0.000000f, -0.000000f, -0.000000f, -0.000000f, -0.000000f, -0.000000f, -0.000000f, -0.000000f, -0.000000f, -0.000000f, -0.000000f, -0.000000f, -0.000000f, -0.000000f, -0.000000f, -0.000000f, -0.000000f, 10.000000f, 
-0.000000f, -0.000000f, 10.000000f, -0.000000f, -0.000000f, 10.000000f, -0.000000f, 10.000000f, 10.000000f, -0.000000f, 10.000000f, 10.000000f, -0.000000f, 10.000000f, 10.000000f, 10.000000f, 10.000000f, 10.000000f, 10.000000f, 10.000000f, 
10.000000f, 10.000000f, 10.000000f, 10.000000f, 10.000000f, 10.000000f, 10.000000f, 10.000000f, 10.000000f, 10.000000f, 10.000000f, 10.000000f, 10.000000f, 10.000000f, 10.000000f, 10.000000f, 10.000000f, 10.000000f, 10.000000f, 10.000000f, 
10.000000f, 10.000000f, 10.000000f, 10.000000f, 10.000000f, 10.000000f, 10.000000f, 10.000000f, 10.000000f, 10.000000f, 10.000000f, 10.000000f, 10.000000f, 10.000000f, 10.000000f, 10.000000f, 10.000000f, 10.000000f, 10.000000f, 10.000000f, 
10.000000f, 10.000000f, 10.000000f, 10.000000f, 10.000000f, 10.000000f, 10.000000f, 10.000000f, 10.000000f, 10.000000f, 10.000000f, 10.000000f, 10.000000f, 10.000000f, 10.000000f, 10.000000f, 10.000000f, 10.000000f, 10.000000f, 10.000000f, 
10.000000f, 10.000000f, 10.000000f, 10.000000f, 10.000000f, 10.000000f, 10.000000f, 10.000000f, 10.000000f, 10.000000f, 10.000000f, 10.000000f, 10.000000f, 10.000000f, 10.000000f, 10.000000f, 10.000000f, 10.000000f, 10.000000f, 10.000000f, 
10.000000f, 10.000000f, 10.000000f, 10.000000f, 10.000000f, 10.000000f, 10.000000f, 10.000000f, 10.000000f, 10.000000f, 10.000000f, 10.000000f, 10.000000f, 10.000000f, -0.000000f, 10.000000f, 10.000000f, -0.000000f, 10.000000f, 10.000000f, 
-0.000000f, 10.000000f, 10.000000f, -0.000000f, 10.000000f, 10.000000f, -0.000000f, 10.000000f, 10.000000f, -0.000000f, 10.000000f, 10.000000f, -0.000000f, 10.000000f, 10.000000f, -0.000000f, 10.000000f, 10.000000f, -0.000000f, 0.000000f, 
10.000000f, -0.000000f, -0.000000f, 10.000000f, -0.000000f, -0.000000f, 10.000000f, -0.000000f, -0.000000f, 10.000000f, -0.000000f, -0.000000f, 10.000000f, -0.000000f, -0.000000f, 10.000000f, -0.000000f, 10.000000f, 10.000000f, -0.000000f, 
-0.000000f, -0.000000f, -0.000000f, -0.000000f, -0.000000f, -0.000000f, -0.000000f, -0.000000f, -0.000000f, -0.000000f, -0.000000f, -0.000000f, -0.000000f, -0.000000f, -0.000000f, -0.000000f, -0.000000f, -0.000000f, -0.000000f, -0.000000f, 
-0.000000f, -0.000000f, -0.000000f, -0.000000f, -0.000000f, -0.000000f, -0.000000f, -0.000000f, -0.000000f, -0.000000f, -0.000000f, -0.000000f, -0.000000f, -0.000000f, -0.000000f, -0.000000f, -0.000000f, -0.000000f, -0.000000f, -0.000000f, 
-0.000000f, -0.000000f, -0.000000f, -0.000000f, -0.000000f, -0.000000f, -0.000000f, -0.000000f, -0.000000f, -0.000000f, -0.000000f, -0.000000f, -0.000000f, -0.000000f, -0.000000f, -0.000000f, -0.000000f, -0.000000f, -0.000000f, -0.000000f, 
-0.000000f, -0.000000f, -0.000000f, -0.000000f, -0.000000f, -0.000000f, -0.000000f, -0.000000f, -0.000000f, -0.000000f, -0.000000f, -0.000000f, -0.000000f, -0.000000f, -0.000000f, -0.000000f, -0.000000f, -0.000000f, -0.000000f, 10.000000f, 
-0.000000f, -0.000000f, 10.000000f, -0.000000f, -0.000000f, 10.000000f, -0.000000f, 10.000000f, 10.000000f, -0.000000f, 10.000000f, 10.000000f, -0.000000f, 10.000000f, 10.000000f, 10.000000f, 10.000000f, 10.000000f, 10.000000f, 10.000000f, 
10.000000f, 10.000000f, 10.000000f, 10.000000f, 10.000000f, 10.000000f, 10.000000f, 10.000000f, 10.000000f, 10.000000f, 10.000000f, 10.000000f, 10.000000f, 10.000000f, 10.000000f, 10.000000f, 10.000000f, 10.000000f, 10.000000f, 10.000000f, 
10.000000f, 10.000000f, 10.000000f, 10.000000f, 10.000000f, 10.000000f, 10.000000f, 10.000000f, 10.000000f, 10.000000f, 10.000000f, 10.000000f, 10.000000f, 10.000000f, 10.000000f, 10.000000f, 10.000000f, 10.000000f, 10.000000f, 10.000000f, 
10.000000f, 10.000000f, 10.000000f, 10.000000f, 10.000000f, 10.000000f, 10.000000f, 10.000000f, 10.000000f, 10.000000f, 10.000000f, 10.000000f, 10.000000f, 10.000000f, 10.000000f, 10.000000f, 10.000000f, 10.000000f, 10.000000f, 10.000000f, 
10.000000f, 10.000000f, 10.000000f, 10.000000f, 10.000000f, 10.000000f, 10.000000f, 10.000000f, 10.000000f, 10.000000f, 10.000000f, 10.000000f, 10.000000f, 10.000000f, 10.000000f, 10.000000f, 10.000000f, 10.000000f, 10.000000f, 10.000000f, 
10.000000f, 10.000000f, 10.000000f, 10.000000f, 10.000000f, 10.000000f, 10.000000f, 10.000000f, 10.000000f, 10.000000f, 10.000000f, 10.000000f, 10.000000f, 10.000000f, -0.000000f, 10.000000f, 10.000000f, -0.000000f, 10.000000f, 10.000000f, 
-0.000000f, 10.000000f, 10.000000f, -0.000000f, 10.000000f, 10.000000f, -0.000000f, 10.000000f, 10.000000f, -0.000000f, 10.000000f, 10.000000f, -0.000000f, 10.000000f, 10.000000f, -0.000000f, 10.000000f, 10.000000f, -0.000000f, -0.000000f, 
10.000000f, -0.000000f, -0.000000f, 10.000000f, -0.000000f, -0.000000f, 10.000000f, -0.000000f, -0.000000f, 10.000000f, -0.000000f, -0.000000f, 10.000000f, -0.000000f, -0.000000f, 10.000000f, -0.000000f, 10.000000f, 10.000000f, -0.000000f, 
-0.000000f, -0.000000f, -0.000000f, -0.000000f, -0.000000f, -0.000000f, -0.000000f, -0.000000f, -0.000000f, -0.000000f, -0.000000f, -0.000000f, -0.000000f, -0.000000f, -0.000000f, -0.000000f, -0.000000f, -0.000000f, -0.000000f, -0.000000f, 
-0.000000f, -0.000000f, -0.000000f, -0.000000f, -0.000000f, -0.000000f, -0.000000f, -0.000000f, -0.000000f, -0.000000f, -0.000000f, -0.000000f, -0.000000f, -0.000000f, -0.000000f, -0.000000f, -0.000000f, -0.000000f, -0.000000f, -0.000000f, 
-0.000000f, -0.000000f, -0.000000f, -0.000000f, -0.000000f, -0.000000f, -0.000000f, -0.000000f, -0.000000f, -0.000000f, -0.000000f, -0.000000f, -0.000000f, -0.000000f, -0.000000f, -0.000000f, -0.000000f, -0.000000f, -0.000000f, -0.000000f, 
-0.000000f, -0.000000f, -0.000000f, -0.000000f, -0.000000f, -0.000000f, -0.000000f, -0.000000f, -0.000000f, -0.000000f, -0.000000f, -0.000000f, -0.000000f, -0.000000f, -0.000000f, -0.000000f, -0.000000f, -0.000000f, -0.000000f, 10.000000f, 
-0.000000f, -0.000000f, 10.000000f, -0.000000f, -0.000000f, 10.000000f, -0.000000f, 10.000000f, 10.000000f, -0.000000f, 10.000000f, 10.000000f, -0.000000f, 10.000000f, 10.000000f, 10.000000f, 10.000000f, 10.000000f, 10.000000f, 10.000000f, 
10.000000f, 10.000000f, 10.000000f, 10.000000f, 10.000000f, 10.000000f, 10.000000f, 10.000000f, 10.000000f, 10.000000f, 10.000000f, 10.000000f, 10.000000f, 10.000000f, 10.000000f, 10.000000f, 10.000000f, 10.000000f, 10.000000f, 10.000000f, 
10.000000f, 10.000000f, 10.000000f, 10.000000f, 10.000000f, 10.000000f, 10.000000f, 10.000000f, 10.000000f, 10.000000f, 10.000000f, 10.000000f, 10.000000f, 10.000000f, 10.000000f, 10.000000f, 10.000000f, 10.000000f, 10.000000f, 10.000000f, 
10.000000f, 10.000000f, 10.000000f, 10.000000f, 10.000000f, 10.000000f, 10.000000f, 10.000000f, 10.000000f, 10.000000f, 10.000000f, 10.000000f, 10.000000f, 10.000000f, 10.000000f, 10.000000f, 10.000000f, 10.000000f, 10.000000f, 10.000000f, 
10.000000f, 10.000000f, 10.000000f, 10.000000f, 10.000000f, 10.000000f, 10.000000f, 10.000000f, 10.000000f, 10.000000f, 10.000000f, 10.000000f, 10.000000f, 10.000000f, 10.000000f, 10.000000f, 10.000000f, 10.000000f, 10.000000f, 10.000000f, 
10.000000f, 10.000000f, 10.000000f, 10.000000f, 10.000000f, 10.000000f, 10.000000f, 10.000000f, 10.000000f, 10.000000f, 10.000000f, 10.000000f, 10.000000f, 10.000000f, -0.000000f, 10.000000f, 10.000000f, -0.000000f, 10.000000f, 10.000000f, 
-0.000000f, 10.000000f, 10.000000f, -0.000000f, 10.000000f, 10.000000f, -0.000000f, 10.000000f, 10.000000f, -0.000000f, 10.000000f, 10.000000f, -0.000000f, 10.000000f, 10.000000f, -0.000000f, 10.000000f, 10.000000f, -0.000000f, -0.000000f, 
10.000000f, -0.000000f, -0.000000f, 10.000000f, -0.000000f, -0.000000f, 10.000000f, -0.000000f, -0.000000f, 10.000000f, -0.000000f, -0.000000f, 10.000000f, -0.000000f, -0.000000f, 10.000000f, -0.000000f, 0.000000f, 10.000000f, -0.000000f, 
-0.000000f, -0.000000f, -0.000000f, -0.000000f, -0.000000f, -0.000000f, -0.000000f, -0.000000f, -0.000000f, -0.000000f, -0.000000f, -0.000000f, -0.000000f, -0.000000f, -0.000000f, -0.000000f, -0.000000f, -0.000000f, -0.000000f, -0.000000f, 
-0.000000f, -0.000000f, -0.000000f, -0.000000f, -0.000000f, -0.000000f, -0.000000f, -0.000000f, -0.000000f, -0.000000f, -0.000000f, -0.000000f, -0.000000f, -0.000000f, -0.000000f, -0.000000f, -0.000000f, -0.000000f, -0.000000f, -0.000000f, 
-0.000000f, -0.000000f, -0.000000f, -0.000000f, -0.000000f, -0.000000f, -0.000000f, -0.000000f, -0.000000f, -0.000000f, -0.000000f, -0.000000f, -0.000000f, -0.000000f, -0.000000f, -0.000000f, -0.000000f, -0.000000f, -0.000000f, -0.000000f, 
-0.000000f, -0.000000f, -0.000000f, -0.000000f, -0.000000f, -0.000000f, -0.000000f, -0.000000f, -0.000000f, -0.000000f, -0.000000f, -0.000000f, -0.000000f, -0.000000f, -0.000000f, -0.000000f, -0.000000f, -0.000000f, -0.000000f, 10.000000f, 
-0.000000f, -0.000000f, 10.000000f, -0.000000f, -0.000000f, 10.000000f, -0.000000f, 10.000000f, 10.000000f, -0.000000f, 10.000000f, 10.000000f, -0.000000f, 10.000000f, 10.000000f, 10.000000f, 10.000000f, 10.000000f, 10.000000f, 10.000000f, 
10.000000f, 10.000000f, 10.000000f, 10.000000f, 10.000000f, 10.000000f, 10.000000f, 10.000000f, 10.000000f, 10.000000f, 10.000000f, 10.000000f, 10.000000f, 10.000000f, 10.000000f, 10.000000f, 10.000000f, 10.000000f, 10.000000f, 10.000000f, 
10.000000f, 10.000000f, 10.000000f, 10.000000f, 10.000000f, 10.000000f, 10.000000f, 10.000000f, 10.000000f, 10.000000f, 10.000000f, 10.000000f, 10.000000f, 10.000000f, 10.000000f, 10.000000f, 10.000000f, 10.000000f, 10.000000f, 10.000000f, 
10.000000f, 10.000000f, 10.000000f, 10.000000f, 10.000000f, 10.000000f, 10.000000f, 10.000000f, 10.000000f, 10.000000f, 10.000000f, 10.000000f, 10.000000f, 10.000000f, 10.000000f, 10.000000f, 10.000000f, 10.000000f, 10.000000f, 10.000000f, 
10.000000f, 10.000000f, 10.000000f, 10.000000f, 10.000000f, 10.000000f, 10.000000f, 10.000000f, 10.000000f, 10.000000f, 10.000000f, 10.000000f, 10.000000f, 10.000000f, 10.000000f, 10.000000f, 10.000000f, 10.000000f, 10.000000f, 10.000000f, 
10.000000f, 10.000000f, 10.000000f, 10.000000f, 10.000000f, 10.000000f, 10.000000f, 10.000000f, 10.000000f, 10.000000f, 10.000000f, 10.000000f, 10.000000f, 10.000000f, -0.000000f, 10.000000f, 10.000000f, -0.000000f, 10.000000f, 10.000000f, 
-0.000000f, 10.000000f, 10.000000f, -0.000000f, 10.000000f, 10.000000f, -0.000000f, 10.000000f, 10.000000f, -0.000000f, 10.000000f, 10.000000f, -0.000000f, 10.000000f, 10.000000f, -0.000000f, 10.000000f, 10.000000f, -0.000000f, -0.000000f, 
10.000000f, -0.000000f, -0.000000f, 10.000000f, -0.000000f, -0.000000f, 10.000000f, -0.000000f, -0.000000f, 0.000000f, -0.000000f, -0.000000f, 0.000000f, -0.000000f, -0.000000f, 10.000000f, -0.000000f, 0.000000f, 10.000000f, -0.000000f, 
-0.000000f, -0.000000f, -0.000000f, -0.000000f, -0.000000f, -0.000000f, -0.000000f, -0.000000f, -0.000000f, -0.000000f, -0.000000f, -0.000000f, -0.000000f, -0.000000f, -0.000000f, -0.000000f, -0.000000f, -0.000000f, -0.000000f, -0.000000f, 
-0.000000f, -0.000000f, -0.000000f, -0.000000f, -0.000000f, -0.000000f, -0.000000f, -0.000000f, -0.000000f, -0.000000f, -0.000000f, -0.000000f, -0.000000f, -0.000000f, -0.000000f, -0.000000f, -0.000000f, -0.000000f, -0.000000f, -0.000000f, 
-0.000000f, -0.000000f, -0.000000f, -0.000000f, -0.000000f, -0.000000f, -0.000000f, -0.000000f, -0.000000f, -0.000000f, -0.000000f, -0.000000f, -0.000000f, -0.000000f, -0.000000f, -0.000000f, -0.000000f, -0.000000f, -0.000000f, -0.000000f, 
-0.000000f, -0.000000f, -0.000000f, -0.000000f, -0.000000f, -0.000000f, -0.000000f, -0.000000f, -0.000000f, -0.000000f, -0.000000f, -0.000000f, -0.000000f, -0.000000f, -0.000000f, -0.000000f, -0.000000f, -0.000000f, -0.000000f, 10.000000f, 
-0.000000f, -0.000000f, 10.000000f, -0.000000f, -0.000000f, 10.000000f, -0.000000f, 10.000000f, 10.000000f, -0.000000f, 10.000000f, 10.000000f, -0.000000f, 10.000000f, 10.000000f, 10.000000f, 10.000000f, 10.000000f, 10.000000f, 10.000000f, 
10.000000f, 10.000000f, 10.000000f, 10.000000f, 10.000000f, 10.000000f, 10.000000f, 10.000000f, 10.000000f, 10.000000f, 10.000000f, 10.000000f, 10.000000f, 10.000000f, 10.000000f, 10.000000f, 10.000000f, 10.000000f, 10.000000f, 10.000000f, 
10.000000f, 10.000000f, 10.000000f, 10.000000f, 10.000000f, 10.000000f, 10.000000f, 10.000000f, 10.000000f, 10.000000f, 10.000000f, 10.000000f, 10.000000f, 10.000000f, 10.000000f, 10.000000f, 10.000000f, 10.000000f, 10.000000f, 10.000000f, 
10.000000f, 10.000000f, 10.000000f, 10.000000f, 10.000000f, 10.000000f, 10.000000f, 10.000000f, 10.000000f, 10.000000f, 10.000000f, 10.000000f, 10.000000f, 10.000000f, 10.000000f, 10.000000f, 10.000000f, 10.000000f, 10.000000f, 10.000000f, 
10.000000f, 10.000000f, 10.000000f, 10.000000f, 10.000000f, 10.000000f, 10.000000f, 10.000000f, 10.000000f, 10.000000f, 10.000000f, 10.000000f, 10.000000f, 10.000000f, 10.000000f, 10.000000f, 10.000000f, 10.000000f, 10.000000f, 10.000000f, 
10.000000f, 10.000000f, 10.000000f, 10.000000f, 10.000000f, 10.000000f, 10.000000f, 10.000000f, -0.000000f, 10.000000f, 10.000000f, 10.000000f, 10.000000f, 10.000000f, -0.000000f, 10.000000f, 10.000000f, -0.000000f, 10.000000f, 10.000000f, 
-0.000000f, 10.000000f, 10.000000f, -0.000000f, 10.000000f, 10.000000f, -0.000000f, 10.000000f, 10.000000f, -0.000000f, 10.000000f, 10.000000f, -0.000000f, 10.000000f, 10.000000f, -0.000000f, 10.000000f, 10.000000f, -0.000000f, -0.000000f, 
10.000000f, -0.000000f, -0.000000f, 10.000000f, -0.000000f, -0.000000f, 10.000000f, -0.000000f, -0.000000f, 0.000000f, -0.000000f, -0.000000f, 0.000000f, -0.000000f, -0.000000f, 10.000000f, -0.000000f, -0.000000f, 10.000000f, -0.000000f, 
-0.000000f, -0.000000f, -0.000000f, -0.000000f, -0.000000f, -0.000000f, -0.000000f, -0.000000f, -0.000000f, -0.000000f, -0.000000f, -0.000000f, -0.000000f, -0.000000f, -0.000000f, -0.000000f, -0.000000f, -0.000000f, -0.000000f, -0.000000f, 
-0.000000f, -0.000000f, -0.000000f, -0.000000f, -0.000000f, -0.000000f, -0.000000f, -0.000000f, -0.000000f, -0.000000f, -0.000000f, -0.000000f, -0.000000f, -0.000000f, -0.000000f, -0.000000f, -0.000000f, -0.000000f, -0.000000f, -0.000000f, 
-0.000000f, -0.000000f, -0.000000f, -0.000000f, -0.000000f, -0.000000f, -0.000000f, -0.000000f, -0.000000f, -0.000000f, -0.000000f, -0.000000f, -0.000000f, -0.000000f, -0.000000f, -0.000000f, -0.000000f, -0.000000f, -0.000000f, -0.000000f, 
-0.000000f, -0.000000f, -0.000000f, -0.000000f, -0.000000f, -0.000000f, -0.000000f, -0.000000f, -0.000000f, -0.000000f, -0.000000f, -0.000000f, -0.000000f, -0.000000f, -0.000000f, -0.000000f, -0.000000f, -0.000000f, -0.000000f, 10.000000f, 
-0.000000f, -0.000000f, 10.000000f, -0.000000f, -0.000000f, 10.000000f, -0.000000f, 10.000000f, 10.000000f, -0.000000f, 10.000000f, 10.000000f, -0.000000f, 10.000000f, 10.000000f, 10.000000f, 10.000000f, 10.000000f, 10.000000f, 10.000000f, 
10.000000f, 10.000000f, 10.000000f, 10.000000f, 10.000000f, 10.000000f, 10.000000f, 10.000000f, 10.000000f, 10.000000f, 10.000000f, 10.000000f, 10.000000f, 10.000000f, 10.000000f, 10.000000f, 10.000000f, 10.000000f, 10.000000f, 10.000000f, 
10.000000f, 10.000000f, 10.000000f, 10.000000f, 10.000000f, 10.000000f, 10.000000f, 10.000000f, 10.000000f, 10.000000f, 10.000000f, 10.000000f, 10.000000f, 10.000000f, 10.000000f, 10.000000f, 10.000000f, 10.000000f, 10.000000f, 10.000000f, 
10.000000f, 10.000000f, 10.000000f, 10.000000f, 10.000000f, 10.000000f, 10.000000f, 10.000000f, 10.000000f, 10.000000f, 10.000000f, 10.000000f, 10.000000f, 10.000000f, 10.000000f, 10.000000f, 10.000000f, 10.000000f, 10.000000f, 10.000000f, 
10.000000f, 10.000000f, 10.000000f, 10.000000f, 10.000000f, 10.000000f, 10.000000f, 10.000000f, 10.000000f, 10.000000f, 10.000000f, 10.000000f, 10.000000f, 10.000000f, 10.000000f, 10.000000f, 10.000000f, 10.000000f, 10.000000f, 10.000000f, 
10.000000f, 10.000000f, 10.000000f, 10.000000f, 10.000000f, 10.000000f, 10.000000f, 10.000000f, -0.000000f, 10.000000f, 10.000000f, 10.000000f, 10.000000f, 10.000000f, -0.000000f, 10.000000f, 10.000000f, -0.000000f, 10.000000f, 10.000000f, 
-0.000000f, 10.000000f, 10.000000f, -0.000000f, 10.000000f, 10.000000f, -0.000000f, 10.000000f, 10.000000f, -0.000000f, 10.000000f, 10.000000f, -0.000000f, 10.000000f, 10.000000f, -0.000000f, 10.000000f, 10.000000f, -0.000000f, -0.000000f, 
10.000000f, -0.000000f, -0.000000f, 10.000000f, -0.000000f, -0.000000f, 10.000000f, -0.000000f, -0.000000f, 0.000000f, -0.000000f, -0.000000f, 0.000000f, -0.000000f, -0.000000f, 10.000000f, -0.000000f, -0.000000f, 10.000000f, -0.000000f, 
-0.000000f, -0.000000f, -0.000000f, -0.000000f, -0.000000f, -0.000000f, -0.000000f, -0.000000f, -0.000000f, -0.000000f, -0.000000f, -0.000000f, -0.000000f, -0.000000f, -0.000000f, -0.000000f, -0.000000f, -0.000000f, -0.000000f, -0.000000f, 
-0.000000f, -0.000000f, -0.000000f, -0.000000f, -0.000000f, -0.000000f, -0.000000f, -0.000000f, -0.000000f, -0.000000f, -0.000000f, -0.000000f, -0.000000f, -0.000000f, -0.000000f, -0.000000f, -0.000000f, -0.000000f, -0.000000f, -0.000000f, 
-0.000000f, -0.000000f, -0.000000f, -0.000000f, -0.000000f, -0.000000f, -0.000000f, -0.000000f, -0.000000f, -0.000000f, -0.000000f, -0.000000f, -0.000000f, -0.000000f, -0.000000f, -0.000000f, -0.000000f, -0.000000f, -0.000000f, -0.000000f, 
-0.000000f, -0.000000f, -0.000000f, -0.000000f, -0.000000f, -0.000000f, -0.000000f, -0.000000f, -0.000000f, -0.000000f, -0.000000f, -0.000000f, -0.000000f, -0.000000f, -0.000000f, -0.000000f, -0.000000f, -0.000000f, -0.000000f, 10.000000f, 
-0.000000f, -0.000000f, 10.000000f, -0.000000f, -0.000000f, 10.000000f, -0.000000f, 10.000000f, 10.000000f, -0.000000f, 10.000000f, 10.000000f, -0.000000f, 10.000000f, 10.000000f, 10.000000f, 10.000000f, 10.000000f, -0.000000f, 10.000000f, 
10.000000f, -0.000000f, 10.000000f, 10.000000f, 10.000000f, 10.000000f, 10.000000f, 10.000000f, 10.000000f, 10.000000f, 10.000000f, 10.000000f, 10.000000f, 10.000000f, 10.000000f, 10.000000f, 10.000000f, 10.000000f, 10.000000f, 10.000000f, 
10.000000f, 10.000000f, 10.000000f, 10.000000f, 10.000000f, 10.000000f, 10.000000f, 10.000000f, 10.000000f, 10.000000f, 10.000000f, 10.000000f, 10.000000f, 10.000000f, 10.000000f, 10.000000f, 10.000000f, 10.000000f, 10.000000f, 10.000000f, 
10.000000f, 10.000000f, 10.000000f, 10.000000f, 10.000000f, 10.000000f, 10.000000f, 10.000000f, 10.000000f, 10.000000f, 10.000000f, 10.000000f, 10.000000f, 10.000000f, 10.000000f, 10.000000f, 10.000000f, 10.000000f, 10.000000f, 10.000000f, 
10.000000f, 10.000000f, 10.000000f, 10.000000f, 10.000000f, 10.000000f, 10.000000f, 10.000000f, 10.000000f, 10.000000f, 10.000000f, 10.000000f, 10.000000f, 10.000000f, 10.000000f, 10.000000f, 10.000000f, 10.000000f, 10.000000f, 10.000000f, 
10.000000f, 10.000000f, -0.000000f, 10.000000f, 10.000000f, -0.000000f, 10.000000f, 10.000000f, -0.000000f, 10.000000f, 10.000000f, -0.000000f, 10.000000f, 10.000000f, -0.000000f, 10.000000f, 10.000000f, -0.000000f, 10.000000f, 10.000000f, 
-0.000000f, 10.000000f, 10.000000f, -0.000000f, -0.004990f, 9.995009f, -0.005990f, -0.000000f, 9.995009f, -0.000000f, -0.005990f, 9.995009f, -0.000000f, -0.000000f, 9.995009f, -0.000000f, -0.005990f, 9.995009f, -0.005990f, -0.005990f, 
9.995009f, -0.000000f, -0.000000f, 0.000000f, -0.005990f, -0.005990f, -0.004990f, -0.005990f, -0.005990f, -0.005990f, -0.005990f, -0.005990f, -0.005990f, -0.000000f, -0.000000f, 9.995009f, -0.005990f, -0.005990f, 0.000000f, -0.005990f, 
-0.000000f, -0.000000f, -0.005990f, -0.005990f, -0.005990f, -0.000000f, -0.005990f, -0.005990f, -0.005990f, -0.005990f, -0.005990f, -0.005990f, -0.005990f, -0.005990f, -0.000000f, -0.005990f, -0.000000f, -0.000000f, -0.000000f, -0.005990f, 
-0.005990f, -0.005990f, -0.005990f, -0.005990f, -0.005990f, -0.005990f, -0.005990f, -0.005990f, -0.000000f, -0.005990f, -0.005990f, -0.005990f, -0.005990f, -0.005990f, -0.005990f, -0.000000f, -0.000000f, -0.005990f, -0.005990f, -0.005990f, 
-0.005990f, -0.000000f, -0.005990f, -0.000000f, -0.005990f, -0.005990f, -0.005990f, -0.005990f, -0.005990f, -0.005990f, -0.005990f, -0.005990f, -0.005990f, -0.005990f, -0.005990f, -0.000000f, -0.005990f, -0.005990f, -0.000000f, -0.005990f, 
-0.005990f, -0.005990f, -0.000000f, -0.005990f, -0.005990f, -0.005990f, -0.005990f, -0.005990f, -0.005990f, -0.005990f, -0.005990f, -0.000000f, -0.005990f, -0.005990f, -0.000000f, -0.005990f, -0.005990f, -0.005990f, -0.005990f, -0.000000f, 
-0.005990f, -0.000000f, -0.000000f, -0.005990f, -0.000000f, 9.995009f, -0.005990f, 10.000000f, 9.995009f, -0.005990f, 9.995009f, 10.000000f, 9.995009f, 9.995009f, 10.000000f, 9.995009f, 10.000000f, 9.995009f, -0.005990f, 9.995009f, 
10.000000f, -0.005990f, 9.995009f, 10.000000f, 9.995009f, 9.995009f, 10.000000f, 10.000000f, 9.995009f, 10.000000f, 9.995009f, 9.995009f, 9.995009f, 9.995009f, 9.995009f, 10.000000f, 9.995009f, 9.995009f, 9.995009f, 10.000000f, 
9.995009f, 9.995009f, 9.995009f, 10.000000f, 9.995009f, 9.995009f, 10.000000f, 9.995009f, 9.995009f, 9.995009f, 10.000000f, 9.995009f, 10.000000f, 9.995009f, 10.000000f, 10.000000f, 10.000000f, 9.995009f, 10.000000f, 9.995009f, 
9.995009f, 9.995009f, 10.000000f, 9.995009f, 9.995009f, 9.995009f, 9.995009f, 9.995009f, 9.995009f, 10.000000f, 9.995009f, 9.995009f, 9.995009f, 10.000000f, 9.995009f, 9.995009f, 9.995009f, 9.995009f, 10.000000f, 9.995009f, 
9.995009f, 9.995009f, 9.995009f, 10.000000f, 9.995009f, 9.995009f, 10.000000f, 10.000000f, 9.995009f, 10.000000f, 9.995009f, 10.000000f, 10.000000f, 9.995009f, 9.995009f, 10.000000f, 9.995009f, 9.995009f, 9.995009f, 9.995009f, 
10.000000f, 10.000000f, -0.005990f, 10.000000f, 9.995009f, -0.005990f, 9.995009f, 9.995009f, -0.000000f, 9.995009f, 9.995009f, -0.005990f, 10.000000f, 10.000000f, -0.000000f, 9.995009f, 9.995009f, -0.005990f, 10.000000f, 9.995009f, 
-0.005990f, 9.995009f, 9.995009f, -0.005990f, -0.000000f, 9.995009f, -0.000000f, -0.005990f, 10.000000f, -0.005990f, -0.005990f, 10.000000f, -0.005990f, -0.000000f, 9.995009f, -0.005990f, -0.000000f, 10.000000f, -0.005990f, -0.005990f, 
9.995009f, -0.005990f, -0.005990f, -0.004990f, -0.005990f, -0.005990f, -0.004990f, -0.005990f, -0.005990f, -0.005990f, -0.005990f, -0.005990f, -0.000000f, -0.005990f, -0.005990f, -0.004990f, -0.005990f, -0.005990f, -0.005990f, -0.005990f, 
-0.005990f, -0.005990f, -0.005990f, -0.005990f, -0.005990f, -0.000000f, -0.005990f, -0.005990f, -0.005990f, -0.005990f, -0.000000f, -0.005990f, -0.005990f, -0.005990f, -0.005990f, -0.005990f, -0.005990f, -0.000000f, -0.000000f, -0.005990f, 
-0.005990f, -0.005990f, -0.005990f, -0.005990f, -0.005990f, -0.000000f, -0.005990f, -0.005990f, -0.005990f, -0.005990f, -0.005990f, -0.000000f, -0.005990f, -0.005990f, -0.000000f, -0.005990f, -0.005990f, -0.005990f, -0.000000f, -0.005990f, 
-0.005990f, -0.000000f, -0.005990f, -0.005990f, -0.005990f, -0.005990f, -0.005990f, -0.005990f, -0.005990f, -0.005990f, -0.000000f, -0.005990f, -0.005990f, -0.005990f, -0.000000f, -0.000000f, -0.005990f, -0.000000f, -0.000000f, -0.000000f, 
-0.005990f, -0.005990f, -0.000000f, -0.000000f, -0.005990f, -0.000000f, -0.005990f, -0.005990f, -0.000000f, -0.005990f, -0.005990f, -0.005990f, -0.000000f, -0.000000f, -0.005990f, -0.000000f, -0.005990f, -0.005990f, -0.005990f, -0.005990f, 
-0.000000f, -0.005990f, -0.005990f, -0.000000f, -0.005990f, 9.995009f, -0.000000f, 10.000000f, 10.000000f, -0.005990f, 9.995009f, 9.995009f, 9.995009f, 9.995009f, 9.995009f, -0.005990f, 9.995009f, 9.995009f, -0.005990f, 9.995009f, 
9.995009f, -0.005990f, 9.995009f, 9.995009f, 10.000000f, 9.995009f, 10.000000f, 9.995009f, 9.995009f, 10.000000f, 9.995009f, 9.995009f, 9.995009f, 9.995009f, 9.995009f, 10.000000f, 9.995009f, 9.995009f, 9.995009f, 10.000000f, 
9.995009f, 9.995009f, 9.995009f, 9.995009f, 10.000000f, 9.995009f, 9.995009f, 10.000000f, 9.995009f, 9.995009f, 9.995009f, 9.995009f, 9.995009f, 10.000000f, 9.995009f, 9.995009f, 9.995009f, 10.000000f, 9.995009f, 9.995009f, 
9.995009f, 10.000000f, 10.000000f, 9.995009f, 9.995009f, 9.995009f, 9.995009f, 10.000000f, 9.995009f, 9.995009f, 9.995009f, 10.000000f, 10.000000f, 9.995009f, 10.000000f, 10.000000f, 9.995009f, 9.995009f, 9.995009f, 10.000000f, 
9.995009f, 9.995009f, 9.995009f, 9.995009f, 9.995009f, 9.995009f, 10.000000f, 10.000000f, 9.995009f, 10.000000f, 10.000000f, 10.000000f, 10.000000f, 9.995009f, 9.995009f, 9.995009f, 9.995009f, 9.995009f, 9.995009f, 10.000000f, 
10.000000f, 9.995009f, -0.005990f, 10.000000f, 9.995009f, -0.005990f, 9.995009f, 9.995009f, -0.005990f, 9.995009f, 9.995009f, -0.005990f, 9.995009f, 9.995009f, -0.005990f, 9.995009f, 10.000000f, -0.005990f, 9.995009f, 10.000000f, 
-0.005990f, 9.995009f, 9.995009f, -0.005990f, -0.005990f, 10.000000f, -0.005990f, -0.005990f, 10.000000f, -0.000000f, -0.005990f, 10.000000f, -0.000000f, -0.005990f, 9.995009f, -0.005990f, -0.005990f, 9.995009f, -0.005990f, -0.000000f, 
9.995009f, -0.005990f, -0.000000f, -0.005990f, -0.000000f, -0.005990f, -0.005990f, -0.000000f, -0.005990f, -0.005990f, -0.005990f, -0.005990f, -0.005990f, -0.005990f, -0.000000f, 0.000000f, -0.000000f, -0.005990f, -0.000000f, -0.000000f, 
-0.000000f, -0.005990f, -0.005990f, -0.005990f, -0.005990f, -0.005990f, -0.005990f, -0.005990f, -0.005990f, -0.005990f, -0.000000f, -0.005990f, -0.005990f, -0.000000f, -0.005990f, -0.005990f, -0.005990f, -0.005990f, -0.005990f, -0.000000f, 
-0.000000f, -0.005990f, -0.005990f, -0.000000f, -0.005990f, -0.005990f, -0.000000f, -0.000000f, -0.005990f, -0.005990f, -0.005990f, -0.005990f, -0.000000f, -0.005990f, -0.000000f, -0.000000f, -0.005990f, -0.000000f, -0.005990f, -0.005990f, 
-0.005990f, -0.005990f, -0.000000f, -0.000000f, -0.005990f, -0.005990f, -0.005990f, -0.005990f, -0.005990f, -0.000000f, -0.000000f, -0.005990f, -0.005990f, -0.005990f, -0.005990f, -0.005990f, -0.000000f, -0.005990f, -0.000000f, -0.005990f, 
-0.005990f, -0.005990f, -0.005990f, -0.005990f, -0.000000f, -0.005990f, -0.000000f, -0.000000f, -0.000000f, -0.000000f, -0.005990f, -0.005990f, -0.005990f, -0.005990f, -0.005990f, -0.005990f, -0.005990f, -0.000000f, -0.005990f, -0.005990f, 
-0.005990f, -0.005990f, -0.000000f, -0.005990f, -0.000000f, 9.995009f, -0.000000f, 9.995009f, 9.995009f, -0.005990f, 10.000000f, 9.995009f, 10.000000f, 9.995009f, 9.995009f, -0.005990f, 9.995009f, 10.000000f, -0.005990f, 9.995009f, 
9.995009f, -0.005990f, 10.000000f, 10.000000f, 9.995009f, 10.000000f, 9.995009f, 9.995009f, 10.000000f, 9.995009f, 10.000000f, 10.000000f, 9.995009f, 10.000000f, 9.995009f, 9.995009f, 9.995009f, 9.995009f, 9.995009f, 10.000000f, 
10.000000f, 10.000000f, 9.995009f, 10.000000f, 9.995009f, 10.000000f, 9.995009f, 9.995009f, 9.995009f, 9.995009f, 10.000000f, 10.000000f, 9.995009f, 10.000000f, 9.995009f, 10.000000f, 10.000000f, 10.000000f, 9.995009f, 9.995009f, 
10.000000f, 9.995009f, 9.995009f, 9.995009f, 9.995009f, 9.995009f, 9.995009f, 10.000000f, 10.000000f, 10.000000f, 9.995009f, 10.000000f, 9.995009f, 9.995009f, 9.995009f, 10.000000f, 9.995009f, 9.995009f, 9.995009f, 9.995009f, 
9.995009f, 9.995009f, 9.995009f, 9.995009f, 10.000000f, 9.995009f, 10.000000f, 10.000000f, 9.995009f, 9.995009f, 9.995009f, 9.995009f, 9.995009f, 9.995009f, 9.995009f, 10.000000f, 9.995009f, 10.000000f, 9.995009f, 9.995009f, 
10.000000f, 9.995009f, -0.005990f, 10.000000f, 10.000000f, -0.005990f, 10.000000f, 10.000000f, -0.005990f, 10.000000f, 10.000000f, -0.005990f, 9.995009f, 9.995009f, -0.005990f, 9.995009f, 10.000000f, -0.005990f, 9.995009f, 9.995009f, 
-0.005990f, 0.000000f, 10.000000f, -0.005990f, -0.005990f, 10.000000f, -0.000000f, -0.005990f, 10.000000f, -0.005990f, -0.005990f, 9.995009f, -0.000000f, -0.005990f, 10.000000f, -0.000000f, -0.005990f, -0.004990f, -0.005990f, -0.005990f, 
-0.004990f, -0.005990f, -0.000000f, -0.000000f, -0.000000f, -0.005990f, -0.005990f, -0.005990f, -0.005990f, -0.005990f, -0.005990f, -0.005990f, -0.000000f, -0.000000f, -0.005990f, -0.000000f, -0.005990f, -0.000000f, -0.000000f, -0.005990f, 
-0.005990f, -0.005990f, -0.005990f, -0.005990f, -0.005990f, -0.005990f, -0.000000f, -0.005990f, -0.000000f, -0.005990f, -0.000000f, -0.000000f, -0.005990f, -0.005990f, -0.005990f, -0.005990f, -0.005990f, -0.005990f, -0.000000f, -0.005990f, 
-0.005990f, -0.000000f, -0.000000f, -0.005990f, -0.000000f, -0.005990f, -0.000000f, -0.005990f, -0.000000f, -0.000000f, -0.000000f, -0.005990f, -0.005990f, -0.005990f, -0.005990f, -0.005990f, -0.000000f, -0.005990f, -0.005990f, -0.005990f, 
-0.000000f, -0.000000f, -0.005990f, -0.000000f, -0.000000f, -0.000000f, -0.000000f, -0.000000f, -0.000000f, -0.000000f, -0.005990f, -0.005990f, -0.000000f, -0.005990f, -0.000000f, -0.005990f, -0.005990f, -0.005990f, -0.005990f, -0.000000f, 
-0.005990f, -0.005990f, -0.005990f, -0.005990f, -0.005990f, -0.005990f, -0.000000f, -0.005990f, -0.000000f, -0.005990f, -0.005990f, -0.005990f, -0.005990f, -0.000000f, -0.005990f, -0.005990f, -0.005990f, -0.005990f, -0.000000f, -0.005990f, 
-0.005990f, -0.005990f, -0.005990f, -0.005990f, -0.005990f, -0.000000f, -0.000000f, 10.000000f, 10.000000f, -0.000000f, 10.000000f, 10.000000f, -0.000000f, 10.000000f, 10.000000f, -0.000000f, 10.000000f, 10.000000f, -0.000000f, 10.000000f, 
10.000000f, -0.000000f, 10.000000f, 10.000000f, 10.000000f, 10.000000f, 10.000000f, 10.000000f, 10.000000f, 10.000000f, 10.000000f, 10.000000f, 10.000000f, 10.000000f, 10.000000f, 10.000000f, 10.000000f, 10.000000f, 10.000000f, 10.000000f, 
10.000000f, 10.000000f, 10.000000f, 10.000000f, 10.000000f, 10.000000f, 10.000000f, 10.000000f, 10.000000f, 10.000000f, 10.000000f, 10.000000f, 10.000000f, 10.000000f, 10.000000f, 10.000000f, 10.000000f, 10.000000f, 10.000000f, 10.000000f, 
10.000000f, 10.000000f, 10.000000f, 10.000000f, 10.000000f, 10.000000f, 10.000000f, 10.000000f, 10.000000f, 10.000000f, 10.000000f, 10.000000f, 10.000000f, 10.000000f, 10.000000f, 10.000000f, 10.000000f, 10.000000f, 10.000000f, 10.000000f, 
10.000000f, 10.000000f, 10.000000f, 10.000000f, 10.000000f, 10.000000f, 10.000000f, 10.000000f, 10.000000f, 10.000000f, 10.000000f, 10.000000f, 10.000000f, 10.000000f, 10.000000f, 10.000000f, 10.000000f, 10.000000f, 10.000000f, 10.000000f, 
10.000000f, 10.000000f, -0.000000f, 10.000000f, 10.000000f, -0.000000f, 10.000000f, 10.000000f, -0.000000f, 10.000000f, 10.000000f, -0.000000f, 10.000000f, 10.000000f, -0.000000f, 10.000000f, 10.000000f, -0.000000f, 10.000000f, 10.000000f, 
-0.000000f, -0.000000f, 10.000000f, -0.000000f, -0.000000f, 10.000000f, -0.000000f, -0.000000f, 10.000000f, -0.000000f, -0.000000f, 10.000000f, -0.000000f, -0.000000f, 10.000000f, -0.000000f, -0.000000f, -0.000000f, -0.000000f, -0.000000f, 
-0.000000f, -0.000000f, -0.000000f, -0.000000f, -0.000000f, -0.000000f, -0.000000f, -0.000000f, -0.000000f, -0.000000f, -0.000000f, -0.000000f, -0.000000f, -0.000000f, -0.000000f, -0.000000f, -0.000000f, -0.000000f, -0.000000f, -0.000000f, 
-0.000000f, -0.000000f, -0.000000f, -0.000000f, -0.000000f, -0.000000f, -0.000000f, -0.000000f, -0.000000f, -0.000000f, -0.000000f, -0.000000f, -0.000000f, -0.000000f, -0.000000f, -0.000000f, -0.000000f, -0.000000f, -0.000000f, -0.000000f, 
-0.000000f, -0.000000f, -0.000000f, -0.000000f, -0.000000f, -0.000000f, -0.000000f, -0.000000f, -0.000000f, -0.000000f, -0.000000f, -0.000000f, -0.000000f, -0.000000f, -0.000000f, -0.000000f, -0.000000f, -0.000000f, -0.000000f, -0.000000f, 
-0.000000f, -0.000000f, -0.000000f, -0.000000f, -0.000000f, -0.000000f, -0.000000f, -0.000000f, -0.000000f, -0.000000f, -0.000000f, -0.000000f, -0.000000f, -0.000000f, -0.000000f, -0.000000f, -0.000000f, -0.000000f, -0.000000f, -0.000000f, 
-0.000000f, -0.000000f, -0.000000f, -0.000000f, -0.000000f, -0.000000f, -0.000000f, -0.000000f, -0.000000f, -0.000000f, -0.000000f, -0.000000f, -0.000000f, -0.000000f, -0.000000f, -0.000000f, -0.000000f, -0.000000f, -0.000000f, -0.000000f, 
-0.000000f, -0.000000f, -0.000000f, -0.000000f, -0.000000f, -0.000000f, -0.000000f, 10.000000f, 10.000000f, -0.000000f, 10.000000f, 10.000000f, -0.000000f, 10.000000f, 10.000000f, -0.000000f, 10.000000f, 10.000000f, -0.000000f, 10.000000f, 
10.000000f, -0.000000f, 10.000000f, 10.000000f, 10.000000f, 10.000000f, 10.000000f, 10.000000f, 10.000000f, 10.000000f, 10.000000f, 10.000000f, 10.000000f, 10.000000f, 10.000000f, 10.000000f, 10.000000f, 10.000000f, 10.000000f, 10.000000f, 
10.000000f, 10.000000f, 10.000000f, 10.000000f, 10.000000f, 10.000000f, 10.000000f, 10.000000f, 10.000000f, 10.000000f, 10.000000f, 10.000000f, 10.000000f, 10.000000f, 10.000000f, 10.000000f, 10.000000f, 10.000000f, 10.000000f, 10.000000f, 
10.000000f, 10.000000f, 10.000000f, 10.000000f, 10.000000f, 10.000000f, 10.000000f, 10.000000f, 10.000000f, 10.000000f, 10.000000f, 10.000000f, 10.000000f, 10.000000f, 10.000000f, 10.000000f, 10.000000f, 10.000000f, 10.000000f, 10.000000f, 
10.000000f, 10.000000f, 10.000000f, 10.000000f, 10.000000f, 10.000000f, 10.000000f, 10.000000f, 10.000000f, 10.000000f, 10.000000f, 10.000000f, 10.000000f, 10.000000f, 10.000000f, 10.000000f, 10.000000f, 10.000000f, 10.000000f, 10.000000f, 
10.000000f, 10.000000f, -0.000000f, 10.000000f, 10.000000f, -0.000000f, 10.000000f, 10.000000f, -0.000000f, 10.000000f, 10.000000f, -0.000000f, 10.000000f, 10.000000f, -0.000000f, 10.000000f, 10.000000f, -0.000000f, 10.000000f, 10.000000f, 
-0.000000f, -0.000000f, 10.000000f, -0.000000f, -0.000000f, 10.000000f, -0.000000f, -0.000000f, 10.000000f, -0.000000f, -0.000000f, 10.000000f, -0.000000f, -0.000000f, 10.000000f, -0.000000f, -0.000000f, -0.000000f, -0.000000f, -0.000000f, 
-0.000000f, -0.000000f, -0.000000f, -0.000000f, -0.000000f, -0.000000f, -0.000000f, -0.000000f, -0.000000f, -0.000000f, -0.000000f, -0.000000f, -0.000000f, -0.000000f, -0.000000f, -0.000000f, -0.000000f, -0.000000f, -0.000000f, -0.000000f, 
-0.000000f, -0.000000f, -0.000000f, -0.000000f, -0.000000f, -0.000000f, -0.000000f, -0.000000f, -0.000000f, -0.000000f, -0.000000f, -0.000000f, -0.000000f, -0.000000f, -0.000000f, -0.000000f, -0.000000f, -0.000000f, -0.000000f, -0.000000f, 
-0.000000f, -0.000000f, -0.000000f, -0.000000f, -0.000000f, -0.000000f, -0.000000f, -0.000000f, -0.000000f, -0.000000f, -0.000000f, -0.000000f, -0.000000f, -0.000000f, -0.000000f, -0.000000f, -0.000000f, -0.000000f, -0.000000f, -0.000000f, 
-0.000000f, -0.000000f, -0.000000f, -0.000000f, -0.000000f, -0.000000f, -0.000000f, -0.000000f, -0.000000f, -0.000000f, -0.000000f, -0.000000f, -0.000000f, -0.000000f, -0.000000f, -0.000000f, -0.000000f, -0.000000f, -0.000000f, -0.000000f, 
-0.000000f, -0.000000f, -0.000000f, -0.000000f, -0.000000f, -0.000000f, -0.000000f, -0.000000f, -0.000000f, -0.000000f, -0.000000f, -0.000000f, -0.000000f, -0.000000f, -0.000000f, -0.000000f, -0.000000f, -0.000000f, -0.000000f, -0.000000f, 
-0.000000f, -0.000000f, -0.000000f, -0.000000f, -0.000000f, -0.000000f, -0.000000f, 10.000000f, 10.000000f, -0.000000f, 10.000000f, 10.000000f, -0.000000f, 10.000000f, 10.000000f, -0.000000f, 10.000000f, 10.000000f, -0.000000f, 10.000000f, 
10.000000f, -0.000000f, 10.000000f, 10.000000f, -0.000000f, 10.000000f, 10.000000f, 10.000000f, 10.000000f, 10.000000f, 10.000000f, 10.000000f, 10.000000f, 10.000000f, 10.000000f, 10.000000f, 10.000000f, 10.000000f, 10.000000f, 10.000000f, 
10.000000f, 10.000000f, 10.000000f, 10.000000f, 10.000000f, 10.000000f, 10.000000f, 10.000000f, 10.000000f, 10.000000f, 10.000000f, 10.000000f, 10.000000f, 10.000000f, 10.000000f, 10.000000f, 10.000000f, 10.000000f, 10.000000f, 10.000000f, 
10.000000f, 10.000000f, 10.000000f, 10.000000f, 10.000000f, 10.000000f, 10.000000f, 10.000000f, 10.000000f, 10.000000f, 10.000000f, 10.000000f, 10.000000f, 10.000000f, 10.000000f, 10.000000f, 10.000000f, 10.000000f, 10.000000f, 10.000000f, 
10.000000f, 10.000000f, 10.000000f, 10.000000f, 10.000000f, 10.000000f, 10.000000f, 10.000000f, 10.000000f, 10.000000f, 10.000000f, 10.000000f, 10.000000f, 10.000000f, 10.000000f, 10.000000f, 10.000000f, 10.000000f, 10.000000f, 10.000000f, 
10.000000f, 10.000000f, -0.000000f, 10.000000f, 10.000000f, -0.000000f, 10.000000f, 10.000000f, -0.000000f, 10.000000f, 10.000000f, -0.000000f, 10.000000f, 10.000000f, -0.000000f, 10.000000f, 10.000000f, -0.000000f, 10.000000f, 10.000000f, 
-0.000000f, -0.000000f, 10.000000f, -0.000000f, -0.000000f, 10.000000f, -0.000000f, -0.000000f, 10.000000f, -0.000000f, -0.000000f, 10.000000f, -0.000000f, -0.000000f, 10.000000f, -0.000000f, -0.000000f, -0.000000f, -0.000000f, -0.000000f, 
-0.000000f, -0.000000f, -0.000000f, -0.000000f, -0.000000f, -0.000000f, -0.000000f, -0.000000f, -0.000000f, -0.000000f, -0.000000f, -0.000000f, -0.000000f, -0.000000f, -0.000000f, -0.000000f, -0.000000f, -0.000000f, -0.000000f, -0.000000f, 
-0.000000f, -0.000000f, -0.000000f, -0.000000f, -0.000000f, -0.000000f, -0.000000f, -0.000000f, -0.000000f, -0.000000f, -0.000000f, -0.000000f, -0.000000f, -0.000000f, -0.000000f, -0.000000f, -0.000000f, -0.000000f, -0.000000f, -0.000000f, 
-0.000000f, -0.000000f, -0.000000f, -0.000000f, -0.000000f, -0.000000f, -0.000000f, -0.000000f, -0.000000f, -0.000000f, -0.000000f, -0.000000f, -0.000000f, -0.000000f, -0.000000f, -0.000000f, -0.000000f, -0.000000f, -0.000000f, -0.000000f, 
-0.000000f, -0.000000f, -0.000000f, -0.000000f, -0.000000f, -0.000000f, -0.000000f, -0.000000f, -0.000000f, -0.000000f, -0.000000f, -0.000000f, -0.000000f, -0.000000f, -0.000000f, -0.000000f, -0.000000f, -0.000000f, -0.000000f, -0.000000f, 
-0.000000f, -0.000000f, -0.000000f, -0.000000f, -0.000000f, -0.000000f, -0.000000f, -0.000000f, -0.000000f, -0.000000f, -0.000000f, -0.000000f, -0.000000f, -0.000000f, -0.000000f, -0.000000f, -0.000000f, -0.000000f, -0.000000f, -0.000000f, 
-0.000000f, -0.000000f, -0.000000f, -0.000000f, -0.000000f, -0.000000f, -0.000000f, 10.000000f, 10.000000f, -0.000000f, 10.000000f, 10.000000f, -0.000000f, 10.000000f, 10.000000f, -0.000000f, 10.000000f, 10.000000f, -0.000000f, 10.000000f, 
10.000000f, -0.000000f, 10.000000f, 10.000000f, -0.000000f, 10.000000f, 10.000000f, 10.000000f, 10.000000f, 10.000000f, 10.000000f, 10.000000f, 10.000000f, 10.000000f, 10.000000f, 10.000000f, 10.000000f, 10.000000f, 10.000000f, 10.000000f, 
10.000000f, 10.000000f, 10.000000f, 10.000000f, 10.000000f, 10.000000f, 10.000000f, 10.000000f, 10.000000f, 10.000000f, 10.000000f, 10.000000f, 10.000000f, 10.000000f, 10.000000f, 10.000000f, 10.000000f, 10.000000f, 10.000000f, 10.000000f, 
10.000000f, 10.000000f, 10.000000f, 10.000000f, 10.000000f, 10.000000f, 10.000000f, 10.000000f, 10.000000f, 10.000000f, 10.000000f, 10.000000f, 10.000000f, 10.000000f, 10.000000f, 10.000000f, 10.000000f, 10.000000f, 10.000000f, 10.000000f, 
10.000000f, 10.000000f, 10.000000f, 10.000000f, 10.000000f, 10.000000f, 10.000000f, 10.000000f, 10.000000f, 10.000000f, 10.000000f, 10.000000f, 10.000000f, 10.000000f, 10.000000f, 10.000000f, 10.000000f, 10.000000f, 10.000000f, 10.000000f, 
10.000000f, 10.000000f, -0.000000f, 10.000000f, 10.000000f, -0.000000f, 10.000000f, 10.000000f, -0.000000f, 10.000000f, 10.000000f, -0.000000f, 10.000000f, 10.000000f, -0.000000f, 10.000000f, 10.000000f, -0.000000f, 10.000000f, 10.000000f, 
-0.000000f, -0.000000f, 10.000000f, -0.000000f, -0.000000f, 10.000000f, -0.000000f, -0.000000f, 10.000000f, -0.000000f, -0.000000f, 10.000000f, -0.000000f, -0.000000f, 10.000000f, -0.000000f, -0.000000f, -0.000000f, -0.000000f, -0.000000f, 
-0.000000f, -0.000000f, -0.000000f, -0.000000f, -0.000000f, -0.000000f, -0.000000f, -0.000000f, -0.000000f, -0.000000f, -0.000000f, -0.000000f, -0.000000f, -0.000000f, -0.000000f, -0.000000f, -0.000000f, -0.000000f, -0.000000f, -0.000000f, 
-0.000000f, -0.000000f, -0.000000f, -0.000000f, -0.000000f, -0.000000f, -0.000000f, -0.000000f, -0.000000f, -0.000000f, -0.000000f, -0.000000f, -0.000000f, -0.000000f, -0.000000f, -0.000000f, -0.000000f, -0.000000f, -0.000000f, -0.000000f, 
-0.000000f, -0.000000f, -0.000000f, -0.000000f, -0.000000f, -0.000000f, -0.000000f, -0.000000f, -0.000000f, -0.000000f, -0.000000f, -0.000000f, -0.000000f, -0.000000f, -0.000000f, -0.000000f, -0.000000f, -0.000000f, -0.000000f, -0.000000f, 
-0.000000f, -0.000000f, -0.000000f, -0.000000f, -0.000000f, -0.000000f, -0.000000f, -0.000000f, -0.000000f, -0.000000f, -0.000000f, -0.000000f, -0.000000f, -0.000000f, -0.000000f, -0.000000f, -0.000000f, -0.000000f, -0.000000f, -0.000000f, 
-0.000000f, -0.000000f, -0.000000f, -0.000000f, -0.000000f, -0.000000f, -0.000000f, -0.000000f, -0.000000f, -0.000000f, -0.000000f, -0.000000f, -0.000000f, -0.000000f, -0.000000f, -0.000000f, -0.000000f, -0.000000f, -0.000000f, -0.000000f, 
-0.000000f, -0.000000f, -0.000000f, -0.000000f, -0.000000f, -0.000000f, -0.000000f, 10.000000f, 10.000000f, -0.000000f, 10.000000f, 10.000000f, -0.000000f, 10.000000f, 10.000000f, -0.000000f, 10.000000f, 10.000000f, -0.000000f, 10.000000f, 
10.000000f, -0.000000f, 10.000000f, 10.000000f, -0.000000f, 10.000000f, 10.000000f, 10.000000f, 10.000000f, 10.000000f, 10.000000f, 10.000000f, 10.000000f, 10.000000f, 10.000000f, 10.000000f, 10.000000f, 10.000000f, 10.000000f, 10.000000f, 
10.000000f, 10.000000f, 10.000000f, 10.000000f, 10.000000f, 10.000000f, 10.000000f, 10.000000f, 10.000000f, 10.000000f, 10.000000f, 10.000000f, 10.000000f, 10.000000f, 10.000000f, 10.000000f, 10.000000f, 10.000000f, 10.000000f, 10.000000f, 
10.000000f, 10.000000f, 10.000000f, 10.000000f, 10.000000f, 10.000000f, 10.000000f, 10.000000f, 10.000000f, 10.000000f, 10.000000f, 10.000000f, 10.000000f, 10.000000f, 10.000000f, 10.000000f, 10.000000f, 10.000000f, 10.000000f, 10.000000f, 
10.000000f, 10.000000f, 10.000000f, 10.000000f, 10.000000f, 10.000000f, 10.000000f, 10.000000f, 10.000000f, 10.000000f, 10.000000f, 10.000000f, 10.000000f, 10.000000f, 10.000000f, 10.000000f, -0.000000f, 10.000000f, 10.000000f, -0.000000f, 
10.000000f, 10.000000f, -0.000000f, 10.000000f, 10.000000f, -0.000000f, 10.000000f, 10.000000f, -0.000000f, 10.000000f, 10.000000f, -0.000000f, 10.000000f, 10.000000f, -0.000000f, -0.000000f, 10.000000f, -0.000000f, -0.000000f, 10.000000f, 
-0.000000f, -0.000000f, 10.000000f, -0.000000f, -0.000000f, 10.000000f, -0.000000f, -0.000000f, 10.000000f, -0.000000f, -0.000000f, 10.000000f, -0.000000f, -0.000000f, 10.000000f, -0.000000f, -0.000000f, -0.000000f, -0.000000f, -0.000000f, 
-0.000000f, -0.000000f, -0.000000f, -0.000000f, -0.000000f, -0.000000f, -0.000000f, -0.000000f, -0.000000f, -0.000000f, -0.000000f, -0.000000f, -0.000000f, -0.000000f, -0.000000f, -0.000000f, -0.000000f, -0.000000f, -0.000000f, -0.000000f, 
-0.000000f, -0.000000f, -0.000000f, -0.000000f, -0.000000f, -0.000000f, -0.000000f, -0.000000f, -0.000000f, -0.000000f, -0.000000f, -0.000000f, -0.000000f, -0.000000f, -0.000000f, -0.000000f, -0.000000f, -0.000000f, -0.000000f, -0.000000f, 
-0.000000f, -0.000000f, -0.000000f, -0.000000f, -0.000000f, -0.000000f, -0.000000f, -0.000000f, -0.000000f, -0.000000f, -0.000000f, -0.000000f, -0.000000f, -0.000000f, -0.000000f, -0.000000f, -0.000000f, -0.000000f, -0.000000f, -0.000000f, 
-0.000000f, -0.000000f, -0.000000f, -0.000000f, -0.000000f, -0.000000f, -0.000000f, -0.000000f, -0.000000f, -0.000000f, -0.000000f, -0.000000f, -0.000000f, -0.000000f, -0.000000f, -0.000000f, -0.000000f, -0.000000f, -0.000000f, -0.000000f, 
-0.000000f, -0.000000f, -0.000000f, -0.000000f, -0.000000f, -0.000000f, -0.000000f, -0.000000f, -0.000000f, -0.000000f, -0.000000f, -0.000000f, -0.000000f, -0.000000f, -0.000000f, -0.000000f, -0.000000f, -0.000000f, -0.000000f, -0.000000f, 
-0.000000f, -0.000000f, -0.000000f, -0.000000f, -0.000000f, -0.000000f, -0.000000f, 10.000000f, 10.000000f, -0.000000f, 10.000000f, 10.000000f, -0.000000f, 10.000000f, 10.000000f, -0.000000f, 10.000000f, 10.000000f, -0.000000f, 10.000000f, 
10.000000f, -0.000000f, 10.000000f, 10.000000f, 10.000000f, 10.000000f, 10.000000f, 10.000000f, 10.000000f, 10.000000f, 10.000000f, 10.000000f, 10.000000f, 10.000000f, 10.000000f, 10.000000f, 10.000000f, 10.000000f, 10.000000f, 10.000000f, 
10.000000f, 10.000000f, 10.000000f, 10.000000f, 10.000000f, 10.000000f, 10.000000f, 10.000000f, 10.000000f, 10.000000f, 10.000000f, 10.000000f, 10.000000f, 10.000000f, 10.000000f, 10.000000f, 10.000000f, 10.000000f, 10.000000f, 10.000000f, 
10.000000f, 10.000000f, 10.000000f, 10.000000f, 10.000000f, 10.000000f, 10.000000f, 10.000000f, 10.000000f, 10.000000f, 10.000000f, 10.000000f, 10.000000f, 10.000000f, 10.000000f, 10.000000f, 10.000000f, 10.000000f, 10.000000f, 10.000000f, 
10.000000f, 10.000000f, 10.000000f, 10.000000f, 10.000000f, 10.000000f, 10.000000f, 10.000000f, 10.000000f, 10.000000f, 10.000000f, 10.000000f, 10.000000f, 10.000000f, 10.000000f, 10.000000f, -0.000000f, 10.000000f, 10.000000f, -0.000000f, 
10.000000f, 10.000000f, -0.000000f, 10.000000f, 10.000000f, -0.000000f, 10.000000f, 10.000000f, -0.000000f, 10.000000f, 10.000000f, -0.000000f, 10.000000f, 10.000000f, -0.000000f, -0.000000f, 10.000000f, -0.000000f, -0.000000f, 10.000000f, 
-0.000000f, -0.000000f, 10.000000f, -0.000000f, -0.000000f, 10.000000f, -0.000000f, -0.000000f, 10.000000f, -0.000000f, -0.000000f, 10.000000f, -0.000000f, -0.000000f, 10.000000f, -0.000000f, -0.000000f, -0.000000f, -0.000000f, -0.000000f, 
-0.000000f, -0.000000f, -0.000000f, -0.000000f, -0.000000f, -0.000000f, -0.000000f, -0.000000f, -0.000000f, -0.000000f, -0.000000f, -0.000000f, -0.000000f, -0.000000f, -0.000000f, -0.000000f, -0.000000f, -0.000000f, -0.000000f, -0.000000f, 
-0.000000f, -0.000000f, -0.000000f, -0.000000f, -0.000000f, -0.000000f, -0.000000f, -0.000000f, -0.000000f, -0.000000f, -0.000000f, -0.000000f, -0.000000f, -0.000000f, -0.000000f, -0.000000f, -0.000000f, -0.000000f, -0.000000f, -0.000000f, 
-0.000000f, -0.000000f, -0.000000f, -0.000000f, -0.000000f, -0.000000f, -0.000000f, -0.000000f, -0.000000f, -0.000000f, -0.000000f, -0.000000f, -0.000000f, -0.000000f, -0.000000f, -0.000000f, -0.000000f, -0.000000f, -0.000000f, -0.000000f, 
-0.000000f, -0.000000f, -0.000000f, -0.000000f, -0.000000f, -0.000000f, -0.000000f, -0.000000f, -0.000000f, -0.000000f, -0.000000f, -0.000000f, -0.000000f, -0.000000f, -0.000000f, -0.000000f, -0.000000f, -0.000000f, -0.000000f, -0.000000f, 
-0.000000f, -0.000000f, -0.000000f, -0.000000f, -0.000000f, -0.000000f, -0.000000f, -0.000000f, -0.000000f, -0.000000f, -0.000000f, -0.000000f, -0.000000f, -0.000000f, -0.000000f, -0.000000f, -0.000000f, -0.000000f, -0.000000f, -0.000000f, 
-0.000000f, -0.000000f, -0.000000f, -0.000000f, -0.000000f, -0.000000f, -0.000000f, 10.000000f, 10.000000f, -0.000000f, 10.000000f, 10.000000f, -0.000000f, 10.000000f, 10.000000f, -0.000000f, 10.000000f, 10.000000f, -0.000000f, 10.000000f, 
10.000000f, -0.000000f, 10.000000f, 10.000000f, 10.000000f, 10.000000f, 10.000000f, 10.000000f, 10.000000f, 10.000000f, 10.000000f, 10.000000f, 10.000000f, 10.000000f, 10.000000f, 10.000000f, 10.000000f, 10.000000f, 10.000000f, 10.000000f, 
10.000000f, 10.000000f, 10.000000f, 10.000000f, 10.000000f, 10.000000f, 10.000000f, 10.000000f, 10.000000f, 10.000000f, 10.000000f, 10.000000f, 10.000000f, 10.000000f, 10.000000f, 10.000000f, 10.000000f, 10.000000f, 10.000000f, 10.000000f, 
10.000000f, 10.000000f, 10.000000f, 10.000000f, 10.000000f, 10.000000f, 10.000000f, 10.000000f, 10.000000f, 10.000000f, 10.000000f, 10.000000f, 10.000000f, 10.000000f, 10.000000f, 10.000000f, 10.000000f, 10.000000f, 10.000000f, 10.000000f, 
10.000000f, 10.000000f, 10.000000f, 10.000000f, 10.000000f, 10.000000f, 10.000000f, 10.000000f, 10.000000f, 10.000000f, -0.000000f, 10.000000f, 10.000000f, -0.000000f, 10.000000f, 10.000000f, 10.000000f, 10.000000f, 10.000000f, 10.000000f, 
10.000000f, 10.000000f, -0.000000f, 10.000000f, 10.000000f, -0.000000f, 10.000000f, 10.000000f, -0.000000f, 10.000000f, 10.000000f, -0.000000f, 10.000000f, 10.000000f, -0.000000f, -0.000000f, 10.000000f, -0.000000f, -0.000000f, 10.000000f, 
-0.000000f, -0.000000f, 10.000000f, -0.000000f, -0.000000f, 10.000000f, -0.000000f, -0.000000f, 10.000000f, -0.000000f, -0.000000f, 10.000000f, -0.000000f, -0.000000f, 0.000000f, -0.000000f, -0.000000f, -0.000000f, -0.000000f, -0.000000f, 
-0.000000f, -0.000000f, -0.000000f, -0.000000f, -0.000000f, -0.000000f, -0.000000f, -0.000000f, -0.000000f, -0.000000f, -0.000000f, -0.000000f, -0.000000f, -0.000000f, -0.000000f, -0.000000f, -0.000000f, -0.000000f, -0.000000f, -0.000000f, 
-0.000000f, -0.000000f, -0.000000f, -0.000000f, -0.000000f, -0.000000f, -0.000000f, -0.000000f, -0.000000f, -0.000000f, -0.000000f, -0.000000f, -0.000000f, -0.000000f, -0.000000f, -0.000000f, -0.000000f, -0.000000f, -0.000000f, -0.000000f, 
-0.000000f, -0.000000f, -0.000000f, -0.000000f, -0.000000f, -0.000000f, -0.000000f, -0.000000f, -0.000000f, -0.000000f, -0.000000f, -0.000000f, -0.000000f, -0.000000f, -0.000000f, -0.000000f, -0.000000f, -0.000000f, -0.000000f, -0.000000f, 
-0.000000f, -0.000000f, -0.000000f, -0.000000f, -0.000000f, -0.000000f, -0.000000f, -0.000000f, -0.000000f, -0.000000f, -0.000000f, -0.000000f, -0.000000f, -0.000000f, -0.000000f, -0.000000f, -0.000000f, -0.000000f, -0.000000f, -0.000000f, 
-0.000000f, -0.000000f, -0.000000f, -0.000000f, -0.000000f, -0.000000f, -0.000000f, -0.000000f, -0.000000f, -0.000000f, -0.000000f, -0.000000f, -0.000000f, -0.000000f, -0.000000f, -0.000000f, -0.000000f, -0.000000f, -0.000000f, -0.000000f, 
-0.000000f, -0.000000f, -0.000000f, -0.000000f, -0.000000f, 10.000000f, -0.000000f, 10.000000f, 10.000000f, -0.000000f, 10.000000f, 10.000000f, -0.000000f, 10.000000f, 10.000000f, -0.000000f, 10.000000f, 10.000000f, -0.000000f, 10.000000f, 
10.000000f, -0.000000f, 10.000000f, 10.000000f, 10.000000f, 10.000000f, 10.000000f, 10.000000f, 10.000000f, 10.000000f, 10.000000f, 10.000000f, 10.000000f, 10.000000f, 10.000000f, 10.000000f, 10.000000f, 10.000000f, 10.000000f, 10.000000f, 
10.000000f, 10.000000f, 10.000000f, 10.000000f, 10.000000f, 10.000000f, 10.000000f, 10.000000f, 10.000000f, 10.000000f, 10.000000f, 10.000000f, 10.000000f, 10.000000f, 10.000000f, 10.000000f, 10.000000f, 10.000000f, 10.000000f, 10.000000f, 
10.000000f, 10.000000f, 10.000000f, 10.000000f, 10.000000f, 10.000000f, 10.000000f, 10.000000f, 10.000000f, 10.000000f, 10.000000f, 10.000000f, 10.000000f, 10.000000f, 10.000000f, 10.000000f, 10.000000f, 10.000000f, 10.000000f, 10.000000f, 
10.000000f, 10.000000f, 10.000000f, 10.000000f, 10.000000f, 10.000000f, 10.000000f, 10.000000f, 10.000000f, 10.000000f, -0.000000f, 10.000000f, 10.000000f, -0.000000f, 10.000000f, 10.000000f, 10.000000f, 10.000000f, 10.000000f, 10.000000f, 
10.000000f, 10.000000f, -0.000000f, 10.000000f, 10.000000f, -0.000000f, 10.000000f, 10.000000f, -0.000000f, 10.000000f, 10.000000f, -0.000000f, 10.000000f, 10.000000f, -0.000000f, -0.000000f, 10.000000f, -0.000000f, -0.000000f, 10.000000f, 
-0.000000f, -0.000000f, 10.000000f, -0.000000f, -0.000000f, 10.000000f, -0.000000f, -0.000000f, 10.000000f, -0.000000f, -0.000000f, 10.000000f, -0.000000f, -0.000000f, 0.000000f, -0.000000f, -0.000000f, -0.000000f, -0.000000f, -0.000000f, 
-0.000000f, -0.000000f, -0.000000f, -0.000000f, -0.000000f, -0.000000f, -0.000000f, -0.000000f, -0.000000f, -0.000000f, -0.000000f, -0.000000f, -0.000000f, -0.000000f, -0.000000f, -0.000000f, -0.000000f, -0.000000f, -0.000000f, -0.000000f, 
-0.000000f, -0.000000f, -0.000000f, -0.000000f, -0.000000f, -0.000000f, -0.000000f, -0.000000f, -0.000000f, -0.000000f, -0.000000f, -0.000000f, -0.000000f, -0.000000f, -0.000000f, -0.000000f, -0.000000f, -0.000000f, -0.000000f, -0.000000f, 
-0.000000f, -0.000000f, -0.000000f, -0.000000f, -0.000000f, -0.000000f, -0.000000f, -0.000000f, -0.000000f, -0.000000f, -0.000000f, -0.000000f, -0.000000f, -0.000000f, -0.000000f, -0.000000f, -0.000000f, -0.000000f, -0.000000f, -0.000000f, 
-0.000000f, -0.000000f, -0.000000f, -0.000000f, -0.000000f, -0.000000f, -0.000000f, -0.000000f, -0.000000f, -0.000000f, -0.000000f, -0.000000f, -0.000000f, -0.000000f, -0.000000f, -0.000000f, -0.000000f, -0.000000f, -0.000000f, -0.000000f, 
-0.000000f, -0.000000f, -0.000000f, -0.000000f, -0.000000f, -0.000000f, -0.000000f, -0.000000f, -0.000000f, -0.000000f, -0.000000f, -0.000000f, -0.000000f, -0.000000f, -0.000000f, -0.000000f, -0.000000f, -0.000000f, -0.000000f, -0.000000f, 
-0.000000f, -0.000000f, -0.000000f, -0.000000f, -0.000000f, 10.000000f, -0.000000f, 10.000000f, 10.000000f, -0.000000f, 10.000000f, 10.000000f, -0.000000f, 10.000000f, 10.000000f, -0.000000f, 10.000000f, 10.000000f, -0.000000f, 10.000000f, 
10.000000f, -0.000000f, 10.000000f, 10.000000f, 10.000000f, 10.000000f, 10.000000f, 10.000000f, 10.000000f, 10.000000f, 10.000000f, 10.000000f, 10.000000f, 10.000000f, 10.000000f, 10.000000f, 10.000000f, 10.000000f, 10.000000f, 10.000000f, 
10.000000f, 10.000000f, 10.000000f, 10.000000f, 10.000000f, 10.000000f, 10.000000f, 10.000000f, 10.000000f, 10.000000f, 10.000000f, 10.000000f, 10.000000f, 10.000000f, 10.000000f, 10.000000f, 10.000000f, 10.000000f, 10.000000f, 10.000000f, 
10.000000f, 10.000000f, 10.000000f, 10.000000f, 10.000000f, 10.000000f, 10.000000f, 10.000000f, 10.000000f, 10.000000f, 10.000000f, 10.000000f, 10.000000f, 10.000000f, 10.000000f, 10.000000f, 10.000000f, 10.000000f, 10.000000f, 10.000000f, 
10.000000f, 10.000000f, 10.000000f, 10.000000f, 10.000000f, 10.000000f, 10.000000f, 10.000000f, 10.000000f, 10.000000f, -0.000000f, 10.000000f, 10.000000f, -0.000000f, 10.000000f, 10.000000f, 10.000000f, 10.000000f, 10.000000f, 10.000000f, 
10.000000f, 10.000000f, -0.000000f, 10.000000f, 10.000000f, -0.000000f, 10.000000f, 10.000000f, -0.000000f, 10.000000f, 10.000000f, -0.000000f, 10.000000f, 10.000000f, -0.000000f, -0.000000f, 10.000000f, -0.000000f, -0.000000f, 10.000000f, 
-0.000000f, -0.000000f, 10.000000f, -0.000000f, -0.000000f, 10.000000f, -0.000000f, -0.000000f, 10.000000f, -0.000000f, -0.000000f, 10.000000f, -0.000000f, -0.000000f, -0.000000f, -0.000000f, -0.000000f, -0.000000f, -0.000000f, -0.000000f, 
-0.000000f, -0.000000f, -0.000000f, -0.000000f, -0.000000f, -0.000000f, -0.000000f, -0.000000f, -0.000000f, -0.000000f, -0.000000f, -0.000000f, -0.000000f, -0.000000f, -0.000000f, -0.000000f, -0.000000f, -0.000000f, -0.000000f, -0.000000f, 
-0.000000f, -0.000000f, -0.000000f, -0.000000f, -0.000000f, -0.000000f, -0.000000f, -0.000000f, -0.000000f, -0.000000f, -0.000000f, -0.000000f, -0.000000f, -0.000000f, -0.000000f, -0.000000f, -0.000000f, -0.000000f, -0.000000f, -0.000000f, 
-0.000000f, -0.000000f, -0.000000f, -0.000000f, -0.000000f, -0.000000f, -0.000000f, -0.000000f, -0.000000f, -0.000000f, -0.000000f, -0.000000f, -0.000000f, -0.000000f, -0.000000f, -0.000000f, -0.000000f, -0.000000f, -0.000000f, -0.000000f, 
-0.000000f, -0.000000f, -0.000000f, -0.000000f, -0.000000f, -0.000000f, -0.000000f, -0.000000f, -0.000000f, -0.000000f, -0.000000f, -0.000000f, -0.000000f, -0.000000f, -0.000000f, -0.000000f, -0.000000f, -0.000000f, -0.000000f, -0.000000f, 
-0.000000f, -0.000000f, -0.000000f, -0.000000f, -0.000000f, -0.000000f, -0.000000f, -0.000000f, -0.000000f, -0.000000f, -0.000000f, -0.000000f, -0.000000f, -0.000000f, -0.000000f, -0.000000f, -0.000000f, -0.000000f, -0.000000f, -0.000000f, 
-0.000000f, -0.000000f, -0.000000f, -0.000000f, -0.000000f, 10.000000f, -0.000000f, 10.000000f, 10.000000f, -0.000000f, 10.000000f, 10.000000f, -0.000000f, 10.000000f, 10.000000f, -0.000000f, 10.000000f, 10.000000f, -0.000000f, 10.000000f, 
10.000000f, -0.000000f, 10.000000f, 10.000000f, 10.000000f, 10.000000f, 10.000000f, 10.000000f, 10.000000f, 10.000000f, 10.000000f, 10.000000f, 10.000000f, 10.000000f, 10.000000f, 10.000000f, 10.000000f, 10.000000f, 10.000000f, 10.000000f, 
10.000000f, 10.000000f, 10.000000f, 10.000000f, 10.000000f, 10.000000f, 10.000000f, 10.000000f, 10.000000f, 10.000000f, 10.000000f, 10.000000f, 10.000000f, 10.000000f, 10.000000f, 10.000000f, 10.000000f, 10.000000f, 10.000000f, 10.000000f, 
10.000000f, 10.000000f, 10.000000f, 10.000000f, 10.000000f, 10.000000f, 10.000000f, 10.000000f, 10.000000f, 10.000000f, 10.000000f, 10.000000f, 10.000000f, 10.000000f, 10.000000f, 10.000000f, 10.000000f, 10.000000f, 10.000000f, 10.000000f, 
10.000000f, 10.000000f, 10.000000f, 10.000000f, 10.000000f, 10.000000f, 10.000000f, 10.000000f, 10.000000f, 10.000000f, -0.000000f, 10.000000f, 10.000000f, -0.000000f, 10.000000f, 10.000000f, -0.000000f, 10.000000f, 10.000000f, -0.000000f, 
10.000000f, 10.000000f, -0.000000f, 10.000000f, 10.000000f, -0.000000f, 10.000000f, 10.000000f, -0.000000f, 10.000000f, 10.000000f, -0.000000f, 10.000000f, 10.000000f, -0.000000f, -0.000000f, 10.000000f, -0.000000f, -0.000000f, 10.000000f, 
-0.000000f, -0.000000f, 10.000000f, -0.000000f, -0.000000f, 10.000000f, -0.000000f, -0.000000f, 10.000000f, -0.000000f, -0.000000f, 0.000000f, -0.000000f, -0.000000f, -0.000000f, -0.000000f, -0.000000f, -0.000000f, -0.000000f, -0.000000f, 
-0.000000f, -0.000000f, -0.000000f, -0.000000f, -0.000000f, -0.000000f, -0.000000f, -0.000000f, -0.000000f, -0.000000f, -0.000000f, -0.000000f, -0.000000f, -0.000000f, -0.000000f, -0.000000f, -0.000000f, -0.000000f, -0.000000f, -0.000000f, 
-0.000000f, -0.000000f, -0.000000f, -0.000000f, -0.000000f, -0.000000f, -0.000000f, -0.000000f, -0.000000f, -0.000000f, -0.000000f, -0.000000f, -0.000000f, -0.000000f, -0.000000f, -0.000000f, -0.000000f, -0.000000f, -0.000000f, -0.000000f, 
-0.000000f, -0.000000f, -0.000000f, -0.000000f, -0.000000f, -0.000000f, -0.000000f, -0.000000f, -0.000000f, -0.000000f, -0.000000f, -0.000000f, -0.000000f, -0.000000f, -0.000000f, -0.000000f, -0.000000f, -0.000000f, -0.000000f, -0.000000f, 
-0.000000f, -0.000000f, -0.000000f, -0.000000f, -0.000000f, -0.000000f, -0.000000f, -0.000000f, -0.000000f, -0.000000f, -0.000000f, -0.000000f, -0.000000f, -0.000000f, -0.000000f, -0.000000f, -0.000000f, -0.000000f, -0.000000f, -0.000000f, 
-0.000000f, -0.000000f, -0.000000f, -0.000000f, -0.000000f, -0.000000f, -0.000000f, -0.000000f, -0.000000f, -0.000000f, -0.000000f, -0.000000f, -0.000000f, -0.000000f, -0.000000f, -0.000000f, -0.000000f, -0.000000f, -0.000000f, -0.000000f, 
-0.000000f, -0.000000f, -0.000000f, -0.000000f, -0.000000f, 10.000000f, -0.000000f, 10.000000f, 10.000000f, -0.000000f, 10.000000f, 10.000000f, -0.000000f, 10.000000f, 10.000000f, -0.000000f, 10.000000f, 10.000000f, -0.000000f, 10.000000f, 
10.000000f, -0.000000f, 10.000000f, 10.000000f, 10.000000f, 10.000000f, 10.000000f, 10.000000f, 10.000000f, 10.000000f, 10.000000f, 10.000000f, 10.000000f, 10.000000f, 10.000000f, 10.000000f, 10.000000f, 10.000000f, 10.000000f, 10.000000f, 
10.000000f, 10.000000f, 10.000000f, 10.000000f, 10.000000f, 10.000000f, 10.000000f, 10.000000f, 10.000000f, 10.000000f, 10.000000f, 10.000000f, 10.000000f, 10.000000f, 10.000000f, 10.000000f, 10.000000f, 10.000000f, 10.000000f, 10.000000f, 
10.000000f, 10.000000f, 10.000000f, 10.000000f, 10.000000f, 10.000000f, 10.000000f, 10.000000f, 10.000000f, 10.000000f, 10.000000f, 10.000000f, 10.000000f, 10.000000f, 10.000000f, 10.000000f, 10.000000f, 10.000000f, 10.000000f, 10.000000f, 
10.000000f, 10.000000f, 10.000000f, 10.000000f, 10.000000f, 10.000000f, 10.000000f, 10.000000f, 10.000000f, 10.000000f, -0.000000f, 10.000000f, 10.000000f, -0.000000f, 10.000000f, 10.000000f, -0.000000f, 10.000000f, 10.000000f, -0.000000f, 
10.000000f, 10.000000f, -0.000000f, 10.000000f, 10.000000f, -0.000000f, 10.000000f, 10.000000f, -0.000000f, 10.000000f, 10.000000f, -0.000000f, 10.000000f, 10.000000f, -0.000000f, -0.000000f, 10.000000f, -0.000000f, -0.000000f, 10.000000f, 
-0.000000f, -0.000000f, 10.000000f, -0.000000f, -0.000000f, 10.000000f, -0.000000f, -0.000000f, 10.000000f, -0.000000f, -0.000000f, 0.000000f, -0.000000f, -0.000000f, -0.000000f, -0.000000f, -0.000000f, -0.000000f, -0.000000f, -0.000000f, 
-0.000000f, -0.000000f, -0.000000f, -0.000000f, -0.000000f, -0.000000f, -0.000000f, -0.000000f, -0.000000f, -0.000000f, -0.000000f, -0.000000f, -0.000000f, -0.000000f, -0.000000f, -0.000000f, -0.000000f, -0.000000f, -0.000000f, -0.000000f, 
-0.000000f, -0.000000f, -0.000000f, -0.000000f, -0.000000f, -0.000000f, -0.000000f, -0.000000f, -0.000000f, -0.000000f, -0.000000f, -0.000000f, -0.000000f, -0.000000f, -0.000000f, -0.000000f, -0.000000f, -0.000000f, -0.000000f, -0.000000f, 
-0.000000f, -0.000000f, -0.000000f, -0.000000f, -0.000000f, -0.000000f, -0.000000f, -0.000000f, -0.000000f, -0.000000f, -0.000000f, -0.000000f, -0.000000f, -0.000000f, -0.000000f, -0.000000f, -0.000000f, -0.000000f, -0.000000f, -0.000000f, 
-0.000000f, -0.000000f, -0.000000f, -0.000000f, -0.000000f, -0.000000f, -0.000000f, -0.000000f, -0.000000f, -0.000000f, -0.000000f, -0.000000f, -0.000000f, -0.000000f, -0.000000f, -0.000000f, -0.000000f, -0.000000f, -0.000000f, -0.000000f, 
-0.000000f, -0.000000f, -0.000000f, -0.000000f, -0.000000f, -0.000000f, -0.000000f, -0.000000f, -0.000000f, -0.000000f, -0.000000f, -0.000000f, -0.000000f, -0.000000f, -0.000000f, -0.000000f, -0.000000f, -0.000000f, -0.000000f, -0.000000f, 
-0.000000f, -0.000000f, -0.000000f, -0.000000f, -0.000000f, 10.000000f, -0.000000f, 10.000000f, 10.000000f, -0.000000f, 10.000000f, 10.000000f, -0.000000f, 10.000000f, 10.000000f, -0.000000f, 10.000000f, 10.000000f, -0.000000f, 10.000000f, 
10.000000f, -0.000000f, 10.000000f, 10.000000f, 10.000000f, 10.000000f, 10.000000f, 10.000000f, 10.000000f, 10.000000f, 10.000000f, 10.000000f, 10.000000f, 10.000000f, 10.000000f, 10.000000f, 10.000000f, 10.000000f, 10.000000f, 10.000000f, 
10.000000f, 10.000000f, 10.000000f, 10.000000f, 10.000000f, 10.000000f, 10.000000f, 10.000000f, 10.000000f, 10.000000f, 10.000000f, 10.000000f, 10.000000f, 10.000000f, 10.000000f, 10.000000f, 10.000000f, 10.000000f, 10.000000f, 10.000000f, 
10.000000f, 10.000000f, 10.000000f, 10.000000f, 10.000000f, 10.000000f, 10.000000f, 10.000000f, 10.000000f, 10.000000f, 10.000000f, 10.000000f, 10.000000f, 10.000000f, 10.000000f, 10.000000f, 10.000000f, 10.000000f, 10.000000f, 10.000000f, 
10.000000f, 10.000000f, 10.000000f, 10.000000f, 10.000000f, 10.000000f, 10.000000f, 10.000000f, 10.000000f, 10.000000f, -0.000000f, 10.000000f, 10.000000f, -0.000000f, 10.000000f, 10.000000f, -0.000000f, 10.000000f, 10.000000f, -0.000000f, 
10.000000f, 10.000000f, -0.000000f, 10.000000f, 10.000000f, -0.000000f, 10.000000f, 10.000000f, -0.000000f, 10.000000f, 10.000000f, -0.000000f, 10.000000f, 10.000000f, -0.000000f, -0.000000f, 10.000000f, -0.000000f, -0.000000f, 10.000000f, 
-0.000000f, -0.000000f, 10.000000f, -0.000000f, -0.000000f, 10.000000f, -0.000000f, -0.000000f, 10.000000f, -0.000000f, -0.000000f, 0.000000f, -0.000000f, -0.000000f, -0.000000f, -0.000000f, -0.000000f, -0.000000f, -0.000000f, -0.000000f, 
-0.000000f, -0.000000f, -0.000000f, -0.000000f, -0.000000f, -0.000000f, -0.000000f, -0.000000f, -0.000000f, -0.000000f, -0.000000f, -0.000000f, -0.000000f, -0.000000f, -0.000000f, -0.000000f, -0.000000f, -0.000000f, -0.000000f, -0.000000f, 
-0.000000f, -0.000000f, -0.000000f, -0.000000f, -0.000000f, -0.000000f, -0.000000f, -0.000000f, -0.000000f, -0.000000f, -0.000000f, -0.000000f, -0.000000f, -0.000000f, -0.000000f, -0.000000f, -0.000000f, -0.000000f, -0.000000f, -0.000000f, 
-0.000000f, -0.000000f, -0.000000f, -0.000000f, -0.000000f, -0.000000f, -0.000000f, -0.000000f, -0.000000f, -0.000000f, -0.000000f, -0.000000f, -0.000000f, -0.000000f, -0.000000f, -0.000000f, -0.000000f, -0.000000f, -0.000000f, -0.000000f, 
-0.000000f, -0.000000f, -0.000000f, -0.000000f, -0.000000f, -0.000000f, -0.000000f, -0.000000f, -0.000000f, -0.000000f, -0.000000f, -0.000000f, -0.000000f, -0.000000f, -0.000000f, -0.000000f, -0.000000f, -0.000000f, -0.000000f, -0.000000f, 
-0.000000f, -0.000000f, -0.000000f, -0.000000f, -0.000000f, -0.000000f, -0.000000f, -0.000000f, -0.000000f, -0.000000f, -0.000000f, -0.000000f, -0.000000f, -0.000000f, -0.000000f, -0.000000f, -0.000000f, -0.000000f, -0.000000f, -0.000000f, 
-0.000000f, -0.000000f, -0.000000f, -0.000000f, -0.000000f, 10.000000f, -0.000000f, 10.000000f, 10.000000f, -0.000000f, 10.000000f, 10.000000f, -0.000000f, 10.000000f, 10.000000f, -0.000000f, 10.000000f, 10.000000f, -0.000000f, 10.000000f, 
10.000000f, -0.000000f, 10.000000f, 10.000000f, 10.000000f, 10.000000f, 10.000000f, 10.000000f, 10.000000f, 10.000000f, 10.000000f, 10.000000f, 10.000000f, 10.000000f, 10.000000f, 10.000000f, 10.000000f, 10.000000f, 10.000000f, 10.000000f, 
10.000000f, 10.000000f, 10.000000f, 10.000000f, 10.000000f, 10.000000f, 10.000000f, 10.000000f, 10.000000f, 10.000000f, 10.000000f, 10.000000f, 10.000000f, 10.000000f, 10.000000f, 10.000000f, 10.000000f, 10.000000f, 10.000000f, 10.000000f, 
10.000000f, 10.000000f, 10.000000f, 10.000000f, 10.000000f, 10.000000f, 10.000000f, 10.000000f, 10.000000f, 10.000000f, 10.000000f, 10.000000f, 10.000000f, 10.000000f, 10.000000f, 10.000000f, 10.000000f, 10.000000f, 10.000000f, 10.000000f, 
10.000000f, 10.000000f, 10.000000f, 10.000000f, 10.000000f, 10.000000f, 10.000000f, 10.000000f, 10.000000f, 10.000000f, -0.000000f, 10.000000f, 10.000000f, -0.000000f, 10.000000f, 10.000000f, -0.000000f, 10.000000f, 10.000000f, -0.000000f, 
10.000000f, 10.000000f, -0.000000f, 10.000000f, 10.000000f, -0.000000f, 10.000000f, 10.000000f, -0.000000f, 10.000000f, 10.000000f, -0.000000f, 10.000000f, 10.000000f, -0.000000f, -0.000000f, 10.000000f, -0.000000f, -0.000000f, 10.000000f, 
-0.000000f, -0.000000f, 10.000000f, -0.000000f, -0.000000f, -0.000000f, -0.000000f, -0.000000f, -0.000000f, -0.000000f, -0.000000f, -0.000000f, -0.000000f, -0.000000f, -0.000000f, -0.000000f, -0.000000f, -0.000000f, -0.000000f, -0.000000f, 
-0.000000f, -0.000000f, -0.000000f, -0.000000f, -0.000000f, -0.000000f, -0.000000f, -0.000000f, -0.000000f, -0.000000f, -0.000000f, -0.000000f, -0.000000f, -0.000000f, -0.000000f, -0.000000f, -0.000000f, -0.000000f, -0.000000f, -0.000000f, 
-0.000000f, -0.000000f, -0.000000f, -0.000000f, -0.000000f, -0.000000f, -0.000000f, -0.000000f, -0.000000f, -0.000000f, -0.000000f, -0.000000f, -0.000000f, -0.000000f, -0.000000f, -0.000000f, -0.000000f, -0.000000f, -0.000000f, -0.000000f, 
-0.000000f, -0.000000f, -0.000000f, -0.000000f, -0.000000f, -0.000000f, -0.000000f, -0.000000f, -0.000000f, -0.000000f, -0.000000f, -0.000000f, -0.000000f, -0.000000f, -0.000000f, -0.000000f, -0.000000f, -0.000000f, -0.000000f, -0.000000f, 
-0.000000f, -0.000000f, -0.000000f, -0.000000f, -0.000000f, -0.000000f, -0.000000f, -0.000000f, -0.000000f, -0.000000f, -0.000000f, -0.000000f, -0.000000f, -0.000000f, -0.000000f, -0.000000f, -0.000000f, -0.000000f, -0.000000f, -0.000000f, 
-0.000000f, -0.000000f, -0.000000f, -0.000000f, -0.000000f, -0.000000f, -0.000000f, -0.000000f, -0.000000f, -0.000000f, -0.000000f, -0.000000f, -0.000000f, -0.000000f, -0.000000f, -0.000000f, -0.000000f, -0.000000f, -0.000000f, -0.000000f, 
-0.000000f, -0.000000f, -0.000000f, -0.000000f, 10.000000f, -0.000000f, -0.000000f, 10.000000f, -0.000000f, -0.000000f, 10.000000f, 10.000000f, -0.000000f, 10.000000f, 10.000000f, -0.000000f, 10.000000f, 10.000000f, -0.000000f, 10.000000f, 
10.000000f, -0.000000f, 10.000000f, 10.000000f, -0.000000f, 10.000000f, 10.000000f, -0.000000f, 10.000000f, 10.000000f, -0.000000f, 10.000000f, 10.000000f, -0.000000f, 10.000000f, 10.000000f, 10.000000f, 10.000000f, 10.000000f, 10.000000f, 
10.000000f, 10.000000f, 10.000000f, 10.000000f, 10.000000f, 10.000000f, 10.000000f, 10.000000f, 10.000000f, 10.000000f, 10.000000f, 10.000000f, 10.000000f, 10.000000f, 10.000000f, 10.000000f, 10.000000f, 10.000000f, 10.000000f, 10.000000f, 
10.000000f, 10.000000f, 10.000000f, 10.000000f, 10.000000f, 10.000000f, 10.000000f, 10.000000f, 10.000000f, 10.000000f, 10.000000f, 10.000000f, 10.000000f, 10.000000f, 10.000000f, 10.000000f, 10.000000f, 10.000000f, 10.000000f, 10.000000f, 
10.000000f, 10.000000f, 10.000000f, 10.000000f, 10.000000f, 10.000000f, 10.000000f, 10.000000f, 10.000000f, 10.000000f, -0.000000f, 10.000000f, 10.000000f, -0.000000f, 10.000000f, 10.000000f, -0.000000f, 10.000000f, 10.000000f, -0.000000f, 
10.000000f, 10.000000f, -0.000000f, 10.000000f, 10.000000f, -0.000000f, 10.000000f, 10.000000f, -0.000000f, 10.000000f, 10.000000f, -0.000000f, 10.000000f, 10.000000f, -0.000000f, 0.000000f, 10.000000f, -0.000000f, -0.000000f, 10.000000f, 
-0.000000f, -0.000000f, 10.000000f, -0.000000f, -0.000000f, -0.000000f, -0.000000f, -0.000000f, -0.000000f, -0.000000f, -0.000000f, -0.000000f, -0.000000f, -0.000000f, -0.000000f, -0.000000f, -0.000000f, -0.000000f, -0.000000f, -0.000000f, 
-0.000000f, -0.000000f, -0.000000f, -0.000000f, -0.000000f, -0.000000f, -0.000000f, -0.000000f, -0.000000f, -0.000000f, -0.000000f, -0.000000f, -0.000000f, -0.000000f, -0.000000f, -0.000000f, -0.000000f, -0.000000f, -0.000000f, -0.000000f, 
-0.000000f, -0.000000f, -0.000000f, -0.000000f, -0.000000f, -0.000000f, -0.000000f, -0.000000f, -0.000000f, -0.000000f, -0.000000f, -0.000000f, -0.000000f, -0.000000f, -0.000000f, -0.000000f, -0.000000f, -0.000000f, -0.000000f, -0.000000f, 
-0.000000f, -0.000000f, -0.000000f, -0.000000f, -0.000000f, -0.000000f, -0.000000f, -0.000000f, -0.000000f, -0.000000f, -0.000000f, -0.000000f, -0.000000f, -0.000000f, -0.000000f, -0.000000f, -0.000000f, -0.000000f, -0.000000f, -0.000000f, 
-0.000000f, -0.000000f, -0.000000f, -0.000000f, -0.000000f, -0.000000f, -0.000000f, -0.000000f, -0.000000f, -0.000000f, -0.000000f, -0.000000f, -0.000000f, -0.000000f, -0.000000f, -0.000000f, -0.000000f, -0.000000f, -0.000000f, -0.000000f, 
-0.000000f, -0.000000f, -0.000000f, -0.000000f, -0.000000f, -0.000000f, -0.000000f, -0.000000f, -0.000000f, -0.000000f, -0.000000f, -0.000000f, -0.000000f, -0.000000f, -0.000000f, -0.000000f, -0.000000f, -0.000000f, -0.000000f, -0.000000f, 
-0.000000f, -0.000000f, -0.000000f, -0.000000f, 10.000000f, -0.000000f, -0.000000f, 10.000000f, -0.000000f, -0.000000f, 10.000000f, 10.000000f, -0.000000f, 10.000000f, 10.000000f, -0.000000f, 10.000000f, 10.000000f, -0.000000f, 10.000000f, 
10.000000f, -0.000000f, 10.000000f, 10.000000f, -0.000000f, 10.000000f, 10.000000f, -0.000000f, 10.000000f, 10.000000f, -0.000000f, 10.000000f, 10.000000f, -0.000000f, 10.000000f, 10.000000f, 10.000000f, 10.000000f, 10.000000f, 10.000000f, 
10.000000f, 10.000000f, 10.000000f, 10.000000f, 10.000000f, 10.000000f, 10.000000f, 10.000000f, 10.000000f, 10.000000f, 10.000000f, 10.000000f, 10.000000f, 10.000000f, 10.000000f, 10.000000f, 10.000000f, 10.000000f, 10.000000f, 10.000000f, 
10.000000f, 10.000000f, 10.000000f, 10.000000f, 10.000000f, 10.000000f, 10.000000f, 10.000000f, 10.000000f, 10.000000f, 10.000000f, 10.000000f, 10.000000f, 10.000000f, 10.000000f, 10.000000f, 10.000000f, 10.000000f, 10.000000f, 10.000000f, 
10.000000f, 10.000000f, 10.000000f, 10.000000f, 10.000000f, 10.000000f, 10.000000f, 10.000000f, 10.000000f, 10.000000f, -0.000000f, 0.000000f, 10.000000f, -0.000000f, 0.000000f, 10.000000f, -0.000000f, 0.000000f, 10.000000f, -0.000000f, 
0.000000f, 10.000000f, -0.000000f, 0.000000f, 10.000000f, -0.000000f, 0.000000f, 10.000000f, -0.000000f, 10.000000f, 10.000000f, -0.000000f, 10.000000f, 10.000000f, -0.000000f, 10.000000f, 10.000000f, -0.000000f, -0.000000f, 10.000000f, 
-0.000000f, -0.000000f, 10.000000f, -0.000000f, -0.000000f, -0.000000f, -0.000000f, -0.000000f, -0.000000f, -0.000000f, -0.000000f, -0.000000f, -0.000000f, -0.000000f, -0.000000f, -0.000000f, -0.000000f, -0.000000f, -0.000000f, -0.000000f, 
-0.000000f, -0.000000f, -0.000000f, -0.000000f, -0.000000f, -0.000000f, -0.000000f, -0.000000f, -0.000000f, -0.000000f, -0.000000f, -0.000000f, -0.000000f, -0.000000f, -0.000000f, -0.000000f, -0.000000f, -0.000000f, -0.000000f, -0.000000f, 
-0.000000f, -0.000000f, -0.000000f, -0.000000f, -0.000000f, -0.000000f, -0.000000f, -0.000000f, -0.000000f, -0.000000f, -0.000000f, -0.000000f, -0.000000f, -0.000000f, -0.000000f, -0.000000f, -0.000000f, -0.000000f, -0.000000f, -0.000000f, 
-0.000000f, -0.000000f, -0.000000f, -0.000000f, -0.000000f, -0.000000f, -0.000000f, -0.000000f, -0.000000f, -0.000000f, -0.000000f, -0.000000f, -0.000000f, -0.000000f, -0.000000f, -0.000000f, -0.000000f, -0.000000f, -0.000000f, -0.000000f, 
-0.000000f, -0.000000f, -0.000000f, -0.000000f, -0.000000f, -0.000000f, -0.000000f, -0.000000f, -0.000000f, -0.000000f, -0.000000f, -0.000000f, -0.000000f, -0.000000f, -0.000000f, -0.000000f, -0.000000f, -0.000000f, -0.000000f, -0.000000f, 
-0.000000f, -0.000000f, -0.000000f, -0.000000f, -0.000000f, -0.000000f, -0.000000f, -0.000000f, -0.000000f, -0.000000f, -0.000000f, -0.000000f, -0.000000f, -0.000000f, -0.000000f, -0.000000f, -0.000000f, -0.000000f, -0.000000f, -0.000000f, 
-0.000000f, -0.000000f, -0.000000f, -0.000000f, 10.000000f, -0.000000f, -0.000000f, 10.000000f, -0.000000f, -0.000000f, 10.000000f, 10.000000f, -0.000000f, 10.000000f, 10.000000f, -0.000000f, 10.000000f, 10.000000f, -0.000000f, 10.000000f, 
10.000000f, -0.000000f, 10.000000f, 10.000000f, -0.000000f, 10.000000f, 10.000000f, -0.000000f, 10.000000f, 10.000000f, -0.000000f, 10.000000f, 10.000000f, -0.000000f, 10.000000f, 10.000000f, 10.000000f, 10.000000f, 10.000000f, 10.000000f, 
10.000000f, 10.000000f, 10.000000f, 10.000000f, 10.000000f, 10.000000f, 10.000000f, 10.000000f, 10.000000f, 10.000000f, 10.000000f, 10.000000f, 10.000000f, 10.000000f, 10.000000f, 10.000000f, 10.000000f, 10.000000f, 10.000000f, 10.000000f, 
10.000000f, 10.000000f, 10.000000f, 10.000000f, 10.000000f, 10.000000f, 10.000000f, 10.000000f, 10.000000f, 10.000000f, 10.000000f, 10.000000f, 10.000000f, 10.000000f, 10.000000f, 10.000000f, 10.000000f, 10.000000f, 10.000000f, 10.000000f, 
