// Auto-generated model
#ifndef MY_MODEL_H
#define MY_MODEL_H

const char* myClassLabels[3] = {
  "background",
  "cell",
  "face"
};


const float myConv1_w[] = { -0.172620f, 0.108240f, 0.221457f, -0.274567f, -0.098445f, -0.270336f, 0.223897f, 0.256236f, -0.264449f, -0.098869f, 
0.102646f, 0.117701f, -0.127939f, 0.210643f, -0.133135f, -0.267539f, -0.097668f, -0.120591f, 0.041818f, -0.042944f, 
0.243083f, 0.082704f, 0.119928f, -0.250694f, 0.010625f, -0.230743f, 0.178188f, 0.216196f, -0.088105f, 0.066685f, 
0.032560f, -0.250981f, -0.253119f, 0.266555f, -0.237498f, 0.162684f, 0.249347f, -0.256793f, -0.261500f, -0.033231f, 
0.112643f, -0.147779f, -0.076807f, 0.266833f, -0.018132f, -0.237305f, -0.060152f, -0.261030f, -0.159528f, 0.119542f, 
0.256052f, 0.071173f, -0.109049f, -0.201255f, -0.232792f, -0.218802f, -0.250626f, -0.138997f, -0.035469f, 0.116401f, 
-0.140287f, -0.166336f, 0.136302f, 0.132120f, 0.208967f, -0.136058f, 0.215773f, -0.105341f, 0.083704f, 0.210295f, 
0.173112f, 0.242093f, 0.257459f, -0.020950f, -0.234007f, 0.185016f, -0.228176f, -0.148422f, 0.210054f, 0.219890f, 
-0.102932f, -0.245841f, 0.025219f, 0.198360f, 0.005434f, -0.193714f, 0.270862f, -0.165640f, -0.197759f, 0.174178f, 
0.218179f, 0.157600f, -0.209834f, -0.252670f, 0.276110f, 0.226538f, -0.228457f, 0.273259f, 0.050543f, 0.113802f, 
-0.209725f, -0.205142f, 0.050762f, -0.144726f, -0.189946f, -0.079348f, -0.198413f, 0.235439f };

const float myConv1_b[] = { -0.015487f, -0.001520f, -0.011698f, 0.014228f };

const float myConv2_w[] = { -0.140009f, 0.037114f, 0.208020f, 0.186139f, 0.125525f, 0.032389f, -0.180512f, 0.135459f, 0.215128f, 0.012202f, 
0.030148f, 0.220257f, -0.168749f, -0.053510f, -0.163849f, 0.072126f, 0.235630f, 0.007588f, 0.032850f, -0.246205f, 
-0.242533f, 0.011420f, 0.187463f, 0.161998f, 0.012292f, 0.202872f, 0.218254f, -0.061400f, -0.164746f, 0.090380f, 
-0.176475f, -0.087446f, -0.173560f, -0.059291f, -0.075725f, -0.172700f, 0.158040f, 0.182083f, -0.221187f, -0.076438f, 
0.031296f, -0.018581f, 0.129843f, 0.167853f, 0.110142f, -0.058636f, 0.200067f, -0.039905f, 0.141592f, 0.125478f, 
0.035925f, -0.085789f, -0.196472f, 0.178504f, 0.180858f, 0.126603f, -0.053083f, 0.096705f, 0.049106f, 0.063797f, 
0.150210f, -0.048331f, 0.100958f, 0.196710f, -0.100932f, 0.021303f, -0.056306f, 0.153786f, 0.037856f, -0.135150f, 
0.234169f, 0.028382f, 0.053651f, 0.157645f, -0.118426f, -0.077206f, -0.010653f, 0.099104f, 0.159301f, -0.185683f, 
0.028138f, -0.166905f, -0.001122f, 0.206343f, 0.143261f, -0.008664f, -0.053953f, -0.116726f, -0.021851f, -0.044600f, 
-0.011936f, -0.059931f, -0.185751f, -0.114828f, 0.127306f, -0.019312f, 0.132666f, 0.124313f, -0.059000f, -0.169310f, 
-0.008270f, 0.038621f, 0.215308f, 0.237086f, 0.054171f, 0.063840f, -0.143865f, -0.195795f, 0.177419f, -0.007919f, 
0.013907f, -0.074143f, -0.014772f, 0.206856f, 0.174554f, 0.198730f, -0.009038f, 0.072834f, 0.179814f, -0.048061f, 
0.125949f, -0.058371f, -0.178119f, 0.092551f, -0.032414f, -0.234740f, -0.125960f, -0.010983f, -0.046435f, -0.005102f, 
0.153311f, -0.155495f, 0.089526f, 0.093735f, -0.098899f, -0.024703f, -0.164628f, 0.046929f, 0.016631f, 0.226391f, 
-0.041619f, -0.102305f, -0.111832f, 0.195908f, -0.077899f, 0.155805f, -0.214069f, 0.212574f, -0.131538f, 0.095105f, 
-0.051667f, -0.052841f, -0.223882f, 0.104195f, -0.128134f, -0.184473f, -0.179783f, -0.097950f, 0.048684f, 0.168834f, 
0.023114f, -0.112324f, -0.196153f, 0.096245f, 0.230847f, -0.077358f, -0.137737f, -0.222122f, 0.075249f, 0.074836f, 
-0.097194f, 0.211975f, -0.029433f, 0.088509f, 0.048760f, 0.159479f, 0.153689f, -0.159556f, 0.219129f, 0.115208f, 
-0.178248f, 0.033268f, -0.161858f, -0.199394f, 0.015411f, -0.172372f, -0.150969f, -0.078397f, 0.074790f, 0.018066f, 
0.067931f, 0.052954f, 0.174995f, 0.199972f, 0.191741f, 0.120854f, -0.203805f, -0.184028f, -0.090451f, -0.134221f, 
-0.042830f, -0.026337f, -0.180123f, -0.009321f, 0.002197f, -0.125390f, 0.118511f, 0.121536f, -0.113845f, -0.158633f, 
0.221497f, 0.022471f, 0.161467f, -0.137664f, 0.156176f, 0.228880f, 0.026415f, 0.086645f, 0.002165f, 0.143802f, 
-0.015688f, 0.064945f, -0.107699f, 0.095699f, -0.177471f, 0.218581f, -0.053624f, -0.047832f, -0.191547f, 0.136820f, 
0.196414f, -0.193634f, -0.106468f, 0.129297f, -0.088882f, -0.080599f, -0.053697f, -0.157032f, -0.015266f, 0.158262f, 
0.105265f, -0.000603f, -0.234506f, 0.161763f, -0.183009f, 0.173350f, -0.112253f, 0.167494f, 0.090978f, -0.110331f, 
-0.042274f, 0.029152f, 0.071623f, -0.013645f, -0.196037f, -0.234664f, 0.200431f, 0.233495f, -0.223918f, -0.143409f, 
-0.161088f, 0.000296f, -0.111220f, 0.009496f, 0.098330f, -0.102748f, -0.111647f, 0.063033f, -0.014641f, 0.171607f, 
0.012846f, -0.093468f, 0.126791f, -0.221578f, 0.165863f, -0.097812f, 0.061767f, 0.110671f, -0.011337f, -0.058425f, 
0.177234f, -0.091692f, -0.098256f, 0.059138f, -0.024729f, 0.147300f, -0.006723f, -0.024879f };

const float myConv2_b[] = { -0.012726f, -0.013858f, -0.001233f, -0.002315f, -0.001069f, -0.000784f, -0.001726f, -0.004385f };

const float myOutput_w[] = { -0.004072f, 0.017625f, 0.016178f, -0.007635f, -0.002828f, 0.015838f, 0.008498f, -0.008513f, 0.012420f, -0.007113f, -0.008631f, -0.002191f, -0.013086f, 0.005265f, 0.016643f, -0.006655f, 0.002793f, 0.010633f, 0.001366f, -0.006069f, 
0.010829f, -0.008691f, -0.006854f, -0.018103f, -0.001407f, 0.012125f, -0.008688f, 0.003505f, -0.006251f, -0.012987f, -0.010224f, -0.001561f, 0.012129f, 0.019123f, 0.012755f, 0.000556f, -0.004349f, 0.012168f, -0.006511f, -0.011248f, 
0.005770f, -0.009980f, -0.012720f, 0.001694f, -0.000226f, 0.014444f, 0.004708f, -0.000386f, -0.008374f, -0.004262f, 0.008888f, -0.022572f, 0.002358f, 0.005041f, -0.014729f, 0.004995f, -0.009438f, 0.016098f, -0.007828f, 0.004543f, 
-0.004218f, 0.006634f, 0.004661f, -0.002253f, 0.009024f, 0.003234f, 0.005677f, -0.018371f, 0.009243f, 0.001315f, -0.017432f, -0.007873f, 0.000362f, 0.016847f, 0.019580f, -0.006031f, 0.006686f, -0.014135f, -0.011025f, -0.005668f, 
-0.008852f, 0.016285f, -0.007525f, -0.002892f, 0.003554f, 0.014148f, -0.000414f, 0.007214f, -0.013409f, -0.002886f, 0.004447f, -0.000271f, -0.018442f, 0.008909f, 0.012671f, 0.001126f, -0.018905f, 0.009191f, -0.013497f, -0.009993f, 
0.003219f, 0.004116f, -0.012746f, 0.000146f, 0.008379f, -0.015710f, -0.001691f, -0.000344f, -0.020927f, -0.001748f, 0.011566f, -0.014698f, 0.002910f, 0.007290f, 0.011685f, -0.007644f, -0.010424f, -0.016306f, -0.002167f, -0.005936f, 
-0.001770f, 0.002710f, -0.011436f, -0.001959f, -0.019638f, -0.017720f, -0.009548f, -0.009207f, -0.006323f, -0.018640f, -0.001422f, 0.018364f, 0.000205f, 0.007101f, 0.011157f, -0.001430f, 0.004583f, -0.011534f, -0.002413f, -0.018355f, 
0.000542f, -0.000848f, -0.019723f, -0.015449f, 0.001262f, -0.027970f, 0.002995f, 0.011113f, -0.008070f, -0.003420f, 0.010927f, -0.003540f, 0.011605f, -0.021120f, -0.003472f, 0.003937f, -0.008929f, 0.001328f, 0.009441f, -0.009847f, 
0.020279f, -0.003901f, 0.010439f, 0.007806f, 0.017607f, 0.004716f, 0.004926f, -0.007658f, -0.021713f, -0.013481f, 0.010721f, -0.012377f, 0.010342f, 0.003173f, -0.016668f, -0.014501f, -0.012948f, -0.017804f, 0.003550f, -0.000369f, 
-0.006499f, -0.009446f, -0.006671f, 0.000756f, 0.006053f, 0.019599f, -0.011965f, 0.000814f, -0.001872f, -0.001933f, -0.017404f, 0.009023f, -0.018280f, -0.004671f, -0.002069f, 0.010283f, -0.012895f, -0.003760f, -0.010128f, 0.002650f, 
-0.015618f, -0.018492f, 0.008106f, -0.001545f, -0.003564f, -0.013675f, 0.010042f, 0.006255f, 0.006226f, -0.006134f, 0.015342f, -0.020121f, -0.008241f, 0.015321f, 0.017862f, -0.005121f, -0.015433f, 0.006139f, -0.016336f, -0.000017f, 
0.017493f, -0.010650f, 0.006693f, 0.014880f, -0.011443f, -0.002932f, -0.014031f, -0.008410f, 0.006033f, 0.012068f, 0.008295f, -0.010042f, 0.007047f, -0.001864f, -0.015032f, -0.019449f, 0.015442f, -0.002140f, 0.000053f, 0.003548f, 
-0.006676f, -0.018304f, -0.014255f, 0.006675f, -0.010623f, 0.016591f, 0.020140f, -0.014864f, 0.005066f, 0.016001f, -0.004022f, -0.008862f, -0.013034f, 0.004426f, 0.013184f, -0.003682f, 0.010756f, 0.010451f, 0.001077f, 0.005927f, 
-0.013219f, -0.026285f, -0.021174f, -0.019646f, -0.027381f, -0.007393f, -0.026962f, -0.001197f, 0.000297f, 0.014390f, -0.017843f, 0.005646f, 0.008700f, 0.004319f, -0.004987f, -0.000655f, -0.008895f, 0.005963f, -0.016562f, -0.004422f, 
0.003880f, -0.011666f, -0.015629f, -0.006086f, 0.011874f, -0.001976f, -0.001563f, 0.010952f, -0.021276f, 0.014587f, -0.008977f, -0.013306f, -0.033563f, -0.002105f, -0.017552f, -0.007814f, -0.030736f, -0.001741f, -0.006800f, -0.005958f, 
0.010417f, 0.008985f, -0.003713f, -0.002036f, -0.012094f, -0.016870f, -0.006498f, -0.000401f, 0.018931f, 0.002534f, -0.005409f, -0.016239f, -0.014976f, -0.006887f, 0.017420f, -0.020257f, 0.006452f, -0.006885f, -0.003840f, 0.006756f, 
0.009869f, -0.008761f, -0.011466f, -0.012499f, -0.024521f, -0.007144f, 0.012327f, -0.010286f, -0.016300f, -0.016343f, -0.011482f, -0.003927f, -0.014538f, 0.004123f, -0.004778f, -0.001108f, 0.001955f, -0.000373f, -0.003313f, 0.008309f, 
-0.023500f, -0.001678f, 0.018744f, -0.000816f, 0.013773f, -0.018495f, -0.001977f, 0.016243f, 0.009177f, -0.017741f, -0.010731f, -0.023504f, -0.006292f, -0.006896f, -0.001607f, -0.012560f, 0.002820f, -0.004795f, 0.004537f, 0.008304f, 
-0.019152f, 0.000873f, 0.011333f, 0.014826f, -0.004395f, -0.006396f, 0.011417f, 0.014315f, 0.020063f, -0.009095f, 0.006767f, -0.003946f, -0.018015f, -0.009880f, -0.004837f, -0.012027f, 0.008687f, -0.016465f, -0.018059f, -0.006369f, 
-0.017258f, 0.004411f, -0.007803f, -0.010384f, 0.002209f, 0.013246f, 0.011562f, 0.018190f, -0.003533f, 0.007801f, -0.001282f, -0.020455f, 0.005198f, -0.016611f, -0.000462f, -0.011292f, 0.020354f, 0.007027f, 0.015017f, 0.000032f, 
-0.012325f, -0.016928f, -0.015014f, 0.007338f, -0.017722f, -0.004506f, -0.014638f, -0.003166f, -0.014656f, -0.014521f, 0.001496f, -0.022349f, -0.019627f, 0.010460f, -0.002468f, 0.002355f, -0.003115f, -0.021241f, -0.011565f, 0.001937f, 
-0.011231f, -0.002085f, -0.010874f, -0.019454f, -0.018948f, 0.004652f, 0.012367f, -0.002591f, -0.004420f, 0.015285f, 0.012203f, 0.002625f, 0.006118f, -0.022221f, -0.004783f, 0.000390f, -0.007312f, -0.011267f, -0.026900f, -0.003867f, 
0.004306f, -0.004502f, -0.028613f, 0.000559f, -0.013078f, -0.004082f, -0.022346f, -0.014307f, 0.000646f, 0.002634f, -0.021599f, -0.013984f, 0.005391f, -0.006127f, 0.012888f, -0.002983f, -0.006219f, 0.010869f, -0.009708f, -0.017988f, 
-0.009416f, -0.014793f, -0.005164f, -0.012223f, -0.006943f, -0.005106f, -0.018915f, 0.001001f, -0.022449f, 0.009768f, -0.005618f, -0.024727f, -0.023240f, 0.009543f, -0.008311f, 0.005558f, -0.010328f, -0.000822f, 0.017044f, 0.010598f, 
-0.003687f, -0.017643f, -0.008844f, -0.011827f, 0.010151f, 0.007707f, -0.003163f, 0.011570f, -0.000510f, -0.002709f, -0.014153f, 0.005156f, 0.010156f, 0.000168f, -0.016983f, 0.020219f, -0.015233f, -0.003272f, -0.007043f, -0.009264f, 
0.003823f, -0.022295f, 0.005303f, -0.020801f, -0.009860f, 0.016533f, 0.002566f, 0.002679f, -0.000289f, 0.017292f, -0.017771f, 0.013506f, -0.004273f, -0.026285f, 0.005451f, 0.012231f, -0.002361f, 0.007087f, -0.014241f, -0.015928f, 
-0.003567f, -0.000290f, 0.005427f, 0.000446f, -0.023275f, -0.009958f, -0.013562f, -0.011325f, -0.011358f, -0.002881f, -0.006585f, 0.008340f, 0.004240f, -0.005451f, 0.008052f, 0.014478f, 0.012608f, -0.004217f, -0.002028f, 0.003135f, 
0.011640f, -0.007039f, -0.010567f, 0.005818f, 0.016024f, -0.014378f, -0.029452f, -0.021186f, -0.018779f, -0.004544f, -0.008646f, -0.002360f, -0.002753f, -0.007740f, 0.000502f, -0.017565f, -0.009519f, 0.001393f, -0.010063f, 0.009350f, 
-0.003205f, -0.002751f, -0.011543f, 0.002576f, -0.005707f, 0.019487f, 0.021032f, 0.019875f, 0.013454f, -0.006260f, -0.013443f, 0.018674f, 0.013864f, 0.014619f, 0.008126f, -0.006953f, 0.008626f, -0.025178f, 0.018934f, -0.004208f, 
0.003162f, -0.013433f, 0.020480f, -0.011089f, -0.012006f, -0.003072f, -0.030416f, -0.004775f, 0.017030f, -0.014225f, 0.010028f, -0.013923f, -0.002316f, -0.001800f, -0.001209f, 0.025269f, 0.022183f, -0.001857f, -0.003096f, 0.016365f, 
0.003238f, -0.017537f, -0.009179f, 0.002977f, -0.015571f, -0.004918f, 0.004071f, 0.016288f, 0.006744f, 0.008277f, 0.020943f, -0.001898f, 0.002486f, 0.009665f, 0.003317f, -0.009593f, 0.015467f, -0.005920f, 0.010379f, 0.008198f, 
0.014607f, 0.017554f, -0.010776f, 0.010074f, 0.001913f, -0.000715f, -0.004007f, -0.005264f, -0.019133f, -0.010975f, -0.013878f, -0.017216f, -0.022587f, 0.009281f, 0.004060f, -0.007802f, 0.004528f, -0.015021f, -0.009582f, -0.010689f, 
-0.003084f, 0.017036f, 0.017228f, -0.008521f, -0.001838f, -0.009744f, 0.001823f, 0.021009f, 0.005986f, -0.009686f, 0.003509f, -0.000125f, -0.008872f, -0.002178f, -0.010454f, -0.010678f, 0.001240f, 0.002617f, -0.002410f, -0.001309f, 
0.004464f, -0.014736f, -0.020432f, -0.018152f, 0.014043f, -0.021198f, -0.000449f, -0.009200f, 0.000976f, 0.004464f, -0.006408f, 0.001843f, -0.006692f, 0.005070f, 0.002103f, 0.015245f, 0.020674f, 0.004415f, -0.000500f, -0.010929f, 
0.001393f, -0.003251f, 0.010146f, -0.005565f, -0.009324f, 0.008859f, 0.004532f, -0.008563f, -0.006776f, 0.008490f, -0.015169f, -0.007360f, 0.001269f, -0.018216f, -0.000805f, 0.005942f, -0.013084f, -0.018615f, -0.004274f, -0.011172f, 
0.008887f, -0.020992f, 0.018580f, 0.012101f, -0.016084f, -0.012772f, 0.021082f, 0.002510f, -0.016448f, 0.003855f, -0.014643f, -0.005344f, -0.006383f, 0.012562f, 0.017398f, -0.016850f, 0.022187f, 0.015699f, -0.009963f, -0.001909f, 
0.014145f, -0.019332f, 0.006005f, 0.006150f, 0.001265f, -0.003784f, 0.015921f, -0.004058f, -0.001842f, 0.007601f, 0.017893f, -0.006186f, 0.019897f, 0.009575f, 0.020203f, 0.006357f, -0.011730f, -0.007077f, 0.020382f, 0.015959f, 
0.015629f, 0.007302f, 0.008227f, 0.011729f, 0.016427f, 0.013500f, 0.009371f, 0.004524f, -0.022950f, -0.001909f, 0.008336f, -0.002724f, 0.002493f, -0.004044f, 0.006401f, 0.018023f, 0.010723f, 0.015191f, -0.000177f, 0.000104f, 
0.005807f, 0.009126f, 0.021263f, -0.004148f, 0.006341f, -0.000959f, 0.007389f, 0.014463f, -0.002457f, -0.009437f, 0.013114f, 0.017701f, 0.000865f, 0.007242f, -0.001712f, -0.007500f, 0.011889f, -0.006184f, 0.002924f, 0.000470f, 
-0.001375f, -0.005267f, -0.009089f, -0.000162f, -0.002062f, 0.015723f, 0.017588f, -0.007883f, 0.002108f, -0.007902f, -0.004514f, 0.021532f, -0.009813f, -0.005006f, -0.023725f, -0.003551f, 0.008863f, 0.017218f, 0.017245f, 0.011511f, 
0.004865f, 0.004211f, -0.009833f, -0.017067f, -0.013337f, 0.014033f, 0.016909f, 0.013717f, -0.017103f, 0.017084f, 0.011350f, -0.029778f, -0.016107f, -0.017817f, 0.011756f, 0.001911f, 0.006368f, -0.005086f, -0.017404f, 0.019901f, 
0.024343f, 0.001785f, 0.000597f, 0.013235f, 0.004102f, -0.008019f, 0.003151f, -0.004532f, 0.004197f, 0.005590f, -0.009218f, -0.012874f, 0.002306f, -0.000787f, -0.001535f, 0.019158f, 0.002089f, -0.001151f, 0.005933f, 0.008988f, 
-0.003026f, -0.005249f, -0.000625f, -0.017730f, -0.006245f, -0.011642f, 0.002507f, 0.012307f, 0.007464f, 0.008170f, -0.017635f, -0.020082f, -0.010635f, -0.007225f, -0.018106f, 0.001670f, -0.013493f, -0.011980f, 0.011697f, 0.008009f, 
0.010577f, -0.015486f, -0.001001f, -0.016662f, -0.002216f, -0.008344f, -0.006666f, -0.006082f, -0.006260f, -0.019479f, 0.005617f, 0.012434f, 0.010411f, -0.002539f, -0.007871f, -0.008599f, 0.011752f, 0.021722f, -0.009860f, -0.007186f, 
-0.023484f, -0.030813f, -0.004784f, -0.011722f, -0.004023f, -0.017302f, 0.015068f, -0.006063f, 0.004411f, 0.017302f, 0.004662f, -0.006756f, -0.001448f, 0.005317f, -0.005555f, -0.006174f, -0.006738f, 0.003528f, -0.018526f, -0.004914f, 
-0.005629f, -0.005381f, -0.015176f, -0.000410f, -0.013620f, 0.017406f, -0.016509f, -0.021526f, -0.017292f, 0.003717f, -0.000254f, 0.010637f, -0.006371f, -0.015729f, 0.012290f, -0.009304f, 0.006220f, 0.022787f, 0.018746f, 0.004092f, 
-0.016753f, 0.011177f, 0.009254f, 0.009759f, 0.005115f, 0.000305f, -0.020826f, -0.008147f, -0.006702f, 0.006468f, -0.009518f, 0.008269f, 0.018405f, -0.009541f, 0.007962f, -0.007805f, -0.002107f, 0.003150f, -0.004196f, -0.016096f, 
-0.013035f, 0.008549f, -0.012470f, 0.000384f, 0.005325f, 0.012412f, 0.015264f, 0.009129f, 0.004748f, -0.012266f, 0.020646f, -0.004259f, 0.016409f, 0.002933f, 0.001295f, -0.005517f, -0.005351f, -0.009005f, -0.010592f, 0.004684f, 
-0.009400f, -0.014073f, 0.010393f, -0.002058f, -0.003399f, 0.003807f, -0.029119f, -0.002427f, -0.005500f, -0.023436f, -0.013315f, -0.001435f, -0.018706f, -0.018924f, 0.000515f, 0.016307f, -0.008419f, -0.005767f, 0.003994f, 0.011983f, 
0.005307f, 0.013966f, -0.006729f, -0.014283f, 0.001347f, -0.003201f, 0.017739f, -0.001785f, 0.005767f, -0.025513f, -0.008952f, 0.016742f, -0.014533f, 0.000701f, 0.003807f, -0.016553f, -0.009897f, -0.019934f, 0.007861f, -0.003927f, 
0.006050f, -0.007090f, 0.004234f, -0.003756f, 0.018356f, -0.021116f, 0.009419f, 0.012229f, -0.003033f, 0.000158f, -0.016731f, -0.001647f, 0.007999f, -0.003220f, -0.012540f, 0.013135f, -0.006528f, 0.012090f, -0.000929f, -0.004418f, 
-0.000472f, 0.008106f, 0.004769f, -0.013320f, -0.023035f, -0.002809f, 0.005715f, -0.001157f, 0.014968f, -0.025897f, -0.015245f, -0.007515f, 0.002394f, -0.010775f, -0.016033f, -0.009205f, 0.019140f, -0.000214f, 0.006154f, 0.014240f, 
-0.023209f, -0.013870f, 0.004904f, -0.000353f, -0.007613f, -0.013924f, 0.010526f, 0.005026f, -0.025308f, -0.000350f, -0.013240f, -0.000452f, -0.005521f, -0.020784f, -0.012152f, -0.012460f, -0.003808f, -0.003184f, -0.008619f, 0.000059f, 
-0.005516f, 0.008515f, -0.012179f, 0.011833f, -0.025773f, -0.008963f, -0.013245f, 0.018023f, -0.000286f, 0.008585f, -0.000903f, 0.006461f, -0.002954f, -0.015446f, -0.018367f, -0.006713f, -0.011189f, -0.009806f, 0.002379f, -0.000004f, 
-0.033107f, 0.015156f, -0.008806f, -0.026041f, 0.000337f, 0.009144f, -0.007420f, -0.006077f, -0.008328f, 0.014291f, 0.002605f, -0.009354f, 0.006120f, -0.003693f, -0.000551f, 0.016266f, -0.000375f, -0.007812f, 0.018330f, 0.007382f, 
-0.013036f, -0.012360f, -0.001282f, -0.009289f, 0.000525f, -0.010461f, 0.008132f, -0.015245f, 0.004757f, -0.022711f, 0.010021f, -0.017007f, 0.004197f, -0.003375f, -0.012473f, -0.018206f, -0.001099f, -0.005243f, 0.008502f, -0.013694f, 
-0.014737f, -0.017380f, -0.010034f, 0.017079f, -0.019119f, -0.001510f, 0.008133f, 0.005326f, 0.018157f, 0.007976f, -0.012715f, 0.011936f, -0.003304f, -0.025625f, 0.002972f, -0.017832f, 0.011027f, -0.004330f, -0.013584f, -0.016505f, 
-0.017365f, -0.010912f, -0.000976f, -0.016571f, -0.021612f, -0.013302f, 0.013352f, -0.010277f, -0.004978f, -0.002406f, -0.019376f, -0.013496f, -0.010410f, -0.016454f, -0.009428f, -0.001408f, 0.022831f, 0.006630f, -0.009086f, -0.011533f, 
0.004255f, -0.001939f, -0.002427f, -0.004296f, 0.001507f, -0.003775f, -0.011394f, 0.007693f, -0.004004f, -0.013341f, 0.007063f, -0.004149f, 0.001364f, 0.007921f, -0.019389f, -0.009943f, 0.004664f, 0.009234f, -0.016433f, -0.021836f, 
-0.005235f, 0.007140f, -0.007804f, -0.010076f, 0.000767f, -0.006561f, 0.002525f, 0.004884f, 0.007834f, -0.006454f, 0.002083f, -0.024608f, -0.014254f, 0.013604f, 0.011440f, 0.007532f, 0.005670f, -0.009331f, -0.001750f, 0.000990f, 
0.004356f, -0.004677f, -0.007688f, -0.012484f, -0.003017f, -0.006231f, -0.005296f, -0.014134f, 0.004302f, 0.010407f, 0.012661f, -0.019742f, 0.017873f, 0.008263f, -0.008041f, 0.004890f, 0.011115f, -0.023379f, -0.021586f, 0.001753f, 
-0.012127f, -0.015762f, -0.014484f, -0.005399f, -0.026687f, 0.015107f, -0.020649f, 0.005531f, -0.011660f, -0.019498f, 0.004464f, 0.000901f, -0.018735f, -0.021401f, 0.003131f, 0.003122f, 0.011638f, -0.011957f, 0.009084f, -0.005719f, 
0.018034f, -0.015661f, -0.003811f, -0.008399f, -0.013213f, 0.011196f, 0.003309f, -0.006952f, -0.029336f, -0.008418f, 0.007297f, 0.002790f, 0.000507f, -0.020014f, -0.018973f, -0.014144f, -0.004631f, 0.008013f, 0.006615f, 0.011405f, 
0.006554f, -0.017893f, -0.009556f, 0.008983f, -0.004293f, -0.021508f, -0.001692f, -0.018764f, -0.001460f, 0.000212f, 0.006989f, -0.010687f, -0.019281f, -0.008960f, -0.017665f, 0.000700f, -0.012918f, 0.005483f, -0.017129f, -0.016294f, 
-0.013778f, 0.005004f, -0.005146f, -0.018850f, -0.012019f, 0.006560f, 0.002679f, -0.013076f, -0.009611f, -0.024042f, 0.016970f, 0.007430f, 0.000194f, -0.005339f, -0.001982f, -0.002918f, 0.007468f, -0.023082f, -0.002538f, 0.007827f, 
-0.021033f, -0.001083f, 0.008047f, 0.000880f, -0.027777f, -0.008611f, -0.019248f, -0.012992f, 0.010782f, -0.029619f, -0.023207f, -0.004262f, -0.021231f, -0.006333f, -0.010299f, 0.012328f, 0.004668f, 0.000642f, -0.005661f, 0.004894f, 
0.006965f, 0.007154f, 0.004818f, -0.016913f, 0.001781f, -0.014924f, -0.006124f, -0.010044f, -0.021043f, 0.003672f, -0.000449f, 0.005888f, -0.016819f, -0.010182f, 0.002532f, -0.004212f, -0.021495f, -0.008359f, -0.005745f, -0.022431f, 
-0.002692f, -0.015276f, -0.018070f, -0.010514f, 0.001333f, 0.016894f, 0.008409f, -0.007612f, -0.013598f, -0.016123f, 0.015877f, -0.012687f, -0.020175f, -0.010423f, -0.009764f, -0.018816f, -0.013145f, -0.011854f, -0.019182f, 0.007870f, 
-0.023262f, -0.022072f, 0.014471f, -0.002609f, -0.002745f, -0.022052f, -0.014919f, 0.007530f, 0.010167f, -0.014817f, 0.001837f, -0.005541f, -0.012984f, -0.018528f, 0.003649f, -0.011481f, -0.006200f, -0.026728f, -0.002855f, -0.002997f, 
0.012060f, -0.011167f, 0.008919f, -0.003068f, 0.002202f, 0.013221f, -0.014035f, -0.013965f, -0.004842f, 0.008519f, -0.017748f, -0.006707f, -0.023503f, -0.030038f, -0.014156f, 0.000479f, -0.005690f, 0.012389f, -0.011633f, -0.022378f, 
-0.001145f, 0.001318f, -0.001083f, -0.009827f, -0.013709f, -0.009692f, 0.015700f, -0.003152f, -0.000637f, 0.014783f, -0.012915f, 0.017439f, 0.008554f, 0.014017f, 0.009805f, -0.002273f, 0.009230f, -0.006712f, -0.019485f, 0.010840f, 
-0.023472f, -0.013787f, -0.016860f, -0.011775f, -0.011000f, 0.009565f, 0.000634f, -0.000452f, 0.010029f, 0.004287f, 0.000803f, 0.006641f, 0.000962f, 0.006409f, -0.015904f, 0.012394f, -0.007583f, 0.010997f, -0.003545f, -0.016498f, 
-0.004964f, -0.021696f, -0.001458f, -0.003304f, 0.004911f, 0.002393f, -0.006378f, -0.012040f, -0.011587f, -0.006543f, 0.002015f, -0.015008f, 0.009588f, 0.006102f, -0.021220f, -0.017089f, 0.003589f, -0.009793f, 0.009891f, -0.023007f, 
-0.009973f, -0.011758f, 0.019805f, 0.008443f, 0.003321f, 0.001604f, 0.000070f, 0.016872f, 0.007543f, -0.009441f, -0.010435f, -0.008567f, -0.013505f, 0.007571f, -0.004524f, -0.018414f, -0.018812f, -0.027216f, 0.004255f, 0.004146f, 
-0.003843f, -0.013510f, 0.007577f, -0.016538f, -0.004244f, -0.010544f, -0.010046f, -0.019927f, -0.014050f, 0.020921f, 0.022406f, 0.011560f, 0.023483f, 0.002336f, 0.000399f, -0.015792f, 0.019955f, -0.001702f, -0.002324f, -0.005937f, 
-0.006090f, -0.003592f, -0.004933f, 0.008657f, -0.013634f, -0.003006f, -0.020168f, -0.020710f, 0.010977f, -0.013196f, 0.000516f, -0.008905f, 0.009185f, 0.012679f, 0.005532f, -0.014700f, 0.008592f, 0.012377f, 0.020010f, -0.000458f, 
-0.017861f, 0.007569f, 0.009581f, 0.009238f, 0.008855f, -0.003428f, -0.013067f, 0.005513f, 0.000118f, 0.006397f, -0.010185f, -0.001655f, -0.012878f, -0.016580f, -0.007654f, 0.006072f, -0.010179f, 0.002517f, -0.005275f, 0.016940f, 
0.021879f, 0.006420f, 0.004554f, 0.010512f, -0.001658f, -0.017828f, 0.004989f, 0.003596f, -0.008754f, -0.001285f, -0.015714f, 0.010901f, -0.000038f, -0.008604f, 0.006422f, 0.010974f, -0.018169f, 0.016669f, 0.016361f, 0.004382f, 
-0.018893f, 0.010250f, 0.002059f, -0.003044f, -0.013141f, -0.019753f, 0.003789f, 0.024227f, 0.006441f, 0.002623f, 0.021587f, 0.000838f, 0.011712f, -0.014377f, -0.006710f, -0.001387f, -0.005367f, 0.012130f, 0.019261f, 0.002496f, 
0.011203f, 0.005501f, -0.006429f, -0.006065f, -0.005638f, -0.016724f, 0.001928f, 0.002606f, 0.013321f, -0.010228f, -0.019121f, -0.008739f, -0.022745f, -0.023938f, -0.000265f, -0.008453f, 0.015922f, 0.024724f, 0.021135f, -0.003540f, 
-0.010597f, -0.006093f, 0.008145f, -0.014253f, 0.009581f, -0.001685f, -0.013547f, -0.013520f, -0.013163f, 0.006281f, -0.011863f, -0.000225f, -0.000707f, 0.003165f, -0.011468f, 0.009469f, -0.003321f, -0.007329f, 0.009365f, 0.004203f, 
-0.014223f, -0.001437f, 0.001574f, 0.001796f, 0.013869f, 0.009563f, 0.019525f, 0.014560f, 0.024060f, 0.014359f, 0.015075f, -0.005995f, 0.001649f, -0.001756f, 0.017509f, 0.011771f, 0.007907f, -0.000490f, 0.001521f, -0.011255f, 
-0.017524f, -0.002210f, 0.010209f, 0.000082f, 0.009138f, 0.019197f, 0.004460f, 0.003337f, -0.013580f, -0.000377f, -0.018749f, -0.014734f, -0.006822f, -0.003174f, 0.004207f, -0.009862f, 0.003229f, 0.005056f, 0.024771f, 0.009537f, 
0.004552f, 0.000640f, 0.004397f, -0.012171f, -0.005924f, -0.015725f, 0.003409f, -0.009408f, 0.001660f, 0.000706f, -0.002630f, 0.010276f, -0.004039f, -0.004826f, 0.006199f, 0.011686f, 0.012189f, -0.003290f, -0.008459f, -0.024104f, 
-0.011743f, -0.011206f, -0.007999f, 0.000224f, 0.002463f, -0.006146f, 0.023195f, -0.019116f, 0.025084f, 0.009204f, 0.026382f, 0.007300f, 0.004275f, 0.011260f, -0.005198f, 0.014135f, 0.014373f, -0.001365f, -0.004368f, -0.016283f, 
-0.005288f, 0.008096f, 0.016818f, -0.015960f, 0.005476f, 0.007020f, 0.013916f, 0.010811f, -0.004896f, 0.014162f, 0.013736f, 0.023795f, 0.018309f, 0.014292f, -0.010965f, -0.000207f, -0.009762f, 0.013523f, 0.010001f, -0.008115f, 
0.015678f, 0.000914f, 0.000358f, -0.016352f, 0.010042f, -0.012061f, 0.015641f, 0.007035f, 0.012480f, 0.010876f, -0.002432f, -0.012015f, 0.001006f, 0.007507f, -0.002110f, -0.001089f, -0.002571f, 0.016619f, 0.011739f, 0.008082f, 
-0.009752f, -0.012766f, -0.017545f, 0.006213f, 0.000228f, 0.019164f, 0.024816f, 0.027653f, -0.008308f, 0.015970f, 0.014007f, -0.000449f, 0.002154f, 0.010439f, -0.004267f, -0.010274f, -0.002368f, 0.005546f, -0.004006f, -0.017054f, 
-0.017255f, -0.009775f, 0.019104f, 0.007916f, -0.014562f, -0.001029f, -0.018562f, 0.010277f, -0.006689f, -0.000958f, -0.003050f, -0.025926f, -0.022841f, -0.011143f, -0.018770f, 0.016135f, 0.005690f, 0.005210f, -0.015226f, -0.010792f, 
0.009451f, 0.011571f, -0.002399f, 0.001719f, 0.002137f, 0.010799f, -0.004572f, 0.009768f, -0.022406f, 0.010870f, -0.009187f, 0.020856f, -0.012492f, 0.004662f, -0.018815f, -0.002797f, -0.012228f, -0.000425f, -0.016452f, 0.008147f, 
-0.001260f, 0.016176f, -0.010346f, -0.012843f, -0.011968f, -0.008528f, -0.015127f, -0.003862f, -0.003795f, 0.006387f, 0.008331f, -0.006901f, -0.004247f, -0.010853f, 0.013413f, -0.013558f, -0.009218f, 0.006992f, -0.000590f, -0.010381f, 
0.002052f, -0.013853f, 0.020504f, 0.006524f, -0.004645f, -0.010829f, 0.008054f, 0.016583f, 0.019985f, 0.011219f, -0.011219f, -0.022018f, 0.009314f, 0.001101f, 0.023783f, 0.007083f, -0.005894f, 0.001046f, -0.017370f, -0.012854f, 
-0.010942f, 0.020087f, 0.003951f, 0.002971f, 0.000266f, 0.018567f, 0.018083f, -0.009810f, 0.012190f, -0.010790f, 0.007764f, 0.013390f, 0.005216f, -0.012674f, 0.003630f, 0.012363f, -0.013333f, 0.012192f, 0.018371f, 0.017411f, 
0.000541f, 0.005975f, 0.007532f, 0.022000f, -0.001718f, 0.008481f, 0.012261f, 0.000561f, 0.024999f, 0.009074f, 0.015117f, 0.002200f, 0.011900f, 0.013611f, 0.013697f, -0.005477f, 0.001436f, 0.017001f, -0.004923f, 0.009170f, 
-0.012315f, -0.014427f, -0.001037f, 0.002182f, 0.007606f, 0.012206f, -0.011403f, -0.005203f, 0.018639f, 0.004424f, 0.007152f, -0.007987f, 0.001820f, -0.007081f, -0.004384f, 0.014693f, -0.007818f, 0.014240f, -0.010040f, -0.003104f, 
-0.002312f, -0.007290f, -0.007747f, -0.009391f, -0.017502f, 0.006337f, 0.019884f, -0.007795f, -0.007505f, 0.015061f, -0.006979f, 0.005957f, 0.012849f, -0.007533f, 0.003941f, -0.010917f, 0.009368f, -0.019234f, 0.003079f, 0.011360f, 
0.011831f, -0.018751f, -0.000588f, -0.020674f, 0.009516f, 0.002622f, -0.005263f, -0.000924f, 0.012706f, 0.004372f, -0.010192f, 0.025986f, -0.003487f, 0.002131f, 0.010267f, -0.002167f, -0.011061f, -0.007395f, 0.006275f, 0.012491f, 
-0.000816f, 0.010814f, 0.000998f, 0.003746f, 0.004142f, -0.005162f, -0.002783f, 0.013690f, 0.000363f, 0.017558f, -0.024173f, 0.002781f, -0.005242f, 0.013667f, -0.008139f, 0.000425f, 0.004566f, 0.005572f, -0.002130f, 0.010996f, 
0.022642f, 0.014250f, -0.014260f, 0.004294f, 0.003745f, 0.009776f, 0.010716f, 0.012865f, 0.007683f, 0.008615f, 0.005754f, 0.016904f, 0.003480f, -0.000050f, 0.015748f, -0.008201f, -0.009086f, 0.004841f, -0.020151f, 0.013883f, 
0.021260f, -0.000894f, -0.010640f, 0.012974f, -0.000669f, 0.013645f, -0.000000f, 0.013068f, -0.013129f, 0.002894f, 0.001836f, 0.004996f, 0.020805f, -0.003108f, -0.005804f, -0.016129f, 0.006399f, -0.015230f, 0.000944f, 0.017318f, 
-0.018393f, -0.006365f, 0.006021f, 0.000201f, 0.008937f, 0.002272f, 0.009804f, 0.014949f, 0.011430f, 0.004105f, -0.002228f, -0.010604f, -0.005959f, 0.002184f, 0.004130f, -0.000855f, -0.015444f, -0.002912f, 0.007499f, -0.013191f, 
0.000345f, 0.008631f, 0.003699f, 0.014777f, -0.022122f, 0.006910f, 0.009937f, -0.002824f, -0.003884f, 0.006977f, 0.011978f, -0.005978f, 0.012000f, -0.014087f, 0.004295f, -0.001711f, 0.001120f, 0.000209f, 0.003536f, -0.007873f, 
0.014171f, 0.010024f, 0.008939f, 0.009912f, -0.020399f, -0.007407f, 0.007024f, 0.001041f, 0.000486f, 0.005557f, 0.004522f, 0.010324f, 0.014948f, -0.005806f, -0.005566f, 0.001176f, -0.003126f, 0.001936f, 0.009790f, -0.000300f, 
-0.024266f, 0.012581f, 0.010603f, 0.017464f, 0.015795f, 0.009669f, -0.010864f, -0.002947f, 0.014668f, -0.009369f, -0.003786f, 0.001808f, -0.015230f, -0.004783f, 0.006797f, 0.011346f, 0.012422f, -0.001850f, 0.003680f, 0.005834f, 
-0.013415f, 0.010519f, -0.016326f, -0.008540f, -0.003406f, -0.008626f, 0.012419f, 0.022580f, -0.021008f, -0.007686f, 0.022569f, -0.013762f, 0.013207f, -0.001177f, -0.001148f, -0.008298f, -0.006608f, 0.004800f, -0.002332f, -0.001877f, 
-0.027530f, -0.020548f, -0.011345f, -0.008875f, -0.002207f, 0.009671f, 0.008738f, 0.002611f, -0.009706f, 0.009460f, -0.011713f, -0.002513f, 0.005386f, 0.009327f, -0.009901f, -0.006747f, -0.025615f, 0.005270f, 0.004206f, -0.007441f, 
0.000708f, -0.006698f, 0.007446f, -0.015413f, -0.016194f, -0.019907f, -0.020299f, -0.011616f, 0.004288f, -0.022456f, 0.003612f, -0.000780f, 0.003913f, 0.016096f, 0.000175f, -0.015296f, -0.005061f, -0.024169f, -0.002209f, 0.002327f, 
0.003943f, 0.007495f, -0.018447f, -0.013842f, -0.005455f, -0.017218f, -0.006963f, 0.014360f, -0.005275f, -0.009980f, -0.015515f, 0.009012f, -0.015234f, -0.008193f, 0.012418f, 0.000606f, -0.005172f, 0.000346f, -0.016458f, 0.019104f, 
-0.006077f, 0.012388f, 0.005506f, -0.012766f, -0.005984f, 0.009782f, 0.016868f, 0.011894f, -0.012541f, -0.005154f, 0.019283f, -0.011383f, -0.013805f, -0.009227f, -0.012348f, -0.010678f, 0.007723f, -0.014711f, 0.008896f, 0.000765f, 
-0.003667f, -0.007756f, -0.002879f, 0.011033f, 0.002861f, -0.015526f, 0.010592f, 0.020543f, -0.010965f, -0.003896f, 0.022798f, 0.005112f, -0.016507f, 0.006492f, -0.019501f, -0.010078f, -0.014129f, 0.004316f, 0.001797f, 0.006636f, 
0.012660f, 0.021697f, -0.019657f, 0.003832f, 0.008377f, -0.027033f, 0.000571f, 0.008795f, 0.000207f, 0.009898f, 0.001717f, -0.001451f, -0.016222f, 0.014045f, 0.014416f, -0.000065f, 0.008389f, -0.004849f, -0.005975f, 0.004338f, 
0.011738f, 0.004952f, -0.008190f, 0.007786f, 0.001475f, -0.011890f, 0.018790f, 0.003457f, 0.008988f, -0.008412f, -0.004469f, -0.000030f, 0.014876f, -0.011786f, -0.003595f, 0.021016f, 0.001317f, -0.002648f, 0.004051f, -0.011536f, 
-0.005891f, 0.004626f, -0.005099f, -0.008885f, 0.008232f, 0.013031f, -0.001039f, -0.004353f, -0.004362f, -0.000105f, 0.003198f, -0.003001f, -0.020500f, -0.013650f, -0.005874f, -0.003238f, 0.005459f, 0.008035f, 0.012689f, -0.016888f, 
0.012079f, -0.007769f, 0.008266f, -0.015003f, 0.003719f, 0.004227f, 0.012029f, 0.000723f, 0.001814f, 0.011586f, 0.006985f, 0.010577f, 0.003712f, 0.000765f, -0.011564f, 0.010954f, -0.006690f, -0.010185f, 0.016384f, -0.000815f, 
-0.004712f, 0.004217f, -0.005878f, 0.021227f, 0.008494f, 0.002534f, 0.021824f, -0.014670f, 0.002798f, -0.012430f, 0.015507f, 0.005540f, 0.004335f, 0.018751f, 0.010291f, 0.023049f, 0.004856f, 0.014299f, 0.004144f, 0.020320f, 
0.003255f, 0.013862f, -0.006893f, -0.004140f, 0.007092f, 0.003976f, 0.008086f, -0.001965f, 0.009842f, -0.025439f, -0.006020f, 0.003908f, -0.007940f, -0.001797f, -0.001266f, -0.011471f, 0.016837f, 0.005699f, -0.001101f, -0.010472f, 
0.003464f, 0.007980f, 0.017481f, 0.020760f, 0.023541f, 0.013674f, -0.001119f, -0.013265f, 0.002026f, -0.008817f, 0.017634f, 0.014319f, -0.006348f, -0.016297f, 0.008331f, -0.004242f, 0.013038f, -0.002510f, -0.015215f, -0.006160f, 
-0.007159f, -0.002685f, 0.006130f, 0.022532f, -0.009248f, 0.015301f, 0.010823f, -0.015766f, -0.014709f, 0.018506f, 0.007244f, -0.002517f, 0.015891f, 0.011501f, -0.008089f, 0.007068f, -0.012436f, -0.007386f, -0.010083f, -0.012877f, 
0.016925f, 0.006839f, -0.011252f, 0.014319f, -0.005029f, 0.006693f, -0.008161f, -0.005154f, 0.009517f, -0.000100f, 0.018406f, 0.007936f, -0.014184f, 0.015040f, 0.016176f, 0.007998f, 0.014134f, 0.011679f, -0.000006f, 0.003641f, 
-0.016373f, -0.011341f, 0.003418f, -0.005359f, 0.010524f, 0.005221f, -0.004571f, -0.010928f, 0.001796f, 0.009825f, -0.002959f, -0.017117f, -0.016977f, 0.012138f, -0.004365f, 0.007529f, 0.008341f, 0.003202f, 0.008248f, 0.009496f, 
-0.006019f, 0.018432f, 0.015044f, -0.005619f, -0.013397f, -0.004616f, 0.020976f, -0.020996f, -0.010454f, -0.012075f, 0.013017f, -0.001499f, 0.001866f, 0.000440f, -0.000976f, -0.006519f, -0.003961f, -0.014817f, -0.016800f, 0.000424f, 
-0.016885f, 0.017840f, 0.015725f, 0.015086f, -0.010363f, 0.007971f, -0.001955f, 0.019664f, 0.017742f, 0.019367f, 0.010348f, -0.008913f, 0.015389f, -0.006143f, -0.010077f, -0.001133f, -0.002749f, -0.009794f, 0.021164f, -0.000867f, 
-0.007804f, 0.018347f, -0.005161f, 0.005637f, 0.012189f, 0.015569f, 0.006328f, -0.004201f, -0.004744f, 0.008377f, 0.004820f, -0.015637f, -0.014451f, 0.015255f, 0.003407f, 0.024101f, -0.001931f, 0.002016f, 0.016468f, 0.013959f, 
-0.002722f, -0.013144f, 0.007808f, 0.012001f, -0.015667f, -0.003110f, -0.001015f, 0.001369f, -0.004152f, 0.009402f, -0.009334f, -0.005215f, 0.011244f, -0.002487f, 0.021082f, 0.007911f, 0.011940f, -0.002941f, 0.007782f, -0.001410f, 
-0.006247f, -0.006250f, -0.000411f, -0.002611f, -0.015576f, 0.001633f, 0.004292f, 0.012004f, 0.012694f, 0.021668f, -0.008328f, 0.014535f, 0.001194f, 0.001548f, -0.010766f, -0.001046f, -0.008511f, -0.007088f, -0.008938f, -0.003041f, 
-0.002798f, 0.007011f, 0.005076f, 0.011035f, 0.009760f, -0.017491f, -0.010361f, 0.000486f, 0.021392f, 0.012809f, 0.014422f, 0.009500f, -0.002834f, -0.003522f, 0.011351f, 0.013266f, 0.008626f, -0.010743f, 0.020158f, 0.015161f, 
0.014168f, -0.012782f, -0.000442f, -0.006833f, -0.007566f, -0.005140f, 0.011299f, -0.012404f, 0.010986f, -0.004543f, 0.009857f, 0.006689f, -0.012395f, 0.015665f, 0.004889f, 0.012934f, -0.013306f, -0.005033f, 0.006295f, 0.011340f, 
0.018856f, 0.010355f, -0.005471f, 0.004994f, -0.003790f, 0.008227f, -0.004312f, -0.001754f, 0.003524f, -0.007962f, -0.007666f, 0.018427f, 0.010761f, 0.015322f, -0.010648f, -0.003962f, 0.003828f, -0.018225f, 0.005267f, -0.001463f, 
-0.000233f, -0.013812f, -0.009413f, -0.005900f, 0.001757f, -0.004535f, -0.009605f, 0.008598f, -0.013750f, -0.013488f, 0.001193f, 0.005070f, 0.013390f, 0.014207f, 0.016846f, 0.001566f, -0.013398f, -0.016474f, 0.007965f, 0.004743f, 
-0.006310f, -0.004511f, -0.000506f, -0.006060f, -0.015734f, 0.012045f, -0.008410f, 0.008822f, -0.011528f, 0.013251f, 0.006613f, -0.011728f, -0.015339f, 0.001346f, 0.013606f, -0.004643f, -0.002437f, 0.008878f, 0.013770f, -0.013114f, 
-0.015103f, 0.008087f, 0.016539f, -0.001519f, 0.010514f, -0.008067f, 0.006472f, -0.004332f, 0.012551f, -0.005601f, -0.012914f, 0.000340f, -0.001689f, -0.014680f, -0.005492f, -0.000385f, -0.003629f, -0.011894f, 0.011065f, -0.001846f, 
-0.007301f, -0.002767f, -0.006318f, 0.007592f, 0.008246f, -0.005745f, 0.009340f, -0.006567f, 0.001815f, 0.016105f, -0.005851f, -0.004540f, 0.003946f, 0.004074f, -0.010426f, 0.010851f, -0.012688f, -0.018344f, -0.003965f, 0.015172f, 
-0.013714f, -0.013083f, -0.018756f, 0.010065f, -0.012300f, -0.007273f, -0.011636f, 0.010791f, -0.011824f, -0.013274f, 0.012691f, -0.000610f, 0.009341f, 0.011940f, 0.011560f, 0.019868f, -0.002501f, -0.013923f, 0.001762f, 0.010293f, 
-0.013965f, -0.009488f, 0.015773f, -0.011516f, -0.009475f, -0.002952f, 0.001587f, -0.007186f, 0.009600f, 0.012838f, -0.010070f, 0.010684f, -0.015781f, 0.007321f, 0.006181f, -0.008793f, 0.006479f, -0.010845f, -0.017236f, 0.002085f, 
-0.006147f, -0.007455f, -0.010336f, -0.005090f, -0.005583f, 0.009843f, 0.001601f, 0.015002f, -0.006292f, 0.007291f, 0.003349f, -0.006623f, 0.009811f, 0.002594f, -0.009657f, 0.007661f, 0.001516f, 0.010696f, 0.014036f, -0.015511f, 
0.005042f, -0.010241f, 0.010743f, 0.002645f, -0.013293f, 0.014648f, -0.005772f, 0.006009f, -0.003856f, -0.003344f, -0.002366f, -0.004874f, 0.006457f, -0.009303f, -0.009244f, 0.018028f, -0.012974f, 0.013228f, 0.014514f, 0.010323f, 
-0.012341f, 0.003691f, -0.012159f, 0.010175f, -0.003681f, 0.012098f, -0.002045f, -0.011323f, 0.013608f, 0.012151f, 0.000950f, 0.002755f, -0.002702f, -0.014976f, 0.013469f, -0.011620f, 0.010564f, 0.011902f, 0.006598f, 0.009692f, 
-0.012701f, 0.014284f, -0.003133f, 0.007996f, -0.013143f, 0.018072f, -0.009427f, 0.004589f, 0.010177f, -0.010914f, -0.008973f, -0.010007f, 0.008297f, -0.010595f, 0.010204f, -0.014758f, -0.001268f, 0.007639f, -0.014488f, -0.002746f, 
-0.000078f, 0.000444f, 0.013701f, 0.000958f, -0.000859f, 0.001552f, -0.017677f, 0.007956f, -0.007831f, 0.009927f, 0.013441f, 0.014788f, 0.004553f, 0.005031f, -0.014409f, -0.008638f, 0.006454f, -0.013359f, 0.011262f, -0.005193f, 
-0.014680f, -0.011956f, 0.015413f, 0.007049f, 0.014112f, 0.001841f, -0.010513f, -0.018185f, -0.004656f, 0.003995f, -0.014674f, -0.003438f, -0.011244f, -0.013346f, -0.004775f, 0.013801f, 0.005489f, 0.007505f, -0.014034f, -0.008464f, 
0.016215f, 0.018492f, -0.000710f, 0.013077f, -0.003287f, -0.017805f, -0.015168f, 0.013627f, -0.010440f, -0.008421f, 0.014502f, 0.011676f, -0.014311f, 0.003856f, -0.011434f, -0.007082f, 0.004892f, -0.006828f, 0.007390f, 0.008019f, 
0.003968f, 0.011695f, 0.004557f, -0.005721f, -0.007636f, -0.000952f, -0.012145f, -0.011429f, -0.014735f, -0.001163f, -0.003203f, 0.007759f, -0.000387f, 0.015738f, 0.004607f, 0.012910f, -0.007579f, 0.010482f, 0.000688f, -0.001523f, 
-0.010420f, 0.013250f, 0.001393f, -0.015997f, -0.007454f, -0.000694f, -0.012242f, -0.013622f, -0.002784f, 0.010612f, 0.003374f, -0.010865f, 0.004581f, -0.007590f, -0.009200f, -0.016146f, -0.014527f, 0.003664f, -0.004589f, -0.016411f, 
0.010932f, -0.011826f, 0.009301f, 0.012983f, -0.013900f, 0.001003f, -0.013367f, -0.012777f, -0.008888f, -0.006752f, -0.003358f, -0.000494f, -0.009777f, 0.014733f, -0.013787f, -0.011429f, 0.013259f, 0.014021f, 0.010907f, 0.011897f, 
-0.013105f, -0.010166f, 0.001316f, -0.003498f, -0.018611f, 0.006708f, -0.016649f, 0.014403f, 0.005476f, -0.017919f, 0.001199f, -0.004089f, -0.002581f, 0.013532f, 0.003228f, -0.002709f, 0.009595f, -0.009884f, -0.004372f, -0.007978f, 
-0.003155f, -0.003927f, -0.000983f, -0.004608f, -0.006934f, -0.004047f, -0.006306f, 0.000756f, 0.001392f, -0.016355f, -0.002872f, 0.012770f, -0.013808f, 0.008483f, 0.002592f, -0.004415f, -0.010361f, 0.012976f, 0.013244f, 0.012630f, 
0.016268f, -0.005465f, -0.006640f, -0.017142f, -0.017299f, -0.012563f, 0.005462f, -0.009881f, -0.007828f, -0.003965f, -0.017893f, 0.016465f, 0.000970f, -0.016824f, -0.005807f, -0.012997f, -0.000047f, -0.013541f, -0.016393f, -0.000251f, 
0.012161f, 0.006021f, -0.004269f, -0.001482f, 0.005319f, 0.017484f, 0.006969f, -0.015960f, 0.007489f, -0.007815f, -0.014945f, 0.009144f, 0.012385f, 0.006073f, -0.000811f, -0.004904f, -0.013568f, 0.016267f, -0.015706f, 0.010644f, 
0.007216f, -0.001815f, -0.007555f, 0.002383f, -0.017483f, 0.009094f, 0.003941f, -0.009970f, -0.014362f, 0.009091f, -0.001122f, -0.002563f, -0.011257f, -0.001484f, 0.016808f, -0.015918f, 0.000521f, -0.004922f, 0.003744f, -0.000244f, 
0.015221f, -0.008558f, 0.007744f, 0.014699f, -0.015494f, -0.007511f, 0.003877f, 0.003486f, -0.015713f, 0.013025f, 0.002220f, -0.004820f, 0.010192f, 0.016250f, 0.006788f, -0.005257f, 0.015074f, 0.013145f, 0.008535f, 0.016949f, 
0.010504f, 0.003815f, 0.017744f, -0.016708f, -0.008902f, -0.009315f, 0.010741f, 0.014572f, -0.008968f, 0.007683f, -0.002508f, 0.013515f, 0.003182f, 0.017220f, -0.015744f, -0.015108f, -0.006731f, -0.002685f, -0.016616f, -0.000156f, 
0.001008f, 0.015595f, 0.012796f, -0.012501f, 0.009883f, -0.004937f, 0.008013f, 0.004612f, -0.009257f, -0.009800f, 0.004663f, 0.000198f, -0.015642f, 0.003373f, 0.010691f, -0.005483f, 0.007415f, -0.016625f, 0.010156f, -0.007400f, 
0.002233f, 0.008348f, 0.001849f, -0.005357f, -0.011007f, 0.006890f, 0.012742f, -0.011992f, -0.012131f, 0.010295f, -0.004136f, 0.004250f, -0.009354f, -0.002379f, -0.012066f, 0.015226f, -0.009529f, -0.004304f, 0.013703f, 0.013233f, 
0.001446f, 0.000286f, -0.005303f, -0.011237f, -0.003144f, 0.006923f, -0.007049f, -0.011056f, 0.016360f, -0.007759f, -0.016132f, 0.015653f, 0.011557f, -0.008348f, -0.005190f, 0.003796f, 0.010825f, 0.011002f, 0.002392f, -0.006783f, 
-0.014467f, -0.005439f, 0.007644f, 0.014088f, -0.000595f, -0.001963f, 0.008263f, -0.008958f, -0.009171f, 0.017185f, -0.010576f, -0.006947f, -0.000317f, -0.001217f, 0.013990f, 0.002362f, 0.003780f, -0.013308f, -0.013558f, -0.009821f, 
0.005409f, -0.008140f, -0.008876f, -0.009213f, 0.003276f, 0.015225f, 0.009494f, 0.001292f, -0.006874f, 0.009623f, 0.001606f, -0.001938f, -0.003583f, -0.004970f, 0.000706f, 0.005646f, -0.013023f, -0.002933f, -0.010607f, -0.005163f, 
0.005347f, -0.012677f, 0.000174f, -0.005614f, -0.012271f, 0.005711f, 0.010128f, 0.008141f, 0.007466f, -0.014352f, 0.016527f, -0.009109f, 0.015861f, -0.010176f, -0.014398f, 0.009258f, -0.007080f, -0.014669f, 0.005151f, -0.005716f, 
-0.016820f, -0.006801f, -0.002457f, -0.001301f, -0.005600f, -0.001269f, -0.005252f, 0.017993f, -0.006096f, 0.002410f, -0.007759f, -0.003420f, -0.013306f, -0.006370f, -0.012543f, 0.015857f, 0.009853f, 0.009223f, -0.000134f, 0.001309f, 
-0.002695f, 0.004083f, -0.005115f, -0.015514f, -0.013296f, 0.005908f, -0.012110f, 0.005889f, 0.003698f, -0.011218f, -0.007880f, 0.000630f, 0.010868f, 0.003015f, -0.007756f, -0.004920f, 0.003975f, -0.001209f, -0.003161f, -0.006225f, 
-0.006324f, -0.005103f, 0.015077f, 0.012169f, 0.000016f, -0.006911f, -0.012945f, -0.015550f, 0.005813f, -0.006504f, 0.002367f, -0.006240f, 0.002700f, 0.009125f, -0.010312f, 0.011192f, -0.005157f, 0.016129f, 0.014327f, 0.012641f, 
-0.015553f, -0.004089f, -0.015706f, -0.010769f, -0.005269f, 0.013017f, -0.002661f, 0.010738f, 0.009698f, -0.008021f, 0.016099f, 0.014847f, -0.017432f, -0.013271f, -0.015583f, 0.000860f, 0.002150f, 0.017690f, -0.016090f, -0.004687f, 
0.017773f, 0.014808f, -0.013004f, 0.004096f, 0.005505f, -0.000388f, 0.017570f, -0.005507f, -0.009564f, -0.013870f, -0.009506f, -0.017183f, 0.005624f, -0.000625f, -0.005394f, 0.010880f, -0.005538f, 0.008781f, -0.000072f, -0.015726f, 
0.017618f, -0.000446f, -0.014318f, 0.006690f, 0.001068f, -0.017753f, 0.016197f, -0.016823f, -0.011169f, 0.000786f, -0.014985f, 0.014439f, 0.014511f, -0.006533f, -0.010642f, 0.004126f, -0.001871f, 0.014854f, -0.008026f, -0.010808f, 
-0.006974f, 0.003189f, 0.010193f, 0.013321f, 0.000782f, -0.003889f, -0.002968f, -0.000012f, 0.002443f, -0.000389f, 0.008256f, 0.012409f, -0.005747f, -0.012253f, -0.012758f, -0.000562f, 0.009852f, -0.012209f, -0.003237f, 0.001247f, 
0.001884f, -0.014263f, 0.004144f, -0.002187f, 0.000760f, -0.013955f, -0.018676f, 0.013194f, 0.011328f, 0.010834f, -0.011780f, 0.010658f, 0.014375f, -0.016641f, 0.015607f, 0.012116f, 0.011293f, 0.007985f, -0.002968f, -0.010695f, 
0.014648f, -0.010082f, -0.015262f, 0.000523f, 0.002701f, -0.001081f, 0.012663f, -0.001387f, -0.017029f, -0.015455f, 0.009838f, 0.005020f, 0.006052f, -0.006033f, -0.003015f, 0.001444f, 0.000703f, 0.010133f, 0.015299f, -0.007127f, 
0.005836f, -0.013395f, -0.001120f, 0.015224f, -0.016000f, -0.002783f, -0.016011f, 0.004974f, -0.005656f, -0.012449f, -0.013984f, -0.008762f, 0.015265f, 0.004117f, -0.006280f, -0.001110f, 0.000329f, -0.003440f, 0.007674f, -0.014151f, 
0.000336f, -0.006265f, 0.008035f, -0.005156f, -0.010854f, -0.007819f, 0.000779f, 0.014970f, -0.015682f, -0.008584f, 0.005558f, 0.018421f, -0.011100f, 0.002987f, -0.002191f, -0.000108f, -0.006723f, -0.012084f, 0.012718f, 0.005917f, 
0.014210f, 0.001210f, 0.010470f, -0.008679f, 0.009227f, -0.014565f, -0.005116f, -0.000425f, -0.010696f, 0.015133f, 0.013332f, 0.010072f, -0.005894f, -0.005813f, 0.009260f, 0.009236f, 0.006203f, 0.013786f, -0.001035f, -0.011660f, 
-0.002367f, -0.013126f, 0.013250f, -0.011882f, -0.009550f, -0.012737f, -0.012835f, 0.017291f, -0.005605f, 0.016018f, 0.011399f, 0.000342f, -0.012924f, 0.006554f, 0.007153f, 0.006427f, 0.011646f, -0.013276f, 0.005325f, -0.008456f, 
-0.009372f, -0.011562f, 0.006862f, -0.012915f, -0.010293f, -0.012886f, -0.001230f, 0.004484f, 0.000923f, 0.013954f, 0.002378f, -0.000750f, 0.007747f, 0.015549f, 0.013991f, -0.008526f, -0.006003f, -0.011407f, 0.003481f, 0.001440f, 
0.002150f, 0.000617f, 0.004373f, 0.013587f, -0.011176f, 0.005361f, -0.005555f, 0.005987f, -0.006523f, -0.013864f, 0.010531f, 0.009224f, -0.015121f, -0.018204f, 0.011421f, 0.009661f, 0.004093f, -0.013715f, 0.001581f, 0.016445f, 
0.005180f, 0.012950f, -0.012226f, -0.013487f, -0.008869f, 0.009709f, -0.003145f, -0.002689f, 0.008742f, 0.010968f, 0.017628f, 0.003334f, 0.003713f, -0.006261f, 0.014247f, 0.001351f, -0.015182f, 0.004684f, -0.003207f, -0.017271f, 
-0.005774f, -0.012245f, 0.003218f, 0.003045f, 0.001744f, 0.002408f, -0.012395f, -0.004288f, 0.013890f, -0.007248f, 0.013753f, -0.001137f, -0.006858f, -0.016551f, 0.005720f, 0.001802f, 0.016309f, -0.007957f, 0.014609f, -0.013179f, 
0.000965f, 0.009256f, 0.001022f, 0.006894f, -0.017557f, 0.014436f, -0.002742f, -0.003010f, 0.012988f, -0.010771f, -0.001860f, 0.000092f, 0.001800f, 0.003560f, -0.017132f, 0.009704f, -0.006930f, 0.004119f, 0.003049f, 0.017647f, 
-0.016124f, -0.002678f, -0.003702f, -0.000078f, -0.009519f, 0.005393f, 0.011531f, -0.011506f, -0.011310f, -0.007415f, -0.014621f, 0.013567f, -0.004275f, -0.017182f, 0.000667f, -0.000733f, 0.014640f, -0.010496f, -0.010219f, -0.007847f, 
-0.010470f, 0.002723f, 0.012834f, 0.002903f, -0.002597f, -0.004536f, -0.003513f, -0.001706f, 0.012311f, 0.013322f, -0.003951f, 0.004078f, 0.006363f, -0.004515f, 0.011482f, -0.005782f, 0.000069f, 0.007073f, -0.015339f, 0.005333f, 
0.011645f, 0.004466f, 0.001797f, -0.013186f, -0.006011f, -0.002864f, -0.013876f, 0.012591f, 0.013459f, -0.012662f, 0.010448f, -0.014747f, -0.017013f, 0.011208f, 0.005771f, -0.004786f, 0.009566f, -0.004843f, -0.000003f, -0.016865f, 
0.011524f, -0.007026f, -0.013060f, -0.006950f, -0.013787f, -0.008610f, -0.009161f, 0.002984f, 0.014150f, -0.017080f, 0.010660f, -0.016629f, -0.011836f, -0.003326f, -0.001178f, 0.017455f, 0.001228f, 0.000466f, -0.003745f, 0.000052f, 
0.003549f, 0.005321f, -0.013401f, -0.012029f, -0.016587f, 0.001268f, -0.012457f, 0.005887f, -0.002049f, -0.004062f, 0.006249f, -0.011063f, -0.016100f, -0.005856f, -0.005593f, 0.008486f, -0.019610f, -0.005102f, -0.014478f, -0.015854f, 
-0.001043f, 0.016889f, -0.013864f, -0.012891f, 0.003073f, -0.004103f, -0.011061f, -0.002609f, -0.017260f, 0.011914f, -0.012133f, 0.014459f, 0.009498f, -0.015186f, 0.000240f, -0.011083f, 0.008542f, 0.012227f, 0.012397f, 0.005608f, 
-0.005653f, 0.006991f, -0.006923f, -0.010164f, 0.009480f, 0.006025f, -0.013034f, -0.003469f, 0.016507f, 0.011841f, -0.003328f, 0.016593f, 0.008746f, -0.014088f, -0.009599f, -0.001477f, 0.001320f, 0.011556f, -0.015092f, 0.014032f, 
0.009375f, 0.000472f, -0.009441f, 0.003697f, 0.004977f, -0.003378f, 0.004260f, 0.012482f, 0.015411f, 0.010897f, -0.009691f, 0.014175f, -0.004965f, -0.012246f, -0.004164f, 0.004493f, -0.016568f, -0.017283f, 0.005524f, -0.003818f, 
0.014459f, -0.016685f, 0.005187f, -0.005452f, -0.016936f, 0.011037f, -0.014154f, -0.000033f, 0.001952f, -0.009832f, -0.000948f, -0.012119f, 0.012327f, 0.011409f, -0.008180f, 0.003884f, 0.000109f, 0.004075f, 0.000459f, -0.008417f, 
0.009396f, -0.015215f, -0.004831f, 0.000664f, 0.004342f, -0.009679f, -0.008501f, -0.007925f, -0.001510f, 0.001426f, 0.008089f, 0.016747f, -0.007946f, -0.016251f, -0.009930f, -0.001945f, -0.015958f, 0.004015f, -0.014169f, 0.011738f, 
-0.016477f, -0.015469f, -0.014539f, 0.004725f, 0.010532f, -0.015474f, 0.000955f, -0.009609f, 0.007634f, 0.002113f, 0.005424f, -0.015756f, 0.002386f, 0.012707f, 0.005025f, 0.010638f, 0.004780f, 0.005901f, 0.001689f, 0.009424f, 
-0.003190f, -0.006078f, -0.009816f, 0.004897f, 0.011317f, 0.007687f, 0.004668f, 0.013128f, -0.007583f, -0.017144f, 0.001310f, -0.001650f, 0.009341f, 0.014566f, -0.010378f, 0.001156f, 0.005423f, 0.013684f, -0.000423f, -0.004314f, 
-0.016652f, 0.001764f, 0.015735f, -0.000568f, 0.003932f, -0.004559f, -0.012134f, -0.016638f, -0.003500f, -0.016141f, 0.008842f, 0.000270f, 0.008398f, 0.005285f, 0.009098f, 0.007545f, 0.015505f, -0.011649f, -0.003582f, -0.006832f, 
-0.008265f, 0.006005f, 0.008189f, -0.003551f, 0.014533f, -0.007825f, -0.014270f, -0.010573f, 0.015470f, -0.008806f, 0.016327f, -0.002933f, 0.012305f, 0.014203f, -0.017850f, 0.002822f, 0.012557f, 0.010536f, -0.004338f, -0.011489f, 
-0.008307f, -0.012282f, -0.011645f, -0.010096f, 0.011608f, 0.014414f, -0.008162f, -0.010981f, -0.011227f, 0.003752f, -0.007912f, 0.011368f, 0.013094f, 0.002498f, -0.015093f, 0.002840f, -0.010379f, -0.000248f, 0.004406f, -0.008680f, 
0.012786f, 0.009818f, 0.004505f, 0.010305f, -0.003716f, 0.012741f, -0.010950f, 0.007971f, 0.015629f, 0.009559f, 0.006864f, 0.006490f, -0.004617f, 0.000426f, 0.014289f, -0.013376f, -0.011840f, -0.017518f, 0.014972f, -0.004618f, 
0.010603f, -0.006549f, -0.003288f, -0.001601f, 0.008725f, 0.014982f, 0.008520f, -0.002745f, -0.018426f, 0.006113f, 0.004262f, 0.015442f, -0.016661f, -0.011168f, 0.000645f, 0.002685f, -0.000839f, -0.012970f, 0.016666f, 0.014738f, 
-0.000767f, 0.003862f, -0.006985f, -0.001756f, -0.002206f, 0.012831f, -0.011528f, 0.008175f, 0.007333f, -0.003165f, -0.018013f, 0.015732f, 0.003147f, 0.008655f, 0.005596f, 0.004594f, 0.015302f, -0.014580f, -0.011886f, 0.016330f, 
-0.006925f, 0.010251f, -0.002957f, -0.000872f, 0.005948f, 0.003345f, -0.009778f, 0.014217f, 0.008569f, 0.011790f, -0.000490f, -0.004787f, 0.010199f, 0.002559f, -0.018064f, 0.005663f, 0.016207f, 0.008986f, 0.008624f, 0.009496f, 
0.017216f, -0.005304f, -0.000194f, 0.008208f, -0.009627f, -0.012995f, 0.007773f, -0.007853f, -0.012997f, -0.016332f, -0.000636f, -0.012803f, 0.012128f, -0.004872f, 0.007876f, 0.010934f, -0.008320f, -0.006198f, -0.013356f, -0.001264f, 
-0.007954f, -0.003316f, -0.008031f, 0.009994f, 0.004797f, -0.009943f, -0.011660f, 0.013143f, -0.001840f, 0.008929f, 0.011659f, -0.000889f, 0.010807f, -0.011416f, -0.012658f, 0.013804f, 0.009860f, -0.002502f, 0.007400f, 0.012576f, 
0.009561f, 0.001953f, 0.006615f, -0.001194f, -0.001511f, -0.002009f, 0.001938f, -0.005056f, 0.009192f, -0.013128f, 0.003099f, -0.007206f, 0.000107f, -0.017015f, 0.008999f, -0.017827f, -0.000655f, 0.011282f, 0.012426f, 0.011260f, 
-0.000202f, 0.013103f, 0.001415f, 0.006686f, -0.016913f, 0.014771f, 0.012805f, 0.011988f, -0.010686f, 0.007139f, 0.010326f, -0.014087f, 0.008075f, -0.002220f, 0.003486f, -0.006163f, -0.010034f, 0.017805f, 0.004045f, 0.009468f, 
0.010868f, -0.017183f, -0.017226f, 0.004557f, 0.016287f, 0.001784f, 0.001953f, -0.009836f, -0.000952f, -0.008293f, -0.015088f, -0.014890f, 0.012086f, 0.012029f, 0.000658f, 0.015635f, 0.012757f, 0.001361f, 0.004326f, -0.010573f, 
-0.008568f, -0.013244f, 0.015724f, 0.016642f, 0.006707f, -0.000760f, -0.003249f, -0.000933f, -0.008237f, -0.006034f, -0.001639f, -0.016519f, -0.004195f, 0.000340f, -0.009230f, -0.000795f, 0.004879f, 0.009892f, -0.017436f, 0.014742f, 
-0.015324f, 0.003276f, 0.015189f, -0.009452f, 0.016778f, -0.010502f, -0.011874f, -0.007842f, -0.001676f, -0.016449f, 0.002729f, 0.012783f, 0.006692f, 0.002098f, -0.009957f, 0.004685f, -0.011796f, 0.010178f, -0.010109f, 0.000977f, 
0.002125f, -0.004477f, 0.012571f, 0.013922f, -0.014965f, 0.002551f, 0.017887f, 0.010852f, -0.010830f, -0.016726f, -0.011858f, -0.004589f, -0.010004f, -0.015207f, -0.004233f, 0.015113f, -0.011020f, -0.002023f, -0.006657f, -0.001903f, 
0.015830f, 0.013046f, -0.016157f, 0.010702f, -0.000961f, -0.009380f, 0.000285f, 0.013148f, -0.002776f, -0.002817f, 0.004722f, -0.014084f, -0.010615f, -0.004106f, 0.003177f, -0.004505f, 0.016094f, -0.011359f, -0.004541f, -0.008140f, 
-0.014613f, -0.002285f, 0.003582f, -0.011019f, 0.004261f, 0.005201f, -0.012779f, -0.000363f, -0.016608f, -0.017970f, -0.006301f, 0.010378f, 0.000185f, -0.006587f, -0.001744f, -0.002372f, -0.007444f, 0.013609f, -0.011834f, -0.003741f, 
-0.012173f, -0.014004f, -0.012689f, -0.010485f, -0.014133f, -0.010436f, -0.005358f, -0.008067f, 0.015784f, 0.007731f, -0.011377f, 0.013266f, -0.010673f, -0.007902f, 0.013996f, 0.014778f, -0.009417f, 0.012853f, 0.015522f, 0.000475f, 
0.008622f, 0.003916f, 0.014027f, -0.001215f, -0.002641f, 0.013914f, -0.016804f, -0.001893f, -0.003596f, -0.008405f, -0.005664f, -0.012481f, 0.011177f, 0.008218f, -0.016653f, 0.006234f, -0.016135f, 0.000295f, -0.002575f, 0.001386f, 
0.001823f, -0.016756f, -0.017612f, 0.015579f, 0.002025f, 0.012934f, 0.002117f, 0.004602f, 0.011823f, -0.003525f, 0.014925f, -0.010903f, -0.007215f, 0.005109f, 0.006527f, -0.008283f, 0.011083f, -0.012305f, -0.004424f, -0.009569f, 
-0.007427f, 0.010727f, -0.016461f, -0.016593f, -0.003919f, 0.001091f, 0.016141f, -0.016983f, -0.003342f, -0.009986f, -0.004897f, -0.018629f, -0.004576f, 0.009343f, 0.000422f, -0.015541f, -0.009827f, 0.016244f, -0.014609f, -0.013433f, 
-0.005905f, -0.007074f, 0.008095f, 0.006130f, 0.016194f, 0.013956f, -0.005078f, -0.009045f, -0.008859f, 0.008287f, -0.014997f, 0.005390f, -0.008942f, -0.001716f, 0.005664f, 0.003841f, 0.009695f, -0.008814f, -0.010846f, 0.003547f, 
0.012839f, -0.006118f, -0.000184f, -0.016516f, 0.010391f, -0.014080f, -0.000518f, 0.001239f, -0.018391f, 0.000476f, -0.010670f, -0.008325f, -0.004884f, -0.004186f, -0.016854f, 0.012798f, -0.020646f, -0.006983f, 0.004251f, 0.012626f, 
-0.007546f, 0.004049f, -0.013107f, -0.005226f, 0.001451f, -0.006250f, 0.015361f, -0.011648f, 0.003173f, -0.001285f, 0.017278f, -0.003144f, -0.006781f, -0.002318f, 0.003983f, -0.008377f, -0.004468f, 0.009936f, 0.005897f, -0.009672f, 
-0.018204f, -0.000506f, 0.009610f, -0.014648f, -0.006646f, -0.009126f, 0.005749f, 0.012043f, -0.012662f, -0.001603f, 0.010006f, 0.009534f, -0.012186f, -0.011606f, 0.013454f, -0.015589f, -0.015053f, -0.001328f, 0.002270f, 0.013161f, 
-0.014874f, 0.001579f, 0.003074f, -0.013625f, -0.008546f, -0.003356f, -0.016400f, -0.001530f, -0.001055f, 0.009448f, -0.009108f, 0.004528f, 0.004573f, 0.009553f, -0.003627f, 0.010495f, 0.011935f, -0.012063f, -0.011226f, 0.009140f, 
0.006060f, 0.002362f, -0.007918f, 0.012690f, 0.008387f, 0.002577f, -0.002381f, -0.006766f, -0.004323f, -0.009573f, 0.005370f, -0.004313f, -0.001281f, -0.017783f, -0.015898f, 0.013726f, -0.005950f, 0.014072f, -0.016657f, 0.015805f, 
-0.006363f, 0.010133f, -0.001055f, -0.009354f, 0.015071f, 0.015397f, -0.010415f, -0.008920f, 0.003266f, 0.012065f, -0.010254f, 0.011976f, -0.014617f, 0.015931f, 0.006822f, -0.009159f, -0.003848f, 0.008862f, 0.005173f, -0.000453f, 
0.000094f, 0.009101f, -0.006955f, 0.000994f, -0.000075f, 0.005454f, -0.008143f, -0.000898f, 0.005428f, 0.002671f, 0.002804f, -0.009765f, 0.004267f, 0.006445f, -0.015949f, 0.006411f, 0.004254f, -0.004041f, 0.001668f, -0.016199f, 
0.005278f, -0.011231f, 0.001295f, 0.016678f, -0.003429f, -0.015989f, -0.014322f, -0.007275f, 0.015934f, 0.013548f, 0.008318f, 0.010608f, 0.003598f, 0.001862f, -0.015173f, 0.004387f, 0.000939f, 0.016831f, 0.012301f, -0.000771f, 
0.013582f, -0.004933f, -0.001973f, -0.006393f, 0.012556f, 0.006002f, -0.010300f, -0.007872f, 0.002166f, -0.012759f, -0.006746f, 0.015346f, -0.007468f, 0.012114f, -0.011802f, -0.004156f, -0.002828f, -0.015746f, 0.003394f, -0.015787f, 
-0.015093f, -0.013161f, 0.002557f, -0.001702f, 0.006112f, 0.010402f, -0.015307f, 0.015176f, -0.000236f, -0.007542f, 0.009278f, 0.007457f, -0.009110f, 0.003284f, 0.011851f, 0.000959f, 0.013350f, 0.004980f, 0.006648f, 0.007593f, 
-0.011136f, 0.012549f, 0.001787f, 0.012878f, -0.015239f, -0.012035f, 0.015393f, 0.007871f, -0.011292f, -0.015562f, 0.006281f, 0.001054f, 0.010087f, 0.002036f, 0.010201f, 0.002859f, 0.001567f, -0.000095f, -0.004916f, 0.012102f, 
-0.005608f, 0.005463f, 0.005621f, -0.004492f, 0.007094f, -0.009712f, -0.006779f, 0.001437f, -0.000841f, 0.009919f, 0.012176f, 0.004761f, 0.008265f, 0.007743f, -0.000842f, 0.011949f, 0.003514f, -0.019161f, 0.006818f, -0.000838f, 
-0.012310f, -0.006293f, 0.000105f, -0.012271f, 0.013478f, 0.004535f, -0.006548f, -0.003371f, 0.004307f, 0.013705f, 0.005134f, -0.006185f, 0.007363f, -0.016341f, 0.011508f, 0.009147f, -0.004658f, -0.000853f, 0.009088f, -0.009779f, 
-0.001630f, 0.005374f, 0.012396f, 0.006772f, 0.009546f, -0.016847f, 0.012023f, 0.005711f, 0.008364f, -0.007475f, 0.000590f, 0.008251f, 0.015365f, 0.009251f, 0.015248f, 0.004688f, -0.011730f, -0.008073f, -0.008358f, 0.002122f, 
0.011622f, -0.004804f, -0.010544f, -0.006844f, 0.009896f, 0.009816f, -0.005308f, 0.006927f, 0.013276f, -0.010549f, 0.009251f, -0.002413f, -0.006009f, -0.000175f, 0.015618f, -0.010496f, -0.003659f, -0.005886f, -0.009995f, -0.009656f, 
-0.002575f, -0.016061f, -0.004669f, -0.007632f, 0.018061f, 0.004362f, 0.011521f, -0.002067f, -0.015413f, -0.013607f, -0.009919f, 0.007194f, 0.005798f, -0.008096f, -0.006553f, -0.014767f, 0.004954f, 0.012661f, 0.011634f, -0.013151f, 
0.013916f, 0.008886f, 0.003621f, 0.007255f, -0.010416f, -0.005446f, 0.012345f, 0.005733f, -0.003955f, 0.012497f, -0.003654f, -0.007886f, -0.004550f, 0.006155f, -0.015118f, -0.005148f, 0.004516f, 0.010390f, -0.007512f, 0.003940f, 
-0.004752f, -0.013245f, -0.009983f, 0.001821f, -0.012887f, -0.010578f, 0.016631f, 0.018157f, 0.002131f, 0.006637f, 0.012920f, -0.009883f, 0.003151f, -0.006309f, -0.009003f, -0.009740f, -0.019397f, -0.010076f, 0.007217f, -0.015952f, 
-0.013393f, -0.002979f, -0.009082f, -0.012632f, -0.011058f, 0.000692f, -0.012848f, -0.017045f, -0.010139f, -0.003253f, 0.006007f, 0.007192f, -0.000421f, -0.011660f, 0.010332f, -0.004502f, -0.013055f, 0.012746f, -0.009535f, 0.012979f, 
0.016347f, -0.011737f, -0.016147f, 0.004961f, -0.003127f, 0.007165f, -0.008975f, -0.017860f, 0.012891f, 0.005983f, 0.011501f, 0.009214f, 0.002977f, 0.006011f, -0.012171f, -0.012998f, -0.012603f, -0.014547f, -0.001018f, 0.002766f, 
-0.008838f, 0.008221f, -0.011348f, -0.002812f, 0.009625f, -0.005044f, 0.015584f, 0.017560f, 0.006008f, 0.012385f, 0.013500f, 0.004859f, 0.005260f, 0.001275f, 0.012743f, -0.009820f, 0.001245f, -0.002392f, 0.012840f, 0.007327f, 
-0.007840f, 0.010407f, 0.009036f, 0.006998f, 0.014672f, 0.005665f, 0.008591f, -0.001602f, -0.002607f, -0.002844f, -0.010127f, 0.018376f, 0.007750f, -0.012952f, -0.009337f, -0.004038f, -0.001070f, 0.003922f, -0.010952f, 0.009882f, 
0.010595f, -0.001685f, -0.010045f, 0.003313f, -0.006469f, 0.005576f, 0.010587f, -0.014341f, 0.001350f, 0.014517f, 0.002918f, -0.002997f, -0.008850f, -0.004703f, 0.012723f, 0.000185f, -0.013631f, -0.005670f, -0.009768f, 0.000559f, 
0.013532f, -0.008331f, 0.015622f, 0.018584f, 0.002075f, -0.014242f, -0.016342f, 0.014261f, 0.006802f, -0.003354f, 0.010500f, 0.001585f, -0.003430f, -0.003936f, 0.000890f, 0.015380f, -0.014311f, 0.004655f, 0.000330f, 0.001399f, 
0.008530f, 0.005282f, 0.006500f, -0.018871f, -0.006863f, -0.016716f, -0.017411f, -0.008898f, -0.005312f, 0.012004f, 0.004807f, -0.007431f, 0.016999f, 0.012728f, 0.008402f, -0.003507f, 0.013696f, 0.014316f, -0.011860f, -0.014643f, 
-0.006660f, -0.008953f, -0.013457f, 0.005060f, -0.014672f, -0.012453f, -0.008670f, 0.017597f, -0.004879f, -0.003813f, 0.013338f, -0.014782f, 0.010329f, 0.010177f, 0.016235f, -0.012232f, 0.013944f, 0.019261f, 0.009431f, 0.008887f, 
0.016072f, 0.011793f, -0.010576f, 0.006670f, -0.000567f, 0.000988f, -0.003663f, 0.003636f, -0.011242f, -0.010735f, 0.001351f, -0.015827f, -0.010113f, -0.004164f, 0.012264f, 0.003283f, 0.008238f, -0.014317f, -0.014877f, 0.010366f, 
-0.007014f, 0.007571f, -0.004381f, 0.014870f, 0.009272f, -0.009017f, 0.001349f, 0.012859f, -0.013046f, -0.015110f, 0.013083f, -0.007813f, -0.004460f, -0.010163f, 0.009724f, -0.000817f, 0.009151f, 0.013776f, -0.012537f, -0.016828f, 
-0.016285f, -0.005181f, 0.013967f, -0.006806f, 0.009075f, -0.008865f, 0.001695f, -0.009005f, 0.005932f, 0.015157f, 0.008369f, -0.014884f, 0.012225f, -0.013225f, 0.018347f, -0.009809f, -0.005782f, -0.012899f, -0.010076f, 0.002052f, 
-0.017872f, -0.009552f, -0.015785f, 0.013287f, -0.008559f, 0.013532f, -0.014875f, -0.009191f, 0.018681f, -0.016236f, 0.013206f, 0.001436f, -0.000099f, -0.000953f, 0.002134f, 0.000049f, 0.001115f, 0.012490f, 0.013321f, -0.008820f, 
-0.012048f, 0.011028f, 0.008732f, 0.009597f, 0.000601f, 0.005522f, -0.009389f, -0.000206f, 0.014695f, -0.015965f, 0.010509f, 0.014605f, -0.012127f, -0.006805f, -0.006256f, -0.013998f, -0.015193f, 0.002041f, -0.017854f, 0.016736f, 
-0.009282f, -0.010270f, -0.001183f, 0.005284f, 0.005269f, 0.008208f, 0.005995f, 0.015519f, -0.007782f, -0.011910f, 0.009065f, -0.019929f, -0.012478f, -0.006180f, -0.002073f, -0.018698f, -0.001013f, 0.000201f, -0.000032f, 0.005295f, 
-0.016489f, 0.008971f, 0.010526f, -0.008819f, -0.001592f, 0.005688f, -0.005813f, -0.011948f, 0.003013f, 0.001691f, 0.008699f, -0.006060f, 0.001348f, -0.013998f, 0.015388f, 0.001725f, 0.002799f, -0.004273f, 0.000120f, 0.011608f, 
0.017390f, -0.009795f, -0.012461f, -0.002330f, -0.009485f, 0.010026f, 0.004753f, -0.004422f, 0.005695f, 0.016962f, -0.000663f, -0.014163f, -0.005214f, -0.013342f, 0.012572f, 0.003566f, 0.007665f, -0.007184f, 0.016170f, -0.013369f, 
-0.003819f, -0.003429f, -0.012872f, 0.012531f, 0.011330f, 0.004738f, -0.013747f, -0.004509f, -0.014578f, 0.007631f, -0.003025f, -0.013391f, -0.004269f, -0.016201f, -0.000409f, -0.004330f, -0.011844f, 0.002551f, -0.004486f, -0.006405f, 
-0.014619f, -0.002106f, -0.006428f, 0.000011f, -0.004548f, -0.013777f, -0.004295f, -0.011845f, 0.013664f, 0.015748f, -0.001022f, -0.010891f, -0.000362f, 0.015651f, -0.017974f, 0.012089f, 0.016055f, -0.004993f, 0.003611f, -0.015644f, 
-0.003609f, -0.001167f, -0.015571f, -0.014515f, -0.010247f, -0.011158f, -0.008915f, -0.014058f, -0.009765f, 0.001481f, 0.005448f, -0.007460f, -0.000491f, 0.001450f, -0.003844f, -0.010356f, 0.003094f, 0.007811f, 0.014801f, -0.013159f, 
0.005217f, 0.006050f, -0.001766f, 0.014371f, -0.003215f, 0.008154f, 0.013556f, -0.001077f, 0.016013f, -0.002311f, 0.000462f, -0.010023f, -0.011542f, 0.004182f, 0.014791f, 0.004359f, -0.010113f, -0.012440f, 0.002702f, 0.007304f, 
0.000283f, 0.009000f, 0.007861f, 0.013797f, 0.012937f, 0.000355f, -0.012348f, -0.004287f, 0.003473f, 0.010266f, -0.007070f, -0.011091f, 0.007653f, -0.000628f, -0.013719f, 0.005230f, 0.018209f, 0.002497f, -0.009401f, -0.018297f, 
0.014013f, -0.009563f, -0.005013f, -0.013121f, 0.013905f, 0.016567f, -0.016615f, -0.008334f, 0.000314f, 0.000631f, 0.011012f, -0.005545f, -0.000237f, 0.004398f, -0.013363f, 0.007521f, -0.001019f, 0.003558f, -0.017543f, 0.008540f, 
0.014608f, 0.015606f, 0.011876f, 0.004041f, -0.003022f, 0.007667f, 0.000687f, 0.014841f, 0.008251f, -0.005389f, -0.005271f, 0.008809f, -0.018642f, 0.012313f, 0.009776f, 0.008119f, 0.003854f, 0.005297f, 0.002457f, -0.015653f, 
0.012682f, -0.001406f, -0.006587f, -0.017099f, 0.001821f, 0.009292f, 0.014790f, -0.004979f, -0.014623f, 0.008955f, -0.003237f, 0.007342f, -0.008534f, 0.003767f, -0.002666f, 0.006884f, -0.000429f, 0.002570f, 0.000412f, 0.015280f, 
0.007111f, -0.013802f, -0.008966f, 0.015870f, 0.013209f, 0.007552f, 0.013338f, 0.014123f, -0.012990f, -0.014266f, -0.000802f, -0.008416f, 0.005069f, -0.011339f, 0.014015f, 0.009779f, -0.007404f, -0.017518f, -0.015308f, 0.001525f, 
-0.000395f, 0.012976f, -0.004802f, -0.012067f, 0.005719f, 0.005960f, 0.002981f, 0.008720f, -0.013129f, 0.010170f, -0.002783f, -0.006645f, 0.011380f, -0.013114f, -0.009729f, -0.015136f, 0.005139f, -0.015331f, -0.015227f, -0.001958f, 
-0.012349f, -0.013363f, 0.001301f, 0.009850f, 0.001733f, -0.013651f, 0.000063f, -0.001006f, -0.009682f, -0.010931f, -0.015420f, -0.012541f, -0.007994f, 0.001263f, -0.002450f, 0.015071f, 0.010647f, -0.000563f, -0.007050f, -0.016137f, 
0.008880f, 0.017067f, 0.015693f, -0.001877f, -0.014980f, 0.010261f, -0.010040f, -0.005843f, -0.015867f, 0.003897f, -0.013773f, 0.002638f, 0.008151f, 0.007967f, 0.000501f, 0.005035f, 0.003150f, 0.010814f, 0.000589f, -0.012081f, 
-0.008754f, 0.014302f, -0.017627f, -0.012028f, 0.007339f, 0.009020f, -0.009921f, 0.017750f, -0.000089f, 0.005976f, -0.012606f, 0.009583f, -0.000076f, -0.009837f, -0.008697f, 0.000260f, -0.002042f, -0.012355f, 0.008657f, -0.003460f, 
-0.006526f, 0.005032f, -0.001226f, -0.000687f, -0.004522f, -0.016798f, 0.010113f, 0.000906f, -0.003891f, -0.011547f, -0.009945f, 0.007374f, -0.016956f, 0.006560f, -0.006736f, -0.011919f, -0.000237f, -0.013191f, -0.001917f, -0.004070f, 
-0.006332f, 0.017381f, -0.005912f, 0.007252f, -0.015302f, 0.013011f, 0.016487f, -0.010441f, 0.005383f, 0.001221f, -0.013018f, 0.005846f, 0.000414f, 0.003656f, 0.010449f, 0.008948f, -0.000321f, -0.011727f, -0.016713f, -0.010639f, 
0.016294f, 0.006777f, 0.009673f, 0.005777f, -0.002761f, -0.014314f, 0.011287f, -0.016356f, -0.014449f, 0.017832f, -0.003630f, 0.009813f, 0.007612f, -0.002268f, 0.002449f, -0.014574f, 0.009160f, 0.008269f, 0.003441f, 0.008126f, 
-0.011303f, -0.005365f, 0.009183f, 0.009413f, -0.019132f, 0.009279f, 0.018048f, 0.006919f, 0.009261f, -0.009932f, 0.008822f, -0.012400f, -0.014587f, -0.011638f, 0.011952f, -0.014230f, -0.009619f, -0.013167f, -0.012893f, -0.001240f, 
0.018132f, -0.000289f, 0.009170f, 0.008900f, -0.012400f, 0.018346f, -0.013081f, -0.015847f, -0.014084f, 0.016189f, -0.015633f, 0.001398f, 0.011513f, -0.010756f, 0.012350f, -0.012267f, 0.005550f, -0.015444f, 0.016132f, -0.005959f, 
-0.005649f, -0.005646f, 0.008796f, -0.009170f, 0.013045f, 0.007852f, 0.010377f, -0.000427f, -0.001835f, 0.010252f, -0.009030f, 0.010118f, -0.008720f, -0.010295f, 0.012803f, -0.018496f, 0.011884f, -0.002128f, -0.016855f, -0.008954f, 
0.009847f, -0.014216f, 0.017053f, -0.011322f, -0.017060f, -0.003100f, 0.019502f, -0.014578f, 0.007122f, 0.006868f, -0.007685f, -0.010965f, -0.008526f, -0.008276f, -0.002685f, 0.011165f, -0.013031f, -0.001968f, -0.008574f, 0.004354f, 
-0.008978f, -0.001177f, 0.006431f, -0.002300f, 0.004573f, -0.015231f, 0.002874f, 0.010730f, -0.004275f, 0.010895f, 0.013834f, -0.011288f, -0.008983f, 0.004788f, 0.009526f, -0.009222f, -0.015041f, 0.011966f, -0.002137f, -0.001198f, 
0.002501f, -0.014711f, 0.012037f, -0.008871f, 0.006539f, -0.009446f, -0.010856f, 0.010537f, -0.011564f, 0.015392f, -0.018671f, -0.014303f, -0.004533f, -0.011293f, -0.017191f, 0.015152f, -0.014349f, -0.011213f, -0.005778f, -0.015982f, 
0.007648f, -0.013765f, -0.008467f, 0.012880f, 0.017491f, 0.003643f, -0.011390f, 0.012801f, -0.009071f, -0.016550f, 0.013183f, -0.006197f, 0.007956f, -0.014707f, 0.002448f, -0.015369f, 0.004114f, 0.005161f, -0.016403f, -0.007503f, 
-0.017893f, 0.014636f, -0.017171f, -0.010126f, -0.015434f, 0.009428f, 0.011553f, 0.017001f, -0.011275f, 0.015266f, 0.007909f, 0.008099f, 0.005305f, 0.012537f, 0.011947f, 0.016149f, 0.003158f, -0.001969f, -0.012255f, 0.007046f, 
0.005315f, -0.005967f, 0.016920f, 0.008217f, 0.003700f, -0.004374f, 0.013186f, 0.003606f, 0.012840f, 0.013392f, -0.016217f, 0.003704f, 0.012581f, 0.005101f, -0.000902f, 0.014962f, -0.001264f, 0.019304f, 0.003937f, -0.002727f, 
0.003053f, -0.002656f, -0.008824f, 0.005953f, -0.000705f, -0.015697f, 0.014996f, -0.003608f, 0.007552f, -0.001655f, 0.004589f, -0.001527f, 0.004451f, -0.014967f, -0.003140f, 0.005794f, -0.003672f, -0.008384f, -0.013186f, 0.000355f, 
-0.009987f, 0.015817f, 0.009279f, -0.007582f, -0.000664f, 0.012839f, -0.008435f, -0.010180f, 0.014601f, -0.017826f, -0.001976f, -0.000273f, 0.003457f, 0.006416f, 0.014319f, 0.000150f, 0.012096f, 0.015135f, -0.013993f, 0.007989f, 
-0.003095f, -0.008569f, 0.010287f, 0.008833f, -0.016625f, 0.003537f, 0.006342f, -0.015574f, 0.013758f, -0.004416f, 0.002864f, -0.002444f, 0.001898f, 0.006527f, -0.001092f, -0.007737f, -0.004903f, -0.001760f, 0.011322f, -0.008496f, 
-0.002885f, -0.010600f, -0.010426f, 0.017100f, -0.009904f, 0.007157f, 0.002435f, 0.009843f, 0.006729f, -0.004874f, -0.001833f, -0.007318f, -0.015888f, 0.007328f, 0.012443f, -0.019314f, -0.004502f, -0.006083f, -0.009750f, 0.009417f, 
0.019081f, -0.004119f, -0.008800f, -0.013746f, -0.011019f, 0.017368f, -0.000915f, -0.006204f, 0.014132f, -0.001049f, 0.011837f, 0.010605f, -0.004734f, -0.006411f, 0.010637f, -0.014102f, 0.002310f, 0.007291f, -0.015856f, -0.002281f, 
-0.016571f, -0.010844f, 0.006746f, -0.006785f, 0.000417f, -0.010628f, 0.008739f, 0.007861f, -0.014610f, -0.012513f, -0.019711f, 0.004570f, -0.001573f, -0.013121f, 0.009506f, -0.014804f, -0.006632f, 0.013747f, 0.000695f, -0.008480f, 
0.000478f, 0.016561f, 0.016217f, 0.002175f, -0.014058f, 0.013734f, 0.001817f, 0.013634f, 0.002195f, -0.004958f, -0.019828f, -0.001746f, 0.004282f, 0.016496f, 0.000037f, -0.007138f, 0.008893f, -0.015843f, 0.009619f, -0.014614f, 
-0.008462f, -0.013904f, -0.010264f, 0.009256f, 0.009598f, -0.008223f, -0.015370f, 0.006396f, -0.001741f, 0.016238f, -0.005019f, 0.003665f, -0.015966f, -0.009925f, 0.004839f, -0.014536f, -0.000579f, -0.005159f, 0.000314f, -0.012272f, 
0.001767f, 0.003540f, 0.004677f, -0.011266f, -0.014161f, -0.006875f, -0.010257f, -0.005956f, -0.017866f, -0.014462f, 0.014358f, -0.015882f, 0.007161f, 0.014620f, 0.017663f, 0.015253f, -0.003573f, 0.003346f, -0.008852f, 0.007743f, 
0.010810f, 0.013221f, 0.011774f, 0.007580f, 0.012509f, -0.005963f, 0.001398f, -0.005907f, -0.017262f, 0.012398f, -0.015182f, 0.014454f, 0.000422f, -0.008980f, 0.002169f, 0.015309f, 0.008802f, -0.006475f, -0.014963f, -0.000644f, 
0.000375f, -0.014142f, 0.002434f, -0.006018f, 0.017941f, 0.008758f, -0.011505f, 0.010406f, -0.000244f, -0.012820f, 0.000950f, 0.014349f, 0.004454f, -0.018808f, 0.016526f, -0.007704f, 0.009151f, 0.015913f, -0.006811f, 0.011659f, 
-0.002466f, 0.011264f, -0.001116f, 0.010165f, -0.000942f, 0.011184f, -0.013392f, 0.004440f, -0.004584f, 0.008316f, 0.010924f, 0.006060f, 0.010834f, 0.001898f, -0.013659f, 0.001625f, -0.009128f, 0.005718f, 0.016931f, 0.011393f, 
0.002932f, 0.000576f, 0.008509f, 0.016815f, -0.015044f, -0.003437f, -0.013537f, -0.001626f, -0.005746f, -0.003946f, 0.001772f, -0.007647f, -0.011095f, -0.008007f, -0.006715f, 0.011345f, 0.001225f, -0.002500f, 0.013853f, -0.002539f, 
-0.006819f, 0.002691f, 0.002868f, 0.014784f, 0.012362f, 0.015164f, 0.013878f, 0.006504f, 0.005017f, 0.008183f, 0.007245f, 0.017995f, 0.008046f, 0.010965f, -0.002971f, -0.008086f, 0.017442f, -0.013720f, -0.000337f, 0.004960f, 
-0.001415f, 0.006075f, 0.002571f, -0.002270f, 0.010692f, 0.005199f, -0.018405f, -0.007121f, -0.005899f, 0.012203f, 0.010453f, -0.009669f, 0.006554f, 0.009026f, 0.001236f, 0.006903f, 0.007458f, 0.012144f, 0.007319f, -0.008137f, 
-0.009342f, 0.018282f, 0.010484f, -0.005129f, -0.011195f, -0.016901f, -0.007607f, 0.015153f, 0.006407f, -0.015285f, -0.009591f, 0.013175f, 0.010654f, -0.000290f, -0.013004f, 0.010476f, -0.003742f, -0.001315f, -0.012457f, -0.014063f, 
0.004753f, 0.003030f, 0.012737f, 0.001127f, -0.002546f, -0.008854f, 0.003596f, 0.011294f, 0.008793f, 0.000022f, -0.005207f, -0.002193f, 0.013248f, -0.012925f, 0.004758f, 0.007871f, -0.001357f, -0.017662f, 0.009982f, -0.003855f, 
-0.003404f, -0.006796f, -0.006099f, -0.011059f, -0.004610f, 0.006903f, -0.002214f, 0.003357f, -0.014254f, -0.012279f, -0.000334f, 0.008244f, 0.005740f, -0.011425f, -0.005949f, -0.014296f, -0.017068f, -0.015269f, -0.012885f, -0.007074f, 
0.006883f, 0.003686f, 0.012714f, -0.005241f, 0.009831f, 0.001071f, 0.008884f, 0.013165f, 0.006859f, 0.000123f, -0.002111f, -0.000729f, -0.011732f, 0.011194f, -0.001104f, 0.005260f, 0.013412f, 0.003815f, -0.009943f, -0.015568f, 
-0.009214f, -0.007906f, -0.006810f, 0.004057f, -0.007571f, 0.008609f, -0.010322f, -0.010110f, 0.015101f, 0.008788f, 0.007786f, -0.010215f, 0.001298f, -0.012546f, -0.011824f, -0.016173f, 0.010784f, -0.012931f, 0.014041f, -0.001095f, 
0.000324f, -0.015776f, 0.009458f, 0.002312f, -0.010079f, 0.014047f, -0.001866f, -0.004697f, 0.010939f, -0.014698f, 0.016365f, -0.001750f, -0.004188f, -0.014194f, -0.005006f, -0.015429f, 0.008000f, -0.011619f, -0.014232f, 0.006664f, 
0.008104f, 0.005065f, -0.004714f, -0.015036f, -0.009472f, -0.004298f, -0.012574f, 0.013852f, -0.008007f, -0.007971f, -0.020367f, -0.013725f, 0.009471f, -0.003674f, -0.009788f, 0.012381f, 0.010478f, 0.001178f, 0.001157f, 0.006651f, 
-0.000592f, 0.001650f, -0.006015f, -0.004739f, 0.014998f, -0.002973f, 0.007002f, -0.015020f, 0.010906f, -0.013465f, -0.004199f, -0.010667f, 0.008564f, 0.000952f, 0.005725f, -0.010526f, 0.001370f, -0.004472f, 0.006592f, 0.003646f, 
0.012082f, -0.007455f, 0.007399f, -0.002750f, -0.002364f, 0.017172f, -0.011108f, -0.007123f, -0.008786f, -0.010848f, -0.007223f, 0.004490f, -0.009711f, 0.004197f, 0.005285f, 0.006731f, -0.014892f, -0.012175f, -0.005228f, 0.011086f, 
0.007005f, -0.009999f, -0.006190f, 0.010568f, 0.000824f, 0.000028f, -0.012044f, -0.012505f, 0.007167f, 0.014368f, 0.003215f, 0.011594f, -0.006655f, -0.013730f, 0.002120f, 0.008579f, 0.007811f, -0.015232f, -0.002031f, -0.013941f, 
0.005606f, 0.006046f, 0.000630f, 0.007342f, 0.008114f, -0.003760f, -0.005288f, 0.014212f, -0.006948f, -0.011120f, -0.002804f, -0.000203f, 0.015784f, 0.011840f, 0.007284f, -0.002037f, 0.001003f, 0.006076f, -0.012534f, 0.017507f, 
0.014701f, -0.002967f, 0.000128f, 0.007217f, 0.003527f, 0.006743f, 0.002333f, 0.003267f, -0.012108f, 0.017267f, -0.008984f, -0.000738f, -0.021206f, 0.001389f, -0.015519f, -0.012033f, -0.022019f, -0.019537f, 0.008447f, -0.019183f, 
-0.000387f, -0.019178f, -0.010027f, 0.021328f, 0.005128f, 0.013073f, -0.007473f, -0.000808f, -0.005510f, 0.007469f, 0.007821f, 0.010582f, -0.005568f, 0.015615f, -0.011409f, -0.011419f, 0.003529f, 0.008651f, -0.009429f, -0.008076f, 
0.007387f, 0.010986f, -0.004549f, 0.010511f, -0.011981f, 0.002471f, -0.013808f, -0.022131f, 0.006084f, -0.019958f, -0.001495f, 0.010453f, 0.014810f, -0.009141f, -0.002053f, -0.019829f, 0.005304f, -0.007954f, 0.005573f, 0.007904f, 
0.004125f, 0.008008f, 0.010088f, -0.016581f, -0.013355f, -0.011391f, 0.001615f, 0.000140f, -0.020561f, -0.004683f, -0.005621f, 0.003412f, -0.013208f, -0.006096f, -0.020036f, -0.006093f, -0.002123f, 0.002857f, -0.006883f, -0.020529f, 
-0.006335f, -0.006611f, 0.017574f, -0.013256f, -0.006725f, -0.020019f, -0.010745f, 0.005215f, -0.019953f, -0.009246f, -0.009578f, -0.021927f, 0.012090f, 0.000456f, -0.011337f, -0.006996f, 0.015110f, -0.001835f, 0.019044f, -0.000453f, 
0.015052f, -0.023146f, -0.013798f, 0.004574f, 0.000078f, 0.004217f, -0.014324f, -0.003789f, 0.010313f, -0.009938f, -0.010026f, -0.004907f, -0.008171f, -0.026773f, 0.002487f, 0.010548f, -0.007952f, 0.004028f, -0.008279f, -0.014015f, 
0.016159f, -0.000458f, 0.002616f, -0.004668f, -0.002760f, 0.009553f, 0.003150f, 0.009660f, -0.000636f, 0.004386f, -0.017316f, -0.024669f, -0.000991f, 0.004950f, -0.011534f, 0.009555f, -0.010162f, -0.010771f, 0.004572f, 0.009443f, 
-0.014592f, -0.004295f, 0.013851f, -0.001810f, 0.010774f, -0.013347f, -0.014348f, -0.011862f, -0.002535f, 0.001425f, -0.004904f, 0.012322f, 0.016311f, 0.013277f, -0.008410f, -0.013603f, -0.009324f, -0.017749f, -0.011858f, -0.018583f, 
-0.008575f, -0.024101f, -0.011863f, -0.014759f, -0.019601f, 0.003150f, 0.015675f, -0.002870f, 0.012220f, -0.017521f, 0.008729f, 0.001099f, -0.000526f, -0.009468f, -0.013283f, 0.016693f, -0.008218f, 0.009825f, 0.007925f, -0.014347f, 
0.009147f, 0.004604f, 0.006612f, 0.013248f, -0.015180f, -0.016276f, -0.014786f, -0.018068f, 0.007402f, -0.013487f, -0.024777f, -0.012964f, -0.001306f, -0.009810f, 0.009783f, -0.017973f, -0.001240f, 0.008069f, -0.010210f, 0.005945f, 
-0.014491f, 0.010070f, -0.006682f, 0.002012f, -0.014154f, -0.016941f, 0.003499f, 0.005999f, 0.001099f, 0.003950f, -0.000255f, -0.012534f, 0.001314f, -0.002162f, -0.004895f, -0.001841f, -0.023075f, -0.001378f, -0.021278f, -0.012531f, 
0.000125f, -0.012635f, 0.011607f, 0.000519f, 0.002634f, -0.015183f, 0.000215f, -0.012782f, -0.022284f, -0.003947f, 0.002765f, 0.007128f, 0.019260f, -0.017462f, -0.001477f, -0.007887f, 0.007871f, -0.008359f, 0.013559f, -0.006489f, 
0.003106f, -0.003933f, -0.014354f, -0.013983f, -0.002709f, -0.023513f, -0.024273f, -0.021889f, 0.001298f, -0.021025f, 0.007448f, 0.009321f, -0.002815f, 0.009715f, -0.008903f, -0.008043f, -0.007563f, -0.006251f, -0.005894f, 0.007617f, 
-0.001861f, 0.009953f, -0.008070f, 0.019048f, 0.005931f, 0.014000f, 0.006100f, 0.004597f, 0.007101f, -0.005109f, -0.007900f, -0.012611f, 0.000185f, -0.014132f, 0.002903f, -0.003643f, 0.009311f, 0.008946f, -0.015364f, 0.002031f, 
0.004837f, 0.003272f, 0.002041f, -0.006623f, -0.017936f, 0.005158f, -0.004724f, -0.005558f, -0.004863f, -0.005820f, -0.009807f, -0.011479f, -0.010054f, 0.014351f, 0.006343f, 0.012484f, -0.003040f, -0.003521f, -0.003932f, -0.018877f, 
-0.003733f, -0.015764f, 0.001516f, -0.004632f, 0.003473f, -0.016306f, -0.004656f, 0.009965f, -0.000688f, 0.008679f, 0.010022f, -0.003901f, 0.010305f, 0.012547f, 0.005402f, 0.005952f, 0.016687f, -0.010217f, 0.003938f, 0.004363f, 
-0.012313f, 0.010818f, -0.009580f, 0.003007f, -0.014320f, -0.019060f, -0.006273f, -0.017952f, 0.004042f, 0.008850f, -0.005447f, 0.001590f, -0.014411f, 0.004501f, -0.013405f, -0.012712f, -0.017141f, -0.000334f, -0.014085f, -0.016781f, 
-0.005018f, 0.008116f, -0.004599f, 0.004887f, -0.014976f, -0.016215f, 0.001149f, 0.009476f, -0.004348f, 0.003616f, 0.007192f, 0.000130f, 0.006449f, 0.004265f, -0.010347f, -0.015830f, -0.009614f, -0.017564f, -0.014196f, -0.016626f, 
-0.028767f, -0.010546f, -0.004476f, 0.012753f, -0.002929f, -0.007310f, -0.010070f, 0.009286f, -0.016988f, 0.008493f, 0.000376f, -0.018936f, -0.004416f, -0.008390f, 0.014741f, 0.006362f, 0.019684f, 0.014909f, -0.008666f, -0.016544f, 
-0.006940f, -0.011761f, -0.016713f, -0.015876f, 0.006127f, 0.005845f, -0.008474f, 0.010988f, -0.022122f, 0.011659f, 0.000135f, -0.012654f, -0.018191f, -0.007288f, -0.005412f, -0.001823f, -0.003392f, 0.001024f, -0.000106f, 0.011819f, 
-0.015490f, 0.001402f, -0.000268f, -0.008582f, 0.009764f, 0.014528f, 0.012312f, -0.011847f, 0.013675f, -0.009752f, 0.003298f, -0.011403f, -0.010517f, 0.001012f, -0.003077f, 0.005152f, 0.004618f, -0.022974f, 0.004750f, -0.008270f, 
-0.008618f, -0.009392f, 0.007254f, 0.010587f, -0.007835f, -0.015442f, -0.000395f, -0.012125f, -0.011604f, 0.015069f, -0.015556f, 0.015911f, -0.013134f, 0.011595f, -0.002408f, -0.016180f, -0.001536f, -0.007503f, -0.004668f, 0.002444f, 
0.006907f, -0.018135f, -0.017600f, -0.002043f, -0.001376f, -0.000926f, -0.017281f, -0.009324f, -0.022633f, 0.007420f, -0.014156f, 0.013629f, -0.022654f, 0.005981f, -0.000799f, -0.001054f, 0.008826f, -0.018083f, 0.001842f, 0.000707f, 
-0.004980f, -0.016960f, 0.015419f, 0.011272f, 0.011383f, 0.001754f, -0.013835f, -0.003850f, -0.000316f, 0.007263f, 0.007192f, 0.004465f, 0.003816f, -0.006085f, -0.005466f, 0.003013f, -0.011137f, 0.005371f, -0.000327f, 0.012113f, 
-0.012631f, -0.007575f, 0.008180f, -0.002387f, -0.011222f, 0.005056f, 0.018124f, -0.005639f, -0.000299f, 0.017925f, -0.001058f, -0.012879f, 0.009805f, 0.007287f, -0.016949f, -0.006683f, -0.002460f, -0.014727f, -0.003152f, 0.011742f, 
-0.008868f, -0.023147f, -0.005777f, 0.010316f, -0.009974f, -0.001600f, 0.001754f, -0.004706f, 0.006915f, 0.002082f, -0.008559f, -0.002063f, -0.001723f, 0.007349f, 0.012578f, 0.009660f, 0.015786f, -0.012497f, -0.012015f, -0.007369f, 
-0.014181f, 0.010536f, -0.001986f, 0.014871f, 0.004361f, -0.016989f, -0.000408f, 0.012492f, -0.005479f, 0.011158f, 0.002096f, -0.017190f, -0.009835f, -0.019488f, -0.014016f, 0.006522f, -0.013919f, -0.017376f, 0.004286f, 0.006965f, 
0.010930f, 0.008813f, -0.010047f, -0.010658f, 0.000610f, -0.010156f, 0.006239f, -0.000216f, -0.019129f, -0.008423f, -0.016654f, 0.005774f, -0.005596f, -0.007070f, -0.020285f, -0.010184f, 0.010695f, -0.013352f, -0.008323f, -0.009415f, 
0.003015f, 0.014491f, -0.015676f, -0.011662f, -0.014801f, -0.010044f, -0.006349f, -0.021197f, -0.001643f, -0.013208f, -0.012761f, -0.012320f, -0.006802f, -0.000958f, 0.007898f, 0.003263f, 0.003649f, -0.000089f, -0.009714f, 0.015391f, 
0.010937f, 0.012190f, 0.001140f, 0.009157f, 0.010056f, 0.005788f, -0.002024f, 0.011965f, -0.022335f, -0.000425f, -0.009581f, 0.010464f, -0.008698f, -0.001252f, -0.018897f, 0.005346f, -0.009597f, -0.012189f, -0.005488f, -0.010295f, 
0.001281f, 0.005187f, 0.018999f, -0.007854f, 0.011756f, 0.006164f, -0.021597f, 0.009261f, 0.005760f, 0.012914f, -0.006416f, -0.014762f, 0.011369f, -0.006928f, 0.002069f, 0.004119f, 0.006948f, 0.009276f, -0.011565f, 0.004178f, 
-0.006012f, -0.007639f, -0.028384f, 0.012723f, -0.018493f, -0.015629f, 0.000570f, -0.010495f, -0.001867f, -0.001206f, 0.008488f, 0.017559f, -0.005180f, -0.015026f, -0.020655f, -0.014549f, 0.017665f, -0.000680f, 0.012940f, -0.008115f, 
0.014264f, 0.008430f, -0.004609f, 0.013360f, -0.006007f, 0.009163f, -0.005501f, 0.000690f, 0.000580f, -0.006875f, 0.002275f, 0.007534f, -0.007958f, 0.004227f, -0.009373f, 0.003443f, 0.010840f, -0.008653f, 0.010663f, 0.000517f, 
-0.008835f, 0.014897f, -0.000052f, 0.014375f, 0.017513f, 0.016230f, 0.009519f, -0.008802f, 0.008317f, -0.003936f, 0.005306f, -0.005064f, -0.001091f, -0.011439f, -0.010617f, -0.003008f, 0.015084f, -0.000086f, 0.002600f, -0.023055f, 
0.003074f, 0.016403f, -0.012727f, -0.006593f, -0.003880f, -0.014756f, -0.003911f, 0.018853f, 0.009582f, -0.013188f, 0.010948f, -0.005580f, -0.003862f, 0.014087f, -0.017141f, 0.002430f, 0.005176f, -0.013512f, -0.007417f, 0.000841f, 
-0.017739f, 0.004520f, 0.003974f, 0.015777f, -0.005256f, -0.001783f, 0.010158f, -0.010514f, 0.001584f, -0.017415f, -0.001012f, 0.005514f, 0.016362f, -0.018123f, -0.000113f, 0.002744f, 0.014480f, 0.006431f, 0.010997f, -0.015300f, 
0.013004f, 0.012096f, 0.019354f, 0.009467f, 0.002643f, -0.001006f, 0.006173f, -0.000693f, -0.019141f, -0.008714f, -0.009500f, 0.006736f, 0.009179f, -0.009500f, -0.012933f, 0.015706f, 0.011944f, 0.015768f, 0.002448f, -0.001855f, 
-0.003974f, -0.006403f, -0.001698f, 0.015509f, 0.008528f, 0.002052f, 0.007857f, -0.019784f, -0.010181f, 0.015920f, 0.004636f, -0.009833f, 0.015559f, 0.027064f, 0.011506f, -0.014895f, -0.012308f, -0.015577f, 0.012256f, 0.001057f, 
0.014068f, 0.004626f, 0.013889f, 0.002739f, -0.007869f, -0.004662f, -0.001747f, -0.009986f, 0.008977f, 0.007044f, -0.001649f, 0.009412f, -0.012246f, 0.007198f, 0.018745f, 0.010681f, 0.015918f, -0.009907f, -0.010747f, -0.001876f, 
0.000694f, -0.008733f, 0.009621f, -0.006952f, -0.007845f, 0.009123f, -0.000282f, 0.007892f, -0.008224f, -0.016761f, -0.003369f, -0.008305f, 0.004145f, -0.016533f, 0.009929f, -0.009792f, -0.000791f, -0.017346f, 0.002269f, 0.007960f, 
0.008190f, 0.000135f, 0.015248f, -0.004841f, 0.008400f, 0.000176f, 0.003238f, -0.005328f, -0.011680f, 0.017852f, 0.008938f, 0.004764f, 0.013783f, 0.017144f, 0.015848f, -0.007701f, -0.008008f, 0.013480f, -0.008513f, -0.000620f, 
0.010048f, 0.014258f, 0.006237f, 0.002893f, -0.002853f, 0.009763f, 0.013573f, -0.004499f, -0.006151f, -0.017585f, -0.018876f, 0.010645f, -0.011387f, -0.002514f, 0.003259f, -0.000218f, -0.014315f, -0.007270f, -0.006222f, -0.015624f, 
-0.003429f, -0.009247f, -0.003550f, -0.014148f, -0.007832f, 0.003307f, -0.003500f, -0.012250f, 0.011478f, -0.016152f, -0.009845f, 0.002622f, -0.009389f, -0.004414f, 0.005330f, 0.013873f, -0.006630f, 0.016664f, 0.002859f, 0.007781f, 
0.010986f, 0.003219f, -0.025887f, -0.006366f, 0.000179f, -0.000124f, 0.000310f, 0.006597f, -0.002892f, -0.020714f, 0.014741f, 0.018483f, 0.006212f, 0.018490f, 0.008758f, 0.006860f, 0.008883f, -0.012051f, -0.005015f, -0.004112f, 
-0.004674f, 0.011369f, 0.001654f, -0.019443f, -0.015902f, -0.013939f, 0.003754f, 0.010125f, 0.011035f, -0.007227f, -0.017552f, -0.006898f, -0.007843f, 0.011173f, -0.010086f, -0.007435f, 0.009599f, -0.008298f, 0.000945f, 0.019138f, 
-0.009381f, 0.002350f, -0.003813f, 0.019316f, 0.006180f, 0.001431f, -0.007779f, -0.002654f, 0.007796f, 0.000337f, -0.021724f, -0.001484f, -0.002913f, -0.015102f, -0.011369f, 0.010263f, -0.003302f, 0.014184f, -0.000185f, 0.017315f, 
-0.012453f, 0.014882f, -0.003479f, 0.000795f, -0.008091f, -0.004594f, 0.019866f, -0.013449f, 0.009176f, -0.005880f, 0.005813f, -0.010741f, -0.008843f, -0.015781f, -0.003303f, 0.006903f, -0.007245f, -0.010614f, -0.010476f, 0.008492f, 
-0.002487f, -0.022233f, 0.002888f, -0.004522f, 0.004061f, 0.015660f, -0.009922f, -0.006756f, 0.014258f, -0.010256f, 0.008436f, 0.000990f, -0.007175f, 0.007609f, -0.002523f, 0.007816f, -0.005948f, 0.014626f, 0.009453f, 0.014402f, 
0.008956f, -0.004740f, -0.001020f, -0.016240f, -0.010144f, -0.009799f, -0.012915f, -0.023201f, 0.009626f, -0.006316f, -0.019944f, -0.022437f, 0.003357f, -0.003272f, 0.003783f, -0.012898f, 0.012787f, -0.006959f, 0.008987f, -0.024042f, 
0.001976f, -0.016529f, 0.000599f, -0.013535f, -0.007618f, -0.000170f, -0.017411f, -0.005641f, 0.014695f, -0.003226f, -0.016368f, 0.000415f, -0.024458f, -0.001993f, 0.010618f, -0.011586f, -0.000581f, -0.022550f, 0.012615f, 0.002050f, 
-0.018207f, -0.010754f, -0.005912f, 0.004558f, 0.004052f, 0.003737f, -0.015728f, -0.009567f, -0.010225f, 0.014322f, -0.003002f, -0.011086f, 0.008054f, -0.019976f, -0.019017f, 0.006394f, -0.004826f, -0.005240f, 0.006427f, -0.001055f, 
-0.004739f, -0.007391f, 0.011211f, 0.011105f, -0.008565f, -0.005081f, -0.000343f, -0.027990f, -0.001405f, 0.000731f, 0.013685f, -0.010582f, 0.011480f, -0.000361f, 0.010111f, -0.005349f, -0.012491f, 0.003267f, -0.013879f, 0.000969f, 
-0.006363f, -0.004896f, -0.019092f, -0.017584f, 0.015457f, -0.006199f, 0.009589f, -0.002622f, 0.014817f, -0.007833f, -0.013159f, 0.004177f, 0.002887f, -0.002757f, -0.021354f, 0.006883f, 0.013885f, -0.011326f, -0.011749f, 0.012171f, 
0.006499f, -0.015757f, 0.006718f, -0.000815f, -0.003055f, -0.003262f, -0.003330f, 0.007297f, 0.003470f, 0.003477f, -0.004847f, 0.005681f, -0.007043f, 0.011661f, 0.001788f, -0.019259f, 0.009143f, -0.007230f, 0.008573f, -0.010268f, 
0.000201f, 0.014286f, -0.011420f, -0.010007f, 0.008042f, -0.019361f, -0.002397f, -0.018322f, 0.007669f, -0.004328f, -0.008783f, 0.002363f, 0.009953f, 0.005487f, 0.013462f, 0.010311f, 0.011703f, 0.014018f, -0.004965f, 0.013586f, 
0.013721f, 0.010345f, -0.009001f, 0.006390f, -0.016185f, -0.007301f, 0.006899f, -0.017625f, -0.012023f, -0.004176f, 0.020096f, -0.009763f, -0.015335f, -0.003037f, 0.000766f, 0.001482f, -0.012573f, -0.001052f, -0.018834f, -0.006638f, 
0.012888f, -0.001365f, 0.001413f, 0.004502f, -0.020202f, -0.002559f, -0.004894f, -0.005459f, 0.009319f, 0.010016f, -0.019825f, -0.015102f, -0.010508f, -0.000537f, 0.012212f, -0.001020f, -0.006918f, 0.016472f, 0.005689f, 0.018245f, 
0.006267f, 0.004987f, 0.009962f, -0.006903f, 0.007367f, -0.011932f, 0.001259f, -0.013794f, -0.017417f, -0.003756f, 0.000968f, 0.008288f, 0.012156f, 0.001754f, -0.003822f, 0.005237f, -0.018404f, -0.010208f, -0.011133f, 0.011883f, 
0.006839f, -0.009763f, 0.010993f, -0.004538f, 0.007334f, 0.007724f, -0.014036f, -0.000287f, -0.014648f, -0.003738f, 0.017619f, 0.007759f, -0.004852f, -0.017288f, -0.004322f, -0.005219f, 0.002995f, -0.005791f, 0.020324f, 0.019314f, 
-0.007295f, 0.004836f, -0.006218f, -0.001757f, -0.003230f, 0.007060f, 0.012762f, 0.000884f, -0.011039f, -0.004724f, -0.012277f, -0.002899f, 0.010377f, -0.021022f, 0.003126f, -0.015981f, 0.000108f, 0.003243f, -0.018348f, 0.002752f, 
0.002700f, -0.014533f, -0.008586f, -0.016574f, 0.007974f, -0.002107f, 0.011726f, 0.009585f, -0.007935f, 0.002270f, 0.010816f, 0.004949f, 0.008423f, 0.007497f, 0.009414f, 0.007837f, -0.016854f, 0.012484f, 0.011439f, 0.007504f, 
-0.003838f, 0.014087f, 0.016545f, 0.003976f, -0.021992f, -0.004990f, 0.001344f, 0.008945f, -0.005048f, -0.007920f, 0.015967f, -0.019012f, 0.010992f, -0.000466f, -0.002838f, -0.000783f, 0.003771f, -0.015634f, -0.004704f, -0.000599f, 
-0.019831f, -0.009378f, -0.024803f, -0.012182f, 0.008193f, -0.005719f, -0.022267f, -0.020127f, -0.009977f, -0.005316f, -0.003698f, 0.003003f, 0.008246f, 0.008498f, -0.011974f, -0.016945f, -0.005791f, 0.001390f, -0.007674f, -0.011677f, 
-0.008050f, -0.003298f, 0.001717f, 0.022154f, -0.002442f, -0.015050f, 0.006202f, -0.014995f, -0.008428f, 0.006372f, -0.008180f, 0.005832f, -0.007330f, -0.016920f, -0.005449f, 0.007594f, -0.021804f, 0.004778f, -0.009567f, 0.003987f, 
-0.004332f, -0.018525f, 0.005271f, 0.004529f, 0.016039f, 0.014179f, -0.009032f, -0.025153f, -0.014242f, -0.006733f, -0.009400f, -0.018824f, -0.002463f, -0.018380f, 0.000640f, 0.006420f, 0.001591f, -0.022670f, 0.011524f, -0.013566f, 
-0.009618f, -0.004620f, -0.018004f, 0.011237f, 0.003508f, -0.003569f, 0.001962f, -0.010401f, -0.000252f, 0.009538f, -0.008255f, 0.002295f, -0.014321f, 0.012454f, 0.007595f, -0.002440f, 0.005245f, 0.004485f, 0.000677f, 0.002936f, 
0.011240f, 0.009983f, 0.022937f, -0.005327f, -0.007671f, -0.007805f, -0.023134f, 0.010030f, -0.022019f, -0.004866f, 0.002466f, -0.015229f, 0.007976f, 0.000312f, -0.017844f, -0.019080f, -0.026763f, -0.009792f, -0.011006f, -0.012374f, 
-0.007056f, -0.017201f, -0.007324f, -0.011239f, 0.008047f, -0.016232f, 0.003816f, 0.002970f, -0.001501f, -0.014846f, 0.010500f, 0.002428f, 0.001180f, -0.012950f, 0.014220f, 0.002174f, -0.011467f, -0.007436f, -0.005639f, -0.010854f, 
0.005316f, 0.002757f, -0.014431f, -0.021523f, -0.021471f, -0.025928f, -0.022843f, -0.023746f, -0.009395f, -0.002260f, -0.001364f, -0.002131f, -0.008554f, -0.000109f, 0.009334f, -0.016643f, 0.016377f, 0.006185f, -0.009157f, -0.020636f, 
-0.011296f, 0.007732f, -0.003573f, -0.013034f, -0.013173f, -0.011882f, -0.019913f, 0.000207f, 0.007717f, 0.013357f, -0.019992f, -0.025023f, -0.024012f, -0.005428f, 0.003142f, -0.013943f, 0.005094f, -0.011369f, 0.002782f, -0.012691f, 
0.004522f, -0.003656f, -0.018150f, 0.003766f, 0.007667f, -0.008653f, -0.006578f, 0.014312f, -0.003516f, -0.004119f, -0.006488f, -0.006543f, 0.007701f, -0.017210f, 0.001959f, 0.004233f, -0.009683f, -0.013627f, -0.010953f, -0.020557f, 
-0.023974f, -0.013227f, -0.012089f, -0.000249f, -0.008705f, -0.002366f, -0.013111f, -0.013609f, -0.012022f, 0.005364f, -0.015481f, 0.009741f, -0.010304f, 0.008414f, 0.011020f, 0.006220f, 0.009952f, -0.001539f, 0.005055f, -0.011623f, 
-0.003339f, -0.010046f, 0.011794f, -0.015033f, -0.020291f, -0.017620f, -0.019631f, 0.000464f, -0.006369f, -0.004703f, 0.002275f, -0.007892f, -0.007353f, 0.007476f, -0.013385f, -0.014400f, -0.010070f, 0.011071f, -0.018897f, -0.017662f, 
0.006802f, 0.000907f, -0.007868f, -0.019219f, 0.014383f, -0.008588f, -0.000590f, 0.007295f, -0.002645f, -0.012534f, 0.006477f, -0.007399f, -0.015837f, -0.003193f, -0.013108f, 0.017157f, 0.005076f, -0.002457f, -0.007870f, 0.007014f, 
-0.004002f, 0.006579f, -0.020543f, -0.005082f, -0.011290f, 0.003884f, -0.011460f, -0.001687f, -0.003954f, -0.012815f, 0.013306f, -0.016909f, -0.000644f, -0.015399f, 0.007026f, -0.015534f, -0.005935f, 0.007037f, 0.016691f, -0.010455f, 
-0.008118f, 0.018788f, -0.000057f, 0.005976f, 0.010896f, 0.017502f, -0.006213f, 0.002483f, 0.000506f, -0.006539f, -0.000319f, 0.001524f, -0.011926f, 0.000426f, -0.015637f, -0.005788f, -0.007706f, -0.019636f, -0.017841f, -0.010300f, 
0.014814f, 0.013473f, -0.008612f, -0.004425f, -0.002261f, 0.002826f, 0.012157f, 0.014246f, 0.018207f, -0.004712f, 0.007412f, 0.015469f, 0.001735f, -0.001912f, 0.015528f, -0.003975f, -0.010740f, 0.007301f, -0.003845f, -0.015607f, 
0.005804f, -0.023201f, -0.014951f, -0.017613f, 0.005198f, 0.015102f, 0.004009f, -0.019703f, 0.003563f, 0.013343f, -0.015599f, -0.024001f, -0.001856f, -0.001132f, -0.014931f, -0.006210f, -0.001994f, -0.005395f, 0.008891f, 0.009181f, 
0.017233f, 0.004085f, -0.002515f, 0.024690f, 0.004035f, -0.011030f, -0.011129f, 0.000152f, -0.000519f, 0.000253f, -0.000933f, -0.016706f, 0.002076f, 0.007908f, -0.004409f, -0.006266f, -0.015893f, -0.016074f, 0.009437f, -0.011622f, 
-0.017389f, 0.003644f, 0.007292f, 0.013245f, -0.011193f, 0.010887f, 0.005069f, -0.009059f, 0.006604f, 0.013651f, 0.014800f, 0.002277f, -0.005630f, -0.006631f, 0.002122f, -0.006280f, -0.006536f, -0.008300f, -0.014829f, -0.018257f, 
-0.000345f, -0.006969f, 0.000281f, -0.008183f, -0.017097f, -0.007416f, -0.006356f, 0.015821f, -0.012757f, 0.010216f, -0.004175f, 0.015184f, 0.009878f, 0.002025f, -0.010050f, -0.010007f, -0.010099f, -0.005432f, 0.010993f, -0.004006f, 
-0.007873f, 0.015445f, 0.004086f, 0.014801f, 0.001009f, -0.009241f, -0.019963f, 0.001760f, 0.008452f, -0.016780f, -0.006126f, 0.005912f, 0.007248f, 0.004902f, 0.000689f, -0.002624f, -0.004665f, 0.015653f, 0.015136f, -0.009921f, 
-0.003587f, 0.012725f, -0.002631f, 0.004324f, -0.002017f, -0.011026f, 0.000573f, -0.005945f, 0.019303f, -0.016839f, 0.012724f, 0.005625f, 0.009474f, 0.011479f, -0.018245f, -0.012464f, -0.004753f, -0.018303f, -0.024630f, 0.006219f, 
0.000475f, -0.002973f, -0.001842f, 0.001845f, 0.016745f, 0.000906f, -0.014306f, -0.000181f, -0.004609f, 0.008650f, -0.004927f, 0.007462f, -0.008839f, -0.005159f, -0.013025f, 0.009417f, 0.020523f, -0.007655f, -0.007576f, 0.021885f, 
0.020899f, -0.005878f, -0.001468f, -0.015233f, -0.008214f, 0.007243f, -0.009542f, 0.004114f, -0.007309f, 0.008654f, 0.007236f, -0.015568f, 0.002526f, 0.014805f, -0.019440f, 0.002640f, 0.010229f, -0.012759f, 0.001796f, 0.022704f, 
0.007793f, 0.011931f, -0.009396f, 0.011400f, 0.009053f, 0.008321f, 0.012944f, -0.014522f, 0.003720f, -0.003077f, 0.014128f, -0.000135f, -0.005258f, 0.007557f, -0.018427f, 0.008724f, 0.007706f, -0.001475f, -0.008435f, -0.008382f, 
0.006246f, -0.023890f, -0.015869f, 0.002897f, 0.006800f, -0.001376f, -0.020471f, 0.001865f, 0.020454f, 0.002432f, -0.007257f, -0.013485f, 0.004514f, -0.000258f, -0.007306f, -0.014984f, -0.009576f, 0.007199f, 0.009953f, -0.015104f, 
0.013962f, 0.007302f, 0.001572f, 0.011401f, 0.009779f, 0.005795f, -0.003343f, 0.001035f, 0.001360f, -0.003026f, 0.010848f, -0.014895f, -0.014689f, -0.017194f, 0.007558f, 0.005833f, 0.012658f, -0.008093f, 0.015669f, -0.000148f, 
0.009714f, -0.017865f, -0.017101f, 0.014958f, 0.015698f, 0.001396f, -0.007234f, 0.004824f, 0.009539f, -0.000809f, 0.010479f, 0.003988f, 0.007686f, 0.016152f, 0.011438f, -0.006754f, -0.012823f, 0.014737f, 0.014781f, 0.006938f, 
-0.007776f, -0.015037f, -0.000924f, -0.008713f, 0.003031f, 0.018173f, -0.005373f, -0.003399f, 0.001529f, 0.004523f, -0.002211f, 0.016890f, -0.020339f, -0.004791f, -0.016926f, 0.005984f, -0.000397f, -0.011625f, -0.007236f, 0.006658f, 
0.007056f, 0.011035f, 0.007664f, -0.012942f, -0.016654f, -0.014662f, -0.006648f, 0.006252f, 0.001670f, 0.003497f, -0.012274f, -0.018191f, -0.009138f, -0.010348f, 0.007316f, 0.000857f, -0.006856f, 0.004241f, -0.006382f, 0.013105f, 
0.021181f, -0.006968f, 0.002575f, 0.022631f, 0.003969f, 0.007793f, -0.003632f, -0.006763f, 0.002907f, -0.006397f, -0.016205f, -0.014219f, -0.007942f, -0.012011f, -0.004900f, 0.003073f, -0.012911f, 0.000278f, 0.015751f, 0.002397f, 
-0.018498f, 0.011162f, 0.008851f, -0.003630f, 0.002322f, -0.015096f, 0.005150f, 0.016195f, 0.015355f, -0.012011f, -0.015714f, -0.012171f, -0.021381f, 0.027080f, 0.003114f, 0.015285f, -0.009143f, 0.023241f, -0.007762f, -0.003940f, 
-0.010053f, -0.001542f, -0.015124f, 0.001984f, -0.010359f, -0.003348f, -0.018740f, 0.005855f, -0.012070f, -0.018280f, -0.018325f, 0.003992f, -0.002092f, -0.002328f, 0.002479f, 0.002190f, -0.007319f, -0.004954f, 0.007155f, -0.010551f, 
-0.003061f, -0.010928f, 0.016230f, -0.014816f, -0.015614f, -0.007528f, 0.005843f, -0.010984f, 0.004218f, 0.010865f, 0.012289f, -0.025870f, 0.001763f, 0.013661f, -0.001217f, -0.007543f, -0.004944f, -0.009790f, -0.002979f, 0.010324f, 
-0.003545f, 0.009670f, 0.015286f, 0.009840f, -0.018765f, 0.000583f, -0.019707f, -0.009494f, 0.011820f, -0.005221f, 0.015624f, -0.013650f, -0.008757f, 0.008461f, 0.013183f, -0.010669f, 0.006947f, -0.003137f, 0.015131f, -0.019225f, 
0.011594f, 0.015157f, 0.006523f, -0.017451f, 0.011529f, 0.000997f, -0.015902f, 0.008505f, 0.004941f, -0.014514f, -0.011839f, 0.018413f, -0.007222f, 0.006611f, 0.011651f, -0.012065f, 0.004541f, -0.000101f, 0.004081f, 0.001905f, 
0.009654f, -0.013627f, 0.000079f, 0.013436f, -0.010304f, -0.005795f, 0.001723f, 0.001711f, -0.015828f, 0.003678f, 0.012483f, -0.005609f, 0.000677f, 0.010544f, -0.012133f, 0.008017f, 0.006636f, -0.001733f, -0.021301f, -0.016341f, 
0.007383f, 0.006996f, -0.013594f, -0.010352f, -0.007836f, -0.002865f, -0.003634f, 0.018550f, -0.013665f, 0.007105f, -0.004410f, 0.003842f, 0.013185f, -0.007606f, 0.015423f, 0.002357f, -0.016355f, 0.007520f, -0.013344f, -0.026079f, 
-0.007033f, 0.012755f, -0.001923f, -0.006460f, -0.002206f, 0.002454f, -0.007207f, -0.007750f, 0.003617f, -0.007011f, -0.000357f, -0.005385f, -0.009514f, 0.010342f, 0.008395f, -0.013300f, 0.001742f, 0.013807f, 0.001116f, -0.002978f, 
-0.022635f, 0.006443f, -0.000009f, -0.019226f, -0.014497f, -0.015216f, 0.003456f, -0.005487f, 0.008937f, -0.000308f, 0.001606f, -0.020569f, 0.013226f, -0.024886f, 0.001961f, -0.017874f, 0.002790f, -0.001126f, -0.003856f, 0.020058f, 
0.015789f, 0.016502f, 0.001430f, -0.012472f, -0.013212f, -0.015375f, -0.006390f, 0.000108f, -0.008216f, 0.004553f, 0.005743f, -0.002433f, -0.004624f, -0.010895f, -0.019596f, 0.004199f, 0.002613f, 0.011388f, -0.007606f, -0.016314f, 
-0.002673f, -0.000574f, 0.011509f, 0.012808f, 0.008976f, 0.006540f, 0.015575f, 0.002117f, 0.017583f, 0.000647f, 0.022682f, 0.006683f, 0.007583f, -0.004730f, -0.015701f, -0.014741f, -0.008339f, -0.012788f, 0.010062f, -0.000539f, 
0.000429f, 0.011699f, -0.002926f, 0.009067f, 0.008634f, 0.000321f, -0.005574f, -0.022155f, -0.005562f, -0.007520f, 0.002962f, 0.009975f, -0.011169f, 0.000541f, -0.005280f, -0.000532f, 0.008590f, -0.001098f, 0.017017f, -0.007222f, 
-0.013106f, 0.011132f, 0.006383f, 0.005105f, -0.004023f, -0.000242f, -0.005724f, -0.007577f, 0.000696f, 0.007373f, -0.007975f, 0.001779f, 0.014868f, 0.008464f, -0.007432f, -0.015125f, -0.002305f, 0.007683f, -0.007641f, -0.010827f, 
-0.009361f, -0.002041f, -0.012195f, -0.015619f, -0.003860f, 0.000707f, 0.017939f, -0.017306f, -0.003118f, -0.003233f, 0.003566f, 0.009527f, -0.008572f, -0.021759f, -0.004502f, 0.001911f, -0.006713f, 0.006127f, -0.006746f, -0.010795f, 
-0.005760f, 0.023109f, -0.008475f, -0.007698f, 0.011981f, -0.007297f, -0.020997f, -0.018987f, 0.002660f, -0.000061f, -0.003533f, 0.009953f, -0.009044f, -0.012444f, 0.018267f, -0.009139f, 0.017571f, -0.004609f, -0.006718f, -0.008112f, 
-0.023302f, -0.018546f, 0.002383f, -0.011515f, 0.000311f, -0.021280f, 0.009649f, 0.011234f, -0.000287f, 0.005661f, -0.006954f, -0.021953f, 0.010147f, -0.014844f, 0.010779f, 0.007235f, -0.004047f, 0.019545f, 0.015845f, 0.000445f, 
-0.007482f, 0.002955f, -0.017764f, -0.007144f, 0.011996f, -0.015337f, 0.015934f, -0.017785f, -0.016415f, -0.004550f, -0.001154f, -0.018416f, 0.003260f, -0.029974f, 0.004368f, 0.010634f, 0.006493f, 0.003837f, -0.015424f, -0.009913f, 
-0.019203f, 0.009210f, -0.020794f, 0.010203f, -0.012975f, -0.001494f, 0.000365f, 0.008609f, 0.009580f, -0.011988f, -0.012373f, 0.017075f, -0.015462f, 0.010661f, -0.003066f, 0.011923f, 0.009684f, 0.001783f, 0.001676f, 0.002654f, 
-0.025786f, -0.003028f, -0.018251f, -0.001553f, 0.002595f, -0.006858f, -0.013154f, -0.010100f, 0.008752f, -0.007565f, -0.022684f, -0.015634f, -0.014556f, 0.001232f, -0.007268f, -0.005256f, -0.004638f, -0.021224f, 0.000468f, 0.010840f, 
0.011703f, -0.013002f, 0.019366f, -0.010621f, 0.006750f, -0.005365f, -0.014553f, -0.022262f, -0.026895f, -0.005462f, -0.029105f, -0.010203f, 0.004219f, -0.021150f, -0.018864f, -0.006559f, -0.012551f, -0.024505f, -0.024441f, -0.015037f, 
0.009942f, -0.008882f, -0.008908f, 0.009313f, 0.001880f, -0.010849f, -0.013196f, -0.001309f, -0.001932f, -0.005675f, 0.009519f, 0.015036f, -0.017483f, -0.001102f, -0.011558f, -0.004893f, 0.001614f, -0.022388f, -0.013808f, -0.011360f, 
